solver_type L2R_LR
nr_class 9
label 1 3 7 2 0 4 6 5 8
nr_feature 7949
bias -1
w
0 0 0 0 0 0 0 0 0 
-0.01164758106919096 -0.007953321709760286 -0.005179575834526864 -0.005162460486933429 -0.003791590103704713 -0.005775839471273249 0.02496300670564144 -0.003674269993597387 -0.004773389077904812 
0.009620395302906015 -0.0003625398238984955 -0.001469484874926645 -0.002825521830978225 -3.34536198798936e-05 -8.468450792780578e-05 -0.001318746477228367 -1.314784245292101e-05 -3.460620425004204e-05 
0.0008356956139095311 9.129371199712781e-07 -2.486405472422125e-07 -1.472559008262166e-07 -2.048048274118239e-07 6.853363765387614e-08 -0.0004039767587621689 2.958255035373495e-08 2.369126808979731e-08 
0.002076914189523247 9.509225039345021e-06 1.971644535782654e-06 2.90011505499478e-05 1.107761383436357e-07 4.339729305102165e-07 -6.457522345283424e-06 2.176236851996767e-07 1.4648235825917e-07 
0.009227205430148745 -0.006112470538426062 0.01590629814505816 -0.009000396359801105 -0.0008786523161246975 -0.0007734773164383455 -0.01277367757869872 -0.005034048620801436 -0.003157149102638622 
6.718864995564153e-05 1.821147331141656e-05 2.956223190729626e-06 8.593814092198216e-07 1.048331449221573e-07 6.572476395865241e-07 -9.373544990438534e-07 6.014245078121859e-07 3.290186812017828e-07 
0.0008356956139095311 9.129371199712781e-07 -2.486405472422125e-07 -1.472559008262166e-07 -2.048048274118239e-07 6.853363765387614e-08 -0.0004039767587621689 2.958255035373495e-08 2.369126808979731e-08 
0.00474138252970519 8.973526888366691e-07 2.602398007704727e-07 -2.558079804810229e-05 3.916682201907975e-08 1.067497863670941e-07 -9.16900899717827e-07 6.995146192719145e-08 3.148342810871251e-08 
9.808711664846228e-05 5.673119461439952e-06 2.163609372111791e-06 4.455945387147966e-07 1.412481514705881e-07 4.822340912570092e-07 -3.717421783392347e-07 6.705432769379311e-07 9.046130893570381e-08 
-0.01468808960627192 -0.002797993894050175 -0.00205116533478795 0.02265070478904369 -0.0001660878015057208 -0.0002373505482932162 -0.00881893672382778 -0.0004791084353499617 -0.001378261965139492 
0.001761237065854464 -4.026410018862499e-07 -1.277872155112283e-06 -1.70950970003303e-06 -9.818671525837868e-06 -6.067336936324093e-08 -3.328625386833951e-05 -3.458723303610839e-08 -1.775841545822718e-08 
-0.01429118374822206 0.02621244330489463 -7.033779186901955e-05 0.008852873400260641 -0.0001057958862643877 -4.262699204422503e-06 -0.0001817997161376475 -1.731019236984557e-05 -1.142572770743357e-05 
-0.01388986394917243 -0.002626493867795809 -9.059114706329767e-05 -0.002828230039368599 -4.150002970497407e-06 -3.423840065886719e-05 -0.001686669418227625 -0.0008807551921573324 0.03989525517698468 
0.004535037734438406 9.914673886760617e-06 8.455275195495223e-06 8.593842154016992e-07 1.068734699245077e-07 4.960940654102394e-07 -1.216068437420698e-06 7.815908616689503e-07 2.431819435085441e-07 
-0.01244676959229681 -0.0009005787848292024 -0.0002800708137490058 0.0239984488661914 -4.293427471222233e-06 -6.087492652167678e-06 -0.0001047275118185571 -5.656991816708935e-06 -1.112854375518165e-06 
0.01735638856332548 -0.01146777915400206 -0.007615598320039049 -0.009479762509076816 -0.004897412819049473 -0.003419652067215912 -0.008626412526188971 -0.002451053835607668 -0.00365454732687104 
-0.03728714153252977 0.05310030223169342 -1.473583274168375e-05 -0.0006692840152208436 -0.0002109554730599634 -7.92522443430321e-06 -0.0002212360391563791 -3.421668704529132e-05 -2.279870613675797e-05 
-0.03067137864368407 0.02424171908414038 -0.00960108494530091 -0.008644152426030564 -0.001443115645751646 -0.004041140878156933 0.01901613037530625 -0.003527345681904019 -0.003799890215179748 
-1.969331217759465e-06 1.744002451264701e-05 1.338119268055683e-06 0.009777013322563826 8.835857068151311e-08 6.445477457804763e-07 -7.090737069509527e-07 9.401093615473426e-07 1.665207292363782e-07 
0.01735638856332548 -0.01146777915400206 -0.007615598320039049 -0.009479762509076816 -0.004897412819049473 -0.003419652067215912 -0.008626412526188971 -0.002451053835607668 -0.00365454732687104 
0.003410403907472139 4.285436050351576e-05 1.306384634819372e-05 0.01955415358008371 4.428159305641004e-07 6.042031398941478e-06 -2.356499702451176e-05 9.597784307017521e-06 1.91061908604385e-06 
0.0004988204402848602 -2.040395761150032e-05 0.0200075310575696 -1.045900405458349e-06 2.197980115745108e-07 8.415581750949542e-07 -2.683679628438398e-05 8.086375467811658e-07 2.180094323688132e-07 
-0.004642266941786977 1.229089606878144e-05 0.01727958374125207 1.168308997117443e-06 5.599275447873344e-08 1.820266023290366e-07 -1.349261302546719e-06 7.333723942758762e-08 4.537605180237067e-08 
-0.008047279352490753 -2.744853989429914e-06 4.323555727613312e-09 0.01270429756444755 -8.460348359556127e-07 4.054133818708242e-09 -1.72186037885078e-06 2.396620399482454e-08 -6.97465806480011e-09 
-0.01767267633339965 0.02295696304686262 -0.001731560215983908 -0.004828764752422139 -7.263628510010688e-05 -0.0005072675897184236 -0.006737305977163262 -0.0006670613564531951 -0.001268460336429274 
-0.008047279352490753 -2.744853989429914e-06 4.323555727613312e-09 0.01270429756444755 -8.460348359556127e-07 4.054133818708242e-09 -1.72186037885078e-06 2.396620399482454e-08 -6.97465806480011e-09 
0.01489842344076864 -9.468606171487169e-05 -0.0001414364043662763 -0.0002737651867042434 -0.004549465696597696 -0.000103162345929825 -0.002608867595775722 -7.958382398620971e-05 -4.826126392627929e-05 
0.02503833818808048 0.03575252483492577 -0.04340891511157294 -0.02579909557446759 -0.02704494859289609 -0.01911039312928708 0.08678033024826319 -0.01662293198834074 -0.01537948936373562 
0.06205964310637551 0.003296325049624817 -0.05392762818060137 -0.08260748016416228 -0.04274623461209758 -0.008233223156844556 0.03465173118114169 -0.01230184990410486 0.0420377207864127 
-0.01382854526027503 -0.0002096403338760431 -1.907140931640693e-05 -0.000275243997386574 -2.08416628878435e-06 -8.426908717211966e-06 0.01739798073119148 -0.00036909751968676 -3.580055625923601e-05 
0.07087946599971881 -0.05615803351262368 -0.08272219610423705 -0.0630605645126027 -0.04627393362677937 0.01567324135897032 0.05885414835759606 -0.04843443838030972 0.02653240025843345 
-0.005595247906889231 -0.007800198313403641 0.05822274446795885 -0.0005021439170908101 -8.318493041556397e-08 -7.336894579738808e-06 -6.417783964134061e-06 -1.587515399953483e-05 -1.713714558531397e-06 
0.07083943242631006 -0.05279564954151043 -0.03879652152960633 -0.012334495968581 0.03085056837434144 -0.04974553108686972 -0.1296658548360309 -0.01572521088248782 -0.009307788255011192 
-0.04026708823840611 0.005621365764632865 0.06145511683932585 0.0122168710318578 0.05864557092380999 0.004502158612143255 -0.0539133091026527 -0.01991130173009353 -0.01292372630708143 
-0.007186058727801536 -1.075492456988912e-06 -0.0001381340003023113 -3.085732082762078e-05 -2.497376481909215e-05 -2.062199040271249e-06 0.01371170241767265 -8.989481074875285e-08 -7.707276730400533e-08 
0.1471784156625033 -0.04751241200453592 -0.08599052147459417 -0.01319850960932968 -0.04649644306493977 -0.02590964388787028 -0.09808886663017842 -0.03109538931828641 0.01008707690100856 
0.00421908987900968 0.03213390928760356 -0.003422569581868866 -0.02221638246849252 -0.03303543546544305 -0.01022056549607278 -0.03052646129522779 -0.01786199171655269 -0.0154733839619981 
0.129522211017685 -0.04185273655938845 -0.05018380067774574 -0.05050753565060429 -0.04903480501387797 -0.03960190862202309 -0.04005121803540243 -0.02589003875820759 -0.02651961321468384 
0.02252536055176283 -0.001278245716618215 -0.00528053674056427 0.007798741114895176 0.03258148485557653 -0.001146190365009562 -0.01771113954318032 -0.00283299061335899 -0.0004309001742343357 
0.01735638856332548 -0.01146777915400206 -0.007615598320039049 -0.009479762509076816 -0.004897412819049473 -0.003419652067215912 -0.008626412526188971 -0.002451053835607668 -0.00365454732687104 
0.003330142972976683 1.201384819446216e-05 0.02001810764152034 -0.0006550946337162935 8.720755599383393e-07 7.63020549631356e-07 -2.102624484734736e-05 6.355429403664836e-07 4.78347038777704e-07 
0.0043543287745015 -0.0003551755067918924 -6.430520477950343e-05 -0.000589496168345999 -4.063122812286706e-07 -9.439787540277846e-07 -7.047380120136964e-05 -1.14156298970629e-06 -1.926039953499108e-07 
-0.03264806563815198 -0.0002959682642472573 0.01977424698191721 0.02524188591589681 -2.782351454696031e-05 -3.506121805435749e-06 -0.0007300311930284929 0.05053721334081566 -6.775039096792659e-06 
0.01244793713344471 0.04524626156137397 -0.07702342931460243 0.09559448218897836 -0.07177556734852894 -0.03394879968234151 -0.01693495744007455 -0.05844676530073332 -0.01908572480705768 
-0.1112697800686954 -0.0059624781582879 0.01584872344246867 0.01046627270230409 0.1426248064727991 -0.002414648724861926 0.04551434927527811 -0.0007454562572200946 -0.0005368347075878248 
-1.969331217759465e-06 1.744002451264701e-05 1.338119268055683e-06 0.009777013322563826 8.835857068151311e-08 6.445477457804763e-07 -7.090737069509527e-07 9.401093615473426e-07 1.665207292363782e-07 
0.00474138252970519 8.973526888366691e-07 2.602398007704727e-07 -2.558079804810229e-05 3.916682201907975e-08 1.067497863670941e-07 -9.16900899717827e-07 6.995146192719145e-08 3.148342810871251e-08 
-0.01053537427185556 -0.005651457904891764 -0.005587441766922467 -0.0123670888025587 -0.01546465313728462 -0.002562411423887013 0.04045163435306465 -0.0009287362771715171 -0.0006828335747275523 
-0.03241661483796419 -0.005005254925105337 -0.003428575886129846 0.01930211982388228 -0.002891911019914958 -0.001595238136879505 0.04670487835841345 -0.0007237265784250499 -0.001123427598834792 
0.02264703957760566 -0.009817159747509827 -0.008257865317423263 -0.003734304168486227 -0.00642666499561672 -0.008171233413864823 -0.008707950640869383 -0.001286174870694427 -0.001697774508553687 
-0.02034798622453745 0.02417197210396716 -0.009606895254097898 -0.008662544559785615 -0.001444337871885616 -0.004044908836356347 -0.002055506028271204 -0.003531570084155126 -0.003802007326488393 
-0.02276547304788177 0.02416346423445916 -0.009620060997316639 -0.008663435148571902 -0.001444646272500632 -0.004045206676890742 -0.002054788900612696 -0.003531681439236217 -0.003802069054205324 
-0.0188020983394654 0.02338595352289962 -0.001521453801142313 -0.003970404695004412 -7.015760780673512e-05 -0.0004702615681472653 -0.003861550799895765 -0.0005752788298503688 -0.001211769647138428 
-0.00551132889751741 -0.0001463191643312328 -0.0001150426169046173 -8.341207494571915e-05 -1.308965817866029e-05 -1.839399612111855e-06 -0.0003630793309225933 0.02526858292596482 -3.407894642143614e-06 
0.003414339832861966 7.981232688775478e-06 1.039604855656247e-05 1.445634796791337e-07 2.667980931863789e-07 4.755019043532553e-06 -2.214955041617812e-05 7.718823424566308e-06 1.578407554600092e-06 
0.01852595676025852 -0.003182289846026557 -0.0005108072501178085 0.008125168722786118 -9.81029265375664e-05 -0.000381138687122018 -0.004093680216705397 -5.438828054037583e-05 -9.593827994603882e-05 
-0.02468543064035774 -0.01808092601496762 -0.01055913652658743 0.009042993574837217 0.03659916562022789 -0.005194895677672733 -0.02111818793376668 0.02056170413141502 -0.003014319113800518 
-0.1012647212380773 0.0128450520498069 -0.08718766321509495 0.08293931401989603 -0.09389512106488319 0.1407233186875831 0.01329010265104028 0.0058397617137761 -0.07588416524563794 
-0.02717134410752192 0.01739884809591685 -0.006531810127333611 0.009903807317172319 -0.003723282988352429 -0.002377486707402462 0.04860757756814932 -0.002165519252111993 -0.003096219991117469 
0.002417487683680743 8.489646373586368e-06 1.312735341599558e-05 8.874739516949308e-07 3.080819121287618e-07 2.970044634529031e-07 -7.160839027619198e-07 1.10968740604923e-07 6.153533495679679e-08 
0.007376881442406179 -0.0001897865288049701 -2.090425586024946e-05 -0.0001026124542073046 -9.550579628726603e-06 7.109886031379807e-07 0.01015260332494505 5.873542702554245e-07 3.882528877868937e-07 
0.006115565440569863 -0.000355577944543236 -6.558271170456376e-05 -0.0005912056472270377 -1.022495715804277e-05 -1.004559918514183e-06 -0.0001037600548615541 -1.176096623351736e-06 -2.103386509739979e-07 
-0.06278891328022529 0.07004721199212691 -0.004821501447417114 -0.01240771984767217 -0.0002144176313378981 -0.001483303467698059 -0.01699668244544334 -0.001907607898769685 -0.003748556926733784 
0.0316943055721019 -0.001180051131933047 -0.0004190391023201259 -0.00237875367253988 -2.740503010951757e-06 -7.033565256335379e-05 -0.00663924802388373 -0.0001819452771341383 -0.0001120865626209541 
-0.00761178782105475 -0.0008835967067745711 -0.0002538165522484097 0.02400023525186753 -3.677498757339444e-06 -5.494609390583185e-06 -0.0001061607377575702 -5.435554488056822e-06 -9.901350515391363e-07 
0.03056348743082193 -0.0002129783385421808 -0.002727457802266524 -0.000167428106228734 -0.004799249389126823 -3.785827938380206e-05 0.007257695838207201 -4.957008455121941e-05 -1.176961509124714e-05 
0.007087006894095739 -3.963654792454342e-05 -0.0001210047892176242 -0.0003046440941652998 -5.148100350596131e-07 -3.297206514044917e-05 -0.003008844560378994 -8.794147993095192e-05 -5.514915556878556e-05 
0.0005751190655700393 9.275512769533679e-07 7.280290036994098e-07 2.121431592760046e-07 3.16636119004961e-07 2.007315297230385e-07 -3.485555651576743e-07 5.657798398383847e-07 2.001581753166681e-07 
-0.03306013892437284 -0.03641633019475458 -0.001618863656546124 0.08471972522508266 -0.0005594323171012944 -0.0001161812355575723 -0.02785419387530391 -0.0006122009381235939 -0.0006924593818747323 
-0.0237368175377798 0.02334208104360793 -0.002178625898091839 -0.005291961634823523 -0.0004973982938208576 0.02211065481493168 -0.004548886230047762 -0.0007094291223701907 -0.001326560230380012 
0.002282793272449516 -4.687149448883448e-05 -2.416163269308557e-05 -4.123431291148805e-05 5.22592449006482e-09 3.875152947927953e-08 -0.000198252565852072 2.842731857332707e-09 -1.913580335710832e-08 
0.02944582167751267 0.01938969354573882 -0.003569461064686122 -0.01194161673748494 -0.0006492907413045981 -0.00110381975915556 -0.01837681072719775 -0.001528889729312898 -0.00272273992779651 
-0.01860420341126905 -0.02623625138034083 -0.01337601516232654 0.02535896637159003 -0.01496304106460191 0.008067473797944036 -0.01730268755261832 0.04366113066405795 -0.01339611466830737 
0.006846080998120677 -0.0002637197947501099 -0.0004918922309657015 -0.001323191000489381 -0.0001223264935666046 -0.0001097544286962235 -0.006351616380406315 -0.0002941893114563188 -0.0002203413935293459 
0.0005751190655700393 9.275512769533679e-07 7.280290036994098e-07 2.121431592760046e-07 3.16636119004961e-07 2.007315297230385e-07 -3.485555651576743e-07 5.657798398383847e-07 2.001581753166681e-07 
0.007244796162960835 -0.0001590773839065014 -0.0003689986023909306 -0.001413812007017335 -0.0002381558025554232 -7.96589762333548e-05 -0.0006659735437304811 -0.0002288355287551327 -0.0002162814987880653 
-0.02356954679926665 0.02340608335035356 -0.001513384220329988 -0.003930920303254724 -7.057554523891609e-05 -0.0004712540039619462 -0.003661643643557416 -0.0005759938887132031 -0.001212141047797195 
-0.01935936570928135 -0.0002074827737476609 0.01998527012259587 -0.0002750978972284904 -2.036419603330158e-06 -8.262570421296265e-06 0.01739755177948862 -0.0003690074977475735 -3.574586296907966e-05 
-0.0119275407475848 -0.0008981658806447248 -0.0002795699697563498 0.02400575407806844 -4.26528788189683e-06 -5.977132347046069e-06 -0.0001063478748548385 -5.601557042265968e-06 -1.075619292857168e-06 
0.008708655176191567 -0.0007103514980109729 -0.0001286100344934478 -0.00117899195571165 -8.126088369010643e-07 -1.887795812299344e-06 -0.0001409470868018258 -2.283017239190722e-06 -3.851975225681943e-07 
-0.0005620455265974203 -0.0004449151039104384 -0.003211495269837356 -0.0007335186509632171 -0.001463312939289035 0.01884188088431364 -0.004649904539509053 -0.001229196370046873 -0.000583367444905474 
0.002282793272449516 -4.687149448883448e-05 -2.416163269308557e-05 -4.123431291148805e-05 5.22592449006482e-09 3.875152947927953e-08 -0.000198252565852072 2.842731857332707e-09 -1.913580335710832e-08 
-0.06328543891936485 -0.01804229586714982 0.01604360356297712 0.03161039065285887 0.03557138977142354 0.06321229174451994 0.05466362576296436 -0.02007087376453685 0.005155796243885261 
-0.06582695914097855 0.02487509323977534 0.02519444319820613 -0.06695803199600175 0.001267025896801689 -0.01745051031267349 -0.04381947353000196 0.07872714389673263 -0.02120154073671248 
0.01504808713981957 -0.002102888822062695 5.508556510043779e-06 -6.239251653039638e-05 -7.807529730269874e-06 -1.579439565002861e-05 -0.001245680279974758 -0.000137803625594232 -3.280530388523504e-05 
0.1157044834784138 0.203804038467429 -0.3445427856602683 -0.08031377553518471 -0.3642098501460034 -0.2996572081765805 -0.1319401360663199 -0.161487822658501 -0.07912656821318555 
0.002069044067825535 -0.0005297305485937911 -0.0003424474771277597 -0.0004921477976385664 -0.0002473194616261678 -0.000712167731261388 0.005507886691741101 -0.0001078623410159451 -0.0002381647295800713 
-0.02428515074048099 -0.008845349204787538 -0.01003975927314296 0.08462603812170447 -0.002224923780477228 -0.006086186914468822 -0.01802675620616476 -0.004449708622731767 -0.007480805685446864 
0.0005192283517981938 2.411212366334558e-06 5.006587151730831e-07 7.252738142366272e-06 2.812929718259835e-08 1.103224718267045e-07 -1.620020459575204e-06 5.540214570242704e-08 3.722107856931102e-08 
0.0429042575198664 -0.002952059450960654 -0.0006766215750065352 -0.004989992827591876 -0.004553245746667695 -0.0001202053825793735 -0.003128344035852944 -0.0001041417972246615 -5.29556814974325e-05 
0.005293232726203633 -4.645422710183968e-07 -8.772271815026753e-07 -0.0006565514669620077 -1.161915538870874e-07 -9.634702598367016e-08 -1.918784781674249e-05 -6.951437997069808e-07 -3.70552889253463e-08 
0.008069738554557372 -0.0001106483493518983 -0.0001622289314887296 -0.0002740544094606807 -0.00455000030544039 -0.0001126725190015503 -0.002564567699211659 -9.502175458326393e-05 -5.141801509188586e-05 
0.009258270560617234 -0.003135337500221136 -0.004254176107860584 -0.007830942696911002 -0.002701705578827801 -0.001225197927106972 -0.003715224672798202 -0.002368946891510865 -0.002170848285151071 
0.0043543287745015 -0.0003551755067918924 -6.430520477950343e-05 -0.000589496168345999 -4.063122812286706e-07 -9.439787540277846e-07 -7.047380120136964e-05 -1.14156298970629e-06 -1.926039953499108e-07 
0.003085101142059 -0.0001878475806944683 -0.0003077431506264295 -0.0006166950041243884 -3.30902729673548e-06 -7.014012316095762e-05 -0.006010371911312027 -0.000179852547996066 -0.0001122538544509327 
-0.001119048407693747 -0.00156002761464698 0.01164458864942077 -0.0001004280401794015 -1.646535322280489e-08 -1.467143623024491e-06 -1.288306383686792e-06 -3.174774917519081e-06 -3.426026795660138e-07 
0.06312671146539531 -0.01293974019797495 -0.004919083231947279 -0.008738526593962728 -0.00315999757305172 -0.003274229403981681 -0.01925825569619388 -0.003900234073614381 -0.002651775041768342 
0.02546188401466526 -0.01388729834180359 0.0213666346618624 -0.01845283654661559 -0.004771190135533314 -0.008005262913579449 0.02626315051704941 0.01865621326742909 -0.008888843148959963 
-0.02356954679926665 0.02340608335035356 -0.001513384220329988 -0.003930920303254724 -7.057554523891609e-05 -0.0004712540039619462 -0.003661643643557416 -0.0005759938887132031 -0.001212141047797195 
0.04739548039494638 -0.101327090072093 -0.05499848085238054 -0.04972550069150335 -0.06786709024420001 -0.09479757187216312 -0.1276451189534988 -0.004692485514598939 -0.1235390341417342 
0.01219505325247863 -0.0001201985507870913 -0.006610907744815589 -0.001104305051719889 -1.044365806728537e-05 -1.887530707653465e-06 -0.002104790856756634 -2.918674273589608e-06 -7.790245748348403e-06 
0.005293232726203633 -4.645422710183968e-07 -8.772271815026753e-07 -0.0006565514669620077 -1.161915538870874e-07 -9.634702598367016e-08 -1.918784781674249e-05 -6.951437997069808e-07 -3.70552889253463e-08 
0.02199942710803802 -0.006343791653064451 -0.004127347716005609 -0.009079727592817131 -0.0008889124113494427 -0.0007747174125439531 -0.01316084972726905 -0.005035334542968716 -0.003157952994217387 
-0.01020293448133971 -2.75223500912474e-06 1.717405412581686e-06 0.02538342081066026 -1.020086502488908e-06 5.144383843340126e-07 -5.051138240256715e-06 1.24839663572175e-06 4.172436051514348e-07 
-0.007210824813070199 -0.0002475839883859692 -0.000699693348828552 -0.001261944492450545 0.0154977175090336 -0.0002828416081886208 -0.00185976622523934 -0.0008347846276464865 -8.653010221653949e-05 
0.002417487683680743 8.489646373586368e-06 1.312735341599558e-05 8.874739516949308e-07 3.080819121287618e-07 2.970044634529031e-07 -7.160839027619198e-07 1.10968740604923e-07 6.153533495679679e-08 
0.001542551118984378 -9.392590599425117e-05 -0.0001538723667237943 -0.000308347238749279 -1.654588640683535e-06 -3.507037211601046e-05 -0.003005190453826014 -8.992653708886677e-05 -5.612703976591212e-05 
-0.01301653792715589 -4.421933407063967e-06 -0.0005073328197797323 -0.000656287674485416 -0.0003084245111089326 0.02262100545403187 -0.0005517132110804297 -1.930982941304533e-05 -6.441974945796537e-06 
-0.04545953737801375 0.05095705159653927 -0.001254124130263936 -0.02725163011062632 -0.01830723082909599 -0.0155733459752652 -0.03536882076786316 -0.01886244149320052 -0.02006149913622717 
0.05006302113870546 0.007135626426124137 -0.08370535380853314 -0.03488883833407037 -0.04679476448798775 -0.01885946473979485 -0.1055156939396816 -0.01908184679368688 -0.005302704252065985 
-0.01274146230419606 -1.052184776685322e-05 -1.251077950045909e-05 -1.179507859215356e-05 0.01975725862011122 -2.074555618451425e-07 -0.0002017688548930184 -6.289093115341862e-08 -3.244057936272585e-08 
-0.02356954679926665 0.02340608335035356 -0.001513384220329988 -0.003930920303254724 -7.057554523891609e-05 -0.0004712540039619462 -0.003661643643557416 -0.0005759938887132031 -0.001212141047797195 
0.007252461985730894 2.5438286213013e-05 3.936160350553617e-05 2.660797042184513e-06 9.22758360105794e-07 8.843760467772739e-07 -2.145449221637449e-06 3.293452381057626e-07 1.824606304975506e-07 
0.007044941936717009 -1.598725048788733e-06 -5.09390442083802e-06 -6.83647377630583e-06 -3.92732773802034e-05 -2.389194123559666e-07 -0.0001331486545742384 -1.362619286819917e-07 -6.975910752651076e-08 
0.001542551118984378 -9.392590599425117e-05 -0.0001538723667237943 -0.000308347238749279 -1.654588640683535e-06 -3.507037211601046e-05 -0.003005190453826014 -8.992653708886677e-05 -5.612703976591212e-05 
0.02721028826906651 5.923275692465044e-05 5.04766052529491e-05 5.128691242236267e-06 6.226874236832555e-07 2.911829202787728e-06 -7.216174652367377e-06 4.643661945163209e-06 1.433582911075336e-06 
0.004535037734438406 9.914673886760617e-06 8.455275195495223e-06 8.593842154016992e-07 1.068734699245077e-07 4.960940654102394e-07 -1.216068437420698e-06 7.815908616689503e-07 2.431819435085441e-07 
-0.0002685772176924799 0.01708615501055149 -0.000713380355816882 -0.006228400659014953 -0.001096112483934019 -2.752680949151148e-06 -0.003471489398110009 -2.574501982218588e-05 -7.327101591972974e-05 
6.718864995564153e-05 1.821147331141656e-05 2.956223190729626e-06 8.593814092198216e-07 1.048331449221573e-07 6.572476395865241e-07 -9.373544990438534e-07 6.014245078121859e-07 3.290186812017828e-07 
-0.07067597316380191 0.0725375228859408 -0.01182687008067522 -0.04232158197704364 -0.002879608399522374 -0.01632932152119856 -0.04089109488183882 -0.02027630413811956 -0.02136033678796226 
-0.01054293695120323 -0.002623566386968307 -9.05471068349412e-05 -0.002824902021286299 -4.158307820690724e-06 -3.426888768890805e-05 -0.001681425631031208 -0.0008807850233693459 0.01700497163164427 
0.09189497867300948 -0.05876785092900172 -0.0155257528535893 -0.06520866657616606 -0.02687906304345516 -0.01735647065815391 -0.0105197449598114 -0.0170270002301143 -0.01983129787952423 
-0.01645941021802574 -9.671127487142463e-05 -0.0001252327203582573 -0.0002646613080386869 0.0197024650457848 -1.524199657207707e-05 0.009804079257781687 -2.682743271299943e-06 0.04577568059962468 
0.002417487683680743 8.489646373586368e-06 1.312735341599558e-05 8.874739516949308e-07 3.080819121287618e-07 2.970044634529031e-07 -7.160839027619198e-07 1.10968740604923e-07 6.153533495679679e-08 
-0.02837225405087034 0.03690092742429091 -0.01921106539461576 -0.02445856107775606 -0.01968651444608758 0.005908138116021349 -0.03054519264606978 -0.02142478977235747 -0.0220356144881549 
0.03381927230562339 0.002177071079302442 -0.07674656018078541 -0.009807280026639565 -0.04609667942069774 -0.03924272874328369 -0.1251174345959621 -0.05986405256132313 -0.06145120454488604 
-0.02276547304788177 0.02416346423445916 -0.009620060997316639 -0.008663435148571902 -0.001444646272500632 -0.004045206676890742 -0.002054788900612696 -0.003531681439236217 -0.003802069054205324 
0.01611043283768716 -0.003208230194821951 -0.0005252741232140907 -0.00165273443629534 -9.849926969148985e-05 -0.0003820802229273373 -0.004092252682119581 -5.543925065792578e-05 -9.61662021034113e-05 
0.002282793272449516 -4.687149448883448e-05 -2.416163269308557e-05 -4.123431291148805e-05 5.22592449006482e-09 3.875152947927953e-08 -0.000198252565852072 2.842731857332707e-09 -1.913580335710832e-08 
0.004546419184573855 -1.790070856289167e-05 -0.003298019749449137 -0.0001803862326038762 -5.013312628313929e-06 -3.110633469056066e-07 -0.000434549087300728 -1.166644986580199e-06 -2.568721794021314e-07 
0.006809302375382542 -0.0005317734028865711 -0.0003446964688380508 -0.0004925784024442892 -0.0002477328038811461 -0.0007125351988584628 -0.005035121079631895 -0.0001083722481977978 -0.0002386127720196163 
0.01982059518515981 -0.002896622663189744 -0.0005970982787998696 -0.006666042016869644 -0.0020752016084994 -0.000266683748928714 -0.0009479651160025622 -0.0004034416031660299 -0.0003432453298379581 
6.718864995564153e-05 1.821147331141656e-05 2.956223190729626e-06 8.593814092198216e-07 1.048331449221573e-07 6.572476395865241e-07 -9.373544990438534e-07 6.014245078121859e-07 3.290186812017828e-07 
0.001557685370885599 7.178688516052662e-06 1.48939122700856e-06 2.175424891837224e-05 8.368060580654561e-08 3.279946160261365e-07 -4.850925627542261e-06 1.645873122169825e-07 1.106875553207141e-07 
0.004535037734438406 9.914673886760617e-06 8.455275195495223e-06 8.593842154016992e-07 1.068734699245077e-07 4.960940654102394e-07 -1.216068437420698e-06 7.815908616689503e-07 2.431819435085441e-07 
0.007024175826171724 -4.597476236130648e-05 -2.390140458688453e-05 -6.681514093733116e-05 4.437302805626664e-08 1.454245597642795e-07 -0.0001991691878264618 7.277008090948877e-08 1.232686194719904e-08 
6.718864995564153e-05 1.821147331141656e-05 2.956223190729626e-06 8.593814092198216e-07 1.048331449221573e-07 6.572476395865241e-07 -9.373544990438534e-07 6.014245078121859e-07 3.290186812017828e-07 
0.002076914189523247 9.509225039345021e-06 1.971644535782654e-06 2.90011505499478e-05 1.107761383436357e-07 4.339729305102165e-07 -6.457522345283424e-06 2.176236851996767e-07 1.4648235825917e-07 
0.002417487683680743 8.489646373586368e-06 1.312735341599558e-05 8.874739516949308e-07 3.080819121287618e-07 2.970044634529031e-07 -7.160839027619198e-07 1.10968740604923e-07 6.153533495679679e-08 
0.0043543287745015 -0.0003551755067918924 -6.430520477950343e-05 -0.000589496168345999 -4.063122812286706e-07 -9.439787540277846e-07 -7.047380120136964e-05 -1.14156298970629e-06 -1.926039953499108e-07 
0.0347999802637119 -0.006571798685986265 -0.01224373713472634 -0.02090911777842635 -0.007444898452739168 -0.005253949681441846 -0.02015527153041304 -0.004792028700169571 -0.004234928623303073 
0.001038456782936611 4.808559604913117e-06 9.981365035220361e-07 1.45044767086216e-05 5.607977574465863e-08 2.198932854368617e-07 -3.237736474989632e-06 1.103948844152184e-07 7.419549875612941e-08 
-0.002741463785494944 -0.003454721362772104 0.01255098485496615 0.001211329601845592 -0.004164410410450597 0.01762018868149352 -0.008358853911776671 -0.00359466485920422 -0.002752693100394211 
0.01051304714481289 -0.00211280796748206 -2.946462158170683e-06 -6.325200492994368e-05 -7.914400358008846e-06 -1.62904966734795e-05 -0.001244463384785372 -0.00013858536937429 -3.304849126894974e-05 
0.01118993313036431 -0.0008054051530998433 -0.0004359926172275556 -0.001132027846186471 -1.632120999606656e-06 -2.773989835625236e-05 -0.001084286610401499 -0.0008719347095078383 -0.0001033920091674004 
0.0005192283517981938 2.411212366334558e-06 5.006587151730831e-07 7.252738142366272e-06 2.812929718259835e-08 1.103224718267045e-07 -1.620020459575204e-06 5.540214570242704e-08 3.722107856931102e-08 
0.01611043283768716 -0.003208230194821951 -0.0005252741232140907 -0.00165273443629534 -9.849926969148985e-05 -0.0003820802229273373 -0.004092252682119581 -5.543925065792578e-05 -9.61662021034113e-05 
0.01004858776416686 -0.00612055421835009 0.0131785627194785 -0.009000233003535637 -0.0008787489258650698 -0.0007741169048872854 -0.01277366013418265 -0.005034668098621305 -0.003157487905011428 
0.004631762252540144 2.80339042655879e-05 1.47983984162979e-05 1.426781458227321e-06 1.004203502800107e-06 5.81090006996758e-06 -2.378032421633818e-05 9.450274068944445e-06 2.306826961099074e-06 
-0.08733289052008703 0.09348877133240981 -0.006123832088375704 -0.01584703119898387 -0.0002821415831207 -0.001884412380658053 -0.01524156890259784 -0.00230329553408352 -0.004848545935510636 
0.008703146787278831 -0.0005317290409854108 -0.001044657390885136 -0.001944270048546002 -0.0002616556453913174 -2.557593210185015e-05 -0.002763011189001471 -0.0004486636571945609 -2.44261189211923e-05 
-0.01083486244394719 -0.01061427414010086 -0.009940627112829179 -0.007135265159622715 0.03684319863701647 -0.005130004604692115 -0.01491362424681772 -0.004470051323977165 -0.002764282735111131 
0.009258270560617234 -0.003135337500221136 -0.004254176107860584 -0.007830942696911002 -0.002701705578827801 -0.001225197927106972 -0.003715224672798202 -0.002368946891510865 -0.002170848285151071 
0.005931565518145525 -2.822914341119167e-05 1.00948695539493e-06 -1.637028430858994e-06 3.104484408271916e-08 1.958856424257373e-07 -2.603686348726357e-05 4.87230648690345e-08 7.318114772492246e-08 
-0.0121167492377657 -0.005384910339015089 -0.005645288335321874 -0.008650089532682767 -0.0005804160689815406 -0.00208819266615065 -0.005976288086559148 0.0224641422711597 -0.0039669496577301 
0.02001290907654693 -0.005799219706317124 -0.00895860838527017 -0.0127398241944028 -0.005046282879233414 -0.005315753153667317 -0.008610084673704423 -0.004083612517373614 -0.004487868837684209 
0.003255663182273982 -3.624854778870079e-07 -1.139264465359878e-06 -1.224175143436204e-05 -4.091466849967447e-07 8.586488799943889e-09 -3.660150864045461e-07 1.011490952613915e-07 -6.17401728187734e-09 
0.01802895605024495 -0.004637793060048729 -0.001683792424220232 -0.00218901004421469 -1.3371728133515e-05 -2.894047684432772e-05 -0.001420751675850278 -0.0001050932976314144 -3.741172748696638e-05 
0.0043543287745015 -0.0003551755067918924 -6.430520477950343e-05 -0.000589496168345999 -4.063122812286706e-07 -9.439787540277846e-07 -7.047380120136964e-05 -1.14156298970629e-06 -1.926039953499108e-07 
0.002417487683680743 8.489646373586368e-06 1.312735341599558e-05 8.874739516949308e-07 3.080819121287618e-07 2.970044634529031e-07 -7.160839027619198e-07 1.10968740604923e-07 6.153533495679679e-08 
-0.006067976258176748 0.03417431243861005 0.01857754213679597 -0.0124566499891438 -0.0021921787082821 -5.340371025522588e-06 -0.006943410749391869 -5.139963370481525e-05 -0.0001464870747276077 
-0.02356954679926665 0.02340608335035356 -0.001513384220329988 -0.003930920303254724 -7.057554523891609e-05 -0.0004712540039619462 -0.003661643643557416 -0.0005759938887132031 -0.001212141047797195 
0.03358502019440202 -0.003363898933921174 -0.006991610159600103 -0.008006506496897572 -0.007501701107164166 -0.001265181153986249 -0.006969900455739561 -0.002420397655752734 -0.002183870992818868 
0.01611043283768716 -0.003208230194821951 -0.0005252741232140907 -0.00165273443629534 -9.849926969148985e-05 -0.0003820802229273373 -0.004092252682119581 -5.543925065792578e-05 -9.61662021034113e-05 
-0.008047279352490753 -2.744853989429914e-06 4.323555727613312e-09 0.01270429756444755 -8.460348359556127e-07 4.054133818708242e-09 -1.72186037885078e-06 2.396620399482454e-08 -6.97465806480011e-09 
-0.01247030998850158 -0.0002479541001983021 -0.0006979450077545828 -0.001268770169203635 0.01549810455030768 -0.0002825846738724785 0.0086848571624575 -0.0008343299196548397 -8.611936158193828e-05 
0.03356979723018604 -0.002416203412813027 -0.001307969910108832 -0.003396101515682724 -4.895399052407648e-06 -8.32159132785291e-05 -0.003252872811880981 -0.002615809191896088 -0.000310174702100721 
0.001298439180901923 -0.001551536335513816 0.01165776438587928 -9.954061962540814e-05 2.915574384515396e-07 -1.170364074349116e-06 -2.004078129188066e-06 -3.063940848767048e-06 -2.811510052661534e-07 
0.006964065067593551 -0.0003474925455485935 0.01581128153826021 -0.002824075563915356 -3.296947410997412e-05 -8.403357234059624e-05 -0.001724769550632334 -1.191397733520438e-05 -3.413721547006588e-05 
0.007716148338007289 -8.23779204886634e-05 -0.0001148836731531133 -0.0002466408142725388 -5.522476430685407e-05 -1.546254829915294e-05 -0.0005266681268895101 -3.18921644513596e-06 -5.299498597984449e-06 
-0.004740259978419157 2.041429498301034e-06 2.248332458268715e-06 4.302897034429266e-07 4.132139528019093e-07 3.672356674293444e-07 0.01054300299281937 5.09832009044732e-07 4.479319871604904e-07 
0.0043543287745015 -0.0003551755067918924 -6.430520477950343e-05 -0.000589496168345999 -4.063122812286706e-07 -9.439787540277846e-07 -7.047380120136964e-05 -1.14156298970629e-06 -1.926039953499108e-07 
0.0043543287745015 -0.0003551755067918924 -6.430520477950343e-05 -0.000589496168345999 -4.063122812286706e-07 -9.439787540277846e-07 -7.047380120136964e-05 -1.14156298970629e-06 -1.926039953499108e-07 
0.009620395302906015 -0.0003625398238984955 -0.001469484874926645 -0.002825521830978225 -3.34536198798936e-05 -8.468450792780578e-05 -0.001318746477228367 -1.314784245292101e-05 -3.460620425004204e-05 
0.002282793272449516 -4.687149448883448e-05 -2.416163269308557e-05 -4.123431291148805e-05 5.22592449006482e-09 3.875152947927953e-08 -0.000198252565852072 2.842731857332707e-09 -1.913580335710832e-08 
0.004546419184573855 -1.790070856289167e-05 -0.003298019749449137 -0.0001803862326038762 -5.013312628313929e-06 -3.110633469056066e-07 -0.000434549087300728 -1.166644986580199e-06 -2.568721794021314e-07 
0.004535037734438406 9.914673886760617e-06 8.455275195495223e-06 8.593842154016992e-07 1.068734699245077e-07 4.960940654102394e-07 -1.216068437420698e-06 7.815908616689503e-07 2.431819435085441e-07 
0.002417487683680743 8.489646373586368e-06 1.312735341599558e-05 8.874739516949308e-07 3.080819121287618e-07 2.970044634529031e-07 -7.160839027619198e-07 1.10968740604923e-07 6.153533495679679e-08 
-0.01741699468072799 -4.513020939833732e-06 -0.0001841756950440778 -0.0004233147528419506 -7.212533395871306e-05 -1.937325283938073e-05 0.03551963820770758 -4.580334845430169e-05 -7.145439400975966e-06 
6.718864995564153e-05 1.821147331141656e-05 2.956223190729626e-06 8.593814092198216e-07 1.048331449221573e-07 6.572476395865241e-07 -9.373544990438534e-07 6.014245078121859e-07 3.290186812017828e-07 
-0.04711539372677092 -0.01307852074406079 -0.003016815174862714 -0.02811499088175405 0.04703640607945369 -0.01470834411556691 0.004191897894936777 -0.008921040267489765 0.01474841274257266 
0.01611043283768716 -0.003208230194821951 -0.0005252741232140907 -0.00165273443629534 -9.849926969148985e-05 -0.0003820802229273373 -0.004092252682119581 -5.543925065792578e-05 -9.61662021034113e-05 
0.03644351796459458 -0.01572137606350455 -0.009170634223459111 -0.007571795911907683 -0.0002041198594013817 -0.0002574005996174527 -0.004508308149893418 -0.001371538684867495 -0.0005326476369776331 
0.004391900528947917 2.995516827273531e-06 3.153221497398524e-07 3.752630687552564e-07 6.324834166501319e-08 1.50026913425304e-07 -1.102289229708167e-06 7.062968137081684e-08 4.069362135689959e-08 
-0.02128675719338751 0.02335921130800034 -0.001537544948578763 -0.003972154410690278 -7.057026898998697e-05 -0.0004712150323728333 -0.003859895424780649 -0.0005759909160890497 -0.001212160100193556 
0.01461716038396878 -0.0004218557981757131 -5.272702405288288e-05 -0.0001566414136982281 -2.021473006344359e-05 -8.362600490909815e-07 -0.000777088245077257 -1.185400073953121e-06 -8.390554284578353e-07 
-0.008047279352490753 -2.744853989429914e-06 4.323555727613312e-09 0.01270429756444755 -8.460348359556127e-07 4.054133818708242e-09 -1.72186037885078e-06 2.396620399482454e-08 -6.97465806480011e-09 
-0.007068491691170421 -0.007273874411517693 -0.0003189582536798934 0.01695232871117014 -0.0001118888808672707 -2.324961579584714e-05 -0.005531275556622182 -0.0001224436830088023 -0.0001384897418358248 
0.0101396239163953 -0.0003601280613486331 -0.001468983782743416 -0.002818261768239323 -3.342548476043509e-05 -8.457415694965909e-05 -0.001320367610881907 -1.309242879373562e-05 -3.456897749060538e-05 
-1.969331217759465e-06 1.744002451264701e-05 1.338119268055683e-06 0.009777013322563826 8.835857068151311e-08 6.445477457804763e-07 -7.090737069509527e-07 9.401093615473426e-07 1.665207292363782e-07 
0.0005192283517981938 2.411212366334558e-06 5.006587151730831e-07 7.252738142366272e-06 2.812929718259835e-08 1.103224718267045e-07 -1.620020459575204e-06 5.540214570242704e-08 3.722107856931102e-08 
-0.003346928706064278 -2.928908625584534e-06 -4.465712805796703e-08 -3.328190599115831e-06 8.274198328711029e-09 3.035716840798292e-08 -5.243424288545413e-06 2.97266163291481e-08 0.02289028842955134 
0.002282793272449516 -4.687149448883448e-05 -2.416163269308557e-05 -4.123431291148805e-05 5.22592449006482e-09 3.875152947927953e-08 -0.000198252565852072 2.842731857332707e-09 -1.913580335710832e-08 
0.001551105988615095 -4.220752873839226e-05 -7.44292917340036e-06 -0.0003717672884829333 -2.084267195679952e-07 -6.319858026011449e-07 -0.0006178424604988084 -2.923726590642963e-07 -3.638139804593968e-06 
-0.05893861572093961 -0.0004142763040609792 -0.0004606330385992994 0.05659100161629215 -0.0004320120399983416 -0.0007758872450199125 0.1665375883438568 -0.0002832887250812057 -0.0002623545681684879 
0.008069738554557372 -0.0001106483493518983 -0.0001622289314887296 -0.0002740544094606807 -0.00455000030544039 -0.0001126725190015503 -0.002564567699211659 -9.502175458326393e-05 -5.141801509188586e-05 
-0.01754735855875502 -0.0004428689021606112 -0.0006921976277542854 -0.001297862570068313 -0.002241602025603849 -9.197862508005828e-05 0.02896327267264438 -1.596218199782991e-05 -3.673213030419443e-05 
-0.002238097113072299 -0.003120058255824648 0.02328916822207156 -0.000200856273013096 -3.297514660346004e-08 -2.934347251397824e-06 -2.575374972357084e-06 -6.34961606920614e-06 -6.852413107880034e-07 
0.05470121942557487 -0.04441181816288528 -0.03666375735312394 -0.04386121914290895 -0.03035121141562953 -0.02686017160213125 -0.05709043672524573 -0.02717984529981831 -0.04042859462951026 
0.01611043283768716 -0.003208230194821951 -0.0005252741232140907 -0.00165273443629534 -9.849926969148985e-05 -0.0003820802229273373 -0.004092252682119581 -5.543925065792578e-05 -9.61662021034113e-05 
0.001761237065854464 -4.026410018862499e-07 -1.277872155112283e-06 -1.70950970003303e-06 -9.818671525837868e-06 -6.067336936324093e-08 -3.328625386833951e-05 -3.458723303610839e-08 -1.775841545822718e-08 
0.0106239995572199 4.381927144814126e-05 -5.729596819860573e-06 0.01955062856329476 -1.66090478262056e-05 2.480720053618906e-06 -0.0001526623575689583 7.024698466478563e-06 2.10843687284156e-06 
0.01863889796388097 -0.00977311081020088 -0.008235898408148788 -0.003693709609930798 -0.006427622541880429 -0.008171877954773825 -0.008508645668459372 -0.001287877126320316 -0.001698356877060682 
-0.02281994958180079 -0.003026940798045365 0.01194800681457439 0.04760582700790097 -0.0001742696489089472 -0.0002445861003592627 0.00811025431079989 -0.0008473550593439541 -0.001413756853620007 
0.004535037734438406 9.914673886760617e-06 8.455275195495223e-06 8.593842154016992e-07 1.068734699245077e-07 4.960940654102394e-07 -1.216068437420698e-06 7.815908616689503e-07 2.431819435085441e-07 
-0.01942834935306277 -0.002795949631292817 -0.002048914308068413 0.02265113755987078 -0.0001656744800220739 -0.0002369831603871094 0.001724073780267473 -0.0004785983249306008 -0.001377813648623389 
0.02277034230132197 -0.00463689294116711 -0.001683531218391567 -0.002214590720225317 -1.333252326607083e-05 -2.883357948151023e-05 -0.001421669291915197 -0.0001050232181025499 -3.73801874863948e-05 
0.01886409558617646 -0.00784153538972907 -0.004581609699502043 -0.003784831929971019 -0.0001016386592361671 -0.0001278432416303419 -0.00225544543935648 -0.0006846012659937547 -0.0002657947864453976 
0.007308571435092687 -0.0002109311804245838 -2.636584322436917e-05 -7.832107916976422e-05 -1.010750781567698e-05 -4.186406646746835e-07 -0.000388542909963184 -5.929784927105612e-07 -4.197062815743443e-07 
-0.1457505695850363 0.03281003952985196 -0.03107742209511528 0.07809443378470357 0.09752834917356774 -0.08427787977145236 0.1878024405692944 -0.1266800643400726 -0.02102090030621238 
0.02116469879409084 -0.00319589896764992 -0.0005163177652104434 -0.001644617896154125 -9.836433985979953e-05 -0.0003814738864367248 -0.004095092072867411 -5.460239745358193e-05 -9.588590677791425e-05 
-0.01550938760318051 -0.004186690843092905 -0.003262251351102309 -0.004930721749201322 -0.002942433551012499 -0.00160462257956916 0.04628330631747713 -0.0007213604881073845 -0.001127608331185247 
-0.01244676959229681 -0.0009005787848292024 -0.0002800708137490058 0.0239984488661914 -4.293427471222233e-06 -6.087492652167678e-06 -0.0001047275118185571 -5.656991816708935e-06 -1.112854375518165e-06 
-0.1002031160247646 0.06047159988884334 -0.05337570340510664 -0.0605003258617043 -0.03427331612931422 -0.01247289010869419 -0.06122781188859218 0.06397029778140276 -0.009570357970652987 
-0.004742227826376075 1.947890938269928e-05 3.584549614956554e-06 0.009777444638225351 5.014367929371713e-07 1.011249809611439e-06 0.01054229242201444 1.449626314874657e-06 6.142682176381271e-07 
-0.01636346333989871 -7.349573484247818e-06 -0.0005073766737025355 -0.0006596157077195461 -0.0003084161957057048 0.02262103529580928 -0.0005569570531503586 -1.928000624337733e-05 0.02288384603852885 
-0.005772110818008665 3.820540898690142e-05 0.03457180080070301 2.923943887459206e-06 5.193111447353796e-07 5.598429061588108e-06 -2.521458737499335e-05 8.534236489734435e-06 1.758547198453838e-06 
0.004479232876236167 -3.611207304742664e-05 -0.003300980262502395 -0.0001812456793779343 -5.118117193711083e-06 -9.681368760951223e-07 -0.0004336116188854023 -1.76798232737892e-06 -5.858353425342756e-07 
0.002417487683680743 8.489646373586368e-06 1.312735341599558e-05 8.874739516949308e-07 3.080819121287618e-07 2.970044634529031e-07 -7.160839027619198e-07 1.10968740604923e-07 6.153533495679679e-08 
0.004535037734438406 9.914673886760617e-06 8.455275195495223e-06 8.593842154016992e-07 1.068734699245077e-07 4.960940654102394e-07 -1.216068437420698e-06 7.815908616689503e-07 2.431819435085441e-07 
-0.007970598489725859 0.02652282097641653 -6.099798560941133e-06 -0.0003618600126411486 -0.000105407665271639 -3.660543867859052e-06 -0.0001375708455199355 -1.699001956564284e-05 -1.129489767786725e-05 
6.718864995564153e-05 1.821147331141656e-05 2.956223190729626e-06 8.593814092198216e-07 1.048331449221573e-07 6.572476395865241e-07 -9.373544990438534e-07 6.014245078121859e-07 3.290186812017828e-07 
0.001488015085829671 2.687679374875163e-05 -1.963929070528689e-05 0.01954810948718119 -1.922472413129416e-05 4.571568424382849e-07 -0.0001487690406394866 1.761192654206091e-06 2.906173581421693e-07 
0.004479232876236167 -3.611207304742664e-05 -0.003300980262502395 -0.0001812456793779343 -5.118117193711083e-06 -9.681368760951223e-07 -0.0004336116188854023 -1.76798232737892e-06 -5.858353425342756e-07 
0.009133283845667382 3.891083460337956e-06 5.751353248734615e-07 -2.520563204764177e-05 1.023635897350467e-07 2.565767641876966e-07 -2.018703757527053e-06 1.404940382868383e-07 7.211644508793934e-08 
-0.02210396053931199 0.03036805508801828 -0.01111389833081068 -0.01048559115016428 -0.00110319904459794 -0.001286394006690824 -0.005313972362744538 -0.002800868352564127 -0.00189083697532631 
0.0005751190655700393 9.275512769533679e-07 7.280290036994098e-07 2.121431592760046e-07 3.16636119004961e-07 2.007315297230385e-07 -3.485555651576743e-07 5.657798398383847e-07 2.001581753166681e-07 
-0.04125547015384891 0.04138190418763116 -0.01780214460644155 -0.02011207494410941 -0.01749192182330812 -0.009749689267151482 -0.02323718976611438 -0.01269783200225363 -0.01817116502614483 
-0.02936123870410392 0.02989843986225402 -0.0117684998594469 -0.01760701104821847 -0.01012005360404771 -0.007786584525932513 0.0136724464260983 0.03018905948547483 -0.006280819437273988 
0.0001343767719116107 3.641596700386702e-05 5.907041372795719e-06 1.718049870120269e-06 2.090837045017912e-07 1.312023902915816e-06 -1.872473208953642e-06 1.201506771049404e-06 6.572649739758264e-07 
0.001761237065854464 -4.026410018862499e-07 -1.277872155112283e-06 -1.70950970003303e-06 -9.818671525837868e-06 -6.067336936324093e-08 -3.328625386833951e-05 -3.458723303610839e-08 -1.775841545822718e-08 
0.008708655176191567 -0.0007103514980109729 -0.0001286100344934478 -0.00117899195571165 -8.126088369010643e-07 -1.887795812299344e-06 -0.0001409470868018258 -2.283017239190722e-06 -3.851975225681943e-07 
-0.007186058727801536 -1.075492456988912e-06 -0.0001381340003023113 -3.085732082762078e-05 -2.497376481909215e-05 -2.062199040271249e-06 0.01371170241767265 -8.989481074875285e-08 -7.707276730400533e-08 
0.07899833532136329 -0.02822865098998652 -0.02821792517894803 -0.02264097254449492 -0.02917612205253339 -0.01575533196197041 -0.04257271327195285 -0.009348340373186072 -0.01208634756480369 
0.0002771679192184808 7.326078677910504e-06 6.969764042297158e-07 8.18992979311494e-07 1.20476933305352e-07 4.292541880606456e-07 -1.650460344722147e-05 1.612841661683512e-07 1.060524382634939e-07 
0.03158626384844155 -0.007105779762454403 -0.004459597570253549 -0.009669020694922398 -0.002842483751389558 -0.000943271243637166 -0.01659314483889315 -0.005161512677048749 0.0195353443505643 
0.05719731925969165 -0.01110691027525906 -0.007497102617278425 -0.0123087131455942 -0.004261734654289269 -0.004417292816697457 -0.03970654698842729 -0.005937120304904657 -0.007180136831230428 
-3.938487759701337e-06 3.487600502402068e-05 2.670554009226131e-06 0.0195539975334735 1.762279685803471e-07 1.28773828362716e-06 -1.416308551227762e-06 1.879408497084507e-06 3.32513758568802e-07 
0.001725355261493274 2.769831785834983e-06 2.173182889328475e-06 6.351368123983712e-07 9.492606665104854e-07 6.000233077135657e-07 -1.042468166710509e-06 1.696265387319439e-06 5.998459541789664e-07 
0.0005192283517981938 2.411212366334558e-06 5.006587151730831e-07 7.252738142366272e-06 2.812929718259835e-08 1.103224718267045e-07 -1.620020459575204e-06 5.540214570242704e-08 3.722107856931102e-08 
0.008069738554557372 -0.0001106483493518983 -0.0001622289314887296 -0.0002740544094606807 -0.00455000030544039 -0.0001126725190015503 -0.002564567699211659 -9.502175458326393e-05 -5.141801509188586e-05 
-1.969331217759465e-06 1.744002451264701e-05 1.338119268055683e-06 0.009777013322563826 8.835857068151311e-08 6.445477457804763e-07 -7.090737069509527e-07 9.401093615473426e-07 1.665207292363782e-07 
0.0006423073399628079 1.913742154972554e-05 3.682902569107668e-06 1.071348283745544e-06 4.21365092716035e-07 8.575567806867383e-07 -1.285398007909943e-06 1.166982901908195e-06 5.290451610700684e-07 
-0.01226943299354046 -0.0002963117471986328 -0.0003492776471008281 0.01957429364928946 -0.0001292592382332151 -3.948568497444612e-06 -0.0002384553997468945 -2.825950893739696e-05 -2.874371769896107e-06 
0.0001343767719116107 3.641596700386702e-05 5.907041372795719e-06 1.718049870120269e-06 2.090837045017912e-07 1.312023902915816e-06 -1.872473208953642e-06 1.201506771049404e-06 6.572649739758264e-07 
-0.01148723781625275 -0.01013558122411044 -0.008838254834775941 -0.00608025214025217 -0.006693355789981293 -0.007226322590823204 -0.007777345297204604 0.03079731595786942 -0.00496071588249601 
-0.0620644938939581 0.01259096593736993 -0.07418561972585508 0.03910773587096562 -0.04332155980367043 -0.04947826309493505 -0.1392542663310308 -0.03143825236641044 -0.07457672160633892 
0.0005192283517981938 2.411212366334558e-06 5.006587151730831e-07 7.252738142366272e-06 2.812929718259835e-08 1.103224718267045e-07 -1.620020459575204e-06 5.540214570242704e-08 3.722107856931102e-08 
-0.005530821435894067 2.158170327707071e-06 0.02000434569830351 1.461084064537059e-07 4.776399829131818e-08 1.644095670486095e-07 -4.292989027486542e-07 9.000025067190575e-08 5.471836455969459e-08 
0.01421271417764579 -0.000947457011543908 -0.0003617536669534293 -0.000663093643132266 -0.001963859386579363 -0.0001696823726353613 -0.00378918443267198 -0.0001275219444452286 -0.0001975664187845963 
0.0005751190655700393 9.275512769533679e-07 7.280290036994098e-07 2.121431592760046e-07 3.16636119004961e-07 2.007315297230385e-07 -3.485555651576743e-07 5.657798398383847e-07 2.001581753166681e-07 
-0.001119048407693747 -0.00156002761464698 0.01164458864942077 -0.0001004280401794015 -1.646535322280489e-08 -1.467143623024491e-06 -1.288306383686792e-06 -3.174774917519081e-06 -3.426026795660138e-07 
0.01982059518515981 -0.002896622663189744 -0.0005970982787998696 -0.006666042016869644 -0.0020752016084994 -0.000266683748928714 -0.0009479651160025622 -0.0004034416031660299 -0.0003432453298379581 
0.0002942554956215837 1.698281267119365e-05 6.46963830071821e-06 1.333888551579741e-06 4.224031011342036e-07 1.441260213549167e-06 -1.111913786177792e-06 2.007855361148247e-06 2.693383389661614e-07 
0.004565585424884415 -9.374272660357246e-05 -4.832257114997323e-05 -8.24687362167508e-05 1.043939554444727e-08 7.74961583526017e-08 -0.0003965041491695525 5.718094239654839e-09 -3.826492837510521e-08 
-0.02075429358277134 -0.008728540683053163 -0.00741811208666648 -0.009024064179361271 0.01113635427311715 0.01653703866946616 0.01978777895890448 -0.004976918707692019 -0.004890724830082092 
0.01432715813166493 -0.004630940768147375 -0.0016805455907374 -0.002174064113911539 -1.290253899078923e-05 -2.835403221296933e-05 0.009119001021781582 -0.0001044733311559468 -3.688977690042759e-05 
-0.02356954679926665 0.02340608335035356 -0.001513384220329988 -0.003930920303254724 -7.057554523891609e-05 -0.0004712540039619462 -0.003661643643557416 -0.0005759938887132031 -0.001212141047797195 
0.000576242214755741 3.859694239936295e-06 3.233657830470549e-06 -2.493873210598685e-05 7.68819308842162e-07 6.738127523263973e-07 0.01054173725884432 1.145079063083381e-06 6.793030905832792e-07 
0.003524630062044633 -9.683890166914473e-06 -1.285872570032307e-06 -7.543189500707265e-05 -1.005308139880788e-05 -6.920929557294627e-08 -0.0003035914416275504 -4.905681951717083e-08 -7.056322417291205e-08 
-0.005312564844186266 -0.000241504961520111 -0.0006870632075040294 -0.001268312735935506 0.01549799881708445 -0.000282654843306831 -0.001858861835817458 -0.0008347289916455017 -8.650578276598488e-05 
-0.01676642433477919 -0.01058605120803438 -0.009941641976058402 -0.007133628787254227 0.03684316752603133 -0.005130201242589388 -0.01488758535671624 -0.004470100368999598 -0.002764356146703558 
-0.01659246259800792 6.423817089406887e-06 0.06001283631748994 4.345049547330662e-07 1.420358508535253e-07 4.883693505726231e-07 -1.277006003044536e-06 2.670679445475265e-07 1.624359909670243e-07 
0.008069738554557372 -0.0001106483493518983 -0.0001622289314887296 -0.0002740544094606807 -0.00455000030544039 -0.0001126725190015503 -0.002564567699211659 -9.502175458326393e-05 -5.141801509188586e-05 
-0.01054293695120323 -0.002623566386968307 -9.05471068349412e-05 -0.002824902021286299 -4.158307820690724e-06 -3.426888768890805e-05 -0.001681425631031208 -0.0008807850233693459 0.01700497163164427 
-0.0617209161162182 -0.006366188678369684 0.1096380756053663 -0.01532207973712605 -0.01250511232701532 -0.01733243790878007 -0.04569531918668959 0.004531988433632772 -0.008733617524696693 
0.0131792470997801 -0.0002500056198131991 -0.0005225537068489674 -0.001721784540502204 -0.000239746971903254 -0.0001145788348189607 -0.003672269612219265 -0.0003186908818489311 -0.0002723676105014171 
0.01403403129048793 -0.0215808384606264 -0.01645283624048123 -0.005787586561329636 -0.01159099866212799 -0.01064506081853297 -0.01640758471397678 0.02834741893601314 -0.008615025408702855 
0.0008826083255342807 5.008418394877498e-05 1.890730640446976e-05 3.933803958853691e-06 1.235815102909455e-06 4.196924550810841e-06 -3.257865890624311e-06 5.934761085032888e-06 7.603554265474089e-07 
0.01014672660545653 -0.00611945923724475 -0.004094398629361035 -0.009000078940925773 -0.0008781089629187759 -0.0007729681008382255 -0.002230041507157746 -0.005032887044751475 -0.003156903918203455 
0.0005192283517981938 2.411212366334558e-06 5.006587151730831e-07 7.252738142366272e-06 2.812929718259835e-08 1.103224718267045e-07 -1.620020459575204e-06 5.540214570242704e-08 3.722107856931102e-08 
0.003524630062044633 -9.683890166914473e-06 -1.285872570032307e-06 -7.543189500707265e-05 -1.005308139880788e-05 -6.920929557294627e-08 -0.0003035914416275504 -4.905681951717083e-08 -7.056322417291205e-08 
-0.02251969717788222 -0.0008188408889108047 -0.001555448359380708 -0.004606813568793628 -3.920036424148299e-05 -6.016768877085686e-05 0.03106854560583308 -4.703292662966215e-05 -8.361732469505244e-05 
-0.00937077675094998 -0.007276318172138393 0.01904856345218147 0.04536422627220123 -0.004969038678367562 0.02248956961685563 -0.008655879784032573 -0.0002311670225648501 -0.0001946077147346324 
-0.004740259978419157 2.041429498301034e-06 2.248332458268715e-06 4.302897034429266e-07 4.132139528019093e-07 3.672356674293444e-07 0.01054300299281937 5.09832009044732e-07 4.479319871604904e-07 
-0.01754735855875502 -0.0004428689021606112 -0.0006921976277542854 -0.001297862570068313 -0.002241602025603849 -9.197862508005828e-05 0.02896327267264438 -1.596218199782991e-05 -3.673213030419443e-05 
-0.00312106638404503 -0.0003730594582165025 -0.00148199474441021 -0.002837316696454592 0.01972380481506729 -8.489169548317105e-05 -0.001520516054253934 -1.321058603105338e-05 -3.463855465511326e-05 
0.009070077250219357 1.982159830411143e-05 1.69028812147677e-05 1.717930419081749e-06 2.131863551469336e-07 9.902301251327095e-07 -2.429705412470766e-06 1.561796378165603e-06 4.855935271243258e-07 
-0.01269186679816372 -0.005385841350207718 -0.005646019045195969 -0.008650302671759374 -0.0005807328635793075 -0.002088393841192977 -0.005975938124975861 0.02246357343057576 -0.003967150203072014 
0.006049230435030179 -0.008519374702467167 -0.009899673189680953 -0.01653241687560868 -0.003282359853106975 -0.003313377248103929 -0.009693005804682932 0.02009475646573076 -0.006137935307480512 
0.0005751190655700393 9.275512769533679e-07 7.280290036994098e-07 2.121431592760046e-07 3.16636119004961e-07 2.007315297230385e-07 -3.485555651576743e-07 5.657798398383847e-07 2.001581753166681e-07 
-0.05661111371594463 -0.01950049698090961 -0.01650069884587357 0.08036723715901455 -0.004346380765502033 -0.01177280302961155 -0.012333409521196 -0.008194027055190588 -0.01244857105563606 
0.0008356956139095311 9.129371199712781e-07 -2.486405472422125e-07 -1.472559008262166e-07 -2.048048274118239e-07 6.853363765387614e-08 -0.0004039767587621689 2.958255035373495e-08 2.369126808979731e-08 
0.01802895605024495 -0.004637793060048729 -0.001683792424220232 -0.00218901004421469 -1.3371728133515e-05 -2.894047684432772e-05 -0.001420751675850278 -0.0001050932976314144 -3.741172748696638e-05 
-0.01700990927923055 -0.006094259006908463 -0.01129619178950655 0.04166731723493133 -0.00206305870861663 -0.005855385033820398 -0.00894278778250689 -0.003979774019536439 -0.006101703866385214 
0.00474138252970519 8.973526888366691e-07 2.602398007704727e-07 -2.558079804810229e-05 3.916682201907975e-08 1.067497863670941e-07 -9.16900899717827e-07 6.995146192719145e-08 3.148342810871251e-08 
0.004391900528947917 2.995516827273531e-06 3.153221497398524e-07 3.752630687552564e-07 6.324834166501319e-08 1.50026913425304e-07 -1.102289229708167e-06 7.062968137081684e-08 4.069362135689959e-08 
6.718864995564153e-05 1.821147331141656e-05 2.956223190729626e-06 8.593814092198216e-07 1.048331449221573e-07 6.572476395865241e-07 -9.373544990438534e-07 6.014245078121859e-07 3.290186812017828e-07 
-0.03133119567411749 -0.002219321781467374 -0.003772414977508802 0.04725791659513907 -0.001471641609345429 0.01882959960372694 -0.004832054795559555 -0.001240046939052386 -0.0005855025282305938 
0.03949915613143855 -0.01411426646178912 -0.0141088810296127 -0.01132050147993202 -0.01458805795986205 -0.007877658692940059 -0.02128638258341163 -0.004674165773340982 -0.006043172125706834 
0.008069738554557372 -0.0001106483493518983 -0.0001622289314887296 -0.0002740544094606807 -0.00455000030544039 -0.0001126725190015503 -0.002564567699211659 -9.502175458326393e-05 -5.141801509188586e-05 
0.0001385840978293139 3.667688051570065e-06 3.4944263407105e-07 4.100526256351672e-07 6.037210791333278e-08 2.15117093159283e-07 -8.252875962558399e-06 8.092588677952276e-08 5.319718616590213e-08 
-0.005530821435894067 2.158170327707071e-06 0.02000434569830351 1.461084064537059e-07 4.776399829131818e-08 1.644095670486095e-07 -4.292989027486542e-07 9.000025067190575e-08 5.471836455969459e-08 
0.002220341787051448 -7.112890997511993e-06 -0.003297380458672773 -0.0001427669049138593 -0.0001088222273708577 -0.0002438192204119496 -0.001152230149920764 -0.0004313793584373988 -7.361396607188407e-05 
-0.02907319037822412 0.01411238392193262 -0.002816466051458739 0.001684826864706848 0.01090634457362411 -0.001209761064895365 0.0338354622315372 -0.0003947450698558836 -0.0003416950851317828 
0.0043543287745015 -0.0003551755067918924 -6.430520477950343e-05 -0.000589496168345999 -4.063122812286706e-07 -9.439787540277846e-07 -7.047380120136964e-05 -1.14156298970629e-06 -1.926039953499108e-07 
-0.02951061259555533 -0.00297538484436377 -0.005401049658849679 0.04065289078058137 -0.00484707360027831 -0.002171646178128001 -0.01343446556359198 -0.001667562336565072 -0.003177256274505268 
0.01851662402717458 -0.006270720001948707 -0.00850838116755093 -0.01566192802542626 -0.005403415687848695 -0.002450399090877688 -0.007430457190917322 -0.004737900653559312 -0.004341698982175612 
0.04046104743918829 -0.002512863193974127 -0.004042124641179063 -0.003927252505949736 -0.002669721144613071 -0.0009632374089787001 -0.01021856185326856 -0.001281543907945882 -0.0004422470844163424 
6.718864995564153e-05 1.821147331141656e-05 2.956223190729626e-06 8.593814092198216e-07 1.048331449221573e-07 6.572476395865241e-07 -9.373544990438534e-07 6.014245078121859e-07 3.290186812017828e-07 
0.01863889796388097 -0.00977311081020088 -0.008235898408148788 -0.003693709609930798 -0.006427622541880429 -0.008171877954773825 -0.008508645668459372 -0.001287877126320316 -0.001698356877060682 
-9.584628907966696e-05 -5.613316124665631e-06 0.01398155772742223 -0.0001792181636050729 -4.957454983739478e-06 -1.29585398805105e-07 -0.0004358978342983871 -1.093609985606227e-06 -2.116848854735178e-07 
0.01118993313036431 -0.0008054051530998433 -0.0004359926172275556 -0.001132027846186471 -1.632120999606656e-06 -2.773989835625236e-05 -0.001084286610401499 -0.0008719347095078383 -0.0001033920091674004 
0.0005192283517981938 2.411212366334558e-06 5.006587151730831e-07 7.252738142366272e-06 2.812929718259835e-08 1.103224718267045e-07 -1.620020459575204e-06 5.540214570242704e-08 3.722107856931102e-08 
-0.001119048407693747 -0.00156002761464698 0.01164458864942077 -0.0001004280401794015 -1.646535322280489e-08 -1.467143623024491e-06 -1.288306383686792e-06 -3.174774917519081e-06 -3.426026795660138e-07 
0.0008150825737376794 -0.002580598875115935 -0.001854345304898106 -0.004142687919080113 -0.007718363224520767 -0.001194032128523818 0.02385802748190778 -0.0003521173654024107 -0.0002649183548645791 
0.04018763537274821 -0.01582912467852857 -0.009186269468232271 -0.01362424059666496 -0.005345682397701449 -0.004280620302618536 -0.006340721190321373 -0.003044039066941531 -0.004931812211555183 
-0.09302010360048896 -0.0062268152392505 -0.00791813133886962 -0.0160197257649822 0.07752138756796949 -0.004095266942286823 0.08886106397410583 -0.005730405018420285 -0.001049695829743555 
0.004535037734438406 9.914673886760617e-06 8.455275195495223e-06 8.593842154016992e-07 1.068734699245077e-07 4.960940654102394e-07 -1.216068437420698e-06 7.815908616689503e-07 2.431819435085441e-07 
-0.002979022997064696 1.637080134546981e-06 9.69975589741908e-07 -1.279314433277269e-06 -9.4054713399931e-06 3.063697728680099e-07 0.01050971754993779 4.751325004138218e-07 4.301172804199923e-07 
0.02179983254930877 -0.006642027481569441 0.01570200255624433 -0.01129965972295644 -0.002403798894603334 -0.0007766201340796142 -0.009946138304336037 -0.001819407184359892 0.01548123406855319 
6.718864995564153e-05 1.821147331141656e-05 2.956223190729626e-06 8.593814092198216e-07 1.048331449221573e-07 6.572476395865241e-07 -9.373544990438534e-07 6.014245078121859e-07 3.290186812017828e-07 
-0.003188473497374763 -0.004035920966055311 -0.004534247211694984 0.01616748637143635 -0.002705998905020336 -0.001231284900702777 -0.003819953855116799 -0.002374603570053307 -0.00217196097219041 
0.001761237065854464 -4.026410018862499e-07 -1.277872155112283e-06 -1.70950970003303e-06 -9.818671525837868e-06 -6.067336936324093e-08 -3.328625386833951e-05 -3.458723303610839e-08 -1.775841545822718e-08 
0.04755976922188076 -0.01341014440591742 -0.008002275613064528 -0.01247614107985537 -0.001975135080368538 -0.002959693627945949 0.02155612626600933 -0.005614747240825886 -0.007719746517554574 
0.0005192283517981938 2.411212366334558e-06 5.006587151730831e-07 7.252738142366272e-06 2.812929718259835e-08 1.103224718267045e-07 -1.620020459575204e-06 5.540214570242704e-08 3.722107856931102e-08 
-0.01468808960627192 -0.002797993894050175 -0.00205116533478795 0.02265070478904369 -0.0001660878015057208 -0.0002373505482932162 -0.00881893672382778 -0.0004791084353499617 -0.001378261965139492 
0.09491585090296256 0.01820649353806783 -0.04122617831107852 -0.08622693977484401 -0.07309962380225184 -0.01099296435712867 -0.1078820824553716 -0.04486767194408292 -0.04679622590371422 
0.009620395302906015 -0.0003625398238984955 -0.001469484874926645 -0.002825521830978225 -3.34536198798936e-05 -8.468450792780578e-05 -0.001318746477228367 -1.314784245292101e-05 -3.460620425004204e-05 
-0.00551132889751741 -0.0001463191643312328 -0.0001150426169046173 -8.341207494571915e-05 -1.308965817866029e-05 -1.839399612111855e-06 -0.0003630793309225933 0.02526858292596482 -3.407894642143614e-06 
0.005293232726203633 -4.645422710183968e-07 -8.772271815026753e-07 -0.0006565514669620077 -1.161915538870874e-07 -9.634702598367016e-08 -1.918784781674249e-05 -6.951437997069808e-07 -3.70552889253463e-08 
-0.05596867192577442 0.04736624161628594 -0.001605425243004553 -0.007092069624601109 -0.0001799937589978058 -0.0005081410348058676 -0.005460809538581848 -0.001472654077343603 0.03867236522217604 
0.05867822583120695 -0.01448249038387691 -0.01887700868736963 -0.0143162251046473 -0.01474031679237869 -0.008206044021566609 -0.02419554734072259 -0.005118625454170884 -0.006151353612676335 
0.001557685370885599 7.178688516052662e-06 1.48939122700856e-06 2.175424891837224e-05 8.368060580654561e-08 3.279946160261365e-07 -4.850925627542261e-06 1.645873122169825e-07 1.106875553207141e-07 
-0.004740259978419157 2.041429498301034e-06 2.248332458268715e-06 4.302897034429266e-07 4.132139528019093e-07 3.672356674293444e-07 0.01054300299281937 5.09832009044732e-07 4.479319871604904e-07 
-0.008047279352490753 -2.744853989429914e-06 4.323555727613312e-09 0.01270429756444755 -8.460348359556127e-07 4.054133818708242e-09 -1.72186037885078e-06 2.396620399482454e-08 -6.97465806480011e-09 
0.004565585424884415 -9.374272660357246e-05 -4.832257114997323e-05 -8.24687362167508e-05 1.043939554444727e-08 7.74961583526017e-08 -0.0003965041491695525 5.718094239654839e-09 -3.826492837510521e-08 
0.008703146787278831 -0.0005317290409854108 -0.001044657390885136 -0.001944270048546002 -0.0002616556453913174 -2.557593210185015e-05 -0.002763011189001471 -0.0004486636571945609 -2.44261189211923e-05 
0.04535153368667951 -0.01995270197597862 -0.006614444863037543 -0.02431744989501134 -0.008962002038332317 -0.005858756821082543 -0.019359722453318 -0.005658551825091011 -0.006640544564791977 
0.008703146787278831 -0.0005317290409854108 -0.001044657390885136 -0.001944270048546002 -0.0002616556453913174 -2.557593210185015e-05 -0.002763011189001471 -0.0004486636571945609 -2.44261189211923e-05 
-0.001215483021910874 -0.0002625094994632351 0.0288319972156377 -0.001668490653494757 -0.002980639474786588 -0.003810115582890545 -0.009957513520170829 -0.004481517446512311 -0.001191102073203939 
0.005293232726203633 -4.645422710183968e-07 -8.772271815026753e-07 -0.0006565514669620077 -1.161915538870874e-07 -9.634702598367016e-08 -1.918784781674249e-05 -6.951437997069808e-07 -3.70552889253463e-08 
-0.01054293695120323 -0.002623566386968307 -9.05471068349412e-05 -0.002824902021286299 -4.158307820690724e-06 -3.426888768890805e-05 -0.001681425631031208 -0.0008807850233693459 0.01700497163164427 
0.03772339875463387 -0.002053478468429508 4.754897691403507e-05 -5.811785569310915e-05 -7.290146010047124e-06 -1.337223352555019e-05 -0.001251701878125383 -0.0001339370304211641 -3.161238644380653e-05 
0.01469084263118852 -0.006132860497683973 -0.004100982985726477 -0.009001406053225388 -0.0008788050424845199 -0.0007742992984047693 -0.01277230446549537 -0.005034741833984988 -0.003157533451325883 
-0.007734396928796076 -0.0002863955758398793 -0.0003408213226495483 0.01957515833222566 -0.0001291523507995844 -3.452477727059319e-06 -0.0002396717753787928 -2.747789192084024e-05 -2.631205288482501e-06 
0.02192578438510695 -0.0006327676335749407 -7.907908058198021e-05 -0.0002349602936889498 -3.032139348756191e-05 -1.251882404262226e-06 -0.001165638335204679 -1.776733216672603e-06 -1.257706212870539e-06 
0.003272851997564699 -0.001557031882711024 0.01164490267874316 -0.000100052874132561 4.674999004279357e-08 -1.317230822041335e-06 -2.390165018136169e-06 -3.104202617930382e-06 -3.019460064701463e-07 
6.718864995564153e-05 1.821147331141656e-05 2.956223190729626e-06 8.593814092198216e-07 1.048331449221573e-07 6.572476395865241e-07 -9.373544990438534e-07 6.014245078121859e-07 3.290186812017828e-07 
0.004197515458430107 -7.861300686168083e-05 -0.0001837722268639861 -0.0007066929975365197 -0.0001187612719533434 -3.962902774293103e-05 -0.0003333347341947211 -0.0001138520650859958 -0.0001079406601089236 
0.002282793272449516 -4.687149448883448e-05 -2.416163269308557e-05 -4.123431291148805e-05 5.22592449006482e-09 3.875152947927953e-08 -0.000198252565852072 2.842731857332707e-09 -1.913580335710832e-08 
0.08438783454822268 -0.01695703764875832 0.007072882968662603 -0.02715811016326789 -0.009638074111081195 -0.00640542448664891 -0.02812134369041997 0.0163071841252732 -0.006941295464740601 
0.0470917241173789 -0.01110136783644697 0.009682601753102775 -0.009840849221450758 -0.006089775722003884 -0.00402741393342728 -0.02396181812454145 -0.005454940995582986 -0.00585756964147091 
-0.032848707379191 -0.0008279493863068391 -0.001603653532073222 -0.004999720841035683 -8.649314040676471e-05 -7.796068974378996e-05 0.05287685984651227 -9.341676556045875e-05 -9.077602061169827e-05 
0.001678449639080399 -5.80202100045433e-06 -0.00324039239903641 -0.0001410634005579162 -9.27474739515539e-05 -0.0002358345298865756 -0.001064969580376162 -0.0004126139147777761 -7.260047377430168e-05 
0.0005192283517981938 2.411212366334558e-06 5.006587151730831e-07 7.252738142366272e-06 2.812929718259835e-08 1.103224718267045e-07 -1.620020459575204e-06 5.540214570242704e-08 3.722107856931102e-08 
0.01176556243503612 -4.508214814861596e-05 -2.36417916477086e-05 -9.239607472911152e-05 8.339526498292e-08 2.51616579514758e-07 -0.0002000841260189578 1.425124194491445e-07 4.365264391632189e-08 
-0.005530821435894067 2.158170327707071e-06 0.02000434569830351 1.461084064537059e-07 4.776399829131818e-08 1.644095670486095e-07 -4.292989027486542e-07 9.000025067190575e-08 5.471836455969459e-08 
-0.07588776547411159 -0.2223239693471812 -0.1133032836289214 -0.1155413789767597 0.08481412320370557 -0.02252762415156951 0.05073525658856967 0.005699025050073032 -0.06710497339458783 
0.00346237565186101 -0.0005346994101741262 -0.0003447400583460985 -0.0004959063253506057 -0.0002477244632038144 -0.000712504565089896 -0.005040365413513039 -0.000108342362000815 0.02265167409675525 
-0.02951061259555533 -0.00297538484436377 -0.005401049658849679 0.04065289078058137 -0.00484707360027831 -0.002171646178128001 -0.01343446556359198 -0.001667562336565072 -0.003177256274505268 
0.003524630062044633 -9.683890166914473e-06 -1.285872570032307e-06 -7.543189500707265e-05 -1.005308139880788e-05 -6.920929557294627e-08 -0.0003035914416275504 -4.905681951717083e-08 -7.056322417291205e-08 
0.01051304714481289 -0.00211280796748206 -2.946462158170683e-06 -6.325200492994368e-05 -7.914400358008846e-06 -1.62904966734795e-05 -0.001244463384785372 -0.00013858536937429 -3.304849126894974e-05 
0.03599925477371582 -0.002613638186658855 0.0115134951439965 -0.0004918075783948122 -5.023228408832143e-05 -3.341194706036339e-06 -0.001944396188311147 -5.563824222947061e-06 -2.234496703080589e-06 
0.0005751190655700393 9.275512769533679e-07 7.280290036994098e-07 2.121431592760046e-07 3.16636119004961e-07 2.007315297230385e-07 -3.485555651576743e-07 5.657798398383847e-07 2.001581753166681e-07 
0.005931565518145525 -2.822914341119167e-05 1.00948695539493e-06 -1.637028430858994e-06 3.104484408271916e-08 1.958856424257373e-07 -2.603686348726357e-05 4.87230648690345e-08 7.318114772492246e-08 
-0.02210396053931199 0.03036805508801828 -0.01111389833081068 -0.01048559115016428 -0.00110319904459794 -0.001286394006690824 -0.005313972362744538 -0.002800868352564127 -0.00189083697532631 
0.008544969618146591 3.404852753393793e-05 6.533858123710285e-07 0.01888518869661649 -3.492092657001659e-07 1.199691904900314e-06 -2.097002763330077e-05 1.285324304533652e-06 2.891490029007823e-07 
-0.003346928706064278 -2.928908625584534e-06 -4.465712805796703e-08 -3.328190599115831e-06 8.274198328711029e-09 3.035716840798292e-08 -5.243424288545413e-06 2.97266163291481e-08 0.02289028842955134 
0.0336599298922948 -0.01030213252481609 0.004233856969333386 0.0393552087271273 0.01407967012520645 -0.003871960747643551 -0.02397360608915358 -0.008078477607107351 -0.005833357168824758 
-0.02116777618868087 -0.004338697000018878 -0.001709030890715877 -0.001072597397594509 -1.823089584822422e-05 -6.652644068959062e-05 0.04362829581276331 -0.001596251471759512 -0.0004226199998604136 
-0.01226943299354046 -0.0002963117471986328 -0.0003492776471008281 0.01957429364928946 -0.0001292592382332151 -3.948568497444612e-06 -0.0002384553997468945 -2.825950893739696e-05 -2.874371769896107e-06 
-0.01468808960627192 -0.002797993894050175 -0.00205116533478795 0.02265070478904369 -0.0001660878015057208 -0.0002373505482932162 -0.00881893672382778 -0.0004791084353499617 -0.001378261965139492 
-0.005716017508182442 -0.007981545862645907 -0.005178563092877176 -0.005164097025417033 -0.003791558935919305 -0.005775642911653423 0.02493697130810495 -0.003674221033793548 -0.004773315659054137 
0.009620395302906015 -0.0003625398238984955 -0.001469484874926645 -0.002825521830978225 -3.34536198798936e-05 -8.468450792780578e-05 -0.001318746477228367 -1.314784245292101e-05 -3.460620425004204e-05 
0.01130363592098287 -0.01112128039456789 0.0500595318819821 0.04278129137395771 -4.03207340622448e-05 -7.019482484209283e-05 -0.003540283972668655 -0.0002235783856994191 -7.738981109418566e-05 
0.002282793272449516 -4.687149448883448e-05 -2.416163269308557e-05 -4.123431291148805e-05 5.22592449006482e-09 3.875152947927953e-08 -0.000198252565852072 2.842731857332707e-09 -1.913580335710832e-08 
9.808711664846228e-05 5.673119461439952e-06 2.163609372111791e-06 4.455945387147966e-07 1.412481514705881e-07 4.822340912570092e-07 -3.717421783392347e-07 6.705432769379311e-07 9.046130893570381e-08 
0.03222083808890377 -0.006416465417504884 -0.001050544087226821 -0.003305467635674569 -0.0001969982207675448 -0.0007641597576098662 -0.008184494611587101 -0.0001108776506584441 -0.000192331930584359 
0.01407014879253296 -0.002337927200450562 0.01637423872770106 -0.003710751811276953 -8.649151046972379e-06 -3.288433601669606e-05 0.03004173086498816 -0.0007983814718480376 -0.000221101646453379 
-0.0002685772176924799 0.01708615501055149 -0.000713380355816882 -0.006228400659014953 -0.001096112483934019 -2.752680949151148e-06 -0.003471489398110009 -2.574501982218588e-05 -7.327101591972974e-05 
-0.004100374912145888 1.097881931827546e-05 0.01722259261670766 -5.354314267493619e-07 -1.601880608657729e-05 -7.802865927648773e-06 -8.860933196693139e-05 -1.869222411077006e-05 -9.681805579461777e-07 
0.003414339832861966 7.981232688775478e-06 1.039604855656247e-05 1.445634796791337e-07 2.667980931863789e-07 4.755019043532553e-06 -2.214955041617812e-05 7.718823424566308e-06 1.578407554600092e-06 
0.005054266210073316 1.232250104420153e-05 8.954406056856782e-06 8.111840062701358e-06 1.348997435144944e-07 6.060219809151483e-07 -2.835300188968182e-06 8.367578925323529e-07 2.802623981710599e-07 
0.001671390879088621 1.817988185007045e-06 -4.979267132992789e-07 -2.952864714055478e-07 -4.096885816819666e-07 1.367230325097994e-07 -0.0008079528077426107 5.895995031104783e-08 4.723957504371922e-08 
-0.02356954679926665 0.02340608335035356 -0.001513384220329988 -0.003930920303254724 -7.057554523891609e-05 -0.0004712540039619462 -0.003661643643557416 -0.0005759938887132031 -0.001212141047797195 
6.718864995564153e-05 1.821147331141656e-05 2.956223190729626e-06 8.593814092198216e-07 1.048331449221573e-07 6.572476395865241e-07 -9.373544990438534e-07 6.014245078121859e-07 3.290186812017828e-07 
-0.003022615708042034 0.0170829325029427 -0.0007142513473830804 0.005819336710278836 -0.001097074440186189 -2.844516698998678e-06 -0.003492400412466973 -2.641592712425807e-05 -7.3314893728472e-05 
0.0001961727697470607 1.133701966137721e-05 4.321873767637746e-06 8.904583088924341e-07 2.821576972974456e-07 9.630940160314999e-07 -7.426482956445784e-07 1.340134036162836e-06 1.804060827322107e-07 
-0.005595247906889231 -0.007800198313403641 0.05822274446795885 -0.0005021439170908101 -8.318493041556397e-08 -7.336894579738808e-06 -6.417783964134061e-06 -1.587515399953483e-05 -1.713714558531397e-06 
-0.02322553351644589 -0.004104316650871931 -0.003147368858662492 -0.004684080853451619 -0.002887208845190656 -0.001589160541598417 0.04680997348552591 -0.0007181716124412653 -0.001122309038414578 
-0.004740259978419157 2.041429498301034e-06 2.248332458268715e-06 4.302897034429266e-07 4.132139528019093e-07 3.672356674293444e-07 0.01054300299281937 5.09832009044732e-07 4.479319871604904e-07 
0.01863889796388097 -0.00977311081020088 -0.008235898408148788 -0.003693709609930798 -0.006427622541880429 -0.008171877954773825 -0.008508645668459372 -0.001287877126320316 -0.001698356877060682 
-0.005530821435894067 2.158170327707071e-06 0.02000434569830351 1.461084064537059e-07 4.776399829131818e-08 1.644095670486095e-07 -4.292989027486542e-07 9.000025067190575e-08 5.471836455969459e-08 
-0.02695873897527965 -0.01061179800952963 -0.007189501467603781 0.05477966031051957 -0.004992415992887645 -0.002279578885499046 -0.02028447430085419 -0.001803153122447291 -0.003350351883181695 
0.002417487683680743 8.489646373586368e-06 1.312735341599558e-05 8.874739516949308e-07 3.080819121287618e-07 2.970044634529031e-07 -7.160839027619198e-07 1.10968740604923e-07 6.153533495679679e-08 
0.004535037734438406 9.914673886760617e-06 8.455275195495223e-06 8.593842154016992e-07 1.068734699245077e-07 4.960940654102394e-07 -1.216068437420698e-06 7.815908616689503e-07 2.431819435085441e-07 
0.002417487683680743 8.489646373586368e-06 1.312735341599558e-05 8.874739516949308e-07 3.080819121287618e-07 2.970044634529031e-07 -7.160839027619198e-07 1.10968740604923e-07 6.153533495679679e-08 
0.0858538767812259 -0.04679941487455556 -0.01793707572528357 -0.01299625580535822 -0.02710431648728335 -0.01351944655626603 -0.03995699330004896 -0.01135683332330819 -0.01563143779076038 
-0.04787086883268838 -0.003983256289423746 0.02020881510216595 -0.005960758173525948 -0.008532209232520325 0.05635243487201468 0.03013489058148297 -0.007777911614146212 -0.002618531472932696 
-0.004642266941786977 1.229089606878144e-05 0.01727958374125207 1.168308997117443e-06 5.599275447873344e-08 1.820266023290366e-07 -1.349261302546719e-06 7.333723942758762e-08 4.537605180237067e-08 
0.004834975102298873 1.697156118544388e-05 2.624954634331659e-05 1.774537331990052e-06 6.157884585900977e-07 5.923332085839784e-07 -1.431460627733392e-06 2.210377408466367e-07 1.225286614600289e-07 
-0.02545409552253575 0.01495797974581732 0.02757226469329159 0.003552463958459001 -0.005780233311287157 0.03479902679214528 -0.01506734751446582 0.01425724921787946 -0.009158613671550259 
-0.04040446956643765 -0.006473318719290477 -0.01251574730695162 -0.01076642305615862 0.05212169090803419 -0.009333330334778407 -0.01825143804176754 -0.00479137364304754 -0.003570723471122899 
0.02239237717145208 -0.001443420361672263 -0.000604088834461079 -0.001602171487178036 -0.001965914763095767 -0.0002056567964210253 -0.007063098785994531 -0.0002185864885633075 -0.0002539048002382889 
-0.06051512324069638 -0.06081190333819702 -0.01590579524141719 0.008666920886532222 0.006255223300482808 0.04872792776315215 0.02018457894347693 -0.04104203326679014 0.003394180546555596 
-1.969331217759465e-06 1.744002451264701e-05 1.338119268055683e-06 0.009777013322563826 8.835857068151311e-08 6.445477457804763e-07 -7.090737069509527e-07 9.401093615473426e-07 1.665207292363782e-07 
-0.0245389021723106 -0.000592614158229783 -0.0006985516837765584 0.03914860428382769 -0.0002585181476691351 -7.895841084039543e-06 -0.0004769136947655502 -5.651814507735556e-05 -5.748270745501498e-06 
-0.01035976691341332 -0.0004220245286388921 -0.003213051359544793 -0.0007424645918336718 -0.001463363827614585 0.0188416049513965 -0.004627487698602926 -0.001229270683385716 0.02230680792117793 
-0.1061966901157574 -0.0004266998958662276 0.0256141399824085 -0.006082041878990229 -0.004892023976490924 0.1318937348844307 0.008204966817724001 0.02062344052499576 -0.001240819406689729 
-0.03503687376249627 0.02388459849820579 -0.00996799965388615 0.02068785323788756 -0.001573816954879126 -0.004048508959783222 -0.002293956066832993 -0.003558999030267335 -0.003804776471368427 
0.01707170403239865 3.984342675569964e-05 5.193695889492177e-05 7.170221334360956e-07 1.332435106164782e-06 2.37642300739592e-05 -0.0001107418474179388 3.858619804062921e-05 7.887266415909286e-06 
0.02415336185282946 -0.007888920458914489 -0.004584287879389279 -0.003787541763186594 -0.0001020290045753439 -0.0001285049611775397 -0.002280196105865339 -0.0006857199843319389 -0.0002662507156873119 
0.0005751190655700393 9.275512769533679e-07 7.280290036994098e-07 2.121431592760046e-07 3.16636119004961e-07 2.007315297230385e-07 -3.485555651576743e-07 5.657798398383847e-07 2.001581753166681e-07 
-1.969331217759465e-06 1.744002451264701e-05 1.338119268055683e-06 0.009777013322563826 8.835857068151311e-08 6.445477457804763e-07 -7.090737069509527e-07 9.401093615473426e-07 1.665207292363782e-07 
0.0043543287745015 -0.0003551755067918924 -6.430520477950343e-05 -0.000589496168345999 -4.063122812286706e-07 -9.439787540277846e-07 -7.047380120136964e-05 -1.14156298970629e-06 -1.926039953499108e-07 
6.718864995564153e-05 1.821147331141656e-05 2.956223190729626e-06 8.593814092198216e-07 1.048331449221573e-07 6.572476395865241e-07 -9.373544990438534e-07 6.014245078121859e-07 3.290186812017828e-07 
0.02600613006874403 0.0001656993204951557 0.01513305968878655 -0.01386388616130097 0.004635681215226883 0.009019436017355617 -0.02770353671503806 0.05085095522946416 -0.009879116666354902 
-0.007186058727801536 -1.075492456988912e-06 -0.0001381340003023113 -3.085732082762078e-05 -2.497376481909215e-05 -2.062199040271249e-06 0.01371170241767265 -8.989481074875285e-08 -7.707276730400533e-08 
0.004535037734438406 9.914673886760617e-06 8.455275195495223e-06 8.593842154016992e-07 1.068734699245077e-07 4.960940654102394e-07 -1.216068437420698e-06 7.815908616689503e-07 2.431819435085441e-07 
-0.03807555372980798 -0.0161576031691443 -0.01693818985883233 -0.02595100489458244 -0.00174219949693447 -0.006265200495143985 -0.01792780071185735 0.06739037714765236 -0.01190145491459855 
-0.0002685772176924799 0.01708615501055149 -0.000713380355816882 -0.006228400659014953 -0.001096112483934019 -2.752680949151148e-06 -0.003471489398110009 -2.574501982218588e-05 -7.327101591972974e-05 
-0.02122161466171622 0.01248443739581048 0.0163366022952757 -0.01295131852457156 0.07159191605360553 -0.001460559456798641 -0.01601846650314602 -0.004257865496753937 -0.0005198456314369088 
0.00474138252970519 8.973526888366691e-07 2.602398007704727e-07 -2.558079804810229e-05 3.916682201907975e-08 1.067497863670941e-07 -9.16900899717827e-07 6.995146192719145e-08 3.148342810871251e-08 
-0.02418657275511519 0.01020685999969368 -0.004701769466559182 -0.02032713124722794 0.05084116301717916 -0.009680997295549273 -0.02523800668643366 -0.005301410316083694 -0.003754696430337039 
0.02007704034155585 -0.03297323870605075 -0.02631905004264277 0.03703876086762935 -0.009753236050577027 0.002206449866018301 -0.04249750180799299 0.01835834655065082 -0.01716913336068257 
0.004479232876236167 -3.611207304742664e-05 -0.003300980262502395 -0.0001812456793779343 -5.118117193711083e-06 -9.681368760951223e-07 -0.0004336116188854023 -1.76798232737892e-06 -5.858353425342756e-07 
0.00474138252970519 8.973526888366691e-07 2.602398007704727e-07 -2.558079804810229e-05 3.916682201907975e-08 1.067497863670941e-07 -9.16900899717827e-07 6.995146192719145e-08 3.148342810871251e-08 
0.00487575467250375 3.730845480048151e-05 6.164916013953814e-06 -2.386297419590254e-05 2.479748550912635e-07 1.417647943237543e-06 -2.787655734637995e-06 1.270925377305287e-06 6.884040809017526e-07 
-3.938487759701337e-06 3.487600502402068e-05 2.670554009226131e-06 0.0195539975334735 1.762279685803471e-07 1.28773828362716e-06 -1.416308551227762e-06 1.879408497084507e-06 3.32513758568802e-07 
0.001671390879088621 1.817988185007045e-06 -4.979267132992789e-07 -2.952864714055478e-07 -4.096885816819666e-07 1.367230325097994e-07 -0.0008079528077426107 5.895995031104783e-08 4.723957504371922e-08 
0.03176595364784172 -0.013125338573647 -0.008358021813492758 0.004612547349647235 -0.004136110123222252 -0.004012793111330203 0.004086160113319336 -0.00897689582409715 -0.005858534208165043 
0.007960758376513189 -9.920794182437926e-06 -0.003287611268185219 -0.0001802417270959929 -4.746583448761094e-06 4.443576293813138e-06 -0.0004566983459945315 6.551955201396779e-06 1.321392823311385e-06 
0.0005192283517981938 2.411212366334558e-06 5.006587151730831e-07 7.252738142366272e-06 2.812929718259835e-08 1.103224718267045e-07 -1.620020459575204e-06 5.540214570242704e-08 3.722107856931102e-08 
0.003524630062044633 -9.683890166914473e-06 -1.285872570032307e-06 -7.543189500707265e-05 -1.005308139880788e-05 -6.920929557294627e-08 -0.0003035914416275504 -4.905681951717083e-08 -7.056322417291205e-08 
0.002417487683680743 8.489646373586368e-06 1.312735341599558e-05 8.874739516949308e-07 3.080819121287618e-07 2.970044634529031e-07 -7.160839027619198e-07 1.10968740604923e-07 6.153533495679679e-08 
-0.00551132889751741 -0.0001463191643312328 -0.0001150426169046173 -8.341207494571915e-05 -1.308965817866029e-05 -1.839399612111855e-06 -0.0003630793309225933 0.02526858292596482 -3.407894642143614e-06 
-0.01226943299354046 -0.0002963117471986328 -0.0003492776471008281 0.01957429364928946 -0.0001292592382332151 -3.948568497444612e-06 -0.0002384553997468945 -2.825950893739696e-05 -2.874371769896107e-06 
-0.04713915618281495 0.04681208015230436 -0.003026770284764901 -0.007861851581210402 -0.0001411507914980824 -0.0009425081307235651 -0.007323277758052186 -0.001151988314183243 -0.002424283810860289 
-0.01471238713758796 -0.0195041002326477 -0.01801990009379927 -0.01362449944497504 -0.01060606913290389 -0.01307782902644717 0.04940083703508194 0.02550558340461268 -0.009920103016041236 
-0.004740259978419157 2.041429498301034e-06 2.248332458268715e-06 4.302897034429266e-07 4.132139528019093e-07 3.672356674293444e-07 0.01054300299281937 5.09832009044732e-07 4.479319871604904e-07 
0.0043543287745015 -0.0003551755067918924 -6.430520477950343e-05 -0.000589496168345999 -4.063122812286706e-07 -9.439787540277846e-07 -7.047380120136964e-05 -1.14156298970629e-06 -1.926039953499108e-07 
6.718864995564153e-05 1.821147331141656e-05 2.956223190729626e-06 8.593814092198216e-07 1.048331449221573e-07 6.572476395865241e-07 -9.373544990438534e-07 6.014245078121859e-07 3.290186812017828e-07 
-0.02141280288471243 -0.002402269815131313 -0.001873918361959685 -0.004054197535101579 -0.00770900009160761 -0.001203729352035966 0.02429265191688901 -0.0003672865225194724 -0.000267772437797778 
0.01880820691628425 -0.007840051197193334 -0.004581838121405842 -0.003777783055756101 -0.0001019272151852924 -0.0001279338080569874 -0.002256717351160107 -0.0006851118983803998 -0.0002659578036237359 
-0.0245389021723106 -0.000592614158229783 -0.0006985516837765584 0.03914860428382769 -0.0002585181476691351 -7.895841084039543e-06 -0.0004769136947655502 -5.651814507735556e-05 -5.748270745501498e-06 
0.007716148338007289 -8.23779204886634e-05 -0.0001148836731531133 -0.0002466408142725388 -5.522476430685407e-05 -1.546254829915294e-05 -0.0005266681268895101 -3.18921644513596e-06 -5.299498597984449e-06 
-0.01148723781625275 -0.01013558122411044 -0.008838254834775941 -0.00608025214025217 -0.006693355789981293 -0.007226322590823204 -0.007777345297204604 0.03079731595786942 -0.00496071588249601 
0.0005751190655700393 9.275512769533679e-07 7.280290036994098e-07 2.121431592760046e-07 3.16636119004961e-07 2.007315297230385e-07 -3.485555651576743e-07 5.657798398383847e-07 2.001581753166681e-07 
0.001761237065854464 -4.026410018862499e-07 -1.277872155112283e-06 -1.70950970003303e-06 -9.818671525837868e-06 -6.067336936324093e-08 -3.328625386833951e-05 -3.458723303610839e-08 -1.775841545822718e-08 
0.00505435168008378 -3.518420658415207e-05 -0.003300250784171311 -0.0001810334669724835 -4.80147577132267e-06 -7.673932303390096e-07 -0.0004339603964780988 -1.202190175245428e-06 -3.856711668133619e-07 
0.0043543287745015 -0.0003551755067918924 -6.430520477950343e-05 -0.000589496168345999 -4.063122812286706e-07 -9.439787540277846e-07 -7.047380120136964e-05 -1.14156298970629e-06 -1.926039953499108e-07 
6.718864995564153e-05 1.821147331141656e-05 2.956223190729626e-06 8.593814092198216e-07 1.048331449221573e-07 6.572476395865241e-07 -9.373544990438534e-07 6.014245078121859e-07 3.290186812017828e-07 
-1.969331217759465e-06 1.744002451264701e-05 1.338119268055683e-06 0.009777013322563826 8.835857068151311e-08 6.445477457804763e-07 -7.090737069509527e-07 9.401093615473426e-07 1.665207292363782e-07 
0.05028044325307742 -0.0004008891636577849 -0.0005777205251837714 -0.001235437111585799 -0.0002789939905996871 -7.637995795834273e-05 -0.008288963966195766 -1.55465263414856e-05 -2.618246184660435e-05 
0.01668555009513803 -0.003207300226805141 -0.000524545366153665 -0.001652521965740741 -9.818257984947319e-05 -0.000381879270045063 -0.004092602236768388 -5.48733451015421e-05 -9.596597768254314e-05 
0.02356168676417653 -0.001621218182240592 -0.0004853471282344804 0.007935996857598318 -0.001964162313649999 -0.0001700694896155944 -0.003932128235567843 -0.0001276985087782667 -0.0001972565689944669 
0.004165716924748365 0.0138357156874728 0.05260211770048786 -0.01416626896526122 -0.01799443691369274 -0.001547563710163051 0.02432617019904162 -0.0006775414618086857 -0.0005329750694630153 
-0.02276547304788177 0.02416346423445916 -0.009620060997316639 -0.008663435148571902 -0.001444646272500632 -0.004045206676890742 -0.002054788900612696 -0.003531681439236217 -0.003802069054205324 
0.00474138252970519 8.973526888366691e-07 2.602398007704727e-07 -2.558079804810229e-05 3.916682201907975e-08 1.067497863670941e-07 -9.16900899717827e-07 6.995146192719145e-08 3.148342810871251e-08 
9.808711664846228e-05 5.673119461439952e-06 2.163609372111791e-06 4.455945387147966e-07 1.412481514705881e-07 4.822340912570092e-07 -3.717421783392347e-07 6.705432769379311e-07 9.046130893570381e-08 
0.006809302375382542 -0.0005317734028865711 -0.0003446964688380508 -0.0004925784024442892 -0.0002477328038811461 -0.0007125351988584628 -0.005035121079631895 -0.0001083722481977978 -0.0002386127720196163 
-0.04125547015384891 0.04138190418763116 -0.01780214460644155 -0.02011207494410941 -0.01749192182330812 -0.009749689267151482 -0.02323718976611438 -0.01269783200225363 -0.01817116502614483 
0.008703146787278831 -0.0005317290409854108 -0.001044657390885136 -0.001944270048546002 -0.0002616556453913174 -2.557593210185015e-05 -0.002763011189001471 -0.0004486636571945609 -2.44261189211923e-05 
0.03095230205260039 0.03034789403732533 -0.02978979528496652 -0.03686986236666945 -0.01808916201176944 -0.01203190181771573 -0.03764837220399073 0.00366167712956735 2.824929136397173e-05 
0.002282793272449516 -4.687149448883448e-05 -2.416163269308557e-05 -4.123431291148805e-05 5.22592449006482e-09 3.875152947927953e-08 -0.000198252565852072 2.842731857332707e-09 -1.913580335710832e-08 
0.0005751190655700393 9.275512769533679e-07 7.280290036994098e-07 2.121431592760046e-07 3.16636119004961e-07 2.007315297230385e-07 -3.485555651576743e-07 5.657798398383847e-07 2.001581753166681e-07 
0.01611043283768716 -0.003208230194821951 -0.0005252741232140907 -0.00165273443629534 -9.849926969148985e-05 -0.0003820802229273373 -0.004092252682119581 -5.543925065792578e-05 -9.61662021034113e-05 
0.005931565518145525 -2.822914341119167e-05 1.00948695539493e-06 -1.637028430858994e-06 3.104484408271916e-08 1.958856424257373e-07 -2.603686348726357e-05 4.87230648690345e-08 7.318114772492246e-08 
0.006809302375382542 -0.0005317734028865711 -0.0003446964688380508 -0.0004925784024442892 -0.0002477328038811461 -0.0007125351988584628 -0.005035121079631895 -0.0001083722481977978 -0.0002386127720196163 
-0.009635829413611701 -0.005392036154406605 -0.008943642699500983 -0.008793215269231729 -0.0006897596943498162 -0.002332143857670456 -0.007532145154949888 0.02203222286664483 -0.004040740200702798 
-0.01032900712333628 -9.11276603326258e-06 -4.820678394332759e-05 -0.0003929035397531779 -4.729290763538255e-05 -1.779353221504892e-05 0.02180830436307617 -4.638416154723507e-05 -7.158887190802577e-06 
0.004391900528947917 2.995516827273531e-06 3.153221497398524e-07 3.752630687552564e-07 6.324834166501319e-08 1.50026913425304e-07 -1.102289229708167e-06 7.062968137081684e-08 4.069362135689959e-08 
0.0004335578712390032 -0.01278538542540034 -0.008573485979407184 0.01190944861211358 -0.007143125197616099 -0.003516950611700602 0.02019209449708669 -0.00247334679901153 -0.003692073740974158 
0.009620395302906015 -0.0003625398238984955 -0.001469484874926645 -0.002825521830978225 -3.34536198798936e-05 -8.468450792780578e-05 -0.001318746477228367 -1.314784245292101e-05 -3.460620425004204e-05 
0.0043543287745015 -0.0003551755067918924 -6.430520477950343e-05 -0.000589496168345999 -4.063122812286706e-07 -9.439787540277846e-07 -7.047380120136964e-05 -1.14156298970629e-06 -1.926039953499108e-07 
0.004535037734438406 9.914673886760617e-06 8.455275195495223e-06 8.593842154016992e-07 1.068734699245077e-07 4.960940654102394e-07 -1.216068437420698e-06 7.815908616689503e-07 2.431819435085441e-07 
0.002417487683680743 8.489646373586368e-06 1.312735341599558e-05 8.874739516949308e-07 3.080819121287618e-07 2.970044634529031e-07 -7.160839027619198e-07 1.10968740604923e-07 6.153533495679679e-08 
-0.02763477961216015 0.03037021156509388 0.008890378762774919 -0.01048544407581255 -0.001103151197382553 -0.001286229306112797 -0.005314403225998805 -0.002800778071574409 -0.001890782156982031 
0.01051304714481289 -0.00211280796748206 -2.946462158170683e-06 -6.325200492994368e-05 -7.914400358008846e-06 -1.62904966734795e-05 -0.001244463384785372 -0.00013858536937429 -3.304849126894974e-05 
0.0005751190655700393 9.275512769533679e-07 7.280290036994098e-07 2.121431592760046e-07 3.16636119004961e-07 2.007315297230385e-07 -3.485555651576743e-07 5.657798398383847e-07 2.001581753166681e-07 
-0.02322553351644589 -0.004104316650871931 -0.003147368858662492 -0.004684080853451619 -0.002887208845190656 -0.001589160541598417 0.04680997348552591 -0.0007181716124412653 -0.001122309038414578 
9.808711664846228e-05 5.673119461439952e-06 2.163609372111791e-06 4.455945387147966e-07 1.412481514705881e-07 4.822340912570092e-07 -3.717421783392347e-07 6.705432769379311e-07 9.046130893570381e-08 
-0.007730053424869105 -0.00024999534529013 -0.0007001941975887487 -0.001269200804923206 0.0154976893976979 -0.0002829519729506659 -0.00185814502016266 -0.0008348400859401083 -8.656732910390125e-05 
-0.01754735855875502 -0.0004428689021606112 -0.0006921976277542854 -0.001297862570068313 -0.002241602025603849 -9.197862508005828e-05 0.02896327267264438 -1.596218199782991e-05 -3.673213030419443e-05 
-0.005403625968003509 0.02580544889703423 -0.001077701567018073 -0.002360347987848324 -0.0003769155106744391 -2.972451174149915e-05 -0.003267768771816855 -0.000465768313894757 0.02285424345667314 
-0.02356954679926665 0.02340608335035356 -0.001513384220329988 -0.003930920303254724 -7.057554523891609e-05 -0.0004712540039619462 -0.003661643643557416 -0.0005759938887132031 -0.001212141047797195 
-0.01646909170532128 -0.001207232111133658 -0.0004727923581135922 0.008094484390027551 -5.711871589335116e-06 -4.394795694668588e-05 0.03371099092557611 -0.001609187768917903 -0.0001748261625747683 
-3.938487759701337e-06 3.487600502402068e-05 2.670554009226131e-06 0.0195539975334735 1.762279685803471e-07 1.28773828362716e-06 -1.416308551227762e-06 1.879408497084507e-06 3.32513758568802e-07 
-0.02141280288471243 -0.002402269815131313 -0.001873918361959685 -0.004054197535101579 -0.00770900009160761 -0.001203729352035966 0.02429265191688901 -0.0003672865225194724 -0.000267772437797778 
0.0005192283517981938 2.411212366334558e-06 5.006587151730831e-07 7.252738142366272e-06 2.812929718259835e-08 1.103224718267045e-07 -1.620020459575204e-06 5.540214570242704e-08 3.722107856931102e-08 
0.005293232726203633 -4.645422710183968e-07 -8.772271815026753e-07 -0.0006565514669620077 -1.161915538870874e-07 -9.634702598367016e-08 -1.918784781674249e-05 -6.951437997069808e-07 -3.70552889253463e-08 
0.01348153923829476 -0.007858649527194356 -0.004583047553162251 -0.003785474044508766 -0.0001016468236329859 -0.0001283338294385933 0.008288855413684593 -0.0006852587858283917 -0.0002658759711576995 
-0.01896099915416098 8.039729998027476e-06 8.937030664402633e-06 1.713560404179689e-06 1.649546675934919e-06 1.450631584673039e-06 0.04217223251290054 2.02835910222347e-06 1.785947338345591e-06 
0.005931565518145525 -2.822914341119167e-05 1.00948695539493e-06 -1.637028430858994e-06 3.104484408271916e-08 1.958856424257373e-07 -2.603686348726357e-05 4.87230648690345e-08 7.318114772492246e-08 
6.718864995564153e-05 1.821147331141656e-05 2.956223190729626e-06 8.593814092198216e-07 1.048331449221573e-07 6.572476395865241e-07 -9.373544990438534e-07 6.014245078121859e-07 3.290186812017828e-07 
0.00474138252970519 8.973526888366691e-07 2.602398007704727e-07 -2.558079804810229e-05 3.916682201907975e-08 1.067497863670941e-07 -9.16900899717827e-07 6.995146192719145e-08 3.148342810871251e-08 
0.00873661630719854 -0.00113485784717832 -0.0009032044761089485 -0.001810537982565045 -0.0003242874331456426 -0.0004759844198492343 -0.007314240373558048 -0.0005356505716008794 -0.001180493296833265 
-0.04702014481312836 0.04084559117282983 -0.01866751046899512 -0.02173371824487105 -0.01981487653086277 -0.009865181302873579 0.004808587220425665 -0.01273579608882186 -0.01821427990223672 
0.007308571435092687 -0.0002109311804245838 -2.636584322436917e-05 -7.832107916976422e-05 -1.010750781567698e-05 -4.186406646746835e-07 -0.000388542909963184 -5.929784927105612e-07 -4.197062815743443e-07 
-0.01244142037552023 -3.493933746582569e-06 -0.0005066042662564801 -0.0006560753466374522 -0.0003081077774003824 0.02262120664050596 -0.0005520620823142668 -1.87439937499405e-05 -6.241793874932392e-06 
0.002282793272449516 -4.687149448883448e-05 -2.416163269308557e-05 -4.123431291148805e-05 5.22592449006482e-09 3.875152947927953e-08 -0.000198252565852072 2.842731857332707e-09 -1.913580335710832e-08 
0.003255663182273982 -3.624854778870079e-07 -1.139264465359878e-06 -1.224175143436204e-05 -4.091466849967447e-07 8.586488799943889e-09 -3.660150864045461e-07 1.011490952613915e-07 -6.17401728187734e-09 
0.02003282064726851 -0.006571783374903498 -0.00791684409624706 -0.0141948203039221 -0.004585031187103372 -0.003600602699380693 -0.01521566143174512 -0.003897805865598907 -0.004035721409401262 
0.0547992565712478 -0.04440610272918531 -0.03666156469430868 -0.04386076581481983 -0.03035106835961988 -0.02685968449205955 -0.05709081581795675 -0.02717916822504504 -0.04042850275273814 
-0.007730053424869105 -0.00024999534529013 -0.0007001941975887487 -0.001269200804923206 0.0154976893976979 -0.0002829519729506659 -0.00185814502016266 -0.0008348400859401083 -8.656732910390125e-05 
-0.0163846193101765 -0.01026044033268026 -0.008924220806426995 -0.006154184574860039 -0.006705384625284632 -0.007227088887082949 0.002399501821827128 0.05606665650124238 -0.004963514953930719 
0.007049269588871095 -1.935978760730234e-05 -2.568736705679793e-06 -0.0001508632203340228 -2.010590296518406e-05 -1.377030398074081e-07 -0.0006071855637310648 -9.770255352314786e-08 -1.40874691238267e-07 
-0.01382854526027503 -0.0002096403338760431 -1.907140931640693e-05 -0.000275243997386574 -2.08416628878435e-06 -8.426908717211966e-06 0.01739798073119148 -0.00036909751968676 -3.580055625923601e-05 
-0.02065803022710304 -1.821338147944175e-05 -9.640708066446644e-05 -0.0007858085619362064 -9.458548712383857e-05 -3.558568743898036e-05 0.04361665234244337 -9.276748582127279e-05 -1.431725103708106e-05 
0.005931565518145525 -2.822914341119167e-05 1.00948695539493e-06 -1.637028430858994e-06 3.104484408271916e-08 1.958856424257373e-07 -2.603686348726357e-05 4.87230648690345e-08 7.318114772492246e-08 
0.01364517796332433 -8.290908575457289e-05 -0.0001413070590431459 -0.0009636358763263786 -1.399556510020732e-06 -3.472016717101228e-05 -0.003026199452223871 -9.04402560448661e-05 -5.606203582527462e-05 
-0.02356954679926665 0.02340608335035356 -0.001513384220329988 -0.003930920303254724 -7.057554523891609e-05 -0.0004712540039619462 -0.003661643643557416 -0.0005759938887132031 -0.001212141047797195 
-0.01859021633532255 -0.002626310190589459 -9.054225568534504e-05 0.009879393330639898 -5.004307176225992e-06 -3.426470326046441e-05 -0.001683147712280343 -0.0008807609745262275 0.01700496448774 
