solver_type L2R_LR
nr_class 5
label 3 4 0 2 1
nr_feature 24095
bias -1
w
0 0 0 0 0 
0 0 0 0 0 
-0.6856092371556383 -2.00826095410762 0.8515284842403056 -1.624928206993703 -0.7923026461940547 
-1.794957477315102 -1.909492368805083 1.898462251336974 -1.888653135929343 -1.760375955335372 
0 0 0 0 0 
0 0 0 0 0 
-0.6856092371556383 -2.00826095410762 0.8515284842403056 -1.624928206993703 -0.7923026461940547 
-1.794957477315102 -1.909492368805083 1.898462251336974 -1.888653135929343 -1.760375955335372 
0 0 0 0 0 
0 0 0 0 0 
0.72068929416226 0.5255836856456736 -0.5158968132972435 -0.9348213190627943 -0.7337498496069051 
1.219232685807818 0.4582741328359176 -1.556664080283049 0.6625869604664492 1.845392626398175 
-0.5763819806027608 0.8863867606722964 -1.034081010997087 2.048055535054218 -0.0952661814433241 
0.3528464859061444 -0.08380744440570455 -1.170480405184524 0.8685671514255174 0.5679094433959658 
-1.164096995462893 -1.621649076541575 0.8304505070504524 -0.7489975526627253 -1.05443417825511 
-2.469131856161138 -1.125429120156369 1.648793381443719 -1.917944326917035 -2.481913158933294 
-1.788246433398943 -2.201009540917714 1.630179596974403 -2.460530065493089 -1.771076650676317 
-0.5224158363942853 1.26405246551673 -2.051745874175068 2.491835939731174 -0.06610971648772258 
-1.79890777200456 0.2711435781042319 -0.3125237200525824 2.773822753345502 -0.2414116705420301 
1.692415499442676 0.5457990091403754 -2.948272003105604 0.7133737213637129 2.514974681530038 
-0.2312092453694039 1.454883143378622 -0.9663334925430938 -0.156008982102064 -0.02622189776109828 
-0.1061822870297298 0.2568218500310394 -0.1876310443282388 -0.03254234242527814 -0.0250073543241717 
0.5892033831461656 1.069719574542064 -1.349400326388013 0.3116241758932299 -0.03151160162272683 
-0.004763799666727067 -0.5909349898813994 -0.2383058241406525 -1.459744082878803 -1.145476369326508 
-2.594245269254406 -0.734685069576705 1.527046880077423 -1.756885676805426 -2.78743447151568 
-1.67564008839695 -1.52537605978131 1.361790587332847 -1.935442637836708 -1.757677477007914 
-0.06622178668413958 0.4627725588293473 -0.5028736261804151 -0.007852036537218237 -0.005083004664276049 
-0.003356269123450996 -0.0120228487656065 0.00657448252537599 -0.002788510517604828 -0.001901098150305235 
-0.01258860920122027 0.1164970485026067 -0.1115269914158474 -0.07221406558874366 -0.005019985301631614 
-2.15830698870597 -2.428638823867239 2.729530059589515 -2.448197447937737 -2.209038081955324 
-1.411574388175889 -2.544397337060901 1.852909997347193 -2.323859376984182 -1.933856987370863 
-1.956403582088587 -1.372179933509381 1.717849879545964 -1.76808782916991 -1.665806487982949 
-0.3106666345279286 -0.391399909021938 0.4778289715885307 -0.3151764557441523 -0.1740614401356813 
-0.2562104116942927 -0.4512203432435257 0.5432639711721861 -0.1610881641374267 -0.1606102231092385 
-0.2683230644842069 -0.03216769596457691 0.4794195687725915 -0.0268995405859008 -0.3499470652972271 
-0.1864852634089362 -0.2929643902820728 0.3611993799061783 -0.1482301509842214 -0.1547829472064945 
-0.2564679987392712 -0.1235025380956372 0.2579677483469478 -0.09526975250464151 -0.131331644435747 
-0.3174569479259862 -0.3324626920208766 0.4264390818281651 -0.2895936989986834 -0.249905761290247 
-1.212172455016706 -1.163620001728938 1.002536763203911 -0.5444575890344714 -0.05724423826876665 
-0.9356449193129578 -0.7421662221366149 0.9321095653717113 -0.6643421663240036 -0.8367984740608482 
-1.328062736583606 -1.043126428334722 1.533351255763911 -0.8860502804907939 -1.182959405687092 
-2.794757626075059 -3.439052136552025 3.51716304113838 -3.257849907822673 -2.787305042570706 
-2.13755062025801 -3.15388134466022 1.743964440875146 -3.176863299631299 -1.273261757189288 
-2.035581059835201 -2.432110752844694 1.959891574762283 -1.985754088953573 -1.848290373998332 
-0.003168115723081165 -0.000752133043933194 0.08250007182696488 -0.001140042720197931 -0.1100417165737241 
-0.004144265075406678 -0.002690812428851796 0.01418656616921387 -0.0112879086600316 -0.004871321572228381 
-0.002377650968476022 -0.001911971618599385 0.002326237415812504 -0.004314055916558376 -0.00589674633430651 
-1.770357901324244 -1.801791902999817 0.122881336710217 -1.0918608715569 -0.3334039769806164 
-2.540078817259088 -2.632299008641045 1.32175986416304 -0.598895099452414 -1.78449729803645 
-2.050389354500084 -1.950970644606708 1.352297741733877 -1.419716094100987 -1.365846068798237 
-0.05168758531166267 -0.03087141716762482 0.2477943699766786 -0.1938668330915457 -0.06825049948731936 
-0.02085960058785884 -0.05362113701067486 0.1456057621179493 -0.06436183489095081 -0.06923426845363863 
-0.05198543886792063 -0.03429575152045788 -1.172219409500418 -0.0451777302655221 1.397662127954439 
-0.1596698160701244 -0.3162606234134607 0.8684922544270682 -0.3445892361969839 -0.5844159230667372 
0.5308673491201167 -0.1275120234542423 -0.2740954110618665 -0.4388380551086333 0.3201788331285139 
-0.3921917421828608 -0.2022578178998076 0.9915515741962067 -0.5651225214922211 -0.3078884670553286 
-0.003735558318124498 -0.001135140364913994 0.04690984836285212 -0.01392570066012063 -0.02231225939954042 
-0.0004198145186280234 -0.0001542280412401139 0.0008100135489876475 -0.001781015004101119 -0.0009004623603567841 
-0.001543206570320053 -0.005202428579009091 0.0154694594467247 -0.007796127643770538 -0.00782493390227133 
-1.644356707508634 -2.325761948731133 1.998602576610934 -1.950906260631449 -1.70572097663901 
-0.4273271197526832 -0.3268596921720542 0.305957861759048 -0.3526017744776474 -0.3722903797475379 
-1.801510968934271 -2.216916195310445 1.792100499498962 -2.116442668599975 -1.959767860526355 
0.6535670766392894 -0.420004530355514 -0.5004666441560174 -0.201917225621469 0.5846684981939978 
-0.3977396962495464 0.2093743784116475 0.352541771884757 -0.4346112970762214 -0.4757463257740318 
0.3296303404716042 -0.0957431907344866 -0.3477047422955352 -0.163043043318513 -0.2444839804919808 
-1.339117667905244 -2.217989383940999 0.7589091330436639 -2.071786900017199 -0.8652165736467897 
-2.390400514945034 -1.623008785207307 1.598508731615334 -1.330813379850116 -1.479586159379187 
-1.679954310767224 -2.486538105609157 1.546918123504801 -1.762763117138314 -1.937046127459952 
-0.1026064623628143 -0.2969315323867072 0.3328114454052358 -0.1650144144595539 -0.1231615519803804 
-0.432692343577108 -0.2334580786757689 0.1419160166787853 -0.1219762539390843 0.1987774319097058 
-0.2556419857685455 -0.03850605517344758 0.3688481169167366 -0.09400433075461999 -0.3194742402498825 
-2.064265249949725 -1.72637772205064 1.96195980764096 -2.065490536616532 -2.030483970624935 
-1.569666231254591 -1.87518049854361 1.644890914930894 -2.045229347910896 -1.695439810720023 
-1.651458624660697 -2.146844905196024 1.560305826409545 -1.804631505914574 -1.512209372054397 
-0.4269420153273079 -0.4474186792450012 0.8013725147500664 -0.2405876779186371 -0.3234802425044131 
-0.2280082379586727 -0.3447383517342044 0.4602178851094546 -0.1022517047789278 -0.1078848473126727 
-0.5732329626502393 -0.2896289009686042 0.7775326026741474 -0.1837863636572907 -0.2747701944135894 
-0.005503183068141063 -0.009473867284514931 0.03652300049371046 -0.007633132294234252 -0.007801858536538839 
0.8070145257171103 -0.03424531354017492 -0.2894257879589421 -0.01553023760250471 -0.5657374438339829 
-0.04874562058162397 -0.01252774479148317 0.04817468775271981 -0.007945701962547241 -0.01871845726446269 
-1.629404138767727 -1.973920416249985 1.499673666150086 -2.105617543546237 -1.436045036748427 
-1.096092093463523 -1.722601099816918 1.073224282642902 -2.06631565141099 -1.165546775633668 
-1.206763502239652 -1.907230252585071 1.303285089466664 -1.648816163488103 -1.677735724774378 
3.020735494072383 2.925546451419296 -3.541192815241165 0.5170415567241962 0.2405237073934804 
-0.2024223128240432 1.624837320019935 -1.344221340023074 0.0548494596543341 -0.3373272239149003 
1.591448500764191 1.532486495649044 -1.740469723665059 0.1069111163329285 -0.8362009853048947 
-2.197832705311662 -2.606631091568733 2.889445682059584 -2.559874234168766 -2.138893475149243 
-0.8625894863889545 -2.91839773509425 1.138135254584527 -2.360573151993949 -1.199212762246645 
-1.373488300783273 -1.093366757578258 0.900832514030367 -1.25226583813305 -1.329424411796158 
2.054421455339172 -0.2106245138991534 -1.733871662611203 -0.06586886714274737 -0.3545319575642968 
-0.4190929167259112 1.588831165934017 -1.225839401769693 -0.1820105587044206 -0.1138237292091011 
-0.1013334141593302 -0.2444697567745062 0.2373594793014778 -0.04515468726696088 -0.114880481467667 
-2.00354474655012 -2.622651711961712 2.697942518424175 -2.53791993753497 -2.079500580173651 
-1.277240261840112 -2.18200587404329 1.290594732194601 -1.902195305427115 -1.323495167694432 
-1.640516947981796 -1.588650219640484 1.508082785331519 -2.47144907291234 -1.546405989955339 
-0.3858455695572532 -0.4691099283653642 0.7434755837252827 -0.1907289380511148 -0.1808309493761581 
-0.1877022667062683 -0.2762719905858959 0.49668707595005 -0.1570292314645231 -0.08608941783536105 
0.4807516142850091 0.4186383333436903 -0.3473537188769616 -0.237504418602368 -0.3115169015440699 
-0.2633428006134332 -0.2126641970514328 0.8506682005373688 -0.4092371554971297 -0.5811343892599646 
-0.06949142132964989 -0.05876239260611109 0.1983432269142599 -0.1261558522415211 -0.05433565925723759 
-0.3020130669771886 -0.1381256796126135 0.5829587412308502 -0.2307782548060843 -0.383610358039033 
-1.047933110716666 -1.806378877670842 -0.2856516988592179 -0.335014838253209 -0.007939179547157416 
-2.279028968979459 -2.17044487415901 1.640576407688269 -1.195895093620774 -2.621186865188162 
-2.088149176527612 -2.405370146535677 1.381565694546015 -1.229551224352901 -1.143737270385315 
-0.2296510403674625 -0.2073299498377397 -1.682565882280467 0.9716938528558858 1.488675994829488 
-0.008809300484879736 -0.1386843203177597 -1.192551244940898 0.8144684710689093 1.05997548673845 
0.01390855954147212 0.2066426796123919 -0.3943684038573546 0.2519169100595229 -0.02642046598314277 
-2.307257864449728 -1.915476222892112 1.75982815296743 -1.873738608263903 -2.182396865898661 
-1.601752911752219 -1.908971470554998 1.419434187580112 -1.720882710759344 -1.405339290444782 
-1.729772130198546 -1.896780444947949 1.509460954278955 -1.469758480498165 -1.533314810112246 
-1.343056660172009 -1.35896299368968 1.591719636657307 -1.433904816767896 -1.397741635130961 
-0.5415227986398974 -1.416558594393501 0.6830280779223955 -1.458842935167134 -0.7269724004612109 
-1.135521987047909 -1.413473930669186 1.142290306516434 -1.178447893094253 -1.179286327111487 
-1.493108362341883 -1.374724729115499 1.682997748405677 -1.440919407318053 -1.435217533492519 
-0.7459865708172192 -1.503692691815671 0.8981375162890994 -1.517500242361393 -0.837331783906321 
-1.142078277213057 -1.420204745478661 1.158972277186691 -1.183937920515179 -1.180491077464371 
-0.2514740029532865 -0.1021805315709919 0.3161914499935717 -0.07648835067702157 -0.07361599921759482 
-0.1517530676536666 -0.1251738234959817 0.3466215087985997 -0.03508167810040652 -0.03193808770439481 
-0.1317287531476975 -0.01619074929801814 0.1708813306879692 -0.0118109599987583 -0.09091387267593135 
-0.06372897925408826 -0.06392030127701324 0.1170813114440055 -0.04575796763287888 -0.05232453878551342 
-0.481374951435199 -0.04447530700242232 0.1843517795373453 -0.08259239197337785 0.2134565347749031 
-0.3578469450282213 -0.3888473315758394 0.8285684135750411 -0.2355945147216196 -0.2000095636936611 
-2.636977633608221 -2.958060292505195 2.496123221156226 -3.01430891947116 -2.733240952064067 
-1.333713318158916 -3.20939261840228 1.462726405823529 -2.962550918480217 -1.618975111900082 
-2.099251390332991 -2.388241423057973 1.949276241283358 -2.097769526278117 -2.077087820626637 
-0.03331413940543167 -0.001744960324430677 0.04833883073588387 -0.00280242430470678 -0.01407993766943831 
-0.05545301297155962 -0.01045675974131639 0.1093847797127155 -0.01248774062155696 -0.006685787044264952 
-0.001630246183419173 -0.003072831003275424 0.003889003244024157 -0.0011337118859594 -0.001696286443544494 
1.97590069413398 -0.8611504230983523 -1.548929262704787 0.09916646912767581 -0.01664398339751186 
-0.6913911605823428 -0.7532869087013357 -0.02386545942601536 0.5361238365236581 -0.365557684818243 
-0.06789894733879442 -0.9728662627406934 0.1292841731418845 -0.5520134395170604 -0.1837047461302861 
-0.6156418072699558 -1.325843120629061 0.7983183135315703 -1.266778360016046 -1.504829100146221 
-1.525652880337644 -1.430653356084332 1.500849348326285 -1.385903824713517 -1.501613665297069 
-1.718365671070767 -1.71909690874276 1.558541673199815 -1.285248857140603 -1.557427429843105 
-0.004385853396919379 -0.001568304806121022 0.01831139642876256 -0.01050393400392805 -0.01678214370199918 
-0.1146941309268675 -0.00283111313809926 0.08128472658006415 -0.01240804776254927 -0.01229568895224351 
-0.05737751487184188 -0.01099454334828183 0.1106138880134528 -0.01322194749636736 -0.008625311718745818 
-2.380059950188846 -2.577492990294295 2.095520114338212 -2.302723080924372 -2.056548321527895 
-1.468070234514821 -2.128068768786298 1.540284419708216 -1.94931606393211 -1.666232914596238 
-2.33554073908041 -1.914557912135018 1.731777196720718 -1.958620577669279 -1.67867606400232 
-0.4113652313389867 -0.1959099969673272 0.5607023053528289 -0.2358259388588871 -0.2828088142396453 
0.5165472615534812 -0.2849085946864076 -0.5714431367826368 -0.25417366378448 0.6716665590554506 
0.04530148216670937 -0.1495722879866911 -0.6160253807311086 -0.04804438345766732 0.7873974417663792 
-0.1430234266179353 -0.09652296229348462 0.8060906769547087 -0.6138396947170967 -0.4421993642084802 
-0.2261056634141509 -0.03048431896655326 0.277326478455831 -0.1152505754681506 -0.04319044272590459 
-0.1219912917640024 -0.08589163667298536 0.6228100057955376 -0.2245811299967688 -0.4664688389058356 
-0.8105846613503359 -0.4227519475779634 -0.6622009018355073 0.7610107240575752 0.9495957146483236 
0.5626610777137777 -0.6094594585281506 -0.3661099494783128 1.030838564127829 -0.6003936369835454 
-0.2017191884526294 -0.5348898700539523 0.2935814059960661 0.7474754025833247 -0.5336515902373523 
-0.7514221425641346 -1.1590084327684 0.4321333066514488 -1.700246561519922 -1.176202656430105 
-2.087859570660535 -1.162314606972914 1.423010462730484 -1.478501581886953 -1.740778736028504 
-1.501311980394011 -1.552373320577979 1.254254429033369 -1.725528470916601 -1.874554300093965 
-0.04889627885554094 -0.02728588484829048 0.324548231491588 -0.2369888747530535 -0.07676762629031995 
-0.00427342818748886 -0.004074823259789528 0.01553520298228995 -0.01332777179197682 -0.003202172523747653 
-0.1065776332946839 -0.006405100732050244 -1.03398118031621 1.596927712184693 -0.2092300769371098 
-0.4257376579346803 -0.2950505076287744 0.62340253623891 -0.2163111293537513 -0.2899946608187162 
-0.5009828594419554 -0.4537285541203258 0.6879530595049838 -0.2396625598773501 -0.1617207942061334 
-0.2312173497744073 0.2278682311581727 -0.02625406165793301 0.07819246023343074 -0.2768459927142056 
1.954700885132754 -0.5080645463787055 -0.8014326994722024 -0.9705812335428674 -0.8365031852168237 
0.6763387704358247 -0.1990516485769676 -0.4710010835472165 -1.238129766143659 0.5085767155763335 
-0.7294527665631242 -0.8439251870493596 0.3203054674068714 -0.07295643234124895 -0.1640843071688571 
-0.2528534104648995 -0.01814581075811993 0.3431130711483205 -0.007090474206643508 -0.06506714531966994 
-0.01141356168759713 -0.03876023699311382 -0.3195921446145909 -0.02896234096303362 0.599661079908911 
-0.03613593820882763 -0.004012741040247214 0.03232613945128889 -0.007240450217865091 -0.01313894770011491 
-0.118589303797632 -0.04913444436964198 0.1763353627998627 -0.115984394167392 0.04214407817080693 
-0.07673112175479459 -0.03591989960759179 -0.4482619325475001 0.2967848943785175 0.2394337638479609 
0.4278146384070928 -0.0805700608545712 -0.2018420739441565 -0.09190188858631541 -0.09044653869252163 
-0.06895455180840133 -0.002438742922158222 0.05758277612999668 -0.001807705275324077 -0.01771834486715652 
-0.1930785790435776 -0.009103739713642332 0.2781478701680032 -0.02301368854225219 -0.1623169462063228 
0 0 0 0 0 
0.4759933407358459 -1.242185874249826 -0.1332256441131449 -0.3184778129448229 -0.4185300551070389 
-0.3648100370158319 0.3136434253868395 0.1499806518623998 0.1582719188801577 -0.5173759479194625 
-0.4830751658998733 -1.146208635737514 0.3560869610053542 -0.6547435008917845 -0.2671401038129773 
-0.4317574093970742 -0.2163342946740184 0.6586567290135307 -0.169127425061196 -0.228117951974792 
-0.1008162864253944 -0.08139814256475929 0.1947012174797727 -0.04117690699185639 -0.03982318406366082 
-0.2575097728121438 -0.2413999484855388 0.4839239721079523 -0.1031161282911437 -0.2214411835559411 
-0.03658981990376996 -0.004689150248074851 0.08811621295447625 -0.003954282495401327 -0.02756997713123358 
-0.02128432648105369 -0.00809988518546963 0.319237978604417 -0.03278884178646788 -0.1898614321372595 
-0.01343512317617408 -0.01073291618561062 0.0221879119373907 -0.004453403094529618 -0.004130989648971951 
-0.1249954762957351 -0.0780964661685048 0.08936353149481917 0.6036694774445166 -0.5894497181616127 
-0.1071273117744778 -0.05336271734351469 -0.57469416776358 0.1479107413831686 0.5446174766398122 
-0.2054832773257265 -0.0715543681867339 -0.20862219442478 -0.135331842592737 0.6629216441905197 
-0.3936503802448654 -0.2412514680057475 -0.5457050851887209 0.7713443372265284 0.2729808566369696 
-0.3413846052856765 -0.2020341696345794 0.1830678503710663 0.008863083466064655 -0.3419169384458179 
0.04152462859875084 -0.2858561945776202 -0.6858534546491786 1.060072885580006 -0.3809040901567388 
0.5570956207141897 0.08672658279432267 -1.385246171122584 0.7331525212294162 1.906819239739942 
0.608774991510671 -0.135157091215268 -0.7323194306022202 1.531633548951848 -0.4888386286957361 
0.1407587415220593 -0.2606686823230112 -0.7299175447002201 -0.2333491982713884 1.319805059919766 
-0.1624179668814379 -0.1201706259606623 -2.803090552319182 1.780634236650367 2.746913209884668 
-0.01566346984318411 -0.1623441687620706 0.3091824144273895 -0.4301140728500327 -0.1834300957187963 
0.2566394972064226 1.029324006855644 -1.67389156542624 1.304783230624497 1.412050794304378 
0.7370477453366784 2.517964548771307 -2.194202999536127 -0.272752172219141 -0.2982625275247596 
-0.4741980808470942 0.9159564778125667 -1.104013109795153 -0.08193015850284882 0.8652395636011575 
1.217543094119762 -0.2768288806236636 -2.049187287954291 0.4728359128143865 2.026608441058932 
-0.8556499279353676 0.3113600430208082 0.3970260506489642 -0.8588800604091275 -0.6357175316593846 
-0.5839473238117102 0.1314883227128259 0.4209603583954883 -0.9120377925171474 -0.2505344509550668 
-0.6681774441674634 0.01643306071922648 0.2451750230260125 -0.9400883617375276 -0.1242949966276219 
-0.1512132264388359 2.542472396340928 -2.100812985784496 -0.07918442134504029 -0.101952881581452 
-0.009941808786159368 -0.04026463125007637 0.04424856946148661 -0.01623040577669501 -0.008392406274276919 
-0.08740296542983168 2.108532943350263 -2.2690351727534 -0.02460302988173809 0.6132569899015596 
-0.2982477040939073 -0.5881157826751118 0.8241922425923672 -0.6821157104774226 -0.3620274532187734 
-0.5664826659005433 -0.3087985320278479 -0.3213594353061164 -0.5309175034536029 0.657932005999207 
-0.5736614828362433 1.174709337598317 -0.8147021843197197 0.2448439217399524 0.5821914829521152 
-0.3963508133608679 -0.3433564161696765 0.7465352452033024 -0.4020626632934271 -0.4015808639201793 
0.2672365079781676 -0.3145723865971503 -0.06464965029890048 -0.4453252291530403 0.1510547962091903 
0.2362590572874072 -0.1337638039528897 0.06210091569215556 -0.7016030569838958 0.1555127536810638 
-0.3498322175973603 -0.1014248959152208 -1.252536573895123 -0.04788960829280029 2.214474618362524 
-0.2293535820274077 -0.3739409308407843 -1.169105079280866 2.072896100202034 0.4665718991346461 
0.4725550626873211 -0.04614413597093536 -0.3480027281705464 -0.02350495365448295 -0.07467801766078604 
-0.09479353398419457 -0.1406907578448232 -1.123487227549897 1.74724343977603 -0.04991745333111736 
-0.04400054127549621 -0.1060599745515724 0.1127363218685673 -0.06206507215225341 -0.0450249641612943 
-0.1373029448680806 -0.0310264986877007 -1.151343637961432 -0.01439930709452202 1.447571060170462 
2.526489621678413 1.171882088079529 -1.937610273206765 -0.4346182574801276 1.337032439536464 
-0.137688542079221 0.4219216182149422 -0.2360749397575055 0.5336718313907711 -0.5158162418971484 
0.2352767729863277 0.3538190015541178 -0.1798962351865803 -0.2234145072330561 -0.5572525394930214 
-1.735127787312553 -0.6727143866566437 0.8751918688730608 0.4752813082171369 -1.254618024179624 
-0.5331249465257476 -0.4456065929950707 0.6094586098245105 -0.5538306870419244 -0.5836089285045709 
-0.6421908766988977 -0.3453799083869318 -0.2642419974823235 0.3466794086010093 -0.5114852785252952 
-0.1182818177656846 -0.03902587366630623 0.2383976611122119 -0.05478804598371397 -0.04955054091765589 
-0.02103044386843199 -0.03971021123550466 0.04963670306363734 -0.02743502893505036 -0.02243167086652273 
-0.1945290567697543 -0.02404396512801903 0.1805678717729122 -0.0158308266447652 -0.03789152554327847 
2.019729127753734 0.7341241406030342 -1.471878788646687 0.1342073577635689 0.7786543928801856 
-0.8326748258109271 0.4353705368768623 0.07260071519064443 0.04761949925918921 0.259326321890924 
0.03228156840053872 -0.4923495079948062 0.1334832332521164 -0.4020441871068086 0.2925349869760262 
-0.1332335498806219 -0.3506105519006272 0.5101543464864228 -0.2102907687082527 -0.2063202744619934 
-0.3845345477766634 -0.4503712470288471 0.3468973309039651 -0.2332309437697476 0.4018970120550324 
-0.4370230448679618 -0.01369808716856005 0.5541496974772677 -0.02967085225751245 -0.2290015710984701 
-0.1873898814311799 -0.333892549173147 0.4851048927789938 -0.1410320656384753 -0.130987872999105 
-0.06074089805080594 -0.1013345444174185 0.2088073152697429 -0.05602800436454307 -0.03877865029628239 
-0.2420486719905282 -0.2134171892925797 0.4379620406623648 -0.09466488718559704 -0.1623159671609869 
0.7499344333791872 2.135053062962142 -1.467741571587611 -0.2517999982710562 -0.2341182671872566 
-0.01810396771447283 -0.01972675104663342 0.04841994808878386 -0.04304986656887387 -0.01456217291006201 
1.093481506046163 1.296194141278134 -1.2355715624716 -0.134928567369392 0.4604435397318278 
0.2901440214571402 0.1500269726453209 0.04495224751885832 -0.8135747823592233 -0.857942730978948 
-1.024202969292651 0.5175268746522185 0.0006963072743380232 -1.011021029816701 0.7383177763381645 
0.6908293485114332 0.7955961614306778 -0.7274213107207443 0.3797593278600291 0.3621121303433816 
-0.003635375725003763 -0.002190455841088924 0.1505596214490058 -0.0142479499822965 -0.2633050441244696 
-0.004780077853199971 -0.00224443696711295 -0.4708358314427075 -0.1656136638452627 0.6638044180759444 
-0.008672141601511266 -0.006247606410715793 0.02402434871736173 -0.009918516513145377 -0.01125146798334164 
-0.09712608406566875 -0.007502685964834297 -2.449819339516033 1.090195074509525 2.152125269745679 
-0.1532103286728504 -0.01058757266595409 -1.042302308778384 1.501006242421143 -0.01559332982930985 
-0.07744164833965662 -0.01893440873294586 -0.9081394728904201 -0.03466545042769609 1.028410674106151 
-0.09827763800235682 -0.03634468101381344 0.4519782605517172 -0.07158558011102704 -0.4302219404703629 
-0.07125019022751539 -0.02505925219431857 -0.2120173494540524 -0.3261847013469176 0.5792012770274416 
-0.05113332940893504 -0.04230609224041366 0.1488584613069921 -0.07351726775971766 -0.08003636603823155 
-0.4863829084165461 -0.1900189868751155 -2.072293324867814 1.187695367638197 2.091483034737446 
-0.350494803492944 -0.1197945613564904 0.007607977363622732 0.4298055493591401 -0.1024686842417082 
-0.3534074592256756 -0.1051095548712859 -1.115732811860447 0.7931168604600441 0.8689467240216778 
-0.269756154203497 -0.1796970051505045 -1.201962475519435 0.1258519590546154 1.610013422905267 
-0.1947478846188053 -0.0900287697059992 -0.5769305833325461 0.4685295461643052 0.2120856566837421 
-0.5463747666690218 -0.1489444158263804 0.3795015110911675 -0.3624397273064292 0.4378672831684196 
-0.06450230138241142 -0.02212584297332456 -1.483106809182592 1.138127230442864 0.8745951933291726 
-0.01062886659270574 -0.01359980474565518 0.03136513485813425 -0.03531640494469708 -0.01669515031984234 
-0.04205533310325792 -0.02925924891241146 -0.8774438321576805 -0.1110919811098404 0.9008996540768156 
0.4729517844171596 0.8549099332588947 -2.243579732233507 -0.09226512657721678 3.576193480400057 
0.2564799053759979 0.4074914615082438 -0.8189672977923665 1.220045038627015 0.1758681438353193 
1.573488692434423 -0.1599957337623366 -1.303302142207339 -0.1242819336008463 -0.200626192763188 
-0.2646731460704376 -0.1977463274045045 0.6508986147471227 -0.3341242087349628 -0.230231566092422 
-0.1730044303337139 -0.140416685953384 0.4204514171469173 -0.09790183511566262 -0.08875306571837581 
-0.4229767074526387 -0.05953452478798653 0.5676154606887837 -0.0666724239708027 -0.3505383475065811 
-0.1249495808444157 -0.03283246873149753 -0.05362604503913355 -0.1573845258415767 0.2338367460348596 
-0.07752796103103203 -0.05085509084867947 0.41496656953865 -0.3137463165864617 -0.1935184153403009 
-0.2313875329412006 -0.02234380420955023 0.2880065919001953 -0.04358798725068568 -0.1063653658424449 
-0.04737749728638625 -0.03964676295311044 0.1583606069123974 -0.01619256672170123 -0.01977156945657832 
-0.1275585311756408 -0.04832850194936627 0.5237959025129295 -0.04570816743566618 -0.1152305644059887 
-0.04618009281042925 -0.004736458419544684 0.1675380463432294 -0.006023141576381038 -0.09766700474702322 
1.203760486353391 -0.1342113096199516 -0.8298776846715469 -0.1298283769246474 -0.2342954459544795 
-0.0569616660748796 0.5653411604561344 -0.3259896932631796 -0.1344460991106799 -0.1030606911871398 
-0.1180712646274959 -0.06719618028933323 0.3537742506557781 -0.0617607792207736 -0.1222650519694738 
-0.02603226791402017 -0.1787065257572435 0.508507882370497 -0.305325493586281 -0.1374525185723834 
-0.04611095595979743 -0.00938467879002931 0.05684456807358775 -0.02346970601342323 -0.005852549224718984 
-0.3086326657345984 -0.06270402107634873 -0.3677482819027392 -0.1169429090458691 0.8617840812923784 
-0.323464085789199 -0.8379708122180881 0.8867555156824927 -0.5852139898861691 -0.4141298969055697 
-0.01911548194827158 -0.3775043598581779 0.2003228003077402 -0.4870797579186532 -0.2846127789719761 
0.3712839799144552 -0.2054194575438949 -0.2471252912873156 -0.1722293791414429 0.5476693615070187 
-0.1225455933893827 -0.02041363770242626 -1.720223081703906 -0.01989440632112919 2.297122405681028 
-0.06203843854652544 -0.0430700338599589 0.1217530125507316 -0.08910987204637916 -0.01678536541565722 
-0.01721615115568885 -0.01243114273012496 0.0388310557447461 -0.00976322492049833 -0.02002297079139408 
-0.1159936482159243 -0.1024571909226345 0.2610061790770177 -0.05418462206438911 -0.03748792391799275 
-0.05179104044927246 -0.04823810327640166 0.08878699099639148 -0.01994980343904619 -0.01552187551022821 
-0.1765388804814581 -0.02600257440588854 0.2552398921989997 -0.02023912051216334 -0.07329648632353071 
-0.1822556336952678 -0.005829530308650057 0.1597347573474784 -0.001238468302024645 -0.03357457420133375 
-0.003222181230227372 -0.004626058910730791 0.00389206682373951 -0.002821473309732016 -0.002808082179140752 
-0.02630516860817046 -0.004253601459920075 0.02455435108022128 -0.0009133848544717593 -0.001580728897317446 
-0.2412508067751305 -0.6612666526929637 -0.2648281935089886 -0.1263158790511947 0.3859106951457649 
-0.2205467700639474 -0.3399085233672537 -0.02644422923742568 1.0708694258832 -0.6620968523413491 
0.205626599963573 -0.5839829773363513 -0.2621374287916042 -0.2052730009103547 -0.1792205787643692 
-0.02502215734379014 -0.007294497950168478 -1.059961950210749 -0.03951703092349968 1.090464227395991 
-0.01317345891115585 -0.007045289088011859 -0.7170602867430843 1.104170482675787 -0.4366240102993378 
-0.008896013760737165 -0.002438296989566898 0.01558985410861241 -0.002091542099499111 -0.007997585099130077 
-0.4185978579964935 -0.626919558048065 0.7689285112047377 -0.3905281897116981 -0.5620020027499353 
-0.08961610046149231 -0.4022908641845833 0.587479161644618 -0.3154200270672681 -0.8276393786514348 
-0.07045814969906536 0.1811495210047419 -0.03549035815423824 0.0376088815458905 -0.7850264368554704 
-0.4290357996068023 -0.3404736964539138 0.6984569526593556 -0.3468754047365246 -0.6354122227935338 
-0.2143564893219096 -0.3259501649309203 -0.2051083080399925 -0.571118031371783 0.3782583236479833 
-0.3655832601294922 -0.8497331120482916 0.7541526295954032 -0.4601190946424542 -0.4884569037043585 
-0.1365920263133436 -0.0804973709167998 -0.1569131018159755 -0.2173801185389349 0.3859544351435029 
-0.08247192945366194 -0.04745390286020936 0.5580188802221155 -0.1693643244949267 -0.5349260907863292 
-0.2068823714922243 -0.08467987597378096 0.3581680082585099 -0.106721812181674 -0.1235441146077682 
-0.1629980475867534 -0.02671444344483153 -1.596606136212567 -0.01371756741828329 2.188937302594972 
-0.01259126423509793 -0.03682956474540708 0.0672452684228006 -0.0230324261350355 -0.0317382922315505 
-0.01676117984175265 -0.01325650229853143 0.02514989767957082 -0.005972584671005166 -0.01383508045769797 
-0.1516633644093619 -0.06662229206398883 -0.2564969141363072 -0.1680877406871811 0.303530137504091 
-0.08989349378531031 -0.03675335988476859 0.2455903746019957 -0.5555566627688595 0.09226286998904056 
-0.1269898990894961 -0.07999579971405343 0.3153777992295897 -0.1048093484322539 -0.1503067201587743 
-0.1263417860879593 -0.02690848259985236 -2.219835027540197 0.9179244437008022 2.386032197158125 
-0.009790485419669068 -0.02023612232952375 0.01977629501924594 -0.01610617137059528 -0.01869583988498379 
-0.1448253437685958 -0.006257686405879048 -0.7817351599282911 -0.009351109595172692 0.9489721104222545 
-0.2103968976815085 -0.05095072865414243 -0.9745021454639125 -0.04933507042218523 1.514357596134798 
-0.0486943288473688 -0.07954690257962797 0.09783778995721017 -0.03242484554660705 -0.03166962149189531 
-0.08207144127794941 -0.01384599083467576 0.1597106477826697 -0.05662715169249784 -0.0568976114088263 
-0.08154019134482186 -0.1216326980045934 -0.4670493626919128 0.9676284300794633 -0.04408248344918574 
-0.06281889076223569 -0.02443764737200062 0.07890935515604197 -0.01562462650956668 -0.01767378375672282 
-0.09756188942958322 -0.02004102966648217 -0.4215784983372221 -0.005752660837498607 0.5082847758625744 
-0.3001127684194747 -0.08406680635011438 -1.160857628646673 0.8206929466130827 1.411144054233808 
-0.08436416354027745 -0.08032567821218105 0.1764648810608671 -0.07566708501102752 -0.06547628897009279 
-0.3025419923604968 -0.0187588938718509 -0.4632551350046166 -0.01593736556360951 0.8850917222628342 
-0.01383842776964716 -0.0002071501304713698 0.0114911460023723 -0.0002529139395026704 -0.002256055358048063 
-0.03048691249638891 -0.0008833833175028452 0.06115550077348958 -0.003885855393663454 -0.03637820529917845 
0 0 0 0 0 
-0.5588644913117953 -0.04472286572527744 1.055280841122255 -0.1171000787708382 -0.9780871997488486 
0.3451421384636519 -0.2348686291824447 -0.6957022212656484 -0.8218297876490532 0.952991843333212 
-0.2333569753497686 -0.05286456068261969 0.2491021697971989 -0.06156259971248828 -0.08079292764453466 
-0.08842608682792295 -0.03964428125023182 0.4295773606777757 -0.08105873302996902 -0.3460722377608088 
-0.1236413003261205 -0.05003906573940588 0.0788290625891403 -0.3446902071164193 0.367969969153625 
-0.04127824668503411 -0.06351047955003238 0.1319925699151647 -0.08714073676858121 -0.07367177512271188 
-0.01144920027619724 -0.00184466753247047 0.04033991999500608 -0.004147739931637463 -0.02553579439027277 
-0.01222230683471357 -0.007368588333351983 0.03794136964032265 -0.008877130306359391 -0.00955424409791924 
-0.000994377790521012 -0.0007164521625160363 0.00352332799872037 -0.007172691607998656 -0.007183794199752839 
-0.1947288195104184 -0.08390045641386641 0.6033774463313334 -0.1764075872762451 -0.1553664992443084 
-0.05846341252923328 -0.1228861116502466 0.2430327730946414 -0.04944226830614257 -0.03508819495701761 
-0.1383219609792257 -0.04630516865272167 0.5055705767367005 -0.08902569927679729 -0.3259057882927804 
-0.0139862582503449 -0.006400552000965482 -0.5751384021969265 0.7339703025205397 -0.1140272521798381 
-0.05021455038456384 -0.00203406790466258 -0.696842207851414 0.8599859840159481 -0.003905289009233447 
-0.01656281907096958 -0.008505262028169092 -0.7134229612154402 -0.01644388289005844 0.734127415713727 
-0.2692438759605791 -0.3270482474054304 0.397039003942103 -0.4472568318428339 -0.3693334581373739 
-0.2474560301116815 -0.3193562999378214 0.5193706540323351 -0.4202217578117619 -0.8188308192787612 
-0.04440479928800289 -0.5654518684209534 0.285455342241639 -0.4879251387644002 -0.3026370142624505 
-0.01472735567683411 -0.04688507749071972 0.05980950062436712 -0.01820104257344079 -0.02000098742881419 
-0.04548662428980275 -0.03824716059784544 0.103700641640928 -0.02287383369731698 -0.03748641237395127 
-0.08349191799936005 -0.001219051871541445 0.08399250460359754 -0.002369248861895602 -0.01641246899648221 
-0.4296206716456535 -0.2289942645158078 0.6608016149107927 -0.1521142937639265 -0.2142745250718333 
-0.08160991692095235 -0.1763632351134543 0.2299903365734148 -0.07064695934056602 -0.04185529152216687 
-0.1458912167819965 -0.07989252886941839 0.3084818741150828 -0.1401474416717466 -0.09507909905219958 
-0.01237274093371103 -0.006767201206542305 0.1057000430013462 -0.03764315817383933 -0.08434580123473505 
-0.02650007235505974 -0.01270602194685352 0.1704639665834178 -0.09416038613332726 -0.06465323629273437 
-0.003015689130444021 -0.01645432697293166 0.04487908830904798 -0.0138380792711873 -0.01378026518234068 
-0.2263431192474432 -0.103747391373706 1.191651718885939 -1.047961294708557 -0.7384737929705999 
-0.2841944930358044 -0.07668356980567134 0.4101059132104388 -0.2125441838227966 -0.07199633294399621 
-0.3534532065907236 -0.1440931840341086 0.1653496984032565 -0.5320596305209081 0.1240331954909605 
-0.1717305159541559 -0.07208288160523824 0.3020847958669644 -0.03792239133355156 -0.08474113803976614 
-0.05297764552563163 -0.03614453533374265 0.1203134674278144 -0.02936015971672637 -0.02207549679936346 
-0.1212558504678056 -0.05208089055029623 0.224724231038787 -0.0450543480234032 -0.06989857180885467 
-0.02122722132722699 -0.005036723096748546 0.1738340994345577 -0.01906705402762013 -0.1270848546365623 
-0.006371985951052431 -0.004030835735366283 0.3704005274680784 -0.1822187219472011 -0.1772593476206836 
-0.004267491455986573 -0.01260626522687151 0.01035789242192104 -0.0133882564943222 -0.007883274457514484 
-0.03281133495447443 -0.0198905223913588 0.1596643878406685 -0.01736964866687883 -0.1245032347728602 
-0.03521095433743065 -0.01290488492008773 0.1543335365691867 -0.05002311524158182 -0.05738494155369663 
-0.03084703649115288 -0.01109213630928964 0.08271260587087903 -0.01632809887056066 -0.01736219786400532 
-0.01155260682231572 -0.007861595534468892 0.06778898946070998 -0.03466827160790033 -0.0332041152654881 
-0.01722610254503907 -0.00212274171069076 0.0150663313912931 -0.00341287058807991 -0.001259832512555311 
-0.09387470302027605 -0.002603962256885682 0.1396301434610036 -0.007555564164003229 -0.0519197098315214 
2.338754960934599 -0.4305741534297235 -1.577675599022788 -0.1818451243591018 -0.2381206165661171 
-0.1234270649789583 -0.1749700821784779 0.2332392863650795 -0.07813426016560768 -0.03262684888723787 
-0.455272931037502 -0.3728640365883329 0.7020421274212565 -0.1095617125319811 -0.1994018586640474 
-0.176400854082948 -0.0869183634584577 0.2850782953253013 -0.04053067361794924 -0.0624279070532569 
-0.02741093219088309 -0.04234095890209812 0.05616074343105533 -0.01247252127522758 -0.005658375032106817 
-0.7168475394132113 -0.01997481431408992 0.5867140596145909 -0.007745420210006662 -0.06570322213460915 
-0.009406603257532694 -0.01411051220037045 0.02098655460885609 -0.007520804794313366 -0.01006577733921868 
-0.006910539075036069 -0.003429846727851279 0.01120925099800123 -0.005897669844584365 -0.01342159673563683 
-0.03694332433503812 -0.07130564424309871 0.1130481251973575 -0.04490621611715747 -0.06798170741098043 
-0.04583790557627616 -0.02281969925562463 0.1796383523524067 -0.1222931659836934 -0.05615475140055189 
-0.0173077914213238 -0.05177160533747897 0.1074702923400121 -0.0420637019617981 -0.04640643261311601 
-0.05968853697213338 -0.01830356633134099 0.2205896235277766 -0.02341829643030878 -0.1529077750542281 
-0.20472907007705 -0.1256411567227003 0.7072996089026207 -0.1976583513208102 -0.1150745464773475 
-0.03445048243296078 -0.1356900990464253 0.2491886444266889 -0.1125075645712273 -0.08955420638884537 
-0.1608315410544 -0.1007009527706379 0.7539160611150382 -0.1058715180193706 -0.3839295249571222 
-0.05403304910127765 -0.02229087985106952 -1.803472894729396 -0.1388431815247286 2.074329360113857 
-0.0416144829327084 -0.01655333072463632 -0.01695182931365849 0.2351536883963713 -0.3776478404229151 
-0.02011793785018672 -0.03099392557551173 0.1308973406971612 -0.06481636556811261 -0.08072728322468389 
-0.06372798844474656 -0.03476914628068135 -0.1729300858986718 0.3088497379012718 -0.2617113262491773 
-0.02768260427302386 -0.01709892608075693 0.04191351796582055 -0.04221183287434406 -0.01391310379837587 
-0.07559418242720001 -0.03971731264715511 0.1651354506344129 0.3823286774705362 -0.4633858552202534 
-0.05874425640357586 -0.1008669858114053 0.1512032572163295 -0.125041713870005 -0.07907665555090032 
-0.3655257593597585 -0.03096370263587717 0.3356866482440948 -0.06958831672410101 -0.1644996427576694 
-0.2809548047370822 -0.2561102180732063 0.553352605469045 -0.211435867583857 -0.3731686633539079 
-0.004847751754015632 -0.0005528820286901205 0.04492167467129999 -0.006740879673183793 -0.05440882754410607 
-0.01297590807283617 -0.001011913289243633 0.01777873942835997 -0.002705286820386655 -0.00104601144459032 
-0.002023216926541107 -0.0003665884068111111 0.005182960532194501 -0.007877462141653553 -0.008953048274595365 
-0.009918619884828403 -0.0004830723137995373 -0.7069428170902001 -0.001416568130011628 0.7020338887156576 
-0.004168430956803738 -0.0007929386080264329 -0.4548612894145355 0.7227632091249809 -0.1742466951600609 
-0.006487954036418083 -0.0005059566446218163 0.008889369714179984 -0.001352643410193328 -0.00052300572229516 
-0.003353428310441988 -0.002294393981887362 -0.9036287934604701 0.8844490652855722 -0.009771689114733882 
-0.001435034647668731 -0.00119826209823708 -0.6662917647415902 0.7694370186724099 -0.08537448763517737 
-0.04058073025449249 -0.001795000602473897 -0.6370464704336245 0.8129461255920132 -0.003957238245968408 
-0.4419326325674727 -0.3556152162568509 0.7187017270731036 -0.3110902395210202 -0.3523156871489397 
0.8202833761108002 -0.5862330327255713 -0.4601572375061596 -0.4005366888800859 -0.03432873803143596 
0.1086837442421725 -0.7002387858734538 -0.236144541031289 0.7763322862586326 -0.2374905812959998 
2.113161475635182 2.102766101933109 -2.239756552245439 -0.3947634195858383 -0.4677559900805746 
-0.1390088644102007 1.322144157087138 -1.153366368540107 -0.1526300719971333 -0.07293327924643161 
0.2269540146679409 0.2200392266590347 -0.8399818791073692 0.990141537965732 -0.3681709548744807 
-0.1164037732288284 -0.05861382290957246 0.5236431080224796 -0.1454764319758505 -0.4838767371321162 
-0.08703239585768664 -0.054188248042607 0.2836577636895017 -0.5683771858202178 0.09305776639336735 
-0.06871675292009669 -0.06657818511278321 0.1398015681964765 -0.05603528695281314 -0.08227824329530696 
-0.003373473855429627 -0.001197012013847884 0.02944293046660458 -0.001924296857926699 -0.02908060180512796 
0.5527211428173706 -0.01737798774829227 -0.2237728417125867 -0.01171063811327037 -0.008918835012412875 
-0.00105148642871855 -0.0002886700884105973 0.00267395513190769 -0.003273772558756899 -0.003606802276334854 
-0.5581212830589081 -0.2415763440203532 -0.6091072685120272 0.7047858876902297 0.4889969044049193 
-0.2747912746805077 -0.08318497989019896 -0.6682198236648479 1.303112510551786 -0.1606878705511944 
0.151893275055511 -0.1152741680273154 -0.4944482299919673 0.1476177931044639 0.3473235735020555 
-0.5261832714391971 -0.1268801323937652 -0.4570706336256539 -0.2632859687445928 0.5311266914079347 
-0.5554983131781751 -0.2921003500544038 -0.3595930292192818 0.3616699161542467 0.2341044694255403 
-0.6510649631715451 -0.24720756577161 0.665767027415903 -0.2536409373978484 -0.2652823701974461 
-0.1177469161707485 -0.04354036878365322 -0.6629968555428241 0.5424790586955867 0.4073408392629753 
-0.109302520299916 -0.06321355468250596 -0.1053878245755921 0.6352221533906283 -0.6430112354873181 
-0.1118575147909942 -0.04826692669742739 -0.3633547430637289 0.6769339476255343 -0.09199541631711296 
-0.07517694327395039 -0.004116051428775579 0.08033921975061517 -0.005994845710857975 -0.02335085534135233 
-0.05199049178031156 -0.006341201723450653 0.06642217205608746 -0.008154065797873904 -0.008258538432345235 
-0.003880333769670685 -0.00294827633582395 0.004302852497886849 -0.004018654105968865 -0.003649437825449163 
-0.02854460052044772 -0.003740505302893021 0.05040769612152977 -0.003176254545282652 -0.02149660771779047 
-0.002581503333576727 -0.003431331251044302 0.003330285826272414 -0.001442935131668032 -0.002611999956147405 
-0.002399150664256976 -0.003239206764279777 0.002876051786379486 -0.00136483238244349 -0.002500762961604404 
-0.03771638505110886 -0.004981169931018524 0.06618206793010906 -0.004230547767864759 -0.02846473140413149 
-0.003010397985907829 -0.004499901886254168 0.003762769812773561 -0.001857771031086869 -0.003328189163326401 
-0.003414650843231878 -0.0045238654927162 0.004369644542942469 -0.001914330261722111 -0.003469786235225793 
-0.118599680245631 -0.01669101143279041 0.1882681015210025 -0.0362144396439613 -0.04902337173856681 
-0.01685435931524698 -0.03224885208110854 0.0463880570376407 -0.01772942674260827 -0.01279941442846086 
-0.0756007086684443 -0.01197433680972702 0.1138863387136308 -0.01994295984206963 -0.0353805016531434 
-0.03057436561924579 -0.01958079565208944 0.07058882062893358 -0.01456738393676218 -0.02154781040096756 
-0.01217288201645153 -0.01386316423132611 0.02517934344188442 -0.00504976995006046 -0.004458021036955724 
-0.02865575167419213 -0.002497374926573762 0.05007582790021614 -0.001724419060926247 -0.03034452361600357 
-0.2528810910936225 -0.07496177364154868 0.3460034932388987 -0.02282612680964089 -0.1133691378441172 
-0.1327023986578388 -0.2021973892550298 0.3337400155468321 -0.06627422591381002 -0.04550297704000122 
-0.1087573908081738 -0.01937236199414356 0.1324932848280991 -0.009226901585661432 -0.04853847602757941 
-0.08492739113536468 -0.1242090204004876 0.1963016610002961 -0.04992403768211539 -0.02869543660687228 
-0.05583385495130631 -0.03918533096430756 0.1535724034661434 -0.02860070854857324 -0.02794943672460467 
-0.1170317195939944 -0.0268425697635666 0.1825239148129443 -0.01670716181125709 -0.0728085994992673 
-0.1042929714763921 -0.0398400067702711 0.2000200634163855 -0.02746860371755447 -0.04860768789132672 
-0.02701954576329642 -0.05000908355960249 0.07090991395517444 -0.01503000907007331 -0.01348492642063833 
-0.09673709913285397 -0.0145144215754576 0.1192400919810534 -0.01055725318772274 -0.02376071422175118 
-0.1344925874124255 -0.1391168294859118 -1.933953649055231 2.311788458077949 1.401404274743199 
-0.04523733887491758 -0.08555718509020649 -0.4940534004279226 1.103135877182878 -0.09737042588070355 
-0.341825942604951 -0.1739336007019797 -1.171082552435996 0.8854998261188645 1.656427176673937 
-0.004236283624843514 -0.001480020072454511 0.0347809445913649 -0.002465806880813668 -0.02646040395532495 
-0.01184802438679586 -0.00735218838024625 0.040994135785267 -0.00520687043807125 -0.003693076144963924 
-0.00105148642871855 -0.0002886700884105973 0.00267395513190769 -0.003273772558756899 -0.003606802276334854 
-0.1157851081889524 -0.02895689454072282 0.1519694405591632 -0.007684957110685333 -0.04282238999777151 
-0.01691879964390841 -0.02384127308134055 0.03350017904190988 -0.01050040512040018 -0.008313880323636261 
-0.05076283940376039 -0.01225699742334123 0.0876804014074716 -0.002260378244473774 -0.02514439931490196 
-0.02866978951281765 -0.01193451940788987 0.0472792572492505 -0.003680458784658528 -0.01844137481272421 
-0.009385895877661254 -0.01177876333216061 0.01677467311036735 -0.004016172797048328 -0.003464574349206297 
-0.004906413090688953 -0.01470899942278298 0.01309178637851054 -0.002433833835081416 -0.003383076014596416 
-0.01109744961712266 -0.01285881838005529 0.1080759594649643 -0.05480090448807927 -0.006945475605822251 
-0.002764820579404895 -0.002194587665358651 0.003150129462889687 -0.0009414406155414609 -0.001622126496882153 
-0.01738899752177302 -0.002841396491635884 -0.7002595653514123 -0.001258421707609089 0.7357348842741511 
-0.03510736837425872 -0.02147148123954171 0.06803360774288751 -0.009823137798720006 -0.02380100010261321 
-0.0103069590539219 -0.01273071460430331 0.02578905743096152 -0.00519514919835865 -0.008640177087647839 
-0.01486166884890366 -0.003641644584814198 0.01866678379454981 -0.00181974994107443 -0.01239467884957339 
-0.08209357281225724 -0.002991911470597846 0.1383325560114242 -0.001292654017777048 -0.01379418369034529 
-0.0113078657517209 -0.07979270701661367 0.101956043471326 -0.006783073554812191 -0.00414995376149015 
-0.001623275085460195 -0.002201380821155899 0.001976078593070934 -0.0008817806615555849 -0.001718351780008479 
-0.2104400716703121 1.55266646866322 -1.101251159870482 -0.08877131107282002 -0.05310920087930838 
-0.1309051941681046 1.019420899336803 -0.792192941587907 -0.08124081857236877 -0.02558664518989728 
1.300144932695921 -0.04950024620859445 -1.227417218557273 -0.02104467510060613 -0.1233958148582661 
-0.1556842729399255 -0.03604408953683344 0.2029247845778705 -0.004307126241812089 -0.03677574421808138 
0.828917902933909 -0.08294111790436932 -0.592415332912583 -0.06503789623502244 -0.06599716292580252 
-0.01065453316622834 -0.02038407107586252 0.03131842712146921 -0.004617669158561412 -0.00208476370655693 
-0.5299424026512678 -0.3377006674853184 0.800186806602263 -0.1944214583879345 -0.3049247645119772 
-0.1518571603460413 -0.2189497427869202 0.3658678092472119 -0.08595111752196014 -0.05113164795442724 
-0.4348696977622445 -0.2233791120516991 0.5650030551284208 -0.1091843876682871 -0.2166697422606275 
-0.1577986078853501 -0.06679196108191664 0.3058087311916969 -0.08386301899641872 -0.1353852507652678 
0.3080795752094068 -0.1400199465195188 0.04375427492910559 -0.1780025498745056 -0.1494035918117818 
-0.2980176204119633 -0.177734804767662 0.5831034112602633 -0.1997044787609609 -0.3135592266238339 
-0.1941787665050132 0.886149169189085 -0.6396409391474194 -0.06678549498164513 -0.05355587152421434 
-0.01761784468633832 -0.04267163119884346 0.07002561504753084 -0.02119440325920264 -0.0136142079943693 
0.5049616077560096 0.08871649215083625 -0.6884136445412797 -0.03166561826579976 -0.08116501717269665 
-0.9928692939326546 -1.144625886452357 1.447323807877058 -0.7900156081309533 -0.9882200229265486 
-0.08312458750299223 -0.9875311126410745 0.5787594200909715 -0.6564923865975942 -0.9564719630371412 
-0.2920834989641357 0.004244627341488815 -0.06890366098249077 0.2799213835430133 0.2331384426838056 
-0.175956524087033 -0.1172250376362038 0.3538295856085978 -0.09046538946731583 -0.14217279889797 
-0.06375944499079439 -0.05835005364708679 0.1746737464559274 -0.06001266432685687 -0.08573471956665585 
-0.1741043637619499 -0.1122209116361346 0.2742964552296426 -0.06718218048530705 -0.1000570157584715 
-0.3015831538158215 -0.212504425259827 -0.8802212199558704 0.5239432272695782 0.7599564085335112 
-0.9202484894517254 -0.2215854629451982 0.4792592222869391 0.8236182383838139 -0.2539007986531628 
-0.8964183825219457 -0.2845742219039513 -0.01430098915417143 0.5766389226413536 0.1690075298131589 
-0.3624990491531374 -0.2674725002821784 0.5765437651655216 -0.2998250921874347 -0.5299068994486625 
-0.5262716924235421 -0.4828772025481201 0.7851465180770447 -0.574893091865569 -0.7272242161171713 
-0.05219588850121493 -0.3780984426399813 0.1151704970930611 -0.2376257084499468 -0.2510270678937641 
-1.214076333828618 -1.136958351820395 1.058753141046771 -1.455688108268824 -0.8911144198241064 
-1.430766896076226 -1.334959269081859 1.229767058093327 -0.9783927681235065 -1.101318185372073 
-1.35254649065189 -1.209298385286169 1.54918161797979 -1.29349529212723 -1.316645171570967 
-0.007447784907490171 -0.009831361948392575 0.02281674140633164 -0.02127250548415443 -0.02882628897289908 
-0.006032136316404786 -0.002048327717900274 0.01635075121684272 -0.02170202230490378 -0.01508219549970879 
-0.005541994720437583 -0.002251634853224 0.01416779277128733 -0.009700357411315958 -0.01842069170204364 
-0.2542570595126541 -0.4196604907141829 0.7132766411313534 -0.5990263044013444 -0.4478574798982153 
-0.6511143529669151 -0.3032119073838077 0.7037061369591276 -0.3333120996859756 -0.2595249158777865 
-0.5019697568077868 -0.471558857650993 0.7517186032286338 -0.5728772769506691 -0.7175760319996957 
-0.007447784907490171 -0.009831361948392575 0.02281674140633164 -0.02127250548415443 -0.02882628897289908 
-0.005943016686691774 -0.003287529405602523 0.01477338430224523 -0.01654318281738243 -0.01217458528318252 
-0.005743418772412086 -0.007766677950862279 0.02225791570477749 -0.03394572426097603 -0.01852228265253342 
-0.6224223256485022 -0.4235589279840221 0.5043415886893308 -0.3973759580727907 -0.524720306706994 
-0.05334349334094473 -0.5167893446400716 -0.0378828825700143 -0.3125705776556729 0.1851752107186872 
-0.09688460241642287 -0.901490109113507 0.71965735420011 -0.2013772203215521 -0.8475607600678666 
-0.08708151437192346 -0.006186022310691902 0.09098355124673804 -0.003838715326533563 -0.01867606588915459 
-0.2976556682347055 -0.02874890517120888 0.4898290790024769 -0.02540395120310822 -0.1739175395765914 
-0.009876813493760577 -0.01268499052141889 0.02535065917814892 -0.01366543069440466 -0.01382362109301674 
-0.05650957685100334 -0.04366870541228558 0.3942722402541897 -0.2112700160940296 -0.1527377255962889 
-0.07509168443722575 -0.1088335671654047 -0.5905609863206208 -0.217520871607503 0.9082331740899571 
-0.1739620032368079 -0.03117203412160284 0.424828428176589 -0.01331120850987924 -0.1935270937998997 
-0.3826939481864561 -0.5138895549740121 0.04316407513799744 0.675818454795116 -0.3952880841896171 
-0.79841029950994 -0.6127378839666264 -0.01288690914660473 0.06504449549352614 0.9761928140848615 
-0.4418902826159712 -0.1953103341035765 -0.2349828376924808 0.5002515959368075 0.8207962892538808 
-0.7355054155452524 -0.8243885700363208 1.063689568960119 -0.7397853425199118 -0.6956904078593302 
0.6818055461525744 -0.7975478764692504 -0.5582470927624765 -0.665224921794375 0.4198638579144521 
-0.2996477341727505 -0.3602773102546545 0.3918357820527199 -0.8471002776760027 -0.7248088177300669 
-0.3473054677521594 -0.3348838832155537 0.738224286601596 -0.2928276440661896 -0.2193358515981078 
-0.1463848298598292 -0.252447295742028 0.3757357690913262 -0.1273497300075749 -0.08576723097791347 
-0.4154835181785336 -0.1461805427271022 0.633097885850982 -0.08093042421493622 -0.3157047233046772 
-0.007246762638302103 -0.001178087153723629 0.01169583656598877 -0.002645774745412675 -0.0112111203055242 
-0.02425619624292119 -0.003346514430329982 0.03194769983479452 -0.005278005624283267 -0.01395996203994261 
-0.004139625343251698 -0.005363096930609556 0.004412642824681745 -0.004080298519713059 -0.005170854047175529 
-0.1521559220328867 -0.0819939860255096 -1.995361576542537 1.860489786339453 0.4604152916054446 
-0.2228530873917663 -0.2392617239638593 -1.023433530829838 1.64844386011797 -0.8659902313205081 
-0.1553918908665841 -0.04329769189192362 -1.856441519623338 -0.09425966587681603 2.055883112368137 
-0.7180484274480188 -0.7381254988349196 0.0538610774950163 0.2747075242266352 -0.6652483114281359 
-1.266964019111441 -0.9444119230440153 0.8538493100850989 -0.2570685340154725 -0.96861877331698 
-0.8905210330310116 -0.3632388014122358 0.1081307000205961 -0.3835126704392776 0.2382670837452092 
-0.02654066531341012 -0.01116631355489883 -0.5266278354474329 0.7350155654908456 -0.1468799705682678 
-0.007678250827376765 -0.006386635112499248 0.2159208493116185 -0.09310707579782802 -0.07725825583251462 
-0.01261120326854158 -0.00860730696947405 -0.6374776538057115 0.6474066860173062 -0.04648384412631741 
-0.4523622068115311 -0.4938124485946974 0.905993728290015 -0.3990213816180075 -0.3852767514021857 
0.8232433632080288 -0.6439103149785573 -0.4196268288393384 -0.4399568681506162 -0.2412005427805728 
-0.01696616974662666 -0.4897791811163699 0.3207200957860706 -0.4773705224752485 -0.5117823230478873 
-0.1620109628258182 -0.1407163044613895 0.444185785518985 -0.1264722821850223 -0.1089913287592366 
-0.02159874269801769 -0.04588400637470193 0.08082998687160621 -0.02802008158714458 -0.01734071930479221 
-0.20828848801691 -0.0686901912121279 0.3372601049649309 -0.06089730656850725 -0.1161056553769181 
-0.2839424679635942 -0.01505758814983684 0.5570366012482099 -0.01602593270906268 -0.1971076713953437 
-0.1130795693754916 -0.04982633033716538 0.3722443643004914 -0.1810786807578385 -0.08709358427626275 
-0.006458511213045851 -0.005105601553636331 0.008664946513733106 -0.009534781272192013 -0.009661795170705346 
-0.05507477365673693 -0.03025692123434588 0.4340732034032495 -0.08887809789119178 -0.4639906350048416 
0.8253140225631741 -0.02135083776760407 0.3624240796658633 -0.5264495487498513 -0.3102996031447053 
-0.0477682542442836 -0.03928641934973196 0.1111541111282925 -0.04934727187765628 -0.05486828731648909 
-0.2708737424737026 -0.1376425509105069 1.008381777138445 -0.5858448740714932 -0.7784846761604597 
-0.179635517868583 -0.05977994094376386 0.2609223552592966 -0.1578130186565678 -0.05130987594746074 
0.4184489601081124 -0.08209540708174679 0.2804988814302828 -0.2476757279459715 -0.556113658996527 
-0.3039796876080506 -0.3271949343101169 -0.4080709830157159 0.7832993281894333 0.4641891624771599 
-0.3493408179427209 -0.1311975239012542 0.6459784697491789 -0.06757678160732025 -0.04593114548776264 
-0.6212068257947607 -0.2891205690542681 0.1542649835830989 -0.264506031137267 0.5526887019449939 
-0.1600948993216156 -0.1380444168555003 0.1531334222652018 0.1367657857865726 -0.5244254507593631 
-0.08080939831755579 -0.0498272866903685 0.1852465967434257 -0.1205630460402775 -0.04636178239119271 
-0.2891460124137099 -0.2943944003995401 0.1560880418779869 0.2175045182629861 0.2254325171650563 
-0.2853739330626419 -0.141320153083234 -0.5989408177606961 -0.3919284399445139 0.8739534670756431 
-0.2359178029588146 -0.1008864138595553 -0.8460801228387648 1.00273303528578 -0.1839675263482649 
-0.3194739726736297 -0.1766808667248929 0.5738190866287085 -0.2472311193101362 -0.323867838831941 
-0.02966327708779839 -0.02148016226141885 0.04480897897018571 -0.01610926126265591 -0.04904872075351666 
-0.02968101574569025 -0.01425211831061635 0.02133112965987682 -0.0144927404013273 -0.02389324661736154 
-0.06342465384543028 -0.02618742289068413 0.1297109078871638 -0.03343859313236954 -0.07547427308444264 
-0.05169737129298034 -0.06624558097500322 0.1433506646754295 -0.05061732301971795 -0.05115136644915136 
-0.08992214227884512 -0.08592173421978357 0.1624918594296723 -0.03165365620933424 -0.0550675376248697 
-0.1500264817596737 -0.01851912193152243 0.2341725929508532 -0.02252539551565 -0.09379885952242573 
-0.04499010486839755 -0.02159814369374104 0.2585656406734411 -0.1053749653245061 -0.1806885935799739 
-0.0128100224593876 -0.006760298258303953 0.02056169740696564 -0.01060222828997088 -0.00514969970416796 
-0.06810133875855341 -0.01938572826826286 0.1612914210113914 -0.04925575340743462 -0.0890628844912227 
-0.02334886625144144 -0.04035097514358393 0.04667215338253144 -0.002408614877652806 -0.003299409381082758 
-0.01120237088087669 -0.01314219133103468 0.02276204281495857 -0.003104129427873188 -0.002389785582392777 
-0.005109159711768749 -0.01507546785904442 0.01968889864897375 -0.004252524672213732 -0.007051307821692299 
-0.1490593833942933 -0.08949945360943777 0.2420133326606375 -0.04989781963064616 -0.1016395183397254 
-0.1501590697830922 -0.1373669207735231 0.3062178529839923 -0.0588285240429992 -0.1021279122235687 
-0.2138899657123367 -0.05632967915800122 0.2654448999220099 -0.06441730588708762 -0.09624312155664352 
-1.549689566753727 -1.52917089290643 1.258649844453812 -2.095124222631147 -2.058734836821961 
-1.951013221111866 -1.293250962277776 1.433058323603705 -1.76907227415641 -1.704433185077191 
-1.229374155790325 -2.47617117179042 1.381246258071815 -2.247159178621862 -1.679405340772995 
-0.002741422944459087 -0.0008788498392921994 0.005777715108454763 -0.001739027006871844 -0.004273754369880015 
-0.01379094573612752 -0.0009142447122447654 0.03721102331516368 -0.001282355977552591 -0.02462028965631019 
-0.003235271918446094 -0.009803965355940584 0.008179675893441518 -0.003482752860035279 -0.001188316145755649 
-0.1805581032307617 -0.1080966554228556 -1.631088885859653 1.036201474294211 1.142858996257585 
0.1485939979330436 -0.1414167521165728 0.2756846733136568 1.26239731446456 -1.534684840272391 
0.4865203995516714 -0.1664373860745284 -0.8804881740522283 -0.3065909642352495 0.8784163915024207 
-0.2710917803361678 -0.1576942207648983 -1.299378804951944 0.5762323711945244 1.939343666490534 
-0.4505867999499428 1.554898899186225 -1.479569613129323 0.4853503961612769 0.918308858825576 
1.605451313325052 -0.03626103355349276 -1.735628383230752 -0.02684957900449906 0.7042460843505662 
-0.4498824202411588 -0.4311667342718635 0.8128852124608719 -0.4955627733675166 -0.6021772604369021 
-0.6098886292602809 -0.4639694205219024 0.6638088147145348 -0.6647529337096971 -0.28166394137325 
-0.1121956649281838 -0.265813374050504 0.2868716593811698 -0.2503683582699369 -0.5312161430085737 
-0.3627099057165915 -0.4106982836567966 0.4048476524100688 -0.3629340807913541 -0.234865446534917 
-0.5648311185269594 -0.4555839348549302 0.7208829496756975 -0.228270957311999 -0.4239798757476693 
-0.8595668150201663 -0.1744355317176571 0.8740524841403041 -0.1933551511116533 -0.4724820899182485 
-0.2614546644519077 -0.2049536832668038 0.4958574567817167 -0.1545472096323039 -0.2514214842580562 
-0.06206557091814777 -0.3038956503738879 0.5993511670341416 -0.1822075701626683 -0.2806573632328928 
-0.3025624149870919 -0.1070374102095784 0.4072228988323029 -0.09764135409977727 -0.1720978223497327 
-0.02225785254525067 -0.01587365838740772 0.03197574280420312 -0.00588827357337083 -0.007274962551215471 
-0.01831687764436805 -0.02257556555680511 0.04568204673196243 -0.008558580935579849 -0.005942792912203008 
-0.03557730977366131 -0.02183811917663317 0.03671863643158543 -0.01076619642111816 -0.03806620462804116 
-0.08335819692357251 -0.05915024647427125 0.1411588926710517 -0.02616763197834543 -0.02147257892499334 
-0.06603613306824599 -0.08529742886844428 0.1051653359957643 -0.02145528337011092 -0.01842723507657396 
-0.08353461263786364 -0.04920604165273274 0.1212555326590233 -0.01410742153712219 -0.02519109453157888 
-0.002303148519236626 -0.002796393940993981 0.007175856428967683 -0.003234023292475419 -0.002368456370747887 
-0.02484895096202827 -0.001692035101034111 0.03249199660558773 -0.003097793087332218 -0.01458147118890342 
-0.01831687764436805 -0.02257556555680511 0.04568204673196243 -0.008558580935579849 -0.005942792912203008 
-0.09891788877756379 -0.06959850530830471 0.3889635680965848 -0.3328651668062458 -0.1271649567708114 
-0.04908894846777981 -0.1254222940054603 0.3013559070756869 -0.1185171150626349 -0.1505524298672631 
-0.2202438427696195 -0.06884667386248806 0.6880616400002745 -0.06867671221182202 -0.4450584291346728 
-0.05379882847201472 -0.01533085489849556 0.1711235720439684 -0.0194935373411496 -0.1253807292343365 
-0.05283243017570823 -0.03124121010618276 0.1488487314806064 -0.05554304472761932 -0.03219336172073852 
-0.01123405586291415 -0.02328704812559105 0.03240173756380566 -0.02051571014687376 -0.01387501198958935 
-0.1675770037625567 -0.03724934941159257 0.2173188797085253 -0.0378225562834652 -0.1103342835947276 
-0.2972623483104915 -0.105079366301032 0.4564756289161239 -0.08677964549749841 -0.2156783724133879 
-0.03741380436912196 -0.03398444179236387 0.03789348787118735 -0.04530408250928061 -0.04004075280337164 
-1.952328859803646 -1.931712526328744 1.758500498764757 -2.084746555979046 -2.239503977930826 
-1.186110426723769 -2.248582965629558 1.340952984786878 -2.032389381941976 -1.485058938949007 
-2.007077496881508 -2.433582378967089 1.933599751580581 -2.05655934381595 -2.003274650588031 
-0.01526963756047924 -0.05047501119643578 0.07235896240016876 -0.01592159885170805 -0.008967980865335975 
-0.004084698944784667 -0.02184563002452677 0.05978024285005368 -0.01244426820368423 -0.01571409561229976 
-0.01511598664314079 -0.2501087913218226 0.192054288107448 -0.009954388146837596 -0.003999076103264515 
-0.004084698944784667 -0.02184563002452677 0.05978024285005368 -0.01244426820368423 -0.01571409561229976 
-0.002741775163001616 -0.0008125786842455073 0.006553521334012915 -0.01606687079646081 -0.008427876498763191 
-0.01526963756047924 -0.05047501119643578 0.07235896240016876 -0.01592159885170805 -0.008967980865335975 
-0.01493830855118589 -0.003445022445312698 0.08275895027059592 -0.02512450727656886 -0.06991062779513911 
-0.02030893482035543 -0.006042632424509091 -0.4978742332923222 -0.02296690723661188 0.6252791425123571 
-0.002741775163001616 -0.0008125786842455073 0.006553521334012915 -0.01606687079646081 -0.008427876498763191 
-0.02030893482035543 -0.006042632424509091 -0.4978742332923222 -0.02296690723661188 0.6252791425123571 
-0.002189376367936591 -0.001285388310306696 -0.8205388906287252 0.8388876857538924 -0.02018508382167086 
-0.01493830855118589 -0.003445022445312698 0.08275895027059592 -0.02512450727656886 -0.06991062779513911 
-0.05495013400387125 -0.0561849896075232 -0.1613271463072383 0.4513650414903644 -0.1656066176542193 
-0.07236902816838352 -0.05347240448411503 -0.7879976191219809 0.4792991153499511 0.7417964986446294 
-0.1365552825411981 -0.02574224108794771 -0.2714730317384665 0.7085873838032192 -0.1149417044555583 
0.5607447929340702 -0.1613148359707502 -0.1381914564001435 -0.1368694382625536 -0.2091164720586191 
0.1123187646643851 0.552391744912188 0.1476710098148316 -0.1707021009726017 -0.50250920522258 
-0.3721747947934132 -0.07373733567697317 0.4557359717486937 -0.09623083984792939 -0.1314588766917934 
-0.1033342732882168 -0.02144495453469504 -0.2272991561595495 -0.08451707797292526 0.3362936302928256 
-0.1140552182152062 -0.02523294591731332 -0.1344746498939916 0.3855390247964754 -0.2791007883242936 
-0.04170595144415756 -0.03278244389051977 0.1985035025760621 -0.04713787471365589 -0.1345967703323581 
-0.3989641486707475 -0.2395592940491427 0.3238721116200637 -0.2462306031018895 -0.3068652562788814 
-1.038254214059876 -0.5024644696174814 0.1823484805088808 -0.2371214583539613 0.7762766932831838 
0.1810353720527688 0.2185494938855667 -1.254369567853933 0.3011096506480437 1.136624070933406 
-0.3098123054347705 -0.0736191757729289 0.3969567199367256 -0.006655584427006499 -0.07820220095784898 
-0.02389490681660079 -0.05226895490302953 0.03759331904229967 -0.02431043202760838 -0.01551517750211504 
-0.05647819420028216 -0.01121664485089814 0.03624720403548846 -0.00765420970496853 -0.04440658665433222 
-0.584599975640122 -0.5034084069350282 0.6102431696693529 -0.4660526261508176 -0.4397491650657568 
-0.05015508091290393 -0.5875307444809155 0.4220898334003336 -0.517673840385936 -0.6023026051589632 
-0.3024789169211997 -0.6633037702940339 0.5473466774240423 -0.4114546666621745 -0.7155778837565338 
-0.06511629124395184 -0.0491888195214045 0.1223858715263426 -0.007674835128911809 -0.01497287803215173 
-0.06196370678646944 -0.04232771972631112 0.2034893888370285 -0.01883079989258694 -0.06523376736117184 
-0.03669891705722372 -0.01963632574764899 0.06801199001158163 -0.04990914876327379 -0.02541846984626631 
-0.02420451479996493 -0.04397572064818196 0.04945455299299675 -0.02967810181215604 -0.03864484465996536 
-0.0856199198199528 -0.0193435161079741 0.1055793045163627 -0.01735743217541662 -0.04156897423833807 
-0.09540279463825402 -0.03533113293807254 0.1181528592001574 -0.02743147105008483 -0.06915521695645087 
0.9291779012493583 -0.3407349954946793 -0.287564351747003 -0.2990769927085649 -0.9427638053291697 
0.2493211007270971 0.0798849056093182 -0.187533501319673 -0.6460467268086971 0.5087962814318486 
-0.36865203437002 0.1966170476986684 -0.07053883171679734 0.4993052244513646 -0.3199935818878774 
-0.08445096882992532 -0.05305444126754706 0.2240427945943259 -0.046302700859483 -0.08299224590169571 
-0.1027354178712348 -0.01300981629170682 0.1503032171979418 -0.01602374880389285 -0.004898326372246764 
-0.1077280259309508 -0.06235839997363797 0.3114651776178506 -0.03092523300309532 -0.2307931522249045 
-0.01288912652921523 -0.001208964524124354 0.01498164512007708 -0.001817296462741317 -0.007415195659978661 
-0.03664050898215439 -0.01208334451245192 0.04573755083546386 -0.005419214625504311 -0.008983820924139642 
-0.0007991884716438763 -0.006922489084941422 0.003786760071078494 -0.002899259413495547 -0.001368534716530475 
-0.485262332691531 -0.02468173344408155 -0.02339507869183983 -0.008479771464044153 0.7573468849869028 
-0.1551828689746195 -0.1921272333069994 -0.08030289235845549 0.6847776521089413 -0.2163888825512623 
-0.01777429026224139 -0.007752844455336028 0.07323484287066495 -0.02477631026227689 -0.02069943013593872 
-0.4938356758634393 -0.1805733574005152 0.6947118673005446 -0.1450447441636281 -0.220747305294084 
-0.1079203251727814 -0.1024079805067656 0.2769147849073745 -0.05287722337498756 -0.03098465720090408 
-0.2865462774383228 -0.09893584033332635 -0.09815120383259578 -0.1190542524990414 0.5738728481460638 
-0.2107820545340345 -0.2549062800398107 -0.5225708523938489 1.256877386307532 -0.09852641678289947 
-0.207977285637669 -0.4680361136963865 -0.03302580627249799 0.8408108176948317 -0.03316692866846973 
-0.09023445340697257 -0.0190754815327727 -1.010503690531781 0.7997332444884528 0.6381740650823088 
-0.4845502129072462 -1.094340447768469 1.022968792204616 -0.5640082043114152 -0.5548651030289197 
-0.2405781994124622 -0.5436041557430512 0.3936347523341952 -0.4569535205491052 -0.3182394088052281 
-0.7101694336845387 -0.2116592328794341 0.0815576549133783 0.08414672041203448 0.2595822706905099 
-2.00420173517368 -0.5976137424546336 1.012600541957053 -2.178002609835914 -1.928860726992286 
-1.924302947647605 -1.374067286332908 1.575611444969403 -1.863209635058299 -1.640687541659322 
-0.8861869057512545 -1.134540850697022 1.061714534128727 -2.12934140654344 -1.36867036664373 
-0.01553624968504682 -0.04567790381618693 0.07672643818124883 -0.01975675006088853 -0.01117251549682841 
-0.001071908088651873 -0.002983183241663999 0.001677467498894881 -0.00162565950784511 -0.0009385003549348549 
-0.007358646945066495 -0.0004623791455758171 0.0298408876416343 -0.0002485006426570686 -0.01905304817694908 
-0.7165725822545929 -0.2825832367375957 0.8286560851848277 -0.1326099599781417 -0.2189053981851492 
-0.2177945825496059 -0.4044356140821233 0.5377755822109044 -0.1815120339259014 -0.1379546972902076 
-0.2452826265388229 -0.2500244418845667 0.6750966885991599 -0.05549424660344671 -0.2093465961562204 
-0.0553783246799661 -0.02733028309067156 0.2204399362562426 -0.08881487085456163 -0.1313205245121019 
-0.007542741782237268 -0.005331466695612503 0.01349943487846188 -0.01525096360478857 -0.005678220412471143 
-0.05559895466020662 -0.007863074192403879 0.129651752343832 -0.03578498483237513 -0.06357517797901382 
-0.005352033903067079 -0.00184083921487385 0.01729400617266901 -0.006903474683021348 -0.01975067739559996 
-0.008425892682998152 -0.003479002330384298 0.12838714962237 -0.008126438618470917 -0.06640354665486987 
-0.005487189898961987 -0.005582161395629168 0.02623030921943521 -0.01842440521687952 -0.01515282908717997 
-0.1107441755234074 -0.02277693333397951 0.1486556133635022 -0.001966714171398141 -0.02426706141345218 
-0.01077344458369954 -0.02209875087915282 0.01930168001586904 -0.005846483743153001 -0.007416579221717192 
-0.0180196386870904 -0.001358112368959503 0.01086646490638296 -0.001887699879671448 -0.01404320325392515 
-0.1957648143864401 -0.154696725175936 0.1783203359055004 -0.1251332871747016 -0.1662365804282749 
-0.6544989171896726 -0.09081527064778237 0.4871151840371477 -0.1157446358996919 -0.2582788240689618 
1.011152599655181 -0.1622355153744461 -1.019470531652012 -0.2154322075545323 0.4679566510368118 
-0.004875189197006746 -0.00103283676058778 0.01134907177150231 -0.005670119163800726 -0.01290268410740728 
0 0 0 0 0 
-0.00800611825458453 -0.006076865532084977 0.01027126311286665 -0.01079490937486496 -0.01266464783150108 
-0.2923003816644815 -0.05148006488538562 0.4042546399508758 -0.0379450869028853 -0.06267418194940098 
-0.09356703862705813 -0.2358423514372901 0.3795964809637247 -0.07422429781893621 -0.06826152829259524 
-0.1112331641598025 -0.01512184782930875 0.1594621617125668 -0.02681308363445572 -0.02890182064585101 
-0.009514681427163449 -0.01690500422475761 0.03232365845016284 -0.008962340453584518 -0.004023267865328049 
-0.01320681650359596 -0.009439308736598267 0.03927196801019583 -0.003390417043655722 -0.004197556382038079 
-0.06422070385003043 -0.001879650393054847 0.05948445804389618 -0.001209072241232901 -0.01202479789664079 
-0.006781082999031371 -0.008349774093837232 0.03326276026087018 -0.003159717416615771 -0.003803299727301764 
-0.0006516669411262344 -0.001495649688721089 0.001638942076945764 -0.0004846941692088614 -0.0006911824407241671 
-0.007132748411178129 -0.01341616162289613 0.01977814680117163 -0.002505002090681041 -0.001625005541656839 
1.723743827367687 -0.03017094971382803 -1.629721343326681 -0.008016059559439011 -0.0387854418776524 
-0.5095091797915848 1.902672310362635 -1.187585672307337 -0.04642058112575785 -0.03886966105480539 
-0.0289025023109039 -0.0216729317517394 0.07626348136052559 -0.002293283923924431 -0.007109572934724048 
-0.1857150004294122 -0.1626685314557469 0.4016253821238839 -0.04890221091691272 -0.04041079856066645 
-0.06912216190451305 -0.06845592793852322 0.3111192210129117 -0.04277021993745329 -0.0949413251085042 
0.2247003544005156 -0.1171891615768725 -0.02800002863205019 -0.02107100183488063 -0.05217227039638092 
-0.08957734697902543 -0.002569587875143338 0.08296854233143724 -0.002511406950964069 -0.02263629300036298 
-0.01965871667182407 -0.1118077098721206 0.09443886980697501 -0.005670649185257589 -0.003631320506426828 
-0.006593042061114085 -0.001045512330142844 0.005025915715018061 -0.0002233479077457373 -0.0003656257067257031 
-0.01164648030863773 -0.05809863613848624 0.07105624731049461 -0.002158900442293945 -0.002028000889573159 
-0.006416430319172194 -0.1892577612506898 0.2556286879646936 -0.0129745624422563 -0.002990734828380205 
-0.0463215200256042 -0.001217593387457879 0.0446266133647058 -0.0002367930553401095 -0.009002923019334148 
-0.03053698851992353 1.737551207166319 -0.9982455709806639 -0.09736366990338598 -0.152626742773588 
-0.2590437196787871 -0.3374466592362151 0.6098904095538887 -0.1466977606438359 -0.1158423384253718 
0.2911670916191704 1.806622278371344 -1.188056096195738 -0.06585361896250459 -0.1518738932958063 
-0.01068385384630769 -0.02848186312390633 0.1056770573700476 -0.02830045585087946 -0.03619085871877952 
-0.002095562043659554 -0.000770662237999616 0.004036978015371522 -0.008842402681862777 -0.00448614845056276 
-0.04171435699214104 1.169364026541471 -1.504166058922078 0.8001781429821884 -0.01749274942269722 
-0.3661792336521291 -0.08392289312527174 0.4260094372459685 -0.6257342683641801 -0.6230071263325661 
-0.4970960362981542 -0.4513272218459992 0.741875924923421 -0.223681621617179 -0.1326600488510599 
0.8142435542137771 0.3754473773490631 -0.375384135429923 -0.4345840185438511 -0.7023814153622766 
-0.1984881909089956 -0.06190495424774106 0.1797358488070589 -0.1152816448483073 -0.2147771584142521 
-0.1502764538336796 -0.09308009364597189 0.2326340009397984 -0.1390447807915936 -0.1702123129194641 
-0.2697772684602438 -0.08089948235146045 0.2442524291452268 -0.09847584041883758 -0.146940651159529 
-1.336741526032704 -0.9931041644196953 1.418623038004825 -0.8468633033422036 -1.016528908035286 
-1.085588813021532 -1.082417579199394 1.32814681715731 -0.8430011996521154 -0.9967989505015219 
-1.366028205523608 -1.038985188148025 1.222311581553014 -0.9188429516817904 -0.8855516114972963 
1.382485866241198 -0.04778800984477592 -1.777519987325629 0.5210361057927422 0.5702888288317961 
0.06872143845898553 0.5257570096746497 -0.2050039177157676 0.3858482086778449 -0.2226107724883419 
-0.1550641297802826 -0.1109302814935116 -0.2612952252961421 -0.1297670422520416 0.5039821502007136 
-0.6907733684302634 -0.5319629346583505 0.8052025368939481 -0.462418885812232 -0.5935406410609958 
-0.4746424463286009 -0.3867173418143489 0.8285600777686175 -0.4307080587770822 -0.9285381799416789 
-0.5287263202670542 -0.5087325985298463 0.5712738229885949 -0.5149809843970323 -0.4701565236389473 
-0.2007295335679092 -0.1435223095223281 0.3524750531556823 -0.07261515524282343 -0.09199725789318385 
-0.02925992602497005 -0.1786749409192137 0.08704995589150444 -0.02040569791757068 -0.01236280566148462 
-0.2098050447488785 -0.06817731010027749 0.231117633878297 -0.02127180655249908 -0.05437773738831382 
-0.06165098036786722 -0.1738321480830474 0.1339357344747181 -0.02995443730962229 -0.05314665002416142 
-0.9720448720355226 -0.2662550287752763 0.90635921012497 -0.03414188083130972 -0.05383347341112148 
-0.2562250156238757 -0.03685498943931399 0.2736782412121482 -0.0373798308421354 -0.07388733106611454 
2.694656640799851 1.522972498899382 -2.198748671321442 -0.7834284280581038 -0.8343888887647186 
-0.08764050740886417 0.1959363992732213 -0.09367237956163511 -0.3253281968489389 -0.1794766144856679 
0.7742607682089145 1.07271860671939 -0.7632758353564527 -0.3885709866573415 -0.8012937542309017 
-0.003149735676636016 -0.00341934946412126 0.01062631675252781 -0.004540292311670848 -0.004709633377281064 
-0.02106218756791878 -0.004886853030821888 -0.6281023044974664 -0.01052116532226495 0.6442363821253778 
-0.1515195692147968 -0.04807690268534176 0.1505613566216522 -0.007057278601075846 -0.007722570144466049 
-0.003710793066971635 -0.005832451802966094 0.02183390758335739 -0.008073171546482615 -0.004549081682851902 
-0.006197313096561981 -0.001650648046773192 0.007632276801868315 -0.0002736780482929707 -0.0002922497905440452 
-0.01511455115113286 -0.001007951785808058 0.05535395514738679 -0.002330262736863813 -0.02135996410173905 
-0.04207649329270323 -0.001124474415422966 0.03631479558188618 -0.0002290641776851953 -0.008731061496359041 
-0.01365325553025984 -0.01041759542755955 0.02284344779174556 -0.009527755115250509 -0.0020096993453415 
-0.006197313096561981 -0.001650648046773192 0.007632276801868315 -0.0002736780482929707 -0.0002922497905440452 
-0.2184820832468194 -0.1479082629844528 0.3444391052288648 -0.05034404627947481 -0.0478490174135961 
-0.05583909918702916 -0.08003771842286965 0.1580481324456351 -0.03839221678418307 -0.02411883882208402 
-0.1943858661426695 -0.08229798589622843 0.3064189885074242 -0.0356996543312673 -0.05382123110555054 
-0.6105227480555816 -1.013316345509573 0.9788613330003741 -0.7720156186404453 -0.6648147585732888 
-0.6950233073704364 -0.9470192194478912 0.7529359563798621 -0.9126331378320293 -0.4476118125082165 
-0.8163436046362029 -1.033318655578045 0.778902410405963 -0.3792131363303307 -0.8976755567926713 
-0.582739610850204 -1.064052330630564 1.001524161377333 -0.8127191501809082 -0.6306894493760015 
-0.3873067485226412 -1.07515107495605 0.4241027115320635 -0.9451148741219592 -0.4131354964746536 
-0.3189354823187778 -1.140653946445659 0.6468648976952049 -0.6031522428157302 -0.9902775847527405 
-0.2678463688031108 -0.1035749573887792 0.4807597977207594 -0.107565795765404 -0.1706974644167747 
-0.05572488719038791 -0.1291041946451025 0.2353468265820573 -0.08198573990147522 -0.0487152046622962 
-0.210734004088832 -0.05676199637233504 0.2927248962085423 -0.05448051972711672 -0.05985614843209754 
-0.1518537829658799 -0.1668002435962232 0.3217167996708293 -0.0865640873212232 -0.07217697060447938 
-0.02210412855932455 -0.05473438460599444 0.0446542884766434 -0.0235698687680302 -0.01222484049471925 
-0.2068544901559611 -0.1237793880526735 0.2966471025956111 -0.04455503490976469 -0.09526329150384216 
-0.376975469057547 -0.3090768498492855 0.6868976184000577 -0.3140155259098468 -0.3747289624769707 
0.08019005647690872 -0.35169198996899 0.103126962276752 -0.3568171517823714 -0.1324559831126326 
0.07525485534401971 -0.08088631877347763 -0.2192341720332952 -0.1989227175009153 0.4904419717248269 
-0.1704684464991955 -0.04580847994334509 0.2374140104012162 -0.02175632491825893 -0.0440377045759768 
-0.0335569090033002 -0.05483664869364355 0.1131962341453042 -0.02166251886008156 -0.01463229542772951 
-0.02861253188270577 -0.02240186690961334 0.07347110143886708 -0.01932042342392677 -0.02094169290607237 
-0.02459137328615004 -0.04335912096550255 0.07177942028633749 -0.008690587125957867 -0.006373810238141133 
-0.0007949835479009527 -0.002051261989726775 0.001318057894803766 -0.001120627538840673 -0.0006600237287231091 
-0.04136906713643973 -0.01441300862726363 0.06830859286380149 -0.01022302942738659 -0.008440843596717788 
-0.01728352966495886 -0.0003486756912977701 0.01732108089453238 -0.0003793944847355971 -0.003730624091463249 
-0.05094504234134372 -0.001736261271622146 0.1061086823771049 -0.005271920907057489 -0.05471470947656987 
0 0 0 0 0 
-0.07500128863200807 -0.05210947400708975 0.1538795575109703 -0.03002512032499658 -0.03954010843488177 
-0.006956428358254415 -0.01530531956316977 0.01231140121635635 -0.009553295473221113 -0.004545950457353096 
-0.09200836509833211 -0.02404976270138344 0.1101679151453832 -0.005709654060342883 -0.02505178350297219 
-0.1303749111933473 -0.1788731447981177 0.4522832370496147 -0.1354793072086085 -0.1093884633341284 
-0.1188906279831757 -0.08280224015539697 0.3433517636731291 -0.09119882972265911 -0.04276957116957841 
-0.1541541979248234 -0.1463303080078466 0.3222670298986716 -0.06626388256141139 -0.09487971788972369 
-0.001353382063989354 -0.0006526583900538179 0.01058091166694909 -0.001227566628974674 -0.01614589469243221 
-0.001348870227486362 -0.0004580345077231776 0.002514944866607855 -0.001606499964570073 -0.002924994113043291 
-0.000473794692599807 -0.005267683113009474 0.002054612408114863 -0.001719147114437423 -0.0008634896177576434 
-0.008984876533154504 -0.0001968347182387525 0.0508517141144644 -0.003250651801498178 -0.03789451191281692 
-0.007565570412140509 -0.0004013961243344206 0.005629317601723879 -0.0008899740249254309 -0.0004203289488121567 
-0.001348870227486362 -0.0004580345077231776 0.002514944866607855 -0.001606499964570073 -0.002924994113043291 
-0.3963598502790135 -0.1230179692355953 0.4945453759618604 -0.05444228758878162 -0.1159729391632174 
-0.06870649413309955 -0.05812127349473962 0.1553481333947513 -0.04647897406275217 -0.02051229754938655 
-0.1159085632847853 -0.04481011578371548 0.188924568172427 -0.03201149016119285 -0.06623805256722887 
-0.02332726495286243 -0.001199583947724852 0.02107227170001208 -0.0004026388470993058 -0.005080129981222105 
-0.05206225134913727 -0.004576130100088323 0.05934741450878657 -0.002530946347729004 -0.01429103904351909 
-0.003686513942167863 -0.0001597969917238867 0.001737393477796371 -0.0004944113474512863 -0.003561958389512749 
-0.05053118548055135 -0.04503136586514309 0.1007930896451544 -0.0380875199311009 -0.0249470960848737 
-0.009744040419866606 -0.02339422710550057 0.08019905741725102 -0.01019285824563367 -0.02355995904792524 
-0.05554425477383053 -0.02611674725028237 0.07676116823456793 -0.009271653819647008 -0.02253373143511177 
-0.07305933726090427 -0.03444416608666405 0.4412188576225691 -0.09048284557880473 -0.3579104572242456 
-0.06312530474994417 -0.03772521267845243 0.002222047288484801 -0.3335034788443316 0.4189716868467324 
-0.06076765546384426 -0.06333068164648957 0.1971592503744037 -0.05599469737583874 -0.0662351439059088 
-0.1688900632379074 -0.2028662143740387 0.7389254945579963 -0.2360268629446113 -0.5263682002659166 
-0.161690491924185 -0.05099748124991609 0.4983106408911113 -0.2904983540432689 -0.2617086901327902 
-0.3448499057612853 -0.207836634792992 0.8861903693048432 -0.3957059156997067 -0.2136083190414286 
-0.02585013622625793 -0.01960244798456851 0.1580609604185596 -0.03813305348345006 -0.1020763323929852 
-0.05740499702922628 -0.03071317546709545 0.213000526874371 -0.07637734925224537 -0.0471516941706823 
-0.06234944386359682 -0.01655632651436122 0.1095378383889067 -0.01688330723583493 -0.02625078933690263 
-0.04653793386211973 -0.04714004429047584 -0.8757248497413097 1.147393725440504 -0.1181367146694088 
-0.0894555263125654 -0.01036940961691439 0.1419121551198235 -0.03657253565236868 -0.008390108813441988 
-0.09260200802645879 -0.01118229470866512 -0.5825696630064887 0.5419491795958592 0.4962213657051464 
-0.006484362700945362 -0.007534258614628499 0.03230212965418969 -0.02933386301409251 -0.01302483887155599 
-0.03884448355541555 -0.007206840179514238 0.1058750945390677 -0.02960185508792068 -0.06701748124239992 
-0.0315177704245185 -0.05819399911370784 0.3067488214376876 -0.2597933254362789 -0.1361491354899039 
-0.3249064988444345 -0.1958673895551925 1.01966407163655 -0.5316744868231829 -0.7005116115731606 
-0.183751968667906 -0.08329584577997065 0.3281875636852553 -0.1331195365789244 -0.05156321276147537 
0.1836141917300559 -0.1420264753988935 0.4276125058803331 -0.3293077805008085 -0.3890924874226648 
-0.646104013908856 -0.3984451050918896 0.7321715189508879 -0.3816249699735473 -0.7726762619307797 
-0.4777426968592901 -0.4607523113857547 0.57819095568319 -0.5294782865417131 -0.5365177375368755 
-0.7680081086269946 -0.796823513192592 1.119598421966474 -0.4605303814170734 -0.5486985090128047 
-1.007969208492147 -1.078293560633271 1.226068946105612 -0.9535594978135136 -1.024753422975641 
-1.312686118359311 -0.983126556572378 1.62443931738323 -0.8120888202318696 -1.288008414565283 
-0.9179554761861984 -0.4832827556433991 0.58042467976681 -0.9653379954205473 -0.7968752280019071 
1.210763007340639 0.6919124446360236 -1.233208946972869 -0.08601401477290645 -0.07140471871519656 
0.3136431975594158 0.865483247123676 -0.5440191646695844 -0.09176002088382304 -0.1309530752925203 
0.4623286444076152 -0.02202107846972455 -0.4867393056278017 -0.02616188668176921 -0.1421191612892241 
-0.4357791446782005 1.379322996412655 -0.7015375153009922 -0.04438002826771126 -0.07496953510681244 
-0.9491275488253472 0.332916161054172 0.5770174039563218 -0.04925807253333954 -0.05773780010569601 
1.220362101009745 0.7923787918932578 -1.525663510845826 -0.02573581794423565 -0.03311265055555997 
-0.3643223964262695 -0.2991582663054169 0.6784515638144367 -0.1803165484396501 -0.2127958658202178 
0.04272369050599088 -0.1451613200222956 0.01828738929397216 -0.0639527120642087 -0.08265557929471007 
-0.8241423979468602 -0.4280864619953785 1.101811553712215 -0.1162241435044164 -0.2595270571728307 
-0.08474131410274177 -0.007943160018625467 0.09164111773261188 -0.003692427555030237 -0.02782355796499245 
-0.01544839064609656 -0.02434631643742253 0.03616917921078362 -0.009591552077246955 -0.008065289653961714 
-0.01055931653602257 -0.004959781116803641 0.01199101347085879 -0.002009869622576405 -0.003181116039192177 
-0.4844389961585226 -0.1708571146645753 0.8201673867504579 -0.2315643440829921 -0.2557335415198882 
-0.08867519126928085 -0.1835992661327605 0.2566552554347139 -0.0689543979980019 -0.05496439973513729 
-0.2483301836930211 -0.1314560118168371 0.529673022219258 -0.08494058689378556 -0.2890813844026265 
-1.567603162503605 -0.7717001647167069 1.526497949131964 -0.8899623011129143 -1.320578858344285 
-1.30145460117204 -1.656829587681958 1.540930629672237 -1.156127993938716 -1.145228630831018 
-0.6853470300151546 -0.7093645949629912 0.8453121940696076 -0.6258404698394515 -0.9092710254886729 
-0.2143102339706262 -0.103712656850485 0.1606805148672849 -0.03109626081586206 -0.07619534313497764 
-0.07611943140077516 -0.1403737332624562 0.1033758993325704 -0.06842556890647196 -0.07430396351737559 
-0.1106203611274535 -0.01176639021890364 0.06776652473605441 -0.02935478185487099 -0.06303258495162369 
-2.543033953854734 -1.715350683370846 2.448688998234334 -1.506450668690392 -2.119881141315551 
-1.839741901297078 -1.682754183457821 2.021616783728234 -1.506520708159597 -1.686997724313891 
-1.166962628236737 -1.700562815659426 1.401223201736627 -1.558932855979013 -1.806377313194395 
-0.1486711696351412 -0.1004141647340377 0.2130405404181702 -0.06595933915142686 -0.1021204754457965 
-0.1119896686260979 -0.1385529505614576 0.2343991433557414 -0.09338420268354604 -0.1171822729007238 
-0.1514630014875747 -0.09840918988378372 0.2129290033755166 -0.06704140005380825 -0.09919541895064665 
-0.0124413976157602 -0.01006135985876191 0.02513634362872769 -0.01358969269216444 -0.02508356812950282 
-0.01476178604884012 -0.006291206854332992 0.01792065325274476 -0.01224513272411958 -0.01387463565011613 
-0.0117984725808362 -0.03101991708482877 -0.6040367152723958 -0.02903077455428239 0.6973756034976882 
-0.05510028182561612 -0.04564469949869047 0.08112070967451644 -0.02439590057466891 -0.03310061439372402 
-0.05178949946388819 -0.058249497467914 0.1362986452379788 -0.02965526318903526 -0.0742460964448161 
-0.07741121731469072 -0.03240456365877247 0.142231267598768 -0.03108915735230435 -0.04026962558750712 
-0.09769273579003414 -0.03152442808155338 -0.1163246430780707 0.5668995926188153 -0.1626446824630562 
-0.05414208777989499 -0.07102499306023799 -0.2541844084775546 0.4772413127111148 0.0878761063861678 
-0.03952179323393766 -0.01482240048460309 -0.4368736981715077 0.7960883911241666 -0.1568333060179382 
-0.3822822681215916 -0.3117625036209804 0.4317986807659606 -0.4370288592580289 -0.4928594483522039 
-0.3362498749038378 -0.2663957122106994 0.3278536544922064 -0.29385687908989 -0.3390815639346562 
0.0983581169081567 -0.4407203062017256 0.09985892208946541 -0.399674543178597 -0.4801075312158228 
1.297832619931222 0.632868702497654 -1.494699816274112 0.9676803313721052 1.455869923316746 
-0.3291338233161045 -0.3978552489089082 0.3006312969536439 -0.1933248038424446 0.7568109421634708 
0.6233649659947951 0.02261453759448186 -0.6634153520467687 1.054361041882915 0.03813218455882957 
-0.1796372090398805 -0.04008406404540524 0.2715000929867045 -0.0202545070347493 -0.05180331582307068 
-0.006698371894010139 -0.029658163445799 0.02007768138369854 -0.01328324055016547 -0.005628432414164594 
-0.05292722448698102 -0.02576428228124173 0.1001019089774216 -0.01111179588907813 -0.004219066927713113 
-0.07996678699841131 -0.04419934264126486 0.1273975994966915 -0.03725565034629424 -0.03366012612163297 
0.529683172609649 -0.08448229269046979 -0.5622991981571045 -0.06051304496218726 0.3921346053348433 
-0.1428126005554551 -0.07080487872678823 -0.4261314651794497 0.8231994742084351 -0.09405902881813943 
-1.038061121092413 -1.138199222820286 1.288200479942904 -0.9641058703878524 -1.246081655152247 
-0.4325633926949188 -0.8966006090493648 0.4678081359073682 -0.9701323968688516 -0.7023571652669441 
-1.707933454024869 -0.9811874598558963 1.527183108630413 -1.217819302469714 -1.250360664394434 
-0.468702310489621 -0.3476173329713541 0.8613844060856173 -0.2032202708924659 -0.3011744236789312 
-0.1009417639639354 -0.1629459595669467 0.283158726504825 -0.09541402790833943 -0.04961236241316331 
-0.1870461463189886 -0.1796693318845719 0.4026555263814928 -0.1003374670173631 -0.2035777340626017 
-0.1269265958950778 -0.1286254220772666 0.287794508279038 -0.05390161118405164 -0.07039981140397265 
-0.03480476607892863 -0.0807999635597885 0.1165207020876239 -0.01860504426051435 -0.01124803026296894 
-0.180203404842846 -0.1031373311118954 -0.2953561544040126 -0.04118659183411768 0.5625865040463198 
-0.007554568432616813 -0.01559996977649948 0.02543714956200731 -0.002630502181409678 -0.001721209541438758 
-0.003591790291262517 -0.007819471946175723 0.008234620583450359 -0.003161273493797144 -0.001367511109098496 
-0.0097147140381365 -0.02105710388487046 0.02880404077721567 -0.002931177521160161 -0.00293795127021359 
-0.01933107254732604 -0.009304216294682834 0.02364506821223793 -0.004903086029676101 -0.009292113227732221 
-0.002446142447409492 -0.006570073252047239 0.007573397170005419 -0.005013087519718713 -0.002653871452194853 
-0.009833760484103631 -0.0166690703999561 0.03206542709500597 -0.01546871597034678 -0.003388519715395277 
-0.3434318162418803 -0.4756333847451696 0.6808535796247241 -0.4385257042160869 -0.3691301429919761 
0.6000467057091223 -0.3234579675403546 -0.348220348691635 -0.4186812215810171 0.1180518534103452 
-0.9603759144743007 -0.7078090774668079 1.286590866363903 -0.6740167939554224 -0.779195036946682 
-0.01923610064403487 -0.01060977961765237 0.01434183899437736 -0.002678766024803303 -0.00276820281079098 
-0.001994421999996891 -0.01036862626194419 0.005444146686717207 -0.004046645411526217 -0.005793178560127347 
-0.01502210400930758 -0.0006993899990793493 0.009754639647728523 -0.001677989670925181 -0.01000555841571614 
-0.1231940926812164 -0.1933776479357372 0.1772979212994094 -0.1810398302420005 -0.2061415499727522 
-0.2477613926030529 -0.2151040693171054 0.2537433865143992 -0.1334235881653353 -0.1482783349915263 
-0.6151763356235201 -0.1636271999475218 0.5316518030937656 -0.1719884029952077 -0.1399321797972803 
-0.2429550000353128 -0.1363209733941811 0.3276382488632689 -0.1323788162622705 -0.08458309117259256 
-0.2757966664538952 -0.2651242089167168 0.5563482974653187 -0.1075794238134311 -0.1999018951709204 
-0.3334062326615475 -0.02864051830770652 0.3894055676195445 -0.03573869450271871 -0.1980930761751784 
-0.01087686164183491 -0.01010747280425947 0.01957103241395691 -0.005654827589010525 -0.009173503478268443 
-0.002271105131649218 -0.004912191783303126 0.004509270920352995 -0.003082089570688098 -0.003046717856936744 
-0.009256869817444119 -0.009357782984746967 0.0271703280654027 -0.009660784976237484 -0.007067095223034607 
-0.02168190330012957 -0.002845240657642275 0.02725405902644106 -0.004027505010180055 -0.01049729670027845 
0.6659707142915451 -0.0119083781176594 -0.571937840097904 -0.009998916784590226 -0.03382925258963047 
-0.003646893860028076 -0.006695582173902164 0.004070714566995737 -0.004828975779696848 -0.003682389645515811 
-0.02874560469624659 -0.03526404352299217 0.1290397432274369 -0.02335950652949571 -0.01335567423814823 
0.2466543213438167 -0.199921398363409 -0.04206101742274813 -0.01706905128956077 -0.03035973870968982 
-0.02299330306736155 -0.03234834545276307 0.2189199746899464 -0.2093737096896599 -0.1113069483727155 
-0.1287074012993757 -0.0952276728975914 0.201005473407174 -0.09433434978450463 -0.2119138862492163 
-0.259094465000722 -0.1404275526753099 0.311751498844587 -0.1924353058773034 -0.1706238841417042 
-0.2575435143466973 -0.07684118839114581 0.1855629219979815 -0.06941858335285193 -0.0622182688888198 
-1.435296903764811 -0.9654977329594977 1.225317343714383 -0.9440508591227913 -1.020077888447579 
-1.693665603205046 -1.544887913970481 1.933570414748396 -1.092024221839852 -1.670010871092987 
-0.8988289286121504 -0.9257294221936213 0.929282358985328 -0.912664227263659 -0.8605713885502222 
-0.02350802265134042 -0.01588555396936139 0.04381116527659527 -0.01965985564477779 -0.03552196680405676 
-0.1177112296823118 -0.03338777534865697 0.1844663453102037 -0.03687905745458908 -0.09591070357384188 
-0.0796941304516344 -0.03425121332977416 0.1136451027641047 -0.02068271207764194 -0.06247350263384573 
-0.01825171721702022 -0.01139218629397488 0.03036376800967227 -0.02509510245552161 -0.01816756153057904 
-0.04352054257889897 -0.007466513813354853 0.05429465710539144 -0.01412252345351511 -0.02660409266708296 
-0.01673484806497713 -0.01431466201984718 0.04450094503869732 -0.03119898186203976 -0.03284501743415878 
-0.02250195797378638 -0.02000790522281496 0.0556429977481079 -0.03776067616988601 -0.0188268962033732 
-0.1226740701689977 -0.009432308241046409 0.1869535648049301 -0.01019786320057667 -0.09653414533841645 
0.5282423504468994 -0.08598799892773297 -0.2773623051756056 -0.131546671899825 -0.04041171254250026 
-0.04918965023054426 -0.02195642594380311 -0.5325925705197937 0.8850027100858686 -0.1650976319581058 
-0.06045083955527563 -0.03753715209788806 -0.3455759708409453 0.580988728914238 -0.1366747289413669 
-0.07732317166344656 -0.01073045732137705 -0.7390090820114114 -0.00825951713737789 0.8793224369293061 
-0.002706691959113893 -0.0009710732357550601 0.004693382547156344 -0.0005559411392887124 -0.004430648343570928 
-0.002068006921159007 -0.001225749079113355 0.002380326412950133 -0.001116240314419774 -0.002412275462905326 
-0.005051691206783702 -0.001924901602055013 0.003143971242356053 -0.001733636340708883 -0.004507815538968794 
-0.09362760070882767 -0.01655343561475836 0.1869852619773661 -0.03578372705426989 -0.05564300481967949 
-0.08104023173882949 -0.0561343770745322 0.2718304053242407 -0.05076954294222307 -0.05043025034447334 
-0.1159969510603579 -0.0133967093032849 0.201442314265528 -0.01243657574644957 -0.01924047510935319 
-0.002402856343776684 -0.03379275899936058 0.0912687901551357 -0.03229877780702328 -0.0214930970430373 
-0.0009968061827665875 -0.0007888276508309836 0.002583791030948595 -0.002350753413340313 -0.001165459304249852 
-0.05260334719053423 -0.0008925255237308267 0.08919518100687224 -0.001735881237096208 -0.02735246772726791 
-0.008498960702555267 -0.006721972363838815 0.03695011649289826 -0.01848366097543952 -0.004229646805968774 
-0.0007601945838181811 -0.003603739538188978 0.002422808544714462 -0.001091912475819942 -0.0004285045593626721 
-0.02157926991968283 -0.0001937430012427455 0.02708808618534358 -0.0004778642514141541 -0.008152903417681255 
-0.03761333104804644 -0.01570576484486503 0.06984470569705022 -0.006330527162774135 -0.03470684499673589 
-0.02891865750752666 -0.04747808746838125 0.09723505032060345 -0.03780846211907255 -0.02332708400641879 
-0.00584777139009895 -0.01767280750058484 0.02206325221622336 -0.009785535527248744 -0.005792579158082673 
-0.03323899334292027 -0.06842476077716703 0.2471309895203783 -0.097755368440304 -0.07163571323904666 
-0.009571097903452884 -0.007838089657136152 0.0241365308235216 -0.01414523458462497 -0.004906607531020943 
-0.08747491602281822 -0.2823732842092219 0.4939793202114908 -0.0296538716638052 -0.05843518599237205 
-0.06818049488177393 -0.001725452775756444 0.1245359582429099 -0.01412902816467732 -0.04684848121852003 
-0.004084090945125879 -0.001779749420482222 0.00626531171119021 -0.004655445815172829 -0.002331586408330243 
-0.003635054383670166 -0.003380582188438745 0.006226416112760088 -0.01265940758199148 -0.008651908499932874 
-0.02949725886958795 -0.05339873785852042 0.05017000087394712 -0.04208159735444634 -0.0347017434992471 
-0.04670455992841032 -0.03300428399935269 0.03349615220791932 -0.02623265074319246 -0.03703942812900881 
-0.2653929296811481 -0.3263212633447017 0.9043989017994687 -0.3048575991154311 -0.5174054054196018 
-0.1129813946739437 -0.001855350284625426 0.1839593984856598 -0.00350177760018736 -0.05909324302572244 
-0.006005100848506442 -0.005302536510638002 0.009241166375211222 -0.0136810244598756 -0.004076087760956915 
0 0 0 0 0 
-0.00137636011667512 -0.002276927381240702 0.003858976222329139 -0.004133307707424067 -0.001031288573531865 
-0.002126203726643165 -0.001580028257591514 0.00274695388880475 -0.0008388319494971449 -0.001824821393937914 
-0.02952997448831191 -0.0005831127311572468 0.06248424656843964 -0.001779923887407015 -0.01951214984403949 
-0.05664431058605613 -0.03220776182908399 0.09812271988092057 -0.0324800279846991 -0.05665740371088695 
-0.424008165565355 -0.03749674236279422 -0.2790248360970746 -0.06234339860915864 0.8271793836088032 
-0.1371059279523427 0.2102695365629298 -0.01108151285663901 -0.1076045019826132 -0.1423516149213169 
-0.01511254780015181 -0.02709837817262415 0.05269792352211845 -0.02555531837435125 -0.02292944364765692 
-0.09668799737073175 -0.01916118460930559 0.1779155304340138 -0.03155794017637303 -0.1025342761610806 
-0.1461143564631101 -0.1000315223879696 0.2498313617020715 -0.05140365745866641 -0.05424267538301122 
-0.2148422348527018 -0.3274938683613365 0.5647342047786654 -0.1252445386823598 -0.1580344016568956 
-0.02489489200347523 -0.06632955573695544 0.06259194577044798 -0.02965930762716374 -0.01738016884435015 
-0.3288111395677852 0.3280746115389863 0.1398833877501972 -0.05286250816781313 -0.1380998301641922 
-0.002286771255039349 -0.005321740530122606 0.009278653800374263 -0.001451512432089678 -0.006552490924497598 
-0.06581763918652823 -0.003116787261898756 0.09501200126203001 -0.003178778456993733 -0.02639242506672758 
-0.007233607898063993 -0.01050280826210658 0.01829102006818863 -0.008324744212199059 -0.005198220618508424 
-0.05172099846613237 -0.05184661852581815 0.1064371804664426 -0.01523356087749887 -0.01802669707361061 
-0.0487801958995859 -0.02808563392723707 0.08720370117960222 -0.01211787405766344 -0.004635408163748039 
-0.1019274682955039 -0.03423710985419912 0.1647784227320473 -0.01612664575604815 -0.01787565888083812 
-0.07769563221104708 -0.04137386461568979 0.1146702315606545 -0.04223635336614185 -0.07218490613561364 
0.3372573719803342 -0.03995836024897937 -0.1624684759464694 -0.04805287232868069 -0.2117538820874287 
-0.223795109007568 -0.3691471238972255 0.5436030143390868 -0.09421649961006412 -0.1061208085765497 
-0.3564913644822254 -0.2966528809948135 0.5598327413287755 -0.3294970621410003 -0.5353466550026685 
-0.4820216401251414 -0.3502635905704399 0.9549725255271944 -0.6535983838296431 -0.7051919280112745 
-0.6172686931463285 -0.2545082691169949 0.6743604006397511 -0.3293186289430008 -0.256495177971429 
-0.1454548165379629 0.7766549386335934 -0.5346875545085954 -0.05384808478862801 -0.07168958434579963 
-0.00575454979036841 -0.0234731930184049 0.01452690606920839 -0.01166130201281705 -0.00589118318855825 
0.6994428406141565 -0.03609868769014164 -0.6210005979160622 -0.05840794014505358 -0.05317544293241332 
-0.01189112170965931 -0.002785588165305769 0.01746273103231231 -0.002740944732724015 -0.008807387208329487 
-0.001328789527766359 -0.001471616825727933 0.001547911308231599 -0.001954224109018752 -0.002275789468449794 
-0.001189516086327515 -0.006242605155052838 0.004298343188235033 -0.002584650866567914 -0.0006992349220388601 
-0.01404924828410604 -0.01366035113753399 0.01901362924143186 -0.01850389285621261 -0.01411492725927839 
-0.02114657731690319 -0.008080743331069078 0.02781468493713678 -0.008575601693641428 -0.0120053248433473 
-0.008775082378526901 -0.0205392785942656 0.01975020261605441 -0.02785633123883187 -0.01966863539670958 
-0.03538289535006653 -0.02012004705364173 0.04626897209060565 -0.01584717795270882 -0.02872775241700153 
-0.03251088801147516 -0.0078265287463307 0.03667085089139295 -0.009379137498150168 -0.02061867262868279 
-0.02081727204457932 -0.02315815554905963 0.02663046110931763 -0.02172949132993049 -0.01816458239865302 
-0.1305735744147497 -0.0163891213833109 -0.464617841808516 -0.0259992307792261 0.5873913297262257 
-0.08773965435727379 -0.0652743304464337 -0.8046860581883214 0.7021320677173762 0.4400016098581934 
-0.180839279015831 -0.008334686621735081 0.1356276040388943 -0.02122579248886006 -0.02674366781319399 
