solver_type L2R_LR
nr_class 5
label 3 4 0 2 1
nr_feature 24095
bias -1
w
0 0 0 0 0 
0 0 0 0 0 
-0.7046999351478297 -2.00707461735407 0.755552721326692 -1.624080879932884 0.02928040210240614 
-1.795745837271296 -1.918699233695243 1.904566832728841 -1.88029472502361 -1.695452307646895 
0 0 0 0 0 
0 0 0 0 0 
-0.7046999351478297 -2.00707461735407 0.755552721326692 -1.624080879932884 0.02928040210240614 
-1.795745837271296 -1.918699233695243 1.904566832728841 -1.88029472502361 -1.695452307646895 
0 0 0 0 0 
0 0 0 0 0 
0.6919042811180154 0.529787481822638 -0.6530760940353278 -0.9661987509744451 -1.117687612759906 
1.242366328718441 0.44748022624367 -1.243435321005682 0.6178434948845141 0.8331536466727656 
-0.5846426395197966 0.8945082751246139 -1.082707604576481 2.060349952480312 -0.007617997412830147 
0.2718232386261906 -0.1181763441194601 -0.7764917009838707 0.8412993758467657 -0.03872803371841683 
-1.171689425141849 -1.665737395171673 0.9458178768472262 -0.757908072434522 -2.198413031553758 
-2.399779645139996 -1.101256663408339 1.620218746590038 -1.909126753264317 -2.944021688215654 
-1.773980515986809 -2.121053069306819 1.712884695158988 -2.254483258473746 -2.426117629288883 
-0.5280964811777721 1.27356879450617 -1.967436363069471 2.503791843195043 -0.005713769138358714 
-1.827008312981985 0.2804614767497797 -0.3696338790252675 2.747591316127134 -0.01327163042247032 
1.719589341693705 0.5352242279612455 -1.897383945605542 0.6709201391997751 0.8378059218343185 
-0.2372507468313495 1.456909728298362 -0.9476694777166809 -0.1509484253189561 -0.001151217328240481 
-0.1082538088197574 0.2618601953241954 -0.1824423929998076 -0.03081767670448759 -0.002880206518561018 
0.5828373951329039 1.086574738704478 -1.390954993942521 0.3327486196181619 -0.001567618406491573 
-0.02890500921889012 -0.6080317584739259 -0.1840107328287484 -1.431608951657372 -3.147679966876637 
-2.546082188654815 -0.7405682431544665 1.476712463654025 -1.819543096528875 -3.263824241573251 
-1.601528061873498 -1.552838537818942 1.422287098191642 -1.969852449823789 -2.532765387589254 
-0.06736090992072299 0.4698886572400358 -0.4586440946016673 -0.007190118628266717 -0.0002343505409080782 
-0.0183222995390505 -0.02416233431388667 0.03606508710747523 -0.003400666679871753 -0.001179406469954195 
-0.01332241724747951 0.1183655807509904 -0.0770001898150522 -0.06899009222867124 -0.0001734923607845889 
-2.177533788254539 -2.438852423292526 2.642999633644702 -2.398632141615944 -1.878311376775552 
-1.309338188528475 -2.540109386532394 1.660442203309829 -1.97072165885526 -1.722226857977282 
-1.935758564502496 -1.37888296551625 1.677299685483501 -1.7986996865931 -1.611811506426548 
-0.3094141656194911 -0.3916411692825957 0.483340432112209 -0.3153816637332137 -0.04146143126617054 
-0.2666951158040374 -0.4525755290969 0.500664373437704 -0.1565504110605029 -0.03903914145295032 
-0.2779286710173323 -0.03471369820003355 0.2732540444756989 -0.0322363674594419 -0.01982747371782368 
-0.1933392911228695 -0.2968973863727227 0.3227381527210109 -0.1443888950896991 -0.05206132362995976 
-0.3286648006995771 -0.1479817703679722 0.3216095989493571 -0.09361545509600476 -0.1310365863463648 
-0.3143747116796319 -0.3293103597705673 0.4165977589876881 -0.2842927822700843 -0.05838347287824881 
-1.212610207118812 -1.18038496242307 1.397895681021293 -0.5294838938270532 -0.3377856109169474 
-1.029057037071804 -0.7816243504208396 0.9740268967892829 -0.7378623435232144 -0.5700028252873273 
-1.307068956179194 -1.036672933321545 1.448731747463677 -0.8866362267937252 -0.4726860803090486 
-2.847421814280169 -3.488380238341163 3.478534202810041 -3.205521679499155 -2.303461959245271 
-2.106629264622177 -3.157027929595845 2.12669847177347 -2.576645356117103 -2.56071415436676 
-2.009996850491165 -2.427435071716826 2.037030602866615 -2.006119823878608 -1.806293903385996 
-0.003199427600363002 -0.0008096933781740538 0.007999634973411048 -0.002450951415046427 -0.001259926463543233 
-0.004441691569757395 -0.002829362766058528 0.01377925567530735 -0.01039346304713658 -0.0005264605340477087 
-0.00219107099229187 -0.001670421942953831 0.001819539783401017 -0.003859902715758174 -0.0082663450933004 
-1.810542378497665 -1.802538473601862 0.823839966863613 -1.116524117737606 -1.673753031900732 
-2.447872672211671 -2.486764951891895 1.153064516059852 -0.6123840010008691 -2.375804073285182 
-1.915215417253759 -1.973472634385195 1.531976768595852 -1.512319569419988 -1.7744091039916 
-0.06784138639252832 -0.03243036759803347 0.260974800347622 -0.1723766593875753 -0.006299947548553261 
-0.02245209115625649 -0.05457782946181985 0.09735188599274683 -0.06235712224875554 -0.01484140235891949 
-0.04572156161376719 -0.03637195789704111 0.1490494413620563 -0.058789576620026 -0.01358863132477899 
-0.1670015356143902 -0.3184445661456892 0.526571055173044 -0.3230474395742551 -0.09177167494800478 
0.5077341632319098 -0.141938795064556 0.1106160447615473 -0.4569226262766796 -0.0823773783078635 
-0.4974584012148041 -0.2333305083144788 1.018904976957937 -0.5245864532968777 -0.07574396974708412 
-0.003959803736864322 -0.001304671436603837 0.01907432186611535 -0.01315614891617939 -0.001776062383786812 
-0.0004546624363071506 -0.0001707967554587644 0.0009390288764245271 -0.001844525135453076 -0.0006458825428480676 
-0.001797028707053514 -0.005191080398435716 0.009855565272074283 -0.007170498779296936 -0.001500639086923333 
-1.655481483174525 -2.351002586286952 2.006614441030962 -1.9189888493251 -1.576883021929349 
-0.4284723924830359 -0.3243287109517747 0.3296451564060539 -0.3427247048062948 -0.5266287731151357 
-1.770644887458901 -2.207581123186929 1.832876342150772 -2.118619186326461 -2.197833786005448 
0.3752057254268155 -0.4186101120567807 -0.2427708632587116 -0.2143704889948839 0.4678698975956045 
-0.4596369718554121 0.2128957391278989 0.2610136489999038 -0.4494551407960125 -0.2721597213123106 
0.3087984936428221 -0.1060892706327359 -0.3355110870070255 -0.1598148851962463 -0.3426697874908715 
-1.017825329403012 -2.211726352511361 0.6611363271866681 -2.143010565403939 -1.195746147376687 
-2.319841380212575 -1.605925807041137 1.789821897899575 -1.335373246778356 -2.190388394745502 
-1.779526911469212 -2.38292289877008 1.752767746785396 -1.922406588858184 -2.470466379461659 
-0.1074321193564535 -0.3560409093332748 0.3183926155808892 -0.1587320425348413 -0.02715651187814766 
-0.5066216183527527 -0.229821032160436 0.5574488493533352 -0.1177861082280528 -0.04190008209391722 
-0.2215954937550215 -0.0378091450980241 0.2190402749481588 -0.09161810959426797 -0.1847483942289662 
-2.116286674088436 -1.761444286370055 2.034299800559292 -2.070936798243157 -1.582356913626267 
-1.500422086948868 -1.879242252846689 1.65226794590185 -2.070537554331755 -1.628120720488134 
-1.751291399688273 -2.156508702061239 1.822201409345534 -1.8346932872079 -1.563335912788126 
-0.4227315474038155 -0.446554476350591 0.6700234766802521 -0.2386074149829921 -0.02928045610207989 
-0.2562238061023009 -0.3419283230319964 0.4432730689061297 -0.09677242797338569 -0.03246543961616761 
-0.6536334037009303 -0.2865738045823732 0.7803860862276724 -0.1775873871160704 -0.06848385485810729 
-0.004886102667782001 -0.009505334515110703 0.01888863269630851 -0.008763742677688058 -0.001292535701033962 
0.8725150864742942 -0.03444335710326804 -0.7955354997008891 -0.01666521693243351 -0.006492584863919833 
-0.0494172960959777 -0.01246202184741262 0.03382050058855698 -0.007803989097416611 -0.002663184666155095 
-1.702329791068052 -2.013232553030166 1.777043441379312 -2.087380185706531 -1.581370787178015 
-1.324384641581381 -1.734933381368028 1.515917363034932 -2.072616433549319 -1.648919891662278 
-1.167867415734093 -1.896090748910593 1.333370341883684 -1.676040526175247 -1.770529909358526 
2.998419039966912 2.915446361336393 -3.607060605938734 0.534037065661489 -0.06020783707441791 
-0.3049498698585328 1.568345055845021 -1.21379495691051 0.0605658247025776 -0.07923168218139484 
1.500541735166953 1.558180149231991 -1.873551094097582 0.140381324373971 -0.1710906660833212 
-2.22549475172354 -2.624785857260027 2.873058701226793 -2.531221618440941 -2.122153373956688 
-0.8921387419948907 -2.911076275890947 1.312760360288725 -2.415215257190272 -1.890928962840836 
-1.360972428948162 -1.09278716481683 0.9271815857930715 -1.3121787621132 -1.307064450545746 
2.066841261652007 -0.2075206304237345 -1.939823957155498 -0.07306504160333258 -0.005559460837171028 
-0.4482539927921146 1.620242629774306 -1.243417873150709 -0.1754275814534496 -0.01359902278111838 
-0.1157320138214956 -0.2334260464949137 0.1927597926523347 -0.04774959100177383 -0.01924189606762876 
-2.029353020671143 -2.642520549576718 2.70233642232393 -2.505351137373994 -1.629830813565567 
-1.408844800019321 -2.202014732081754 1.500742637036582 -1.642010660207196 -1.561354844340334 
-1.590110557511024 -1.588869112041779 1.59233836432481 -2.463623088766805 -1.752932167893317 
-0.3740140016717805 -0.450420831373387 0.6586889467562107 -0.1907946406021989 -0.01034937454496627 
-0.2021070333091093 -0.2787419164986062 0.4837392408867577 -0.1551429361173776 -0.007614887241460792 
0.3102968425711 0.4291214283873405 -0.3186126561388964 -0.2336878420505049 -0.1737850152154282 
-0.2596566531599162 -0.2100592014603734 0.5902931373037519 -0.4056878083684846 -0.04138905934864486 
-0.1017548341999117 -0.05823734667341671 0.1950487351801719 -0.1086105132898105 -0.02411693463993982 
-0.3117208422830322 -0.1314816931648344 0.4249912553383632 -0.2341352635518244 -0.06806462081343521 
-1.066907554708802 -1.830490584548837 0.1482082030516077 -0.3032705062984034 -2.224158723886954 
-2.166156408908278 -2.248137016891906 1.585517744929425 -1.430838173379202 -2.730366103814862 
-2.038524370650372 -2.46494202841481 1.738180896637694 -1.223349618284123 -1.995486459987615 
-0.2635555208027979 -0.2031289238079684 -0.8004095405220427 0.968508305949433 -0.1117056590036274 
0.09230968491728955 -0.2033748206974005 -0.4723425371362698 0.7491125326748466 -0.1374432520796642 
-0.02351199312316158 0.1870202781194269 -0.4264475767458636 0.2591477278481143 -0.1046171439481407 
-2.375361935334586 -1.968436748630377 1.668894491202188 -1.81593083140037 -1.819091262628351 
-1.670945948794746 -1.926913339862543 1.721422752798124 -1.732403063061898 -1.845461974568464 
-1.692886978232074 -1.891395809300856 1.572977036808455 -1.491189325237616 -1.959552986781768 
-1.343714322694816 -1.369882464170043 1.501416096648519 -1.399921312582136 -1.08331299916388 
-0.6413848798346471 -1.411142881665679 0.8460023269517211 -1.256760911080301 -1.134891995530437 
-1.110115169190087 -1.413199786291385 1.147285496622616 -1.183616710315276 -1.140443972829593 
-1.482073576351324 -1.384956313401145 1.61489765069769 -1.406747410375864 -1.198065041126936 
-0.8348663481713817 -1.498906294730272 1.031858716109064 -1.32425643246063 -1.173954774967672 
-1.116946837488894 -1.419149971020877 1.168878295286943 -1.18806892430318 -1.141544528843827 
-0.2448373797287753 -0.09975490824535166 0.2837245076647627 -0.07302928351978893 -0.00622749020413312 
-0.1649487620557201 -0.1245144939331646 0.3294475211629321 -0.03642169367931956 -0.007369779230937392 
-0.1743745938132197 -0.01761342480560536 0.1668988550399486 -0.0156767055433257 -0.02316030532429602 
-0.08850250638096156 -0.08361375668953144 0.135335127400096 -0.04468234468775342 -0.02877609884173726 
-0.4980940389129282 -0.04337951070190957 0.5288550467014063 -0.09615293022264008 -0.01557735394388037 
-0.3469549393053509 -0.3834063515451493 0.7979766702443435 -0.2402845996324179 -0.0351514967960971 
-2.332568447101416 -2.724533990369797 2.308736187029834 -2.823046275665794 -2.501582398730585 
-1.314667611072958 -3.198239730233514 1.550916293407226 -2.693495626155295 -2.902336684306846 
-2.06039989088973 -2.389791689844143 1.970545046242326 -2.109575878440797 -2.796239009665496 
-0.03273578912140829 -0.001700188693643466 0.02914737102617131 -0.003390617142151184 -0.000400365962236502 
-0.05910304337167284 -0.01039941435145689 0.1076804770743772 -0.01950079205561242 -0.0008729029422350967 
-0.002311758449763648 -0.004219438114361656 0.004429138536449834 -0.0016999827199243 -0.0007348692156419973 
1.947155213584573 -0.8679976825443927 -1.574156547392364 0.4142848508512301 -0.8857122663213773 
-0.6697779029910281 -0.7503758521244446 0.04833894313294206 0.4407997323199267 -0.9657342341165935 
-0.04519576669167923 -0.9435891345107774 0.3179450863995013 -0.5605653190474843 -0.8404674549906113 
-0.6669079391269767 -1.35083893713821 0.6799711500775846 -1.112978582948358 -1.533259459204155 
-1.483062637630811 -1.428805753741208 1.511833945883988 -1.45054812246989 -1.601740401414966 
-1.725501786658961 -1.746883854959753 1.494314841691118 -1.300494070455046 -1.441092081968004 
-0.004079256963680332 -0.001602395580472601 0.007456296968362369 -0.009817989170767066 -0.001758513695318578 
-0.08620664525648825 -0.002550587332991979 0.06916230128705109 -0.01853114021398254 -0.003713149237121508 
-0.06036584841554458 -0.01084454635620114 0.1084945067754752 -0.02027458653284914 -0.001951923127896556 
-2.530226435123361 -2.562653310632997 2.395994708677874 -2.253609010897228 -2.209175917371033 
-1.805190593386203 -2.257397439322836 1.816784266576633 -1.921557799073418 -2.134422851712758 
-2.252838955300362 -1.912668149287835 1.924253909714706 -1.973050582464746 -2.370603436409223 
-0.458630392696451 -0.2361430607008534 0.5524095234165322 -0.2508073143214039 -0.1396588569323808 
0.4615127598027246 -0.2845194215872256 -0.3257023281260105 -0.3119684421077187 -0.09476561888954405 
0.04041786688493007 -0.1446057392323072 -0.07660144437453616 -0.06329150272225999 -0.137180464227613 
-0.1438340551414922 -0.09788290801239528 0.6841651570399532 -0.6322907391867337 -0.0301027074048682 
-0.2690514845576141 -0.02941816186592072 0.3475614131421706 -0.1221060953129683 -0.03149867535313878 
-0.1248398464588771 -0.08443689270057353 0.4010708956887389 -0.2828729023524155 -0.01891103721751683 
-0.8311561923210774 -0.4235329572026743 -0.7418546946098769 1.539981161648839 -0.07576497044073367 
0.5644874819808289 -0.6048825327880127 -0.8920161033363565 1.016814414859259 -0.09755250224950436 
-0.06272480518108076 -0.58423760543258 0.06665688381048941 0.670271908804331 -0.1448688811609133 
-0.7658676299016228 -1.149429488415272 0.5343678888187587 -1.674704895090932 -2.690066681266943 
-2.113424097268106 -1.14875896982602 1.51027493031369 -1.502602827854494 -2.463574875180787 
-1.513957350036676 -1.568352194095141 1.286679073315157 -1.7356693459205 -2.289829017792235 
-0.0486936755164994 -0.03240682014071705 0.3058368644409914 -0.2275907009683102 -0.004588843482663784 
-0.00480278094298762 -0.0039243182512432 0.01854708200657885 -0.01184598054339775 -0.001733074968564864 
-0.1092374206383886 -0.006144056471853618 0.1919587900877312 -0.151827106300215 -0.005268213641723357 
-0.4946129847467195 -0.3405971743334186 0.6282605433761215 -0.2410525691657435 -0.1434861784907022 
-0.1514626085812587 -0.4514632942403168 0.3167756600949765 -0.2829031403459252 -0.1159386045479042 
-0.2415048425594985 0.1867388660333432 -0.02265545372920668 0.05808198594621018 -0.1073472044437894 
1.54335408346971 -0.7423588327240787 -0.6958122427970911 -1.01074003002671 -0.4615053642249149 
0.6124311595114335 -0.1936959143186602 -0.3442347620888875 -1.404641946029749 -0.5325531663298773 
-0.7352177836303018 -0.8267529973073162 0.4226067841886128 -0.07614035360995941 -0.4540627511664964 
-0.2777741809068224 -0.01760006503611513 0.2876354593435076 -0.007954761055028488 -0.001863017815963302 
-0.01189254460255594 -0.04183271984313022 0.07049697341922505 -0.03309523705723645 -0.005079734821231146 
-0.04735227978284464 -0.004905107102967325 0.0341154335897272 -0.009003768722919867 -0.003604961340928363 
-0.1150501856541555 -0.05162264281962047 0.2949642401128933 -0.1268507738403041 -0.03699865547802975 
-0.08614355406416609 -0.03957107952035595 -0.1955344790809523 0.299515301509339 -0.01669301513706185 
0.3975689883812638 -0.08437503084838315 -0.2411093621758792 -0.09519244734835387 -0.03918732762886021 
-0.1023481658088005 -0.003450881486375416 0.09109081813672766 -0.001797711147674257 -0.05335065337764221 
-0.194122363611108 -0.009178858665236475 0.2156245758841607 -0.02795535067134615 -0.0177998800989579 
0 0 0 0 0 
0.1716337365560937 -1.234501975435085 0.10186005529157 -0.3994653381545892 -1.467101500981614 
-0.4427570746654771 0.3157078538118994 0.006320211662883979 0.149367790978302 -0.8206943998853666 
0.04279196798755775 -0.4073948747060771 -0.01806744274926434 -0.9506650039215168 -0.8404422531294239 
-0.4383747806019331 -0.2206302103719485 0.5736206885802382 -0.1687105507677204 -0.01289450723534964 
-0.1055560336763056 -0.08404399430544288 0.1656743266654728 -0.0422890283570858 -0.0120261892821702 
-0.3259695263600278 -0.2355780154388793 0.4582032955675074 -0.1010891120056101 -0.01906659327578567 
-0.03616632312351737 -0.004550677942842602 0.06056951238753776 -0.00497645758172814 -0.008658349383957879 
-0.01624697876132338 -0.007804575272487886 0.06617932120075394 -0.03689626447191344 -0.01010125159044007 
-0.01507520008959428 -0.01075252189501959 0.02092698214015122 -0.004425724175944592 -0.001443039885970184 
-0.116775237941025 -0.1052139134883149 -0.4342616478850919 0.5942043654677357 -0.05420554912278525 
-0.1152362701263707 -0.05813763686561067 -0.1010280270411748 0.1507530430887302 -0.02672250740916632 
-0.2442617900799034 -0.07014491772348036 -0.256163743744693 -0.1503140389043613 0.8534468194116792 
-0.3860435935800905 -0.2362807573489054 -0.7717561738017203 0.7930642158882651 0.4084826765936328 
-0.37264264779844 -0.2107128485074 0.0272576954235322 0.009873851674387507 -0.204814954061566 
-0.05857562675284043 -0.2937461054061802 -0.6518788849793933 1.013833003099133 -0.2616612916125072 
0.5902482175819482 0.08445027354939159 -0.6364902226458231 0.7386758094444665 -0.04473954404332797 
0.611041062012473 -0.1206258703794742 -1.129344221314304 1.523867828350493 -0.02964401318507819 
-0.02567589259312879 -0.332805534234643 -0.04744583752728881 -0.2372330333006662 0.5771366097814739 
-0.1707737405432303 -0.1757291538910357 -1.627530345603447 1.784979538540716 -0.1585304645625906 
0.2693341786888687 -0.1747478631493871 0.002638270404348585 -0.4006045734818823 -0.1045543270075324 
0.2203836592030077 1.047461214460476 -1.326690927565291 1.267316165586144 0.8958694678375801 
0.7696052915001971 2.534594652085641 -2.545403099835534 -0.2651043371474104 -0.01021705179557227 
-0.5002860042815316 0.9488009388608057 -0.6896782714911296 -0.07933833137271369 -0.0108804336048952 
1.20941179897961 -0.2735575072127531 -1.262357187983996 0.4819825878928065 -0.02395670019870363 
-0.8451693484597474 0.3226174756069172 0.3324291363300949 -0.9112252487941209 -0.279097470753394 
-0.1930988593401541 0.1373714393861385 0.2204176016313592 -0.9291317409390456 -0.2819697774687138 
-0.6770472550650413 -0.03590963625541512 0.5580008271907274 -0.9476017697943574 -0.2391091743119983 
-0.1984194109580658 2.551060371126233 -2.130788756401702 -0.07693528836444946 -0.005992451687542057 
-0.01049539564434161 -0.0382871973074904 0.04064025796839346 -0.01600762608090042 -0.002839456789162674 
-0.09538076875905555 2.117240367089074 -2.393973755247035 -0.02398233772660656 0.6770264859092128 
-0.3201622916058317 -0.5973024176221046 0.862604585571602 -0.6545452541355057 -0.2631028115595954 
0.3398276778868787 -0.3112014595644547 -0.1401958174059585 -0.5247188274222819 -0.2439610993678444 
-0.5583587729784393 1.138505452770046 -0.6024095716912314 0.260209698632593 -0.2721628194969921 
-0.5108209832439599 -0.4211040291967931 0.7439708491550548 -0.4119605295133598 -0.2127721558221772 
0.2644698167787636 -0.3124094589868033 -0.0513428575243294 -0.537732904914813 -0.1877310312493503 
0.2534773834651314 -0.1277225463040573 0.1714622264897853 -0.6997906226360631 -0.1982441388965532 
-0.3470078542883996 -0.103521412143725 0.4714165541949276 -0.06033789011412613 -0.02908234890420521 
-0.2395912643573002 -0.373173276370325 -0.965204242136237 2.098946810035481 -0.01129550670084291 
0.3436811650630339 -0.113595570545787 -0.1755362326123832 -0.03669746382046452 -0.01917648437877715 
-0.09875337023742986 -0.1400504657472738 -1.241343633039778 1.760571134973781 -0.005102248455084179 
-0.04483925776141964 -0.1026163012932886 0.1194074965967533 -0.09048326581360973 -0.03270134933469653 
-0.1369172940369037 -0.03257630283590578 0.1403496571306445 -0.02101780734222472 -0.00254486994025833 
2.547014407455594 1.188821923563574 -1.889263194516309 -0.4209531709063015 -0.3649355611754182 
-0.1859318257297869 0.9771774675252495 -0.7307166036994778 0.5036200224665256 -0.2361678682396025 
0.1493794072985964 0.2203755640540038 -0.1978387765464172 -0.2509770006184816 -0.3684697394691422 
-1.755370163305084 -0.6789596771626649 0.8615687547182478 0.4869283406542046 -0.6977071051697826 
-0.5196592664122773 -0.5070309947192156 0.6089284855727202 -0.5553245180142543 -0.5443072907761132 
-0.5940835071211128 -0.3336136380474603 -0.3630815904812436 0.3113364931041644 -0.6934342277200025 
-0.1186784796026719 -0.0386818347937341 0.2143980208605737 -0.04662937422551497 -0.003792651754835571 
-0.02167109251903531 -0.04014040467325054 0.04571505886037355 -0.02708914967498528 -0.0086134777419357 
-0.1835518437569083 -0.09761597610017883 0.2302465846697515 -0.02642464985379166 -0.004541215500361138 
2.013143270387532 0.7431972653698173 -1.5836874379526 0.1524036832699027 -0.2649673975946554 
-0.8729337699920189 0.4171616600753293 0.4579317260973765 0.03468646787717117 -0.2017856785702872 
-0.08229617301974156 -0.5070512858711163 0.4807930705886443 -0.4325280995432377 -0.2314877376142508 
-0.1409132412658583 -0.3515750091752105 0.4322053925734169 -0.2081089355545843 -0.00952459112284606 
-0.3806812489434895 -0.4467973595679024 0.7446621963639415 -0.2311356068363116 -0.01794156135949106 
-0.4286918217851489 -0.0137146116203538 0.4228759255187347 -0.02869787698421848 -0.01737032989728809 
-0.1895816985927692 -0.3280805548138924 0.4332054223903957 -0.1367955401318258 -0.007917206020331963 
-0.06110813237617525 -0.1016388563491261 0.1695916811019739 -0.0540978162245298 -0.008973322964530427 
-0.3770876539029422 -0.2102180309416105 0.4581019431480776 -0.09285982768629408 -0.008958103198450902 
0.7598267017856927 2.053236056793556 -1.735134482878545 -0.249840725416154 -0.01102621543912833 
-0.09484261633291252 -0.02581579397244712 0.1372237509971821 -0.03701967451215394 -0.01085033868898834 
1.049950404248648 1.24975262446347 -1.097473041915478 -0.1457456607751281 -0.01848038593451688 
2.654382436688375 1.465645831013114 -2.25522297180324 -0.8616266960171945 -0.4955659708744866 
-0.9439744064799345 0.522960174717118 0.9269785690348229 -0.7491602273087905 -0.4492702062521441 
0.6828596208694563 0.7805961857367933 -0.7383893607865428 0.3778014411102037 -0.4383143273760499 
-0.006151744169041473 -0.002014512521720646 0.01683281159149148 -0.01534433055289537 -0.003835726604331298 
-0.005364591703801019 -0.002533136606387582 0.1053488632493633 -0.1658137034143371 -0.00251700206176805 
-0.04024473809045164 -0.008307221781157481 0.05724504248036318 -0.009428123850027488 -0.009881989646235274 
-0.0938584346910917 -0.007951880209114791 -1.026729109696987 1.093080821443432 -0.007750721595578549 
-0.1672474594776799 -0.00966446334738494 -1.011938715551891 1.468103474730321 -0.007079830300534605 
-0.09282258515567141 -0.0746094324210921 0.2392670236167282 -0.04354229753570975 -0.005593020606678199 
-0.1004187050870121 -0.03559807408259141 0.2025032776615492 -0.07847405991502546 -0.04674318243080969 
-0.07944404961082605 -0.02822507577174269 -0.2803928374460279 0.2380624359600216 -0.02299608846512735 
-0.0645141783638605 -0.09665806130264235 0.1181045675614327 -0.06821158536074272 -0.0436958967955338 
-0.4872524328263476 -0.1889123003314946 -0.8813605662385409 1.176373998906134 -0.07631126120100619 
-0.4141549031212234 -0.1196025776958215 0.01897721440178532 0.4473621081961466 -0.04084050822190693 
-0.4135084603035922 -0.1069941654992981 -1.069732100981991 1.148059885329049 -0.1515319489493059 
-0.2693045505711681 -0.1773843638798976 0.1596200769910205 0.1541999311853742 -0.1213671097985466 
-0.207737638274158 -0.09704669302493672 -0.433443065747264 0.4224909914129342 -0.05732855426065035 
-0.5720471488373299 -0.1489438357880501 0.8297357893659064 -0.3735220165441746 -0.08052096438266348 
-0.0619161094084984 -0.02202440992205427 -1.097491272075965 1.13124293040562 -0.01239777503393024 
-0.01271793251702567 -0.01261073006846989 0.02606737399125128 -0.03269797849134709 -0.008501610920300023 
-0.06054537149934846 -0.1290134120593889 0.2714158835360592 -0.1039564156056206 -0.01911458657097541 
0.2919156617429588 0.8764486137474714 -1.865534696862427 -0.08513293382477072 3.322031086068575 
0.2112556284458588 0.4161987274779933 -0.9528281901371181 1.224906298745189 -0.04434173948510699 
1.582276961921178 -0.1513192671979163 -1.364987100854731 -0.1205756335575819 -0.04226281341621767 
-0.2644991254654559 -0.1988853016957894 0.5520892862918836 -0.3368317895233631 -0.01080028544352069 
-0.1731892794070205 -0.1387553328886524 0.3501381266735938 -0.09686773971930888 -0.01056090896914379 
-0.6028462656617086 -0.05903492493613726 0.6247417634259093 -0.0620738892251636 -0.1831230096810468 
-0.1237924023266751 -0.03333193405894282 0.2817799252015891 -0.1524623855417737 -0.05053903559723768 
-0.08505904143304614 -0.05544735337959461 0.3284408239195826 -0.3267145354112894 -0.01723417665240202 
-0.2690056021813033 -0.02165561404056405 0.2825461254771077 -0.05633429131346791 -0.05160542346176679 
-0.05236354513709925 -0.04248231721691876 0.1595034160971062 -0.01506472511695489 -0.0006787858060513748 
-0.1346335298329439 -0.04585564609932795 0.2439296962341868 -0.04631890614786835 -0.001929166695642031 
-0.04850855891211959 -0.004674687534260052 0.08281371087310989 -0.009727021272057875 -0.01254307739289185 
1.217108110791619 -0.1307881015741306 -1.003083035997125 -0.1289159020149306 -0.008961389299616767 
-0.0593056397504121 0.5810105562771629 -0.46144114411139 -0.1299271175704638 -0.009807557505889471 
-0.1247866650132058 -0.06966270437561863 0.2760533826842077 -0.07859655670137652 -0.007326588415815047 
-0.0270089413823446 -0.1738877909068382 0.3964240410481745 -0.3012143345375936 -0.005446652031682671 
-0.04501568992183987 -0.008179241503660662 0.05768222033880458 -0.02040502693476097 -0.004488171128967987 
-0.2592611379819499 -0.05865217098728718 0.4290645447070784 -0.1140481335424074 -0.01903007864188748 
-0.3137211791510208 -0.8539031747799279 0.8365407983788836 -0.5906346531726683 -0.2631116331163987 
-0.267524176254761 -0.3792455953584029 0.4280048820278359 -0.4978701403902329 -0.2869537336600638 
0.3622860679758393 -0.2039110848655633 -0.07069012664403987 -0.1818034471825179 -0.3050149914633348 
-0.1229741511900502 -0.02029416945284323 0.1642979642246631 -0.0267414232955824 -0.004335805959092214 
-0.06239571134161818 -0.04434687082651125 0.1312597408309867 -0.08995413589806434 -0.007585204329053382 
-0.06969492634965428 -0.01558132754866058 0.09152541862736871 -0.01216013630082306 -0.007537659353118407 
-0.1181301584941081 -0.1033131747196536 0.2402235161797366 -0.05151961877405797 -0.002690323824793748 
-0.0524861033652828 -0.04985476351939702 0.09060805501621741 -0.02178101926204885 -0.006026336494135216 
-0.177309232320922 -0.02756570794824961 0.2147754360021204 -0.02563620128165826 -0.007110639884353354 
-0.175715603044619 -0.005726937346494083 0.1296253984954896 -0.0013175298725468 -0.0005917951942150681 
-0.003442678070009335 -0.004621542361964884 0.003870941071588394 -0.002961077078305934 -0.002238171470629076 
-0.02569170559484099 -0.004707619617626891 0.0251722224299278 -0.001314196494341588 -0.000954929498811033 
1.630713389808918 -0.6514050000294117 -1.361728870919611 -0.1105887808504624 -0.8210946900507557 
-0.3043073560048359 -0.3398893651415776 -0.3485791149390786 1.07091543871562 -0.281660034096279 
-0.02537809633433175 -0.7112115966734606 -0.003141868908362461 -0.1921079209301104 -0.4457347493197997 
-0.02024019854938689 -0.007084068029366009 0.06393765804589763 -0.03723520907447343 -0.007492301680005304 
-0.01475595678154916 -0.007822314758454702 -1.193371888589759 1.106010230119856 -0.003400309304688273 
-0.01134786269774437 -0.002386097323837975 0.01686423868248812 -0.002143019384140649 -0.002719194725322947 
-0.4257386915822675 -0.6231828760712519 0.6078398266849965 -0.3975668312288856 -0.2752457195109219 
-0.09844447357095254 -0.399726567471797 0.218924244949952 -0.3176551493084963 -0.3095341857357921 
-0.06494961086013563 0.1833992484421773 -0.1691688778530457 0.03712614875853851 -0.3171022475011826 
-0.4736641586883187 -0.3403202763284153 0.5733000440317185 -0.3469076454382828 -0.3115875633701341 
0.5373701585586275 -0.3100529285775906 -0.252221087273383 -0.5917811970541969 -0.2834589979693365 
-0.3974391582956325 -0.8438177241077935 0.7073739007248018 -0.4516451437975256 -0.3305412904219405 
-0.1365874881053059 -0.08105673562979597 0.356545802454773 -0.2167543532201473 -0.06339627736711133 
-0.1094257277758976 -0.05358984636354433 0.1836251769627966 -0.164260822360117 -0.02631916947427436 
-0.2200458885648568 -0.08288876961061073 0.2986807640971078 -0.1054237740854367 -0.05381607874890856 
-0.1668451824929438 -0.02580293936743264 0.170237787579531 -0.0210114153323927 -0.004846680774914834 
-0.01434229594624597 -0.03771781387857504 0.04683775473985589 -0.02690217218352575 -0.007071507123665902 
-0.08613086146859608 -0.02298162236592397 0.07888235963484509 -0.007837859939173032 -0.007415737023282704 
-0.1520741380210879 -0.06683330544158007 0.3156005016727448 -0.1804049664375653 -0.08078136729938473 
-0.1005219731147502 -0.04029266818514587 0.5413500668209414 -0.5575732913746937 -0.03337189682803742 
-0.213632010666965 -0.09192927798663858 0.3273588098004409 -0.1096465494862514 -0.05527363016879078 
-0.1253485443812392 -0.02596620118654712 -0.6339555918044945 0.9199871526291514 -0.004963624921242606 
-0.009769964480506073 -0.02037733335113574 0.01576835088099435 -0.01614887171441112 -0.006272343048681383 
-0.1249009788451256 -0.006406865696924527 -0.8032765450882676 0.9576578320039186 -0.007554625789356637 
-0.2116772583270721 -0.04879913129531484 0.241258123724705 -0.05062347558643587 -0.005395785309640185 
-0.05208524134025041 -0.07977226773595444 0.09856784989061987 -0.03293544358790748 -0.008554604245319128 
-0.2013031890768583 -0.02859323035457348 0.2557736586083068 -0.06930966417190645 -0.008678004488485658 
-0.08516958113509696 -0.119700303365706 -0.5724764964616635 0.9843215478511465 -0.00327676840906584 
-0.101525641208206 -0.0471891133577898 0.1426471903699795 -0.02134716657201317 -0.006416873630302898 
-0.09963248893994225 -0.0209602895276607 0.1018766932797706 -0.01139345295048512 -0.005254535619455057 
-0.2952465586458469 -0.08205465680992943 -0.315751307659033 0.8275032166894899 -0.02870165823966331 
-0.08446186725251972 -0.08047910368846938 0.1604392939022807 -0.07683441443201862 -0.01915800284792538 
-0.3058997667005381 -0.02892541597065932 -0.458864900940519 0.923263060584436 -0.01072336014866125 
-0.02184120419831245 -0.0004157399648881754 0.01954070772944762 -0.0002189844522416415 -0.00430108723110335 
-0.03593353873774589 -0.0008775439089781517 0.04381149977659417 -0.004147032737889995 -0.003550571363019429 
0 0 0 0 0 
-0.6586804568241365 -0.04324477150498284 0.7811529125699892 -0.1841038372363742 -0.1558671512265215 
0.3144306011765982 -0.2334355883670647 0.4041116359113154 -0.8278618379364665 -0.07196297533184699 
-0.318258784729457 -0.08302264528132375 0.3414580564463697 -0.06129839799328277 -0.06434619484522215 
-0.08969839734893187 -0.03929412076722609 0.2013505689476781 -0.09359243690290597 -0.03480780931847638 
-0.134312411358788 -0.05341570827923761 0.4375820419753754 -0.3473155023540944 -0.01848952929687972 
-0.05331060624120787 -0.06433731254667388 0.1165735712562649 -0.0830536645026036 -0.03133035916455645 
-0.01148238576055591 -0.001808778709803076 0.02062095451246153 -0.003703542316779817 -0.002183829536327904 
-0.01337896777913357 -0.008268203940228182 0.03967532058023489 -0.009118638523390572 -0.0006855989139712863 
-0.001200810189254908 -0.0007930288621182239 0.002479308822901743 -0.006628176404509948 -0.001846467625075414 
-0.2202193291542287 -0.09508925992347417 0.5853315279315929 -0.1715527673103774 -0.007620796432503887 
-0.05648931430064159 -0.1196736222934791 0.1763226760277329 -0.04577356471506432 -0.01077870090845147 
-0.1398602505773243 -0.04521587222764931 0.2811041432730673 -0.08951900292815249 -0.02491975326008796 
-0.01495602728241196 -0.006461265926081744 -0.7217311399721682 0.731413328071345 -0.002080227100576869 
-0.05423918756595509 -0.002156429037196273 -0.6982506676216093 0.8509808722928388 -0.001427821918345844 
-0.0586482028899833 -0.009846100957703318 0.06291891593004714 -0.01610503183811931 -0.005671071788611732 
-0.2687856217024529 -0.3246602035790216 0.3812605256723326 -0.4400440052712743 -0.240048242877006 
-0.347840371789225 -0.3181948328398007 0.3944575749262925 -0.529574281370257 -0.3541941019895865 
-0.01993015554930893 -0.5834639558402099 0.3477584764879605 -0.4882978123159548 -0.2057437672648458 
-0.01545796910878201 -0.04694802691791553 0.04819664504635347 -0.01783136548390057 -0.0009758793111821159 
-0.0448797673268516 -0.03863878041770968 0.08148376648253197 -0.02240158359151682 -0.0008889898375515742 
-0.08203403493371698 -0.001221096664889435 0.09503539486661329 -0.002513723084224816 -0.01811989973332264 
-0.4215944060835185 -0.2219240974823461 0.5551346333336213 -0.1503960217985443 -0.01493288343123691 
-0.07960189224251003 -0.1708225925131453 0.2142569146595967 -0.07407086240519979 -0.01209144842073054 
-0.158933959971495 -0.08056591351870195 0.3175176010435676 -0.1366350793825204 -0.02455302903476946 
-0.0111520382350521 -0.006359370222537903 0.04028562318245117 -0.03717694633253653 -0.007198461297427211 
-0.028211035605566 -0.01408378434127824 0.1196812133740442 -0.09261831949347107 -0.00461685304492554 
-0.003587384549372723 -0.01605466188356576 0.01568995634050565 -0.01277788524907236 -0.003051792308592343 
-0.2404143089476493 -0.1200060531411969 1.048416324777967 -1.058216494458774 -0.06031927145795008 
-0.34662684805375 -0.07582437728901262 0.438882414199986 -0.1927210233448912 -0.04012936067232829 
-0.3399385210919042 -0.1375451188549652 0.6731177495279548 -0.533201438003595 -0.1184930664480805 
-0.1725238402534024 -0.07072203070157315 0.2344535573003559 -0.03575627535085376 -0.006248535277807053 
-0.06115435753284667 -0.03543023756021066 0.1123345310262198 -0.03099885053357014 -0.006848201262689135 
-0.124917614404604 -0.05092442974576859 0.197734960649287 -0.04223128115474661 -0.01248927600096401 
-0.02182197982990618 -0.005042416049178952 0.07950401211277576 -0.02679468649897465 -0.01394112829991184 
-0.007353904706150505 -0.004472115641173259 0.149788711746133 -0.1804931131558249 -0.005413775412875545 
-0.004753742996759024 -0.01226190292852524 0.009687708923291165 -0.01130445880852139 -0.005027229952414871 
-0.02964709201036023 -0.01929110697493239 0.06565500986273412 -0.01994519200931758 -0.00709405549390174 
-0.03793748109781189 -0.01459130844319997 0.1370551074057599 -0.05015503607639481 -0.003781500433022124 
-0.03537152895635989 -0.01114145939857471 0.05993008814138601 -0.01638213244718749 -0.005712402837527087 
-0.01167932478545781 -0.007737890985981462 0.04653019195506989 -0.03712193801402879 -0.001622571245315551 
-0.0188341571558433 -0.001996469488338574 0.01741786127738062 -0.003106518558325478 -0.001266280511209175 
-0.09174324565993228 -0.002418266394669955 0.1036262803177032 -0.009793799091454855 -0.02855505165552641 
2.355700568577215 -0.4289958418483348 -1.727395969682459 -0.1809207510444756 -0.01502347848021786 
-0.1403340538909202 -0.1772586030525709 0.2717560496869154 -0.08207029554627815 -0.01456750655850739 
-0.4608012790449553 -0.3680957749243199 0.6343288204485545 -0.1067078833781916 -0.01352282721304122 
-0.1710161667202328 -0.08575800314082734 0.2391503512695603 -0.0408268637014494 -0.00191679444265065 
-0.04751466813604198 -0.04808640583045709 0.09269147127803216 -0.01253638639357612 -0.002059585509568398 
-0.7258656043893494 -0.0201444764955849 0.5360580876183044 -0.01081413333611515 -0.01495585287103482 
-0.01077125528822062 -0.01327531206935588 0.01979049570776564 -0.007577460784417018 -0.003582791708245612 
-0.00822236486164557 -0.003725140423478515 0.008182476333682171 -0.006394855506828562 -0.007974783334207288 
-0.03799829956705982 -0.07571040567296833 0.08749900471924968 -0.04329114548140905 -0.01500995201435579 
-0.06151286317305088 -0.0240272120300111 0.2000927728700439 -0.1157728102983149 -0.004992757769262261 
-0.01844610674982572 -0.05257206804043574 0.07707620278343459 -0.04157914545272042 -0.0135275962667232 
-0.06162382644448007 -0.01984730371078391 0.1207683218411879 -0.03153930273913677 -0.01144062652937703 
-0.2393932241409221 -0.1342078552804862 0.7046535523686513 -0.1821160665113352 -0.005255474150795691 
-0.03604802344451076 -0.1353074150929281 0.1773366410779202 -0.1044567210234184 -0.02126037675441675 
-0.1699162448929967 -0.09999940958866246 0.4052433917794134 -0.1152633982213333 -0.02191410671014741 
-0.05313788167331448 -0.02154284982959704 0.1927034722364253 -0.136709387358303 -0.02298526153778704 
-0.04603384190064422 -0.01816867562557895 -0.3362464254121603 0.2371405982514973 -0.01018471600008666 
-0.02319969114625918 -0.03044920193187226 0.09352534646189217 -0.08902933062029671 -0.01124264968637951 
-0.06847395612224161 -0.03692886326074293 -0.2831118766683974 0.311706802707178 -0.01240922920246025 
-0.02715843005738321 -0.01567922924275156 0.04056721132971484 -0.03595010167430979 -0.01053117370552791 
-0.09772638322409677 -0.04459277389438078 -0.326794043991571 0.3920418156343755 -0.02275784421072731 
-0.07633751926933739 -0.09527089151982475 0.1626105505184558 -0.1165053079934559 -0.04702818558367101 
-0.4039766800288224 -0.05065402734888016 0.331485235387618 -0.07433037552227027 -0.04207297492739717 
-0.2825262525109919 -0.2724786495747112 0.3362914490223696 -0.2146127172887196 -0.04580079475834666 
-0.005064112140533524 -0.0005463500001989119 0.0182674171743768 -0.01238683104337191 -0.0006472530860118924 
-0.01489476172029993 -0.0009144697557610387 0.01705295702388698 -0.002269722920490008 -0.001140174109367632 
-0.00215801209505375 -0.0003749913054606797 0.003051339471506152 -0.008090238401701156 -0.002316988609960616 
-0.009446732592086801 -0.0004375220441466421 0.01754738632035217 -0.001526860922654995 -0.0008158911733910683 
-0.004567150510452147 -0.0008959311273925501 -0.7859457469201988 0.7232051769642801 -0.001016565885878847 
-0.007447380860149964 -0.0004572348778805194 0.008526478511943492 -0.001134861460245004 -0.0005700870546838159 
-0.003889832450102832 -0.002158759459261614 -0.9421677342634941 0.9075481583442433 -0.001257711497490033 
-0.001504043725359148 -0.001314727130555126 -0.7114792712094707 0.5641943906899907 -0.0006823547896614977 
-0.04675727297548701 -0.00157498590600856 -0.6392570740529783 0.7982667195231825 -0.0009752592323783465 
-0.5288010028318211 -0.4261335399966488 0.7466547252589821 -0.3359669836429979 -0.1871459976705926 
0.7274133944983369 -0.5857311496362132 -0.476030423255046 -0.5115749696119566 -0.1557902663219631 
0.1070316831373069 -0.6915498469273648 -0.4230145664476204 0.8000419626291819 -0.1504701487166789 
2.133108897330971 2.140375641369887 -2.436537759643325 -0.3943044898613739 -0.02190381255083301 
-0.3351656424668021 1.844668269708778 -1.320267173434535 -0.1525767020117636 -0.03678411262028435 
0.2041837107744104 0.2464490859606966 -0.8611875835849853 1.003901611541611 -0.03879915303879829 
-0.1180164909785489 -0.05936471707989391 0.2651595050008314 -0.1555299139417997 -0.08761981260940224 
-0.09378094326435388 -0.05737575129505163 0.5063426029834603 -0.5666421022275194 -0.01554361996111692 
-0.08176292931152909 -0.06979238809935449 0.1123304623722441 -0.05597708202801822 -0.02714289284050007 
-0.003543302214302563 -0.001173031658905712 0.01019124375760348 -0.003288377091861072 -0.001126523891121521 
0.5412761676504134 -0.01788568065511312 -0.2292625856124729 -0.01138868476917756 -0.0001732329930360455 
-0.001221977386068813 -0.0003063687640556285 0.001876382023486978 -0.003048253789099018 -0.001445964595245243 
-0.5426874479325696 -0.2370754163835753 -0.3408893308283275 0.7107063639922825 -0.09645814485343286 
-0.3130482700996481 -0.07750230803114377 -0.958625305676281 1.346336025185155 -0.06550192277231395 
0.09114667229743982 -0.126560809147656 -0.9761925969017231 1.28047016334011 -0.09975255988809151 
-0.65464610724026 -0.1541279345998639 0.7696463139136845 -0.2295764512355284 -0.2109332266815845 
-0.5067324266090375 -0.2954503425161966 -0.152599015765963 0.3587092326503974 -0.1640114016105788 
-0.7222936866190685 -0.2990017311889688 0.7164418368887895 -0.2773063326489555 -0.1688819242335489 
-0.1195673619962382 -0.04264090178053725 -0.3715157780375883 0.5422491982806528 -0.0606331691960758 
-0.1189081166939465 -0.06807550253889225 -0.6420865665034242 0.5699290015472172 -0.02277526383309775 
-0.1292480125210711 -0.04698787281539057 -0.4157049972434955 0.6594512205342081 -0.05800050774628669 
-0.07300882318983648 -0.003991046198368813 0.06154069581495084 -0.006341382289119159 -0.002080070283112542 
-0.04773991756098247 -0.006425011276667884 0.06424907608475863 -0.01435171631244179 -0.001895316418225524 
-0.004085550947759825 -0.002986208476389337 0.004031170449050894 -0.004140074430581201 -0.001797986352616149 
-0.02909562298546809 -0.003600105081017231 0.03329111028580886 -0.005431758834866618 -0.001379174986328249 
-0.002662079641003271 -0.003623307400313829 0.003278290539734014 -0.001882978565495119 -0.001390320423106779 
-0.002474231813341201 -0.003420082040022174 0.002851574571101979 -0.001778150857255211 -0.001373965242442084 
-0.03843931345038896 -0.00479442534687541 0.04392535753485417 -0.007229364668219126 -0.001838055945230968 
-0.002938415211842124 -0.004551186732242054 0.003442191838564872 -0.002397220108635593 -0.001843278052702639 
-0.003519440851826802 -0.00477729865762741 0.004300935890071216 -0.002498470926952451 -0.001851104304170852 
-0.120974234511925 -0.01691305915957964 0.1764243266941501 -0.03815339198384202 -0.003300039977499569 
-0.01881085265485239 -0.03239159707430895 0.04753613231761831 -0.0178789985569947 -0.003316426713208559 
-0.07382026928401648 -0.01273487645713499 0.0768076615363974 -0.02451204600028538 -0.004893897138917551 
-0.03067226702186383 -0.01990881176061472 0.05618834335744451 -0.01625503975660406 -0.00137012254875329 
-0.01249166762360803 -0.01377339681947615 0.02476354129969549 -0.005249003456252879 -0.00165792290040428 
-0.02848502369506667 -0.002651879979138029 0.02569950669532964 -0.002298915252798908 -0.001593069228434091 
-0.2475179390197975 -0.07707676162248167 0.27306038843217 -0.02856973882092026 -0.006580395652830267 
-0.1380392799666137 -0.2002259652176954 0.3143795943443085 -0.06336698196645768 -0.005073205461948043 
-0.1901593808288763 -0.03844222676492728 0.2008393473520788 -0.01272588712290486 -0.008804863299629987 
-0.08999103673047153 -0.1232663433458713 0.2006787124820161 -0.04803579589623896 -0.004297928956292829 
-0.05684631790836963 -0.0405567526006425 0.1520329659713332 -0.04298694713599214 -0.008930906467893289 
-0.1177918243656173 -0.02810387402940492 0.1459311643082495 -0.0221014750461195 -0.008675102794322986 
-0.1107735080203221 -0.03921613731384204 0.1615094539507811 -0.02841035064805513 -0.002107751483843032 
-0.0291331976060307 -0.04950434297929955 0.0687444041070534 -0.01507447366993234 -0.003296439716279256 
-0.1124174527404389 -0.01775461250264605 0.1105730276717573 -0.01425169873026344 -0.002901951623286765 
-0.1428562127680799 -0.2015080849029753 -1.385845847996949 2.362136142043529 -0.0061581663440933 
-0.04934610217510979 -0.08556005869973211 -0.7052766835454446 1.11019800228337 -0.01603712621737468 
-0.3634004126970261 -0.3443698284310115 -0.5486591453370355 0.8411811748486494 0.9467087746140486 
-0.004130102715935013 -0.001450928223741568 0.01295513728263792 -0.004308339120827002 -0.001444831347571488 
-0.01320969836941496 -0.008327222826145427 0.05010023908362242 -0.004861053098450452 -0.0001625186360001417 
-0.001221977386068813 -0.0003063687640556285 0.001876382023486978 -0.003048253789099018 -0.001445964595245243 
-0.1144763148796377 -0.03004353172239364 0.1185748120348145 -0.0102888748265369 -0.001776438739473636 
-0.01801554047338023 -0.02377180456667247 0.03370667702986336 -0.01037421832692733 -0.003335306024004992 
-0.06563195396661088 -0.02495479510716781 0.08128949210002596 -0.003431017067101988 -0.001777603183714438 
-0.03362779665008145 -0.01227511185983128 0.03924193696313929 -0.005315257405563676 -0.001396751599882152 
-0.009597387756234041 -0.01167305908810074 0.01639678574326905 -0.004182551859893893 -0.001121096647071995 
-0.005092098114924922 -0.0159539526794786 0.01449644680845072 -0.00327213336870483 -0.001682077213548439 
-0.01163640721075644 -0.01272936323134076 0.08845414094310125 -0.05351075870323154 -0.0006202035985795911 
-0.002507036113560113 -0.002167675748050431 0.002613671180107665 -0.001213178585110574 -0.0009109797872465884 
-0.01758460496389889 -0.002941465190689295 0.01945328354464721 -0.002667924389105688 -0.0004810580165749197 
-0.03601460994219521 -0.02050188623037217 0.05674427941143011 -0.01161487861038763 -0.001673005771436566 
-0.01104191103166348 -0.01283384960167899 0.02349265391311174 -0.005858613494655695 -0.002343490394943852 
-0.04808379636454933 -0.003878882953619735 0.04140250529313398 -0.002521289143930873 -0.003308006176663796 
-0.08163939360480436 -0.003095527066594879 0.1016664874379264 -0.002758159982365627 -0.0004887863947395631 
-0.01190937218340188 -0.07939487663716585 0.1000117994413657 -0.006465667138945029 -0.0006234949546567911 
-0.001673404874166712 -0.002322212416568866 0.001926079688894706 -0.001150449302807617 -0.0009215829914264786 
-0.2162061992676643 1.558132484129817 -1.105699952907083 -0.08533671195842511 -0.006000477402816802 
-0.1728046539645697 0.989870355989721 -0.648409145263414 -0.08069249862450011 -0.01749726834930772 
1.285133234439899 -0.05209023029005194 -1.306990310406461 -0.02697621416215978 -0.01311254925606277 
-0.15259852645236 -0.03627800219966441 0.2042863282720143 -0.004219829962823495 -0.01314812942172844 
0.8308774637890984 -0.08296591577717927 -0.6348315842341796 -0.06414603820849947 -0.003573517814783973 
-0.01086301264659041 -0.01979512722870612 0.03195447346391982 -0.004442175767025876 -0.0001927232392479644 
-0.5321182554056286 -0.3371375349663318 0.6799435768111108 -0.1935900525451838 -0.01693536394788359 
-0.1773929365912697 -0.2328283844120761 0.3792309961668184 -0.08893938584018997 -0.01246246656710908 
-0.454820910396197 -0.2191250520281617 0.5514879258876395 -0.1056755987853249 -0.08069552553935189 
-0.2000609771074346 -0.08696134634939179 0.2700988365038632 -0.08877847418256317 -0.04675257998295428 
0.4275122172148825 -0.1405435182770751 -0.1393048299176253 -0.2044878709080918 -0.06398814103244971 
-0.2987386672683758 -0.1749955409427718 0.46757315210148 -0.2047288078051536 -0.04047323910737452 
-0.193600616323387 0.9097758600864898 -0.7156252260694715 -0.06326336987834644 -0.002667415107156626 
-0.04478024545609243 -0.05518358888367483 0.1541410495984815 -0.02052620477790305 -0.004951898822780693 
0.4612541246723538 0.1017503105231023 -0.6835679292550404 -0.03171877699497221 -0.006645870707817434 
-0.9935819695043225 -1.170736902458012 1.26670444813215 -0.780352940310046 -0.6291080211233231 
-0.1518064485122929 -0.9857174491773637 0.3336731671127134 -0.664263418847858 -0.6316542994678975 
-0.2974843977346782 -0.003289254710947554 0.02857650897301466 0.2734430248148682 -0.6847959750682135 
-0.1714020834182152 -0.1133775068175166 0.27140002427335 -0.087843926862153 -0.01063864012328685 
-0.09821483047140278 -0.07813312880991653 0.1914554945135543 -0.07452921178777092 -0.01737977623691906 
-0.164007245408673 -0.1067847001643893 0.2282651788985963 -0.06625334291929018 -0.02459271914467167 
-0.3618871325602019 -0.2718682195565402 -0.5770358558183433 1.115739652578093 -0.3017995974400877 
-1.101767955837528 -0.2206683388375112 0.6300804417111415 0.7057840572031285 -0.1481904822176712 
-0.8973834090651041 -0.2596048738568623 0.01566058541635423 0.5790914871409057 -0.1005237727621545 
-0.3810004809201 -0.2617646525294062 0.3855312705549029 -0.2894944915979655 -0.5408103361384138 
-0.4842892876454064 -0.4812275817357548 0.579366532012826 -0.5643385111048711 -0.4408984695155798 
0.02799901117728234 -0.3757533331420929 0.008217575891682996 -0.2630188184149754 -0.1949727727496524 
-1.250284185934013 -1.138157949119693 1.538905218955629 -1.444510608918259 -1.045869315174531 
-1.419864315617571 -1.331013880311173 1.424571457022417 -0.9889915856857318 -1.047338252161971 
-1.516338985449627 -1.209610983723933 1.66597780719343 -1.312271542441249 -1.002942215834213 
-0.006703710777254397 -0.009891160190994029 0.01265522598371273 -0.02060869681354102 -0.01941008067236064 
-0.006433485175429688 -0.002339484309526614 0.01275612284429713 -0.02165733218004715 -0.005324501119633146 
-0.005114569144156405 -0.002239512809023363 0.007054300693125194 -0.01049679377444669 -0.003269098833826877 
-0.2606724875211495 -0.4320823026016349 0.5315643199740582 -0.5750503291577409 -0.2173113964443772 
-0.6466024140873414 -0.3035949142123647 0.913586602542605 -0.3418845587194593 -0.3776872081736302 
-0.4578374625789267 -0.4699562694725258 0.5500587807730319 -0.5620951834948049 -0.4409863096384671 
-0.006703710777254397 -0.009891160190994029 0.01265522598371273 -0.02060869681354102 -0.01941008067236064 
-0.00643508745326166 -0.003783485112019619 0.01250129969470524 -0.01686081543916848 -0.005785493439848817 
-0.006627680991060521 -0.007665532299455249 0.01299637746599746 -0.02721715465645137 -0.005282922678169236 
-0.6104845169077123 -0.4153073358024829 0.5005107501237308 -0.401730108666766 -0.6911597375644528 
-0.1111260365315249 -0.5200930410447341 0.0898342127874064 -0.2990722591083886 -0.3485367301052809 
-0.1265079670047144 -0.8966363495722658 0.7883616014676946 -0.6931808379051603 -0.3029680901659386 
-0.1117049151455464 -0.008068789294217192 0.1241164195067408 -0.004482582401285505 -0.03722754716321426 
0.1629663484849979 -0.02791976528024114 -0.03164768507947633 -0.03170382099108283 -0.00853384050603428 
-0.009639334128481706 -0.01249413080612992 0.01740615930994927 -0.01296691528495714 -0.0099185913264816 
-0.05575895465375566 -0.05318695077297682 0.3195721663383555 -0.2073501090367536 -0.008178217027450817 
-0.07656888110251646 -0.1074593136397213 0.31935848993455 -0.2153315858649946 -0.00565144559028685 
-0.1776549320350476 -0.03078616750846127 0.2539466811568016 -0.01607680852628953 -0.02839137168995264 
-0.3804796781123298 -0.5160382161994922 -0.1493553998344529 0.6792722954923525 -0.04619462688305092 
-0.7902604019981599 -0.6055240111703618 0.8531198175034647 0.0708137903259954 -0.04249676070095511 
-0.4079344490370277 -0.1933906821659761 0.2306004661584371 0.448238910443117 -0.1377859150231077 
-0.8449855111591624 -0.8634288441970407 1.040077327788986 -0.702489762430932 -0.4307572095689619 
0.6377748769775742 -0.7913837928979301 -0.5591123815605636 0.26971458973505 -0.4901757590656086 
-0.3277434980894493 -0.3412744250653846 0.3556373780951806 -0.8512671901756 -0.3464054649007897 
-0.351365840428702 -0.3334851438699682 0.6714044921273089 -0.2970269071078039 -0.01751186349470736 
-0.1476400334714521 -0.2491839272178541 0.3491198038498746 -0.1228445547566682 -0.01965190106143431 
-0.4648372717215404 -0.1451455210329025 0.5196624054793275 -0.1013959822111269 -0.03267670569328055 
-0.00922126052180061 -0.002040964491639589 0.009310366290186778 -0.002805551758210279 -0.003753517277793058 
-0.02320734419086154 -0.003262259379655341 0.0255625205694791 -0.004566451992998806 -0.005388532348235367 
-0.003558265266703371 -0.005102426644393139 0.003415547539446424 -0.003940319168365606 -0.005462178934218194 
-0.1698452713750829 -0.08073593276718366 -1.807610864735458 1.818970812319577 -0.0810163538535956 
-0.2478320998830356 -0.2447265055990744 -1.678013568439819 1.656163707832133 -0.2243796204650801 
-0.1640083523990841 -0.04623241707257236 -2.004663464017984 1.593547460898946 1.147062440062743 
-0.7606678765174505 -0.734509955726242 -0.1050252173393433 0.2576535856738815 -0.4190606240344651 
-1.289318244525426 -0.9347336619664069 0.8666697217386647 -0.2473072211921554 -0.430670181432344 
-0.9728448104966489 -0.4321758713205242 0.1255279721640167 0.7717038571116465 -0.03099459367175657 
-0.02534046800867068 -0.01071607132882121 -0.6866384590946703 0.7251277218117089 -0.01847036983037643 
-0.008252732437728547 -0.007321681188957509 0.105296368301435 -0.08343704396426711 -0.007987754958665409 
-0.01201985909809988 -0.008363580406198303 -0.7167791676639563 0.6493807194648358 -0.014454098554902 
-0.571905054909998 -0.5847154049275134 0.9326738292836599 -0.4221123762819405 -0.2043126085633305 
0.6837588721585026 -0.6445943591096787 -0.4130473903787778 -0.594139376539816 -0.1902817159085946 
-0.03477649642403643 -0.5210197992550017 0.2500770774970701 -0.4777093815965269 -0.1550616508628416 
-0.1669634954248078 -0.141999488039908 0.3913161856284352 -0.1247815671311933 -0.005584701500213097 
-0.03936637870484324 -0.05115321657794625 0.09034236808380132 -0.02765387346685521 -0.006862463679984135 
-0.2229780948734613 -0.06755917400436608 0.2854947136827322 -0.05798205182102027 -0.01594282652697502 
-0.2681882282989977 -0.01498188328753396 0.4088838144014746 -0.01485175470332937 -0.08778679932448756 
-0.1259375346807377 -0.05492424502507429 0.3569262980047658 -0.1794526853589934 -0.01419298351332245 
-0.008185154180892877 -0.005027906521120316 0.00872812553175034 -0.01189624469457305 -0.004912960252594587 
-0.05410447349735172 -0.02984170753475197 0.1632627518158313 -0.09499702068507045 -0.0313292049009132 
0.8108417923792604 -0.02355686946375675 0.1105860023684748 -0.5281589319200242 -0.02048623717263972 
-0.05769105153469543 -0.03929493258937564 0.09404467268125526 -0.04787306612374624 -0.02008127532778534 
-0.2730534658800421 -0.1375274132107771 0.7000180557695118 -0.5888296875423293 -0.05663812330302408 
-0.2123979428745447 -0.05720075511955307 0.2913337952835604 -0.1447134592286473 -0.032027500949809 
0.3882673809149673 -0.08947249523789141 -0.08163711564458229 -0.2537767213723144 -0.07715874316762497 
-0.3037398351694872 -0.3288999455922476 -0.2191137021664714 0.7817878840295696 -0.009830919358752105 
-0.3539809038865515 -0.1472035885169981 0.6050779270755565 -0.08453980008053873 -0.01811533257949801 
-0.8180391317625424 -0.2871923945767754 1.010510220758826 -0.2561879383861198 -0.2215918121643012 
-0.1677166548956839 -0.1436197740113941 -0.07374513765745003 0.1401273637864829 -0.04217400101904349 
-0.1077909187297305 -0.05000425626762005 0.1760605070864401 -0.1010841184083355 -0.02529197788766358 
-0.2960352083310619 -0.2859413682291669 0.2635920346808805 0.2386923138455375 -0.05985740044222949 
-0.2851813550329279 -0.1400766392744596 0.5549956347626531 -0.3826023475838236 -0.1837965442851696 
-0.2492425430597148 -0.102964008260835 -1.010235598812887 0.9872631625591839 -0.1457212470818997 
-0.3368702646807419 -0.1848494261717045 0.5135772916631912 -0.2812349437760407 -0.2255180867313619 
-0.03069181737832459 -0.02069448679166665 0.03302340381025227 -0.0201100223370985 -0.0357293122888649 
-0.03619901304273284 -0.01648421898706171 0.02416448180202709 -0.01250914681647429 -0.02745536483828621 
-0.05922886104949463 -0.02525931220885004 0.07455548682069553 -0.03359198133846068 -0.02806689385856958 
-0.05604453232134751 -0.06824609125518312 0.1301695371068117 -0.05139200058055525 -0.02409484680705367 
-0.08701336868284427 -0.08561543761780988 0.1428083866878891 -0.03298547092212415 -0.008029395558624175 
-0.1439821839217806 -0.01840132389859863 0.1800749824406721 -0.02152311258249134 -0.02247680185060804 
-0.04295858459621951 -0.02127325805590853 0.1370360159649849 -0.1055757718888318 -0.006453763585963473 
-0.01523306135659999 -0.006462669741825875 0.02038227419561757 -0.008455540821677614 -0.00482256827491904 
-0.06881014291786869 -0.01836527281186903 0.08788048752842013 -0.05481876071984288 -0.007052862304791054 
-0.02160199153145329 -0.03948361075872335 0.04465508069881084 -0.002276050258501205 -8.789270855634355e-05 
-0.01287107125767301 -0.01289417364125839 0.02770530250228934 -0.003931413474230139 -0.0001558708157056811 
-0.005444616581092555 -0.01508477841204211 0.01547498784980403 -0.004131723116125004 -0.0004481350967870365 
-0.1424445243069551 -0.08956609150733678 0.1748442791692892 -0.05007557132474816 -0.03140621430617373 
-0.3229809657823206 -0.1426613152054176 0.4270708746885137 -0.05699937075209582 -0.03267835138778648 
-0.2384439026399831 -0.05488017260582978 0.2837385498528807 -0.0896765407991362 -0.03173129937284687 
-1.553916278111348 -1.516945235751641 1.306084918329575 -2.064268974797019 -2.248532290888058 
-1.768454276636934 -1.320496076731522 1.495856592469281 -1.803174502723337 -2.04812048384892 
-1.09091841918846 -2.475011341364262 1.283862231544695 -1.951450575177561 -2.293125200240012 
-0.003936150962800602 -0.001892363172854982 0.004326513900323349 -0.001088922694061582 -0.0009351067288422014 
-0.009954648328145679 -0.0008940781132363064 0.008833253088978307 -0.001066698672915768 -0.0008521207482376112 
-0.003435863889697787 -0.01000086164754318 0.008640969394069742 -0.003301851485683575 -0.000643953980095279 
-0.1806730146813354 -0.1098497300539125 -1.174218822735061 1.031203309621298 -0.09938492582800948 
0.5363916050506183 -0.1422021378630696 -1.100560465410635 1.21527756314685 -0.0639822236318818 
0.4554417167208282 -0.163428892176891 -0.1933570325033098 -0.2958146846738151 -0.1061231800941527 
-0.279362584625792 -0.1551445105411669 0.07202536171679304 0.5784054481387485 -0.007506715490316661 
-0.4487814960729671 1.562884034724368 -1.076898437781574 0.4895561692258779 -0.006115686442970082 
1.737397348007625 -0.03578533786435775 -1.635874959451077 -0.02874799185374192 -0.009854006391988839 
-0.4481038826197344 -0.4294836926630932 0.6587868633005066 -0.5172649991425757 -0.1541009501972325 
-0.6186209031125361 -0.4658423122272304 0.8900723854458422 -0.6481737242302512 -0.1648331131519713 
-0.2897057683729254 -0.3314907635436903 0.5253361646018386 -0.3634322376037779 -0.3784713957092534 
-0.3367222855592143 -0.4093126865803393 0.4152509054794444 -0.3619807450395734 -0.138724592440021 
-0.5673806428279846 -0.4561094377337394 0.6155280326411547 -0.2381810876909883 -0.1260563962545488 
-0.8069489290959776 -0.1641031223746671 0.7085856080365354 -0.1719293206077038 -0.3070403407827662 
-0.2571413316383805 -0.207130391807266 0.4017888141997941 -0.1595175557293088 -0.02719916521345018 
-0.06207815204961935 -0.2966358266437662 0.460018676057024 -0.1827532152994279 -0.01358628639264138 
-0.3975441989545688 -0.1264412011788534 0.4423414535810563 -0.09370971736199718 -0.02821906012671008 
-0.02130237954381727 -0.0168010362737886 0.03158206398548101 -0.006755246036157884 -0.000533584848472481 
-0.01702509669603874 -0.02207567201263292 0.03764074833122175 -0.008049977200634445 -0.000796998761380108 
-0.0353385035809192 -0.02370889981883504 0.03000627163385217 -0.013537975489298 -0.008616760303250986 
-0.09300918882896343 -0.05739452064365502 0.1434708300925396 -0.02716855273972269 -0.002429186094430916 
-0.07237457823506183 -0.08909075845216718 0.1089333803227761 -0.02028644132137734 -0.004685998536197416 
-0.08134685461671073 -0.05189407406798027 0.1249980145242354 -0.01652119311730167 -0.008848631512304007 
-0.003561947659640385 -0.006356701234037598 0.008089312257392319 -0.002063890324421042 -0.0007849450872500852 
-0.02546213994954143 -0.001670665543176187 0.02619590045239026 -0.002513034958064993 -0.002149056825852639 
-0.01702509669603874 -0.02207567201263292 0.03764074833122175 -0.008049977200634445 -0.000796998761380108 
-0.1159072431766053 -0.07819507468499873 0.4259545846034366 -0.303882121115076 -0.01310305820288397 
-0.05229310629200157 -0.1281840363260701 0.2050789988892921 -0.1156054133826732 -0.03339015801903959 
-0.2232587646157995 -0.07374197355557077 0.4137349099225944 -0.09049206609998965 -0.03950226771076803 
-0.04990581739163971 -0.01512520522690076 0.09588932064829642 -0.02420703082838274 -0.01316637318584393 
-0.05854304255291536 -0.03390503443631405 0.158822418512003 -0.05327178402463844 -0.003505623091689347 
-0.01225486738819517 -0.02200245998948969 0.03026835542473934 -0.01804564192462876 -0.01421297966000795 
-0.1636981922485213 -0.03614023824296751 0.1667492768380325 -0.03801391613934128 -0.05629550483831539 
-0.3355586232893397 -0.1051119873735275 0.4167810987351598 -0.08428075031566723 -0.04895891325501414 
-0.03940227531463764 -0.03304467054096692 0.03831991815071941 -0.04469400456920689 -0.03540952420546324 
-1.920054857146954 -1.958905464894565 1.785049680249341 -2.110984221503017 -1.960065690269347 
-1.208924583377325 -2.251584128728589 1.456090696969153 -2.090844775749872 -1.820311693666409 
-2.006697131886981 -2.440192855484418 1.982212364273252 -2.067165623127168 -2.017216300781759 
-0.01755189538776241 -0.04836879247520137 0.0625367438695187 -0.01411123367578143 -0.0005520976692515617 
-0.004280436845283016 -0.02173336689040245 0.03093527864350503 -0.01132786792698077 -0.002406724661647396 
-0.01522856444630752 -0.2346012188784474 0.1763318334746007 -0.009352478739995652 -0.0002380033197861237 
-0.004280436845283016 -0.02173336689040245 0.03093527864350503 -0.01132786792698077 -0.002406724661647396 
-0.003018166814588935 -0.0008836663254401919 0.006192438464181002 -0.01640857257392184 -0.004015790118609963 
-0.01755189538776241 -0.04836879247520137 0.0625367438695187 -0.01411123367578143 -0.0005520976692515617 
-0.01503439103186846 -0.003226652853844976 0.04087571060535831 -0.03072453920025047 -0.006438312896387536 
-0.01726795505898921 -0.005867430269834136 0.04216139451862744 -0.0190619883735649 -0.006023075212023173 
-0.003018166814588935 -0.0008836663254401919 0.006192438464181002 -0.01640857257392184 -0.004015790118609963 
-0.01726795505898921 -0.005867430269834136 0.04216139451862744 -0.0190619883735649 -0.006023075212023173 
-0.002277812891472693 -0.001409395075685339 -0.8614647528157811 0.8368732054029667 -0.002775665876782538 
-0.01503439103186846 -0.003226652853844976 0.04087571060535831 -0.03072453920025047 -0.006438312896387536 
-0.06789041844891329 -0.05796629741938607 -0.3208322439257221 0.4654602932025484 -0.007624448012472924 
-0.07199487075884145 -0.04768470982464097 -0.3879166023636506 0.4810233219903681 -0.001896971956667354 
-0.1456281834762661 -0.02519517482398794 -0.4345735104940335 0.7290957163715317 -0.01036437384405412 
0.5749256829854392 -0.1605565296540135 -0.3316088295659348 -0.1363384823564439 -0.01550013524313237 
0.1200089199741466 0.5534233207853845 -0.237130714875858 -0.1754536969630537 -0.0124014659061617 
-0.4182393368104631 -0.09096497841738956 0.4934202588386981 -0.09799737616203243 -0.05303897339794532 
-0.100143907600172 -0.02162959086727761 -0.5384943908618365 -0.09173368472953868 0.7869127874372551 
-0.1237237053075482 -0.02744255032372553 -0.3642242184764063 0.3761797039276498 -0.01699145544360528 
-0.04797419836810127 -0.03250233335671838 0.07363735944602658 -0.04461977797308346 -0.03638862885766684 
-0.3997958881191614 -0.2383642274399655 0.3515889977111844 -0.2462750574593676 -0.5197094124098321 
-1.11291605794102 -0.5000008790879903 0.4686953398585047 0.8577537495385664 -0.1729728607290691 
0.1867555473600886 0.2228801191390795 -0.6542069046396085 0.3016158033483646 -0.1829779033046331 
-0.3214133770356166 -0.07339820211188899 0.4094499977799521 -0.02681521101572706 -0.004472648202876375 
-0.02421284564765908 -0.05109955184922076 0.03209309825190677 -0.01809131122183128 -0.01480846176611582 
-0.05739773983236671 -0.01080352166379927 0.04316851802508983 -0.007680791550572332 -0.1093158125148882 
-0.5654111775400844 -0.50034304816288 0.589588303734611 -0.4514948624992695 -0.3412542054956384 
0.01593279536157152 -0.5804655250102704 0.3908431618144533 -0.6332671365080269 -0.4502689117007683 
-0.278255504389674 -0.6601340095669186 0.4080475612175388 -0.4491968303652626 -0.3247514930809353 
-0.06250555505898019 -0.04727052319758364 0.09306519110344404 -0.006695568499611799 -0.005854922818940326 
-0.06467801541354848 -0.04255780591519182 0.131131053279121 -0.01699860287669538 -0.009950028589646267 
-0.0398763583460998 -0.01876425695606355 0.06764472706760176 -0.04992510667419331 -0.01495483557630335 
-0.02351363166773225 -0.04309645565990075 0.03595763212814872 -0.03208704197494969 -0.01282499798921658 
-0.08648785805285548 -0.0188116113410957 0.07905662334786955 -0.0179358043381077 -0.01774581979177478 
-0.09864456046842933 -0.0455815633828235 0.1053546509521284 -0.02728609969251647 -0.01986487616968529 
0.6424480561059835 -0.354266850132153 -0.3731733237362684 -0.2678165952081108 -0.2521189193842165 
0.1877066297245724 0.08969276125522802 -0.02259818564177951 -0.6513484565029223 -0.1235545002551803 
-0.5125678100622179 -0.03337591850941399 0.08554082160306636 0.5547042514371074 -0.1343629065272361 
-0.08447692038149525 -0.05256107465801457 0.1567245255766534 -0.04618499380222951 -0.002210269876994901 
-0.1046126166865232 -0.01335495656081206 0.1686202305707874 -0.02175060355557952 -0.001743629842008176 
-0.1147818092934108 -0.06146383739237005 0.2253792148010441 -0.0300620367154765 -0.05253150550386066 
-0.01051825623494089 -0.001212785287046686 0.008931727419457141 -0.001943291765553065 -0.001848338988594142 
-0.02648738728113047 -0.01005791038806886 0.03368183807760287 -0.005654488076626575 -0.001321284752257279 
-0.0009694158129979733 -0.0070461089854231 0.003782733113476966 -0.00291525034760711 -0.0006865705198242341 
-0.5677168572970711 -0.0250121707714194 0.6529727069877166 -0.007941399133794332 -0.09955048906423762 
-0.1583305602673544 -0.1918717059077079 -0.3359693865816535 0.6843467602684056 -0.01230434665888134 
-0.01642151895821991 -0.008884516477997458 0.04796753928760598 -0.02053524137239058 -0.01206788393131888 
-0.4865952920306557 -0.1785206902487234 0.5834020857921942 -0.1420071688729219 -0.00977473685342529 
-0.1830431852835305 -0.1356365100340021 0.3663732414608518 -0.05520975159496505 -0.005787698266344484 
-0.2903753527505903 -0.09821688379100324 0.3774134788001228 -0.1243050832130534 -0.02739993008184653 
-0.2134331519899947 -0.254154876513706 -0.6071847483368735 1.259978377511322 -0.003361620916920511 
-0.2148634913813009 -0.4497787877001695 -0.1087142246386375 0.8527689254021529 -0.003264717014114747 
-0.1517018790521628 -0.01882063851770401 -0.504658611025515 0.8090462652801652 -0.006972100513587657 
-0.5001322445432276 -1.099090370436462 0.96939585213364 -0.5567864326447 -0.4433329278146613 
0.3412982191862156 -0.5434796662306349 -0.1101692093349663 -0.4374991437451105 -0.4114636728544792 
-0.690804322566093 -0.2014395260741366 0.2941626414046129 0.09244202896582915 -0.5527236652177924 
-2.061523833834284 -0.5932997473444127 1.007386389288489 -2.118852617193887 -1.595726415581701 
-1.661320134961624 -1.386350544422957 1.473579187052641 -1.943742291884949 -1.562578301475903 
-0.8690723890928753 -1.124416389630035 1.157623621721577 -2.14161265491264 -1.773999172790857 
-0.01525643555470409 -0.045788185339412 0.06863149189925859 -0.01891483490381555 -0.0005716891134384431 
-0.001092420857786222 -0.002896556695182552 0.001706466280386318 -0.001555891791730506 -0.0005875079603159971 
-0.00887062435868162 -0.0004634690080257512 0.009258652539643031 -0.0003505802853777712 -0.0001939680697340997 
-0.7622833147696584 -0.278442928725345 0.8114347059459899 -0.1352023858378752 -0.03585466900606717 
-0.2226317230569338 -0.4013237901732402 0.479600088385333 -0.1722258270319363 -0.03326339718861498 
-0.3046243054118412 -0.2695805173187656 0.6335270858585096 -0.07016283990263882 -0.1440566718025383 
-0.05464265380185792 -0.0268468672605991 0.1456984506037844 -0.08771414007065567 -0.007587772443942019 
-0.00947937672574216 -0.005334273377112992 0.01541499998122546 -0.0129326482211496 -0.005393096557752715 
-0.05839662771963518 -0.007613184139661961 0.09300735386358391 -0.03525703726065953 -0.01961730055830437 
-0.004981151955484704 -0.001654086833539307 0.01079631838608508 -0.005848219133583552 -0.003925474530464382 
-0.007555930779311527 -0.003723861127616788 0.02311350503909918 -0.009871682525671301 -0.004064369096441744 
-0.005829071587419714 -0.005619578486047916 0.0189895283944653 -0.01904289966626301 -0.00151700983668593 
-0.1156343251137491 -0.02270521169232802 0.1543460540298234 -0.00803599818812724 -0.001319639556295935 
-0.0107002343334315 -0.02149534706073945 0.01513924522572815 -0.005590894962623111 -0.004796511280780074 
-0.0182959184346611 -0.001313715342119105 0.0131088404182412 -0.001919813707016244 -0.03663461256769066 
-0.1959415289229862 -0.1660674022332016 0.1608403297081912 -0.1326228018990707 -0.1244193716399606 
-0.6821522710852005 -0.08961532772580565 0.4966776833463705 -0.1598304482709927 -0.0809105404969669 
0.941494209902152 -0.1612523440018552 -0.6637883709485228 -0.214323091654724 -0.0969518339552639 
-0.005145594296271008 -0.0009954940710742688 0.008748700316192846 -0.008082514923583604 -0.002393743536165712 
0 0 0 0 0 
-0.00796135866284133 -0.005630802401943424 0.007553125721550645 -0.01174291419868763 -0.00651197078617303 
-0.2860868027418403 -0.05280371880345727 0.3932037871964244 -0.03950953538067509 -0.009338944685499213 
-0.09831407713868633 -0.2359700731300485 0.3413775905132229 -0.07355877008013903 -0.002878344470198918 
-0.1187365580023663 -0.01566424684272227 0.1504438587032745 -0.03056319074404414 -0.003811470120543631 
-0.009640573482043452 -0.01733171816345302 0.03117276590404117 -0.008809421317743477 -0.0001913733551442794 
-0.01352672755156872 -0.009455654218942927 0.02703489045817203 -0.003313642548641365 -0.0003412064433607644 
-0.05992083769279404 -0.002016036152813047 0.06381906412272606 -0.00148297224884439 -0.001591805406977528 
-0.007240740491857113 -0.008248607095140813 0.02073916418778303 -0.002981396088284794 -0.0001016149725406582 
-0.0009153498222803021 -0.002009301621801647 0.001898825451430844 -0.0007159588195457863 -0.0003312212992496843 
-0.007284642215803565 -0.01386320424893645 0.02033490123451158 -0.002777756001262319 -0.0001221904780951792 
1.752945476566273 -0.02948601641993669 -1.684510329910698 -0.008033966553772108 -0.007282649703203142 
-0.5010084014028785 1.876624982216039 -1.158741363932302 -0.04603408700487783 -0.002379920914509533 
-0.02949263386066894 -0.02302539359818718 0.06923036809648521 -0.002957118115753296 -0.000676638455065441 
-0.1823373293630104 -0.1602604024194063 0.3838280185540638 -0.04635344712663769 -0.003481310686277969 
-0.07257328894516049 -0.07132792442551911 0.1693306347845122 -0.04139753346853001 -0.006758386174033656 
0.2240926736447229 -0.1219674513019851 -0.09163370777046735 -0.02450666049775223 -0.004426357651297254 
-0.08166310112407975 -0.0025806120718363 0.07369134774876133 -0.002420554064812695 -0.01538427301925854 
-0.01994619737544582 -0.1117789885376482 0.09833441915984209 -0.005982355317459906 -0.001577945645461218 
-0.006420061760386919 -0.001156168596963855 0.005932896490480812 -0.0003224887830868345 -0.0002387294416867483 
-0.01163252747333507 -0.05904914747783875 0.07318874530126042 -0.002539658801336999 -0.00016040280554747 
-0.007694656143113245 -0.184287644662832 0.2460492166603887 -0.01161957544352891 -0.0003186112431312369 
-0.0438854830487355 -0.001288023970836018 0.03486697276900944 -0.0003096729272722176 -0.0001017403801330813 
-0.007356938458810827 1.727419861201799 -1.039916649861729 -0.1039761704471072 -0.01483116659165486 
-0.2817801593324357 -0.3395272513840233 0.5726541787218972 -0.1478492422642645 -0.01158759757772192 
0.2429303951391946 1.760514642908651 -1.25850643122708 -0.07690367534133971 -0.04961749898467836 
-0.01381792117849639 -0.02876708191591207 0.06807972240683485 -0.02740607425031963 -0.005113565191710822 
-0.002269184283688126 -0.0008533957086727427 0.004677649413981594 -0.009155368942662707 -0.003221112908426907 
-0.04814839441299752 1.180036191349277 -1.53110581798195 0.8178884422902086 -0.001601702671163155 
-0.3642380101137727 -0.07030890641705817 0.30075322663617 -0.6254702801299963 -0.04631996220977033 
-0.6019773193424331 -0.5414228382165331 0.9184542981769062 -0.2236148774476585 -0.05684850802570911 
0.617184166502609 0.3897449901323624 -0.4280990612344548 -0.4234450336929869 -0.182657223913215 
-0.1941660965567922 -0.06569350226534665 0.1459715914182293 -0.1052391625995818 -0.09137690582843569 
-0.1965160341315078 -0.09681628237953527 0.2194581743236817 -0.1319150177277843 -0.07987479619359213 
-0.2553794176580435 -0.07721151301727588 0.1520335243003419 -0.1028877957886511 -0.1149982085399151 
-1.352443123713246 -0.9946459056307834 1.379761584656986 -0.8118247507237121 -0.6629743837350331 
-1.142251794509157 -1.08288537331176 1.320596141740818 -0.8553077682111764 -0.7018677818136583 
-1.342115138578743 -1.045861261901083 1.386745972210135 -0.9648107645428792 -0.6504961008153202 
1.445805705491018 -0.05315194900824867 -1.729700483506567 0.5172745489097076 -0.04837819757176538 
0.2456163142362611 0.5972774977666279 -0.5756918087150447 0.3716392164388683 -0.02640293320963661 
-0.1998949778027923 -0.1081643618489915 0.3093370644246649 -0.1262889976462845 -0.04563780707191276 
-0.6844305802575174 -0.5246713663428683 0.7014628891095032 -0.473627919057798 -0.4366960283548271 
-0.7025140845962239 -0.3874462841772696 0.7839129595111122 -0.4247202136943714 -0.3498167325333053 
-0.5280681589285103 -0.5058280449918486 0.566827382037831 -0.5048005105649302 -0.470224712833668 
-0.1836929801868984 -0.1406741141590098 0.28595806940452 -0.06823193366089356 -0.008235043546793474 
-0.04494765295379478 -0.1799520414360559 0.1210781655171096 -0.01969472246120717 -0.004817765352076067 
-0.1968525896696109 -0.06558041609198972 0.2088767890826422 -0.02859006152299268 -0.006685210589559269 
-0.06141385645476045 -0.1674784760202715 0.1193586874476099 -0.03003326546920385 -0.01642122646513976 
-1.003537295946702 -0.263852349728766 0.9356526740569697 -0.03907733538320956 -0.0197590497064607 
-0.2279152095108399 -0.03493149117328781 0.2224863266760178 -0.04369793285271607 -0.03024021559534282 
2.695109819281323 1.529386801169524 -2.395830203234716 -0.7769798118898534 -0.08414154072319488 
-0.1934579212784814 0.1521508306304761 0.09354837238963036 -0.3291836755618821 -0.0817391121369596 
0.719928120733775 1.085695245273659 -0.9306772158533293 -0.3770428337646536 -0.1742034494451948 
-0.00328903704529538 -0.005881760463500419 0.01010457766981325 -0.00395317432170252 -0.002518466974388215 
-0.02021558265180735 -0.004678314415108157 -0.6883931920472836 0.6442963622271389 -0.02335370111748452 
-0.1574595231122744 -0.04744836924038417 0.1543577630280303 -0.006592763364307635 -0.002351148383586416 
-0.00371645102597986 -0.005934018352095932 0.01758006207162472 -0.008070452659304641 -8.187109580015434e-05 
-0.005929896263525333 -0.001775468671177889 0.008012633749748343 -0.0003673710202912993 -0.0001744181366742583 
-0.01545001136598731 -0.0009784968058370368 0.03708492090788329 -0.003669107281416833 -0.0008535601942409798 
-0.03968834040642504 -0.001184723830955551 0.02859673338701538 -0.000298245095955381 -0.0001026919273446692 
-0.01456492527441375 -0.0103166334250205 0.02825140152569443 -0.009159900540883415 -0.001005567151665477 
-0.005929896263525333 -0.001775468671177889 0.008012633749748343 -0.0003673710202912993 -0.0001744181366742583 
-0.2210349702422737 -0.1459761361557129 0.3429364266669187 -0.04808577290151959 -0.00812869677391807 
-0.0730328529894301 -0.08616065540945532 0.1865093402880641 -0.03782292141779392 -0.008149599970694083 
-0.1906874518179378 -0.08635223913254393 0.2848498431826479 -0.04005038132044683 -0.006074039322602428 
-0.6255400129832858 -1.007240440281971 0.9167184387101776 -0.8185217481773353 -0.3724001815017398 
-0.7696736947387779 -0.9444274645310395 0.9119712903307983 -0.9145345016131088 -0.3929710897112846 
-0.8068300313763902 -1.029221231070022 0.7101067745868141 -0.3851429958085775 -0.3419843472322936 
-0.6048290303256628 -1.060952066980907 0.9541641222992284 -0.8487326871967685 -0.3429447303138743 
-0.3402963711778364 -1.06957514006643 0.5463851377088774 -0.9474951369945086 -0.3808254738799393 
-0.2925849706104224 -1.140922631174226 0.5438484193355653 -0.6081265206986246 -0.2899850291985521 
-0.2652208095113085 -0.1002686878475849 0.3439487025386881 -0.1036156541685068 -0.008603565221987937 
-0.07266458384733891 -0.1412642148141751 0.2150680783287837 -0.07867846402517459 -0.005235562883920114 
-0.2227611404570789 -0.05534134425312978 0.3107449029034986 -0.06233305291906976 -0.02184028980228606 
-0.1533999811858325 -0.1652846161156995 0.2937837171397663 -0.0851825198261016 -0.006409783751997271 
-0.02335661347277264 -0.0554804470891271 0.04777354919914945 -0.02206066411497169 -0.007568208440799891 
-0.2164515341180362 -0.1224113192515827 0.2815521092970694 -0.04410150343196708 -0.0325223553790923 
-0.4714734281216574 -0.3822909239947874 0.6870211986338899 -0.3239827885237391 -0.1974399285108487 
0.1288377519044977 -0.3501524025489084 0.04050561574208261 -0.4857166305523576 -0.13715640557636 
0.0851046475358159 -0.06623402054703523 0.00868674761218107 -0.1972116833801199 -0.1922422454556304 
-0.1762405949307629 -0.04305503795296046 0.1890772642961537 -0.02034686356650252 -0.002353712294835299 
-0.0369331512720364 -0.05489110496993589 0.1132640812823305 -0.02180614105937124 -0.002373683421865975 
-0.0327968961864863 -0.02448089841519078 0.07100282989036835 -0.0228147125524467 -0.007059937535721921 
-0.02595733394359705 -0.0428708461167328 0.06725837875563874 -0.008662053514004666 -0.0004322330385898936 
-0.000821902432451572 -0.001952551287974955 0.001358442172096299 -0.001104913826953609 -0.0005318658037590941 
-0.04642786894365804 -0.01296480450112538 0.0659981613631157 -0.008343926198223734 -0.000358857174694435 
-0.03074001983678343 -0.0006472121220554325 0.03016985375406533 -0.0003411377160122011 -0.007819926227372501 
-0.05303885979020824 -0.00173077253862463 0.07537586646219573 -0.006052526244022244 -0.003031601687721789 
0 0 0 0 0 
-0.07607430603837841 -0.05257980580410983 0.1245212969389899 -0.03024209071066627 -0.003356447159632514 
-0.006693502831290321 -0.01491116516410954 0.01251416438111901 -0.008535730458858718 -0.002871026712971283 
-0.09825898134877388 -0.02320044626889349 0.100669295626052 -0.005797532616229907 -0.00133256731102656 
-0.136266152607755 -0.1755704826773094 0.3573687668458508 -0.132568364094775 -0.007235879055362346 
-0.1175351227307632 -0.0828875580937468 0.2712633379232149 -0.09707140470119228 -0.004850994859475417 
-0.1658434056689664 -0.1417886760951729 0.3111457449035653 -0.06938888234691953 -0.01433030197124798 
-0.00277288723784723 -0.0006512522049106974 0.002802623188432259 -0.001248240884507903 -0.00072203746457316 
-0.001309150105695336 -0.0004600611788983832 0.001627406522304808 -0.001980215432679615 -0.001142471939657513 
-0.0004937851639049644 -0.004934006931114275 0.002016625321534469 -0.001723322474463285 -0.0004428970674122401 
-0.00879170238648432 -0.0001974465954632943 0.02211758290627756 -0.004076272841971836 -0.0002092897018823976 
-0.00709544852178842 -0.0003681277756034731 0.005228539006971031 -0.0007893598800783532 -0.0006836916649762208 
-0.001309150105695336 -0.0004600611788983832 0.001627406522304808 -0.001980215432679615 -0.001142471939657513 
-0.3929860847189307 -0.121593162331288 0.4450196529604215 -0.05533841872595874 -0.005217976179737286 
-0.0673079101803597 -0.05652848033104117 0.1597622499874058 -0.04969283187737703 -0.005709648110427373 
-0.1234213502159769 -0.04490504334511039 0.1557267396406822 -0.03324540127835316 -0.01008412996799319 
-0.02874158442410128 -0.001570788088678003 0.02348555292249286 -0.0004944869711005112 -0.003298286964038841 
-0.0530354661655846 -0.004545161782503616 0.0537384042092837 -0.003516697503049886 -0.00107154176239875 
-0.003630325058117305 -0.0001584465284193601 0.002101068082826665 -0.000501530056417986 -0.007678111224056548 
-0.0531782249711501 -0.04491414192271624 0.09391499080358592 -0.03800132389012791 -0.005316095729253525 
-0.01314093252681134 -0.02362346677531652 0.03073372534535371 -0.009869307091942092 -0.002516655563910301 
-0.05964198767377622 -0.02626674875733617 0.07086829564209336 -0.00933246659079676 -0.008396402845939581 
-0.0714995170898116 -0.03458831402392477 0.190462549344613 -0.09374163863669001 -0.03784390240864582 
-0.07233737737180689 -0.04072733948285862 0.4059889451142101 -0.4610139435276654 -0.01357608083529863 
-0.07011436627373804 -0.06175285218763857 0.1509997867176895 -0.05477970354232638 -0.01918046489117115 
-0.1695874143138588 -0.2126727479243258 0.4496793795228434 -0.2268949655194923 -0.06814513296609558 
-0.1866171912606365 -0.05882286561511019 0.5688494253631421 -0.5807663772242275 -0.07072850861461531 
0.1014844366050999 -0.2316120465978667 0.4960395654554599 -0.3839885005287894 -0.02889495563724944 
-0.0276516062831883 -0.01939660534544468 0.0826622569381882 -0.03670827073577378 -0.005068862305885734 
-0.0945088080277406 -0.03427475426137012 0.2424436913645728 -0.07436048730033323 -0.001558357003537808 
-0.0675999855107814 -0.01607890661676993 0.08193343427796773 -0.02037483126332393 -0.006690108607000042 
-0.04908975479484631 -0.04652167582846931 -1.059599877180504 1.158804449755724 -0.01356458852618909 
-0.1257112626008051 -0.01648796995579527 0.1729325827841299 -0.03599421901785604 -0.005003695206289007 
-0.09794853085782181 -0.0111500419866991 -0.3628234474144857 0.5207401880685197 -0.007065729404107513 
-0.006925849462481005 -0.007098434579282905 0.03016712854559929 -0.025357067145286 -0.004351729398374408 
-0.08791372390889206 -0.007061148431635307 0.1169525821284722 -0.02918961016032865 -0.004738382027632278 
-0.03021275348939576 -0.05780109098933638 0.2244038077392196 -0.2603363146575659 -0.005153258015012868 
-0.3197945546938707 -0.1937402275014893 0.7222269223156184 -0.5212281771541114 -0.05761203974713865 
-0.2184300564192354 -0.07943996778474156 0.3855492522847972 -0.1142120246666704 -0.03109709930722473 
0.1684874488115326 -0.1375522049248421 0.2391907575196331 -0.3597831219717175 -0.1282691553085608 
-0.6659365932072775 -0.3928908100096863 0.6462892418561117 -0.4314533848139909 -0.3258513326482726 
-0.5057639721363383 -0.4604847703586091 0.5252603077817183 -0.4645438778142794 -0.3964217627970827 
-0.8162966288152279 -0.842192817902249 1.084904270881499 -0.4626208916559627 -0.276610266273569 
-1.020182243671892 -1.075866059914085 1.158366297232063 -0.9450818452367011 -0.586126590390473 
-1.304362391157726 -0.9845337393909742 1.549707617494965 -1.026559326712665 -0.7609395018800308 
-0.8930650520756639 -0.4946466604298938 0.6035344004032061 -0.9658502186519482 -0.4804151353310794 
1.245643184936685 0.6906513162792801 -1.34913656138475 -0.08735049172710024 -0.02290917271830712 
0.2330123606162534 0.8828203548025659 -0.5955869687056287 -0.08955157717152663 -0.0174097646588738 
0.1722572751119139 -0.02160829357736937 -0.3374157169515316 -0.03580807060232525 -0.03924072114148505 
-0.4695577565645063 1.387747278427609 -0.7211383953687814 -0.04383529026112284 -0.01190648258849759 
-0.9413801270945721 0.3338547616619792 0.5280026661832243 -0.05307138733224884 -0.005378342824474795 
1.28153458220306 0.7917458129547823 -1.606162487706928 -0.02569017604771776 -0.01405058129613067 
-0.3644948886355388 -0.29605806707087 0.6324847788057852 -0.1874472947128021 -0.04602417946939714 
0.01559941444600483 -0.160994127595655 0.07791806822022088 -0.07030176291894931 -0.04101827409108025 
-0.8350710233304227 -0.4175416654685496 0.9997962759535546 -0.1163951369609418 -0.05620861917399687 
-0.08532152094461397 -0.00772561847338241 0.07355283079253012 -0.004650427028003981 -0.0006863281682363328 
-0.01546599133757789 -0.02434682984341669 0.03424887985892267 -0.009385194824183589 -0.0007306869527593124 
-0.01256820309214519 -0.005550129019718241 0.01464385383841612 -0.002335738283432222 -0.00331246900824535 
-0.4816247794950452 -0.1707922438618433 0.7096593517565771 -0.2374308447682328 -0.009698155185439103 
-0.09456800467256056 -0.1949529592782663 0.2353193193713483 -0.07047606091341981 -0.01208283966295139 
-0.4722173634635008 -0.144875901332521 0.5142896830782886 -0.08865409805998159 -0.01654243374280442 
-1.564618574532146 -0.7690543664951912 1.531508875777461 -0.9244409355298824 -1.809487821822315 
-1.325334679647175 -1.655359066572909 1.651826269939582 -1.161119317133306 -0.8576530963468133 
-1.048285871777939 -0.7145395760687684 1.000795426631375 -0.6441610830383606 -0.4885785771858798 
-0.207964583684418 -0.1045890104788384 0.179200789004016 -0.02951837304926689 -0.1160481084334792 
-0.07364806989242223 -0.1403083208043925 0.1042964377546663 -0.06925008664564644 -0.08480544987413578 
-0.1088160999501586 -0.01182690081479688 0.08569572034044831 -0.02750463367180011 -0.1855927121514056 
-2.554707948457232 -1.715004874652015 2.39622250480564 -1.523210294220119 -1.770054934955828 
-1.833859526650532 -1.685662931715797 2.000968936191064 -1.539474206840584 -1.58390747024889 
-1.153439902044617 -1.708052288898145 1.333101906761556 -1.61452406362742 -1.678648543882282 
-0.1452262491696721 -0.1002475709332795 0.1719686335751181 -0.06657597468408617 -0.06728519408668056 
-0.1408522973774528 -0.136898646304597 0.2017392744851706 -0.08965868759844282 -0.06960268437641541 
-0.1685087614937518 -0.09581347451212475 0.2285800759588477 -0.08714759735516134 -0.06712505391147298 
-0.01184369922874203 -0.009981050288535196 0.01406380151684839 -0.01295010752186632 -0.01068795649954852 
-0.01401940073621675 -0.007514895376659226 0.01608602457631725 -0.01171750129212702 -0.00880197012079911 
-0.01581389273214554 -0.02974757726613526 0.05664306421857833 -0.02757014056482044 -0.007945317279707523 
-0.0693110739735958 -0.04554555180592051 0.08426206020923847 -0.02429117079404734 -0.01269562523975025 
-0.06259235828475124 -0.05708269142098028 0.08735162303081929 -0.02906546046973949 -0.02463912035608773 
-0.07918623180146968 -0.03591566208065218 0.1370575124861446 -0.04072924483160686 -0.01019986108286943 
-0.09021476909735655 -0.0317913024520505 -0.3519013066810108 0.5794217222082423 -0.01033051780989826 
-0.05390491416462939 -0.0703056032651867 -0.2550435954445592 0.4753659500869095 -0.005208343479356889 
-0.03959375623688992 -0.0197712981610378 -0.5904634969269688 0.7093263948007031 -0.01156202131103763 
-0.3958724206139855 -0.3101923118984869 0.3877953240518495 -0.4460729303552515 -0.2724257680420493 
-0.3341528012083156 -0.2617702392139266 0.3160113590908703 -0.2908920211247488 -0.3095882463852548 
0.09598731110259319 -0.4411943846730977 0.01430163665371633 -0.4110404420058778 -0.2580295240325456 
1.311545229208356 0.363243439277688 -1.168179796132849 0.9573104111593718 -0.02974574235850261 
-0.4333214592714569 1.072551406856825 -0.3925559456316067 -0.1882021690694764 -0.02475109285617499 
0.4822030872296832 0.04356794702189858 -0.7555555574463881 1.07449864394752 0.4711246416390071 
-0.1882762345232639 -0.03927752545575048 0.2395343991298311 -0.02224403425761463 -0.003073641387801402 
-0.007026807986486143 -0.02877997529331695 0.0207621919539805 -0.01301164423237524 -0.002791459625321679 
-0.05446769896930104 -0.0313401980748353 0.1170428436473113 -0.01437909556629685 -0.001004819486433106 
-0.06582611234147782 -0.04439715701285765 0.1032132533536106 -0.04203477714934214 -0.01630735036442906 
0.6091994504484993 -0.07487210892752688 -0.3976553505382247 -0.0622387521000512 -0.01501253024770779 
-0.1415501441839322 -0.06981396882755617 -0.4923918397513214 0.8278471158006521 -0.00816995516555423 
-1.048906572939341 -1.133716716361007 1.189532663224165 -1.018279535778101 -0.8928189872616336 
-0.4407764255451425 -0.8896349907232425 0.5756691989282382 -0.986060870845289 -0.5760493367955974 
-1.698210358167818 -0.9762219127708782 1.461800644399455 -1.224826020880344 -0.8130265350810693 
-0.467253719049015 -0.3442817869737946 0.727607472174967 -0.2076294105629806 -0.01527489010991516 
0.5538984974653471 -0.2274807846529809 -0.1642926381045682 -0.09968188242711586 -0.01290955086966559 
-0.3074784613839481 -0.2003155156418067 0.4154719723202852 -0.1020860035919771 -0.0200617486280768 
-0.1378862678755049 -0.1306778568495795 0.2611297988741679 -0.05782079163493124 -0.003011380978254401 
-0.03692322218806681 -0.08503008589242825 0.1177085812012252 -0.01987054075110354 -0.002655332352394462 
-0.1920298117632743 -0.09991863002450811 -0.3168928397340464 -0.0414953205564623 0.657161042018611 
-0.007734527681399921 -0.01605101101987653 0.02503867130102543 -0.002898689512377315 -0.0001216715080896638 
-0.003839734976816005 -0.007762012503247349 0.008744743162209996 -0.002955394964648407 -0.0001893453107959878 
-0.01885675737990948 -0.0208683612665113 0.04133930070479384 -0.003447680175953114 -0.0001427338949978337 
-0.0193024012239109 -0.009198607707750394 0.02390238084886719 -0.005256949741433661 -0.004266935892131105 
-0.002854340319978586 -0.007444852935786075 0.008705194953059152 -0.004686526392799115 -0.001987977235442679 
-0.009829967702122324 -0.01715794050926597 0.03695995258754017 -0.01967672214681604 -0.004666408161930495 
-0.346534586095893 -0.4720157514785822 0.681324011731716 -0.4644193418814829 -0.289236553387855 
0.684417522838016 -0.3213440733401668 -0.4857593165971055 -0.4090918504711894 -0.2782334020390685 
-0.9630734769201291 -0.7049587235947099 1.211983625268993 -0.6885331036086034 -0.3476338435682166 
-0.01824453395380448 -0.01070218237675174 0.01438850739435621 -0.002492405523979674 -0.002420797830858551 
-0.002440097438073458 -0.01031822647837421 0.004098695755717196 -0.003834862519321088 -0.001936552134223923 
-0.01659804767524512 -0.0007041262058962699 0.01287733903807865 -0.002180693138893228 -0.01693938629375949 
-0.1277858596506201 -0.1917228912660736 0.1448741690204193 -0.1803944216934476 -0.09809617438981638 
-0.2187883623840399 -0.2136686782353396 0.2487896793512926 -0.1398816051772816 -0.1524606218244441 
-0.6267632988834717 -0.165098787443498 0.574368768564221 -0.1833612272536629 -0.1163198005784167 
-0.2148540941576682 -0.1362086492944308 0.2909751818763356 -0.1387386626793013 -0.03356954667889027 
-0.3141201933369579 -0.2594487910114611 0.4848000757705458 -0.1032872624181336 -0.03081955439438994 
-0.09689423121365025 -0.02835701339223632 -0.0383045893876023 -0.04686917314757609 -0.03735713300067932 
-0.0130983272018648 -0.009969855303347118 0.01810551364542836 -0.005545473558001944 -0.001373377119274715 
-0.002722323830545448 -0.005579070275136031 0.004784080127033426 -0.003329041665395625 -0.001674677291406642 
-0.008089447245987575 -0.009401488173314378 0.01914006401925594 -0.009705496929536329 -0.002180484840695001 
-0.02157818812230789 -0.003214167174166448 0.01943413503493236 -0.004951395014212952 -0.003455763263643478 
0.6638822906983594 -0.01179466815110828 -0.6115191221246793 -0.008683676429254331 -0.0057371871033741 
-0.0030406659239453 -0.006294573000125649 0.004066879608025401 -0.004961016004465945 -0.003727707584254638 
-0.02655569915152478 -0.03196059007803049 0.1308228718114918 -0.02159501251037824 -0.004749254287550053 
0.2170520471664984 -0.2006855023399607 -0.06309323660306593 -0.01721794548712359 -0.00656290707640883 
-0.02425581679487548 -0.03273341251863163 0.1495489602691361 -0.2100749072990225 -0.006260410996215633 
-0.1274441358600897 -0.09451103342340561 0.1223084248594456 -0.09839684700043702 -0.06044436497420202 
-0.2609072690749976 -0.1386487487941505 0.3111414159538216 -0.1915884618154073 -0.04358017061902063 
-0.2969387303731278 -0.1071772472675495 0.2683916792721379 -0.0720635143958326 -0.1150862439645806 
-1.44674074862722 -0.9487555647109983 1.469491028752293 -0.9483284188814257 -0.713642394091083 
-1.698723139366132 -1.534237665668761 1.742783033431544 -1.101217322606094 -0.5599681285554072 
-1.169267476832359 -1.039177851704297 1.199699430704491 -0.9859131892110721 -0.8093438145923045 
-0.02448362863136131 -0.01741292464613796 0.0322708734345914 -0.01974782184058799 -0.01035250472581307 
-0.1230037973958956 -0.03379885402107405 0.1524297782767052 -0.05241251452847961 -0.01729987750506788 
-0.0822659069603953 -0.03371604681701174 0.09262291094210591 -0.02075540848340887 -0.02573653298446761 
-0.01895225445310786 -0.01089733496805957 0.02563120137435017 -0.02204735861739542 -0.009913386084536577 
-0.03870306449008491 -0.009836046054333504 0.04159348475502767 -0.01163043557256225 -0.00634084210829861 
-0.01519422068961384 -0.01417728961119297 0.03162270429077253 -0.03108958432658174 -0.008170305770814472 
-0.02702686814487547 -0.02468178155324692 0.06693722755779082 -0.04108500258490692 -0.01423806768056163 
-0.2375090291390755 -0.009555400486806372 0.2393020422721592 -0.01331550546272251 -0.007228963881573611 
0.5313644607237504 -0.08572818632295985 -0.3042322775929792 -0.1371173987679153 -0.00640643823223687 
-0.04624207659767752 -0.02235354571750245 -0.761477446169466 0.8807800947651511 -0.01040324818820164 
-0.06870475536709354 -0.04014574076612028 -0.553908427556095 0.587006242249741 -0.006935281737076977 
-0.08132996514341718 -0.01072818854791165 0.08308702189694876 -0.008401343041142801 -0.005158910963106668 
-0.002677996183802697 -0.0009511780054592402 0.003031834003303162 -0.0009910671872230053 -0.001367753041303891 
-0.002884948001033089 -0.001443949533638041 0.002605450276276493 -0.001274671234602685 -0.002555810765356704 
-0.005082354438724981 -0.001712590611992191 0.00278147393646136 -0.001705760968446366 -0.003274873452605476 
-0.09836293162363649 -0.0164326957249761 0.1391524375869743 -0.03529872664616759 -0.003140438763056288 
-0.08619115285316764 -0.05314398309350956 0.2401775079066299 -0.05246386285944458 -0.003989431512563558 
-0.1197802822713244 -0.01277584366915869 0.1449468388311102 -0.01853021760988846 -0.005301748577791305 
-0.002590805770185895 -0.03200683964204354 0.05275876814466172 -0.03114711443830235 -0.0004419340968978058 
-0.001070655310700868 -0.0006949293270306536 0.002242007841001759 -0.002005296296762613 -0.0004089785508287006 
-0.05240457118989271 -0.0008412490305757353 0.06035148796965827 -0.005940400005231417 -0.000195652783615416 
-0.008546729897434288 -0.006782473516137179 0.03919883027781743 -0.01896291098157412 -0.0001109639865970462 
-0.0009788508983925774 -0.004142668559733403 0.002894862738564898 -0.001198674786446432 -0.0002630078685553658 
-0.02510268927727814 -0.0001931767751547792 0.02190401670466513 -0.0004561900486607865 -0.0002650002168123998 
-0.03566610342320023 -0.01569687245851541 0.03513866195591807 -0.006570538966584397 -0.0008516308744884209 
-0.03133904386143859 -0.04639423354472707 0.0815650093867166 -0.02500567287664538 -0.002083463275627786 
-0.005926248900230197 -0.01840669311396826 0.02065021600278315 -0.009896701706123341 -0.0005838631518387833 
-0.03217912501650256 -0.06640994630679892 0.1789866580305382 -0.08346615168038803 -0.004814526494291065 
-0.01066498717644251 -0.007059100599589655 0.02582491884671449 -0.01149365065276993 -0.002211094847876516 
-0.08661333745717961 -0.2731529765513815 0.4146658629606297 -0.0302352527533116 -0.003477343798784482 
-0.06602172718863861 -0.001642457786293104 0.09192281424162846 -0.01359215662144553 -0.002273817279183804 
-0.005083706253101546 -0.001776810811491623 0.006541412694217175 -0.004017031044567938 -0.002716808048838849 
-0.003928219321274163 -0.003089030116821652 0.004984241342294858 -0.01186278536068838 -0.006007961837950561 
-0.03240046276279264 -0.05166979694521842 0.04903809856073585 -0.03980531256983665 -0.03585605750954128 
-0.0483036064424053 -0.03300441897021048 0.03685838768198126 -0.02550447099775701 -0.0548898507923525 
-0.2627530105308355 -0.3395594830577272 0.5902104305226936 -0.3057745578105329 -0.02583954524471363 
-0.1048273276871166 -0.001722022428936119 0.1414825053397664 -0.003414251911352138 -0.02058763586444838 
-0.006364494119343287 -0.004765608627609516 0.009728870744412102 -0.01084188921254352 -0.004706320418185659 
0 0 0 0 0 
-0.001515437167418797 -0.002033046488213438 0.003950864196614706 -0.003232154664329637 -0.0007946893942025884 
-0.003193417878366672 -0.001911643144334518 0.003025974234742839 -0.0009474996794051208 -0.001205977844056532 
-0.02495417768468794 -0.000567645556635831 0.04668030998108588 -0.001731258936770921 -0.007578487673197794 
-0.08385032091207256 -0.04432730533385846 0.1010407357939958 -0.03419004337781963 -0.03370870846214301 
-0.4843630057989644 -0.03670581082533356 0.5579598749031062 -0.07860676539699997 -0.01823081347595517 
-0.140355053656327 0.2105131234782672 -0.07412563878861393 -0.1059860282123077 -0.02232149922098672 
-0.01666920001869854 -0.02896126919881596 0.04740910118574548 -0.02636267799476225 -0.00725441968314157 
-0.1248920346356031 -0.01906427101154798 0.1536302819064916 -0.03053343978534793 -0.01170077523443169 
-0.1325726162867096 -0.09880836476241067 0.2290401400802128 -0.05321267615389436 -0.01114117369754034 
-0.2277556240988585 -0.3237165510606343 0.4919401859352526 -0.129405886233702 -0.005862986904821662 
-0.07345802954749611 -0.09018751994538959 0.1435366941910618 -0.02945601076976154 -0.009853177216693846 
-0.3548648280120421 0.3295030424033543 0.1241077966321513 -0.04992504652815687 -0.02663928425502544 
-0.003383530850547002 -0.006349998905400692 0.008423381372551955 -0.001887997367186261 -0.001238944939396367 
-0.06681103158231945 -0.003109062281269727 0.06304052754795539 -0.004169795966094196 -0.0003656921343891515 
-0.007238220632546633 -0.01052210023707866 0.01751558264752456 -0.008348106586405767 -0.0004479951515577699 
-0.05296333133654026 -0.05012196443684462 0.09227415086762966 -0.01546080442007479 -0.0004472398056806605 
-0.04818619649006473 -0.02775377137510823 0.09383388319269123 -0.01521002460934921 -0.0008987671333173067 
-0.1075543603631898 -0.03441928999532995 0.1579852533942357 -0.01559527811276795 -0.001411298197147915 
-0.1040905090126669 -0.05228570305532777 0.1157118323648522 -0.04605331946529519 -0.03714351565507162 
0.5932296937465044 -0.04046474092320539 -0.5540380937582315 -0.0596941491646563 -0.02883630071555469 
-0.2392034599164406 -0.3659320987814796 0.5477733775101324 -0.0993957117713186 -0.02305897903493438 
-0.3899475613147467 -0.2901593637528815 0.4046350744055003 -0.3204955949094154 -0.2008954247042186 
-0.4863079744526447 -0.344904834783022 0.7724906897376799 -0.6630427334606556 -0.1592196645941424 
-0.6018357971560252 -0.2729775965612327 0.7147245969793327 -0.3566772180664382 -0.2049398220097213 
-0.136288877199675 0.7776213899678615 -0.5939626947814265 -0.05344952840287159 -0.007020237536976544 
-0.005721218410245965 -0.02203245053043173 0.01445937818402072 -0.01130307860528426 -0.00514175430266258 
0.6964516799919644 -0.03514773671903195 -0.6550620565149819 -0.05588548411899279 -0.008321791235289916 
-0.00880532980716158 -0.00277047819553394 0.008751683669932862 -0.002694635654258809 -0.001318281739311922 
-0.001275214484618316 -0.00142771415680261 0.001390157003263571 -0.001974255178543117 -0.001187930728779975 
-0.001163099447885639 -0.005715928992322414 0.005026568334160887 -0.002533593851908293 -0.0004799966894531339 
-0.01225304838313626 -0.01263115680791289 0.01924022655240538 -0.01851448691300838 -0.02051025863266259 
-0.01894165973789303 -0.008024172766601863 0.0209261448066765 -0.008997164263936815 -0.006827851473814811 
