solver_type L2R_LR
nr_class 3
label 0 2 1
nr_feature 29085
bias -1
w
0 0 0 
0 0 0 
0 0 0 
0 0 0 
0 0 0 
0 0 0 
0 0 0 
0 0 0 
0 0 0 
0 0 0 
0 0 0 
0 0 0 
0 0 0 
0 0 0 
0 0 0 
0 0 0 
0 0 0 
0 0 0 
0 0 0 
0 0 0 
0 0 0 
0 0 0 
0 0 0 
0 0 0 
0 0 0 
0 0 0 
0 0 0 
0 0 0 
0 0 0 
0 0 0 
0 0 0 
-0.00277296645779216 0.005943548627647404 -0.0002615513539464011 
0 0 0 
0 0 0 
0 0 0 
0 0 0 
0 0 0 
0 0 0 
0 0 0 
0 0 0 
0 0 0 
0 0 0 
0 0 0 
0 0 0 
0 0 0 
0 0 0 
0 0 0 
0 0 0 
0 0 0 
0 0 0 
0 0 0 
0 0 0 
0 0 0 
0 0 0 
0 0 0 
0 0 0 
0 0 0 
0 0 0 
0 0 0 
0 0 0 
0 0 0 
0 0 0 
0 0 0 
0 0 0 
0 0 0 
0 0 0 
0 0 0 
-0.1194315452274006 0.1253771329465047 -0.07144595031052468 
0 0 0 
0 0 0 
0 0 0 
0 0 0 
0 0 0 
0 0 0 
0 0 0 
0 0 0 
0 0 0 
0 0 0 
-0.0005678970335905926 0.001399466037476905 -0.0001051347745334671 
0 0 0 
0 0 0 
0 0 0 
0 0 0 
0 0 0 
0 0 0 
0 0 0 
0 0 0 
-0.0005678970335905926 0.001399466037476905 -0.0001051347745334671 
0 0 0 
0 0 0 
0 0 0 
0 0 0 
0 0 0 
0 0 0 
0 0 0 
-0.001934072708520546 0.003709177382062318 -0.0002401572299109712 
0 0 0 
0 0 0 
0 0 0 
0 0 0 
0 0 0 
0 0 0 
0 0 0 
0 0 0 
0 0 0 
-0.01889438800004812 0.02413995823046036 -0.001914190799784124 
0 0 0 
0 0 0 
0 0 0 
-0.03174709360964931 0.03350030956630852 -0.02122854811832805 
0 0 0 
0 0 0 
0 0 0 
0 0 0 
0 0 0 
0 0 0 
0 0 0 
0 0 0 
0 0 0 
0 0 0 
0 0 0 
0 0 0 
0 0 0 
0 0 0 
0 0 0 
0 0 0 
0 0 0 
0 0 0 
0 0 0 
0 0 0 
0 0 0 
0 0 0 
0 0 0 
0 0 0 
0 0 0 
-0.006445704921805361 -0.06501463159710022 0.08404641054846472 
0 0 0 
0 0 0 
-0.03444299385226898 0.04179007534436925 -0.02553090153248652 
0 0 0 
0 0 0 
0 0 0 
0 0 0 
0 0 0 
0 0 0 
0 0 0 
0 0 0 
0 0 0 
0 0 0 
-0.05187519809772422 0.05819723128356878 -0.06312230392127101 
0 0 0 
0 0 0 
0 0 0 
0 0 0 
0 0 0 
0 0 0 
0 0 0 
0 0 0 
0 0 0 
-0.0575917446917666 0.06710195622300089 -0.0442530452111998 
0 0 0 
0 0 0 
-0.04186257137391872 0.03922871351702813 -0.03347843295120555 
0 0 0 
0 0 0 
0 0 0 
0 0 0 
0 0 0 
0 0 0 
0 0 0 
0 0 0 
0 0 0 
0 0 0 
0 0 0 
0 0 0 
0 0 0 
0 0 0 
0 0 0 
0 0 0 
0 0 0 
0 0 0 
0 0 0 
0 0 0 
0 0 0 
0 0 0 
0 0 0 
0 0 0 
0 0 0 
0 0 0 
0 0 0 
0 0 0 
0 0 0 
0 0 0 
0 0 0 
0 0 0 
0 0 0 
0 0 0 
0 0 0 
0 0 0 
0 0 0 
0 0 0 
0 0 0 
0 0 0 
0 0 0 
0 0 0 
0 0 0 
0 0 0 
0 0 0 
0 0 0 
0 0 0 
0 0 0 
0 0 0 
0 0 0 
0 0 0 
0 0 0 
-0.005628649855550383 0.01721241966246076 -0.008017392301325667 
0 0 0 
0 0 0 
0 0 0 
0 0 0 
0 0 0 
0 0 0 
0 0 0 
0 0 0 
0 0 0 
0 0 0 
0 0 0 
0 0 0 
0 0 0 
0 0 0 
0 0 0 
-0.01782915527870496 0.02155765112526932 -0.01321028034768931 
-0.03982111074671116 0.04233745307051318 -0.04113687358516886 
0 0 0 
0 0 0 
0 0 0 
0 0 0 
0 0 0 
0 0 0 
0 0 0 
0 0 0 
0 0 0 
0 0 0 
0 0 0 
0 0 0 
0 0 0 
-0.03183843550323338 0.03523868467479894 -0.01271164021407154 
0 0 0 
0 0 0 
0 0 0 
0 0 0 
0 0 0 
0 0 0 
0 0 0 
0 0 0 
0 0 0 
0 0 0 
0 0 0 
0 0 0 
0 0 0 
0 0 0 
0 0 0 
0 0 0 
0 0 0 
0 0 0 
0 0 0 
0 0 0 
0 0 0 
0 0 0 
0 0 0 
0 0 0 
0 0 0 
0 0 0 
0 0 0 
0 0 0 
0 0 0 
0 0 0 
0 0 0 
0 0 0 
-0.03527239060557363 0.04524521208239778 -0.01475960270957772 
0 0 0 
0 0 0 
0 0 0 
0 0 0 
0 0 0 
0 0 0 
0 0 0 
0 0 0 
0 0 0 
0 0 0 
0 0 0 
0 0 0 
0 0 0 
0 0 0 
0 0 0 
-0.01473647159561534 0.01567370573397854 -0.005112870805535007 
0 0 0 
0 0 0 
0 0 0 
0 0 0 
0 0 0 
-0.0007737248253044395 0.003388896521959947 -0.0001855230968380029 
0 0 0 
0 0 0 
0 0 0 
0 0 0 
0 0 0 
0 0 0 
0 0 0 
0 0 0 
0 0 0 
0 0 0 
0 0 0 
0 0 0 
0 0 0 
0 0 0 
0 0 0 
0 0 0 
0 0 0 
0 0 0 
0 0 0 
0 0 0 
0 0 0 
0 0 0 
0 0 0 
0 0 0 
0 0 0 
0 0 0 
0 0 0 
0 0 0 
0 0 0 
0 0 0 
0 0 0 
0 0 0 
0 0 0 
0 0 0 
0 0 0 
0 0 0 
0 0 0 
0 0 0 
0 0 0 
0 0 0 
0 0 0 
0 0 0 
0 0 0 
0 0 0 
0 0 0 
0 0 0 
0 0 0 
0 0 0 
0 0 0 
0 0 0 
0 0 0 
0 0 0 
0 0 0 
-0.01605781480015405 0.01941209389641644 -0.01291658147548412 
0 0 0 
0 0 0 
0 0 0 
0 0 0 
0 0 0 
0 0 0 
0 0 0 
0 0 0 
0 0 0 
0 0 0 
0 0 0 
0 0 0 
0 0 0 
0 0 0 
0 0 0 
0 0 0 
0 0 0 
0 0 0 
-0.009028705343252908 0.01595062983942533 -0.003360124131590979 
0 0 0 
0 0 0 
-0.000720539836677099 0.00339918457488763 -0.0007134635729130911 
0 0 0 
0 0 0 
0 0 0 
0 0 0 
0 0 0 
0 0 0 
0 0 0 
0 0 0 
0 0 0 
0 0 0 
0 0 0 
0 0 0 
0 0 0 
0 0 0 
0 0 0 
-0.03224758364577135 0.04080710148809161 -0.01904604834279109 
0 0 0 
0 0 0 
0 0 0 
0 0 0 
0 0 0 
0 0 0 
-0.03064389522811979 0.03646231004661139 -0.01444039593551496 
0 0 0 
0 0 0 
0 0 0 
0 0 0 
0 0 0 
0 0 0 
0.04132646890387396 -0.02171827613245824 -0.01383467084133526 
0 0 0 
0 0 0 
0 0 0 
0 0 0 
0 0 0 
0 0 0 
0 0 0 
0 0 0 
-0.0007737248253044395 0.003388896521959947 -0.0001855230968380029 
0 0 0 
-0.06347868264367731 0.08352520361020549 -0.05552624504144797 
0 0 0 
0 0 0 
0 0 0 
0 0 0 
0 0 0 
0 0 0 
0 0 0 
0 0 0 
0 0 0 
0 0 0 
0 0 0 
0 0 0 
-0.02000637864655134 0.02603122911624923 -0.01157328487596661 
0 0 0 
0 0 0 
0 0 0 
0 0 0 
0 0 0 
0 0 0 
0 0 0 
0 0 0 
0 0 0 
0 0 0 
0 0 0 
0 0 0 
0 0 0 
0 0 0 
0.05441109560169589 -0.1206501288647457 0.04135429607190241 
0 0 0 
0 0 0 
0 0 0 
0 0 0 
0 0 0 
0 0 0 
0 0 0 
0 0 0 
0 0 0 
0 0 0 
0 0 0 
0 0 0 
0 0 0 
0 0 0 
0 0 0 
0 0 0 
0 0 0 
0 0 0 
0 0 0 
0 0 0 
0 0 0 
-0.03626215104091842 0.04577180489619152 -0.03000525030231759 
0 0 0 
0 0 0 
-0.000720539836677099 0.00339918457488763 -0.0007134635729130911 
0 0 0 
0 0 0 
0 0 0 
0 0 0 
0 0 0 
0 0 0 
0 0 0 
0 0 0 
0 0 0 
0 0 0 
0 0 0 
-0.002857154898902919 0.006637344806933521 -2.550790185757665e-05 
0 0 0 
0 0 0 
0 0 0 
0 0 0 
0 0 0 
-0.01808663542145615 0.02885754748009719 -0.01496311169501834 
0 0 0 
0 0 0 
0 0 0 
-0.009545333342863276 0.01132945687557182 -0.002990142893285667 
0 0 0 
0 0 0 
0 0 0 
0 0 0 
0 0 0 
0 0 0 
0 0 0 
0 0 0 
-0.01315176768498321 0.04132908945393093 -0.108255164875851 
0 0 0 
0 0 0 
0 0 0 
-0.06807939406882199 0.06369396927676395 -0.04924041246739877 
0 0 0 
0 0 0 
0 0 0 
0 0 0 
0 0 0 
0 0 0 
0 0 0 
0 0 0 
0 0 0 
0 0 0 
0 0 0 
0 0 0 
0 0 0 
0 0 0 
0 0 0 
0 0 0 
0 0 0 
0 0 0 
-0.05217207062945554 0.06152661317588051 -0.04242718985937042 
0 0 0 
0 0 0 
0 0 0 
0 0 0 
0 0 0 
0 0 0 
-0.05061713005771375 0.0691817518798656 -0.04315790328372843 
0 0 0 
0 0 0 
0 0 0 
0 0 0 
0 0 0 
0 0 0 
0 0 0 
0 0 0 
0 0 0 
0 0 0 
0 0 0 
0 0 0 
0 0 0 
0 0 0 
0 0 0 
0 0 0 
0 0 0 
0 0 0 
0 0 0 
0 0 0 
0 0 0 
0 0 0 
0 0 0 
0 0 0 
0 0 0 
0 0 0 
-0.009290250891527484 0.0158229349473032 -0.004136133981004286 
-0.002857154898902919 0.006637344806933521 -2.550790185757665e-05 
0 0 0 
0 0 0 
-0.009028705343252908 0.01595062983942533 -0.003360124131590979 
0 0 0 
0 0 0 
0 0 0 
0 0 0 
0 0 0 
0 0 0 
0 0 0 
0 0 0 
0 0 0 
0 0 0 
0 0 0 
0 0 0 
-0.03274059154072477 -0.02594539688914333 0.04524955710772501 
0 0 0 
0 0 0 
0.07289513173354452 -0.05249862703186057 -0.0006595658780602725 
0 0 0 
0 0 0 
0 0 0 
0 0 0 
0 0 0 
0 0 0 
0 0 0 
0 0 0 
0 0 0 
0 0 0 
0 0 0 
0 0 0 
0 0 0 
0 0 0 
0 0 0 
0 0 0 
0 0 0 
0 0 0 
0.03208836748312908 -0.01361629204379479 -0.02246357681655289 
0 0 0 
0 0 0 
0 0 0 
0 0 0 
0 0 0 
0 0 0 
0 0 0 
-0.009218671379597521 -0.05907108296945281 0.08378485919451832 
0 0 0 
0 0 0 
0 0 0 
0 0 0 
0 0 0 
0 0 0 
-0.02764520335710467 0.03203453737930355 -0.02037624095584088 
0 0 0 
0 0 0 
0 0 0 
0 0 0 
0 0 0 
0 0 0 
0 0 0 
0 0 0 
0 0 0 
-0.03341686168591196 0.04240585867425879 -0.01470194728946136 
0 0 0 
0 0 0 
-0.001771340478550915 0.002145557228852874 -0.000293698872205185 
0 0 0 
0 0 0 
-0.04227958477459758 0.06482405915344557 -0.03170213783582294 
0 0 0 
0 0 0 
0 0 0 
0 0 0 
-0.04204053400986655 0.04311526961480421 -0.04351768571415701 
0 0 0 
0 0 0 
0 0 0 
0 0 0 
0 0 0 
0 0 0 
0 0 0 
0 0 0 
0 0 0 
0 0 0 
0 0 0 
0 0 0 
0 0 0 
0 0 0 
0 0 0 
0 0 0 
-0.01823503816800042 0.02388567188739635 -0.01127958600376143 
0 0 0 
0 0 0 
-0.002857154898902919 0.006637344806933521 -2.550790185757665e-05 
0 0 0 
0 0 0 
-0.1206004294261896 0.08129811828758148 -0.01485821471682398 
0 0 0 
0 0 0 
0 0 0 
0 0 0 
-0.001771340478550915 0.002145557228852874 -0.000293698872205185 
0 0 0 
0 0 0 
-0.003346535002260193 0.007811603095517497 -0.0002855575925675075 
0 0 0 
-0.02070220178556529 0.03188004250219995 -0.01660756981068178 
0 0 0 
0 0 0 
0 0 0 
0 0 0 
-0.000720539836677099 0.00339918457488763 -0.0007134635729130911 
0 0 0 
0 0 0 
0 0 0 
0 0 0 
0 0 0 
0 0 0 
0 0 0 
0 0 0 
-0.06203030404370252 0.06949587145006826 -0.0588960042960317 
0 0 0 
-0.002857154898902919 0.006637344806933521 -2.550790185757665e-05 
-0.04653959135715279 0.0561744956097639 -0.02229043175562501 
0 0 0 
0 0 0 
0 0 0 
-0.0005678970335905926 0.001399466037476905 -0.0001051347745334671 
0 0 0 
0 0 0 
0 0 0 
0 0 0 
0 0 0 
0 0 0 
0 0 0 
0 0 0 
0 0 0 
0 0 0 
0 0 0 
0 0 0 
0 0 0 
0 0 0 
0 0 0 
0 0 0 
0 0 0 
0 0 0 
0 0 0 
0 0 0 
0 0 0 
0 0 0 
0 0 0 
0 0 0 
0 0 0 
0 0 0 
0 0 0 
0 0 0 
0.07487549106087477 -0.05800051878279266 -0.000509030740870269 
0 0 0 
0 0 0 
0 0 0 
0 0 0 
-0.009545333342863276 0.01132945687557182 -0.002990142893285667 
0 0 0 
0 0 0 
0 0 0 
-0.01473647159561534 0.01567370573397854 -0.005112870805535007 
0 0 0 
0.1013996603256099 -0.09096529594657995 -0.01309905077331454 
0 0 0 
0 0 0 
0.141813513218338 -0.1330544074708739 -0.01679255695439852 
0 0 0 
0 0 0 
-0.001771340478550915 0.002145557228852874 -0.000293698872205185 
0 0 0 
0 0 0 
0 0 0 
0 0 0 
0 0 0 
0 0 0 
0 0 0 
0 0 0 
0 0 0 
0 0 0 
0 0 0 
0 0 0 
0 0 0 
0 0 0 
0 0 0 
0 0 0 
0 0 0 
0 0 0 
0 0 0 
0 0 0 
0 0 0 
0 0 0 
0 0 0 
0 0 0 
-0.006445704921805361 -0.06501463159710022 0.08404641054846472 
-0.001412462293739648 0.004102425713455178 -4.54003626565363e-05 
0 0 0 
0.1150495584704072 -0.09249964417381232 -0.05624537033521679 
0 0 0 
0 0 0 
0 0 0 
0 0 0 
0 0 0 
0 0 0 
0 0 0 
0 0 0 
0 0 0 
-0.04088117184625938 -0.09564010213264658 0.1217048376945486 
0 0 0 
0 0 0 
0 0 0 
0 0 0 
0 0 0 
0 0 0 
0 0 0 
0 0 0 
0 0 0 
0 0 0 
0 0 0 
0 0 0 
0 0 0 
0 0 0 
0 0 0 
0 0 0 
-0.06766302393797588 0.07003663162014659 -0.04802274975805924 
0 0 0 
-0.107947364870428 0.09900052465621285 -0.0862740358413841 
0 0 0 
0 0 0 
0 0 0 
0 0 0 
0 0 0 
0.07487549106087477 -0.05800051878279266 -0.000509030740870269 
0 0 0 
0 0 0 
0 0 0 
0 0 0 
0 0 0 
0 0 0 
0 0 0 
0 0 0 
0 0 0 
0 0 0 
0 0 0 
0 0 0 
0 0 0 
0 0 0 
0 0 0 
0 0 0 
0 0 0 
0 0 0 
0.07382825603915884 -0.07616023443489219 -0.01870075584728534 
0 0 0 
0 0 0 
0 0 0 
0 0 0 
0 0 0 
0 0 0 
0 0 0 
0 0 0 
0 0 0 
0 0 0 
-0.01343622798071366 0.02829484121565161 -0.01779051735377106 
0 0 0 
0 0 0 
0 0 0 
0 0 0 
0 0 0 
0 0 0 
0 0 0 
0 0 0 
-0.009545333342863276 0.01132945687557182 -0.002990142893285667 
0 0 0 
0 0 0 
0 0 0 
0 0 0 
-0.03284678390487014 0.03236590794280773 -0.02564291396773465 
0 0 0 
0 0 0 
0 0 0 
0 0 0 
0 0 0 
0 0 0 
0 0 0 
0 0 0 
0 0 0 
0 0 0 
0 0 0 
0 0 0 
0 0 0 
0 0 0 
0 0 0 
0 0 0 
0 0 0 
0 0 0 
0 0 0 
0 0 0 
0 0 0 
0 0 0 
0 0 0 
-0.001934072708520546 0.003709177382062318 -0.0002401572299109712 
0 0 0 
0 0 0 
0 0 0 
0 0 0 
0 0 0 
0 0 0 
0 0 0 
0 0 0 
0 0 0 
0 0 0 
0 0 0 
0 0 0 
0 0 0 
0 0 0 
0 0 0 
0 0 0 
0 0 0 
0 0 0 
0 0 0 
0 0 0 
-0.001412462293739648 0.004102425713455178 -4.54003626565363e-05 
0 0 0 
0 0 0 
0 0 0 
0 0 0 
0 0 0 
0 0 0 
0 0 0 
0 0 0 
0 0 0 
-0.00277296645779216 0.005943548627647404 -0.0002615513539464011 
0.05167381434303295 -0.03368568609979064 -0.02514442568289148 
-0.0419374671422563 0.05393562884750284 -0.04101854454757608 
0 0 0 
0 0 0 
0 0 0 
0 0 0 
0 0 0 
0 0 0 
0 0 0 
0 0 0 
0.02983839784330048 0.002338593070996424 -0.02294995027219432 
0 0 0 
0.01831745783880558 0.004643568682363871 -0.03796611454479804 
0 0 0 
0 0 0 
0 0 0 
0 0 0 
0 0 0 
0 0 0 
0 0 0 
0 0 0 
0 0 0 
-0.1954344498578042 -0.02050977011864999 0.1025389631248365 
0 0 0 
0 0 0 
0 0 0 
0 0 0 
0 0 0 
0 0 0 
0 0 0 
0 0 0 
0 0 0 
0 0 0 
0.07454879587583595 -0.07955941900977982 -0.01798729227437224 
0 0 0 
0 0 0 
0 0 0 
0 0 0 
0 0 0 
0.07551406590502673 -0.01662400262286268 -0.1102885632732355 
0 0 0 
0 0 0 
-0.1233461198437522 0.155981195836412 -0.1227499183408595 
0 0 0 
0 0 0 
0 0 0 
0 0 0 
0 0 0 
0 0 0 
-0.1634446612911236 0.2077138901056209 -0.1755552820908411 
0 0 0 
0 0 0 
0 0 0 
0 0 0 
0 0 0 
0 0 0 
-0.009545333342863276 0.01132945687557182 -0.002990142893285667 
0 0 0 
0 0 0 
0 0 0 
0 0 0 
0 0 0 
0 0 0 
0 0 0 
0 0 0 
0 0 0 
0 0 0 
0 0 0 
0 0 0 
0 0 0 
0 0 0 
0 0 0 
0 0 0 
-0.0438532420732274 0.05944011616912369 -0.03514276541738216 
0 0 0 
0 0 0 
0 0 0 
0 0 0 
0 0 0 
0 0 0 
0 0 0 
0 0 0 
0 0 0 
0 0 0 
0 0 0 
0 0 0 
0 0 0 
0 0 0 
0 0 0 
0 0 0 
0 0 0 
0 0 0 
0 0 0 
0 0 0 
0 0 0 
0 0 0 
0 0 0 
0 0 0 
0 0 0 
0 0 0 
0 0 0 
0 0 0 
0 0 0 
0 0 0 
0 0 0 
-0.03224758364577135 0.04080710148809161 -0.01904604834279109 
0 0 0 
0 0 0 
0 0 0 
0 0 0 
0 0 0 
0 0 0 
0 0 0 
0 0 0 
0 0 0 
0 0 0 
0 0 0 
0 0 0 
0 0 0 
0 0 0 
0 0 0 
0 0 0 
0.141813513218338 -0.1330544074708739 -0.01679255695439852 
0 0 0 
0 0 0 
0 0 0 
-0.02615275515761943 -0.03976429204311697 0.06284638855931235 
0 0 0 
0 0 0 
0 0 0 
0 0 0 
0 0 0 
0 0 0 
0 0 0 
0 0 0 
0 0 0 
0 0 0 
0 0 0 
0 0 0 
0 0 0 
0 0 0 
0 0 0 
0 0 0 
0 0 0 
0 0 0 
0 0 0 
0 0 0 
0 0 0 
-0.02941654383565559 0.03418009460815642 -0.02066993982804607 
0 0 0 
0 0 0 
0 0 0 
0 0 0 
0 0 0 
0 0 0 
0 0 0 
0 0 0 
0 0 0 
0 0 0 
0 0 0 
0 0 0 
0 0 0 
0 0 0 
0 0 0 
0 0 0 
0 0 0 
0 0 0 
0 0 0 
0 0 0 
0 0 0 
0 0 0 
0 0 0 
0 0 0 
0 0 0 
0 0 0 
0 0 0 
0 0 0 
0 0 0 
0 0 0 
0 0 0 
0 0 0 
0 0 0 
0 0 0 
0 0 0 
0 0 0 
-0.001771340478550915 0.002145557228852874 -0.000293698872205185 
0 0 0 
0 0 0 
0.07187518227444777 -0.07533119342184981 -0.0361130423330674 
0 0 0 
0 0 0 
0 0 0 
0 0 0 
0 0 0 
0 0 0 
0 0 0 
0 0 0 
-0.0005678970335905926 0.001399466037476905 -0.0001051347745334671 
0 0 0 
0 0 0 
0 0 0 
0 0 0 
0 0 0 
0 0 0 
0 0 0 
0 0 0 
0 0 0 
0 0 0 
0 0 0 
0 0 0 
0 0 0 
0 0 0 
0 0 0 
0 0 0 
0 0 0 
0 0 0 
0 0 0 
0 0 0 
0 0 0 
0 0 0 
0 0 0 
0 0 0 
0 0 0 
0 0 0 
0 0 0 
0 0 0 
0 0 0 
0 0 0 
0 0 0 
0 0 0 
0 0 0 
0 0 0 
0 0 0 
0 0 0 
0 0 0 
-0.01605781480015405 0.01941209389641644 -0.01291658147548412 
0 0 0 
0 0 0 
0 0 0 
0 0 0 
0 0 0 
0 0 0 
0 0 0 
0 0 0 
0 0 0 
0 0 0 
0 0 0 
0 0 0 
0 0 0 
0 0 0 
0 0 0 
0 0 0 
0 0 0 
0 0 0 
0 0 0 
0 0 0 
0 0 0 
0 0 0 
0 0 0 
0 0 0 
0 0 0 
0 0 0 
0 0 0 
0 0 0 
0 0 0 
0 0 0 
0 0 0 
0 0 0 
0 0 0 
0 0 0 
0 0 0 
0 0 0 
0 0 0 
-0.001934072708520546 0.003709177382062318 -0.0002401572299109712 
0 0 0 
0 0 0 
0 0 0 
0 0 0 
0 0 0 
0 0 0 
0 0 0 
0 0 0 
0 0 0 
0 0 0 
-0.02833936111308925 0.03052215979344581 -0.02006288032876176 
0 0 0 
0 0 0 
0 0 0 
0 0 0 
0 0 0 
0 0 0 
0 0 0 
0 0 0 
0 0 0 
0 0 0 
0 0 0 
0 0 0 
0 0 0 
0 0 0 
0 0 0 
0 0 0 
0 0 0 
0 0 0 
0 0 0 
0 0 0 
0 0 0 
0 0 0 
0 0 0 
0 0 0 
0 0 0 
0 0 0 
0 0 0 
0 0 0 
0 0 0 
0 0 0 
0 0 0 
0 0 0 
0 0 0 
-0.02870338792638321 0.04745605437855696 -0.1338682978383088 
0 0 0 
0 0 0 
0 0 0 
0 0 0 
0 0 0 
0 0 0 
0 0 0 
-0.03506795513866238 0.04659429476312824 -0.04198624217289786 
0 0 0 
0 0 0 
0 0 0 
0 0 0 
0 0 0 
0.07454879587583595 -0.07955941900977982 -0.01798729227437224 
0 0 0 
0 0 0 
0 0 0 
0 0 0 
0 0 0 
0 0 0 
-0.0005678970335905926 0.001399466037476905 -0.0001051347745334671 
0 0 0 
0 0 0 
0 0 0 
0 0 0 
0 0 0 
0 0 0 
0 0 0 
0 0 0 
0 0 0 
-0.003425051932493511 0.008036810844410425 -0.0001306426763910438 
0 0 0 
0 0 0 
0 0 0 
0 0 0 
0 0 0 
0 0 0 
0 0 0 
0 0 0 
0 0 0 
0 0 0 
0 0 0 
0 0 0 
-0.06985073454737291 0.06583952650561682 -0.04953411133960395 
-0.03224758364577135 0.04080710148809161 -0.01904604834279109 
0 0 0 
0 0 0 
0 0 0 
0 0 0 
0 0 0 
0 0 0 
0 0 0 
0 0 0 
0 0 0 
0 0 0 
0 0 0 
0 0 0 
0 0 0 
0 0 0 
0 0 0 
0 0 0 
0 0 0 
0 0 0 
0 0 0 
0 0 0 
-0.05473235299662714 0.0648345760905023 -0.06314781182312859 
-0.06775148242658434 0.01724414449270282 0.01961352080070503 
0 0 0 
0 0 0 
0 0 0 
0 0 0 
-0.005628649855550383 0.01721241966246076 -0.008017392301325667 
0 0 0 
0 0 0 
0 0 0 
0 0 0 
0 0 0 
0.07454879587583595 -0.07955941900977982 -0.01798729227437224 
0 0 0 
0 0 0 
0 0 0 
0 0 0 
0 0 0 
0 0 0 
0 0 0 
0 0 0 
0 0 0 
0 0 0 
0 0 0 
0 0 0 
0 0 0 
-0.000720539836677099 0.00339918457488763 -0.0007134635729130911 
0 0 0 
0 0 0 
0 0 0 
0 0 0 
0 0 0 
0 0 0 
0 0 0 
-0.000720539836677099 0.00339918457488763 -0.0007134635729130911 
0 0 0 
0 0 0 
0 0 0 
0 0 0 
0 0 0 
0 0 0 
0 0 0 
-0.009545333342863276 0.01132945687557182 -0.002990142893285667 
0 0 0 
-0.03064389522811979 0.03646231004661139 -0.01444039593551496 
0 0 0 
-0.01808663542145615 0.02885754748009719 -0.01496311169501834 
0 0 0 
0 0 0 
-0.1610014473122311 0.1876935691541946 -0.149639081921248 
0 0 0 
0 0 0 
-0.02576610977113476 0.03411327307359365 -0.02428436117906094 
-0.02545805142012037 -0.04113153855282523 0.06594503131130144 
-0.06194293894458005 0.0804634032022801 -0.05276454567614685 
0 0 0 
0.05392980324760346 -0.1185332189723408 0.0489806674428063 
0 0 0 
0 0 0 
-0.001412462293739648 0.004102425713455178 -4.54003626565363e-05 
0.05212967350756183 -0.0174416205939457 -0.1146216596687973 
0 0 0 
0 0 0 
0 0 0 
0 0 0 
0 0 0 
0 0 0 
0 0 0 
0 0 0 
0 0 0 
0 0 0 
0 0 0 
0 0 0 
0 0 0 
0 0 0 
0 0 0 
0 0 0 
0 0 0 
-0.03064389522811979 0.03646231004661139 -0.01444039593551496 
0 0 0 
0 0 0 
0 0 0 
0 0 0 
0 0 0 
0 0 0 
-0.009410248220958419 0.01765004082475443 -0.009611863884895641 
0 0 0 
0 0 0 
0 0 0 
-0.002857154898902919 0.006637344806933521 -2.550790185757665e-05 
0 0 0 
0 0 0 
0 0 0 
0 0 0 
0 0 0 
0 0 0 
0 0 0 
0 0 0 
0 0 0 
0 0 0 
0 0 0 
0 0 0 
0 0 0 
0 0 0 
0 0 0 
0 0 0 
0 0 0 
-0.02327838018594743 0.038014338929745 -0.01153601736511354 
0 0 0 
0 0 0 
0 0 0 
0 0 0 
0 0 0 
0 0 0 
0.06273226271124888 -0.05007860209040618 -0.008023180881037931 
0 0 0 
0 0 0 
0 0 0 
0 0 0 
0 0 0 
0 0 0 
0 0 0 
0 0 0 
0 0 0 
0 0 0 
0 0 0 
0 0 0 
0 0 0 
0 0 0 
-0.03291480079821717 0.0397733533731969 -0.01741903061123217 
-0.009410248220958419 0.01765004082475443 -0.009611863884895641 
0 0 0 
0 0 0 
0 0 0 
0 0 0 
0 0 0 
0 0 0 
0 0 0 
0 0 0 
0 0 0 
0 0 0 
0 0 0 
0 0 0 
0 0 0 
0 0 0 
0 0 0 
0 0 0 
0 0 0 
0 0 0 
0 0 0 
0 0 0 
0 0 0 
0 0 0 
0 0 0 
0 0 0 
0 0 0 
0 0 0 
0.151584423862355 -0.1442690972488511 -0.09682982917022399 
0 0 0 
-0.001412462293739648 0.004102425713455178 -4.54003626565363e-05 
0 0 0 
0 0 0 
0 0 0 
0 0 0 
0 0 0 
0 0 0 
0 0 0 
0 0 0 
0 0 0 
0 0 0 
0 0 0 
0 0 0 
0 0 0 
0 0 0 
0 0 0 
0 0 0 
0 0 0 
0 0 0 
0 0 0 
0 0 0 
0 0 0 
0 0 0 
0 0 0 
0 0 0 
0 0 0 
0 0 0 
0 0 0 
-0.04132687916618626 0.0533588169325624 -0.03902176930272414 
0 0 0 
0 0 0 
0 0 0 
-0.005628649855550383 0.01721241966246076 -0.008017392301325667 
0 0 0 
0 0 0 
0 0 0 
0 0 0 
0 0 0 
0 0 0 
0 0 0 
0 0 0 
0 0 0 
0 0 0 
-0.08990086739067195 0.1033708667394198 -0.0753672211414865 
0 0 0 
-0.02988861185686076 0.03070682402119623 -0.02873296364626783 
0 0 0 
0 0 0 
0 0 0 
-0.01808663542145615 0.02885754748009719 -0.01496311169501834 
0 0 0 
0 0 0 
0 0 0 
0 0 0 
0 0 0 
0 0 0 
0 0 0 
0 0 0 
0 0 0 
0 0 0 
0 0 0 
0 0 0 
0 0 0 
0 0 0 
0 0 0 
0 0 0 
0 0 0 
0 0 0 
0 0 0 
0 0 0 
0 0 0 
0 0 0 
0 0 0 
0 0 0 
0 0 0 
0 0 0 
0 0 0 
0 0 0 
0 0 0 
0 0 0 
0 0 0 
0 0 0 
0 0 0 
0 0 0 
0 0 0 
0 0 0 
0 0 0 
0 0 0 
0 0 0 
0 0 0 
0 0 0 
-0.0696259201212673 0.07672106114795967 -0.05406206437780065 
0 0 0 
0 0 0 
0 0 0 
0 0 0 
0 0 0 
0 0 0 
0 0 0 
0 0 0 
0 0 0 
0 0 0 
0 0 0 
0 0 0 
0 0 0 
0 0 0 
-0.2520211407094735 -0.04708641005638619 0.06149824534075993 
0 0 0 
0 0 0 
0 0 0 
0 0 0 
0 0 0 
0 0 0 
0 0 0 
0 0 0 
0 0 0 
0.07367238475463728 -0.06752911400813169 -0.06315893759951802 
0 0 0 
0 0 0 
-0.01082271051469807 0.02175246653820961 -0.009657264247552179 
0 0 0 
0 0 0 
0 0 0 
0 0 0 
0 0 0 
0 0 0 
0 0 0 
0 0 0 
0 0 0 
0 0 0 
0 0 0 
-0.0509519512386913 0.0519288244611361 -0.03903785429730897 
0 0 0 
0 0 0 
0 0 0 
0 0 0 
0 0 0 
0 0 0 
-0.02070220178556529 0.03188004250219995 -0.01660756981068178 
0 0 0 
-0.03016260287402736 0.03434540015420644 -0.02206676730641885 
-0.006893657410018406 0.02664245905755349 -0.06208524525883859 
0 0 0 
0 0 0 
0 0 0 
0 0 0 
0 0 0 
0 0 0 
0 0 0 
0 0 0 
0 0 0 
0 0 0 
0 0 0 
0 0 0 
-0.02612218293837506 -0.01015141513798538 0.01111836935997784 
0 0 0 
0 0 0 
0 0 0 
0 0 0 
0 0 0 
0 0 0 
0 0 0 
0 0 0 
0 0 0 
0 0 0 
0 0 0 
0 0 0 
0 0 0 
0 0 0 
0 0 0 
0 0 0 
0 0 0 
-0.01889438800004812 0.02413995823046036 -0.001914190799784124 
0 0 0 
0 0 0 
0.0662797227567912 -0.0398686852542766 -0.07851650290203011 
0 0 0 
0 0 0 
0 0 0 
0 0 0 
0 0 0 
0 0 0 
0 0 0 
0 0 0 
-0.001412462293739648 0.004102425713455178 -4.54003626565363e-05 
0 0 0 
0 0 0 
0 0 0 
0 0 0 
0 0 0 
0 0 0 
-0.01082271051469807 0.02175246653820961 -0.009657264247552179 
0 0 0 
0 0 0 
0 0 0 
0 0 0 
0 0 0 
0 0 0 
0.0289070328472403 0.003167426669186737 -0.02835986505977605 
0 0 0 
0 0 0 
0 0 0 
-0.02763196876431943 0.04018700435566901 -0.01795325458830401 
0 0 0 
0 0 0 
0 0 0 
0 0 0 
0 0 0 
0 0 0 
0 0 0 
-0.0400988058594955 0.05957330304221684 -0.1025349905131103 
0 0 0 
0 0 0 
0 0 0 
0 0 0 
0 0 0 
0 0 0 
0 0 0 
0 0 0 
0 0 0 
0 0 0 
0 0 0 
0 0 0 
0 0 0 
0 0 0 
0 0 0 
0 0 0 
0 0 0 
0 0 0 
0 0 0 
0 0 0 
0 0 0 
0 0 0 
0 0 0 
0 0 0 
0 0 0 
0 0 0 
0 0 0 
0 0 0 
0 0 0 
0 0 0 
0 0 0 
0 0 0 
0 0 0 
-0.02705642318577912 0.03689975266100705 -0.02546039343084478 
0 0 0 
0 0 0 
0 0 0 
0 0 0 
0 0 0 
0 0 0 
0 0 0 
0 0 0 
0 0 0 
0 0 0 
0 0 0 
0 0 0 
-0.03517214554214282 0.04153712041071894 -0.02135919079471909 
0.07367238475463728 -0.06752911400813169 -0.06315893759951802 
0 0 0 
0 0 0 
0 0 0 
0 0 0 
0 0 0 
0 0 0 
0 0 0 
0 0 0 
0 0 0 
0 0 0 
0 0 0 
0 0 0 
0 0 0 
-0.006445704921805361 -0.06501463159710022 0.08404641054846472 
0 0 0 
-0.06834094326830009 0.03242359683053879 -0.1172214031036635 
0 0 0 
0 0 0 
-0.0419374671422563 0.05393562884750284 -0.04101854454757608 
0 0 0 
0 0 0 
0.07487549106087477 -0.05800051878279266 -0.000509030740870269 
0 0 0 
0 0 0 
0 0 0 
0 0 0 
0 0 0 
0 0 0 
0 0 0 
0 0 0 
0 0 0 
0 0 0 
0 0 0 
0 0 0 
0 0 0 
0 0 0 
0 0 0 
0 0 0 
0 0 0 
0 0 0 
0 0 0 
0 0 0 
0 0 0 
0 0 0 
-0.02545805142012037 -0.04113153855282523 0.06594503131130144 
0 0 0 
0 0 0 
-0.02070220178556529 0.03188004250219995 -0.01660756981068178 
0 0 0 
0 0 0 
0 0 0 
0 0 0 
0 0 0 
0 0 0 
0.0189281415816882 -0.08634555740839861 0.02589097173051036 
0 0 0 
0 0 0 
0 0 0 
-0.0309363276993318 0.03773429667616638 -0.02225229040325685 
0.07487549106087477 -0.05800051878279266 -0.000509030740870269 
0 0 0 
0 0 0 
0 0 0 
-0.03064389522811979 0.03646231004661139 -0.01444039593551496 
0 0 0 
0 0 0 
0 0 0 
0 0 0 
0 0 0 
0 0 0 
0 0 0 
0 0 0 
0 0 0 
0 0 0 
0 0 0 
0 0 0 
0 0 0 
0 0 0 
0 0 0 
0 0 0 
0 0 0 
-0.03982111074671116 0.04233745307051318 -0.04113687358516886 
0 0 0 
0 0 0 
0 0 0 
0 0 0 
0 0 0 
0 0 0 
0 0 0 
0 0 0 
0 0 0 
0 0 0 
0 0 0 
0 0 0 
0 0 0 
0.0892480629189777 -0.08783534019299909 -0.02091904604234864 
0 0 0 
0 0 0 
0 0 0 
0 0 0 
0 0 0 
0 0 0 
0 0 0 
0 0 0 
0 0 0 
0 0 0 
0 0 0 
0 0 0 
0 0 0 
0 0 0 
0 0 0 
0 0 0 
0 0 0 
0 0 0 
0 0 0 
0 0 0 
0 0 0 
0 0 0 
0 0 0 
0 0 0 
0 0 0 
0 0 0 
0 0 0 
0 0 0 
0 0 0 
0 0 0 
-0.1044517318437041 0.1318412376059516 -0.1208357275410753 
-0.1806789553521031 0.1874953965129616 -0.162301461535238 
0 0 0 
0.05370355736799597 -0.03412797225098085 -0.01138330501262891 
0 0 0 
0 0 0 
0 0 0 
-0.000720539836677099 0.00339918457488763 -0.0007134635729130911 
0 0 0 
0 0 0 
0 0 0 
0 0 0 
0 0 0 
0 0 0 
0 0 0 
0 0 0 
0 0 0 
0 0 0 
-0.0005678970335905926 0.001399466037476905 -0.0001051347745334671 
0 0 0 
0 0 0 
0 0 0 
0 0 0 
0 0 0 
0 0 0 
0 0 0 
0 0 0 
0 0 0 
0 0 0 
0 0 0 
0 0 0 
-0.01889438800004812 0.02413995823046036 -0.001914190799784124 
0 0 0 
-0.001771340478550915 0.002145557228852874 -0.000293698872205185 
0 0 0 
0 0 0 
0 0 0 
0 0 0 
0 0 0 
0 0 0 
0 0 0 
0 0 0 
0 0 0 
0 0 0 
0 0 0 
0 0 0 
0 0 0 
0 0 0 
0 0 0 
-0.006445704921805361 -0.06501463159710022 0.08404641054846472 
0 0 0 
0 0 0 
0 0 0 
0 0 0 
0 0 0 
0 0 0 
0 0 0 
0 0 0 
0 0 0 
0 0 0 
0 0 0 
0 0 0 
-0.05112053164209593 -0.07969079130525557 0.08753600184784678 
-0.000720539836677099 0.00339918457488763 -0.0007134635729130911 
0 0 0 
0 0 0 
-0.04232504901917559 0.05742339419795133 -0.02703089449612781 
0 0 0 
0 0 0 
0 0 0 
0 0 0 
0 0 0 
0 0 0 
-0.02764520335710467 0.03203453737930355 -0.02037624095584088 
0 0 0 
0 0 0 
0 0 0 
0 0 0 
0 0 0 
0 0 0 
0 0 0 
0 0 0 
0 0 0 
0 0 0 
0 0 0 
0 0 0 
-0.02180279669057433 0.06440408896166235 -0.1383595095243932 
0 0 0 
0 0 0 
0 0 0 
0 0 0 
0 0 0 
0 0 0 
0 0 0 
0 0 0 
0 0 0 
0 0 0 
0 0 0 
0 0 0 
-0.0682719050089943 0.0678856168185805 -0.04474493092304206 
0 0 0 
0 0 0 
0 0 0 
0 0 0 
0 0 0 
0 0 0 
0 0 0 
0 0 0 
0 0 0 
0 0 0 
0 0 0 
0 0 0 
-0.001771340478550915 0.002145557228852874 -0.000293698872205185 
0 0 0 
0 0 0 
0 0 0 
0 0 0 
0 0 0 
0 0 0 
0 0 0 
0 0 0 
0 0 0 
0 0 0 
0 0 0 
0 0 0 
0 0 0 
0 0 0 
0 0 0 
0 0 0 
0 0 0 
-0.05112053164209593 -0.07969079130525557 0.08753600184784678 
0 0 0 
-0.012715302824021 0.02385974579171363 -0.00426677665739533 
0 0 0 
-0.01343622798071366 0.02829484121565161 -0.01779051735377106 
0 0 0 
0 0 0 
0 0 0 
0 0 0 
0 0 0 
0 0 0 
0 0 0 
0 0 0 
0 0 0 
0 0 0 
0 0 0 
0 0 0 
0 0 0 
0 0 0 
0 0 0 
0 0 0 
0 0 0 
0 0 0 
0 0 0 
0 0 0 
0 0 0 
0 0 0 
0 0 0 
0 0 0 
-0.0005678970335905926 0.001399466037476905 -0.0001051347745334671 
0 0 0 
-0.1842932525353477 0.1786533767671536 -0.1439881138012817 
0 0 0 
0 0 0 
0 0 0 
0.03650624966459961 -0.06673349600947523 0.03672313406552907 
0.03385127400792611 -0.02519166093761851 -0.1042958111846869 
0 0 0 
0 0 0 
-0.03982111074671116 0.04233745307051318 -0.04113687358516886 
0 0 0 
-0.03444299385226898 0.04179007534436925 -0.02553090153248652 
0 0 0 
0 0 0 
0 0 0 
0 0 0 
0 0 0 
0 0 0 
0 0 0 
0 0 0 
0 0 0 
0 0 0 
0 0 0 
0 0 0 
0 0 0 
-0.009028705343252908 0.01595062983942533 -0.003360124131590979 
0 0 0 
0 0 0 
0 0 0 
0 0 0 
0 0 0 
0 0 0 
0 0 0 
0 0 0 
0 0 0 
0 0 0 
0 0 0 
0 0 0 
0 0 0 
0 0 0 
0 0 0 
-0.02833936111308925 0.03052215979344581 -0.02006288032876176 
0 0 0 
0 0 0 
0 0 0 
0 0 0 
0 0 0 
0 0 0 
0 0 0 
-0.06690604626903822 0.0822341149428029 -0.04444564623783255 
0 0 0 
0 0 0 
-0.1016198284471197 0.1297327244400096 -0.07358778526569043 
0 0 0 
0 0 0 
0 0 0 
0 0 0 
0 0 0 
0 0 0 
0 0 0 
0 0 0 
0 0 0 
0 0 0 
0 0 0 
0 0 0 
0 0 0 
-0.001288436870267692 0.004798650612364535 -0.0008185983474465582 
0 0 0 
0 0 0 
0 0 0 
0 0 0 
0 0 0 
0 0 0 
0 0 0 
0 0 0 
0 0 0 
0 0 0 
0 0 0 
0 0 0 
0 0 0 
0 0 0 
0 0 0 
0 0 0 
0 0 0 
-0.03224758364577135 0.04080710148809161 -0.01904604834279109 
0 0 0 
0 0 0 
0 0 0 
0 0 0 
0 0 0 
0 0 0 
0 0 0 
0 0 0 
0 0 0 
0 0 0 
0 0 0 
0 0 0 
0 0 0 
0 0 0 
0 0 0 
0 0 0 
0 0 0 
0 0 0 
0 0 0 
0 0 0 
0 0 0 
-0.01889438800004812 0.02413995823046036 -0.001914190799784124 
0 0 0 
0 0 0 
0 0 0 
0 0 0 
0 0 0 
0 0 0 
0 0 0 
0 0 0 
0 0 0 
0 0 0 
0 0 0 
0 0 0 
0 0 0 
0 0 0 
0 0 0 
0 0 0 
0 0 0 
0 0 0 
0 0 0 
0 0 0 
0 0 0 
0 0 0 
0 0 0 
0 0 0 
0 0 0 
0.1013996603256099 -0.09096529594657995 -0.01309905077331454 
0 0 0 
0 0 0 
0 0 0 
0 0 0 
0 0 0 
0 0 0 
0 0 0 
0 0 0 
-0.005628649855550383 0.01721241966246076 -0.008017392301325667 
0 0 0 
0 0 0 
0 0 0 
0 0 0 
0 0 0 
0 0 0 
0 0 0 
0 0 0 
0 0 0 
0 0 0 
0 0 0 
0 0 0 
-0.0005678970335905926 0.001399466037476905 -0.0001051347745334671 
0 0 0 
0 0 0 
-0.000720539836677099 0.00339918457488763 -0.0007134635729130911 
0 0 0 
0 0 0 
0 0 0 
0 0 0 
0 0 0 
0 0 0 
0 0 0 
0 0 0 
0 0 0 
0 0 0 
0 0 0 
0 0 0 
-0.1239073945971771 -0.1650162426791375 0.2005186057734003 
0 0 0 
0 0 0 
0 0 0 
-0.05561952090654042 0.07245238214139825 -0.06325598009297394 
0 0 0 
0 0 0 
0 0 0 
0 0 0 
0 0 0 
0 0 0 
0 0 0 
0 0 0 
0 0 0 
0 0 0 
0 0 0 
-0.001934072708520546 0.003709177382062318 -0.0002401572299109712 
0 0 0 
0 0 0 
0 0 0 
0 0 0 
0 0 0 
0 0 0 
0 0 0 
0 0 0 
0 0 0 
0 0 0 
0 0 0 
0 0 0 
-0.001771340478550915 0.002145557228852874 -0.000293698872205185 
0 0 0 
0 0 0 
0 0 0 
0 0 0 
0 0 0 
0.09962831984705901 -0.08881973871772708 -0.01339274964551973 
0 0 0 
0 0 0 
0 0 0 
0 0 0 
0 0 0 
-0.02644569500792395 0.03878850327331181 -0.147098262718994 
-0.009290250891527484 0.0158229349473032 -0.004136133981004286 
0 0 0 
0 0 0 
0 0 0 
-0.1054544653736764 0.1300634525647149 -0.1010357218199324 
0 0 0 
0 0 0 
0 0 0 
0 0 0 
0 0 0 
-0.005628649855550383 0.01721241966246076 -0.008017392301325667 
0 0 0 
0 0 0 
0 0 0 
-0.0682719050089943 0.0678856168185805 -0.04474493092304206 
0 0 0 
-0.04132687916618626 0.0533588169325624 -0.03902176930272414 
0 0 0 
-0.03016260287402736 0.03434540015420644 -0.02206676730641885 
0 0 0 
0 0 0 
0 0 0 
0 0 0 
0.1153947530663896 -0.1056323256548732 -0.0605293529668896 
0 0 0 
0 0 0 
0 0 0 
0 0 0 
0 0 0 
0 0 0 
-0.00277296645779216 0.005943548627647404 -0.0002615513539464011 
0 0 0 
-0.02899049589429967 0.04060893004306937 -0.02570055066075575 
0 0 0 
0 0 0 
-0.05561952090654042 0.07245238214139825 -0.06325598009297394 
0 0 0 
0 0 0 
0 0 0 
0 0 0 
0 0 0 
0 0 0 
-0.001771340478550915 0.002145557228852874 -0.000293698872205185 
0 0 0 
0 0 0 
0 0 0 
0 0 0 
0 0 0 
0 0 0 
0 0 0 
0 0 0 
0 0 0 
0 0 0 
0 0 0 
0 0 0 
-0.144074738733995 0.1594312254994908 -0.1256186091646089 
0 0 0 
0 0 0 
0 0 0 
0 0 0 
-0.001934072708520546 0.003709177382062318 -0.0002401572299109712 
0 0 0 
0.141813513218338 -0.1330544074708739 -0.01679255695439852 
0 0 0 
0 0 0 
0 0 0 
0 0 0 
-0.3586259956050418 0.344778841756295 -0.2150635203916512 
0 0 0 
0 0 0 
-0.09190764772701278 0.1606787432521121 -0.2331540994996077 
0 0 0 
-0.004791227607423464 0.01034652218899584 -0.0002656651317685478 
0 0 0 
-0.03348269783180776 0.04117281941067381 -0.01752416538576564 
0 0 0 
-0.04832756542107209 0.06430749468537598 -0.04170495166275445 
0 0 0 
0 0 0 
0 0 0 
0 0 0 
0 0 0 
0 0 0 
0 0 0 
0 0 0 
0 0 0 
0 0 0 
0 0 0 
0 0 0 
0 0 0 
0 0 0 
0 0 0 
0 0 0 
0 0 0 
0 0 0 
0 0 0 
0 0 0 
0 0 0 
0 0 0 
0 0 0 
0 0 0 
-0.04132687916618626 0.0533588169325624 -0.03902176930272414 
-0.03016260287402736 0.03434540015420644 -0.02206676730641885 
0 0 0 
0 0 0 
0 0 0 
0 0 0 
0 0 0 
-0.001771340478550915 0.002145557228852874 -0.000293698872205185 
0 0 0 
0 0 0 
0 0 0 
0 0 0 
0 0 0 
0 0 0 
0 0 0 
0 0 0 
-0.05709061174948709 0.07362094050871419 -0.03215959833201269 
-0.009545333342863276 0.01132945687557182 -0.002990142893285667 
0 0 0 
0 0 0 
0 0 0 
0 0 0 
0 0 0 
0 0 0 
0 0 0 
0 0 0 
0 0 0 
0 0 0 
0 0 0 
0 0 0 
0 0 0 
0 0 0 
0 0 0 
0 0 0 
0 0 0 
0 0 0 
-0.08617685828509863 0.1169121774039877 -0.08780600640380343 
0 0 0 
0 0 0 
-0.005628649855550383 0.01721241966246076 -0.008017392301325667 
0 0 0 
-0.0335490221570008 0.03628224265033442 -0.01332564010046499 
0 0 0 
0 0 0 
0 0 0 
-0.05112053164209593 -0.07969079130525557 0.08753600184784678 
0 0 0 
0.1403955815934578 -0.1216093079531471 -0.02185644714683349 
0 0 0 
0 0 0 
0 0 0 
0 0 0 
0 0 0 
-0.02944496863798627 0.04117027861263973 -0.02352114772580139 
0 0 0 
0 0 0 
0 0 0 
0 0 0 
0 0 0 
0 0 0 
0 0 0 
0 0 0 
0 0 0 
0 0 0 
0 0 0 
0 0 0 
0 0 0 
0 0 0 
0 0 0 
0 0 0 
0 0 0 
0 0 0 
0 0 0 
0 0 0 
0 0 0 
0 0 0 
0 0 0 
0 0 0 
0 0 0 
0 0 0 
0 0 0 
0 0 0 
0 0 0 
0 0 0 
0 0 0 
0 0 0 
0 0 0 
0 0 0 
-0.03224758364577135 0.04080710148809161 -0.01904604834279109 
0 0 0 
0 0 0 
0 0 0 
0 0 0 
0 0 0 
0 0 0 
0 0 0 
0 0 0 
0 0 0 
0 0 0 
0 0 0 
-0.03174709360964931 0.03350030956630852 -0.02122854811832805 
0 0 0 
0 0 0 
0 0 0 
0 0 0 
0 0 0 
0 0 0 
0 0 0 
0 0 0 
0 0 0 
0 0 0 
0 0 0 
0 0 0 
0 0 0 
0 0 0 
0 0 0 
0 0 0 
0 0 0 
-0.1946718939743807 0.2597641667241419 -0.2145382393716173 
0 0 0 
0 0 0 
0 0 0 
0 0 0 
-0.03174709360964931 0.03350030956630852 -0.02122854811832805 
0 0 0 
0 0 0 
0 0 0 
0 0 0 
0 0 0 
0 0 0 
0 0 0 
0 0 0 
-0.04186257137391872 0.03922871351702813 -0.03347843295120555 
0 0 0 
0 0 0 
0 0 0 
0 0 0 
-0.1768639592280064 0.1806472623518064 -0.1656253424125383 
-0.00277296645779216 0.005943548627647404 -0.0002615513539464011 
0 0 0 
-0.05037793043142379 0.07535522180836521 -0.05934311514748255 
0 0 0 
0 0 0 
0 0 0 
0 0 0 
0 0 0 
0 0 0 
0 0 0 
0 0 0 
-0.001934072708520546 0.003709177382062318 -0.0002401572299109712 
0 0 0 
0 0 0 
0 0 0 
0 0 0 
0 0 0 
0 0 0 
0 0 0 
0 0 0 
0 0 0 
0 0 0 
0 0 0 
0 0 0 
0 0 0 
-0.0509519512386913 0.0519288244611361 -0.03903785429730897 
-0.01501584126334425 0.02498775742662388 -0.01706242770047054 
0 0 0 
0.1013996603256099 -0.09096529594657995 -0.01309905077331454 
0 0 0 
0 0 0 
0 0 0 
0 0 0 
0 0 0 
0 0 0 
0 0 0 
0 0 0 
-0.03291480079821717 0.0397733533731969 -0.01741903061123217 
0 0 0 
0 0 0 
-0.02833936111308925 0.03052215979344581 -0.02006288032876176 
-0.00277296645779216 0.005943548627647404 -0.0002615513539464011 
-0.04204053400986655 0.04311526961480421 -0.04351768571415701 
0 0 0 
0 0 0 
0 0 0 
0 0 0 
0 0 0 
0 0 0 
0 0 0 
0 0 0 
0 0 0 
0 0 0 
0 0 0 
0 0 0 
0 0 0 
0 0 0 
0 0 0 
0 0 0 
0 0 0 
0 0 0 
0 0 0 
0 0 0 
0 0 0 
0 0 0 
0 0 0 
0 0 0 
0 0 0 
0 0 0 
0 0 0 
0 0 0 
0 0 0 
0 0 0 
0 0 0 
0 0 0 
0 0 0 
0 0 0 
0 0 0 
0 0 0 
0 0 0 
-0.04115998475392172 0.04415723119392651 -0.01837762768324292 
0 0 0 
0 0 0 
0 0 0 
0 0 0 
0 0 0 
0 0 0 
0 0 0 
0 0 0 
0 0 0 
-0.01501584126334425 0.02498775742662388 -0.01706242770047054 
0 0 0 
0 0 0 
0 0 0 
0 0 0 
0 0 0 
0 0 0 
0 0 0 
0 0 0 
0 0 0 
0 0 0 
0 0 0 
0 0 0 
0 0 0 
0 0 0 
0 0 0 
-0.002857154898902919 0.006637344806933521 -2.550790185757665e-05 
0 0 0 
0 0 0 
0 0 0 
0 0 0 
-0.03016260287402736 0.03434540015420644 -0.02206676730641885 
0 0 0 
0 0 0 
0 0 0 
0 0 0 
0 0 0 
0 0 0 
0 0 0 
0 0 0 
0 0 0 
0 0 0 
0 0 0 
0 0 0 
0 0 0 
0 0 0 
0 0 0 
0 0 0 
0 0 0 
0 0 0 
0 0 0 
0 0 0 
0 0 0 
0 0 0 
0 0 0 
0 0 0 
0 0 0 
0 0 0 
-0.0509519512386913 0.0519288244611361 -0.03903785429730897 
0 0 0 
0 0 0 
0 0 0 
0 0 0 
-0.006445704921805361 -0.06501463159710022 0.08404641054846472 
0 0 0 
0 0 0 
0 0 0 
0 0 0 
0 0 0 
-0.000720539836677099 0.00339918457488763 -0.0007134635729130911 
0 0 0 
0 0 0 
0 0 0 
0 0 0 
0 0 0 
0 0 0 
0 0 0 
0 0 0 
0 0 0 
-0.001412462293739648 0.004102425713455178 -4.54003626565363e-05 
0 0 0 
0 0 0 
0 0 0 
0 0 0 
-0.001934072708520546 0.003709177382062318 -0.0002401572299109712 
0 0 0 
0 0 0 
0 0 0 
0 0 0 
0 0 0 
0 0 0 
-0.02164112294433462 0.02895951693604557 -0.02144017921906335 
0 0 0 
0 0 0 
-0.00716624475848246 -0.06161544702221259 0.08333294697555163 
0 0 0 
0 0 0 
0 0 0 
0 0 0 
0 0 0 
0 0 0 
0 0 0 
0 0 0 
0 0 0 
-0.0005678970335905926 0.001399466037476905 -0.0001051347745334671 
-0.001934072708520546 0.003709177382062318 -0.0002401572299109712 
0 0 0 
0 0 0 
0 0 0 
0 0 0 
0 0 0 
0 0 0 
0 0 0 
-0.000720539836677099 0.00339918457488763 -0.0007134635729130911 
0 0 0 
0 0 0 
0 0 0 
-0.02456117460620752 0.03631721430219571 -0.02005257059375621 
0 0 0 
0 0 0 
0 0 0 
0 0 0 
0 0 0 
0 0 0 
0 0 0 
0 0 0 
0 0 0 
0 0 0 
-0.01808663542145615 0.02885754748009719 -0.01496311169501834 
0 0 0 
0 0 0 
-0.04471043360004846 0.05987917747515024 -0.04128009590152248 
0 0 0 
0 0 0 
0 0 0 
0 0 0 
0 0 0 
0 0 0 
0 0 0 
0 0 0 
-0.107947364870428 0.09900052465621285 -0.0862740358413841 
0 0 0 
0 0 0 
0 0 0 
-0.003493506294469259 0.009342733202535033 -0.0009750149268594921 
0 0 0 
0 0 0 
0 0 0 
0 0 0 
0 0 0 
0 0 0 
0 0 0 
0 0 0 
0 0 0 
0 0 0 
0 0 0 
-0.01889438800004812 0.02413995823046036 -0.001914190799784124 
0 0 0 
0 0 0 
0 0 0 
0 0 0 
0 0 0 
0 0 0 
0 0 0 
0 0 0 
0 0 0 
-0.02764520335710467 0.03203453737930355 -0.02037624095584088 
0 0 0 
0 0 0 
0 0 0 
0.04921340713931406 -0.2860683231986919 0.142339859098645 
0 0 0 
0 0 0 
0 0 0 
0 0 0 
-0.1149201304905267 0.1352462664345968 -0.1099783450960683 
0 0 0 
0 0 0 
0 0 0 
0 0 0 
-0.009410248220958419 0.01765004082475443 -0.009611863884895641 
0 0 0 
0 0 0 
0 0 0 
0 0 0 
0 0 0 
0 0 0 
0 0 0 
0 0 0 
0 0 0 
0 0 0 
-0.0005678970335905926 0.001399466037476905 -0.0001051347745334671 
0 0 0 
0 0 0 
0 0 0 
0 0 0 
0 0 0 
0.07454879587583595 -0.07955941900977982 -0.01798729227437224 
0 0 0 
0 0 0 
0 0 0 
0 0 0 
0 0 0 
0 0 0 
0 0 0 
0 0 0 
0 0 0 
-0.01473647159561534 0.01567370573397854 -0.005112870805535007 
0 0 0 
0 0 0 
-0.03274059154072477 -0.02594539688914333 0.04524955710772501 
0 0 0 
-0.002133002130416747 0.007501610288342809 -0.0007588639355696273 
-0.05561952090654042 0.07245238214139825 -0.06325598009297394 
0 0 0 
0 0 0 
-0.06490977179806789 0.08827531708870145 -0.06739211407397823 
0 0 0 
0 0 0 
0 0 0 
0 0 0 
0.06273226271124888 -0.05007860209040618 -0.008023180881037931 
0 0 0 
0 0 0 
-0.03257796793664034 0.04017148742867371 -0.01468055316542593 
0 0 0 
0 0 0 
0 0 0 
0 0 0 
0 0 0 
0 0 0 
0 0 0 
-0.1745631592024426 0.2292404810805875 -0.225530382782997 
0 0 0 
0.1086260708098121 -0.1046574263806488 -0.03884240831526656 
0 0 0 
0 0 0 
0 0 0 
0 0 0 
0 0 0 
0 0 0 
0 0 0 
0 0 0 
0 0 0 
0 0 0 
0 0 0 
0 0 0 
0 0 0 
0 0 0 
0 0 0 
0 0 0 
0 0 0 
0 0 0 
0 0 0 
0 0 0 
0 0 0 
-0.03064389522811979 0.03646231004661139 -0.01444039593551496 
0 0 0 
0 0 0 
0 0 0 
0 0 0 
0 0 0 
0 0 0 
0 0 0 
0 0 0 
0 0 0 
0 0 0 
0 0 0 
0 0 0 
-0.05217207062945554 0.06152661317588051 -0.04242718985937042 
-0.005628649855550383 0.01721241966246076 -0.008017392301325667 
-0.02755309627872627 0.03774025858678311 -0.02555988951362988 
0 0 0 
0 0 0 
0 0 0 
0 0 0 
-0.02545805142012037 -0.04113153855282523 0.06594503131130144 
0 0 0 
0 0 0 
-0.04172352362069919 0.04121151265651551 -0.02016349046480323 
0 0 0 
0 0 0 
0 0 0 
0 0 0 
0 0 0 
0 0 0 
0 0 0 
0 0 0 
0 0 0 
0 0 0 
0 0 0 
0 0 0 
0.04099977371883513 -0.0432771763594454 -0.03131293237483723 
0 0 0 
0 0 0 
0 0 0 
0 0 0 
0 0 0 
0 0 0 
0 0 0 
0 0 0 
0 0 0 
-0.02070220178556529 0.03188004250219995 -0.01660756981068178 
-0.1153903420171964 0.1739668797845243 -0.2597869928103951 
0 0 0 
0 0 0 
0 0 0 
0 0 0 
0 0 0 
0 0 0 
0 0 0 
0 0 0 
0 0 0 
-0.009410248220958419 0.01765004082475443 -0.009611863884895641 
0 0 0 
0 0 0 
0 0 0 
0 0 0 
-0.04232504901917559 0.05742339419795133 -0.02703089449612781 
0 0 0 
0 0 0 
0 0 0 
0 0 0 
0 0 0 
0 0 0 
0 0 0 
0 0 0 
0 0 0 
0 0 0 
0 0 0 
0 0 0 
0 0 0 
0 0 0 
0 0 0 
0 0 0 
0 0 0 
-0.001494264661981539 0.006788081096847576 -0.0008989866697510941 
0 0 0 
0 0 0 
0 0 0 
0 0 0 
-0.009290250891527484 0.0158229349473032 -0.004136133981004286 
0 0 0 
0 0 0 
0 0 0 
0 0 0 
0 0 0 
0 0 0 
0 0 0 
0 0 0 
0 0 0 
0 0 0 
0.02031251048152328 0.02651079921979293 -0.05003640684178129 
0 0 0 
0.06785063816860912 -0.05468305329624554 -0.02642469087377953 
0 0 0 
0 0 0 
0 0 0 
0 0 0 
0 0 0 
0 0 0 
0 0 0 
0 0 0 
0 0 0 
0 0 0 
0 0 0 
0 0 0 
0 0 0 
0 0 0 
0 0 0 
0 0 0 
0 0 0 
0 0 0 
0 0 0 
0 0 0 
0 0 0 
0 0 0 
-0.0007737248253044395 0.003388896521959947 -0.0001855230968380029 
0 0 0 
0 0 0 
0 0 0 
0 0 0 
-0.02988861185686076 0.03070682402119623 -0.02873296364626783 
0 0 0 
0 0 0 
0 0 0 
0 0 0 
0 0 0 
0 0 0 
0 0 0 
0 0 0 
0 0 0 
-0.0191624246193639 0.02492762491978136 -0.006360190480564254 
0 0 0 
-0.0335490221570008 0.03628224265033442 -0.01332564010046499 
0 0 0 
0 0 0 
0 0 0 
0 0 0 
0 0 0 
0 0 0 
0 0 0 
0 0 0 
0 0 0 
0 0 0 
0 0 0 
0 0 0 
0 0 0 
0 0 0 
0 0 0 
0 0 0 
0 0 0 
0 0 0 
0 0 0 
0 0 0 
0 0 0 
0 0 0 
0 0 0 
0 0 0 
0 0 0 
0 0 0 
0 0 0 
0 0 0 
0 0 0 
0 0 0 
0 0 0 
0 0 0 
0 0 0 
0 0 0 
0 0 0 
0 0 0 
0 0 0 
0 0 0 
0 0 0 
0 0 0 
0 0 0 
0 0 0 
0 0 0 
0 0 0 
0 0 0 
0 0 0 
0 0 0 
0 0 0 
-0.006445704921805361 -0.06501463159710022 0.08404641054846472 
0 0 0 
0 0 0 
0 0 0 
0 0 0 
0 0 0 
0 0 0 
0 0 0 
0 0 0 
0 0 0 
0 0 0 
0 0 0 
-0.001771340478550915 0.002145557228852874 -0.000293698872205185 
0 0 0 
0 0 0 
0 0 0 
0 0 0 
0 0 0 
0 0 0 
0 0 0 
0 0 0 
0 0 0 
0 0 0 
0 0 0 
0.0856524545899942 -0.0697027289844277 -0.08627560195786464 
0 0 0 
0 0 0 
0 0 0 
0 0 0 
0 0 0 
0 0 0 
0 0 0 
0 0 0 
0 0 0 
0 0 0 
-0.0682719050089943 0.0678856168185805 -0.04474493092304206 
0 0 0 
0 0 0 
0 0 0 
0 0 0 
-0.002857154898902919 0.006637344806933521 -2.550790185757665e-05 
-0.05679665038573923 -0.003301981996505581 0.04840599262379738 
0 0 0 
0 0 0 
0 0 0 
0 0 0 
0 0 0 
0 0 0 
0 0 0 
0 0 0 
0 0 0 
0 0 0 
0 0 0 
0 0 0 
0 0 0 
0 0 0 
0 0 0 
0 0 0 
0 0 0 
0 0 0 
0 0 0 
0 0 0 
-0.01605781480015405 0.01941209389641644 -0.01291658147548412 
0 0 0 
0 0 0 
0 0 0 
0 0 0 
0 0 0 
0 0 0 
0 0 0 
0 0 0 
0 0 0 
0 0 0 
0 0 0 
0 0 0 
0 0 0 
0 0 0 
0 0 0 
0 0 0 
0 0 0 
0 0 0 
0 0 0 
0 0 0 
0 0 0 
0.07454879587583595 -0.07955941900977982 -0.01798729227437224 
0 0 0 
0 0 0 
0.1013996603256099 -0.09096529594657995 -0.01309905077331454 
0 0 0 
0 0 0 
0 0 0 
0 0 0 
-0.05561952090654042 0.07245238214139825 -0.06325598009297394 
0 0 0 
-0.001934072708520546 0.003709177382062318 -0.0002401572299109712 
0 0 0 
-0.02705642318577912 0.03689975266100705 -0.02546039343084478 
0 0 0 
0 0 0 
0 0 0 
0 0 0 
0 0 0 
0 0 0 
0 0 0 
0 0 0 
0 0 0 
0 0 0 
0 0 0 
-0.03496148445074045 0.04038466836378959 -0.01337104046312153 
-0.02576610977113476 0.03411327307359365 -0.02428436117906094 
-0.03626215104091842 0.04577180489619152 -0.03000525030231759 
0 0 0 
0 0 0 
0 0 0 
0 0 0 
0 0 0 
0 0 0 
0 0 0 
0 0 0 
0 0 0 
0 0 0 
0 0 0 
0 0 0 
0 0 0 
0 0 0 
-0.006445704921805361 -0.06501463159710022 0.08404641054846472 
0 0 0 
0 0 0 
0 0 0 
0 0 0 
0 0 0 
0 0 0 
0 0 0 
0 0 0 
0 0 0 
0 0 0 
0 0 0 
0 0 0 
0 0 0 
0 0 0 
0 0 0 
0 0 0 
0 0 0 
0 0 0 
0 0 0 
0 0 0 
-0.002857154898902919 0.006637344806933521 -2.550790185757665e-05 
0 0 0 
0 0 0 
0 0 0 
0 0 0 
0 0 0 
0 0 0 
0 0 0 
-0.03890814679801486 0.04802823087680716 -0.01369644000676701 
0 0 0 
0 0 0 
0 0 0 
0 0 0 
0 0 0 
0 0 0 
0 0 0 
0 0 0 
0 0 0 
0 0 0 
0 0 0 
0 0 0 
0 0 0 
0 0 0 
0 0 0 
0 0 0 
0 0 0 
0 0 0 
0 0 0 
0 0 0 
0 0 0 
0 0 0 
-0.002857154898902919 0.006637344806933521 -2.550790185757665e-05 
0 0 0 
0 0 0 
0 0 0 
0 0 0 
0 0 0 
0 0 0 
0 0 0 
0 0 0 
0 0 0 
0 0 0 
-0.0682719050089943 0.0678856168185805 -0.04474493092304206 
0 0 0 
0 0 0 
0 0 0 
0 0 0 
0 0 0 
0 0 0 
0 0 0 
0 0 0 
0 0 0 
0 0 0 
0 0 0 
0 0 0 
0 0 0 
0 0 0 
0 0 0 
0 0 0 
0 0 0 
0 0 0 
0 0 0 
0 0 0 
0 0 0 
0 0 0 
0 0 0 
0 0 0 
0 0 0 
0 0 0 
0 0 0 
0 0 0 
0 0 0 
0 0 0 
0 0 0 
0 0 0 
0 0 0 
0 0 0 
0 0 0 
0 0 0 
0 0 0 
0 0 0 
0 0 0 
0 0 0 
0 0 0 
0 0 0 
-0.03016260287402736 0.03434540015420644 -0.02206676730641885 
0 0 0 
0 0 0 
0 0 0 
0 0 0 
0 0 0 
0 0 0 
0 0 0 
-0.0156619339739723 0.0760319772205568 -0.06098869393670447 
-0.02960358582499893 0.04313459430331314 -0.03010047828349492 
0 0 0 
0 0 0 
0 0 0 
-0.001412462293739648 0.004102425713455178 -4.54003626565363e-05 
0 0 0 
0 0 0 
0 0 0 
0 0 0 
-0.04132687916618626 0.0533588169325624 -0.03902176930272414 
0 0 0 
0 0 0 
-0.01473647159561534 0.01567370573397854 -0.005112870805535007 
0 0 0 
0 0 0 
0 0 0 
0 0 0 
0 0 0 
0 0 0 
0 0 0 
0 0 0 
-0.002857154898902919 0.006637344806933521 -2.550790185757665e-05 
0 0 0 
0 0 0 
0 0 0 
0 0 0 
0 0 0 
0 0 0 
0 0 0 
0 0 0 
0 0 0 
0 0 0 
0 0 0 
0 0 0 
0 0 0 
-0.04140718937254581 -0.02462996323331062 0.07067537008534319 
0 0 0 
-0.001771340478550915 0.002145557228852874 -0.000293698872205185 
0 0 0 
0 0 0 
0.07487549106087477 -0.05800051878279266 -0.000509030740870269 
0 0 0 
0 0 0 
0 0 0 
0 0 0 
-0.00277296645779216 0.005943548627647404 -0.0002615513539464011 
0 0 0 
0 0 0 
0 0 0 
0 0 0 
0 0 0 
0 0 0 
0 0 0 
0 0 0 
0 0 0 
0 0 0 
0 0 0 
0 0 0 
0 0 0 
0 0 0 
0 0 0 
0 0 0 
0 0 0 
-0.02882776366433003 0.03904530988985992 -0.02575409230304997 
0 0 0 
0 0 0 
0 0 0 
0 0 0 
0 0 0 
0 0 0 
0 0 0 
0 0 0 
0 0 0 
0 0 0 
-0.001934072708520546 0.003709177382062318 -0.0002401572299109712 
0 0 0 
0 0 0 
0 0 0 
0 0 0 
0 0 0 
-0.02988861185686076 0.03070682402119623 -0.02873296364626783 
0 0 0 
0 0 0 
0 0 0 
0 0 0 
0 0 0 
0 0 0 
0 0 0 
0 0 0 
0 0 0 
0 0 0 
0 0 0 
0 0 0 
0 0 0 
0 0 0 
0 0 0 
0 0 0 
0 0 0 
0 0 0 
0 0 0 
0 0 0 
0 0 0 
0 0 0 
0 0 0 
-0.01678718174189516 0.02713331465547675 -0.01735612657267573 
0 0 0 
-0.01889438800004812 0.02413995823046036 -0.001914190799784124 
0 0 0 
0 0 0 
0 0 0 
0 0 0 
0 0 0 
0 0 0 
0 0 0 
0 0 0 
0 0 0 
0 0 0 
-0.02764520335710467 0.03203453737930355 -0.02037624095584088 
0.01639881525543143 0.02108920816553911 -0.06379051873570178 
0 0 0 
0 0 0 
-0.0005678970335905926 0.001399466037476905 -0.0001051347745334671 
0 0 0 
-0.0007737248253044395 0.003388896521959947 -0.0001855230968380029 
0 0 0 
0 0 0 
-0.01808663542145615 0.02885754748009719 -0.01496311169501834 
0 0 0 
0 0 0 
0 0 0 
0 0 0 
0 0 0 
0 0 0 
0 0 0 
0 0 0 
0 0 0 
0 0 0 
0 0 0 
0 0 0 
0 0 0 
0 0 0 
0 0 0 
0 0 0 
0 0 0 
0 0 0 
0 0 0 
0 0 0 
0 0 0 
0 0 0 
0 0 0 
0 0 0 
0 0 0 
0 0 0 
0 0 0 
-0.02263627449408584 0.03558921988426226 -0.01684772704059275 
0 0 0 
0 0 0 
0 0 0 
0 0 0 
0 0 0 
0 0 0 
0 0 0 
0 0 0 
0 0 0 
0 0 0 
0 0 0 
0 0 0 
-0.1674703978537289 0.1910683265934626 -0.149792353751885 
0 0 0 
0 0 0 
0 0 0 
0 0 0 
0 0 0 
0 0 0 
-0.00277296645779216 0.005943548627647404 -0.0002615513539464011 
-0.006445704921805361 -0.06501463159710022 0.08404641054846472 
0 0 0 
0 0 0 
0 0 0 
-0.009218671379597521 -0.05907108296945281 0.08378485919451832 
0 0 0 
0 0 0 
0 0 0 
0 0 0 
0 0 0 
-0.009410248220958419 0.01765004082475443 -0.009611863884895641 
0 0 0 
0 0 0 
0 0 0 
0 0 0 
0 0 0 
0 0 0 
0 0 0 
0 0 0 
0 0 0 
0 0 0 
-0.0602589635651516 0.06735031422121539 -0.05860230542382652 
0 0 0 
0 0 0 
0 0 0 
-0.001934072708520546 0.003709177382062318 -0.0002401572299109712 
0 0 0 
-0.0007737248253044395 0.003388896521959947 -0.0001855230968380029 
0 0 0 
0 0 0 
0 0 0 
0 0 0 
0 0 0 
0 0 0 
0 0 0 
0 0 0 
0 0 0 
0 0 0 
0 0 0 
0 0 0 
0 0 0 
0 0 0 
0 0 0 
-0.009978145254549011 0.01904950686223134 -0.00971699865942911 
0 0 0 
0 0 0 
0 0 0 
0 0 0 
0 0 0 
0 0 0 
0 0 0 
0 0 0 
0 0 0 
-0.001934072708520546 0.003709177382062318 -0.0002401572299109712 
0 0 0 
0 0 0 
0 0 0 
0 0 0 
-0.2124775753452034 0.2607310755869898 -0.1670419204403734 
-0.009028705343252908 0.01595062983942533 -0.003360124131590979 
0 0 0 
0 0 0 
0 0 0 
0 0 0 
0 0 0 
0 0 0 
0 0 0 
-0.02545805142012037 -0.04113153855282523 0.06594503131130144 
0 0 0 
0 0 0 
0 0 0 
0.1013996603256099 -0.09096529594657995 -0.01309905077331454 
0 0 0 
0 0 0 
0 0 0 
0 0 0 
-0.08859832467824086 0.09787247401466119 -0.07866518575258827 
0 0 0 
0 0 0 
0 0 0 
0 0 0 
0 0 0 
0 0 0 
0 0 0 
0 0 0 
0 0 0 
-0.0335490221570008 0.03628224265033442 -0.01332564010046499 
0 0 0 
0 0 0 
0.06235571093322308 -0.054054099903707 -0.06644277936500886 
0 0 0 
0 0 0 
-0.009028705343252908 0.01595062983942533 -0.003360124131590979 
0 0 0 
0 0 0 
0 0 0 
-0.02256420513471699 0.03188768436091677 -0.02122552989100995 
0 0 0 
0 0 0 
-0.07673003657236724 0.09229235852696278 -0.0782280376670441 
0 0 0 
0 0 0 
0 0 0 
0 0 0 
0 0 0 
0 0 0 
0 0 0 
0 0 0 
0 0 0 
-0.0696259201212673 0.07672106114795967 -0.05406206437780065 
0 0 0 
0 0 0 
0 0 0 
0.07367238475463728 -0.06752911400813169 -0.06315893759951802 
0 0 0 
0 0 0 
0 0 0 
0 0 0 
0 0 0 
0 0 0 
0 0 0 
0 0 0 
0 0 0 
0 0 0 
0 0 0 
0 0 0 
0 0 0 
0 0 0 
-0.04364666219088448 -0.01091872654562916 0.04130130443999723 
0 0 0 
0 0 0 
0 0 0 
0 0 0 
0 0 0 
0 0 0 
0 0 0 
0 0 0 
0 0 0 
0 0 0 
-0.0007737248253044395 0.003388896521959947 -0.0001855230968380029 
0 0 0 
-0.001771340478550915 0.002145557228852874 -0.000293698872205185 
0 0 0 
0 0 0 
0 0 0 
0 0 0 
0 0 0 
0.07053356041555274 -0.07054283086241296 -0.03640370020443887 
0 0 0 
0 0 0 
0 0 0 
0 0 0 
0 0 0 
0 0 0 
0 0 0 
-0.006445704921805361 -0.06501463159710022 0.08404641054846472 
0 0 0 
0 0 0 
0 0 0 
0 0 0 
0 0 0 
0 0 0 
0 0 0 
0.1086260708098121 -0.1046574263806488 -0.03884240831526656 
-0.01823503816800042 0.02388567188739635 -0.01127958600376143 
0 0 0 
0 0 0 
-0.1280687859420552 0.07946952972268484 -0.06143583289035955 
0 0 0 
0 0 0 
0 0 0 
0 0 0 
0 0 0 
0 0 0 
0 0 0 
0 0 0 
0 0 0 
0 0 0 
0 0 0 
0 0 0 
0 0 0 
0 0 0 
0 0 0 
0 0 0 
0 0 0 
0 0 0 
0 0 0 
0 0 0 
0 0 0 
0 0 0 
0 0 0 
0 0 0 
0 0 0 
0 0 0 
0 0 0 
0 0 0 
0 0 0 
0 0 0 
0 0 0 
0 0 0 
0 0 0 
0 0 0 
0 0 0 
0 0 0 
0 0 0 
0 0 0 
0 0 0 
-0.04115998475392172 0.04415723119392651 -0.01837762768324292 
0 0 0 
0 0 0 
0 0 0 
0 0 0 
0 0 0 
-0.03183843550323338 0.03523868467479894 -0.01271164021407154 
0 0 0 
0 0 0 
0 0 0 
0 0 0 
0 0 0 
0 0 0 
0 0 0 
0 0 0 
0 0 0 
0 0 0 
0 0 0 
0 0 0 
0 0 0 
0 0 0 
0 0 0 
0 0 0 
0 0 0 
0 0 0 
0 0 0 
0 0 0 
0 0 0 
0 0 0 
-0.0211821765174207 -0.04934092586312168 0.07893353974292971 
0 0 0 
0 0 0 
0 0 0 
0 0 0 
0 0 0 
0 0 0 
0 0 0 
0 0 0 
0 0 0 
-0.07073400661401964 0.07080233123371389 -0.05019403327022284 
0 0 0 
0 0 0 
0 0 0 
0 0 0 
0 0 0 
0 0 0 
0 0 0 
0 0 0 
0 0 0 
0 0 0 
0 0 0 
-0.03693545424863216 0.04785747232660675 -0.02451237493684517 
0 0 0 
0 0 0 
-0.02576610977113476 0.03411327307359365 -0.02428436117906094 
0 0 0 
-0.002857154898902919 0.006637344806933521 -2.550790185757665e-05 
0 0 0 
0 0 0 
-0.01473647159561534 0.01567370573397854 -0.005112870805535007 
0 0 0 
0 0 0 
0 0 0 
0 0 0 
-0.01889438800004812 0.02413995823046036 -0.001914190799784124 
0 0 0 
0 0 0 
0 0 0 
0 0 0 
0 0 0 
0 0 0 
0 0 0 
0 0 0 
0 0 0 
0 0 0 
0 0 0 
0 0 0 
0 0 0 
0 0 0 
0 0 0 
0 0 0 
0 0 0 
0 0 0 
0 0 0 
0 0 0 
0 0 0 
0 0 0 
0 0 0 
-0.01031905816816771 0.01471835339753177 -0.00317566599012367 
0 0 0 
0 0 0 
0 0 0 
-0.001934072708520546 0.003709177382062318 -0.0002401572299109712 
0 0 0 
0 0 0 
0 0 0 
0 0 0 
0 0 0 
-0.01823503816800042 0.02388567188739635 -0.01127958600376143 
-0.03224758364577135 0.04080710148809161 -0.01904604834279109 
0 0 0 
0 0 0 
0 0 0 
0 0 0 
-0.05144582925213552 0.05315551557117935 -0.03679669880324271 
0 0 0 
0 0 0 
0 0 0 
0 0 0 
0 0 0 
0 0 0 
0 0 0 
0 0 0 
0 0 0 
0 0 0 
0 0 0 
-0.000720539836677099 0.00339918457488763 -0.0007134635729130911 
0 0 0 
0 0 0 
0 0 0 
0 0 0 
0 0 0 
0 0 0 
0 0 0 
0 0 0 
-0.00277296645779216 0.005943548627647404 -0.0002615513539464011 
0 0 0 
0 0 0 
-0.01707865756675248 -0.1019773741097001 0.1062382510444295 
0 0 0 
0 0 0 
0 0 0 
0 0 0 
-0.02988861185686076 0.03070682402119623 -0.02873296364626783 
0 0 0 
0 0 0 
0 0 0 
0 0 0 
0 0 0 
0 0 0 
0 0 0 
0 0 0 
0 0 0 
0 0 0 
0 0 0 
0 0 0 
0 0 0 
0 0 0 
0 0 0 
0 0 0 
0 0 0 
0 0 0 
-0.009290250891527484 0.0158229349473032 -0.004136133981004286 
0 0 0 
0 0 0 
-0.00277296645779216 0.005943548627647404 -0.0002615513539464011 
0 0 0 
-0.0007737248253044395 0.003388896521959947 -0.0001855230968380029 
0 0 0 
0 0 0 
0 0 0 
0 0 0 
0 0 0 
0 0 0 
-0.009290250891527484 0.0158229349473032 -0.004136133981004286 
0 0 0 
0 0 0 
0 0 0 
0 0 0 
0 0 0 
0 0 0 
-0.01805920298542311 -0.1651358961022671 0.04649247385887822 
0 0 0 
0 0 0 
0 0 0 
0 0 0 
0 0 0 
0 0 0 
0 0 0 
0 0 0 
0 0 0 
-0.001412462293739648 0.004102425713455178 -4.54003626565363e-05 
0 0 0 
0 0 0 
0 0 0 
-0.1930538754308128 0.1892412777978455 -0.1877072672801672 
0 0 0 
0 0 0 
0 0 0 
0 0 0 
0 0 0 
0 0 0 
0 0 0 
0 0 0 
0 0 0 
-0.01501584126334425 0.02498775742662388 -0.01706242770047054 
-0.03649249553379719 0.04980988275501805 -0.01815800208600284 
-0.0005678970335905926 0.001399466037476905 -0.0001051347745334671 
0 0 0 
0 0 0 
0 0 0 
0 0 0 
0 0 0 
0 0 0 
0 0 0 
0 0 0 
0 0 0 
0 0 0 
0 0 0 
0 0 0 
-0.0156619339739723 0.0760319772205568 -0.06098869393670447 
0 0 0 
0 0 0 
0 0 0 
0 0 0 
0 0 0 
0 0 0 
0 0 0 
0 0 0 
0 0 0 
0 0 0 
0 0 0 
-0.01823503816800042 0.02388567188739635 -0.01127958600376143 
0 0 0 
0 0 0 
0 0 0 
0 0 0 
0 0 0 
0 0 0 
0 0 0 
0 0 0 
0 0 0 
0 0 0 
0 0 0 
0 0 0 
0 0 0 
0 0 0 
0 0 0 
0 0 0 
-0.001771340478550915 0.002145557228852874 -0.000293698872205185 
0 0 0 
0 0 0 
0 0 0 
0 0 0 
0 0 0 
0 0 0 
0 0 0 
0 0 0 
0 0 0 
0 0 0 
0 0 0 
0 0 0 
0 0 0 
0 0 0 
0 0 0 
-0.03183843550323338 0.03523868467479894 -0.01271164021407154 
0 0 0 
0 0 0 
0 0 0 
0 0 0 
0 0 0 
0 0 0 
0 0 0 
0 0 0 
0 0 0 
-0.009028705343252908 0.01595062983942533 -0.003360124131590979 
0 0 0 
0 0 0 
0 0 0 
0 0 0 
0 0 0 
0 0 0 
0 0 0 
0 0 0 
0 0 0 
0 0 0 
0.06273226271124888 -0.05007860209040618 -0.008023180881037931 
-0.0005678970335905926 0.001399466037476905 -0.0001051347745334671 
-0.04359031423139673 -0.08468845357747369 0.09833349797623107 
0 0 0 
0 0 0 
0 0 0 
0 0 0 
0 0 0 
0 0 0 
0 0 0 
0 0 0 
0 0 0 
0 0 0 
0 0 0 
0 0 0 
0 0 0 
0 0 0 
0 0 0 
0 0 0 
0 0 0 
0 0 0 
0 0 0 
0 0 0 
0 0 0 
0 0 0 
0 0 0 
0 0 0 
0 0 0 
0 0 0 
0 0 0 
0 0 0 
0 0 0 
0 0 0 
0 0 0 
-0.05112053164209593 -0.07969079130525557 0.08753600184784678 
0 0 0 
0 0 0 
0 0 0 
0 0 0 
0 0 0 
0 0 0 
0 0 0 
0 0 0 
-0.005628649855550383 0.01721241966246076 -0.008017392301325667 
0 0 0 
0 0 0 
0 0 0 
0 0 0 
0 0 0 
0 0 0 
0 0 0 
0 0 0 
0 0 0 
0 0 0 
0 0 0 
0 0 0 
0 0 0 
0 0 0 
0 0 0 
0 0 0 
0 0 0 
-0.03982111074671116 0.04233745307051318 -0.04113687358516886 
0 0 0 
-0.002857154898902919 0.006637344806933521 -2.550790185757665e-05 
0 0 0 
-0.01343622798071366 0.02829484121565161 -0.01779051735377106 
0 0 0 
0 0 0 
0 0 0 
0 0 0 
0 0 0 
0 0 0 
0 0 0 
0 0 0 
0 0 0 
0 0 0 
0 0 0 
0 0 0 
0 0 0 
0 0 0 
0 0 0 
0 0 0 
0 0 0 
0 0 0 
0 0 0 
0 0 0 
0 0 0 
0 0 0 
0 0 0 
0 0 0 
0 0 0 
0 0 0 
0 0 0 
0 0 0 
0 0 0 
0 0 0 
0 0 0 
0 0 0 
0 0 0 
0 0 0 
0 0 0 
0 0 0 
0 0 0 
-0.03111232757088141 0.03646570842109321 -0.02032443168270816 
0 0 0 
0 0 0 
0 0 0 
0 0 0 
0 0 0 
0.07367238475463728 -0.06752911400813169 -0.06315893759951802 
0 0 0 
0 0 0 
0 0 0 
0 0 0 
0 0 0 
0 0 0 
0 0 0 
0 0 0 
0 0 0 
0 0 0 
0 0 0 
0 0 0 
0 0 0 
0 0 0 
0 0 0 
0 0 0 
0 0 0 
0 0 0 
0 0 0 
0 0 0 
0 0 0 
0 0 0 
0 0 0 
0 0 0 
0 0 0 
-0.07176885795290903 0.09796079484426214 -0.07919358888152878 
0 0 0 
0 0 0 
0 0 0 
0 0 0 
0 0 0 
0 0 0 
0 0 0 
0 0 0 
-0.05387089034025339 0.07187943268800151 -0.05337096295119276 
0 0 0 
0 0 0 
0 0 0 
0 0 0 
0 0 0 
0 0 0 
0 0 0 
0 0 0 
0 0 0 
0 0 0 
0 0 0 
0 0 0 
0 0 0 
-0.0433552023764335 0.05550991722006969 -0.0371253080292323 
0 0 0 
0 0 0 
0 0 0 
0 0 0 
-0.001412462293739648 0.004102425713455178 -4.54003626565363e-05 
-0.03506795513866238 0.04659429476312824 -0.04198624217289786 
0 0 0 
-0.009410248220958419 0.01765004082475443 -0.009611863884895641 
0 0 0 
0 0 0 
0 0 0 
0 0 0 
0 0 0 
0 0 0 
0 0 0 
0 0 0 
0 0 0 
0 0 0 
0 0 0 
-0.01343622798071366 0.02829484121565161 -0.01779051735377106 
0 0 0 
0 0 0 
0 0 0 
0 0 0 
0 0 0 
0 0 0 
0 0 0 
-0.000720539836677099 0.00339918457488763 -0.0007134635729130911 
0 0 0 
0 0 0 
0 0 0 
0 0 0 
0 0 0 
0 0 0 
0 0 0 
0 0 0 
0 0 0 
0 0 0 
0 0 0 
0 0 0 
-0.002857154898902919 0.006637344806933521 -2.550790185757665e-05 
0 0 0 
0 0 0 
0 0 0 
0 0 0 
0 0 0 
0 0 0 
0 0 0 
0 0 0 
-0.01707865756675248 -0.1019773741097001 0.1062382510444295 
0 0 0 
0 0 0 
0 0 0 
0 0 0 
0 0 0 
-0.009410248220958419 0.01765004082475443 -0.009611863884895641 
0 0 0 
0 0 0 
0 0 0 
0 0 0 
0 0 0 
0 0 0 
-0.03183843550323338 0.03523868467479894 -0.01271164021407154 
0.008664256508313036 -0.02158255694550349 -0.2495142244444093 
0 0 0 
0 0 0 
0 0 0 
0 0 0 
-0.1293393952263956 0.1670038955564969 -0.1178795735630655 
0 0 0 
0 0 0 
0 0 0 
0 0 0 
0 0 0 
0 0 0 
0 0 0 
0 0 0 
0 0 0 
0 0 0 
0 0 0 
0 0 0 
0 0 0 
0 0 0 
0 0 0 
0 0 0 
0 0 0 
0 0 0 
-0.0005678970335905926 0.001399466037476905 -0.0001051347745334671 
0 0 0 
0 0 0 
-0.02833936111308925 0.03052215979344581 -0.02006288032876176 
0 0 0 
0 0 0 
0 0 0 
-0.06617604348510159 0.03750270958358007 -0.01209026084522592 
-0.03174709360964931 0.03350030956630852 -0.02122854811832805 
-0.03224758364577135 0.04080710148809161 -0.01904604834279109 
-0.01970705023581407 0.02525033955398325 -0.02120002198915237 
-0.05561764344187472 -0.07996639639866805 0.1165919668890136 
0 0 0 
0 0 0 
0 0 0 
0 0 0 
0 0 0 
0 0 0 
0 0 0 
0 0 0 
0 0 0 
-0.009410248220958419 0.01765004082475443 -0.009611863884895641 
0 0 0 
-0.02545805142012037 -0.04113153855282523 0.06594503131130144 
-0.03982111074671116 0.04233745307051318 -0.04113687358516886 
0 0 0 
0 0 0 
0 0 0 
0 0 0 
0 0 0 
0 0 0 
0 0 0 
0 0 0 
0 0 0 
0 0 0 
0 0 0 
0 0 0 
0 0 0 
0 0 0 
0 0 0 
0 0 0 
0 0 0 
0 0 0 
0 0 0 
0 0 0 
0 0 0 
0 0 0 
-0.04749377911544403 0.05654972843305293 -0.03970613718783627 
0 0 0 
0 0 0 
-0.05902861854537509 0.002287576528516988 0.06452766604061042 
0 0 0 
0 0 0 
0 0 0 
0 0 0 
0 0 0 
0 0 0 
0 0 0 
0 0 0 
-0.0005678970335905926 0.001399466037476905 -0.0001051347745334671 
0 0 0 
0 0 0 
0 0 0 
0 0 0 
0 0 0 
0 0 0 
0 0 0 
-0.03637706656078953 0.04549925272643157 -0.02577105876239749 
0 0 0 
0 0 0 
0 0 0 
0 0 0 
0 0 0 
0 0 0 
0 0 0 
0.01925597015433435 0.01445186335860559 -0.06376501083384421 
0 0 0 
0 0 0 
0 0 0 
-0.2346648228574436 0.2614405406627576 -0.3277623344633441 
0 0 0 
0 0 0 
0 0 0 
0 0 0 
0 0 0 
0 0 0 
0 0 0 
0 0 0 
0 0 0 
-0.001132597136397224 0.0416150721709691 -0.099847765918328 
0 0 0 
0 0 0 
0 0 0 
0 0 0 
0 0 0 
0 0 0 
0 0 0 
0 0 0 
0 0 0 
-0.04518332159036297 0.06179515078196013 -0.03901906547209911 
0 0 0 
0 0 0 
0 0 0 
0 0 0 
-0.05100901667928552 0.06934843544305069 -0.02757065904237564 
0 0 0 
0 0 0 
0 0 0 
-0.04749377911544403 0.05654972843305293 -0.03970613718783627 
0 0 0 
0 0 0 
0 0 0 
0 0 0 
0 0 0 
0 0 0 
0 0 0 
0 0 0 
0 0 0 
0 0 0 
0 0 0 
0 0 0 
0 0 0 
0 0 0 
0 0 0 
0 0 0 
0 0 0 
0 0 0 
0 0 0 
0 0 0 
0 0 0 
0 0 0 
0 0 0 
-0.01473647159561534 0.01567370573397854 -0.005112870805535007 
0 0 0 
0 0 0 
0 0 0 
0 0 0 
0 0 0 
0 0 0 
0 0 0 
0 0 0 
0 0 0 
0 0 0 
0.07487549106087477 -0.05800051878279266 -0.000509030740870269 
0 0 0 
0 0 0 
-0.0007737248253044395 0.003388896521959947 -0.0001855230968380029 
0 0 0 
0 0 0 
0 0 0 
0 0 0 
0 0 0 
0 0 0 
0 0 0 
0 0 0 
0 0 0 
0.07293276797607247 -0.06112334994175477 -0.0355884588651618 
0 0 0 
0 0 0 
-0.006445704921805361 -0.06501463159710022 0.08404641054846472 
0 0 0 
0 0 0 
0 0 0 
0 0 0 
0 0 0 
0 0 0 
0 0 0 
0 0 0 
0 0 0 
-0.009410248220958419 0.01765004082475443 -0.009611863884895641 
0 0 0 
0 0 0 
0 0 0 
0 0 0 
0 0 0 
0 0 0 
0 0 0 
0 0 0 
0 0 0 
0 0 0 
0 0 0 
0 0 0 
0 0 0 
0 0 0 
0 0 0 
0 0 0 
-0.01343622798071366 0.02829484121565161 -0.01779051735377106 
0 0 0 
0 0 0 
0 0 0 
0 0 0 
0 0 0 
0 0 0 
0 0 0 
0 0 0 
0 0 0 
0 0 0 
0 0 0 
-0.001771340478550915 0.002145557228852874 -0.000293698872205185 
0 0 0 
0 0 0 
-0.01889438800004812 0.02413995823046036 -0.001914190799784124 
0 0 0 
0.0408169761032303 -0.01293239833405669 -0.1123081628463418 
0 0 0 
0 0 0 
0 0 0 
0 0 0 
0 0 0 
0 0 0 
0 0 0 
0 0 0 
0 0 0 
0 0 0 
0 0 0 
0 0 0 
0 0 0 
0 0 0 
0 0 0 
0 0 0 
0 0 0 
0 0 0 
0 0 0 
0 0 0 
0 0 0 
0 0 0 
0 0 0 
0 0 0 
0 0 0 
0 0 0 
0 0 0 
0 0 0 
0 0 0 
0 0 0 
-0.0142099528060181 0.03168373773761156 -0.01797604045060907 
0 0 0 
-0.1342586147635832 0.1593165022605104 -0.09321273164031926 
0 0 0 
0 0 0 
0 0 0 
0 0 0 
0 0 0 
0 0 0 
0 0 0 
0 0 0 
0 0 0 
0 0 0 
0 0 0 
0 0 0 
0 0 0 
0 0 0 
0 0 0 
0 0 0 
-0.04115998475392172 0.04415723119392651 -0.01837762768324292 
0 0 0 
0 0 0 
0 0 0 
0 0 0 
0 0 0 
0 0 0 
0 0 0 
0 0 0 
0 0 0 
0 0 0 
0 0 0 
0 0 0 
0 0 0 
0 0 0 
0 0 0 
0 0 0 
0 0 0 
0 0 0 
0 0 0 
0.09946558761708937 -0.08725611856451765 -0.01333920800322551 
0 0 0 
0 0 0 
0 0 0 
0 0 0 
0 0 0 
0 0 0 
0 0 0 
0 0 0 
0 0 0 
0 0 0 
-0.009028705343252908 0.01595062983942533 -0.003360124131590979 
0 0 0 
0 0 0 
0 0 0 
0 0 0 
0 0 0 
0 0 0 
-0.06902352810202839 0.07187775453433883 -0.04823890074934911 
0 0 0 
0 0 0 
0 0 0 
0 0 0 
0 0 0 
0 0 0 
0 0 0 
0 0 0 
0 0 0 
0 0 0 
0 0 0 
0 0 0 
0 0 0 
0 0 0 
0 0 0 
0 0 0 
0 0 0 
0 0 0 
0 0 0 
0 0 0 
0 0 0 
0 0 0 
0 0 0 
0 0 0 
0 0 0 
0 0 0 
0 0 0 
0 0 0 
0 0 0 
0 0 0 
0 0 0 
0 0 0 
0 0 0 
0 0 0 
-0.0419374671422563 0.05393562884750284 -0.04101854454757608 
0 0 0 
0 0 0 
0 0 0 
0 0 0 
0 0 0 
-0.002857154898902919 0.006637344806933521 -2.550790185757665e-05 
0 0 0 
0 0 0 
0 0 0 
0 0 0 
0 0 0 
0 0 0 
0 0 0 
0 0 0 
0 0 0 
0 0 0 
0 0 0 
0 0 0 
0 0 0 
0 0 0 
0 0 0 
0 0 0 
0 0 0 
0 0 0 
0 0 0 
0 0 0 
0 0 0 
0 0 0 
0 0 0 
0 0 0 
0 0 0 
0 0 0 
0 0 0 
0 0 0 
0 0 0 
0 0 0 
0 0 0 
0 0 0 
0 0 0 
0 0 0 
0 0 0 
0 0 0 
0 0 0 
-0.02872442880130917 0.0377710940377521 -0.0228076841528883 
0 0 0 
0 0 0 
0 0 0 
-0.001934072708520546 0.003709177382062318 -0.0002401572299109712 
0 0 0 
0 0 0 
0 0 0 
0 0 0 
-0.06829962428700076 0.08222830316871185 -0.08544298660375325 
0 0 0 
0 0 0 
0 0 0 
0 0 0 
-0.006445704921805361 -0.06501463159710022 0.08404641054846472 
0 0 0 
0 0 0 
0 0 0 
0 0 0 
0 0 0 
0 0 0 
0 0 0 
0 0 0 
0 0 0 
0 0 0 
0 0 0 
0 0 0 
0 0 0 
0 0 0 
0 0 0 
0 0 0 
0 0 0 
0 0 0 
0 0 0 
0 0 0 
0 0 0 
0 0 0 
0 0 0 
0 0 0 
0 0 0 
0 0 0 
0 0 0 
0 0 0 
0 0 0 
0 0 0 
0 0 0 
0 0 0 
0 0 0 
0 0 0 
0 0 0 
0 0 0 
0 0 0 
0 0 0 
0 0 0 
0 0 0 
0 0 0 
0 0 0 
0 0 0 
0 0 0 
0 0 0 
0 0 0 
0 0 0 
0 0 0 
0 0 0 
0 0 0 
0 0 0 
0 0 0 
0 0 0 
0 0 0 
0 0 0 
0 0 0 
0 0 0 
0 0 0 
-0.03444299385226898 0.04179007534436925 -0.02553090153248652 
0 0 0 
-0.01501584126334425 0.02498775742662388 -0.01706242770047054 
0 0 0 
0 0 0 
0 0 0 
0 0 0 
0 0 0 
0 0 0 
0 0 0 
0 0 0 
0 0 0 
0 0 0 
0 0 0 
0 0 0 
0 0 0 
0 0 0 
0 0 0 
0 0 0 
-0.001771340478550915 0.002145557228852874 -0.000293698872205185 
0 0 0 
0 0 0 
0 0 0 
0 0 0 
0 0 0 
0 0 0 
0 0 0 
0 0 0 
0 0 0 
0 0 0 
0 0 0 
0 0 0 
0 0 0 
0 0 0 
0 0 0 
0 0 0 
0 0 0 
0 0 0 
0 0 0 
0 0 0 
0 0 0 
0 0 0 
-0.009028705343252908 0.01595062983942533 -0.003360124131590979 
0 0 0 
0 0 0 
0 0 0 
0 0 0 
0 0 0 
0 0 0 
0 0 0 
0 0 0 
0 0 0 
0 0 0 
0 0 0 
0 0 0 
0 0 0 
0 0 0 
0 0 0 
0 0 0 
0 0 0 
0 0 0 
0 0 0 
-0.001771340478550915 0.002145557228852874 -0.000293698872205185 
0 0 0 
0 0 0 
0 0 0 
0 0 0 
0 0 0 
0 0 0 
0 0 0 
0 0 0 
-0.001771340478550915 0.002145557228852874 -0.000293698872205185 
0 0 0 
-0.03290725015317172 0.03872827493644386 -0.0227692021671854 
0 0 0 
0 0 0 
0 0 0 
0 0 0 
0 0 0 
0.1521019995925299 -0.1382290164059754 -0.06335249382038723 
0 0 0 
0 0 0 
0 0 0 
0 0 0 
0 0 0 
0 0 0 
0 0 0 
0 0 0 
0 0 0 
0 0 0 
0 0 0 
0 0 0 
0 0 0 
0 0 0 
0 0 0 
0 0 0 
0 0 0 
0 0 0 
0 0 0 
0 0 0 
0 0 0 
0 0 0 
0 0 0 
0 0 0 
0 0 0 
-0.009028705343252908 0.01595062983942533 -0.003360124131590979 
0 0 0 
-0.05144582925213552 0.05315551557117935 -0.03679669880324271 
0 0 0 
0 0 0 
0 0 0 
0 0 0 
0 0 0 
0.07487549106087477 -0.05800051878279266 -0.000509030740870269 
0 0 0 
0 0 0 
0 0 0 
0 0 0 
0 0 0 
0 0 0 
0 0 0 
0 0 0 
-0.03291480079821717 0.0397733533731969 -0.01741903061123217 
-0.01605781480015405 0.01941209389641644 -0.01291658147548412 
0 0 0 
0 0 0 
0 0 0 
0 0 0 
0 0 0 
-0.00277296645779216 0.005943548627647404 -0.0002615513539464011 
0 0 0 
0 0 0 
0 0 0 
0 0 0 
-0.02833936111308925 0.03052215979344581 -0.02006288032876176 
0 0 0 
0 0 0 
0 0 0 
0 0 0 
0 0 0 
0 0 0 
0 0 0 
0 0 0 
0 0 0 
0 0 0 
0 0 0 
0 0 0 
0 0 0 
0 0 0 
0 0 0 
0 0 0 
0 0 0 
-0.2986992255218449 0.09348233283934468 -0.007758128307500164 
0 0 0 
0 0 0 
0 0 0 
0 0 0 
-0.02872442880130917 0.0377710940377521 -0.0228076841528883 
0 0 0 
0 0 0 
0 0 0 
0 0 0 
0 0 0 
0 0 0 
0 0 0 
0 0 0 
0 0 0 
0 0 0 
-0.01614893388935499 0.01977613144743371 -0.005158271168191543 
0 0 0 
0 0 0 
0 0 0 
0 0 0 
0 0 0 
0 0 0 
0 0 0 
0 0 0 
0 0 0 
0 0 0 
0.141813513218338 -0.1330544074708739 -0.01679255695439852 
0 0 0 
0 0 0 
0 0 0 
0 0 0 
0 0 0 
0 0 0 
0 0 0 
-0.04204053400986655 0.04311526961480421 -0.04351768571415701 
0 0 0 
0 0 0 
0 0 0 
0.1351084674642905 -0.1217511283927298 -0.03340882053230774 
0 0 0 
0 0 0 
0 0 0 
0 0 0 
0 0 0 
0 0 0 
0 0 0 
0 0 0 
-0.01707865756675248 -0.1019773741097001 0.1062382510444295 
0 0 0 
0 0 0 
0 0 0 
0 0 0 
0 0 0 
-0.04326095187470681 0.05706799431462471 -0.03926192653263511 
-0.03291480079821717 0.0397733533731969 -0.01741903061123217 
0 0 0 
0 0 0 
0 0 0 
0 0 0 
0 0 0 
0 0 0 
0 0 0 
0 0 0 
0 0 0 
0 0 0 
0 0 0 
0 0 0 
0 0 0 
-0.02705642318577912 0.03689975266100705 -0.02546039343084478 
0 0 0 
-0.03577195569712008 0.04641069818013042 -0.01744453851308975 
0 0 0 
-0.001771340478550915 0.002145557228852874 -0.000293698872205185 
0 0 0 
0 0 0 
0 0 0 
0 0 0 
0 0 0 
0 0 0 
0 0 0 
0 0 0 
-0.0509519512386913 0.0519288244611361 -0.03903785429730897 
0 0 0 
-0.03444299385226898 0.04179007534436925 -0.02553090153248652 
0 0 0 
0 0 0 
0 0 0 
0 0 0 
0 0 0 
0 0 0 
0 0 0 
0 0 0 
0 0 0 
-0.001771340478550915 0.002145557228852874 -0.000293698872205185 
-0.009028705343252908 0.01595062983942533 -0.003360124131590979 
-0.05112053164209593 -0.07969079130525557 0.08753600184784678 
0 0 0 
0 0 0 
0 0 0 
0 0 0 
0 0 0 
0 0 0 
0 0 0 
0 0 0 
0 0 0 
0 0 0 
0 0 0 
0 0 0 
0.05610847795396343 -0.005546932614887211 -0.1834653901677808 
0 0 0 
0 0 0 
-0.000720539836677099 0.00339918457488763 -0.0007134635729130911 
-0.03819622374943896 0.04948098227825384 -0.03024540753222856 
0 0 0 
0 0 0 
0 0 0 
0 0 0 
0 0 0 
0 0 0 
0 0 0 
-0.03444299385226898 0.04179007534436925 -0.02553090153248652 
0 0 0 
0 0 0 
0 0 0 
0 0 0 
-0.1044010676582786 0.1164371886442575 -0.07548311016617855 
0 0 0 
-0.01823503816800042 0.02388567188739635 -0.01127958600376143 
0 0 0 
0 0 0 
0 0 0 
0 0 0 
0 0 0 
0 0 0 
0 0 0 
0 0 0 
0 0 0 
0 0 0 
0 0 0 
0 0 0 
-0.005630121356695078 0.01258089343458092 -0.0002870592558039777 
0 0 0 
0 0 0 
0 0 0 
0 0 0 
0 0 0 
0 0 0 
0 0 0 
0 0 0 
0 0 0 
0 0 0 
0 0 0 
0 0 0 
0 0 0 
0 0 0 
0 0 0 
0 0 0 
0 0 0 
0 0 0 
0 0 0 
0 0 0 
0 0 0 
0 0 0 
0 0 0 
0 0 0 
0 0 0 
-0.05313564757426 -0.07335899670190187 0.09534335508294542 
0 0 0 
0 0 0 
0 0 0 
0 0 0 
-0.03290725015317172 0.03872827493644386 -0.0227692021671854 
0 0 0 
0.05628655778944352 -0.1150932336875064 0.07602322966742679 
0 0 0 
0 0 0 
-0.02873575557906698 0.04120096939340857 -0.02456014612074335 
0 0 0 
0 0 0 
0 0 0 
0 0 0 
0 0 0 
0 0 0 
-0.07381139173110132 0.09597400993259532 -0.0864221153084349 
-0.02070220178556529 0.03188004250219995 -0.01660756981068178 
0 0 0 
0 0 0 
0 0 0 
0 0 0 
0 0 0 
0 0 0 
0 0 0 
0 0 0 
-0.0007737248253044395 0.003388896521959947 -0.0001855230968380029 
0 0 0 
0 0 0 
0 0 0 
0 0 0 
0 0 0 
0 0 0 
0 0 0 
0 0 0 
-0.009545333342863276 0.01132945687557182 -0.002990142893285667 
0 0 0 
0 0 0 
0 0 0 
0 0 0 
0 0 0 
0 0 0 
0 0 0 
0 0 0 
0 0 0 
0 0 0 
0 0 0 
0 0 0 
0 0 0 
-0.009545333342863276 0.01132945687557182 -0.002990142893285667 
0 0 0 
0 0 0 
0 0 0 
0 0 0 
0 0 0 
0 0 0 
-0.04088117184625938 -0.09564010213264658 0.1217048376945486 
0 0 0 
-0.03290725015317172 0.03872827493644386 -0.0227692021671854 
0 0 0 
-0.01605781480015405 0.01941209389641644 -0.01291658147548412 
0 0 0 
0 0 0 
0 0 0 
0 0 0 
0 0 0 
0 0 0 
0 0 0 
0 0 0 
0 0 0 
0 0 0 
0 0 0 
0 0 0 
0 0 0 
-0.03626215104091842 0.04577180489619152 -0.03000525030231759 
0 0 0 
0 0 0 
0 0 0 
0 0 0 
0 0 0 
0 0 0 
0 0 0 
0 0 0 
0 0 0 
0 0 0 
0 0 0 
0 0 0 
0 0 0 
0 0 0 
0 0 0 
0 0 0 
0 0 0 
0 0 0 
0 0 0 
0 0 0 
0 0 0 
0 0 0 
0 0 0 
-0.01808663542145615 0.02885754748009719 -0.01496311169501834 
0 0 0 
0 0 0 
0 0 0 
0 0 0 
0 0 0 
0 0 0 
0 0 0 
0 0 0 
0 0 0 
0 0 0 
0 0 0 
-0.07554081253576371 0.08175714085399462 -0.052113483376407 
0 0 0 
0 0 0 
0 0 0 
0 0 0 
0 0 0 
0 0 0 
-0.009028705343252908 0.01595062983942533 -0.003360124131590979 
0 0 0 
0 0 0 
0.07863647423396768 -0.1213095404129345 -0.01957005673446966 
0 0 0 
0 0 0 
0 0 0 
0 0 0 
0 0 0 
0 0 0 
-0.001934072708520546 0.003709177382062318 -0.0002401572299109712 
-0.02764520335710467 0.03203453737930355 -0.02037624095584088 
0 0 0 
-0.04172352362069919 0.04121151265651551 -0.02016349046480323 
0 0 0 
0 0 0 
0 0 0 
0 0 0 
0 0 0 
0 0 0 
0 0 0 
0 0 0 
0 0 0 
0 0 0 
0 0 0 
0 0 0 
0 0 0 
0 0 0 
0 0 0 
0 0 0 
0 0 0 
0 0 0 
0 0 0 
0 0 0 
0 0 0 
0 0 0 
0 0 0 
-0.02320167671784181 0.02431483268300202 -0.02463539494202121 
0 0 0 
0 0 0 
-0.04088117184625938 -0.09564010213264658 0.1217048376945486 
0 0 0 
0 0 0 
0 0 0 
0 0 0 
0 0 0 
0 0 0 
0 0 0 
0 0 0 
0 0 0 
0 0 0 
0 0 0 
0 0 0 
-0.02576610977113476 0.03411327307359365 -0.02428436117906094 
0 0 0 
0 0 0 
-0.04172352362069919 0.04121151265651551 -0.02016349046480323 
0 0 0 
0 0 0 
0 0 0 
0 0 0 
0 0 0 
0.151584423862355 -0.1442690972488511 -0.09682982917022399 
0 0 0 
0 0 0 
0 0 0 
0 0 0 
0 0 0 
0 0 0 
-0.005628649855550383 0.01721241966246076 -0.008017392301325667 
0 0 0 
-0.0005678970335905926 0.001399466037476905 -0.0001051347745334671 
0 0 0 
0 0 0 
-0.03721596031006114 0.04773362397201666 -0.02579245288643292 
0 0 0 
0 0 0 
0 0 0 
0 0 0 
0 0 0 
0 0 0 
0 0 0 
0 0 0 
-0.04132687916618626 0.0533588169325624 -0.03902176930272414 
0 0 0 
0 0 0 
0 0 0 
0 0 0 
0 0 0 
0 0 0 
-0.07422539895796808 0.1112287526765407 -0.1081140111079616 
0 0 0 
-0.00277296645779216 0.005943548627647404 -0.0002615513539464011 
0 0 0 
0 0 0 
0 0 0 
0 0 0 
0 0 0 
0.1086260708098121 -0.1046574263806488 -0.03884240831526656 
0 0 0 
0 0 0 
0 0 0 
0 0 0 
0 0 0 
0 0 0 
0 0 0 
0 0 0 
0 0 0 
0 0 0 
0 0 0 
0 0 0 
0 0 0 
0 0 0 
0 0 0 
0 0 0 
0 0 0 
0 0 0 
0 0 0 
-0.04186257137391872 0.03922871351702813 -0.03347843295120555 
-0.01070271318526713 0.01992536066075838 -0.004181534343660822 
0 0 0 
0 0 0 
0 0 0 
0 0 0 
-0.02764520335710467 0.03203453737930355 -0.02037624095584088 
0 0 0 
0 0 0 
0 0 0 
0 0 0 
0 0 0 
0 0 0 
-0.04365759632921974 0.04492069003857783 -0.0204036476947142 
0 0 0 
0 0 0 
0 0 0 
0 0 0 
0 0 0 
0 0 0 
-0.01011936034826155 0.03143723943872111 -0.05063136964457797 
0 0 0 
0 0 0 
0 0 0 
0 0 0 
0 0 0 
0 0 0 
-0.009028705343252908 0.01595062983942533 -0.003360124131590979 
0 0 0 
0 0 0 
0 0 0 
0 0 0 
0 0 0 
0 0 0 
0 0 0 
0 0 0 
0 0 0 
0 0 0 
0 0 0 
0 0 0 
0 0 0 
0 0 0 
0 0 0 
0 0 0 
0 0 0 
0 0 0 
0 0 0 
0 0 0 
0 0 0 
0 0 0 
0 0 0 
-0.04115998475392172 0.04415723119392651 -0.01837762768324292 
0 0 0 
0 0 0 
0 0 0 
-0.03016260287402736 0.03434540015420644 -0.02206676730641885 
0 0 0 
0 0 0 
0 0 0 
0 0 0 
0 0 0 
0 0 0 
0 0 0 
0 0 0 
0 0 0 
0 0 0 
0 0 0 
0 0 0 
-0.1108045197693309 0.1056378694631464 -0.08629954374324167 
0 0 0 
0 0 0 
0 0 0 
0 0 0 
0 0 0 
0 0 0 
0 0 0 
0 0 0 
-0.07055696582491462 0.07680924049696544 -0.04947466594118975 
0 0 0 
0 0 0 
0 0 0 
0 0 0 
0 0 0 
0 0 0 
0 0 0 
0 0 0 
0 0 0 
0 0 0 
0 0 0 
0 0 0 
0 0 0 
0 0 0 
0 0 0 
0 0 0 
0 0 0 
0 0 0 
0 0 0 
0 0 0 
0 0 0 
0 0 0 
0 0 0 
0 0 0 
0 0 0 
0 0 0 
0 0 0 
0 0 0 
-0.009545333342863276 0.01132945687557182 -0.002990142893285667 
0 0 0 
0 0 0 
0 0 0 
0 0 0 
0 0 0 
0 0 0 
0 0 0 
0 0 0 
0 0 0 
0 0 0 
-0.01501584126334425 0.02498775742662388 -0.01706242770047054 
0 0 0 
0 0 0 
0 0 0 
0 0 0 
0 0 0 
0 0 0 
0 0 0 
0 0 0 
0 0 0 
0 0 0 
0 0 0 
-0.0007737248253044395 0.003388896521959947 -0.0001855230968380029 
0.02766430757258651 -0.003484307327277934 -0.05000942305393579 
0 0 0 
0 0 0 
0 0 0 
0 0 0 
0 0 0 
0 0 0 
0 0 0 
0 0 0 
0 0 0 
0 0 0 
0 0 0 
0 0 0 
-0.0005678970335905926 0.001399466037476905 -0.0001051347745334671 
0 0 0 
0 0 0 
0 0 0 
0 0 0 
0 0 0 
-0.001934072708520546 0.003709177382062318 -0.0002401572299109712 
0 0 0 
0 0 0 
0 0 0 
0 0 0 
0 0 0 
0.2587939976938214 -0.2391772654045619 -0.1024350593655648 
-0.03290725015317172 0.03872827493644386 -0.0227692021671854 
0.1744728565274339 -0.1467073153240162 -0.04271156318772781 
0 0 0 
0 0 0 
0 0 0 
-0.0346955904021363 0.04187602948173245 -0.01273714811592912 
0 0 0 
0 0 0 
0 0 0 
0 0 0 
0 0 0 
0 0 0 
0 0 0 
0 0 0 
0 0 0 
0 0 0 
0 0 0 
-0.1704976745646426 0.1873439651669283 -0.2068164517243796 
0 0 0 
0 0 0 
0 0 0 
0 0 0 
0 0 0 
0 0 0 
-0.1366899255107062 0.1393016492287874 -0.1266147344553731 
0 0 0 
0 0 0 
0 0 0 
0 0 0 
0 0 0 
0 0 0 
0 0 0 
0 0 0 
0 0 0 
0 0 0 
-0.01808663542145615 0.02885754748009719 -0.01496311169501834 
0 0 0 
0 0 0 
0 0 0 
0 0 0 
-0.02872442880130917 0.0377710940377521 -0.0228076841528883 
0 0 0 
0 0 0 
0 0 0 
0 0 0 
0 0 0 
0 0 0 
0 0 0 
0 0 0 
0 0 0 
0 0 0 
0 0 0 
0 0 0 
0 0 0 
0 0 0 
0 0 0 
-0.0642827714267596 0.07831089566808989 -0.0413799072350314 
0 0 0 
0 0 0 
0 0 0 
0 0 0 
0 0 0 
0.09101940339752862 -0.08998089742185196 -0.02062534717014346 
0 0 0 
-0.04132687916618626 0.0533588169325624 -0.03902176930272414 
0 0 0 
0 0 0 
0 0 0 
0 0 0 
-0.000720539836677099 0.00339918457488763 -0.0007134635729130911 
0 0 0 
0 0 0 
0 0 0 
0 0 0 
0 0 0 
0 0 0 
0 0 0 
0 0 0 
0 0 0 
0 0 0 
0 0 0 
0 0 0 
0 0 0 
0.1366627431189247 -0.1128599989893226 -0.05960273731223362 
-0.03315955590338895 0.0376027352797637 -0.02127394848098458 
0 0 0 
0 0 0 
0 0 0 
0 0 0 
0 0 0 
0 0 0 
0 0 0 
0 0 0 
0 0 0 
0 0 0 
0 0 0 
0 0 0 
0 0 0 
0 0 0 
0 0 0 
0 0 0 
0 0 0 
0 0 0 
0 0 0 
0 0 0 
0 0 0 
0 0 0 
0 0 0 
0 0 0 
0 0 0 
0 0 0 
0 0 0 
0 0 0 
0 0 0 
0 0 0 
0 0 0 
0 0 0 
0 0 0 
0 0 0 
0 0 0 
0 0 0 
0 0 0 
0 0 0 
0 0 0 
0 0 0 
-0.0605869447588606 0.07132926128153742 -0.03910892867155284 
0 0 0 
-0.001412462293739648 0.004102425713455178 -4.54003626565363e-05 
0 0 0 
0 0 0 
-0.02072692204237261 0.03112505492917913 -0.01289570565038649 
0 0 0 
0 0 0 
0 0 0 
-0.02576610977113476 0.03411327307359365 -0.02428436117906094 
0 0 0 
0 0 0 
0 0 0 
0 0 0 
0 0 0 
0 0 0 
0 0 0 
0 0 0 
0 0 0 
0 0 0 
0 0 0 
0 0 0 
0 0 0 
0 0 0 
0 0 0 
0 0 0 
-0.02988861185686076 0.03070682402119623 -0.02873296364626783 
0 0 0 
0 0 0 
0 0 0 
0 0 0 
0 0 0 
0 0 0 
0 0 0 
0 0 0 
0 0 0 
-0.04115998475392172 0.04415723119392651 -0.01837762768324292 
0 0 0 
-0.0837669214257574 0.08870152946787707 -0.06554258373036384 
0 0 0 
0 0 0 
0 0 0 
0 0 0 
0 0 0 
0 0 0 
0 0 0 
-0.1905374885972367 0.2057537083467921 -0.1793530074142383 
0 0 0 
0 0 0 
0 0 0 
0 0 0 
0 0 0 
0 0 0 
0 0 0 
0 0 0 
0 0 0 
0 0 0 
0 0 0 
0 0 0 
0 0 0 
0 0 0 
0 0 0 
0 0 0 
0 0 0 
0 0 0 
0 0 0 
0 0 0 
0 0 0 
0 0 0 
0 0 0 
0 0 0 
0 0 0 
0 0 0 
0 0 0 
0 0 0 
0 0 0 
0 0 0 
0 0 0 
0 0 0 
0 0 0 
0 0 0 
0.07187518227444777 -0.07533119342184981 -0.0361130423330674 
0 0 0 
0 0 0 
0 0 0 
0 0 0 
0 0 0 
0 0 0 
0 0 0 
0 0 0 
0 0 0 
0 0 0 
0 0 0 
0 0 0 
0 0 0 
0 0 0 
-0.03626215104091842 0.04577180489619152 -0.03000525030231759 
0 0 0 
0 0 0 
0 0 0 
0 0 0 
0 0 0 
0 0 0 
0 0 0 
0 0 0 
0 0 0 
0 0 0 
0 0 0 
0 0 0 
0 0 0 
0 0 0 
0 0 0 
0 0 0 
0 0 0 
0 0 0 
0 0 0 
0 0 0 
0 0 0 
0 0 0 
0 0 0 
-0.007041112149290031 0.02131484537591594 -0.008062792663982203 
0 0 0 
0 0 0 
0 0 0 
0 0 0 
-0.04359031423139673 -0.08468845357747369 0.09833349797623107 
0 0 0 
0 0 0 
0 0 0 
-0.005628649855550383 0.01721241966246076 -0.008017392301325667 
0 0 0 
0 0 0 
0 0 0 
0 0 0 
0 0 0 
0 0 0 
0 0 0 
0 0 0 
-0.001771340478550915 0.002145557228852874 -0.000293698872205185 
0 0 0 
-0.009028705343252908 0.01595062983942533 -0.003360124131590979 
0 0 0 
0 0 0 
0 0 0 
0.02890148271083978 -0.01344376763501376 -0.0829765663828904 
0 0 0 
0 0 0 
0 0 0 
0 0 0 
0 0 0 
0 0 0 
0 0 0 
-0.1492781030109261 0.1817442056374523 -0.1190472516003715 
0 0 0 
0 0 0 
0 0 0 
0 0 0 
0 0 0 
0 0 0 
0 0 0 
0 0 0 
0 0 0 
0 0 0 
0 0 0 
0 0 0 
0 0 0 
0 0 0 
0 0 0 
0 0 0 
0 0 0 
0 0 0 
0 0 0 
0 0 0 
0 0 0 
0 0 0 
0 0 0 
0 0 0 
0 0 0 
0 0 0 
0 0 0 
0 0 0 
0 0 0 
0 0 0 
0 0 0 
0 0 0 
0 0 0 
0 0 0 
0 0 0 
0 0 0 
0 0 0 
0 0 0 
0 0 0 
0 0 0 
-0.02576610977113476 0.03411327307359365 -0.02428436117906094 
0 0 0 
0 0 0 
0 0 0 
0 0 0 
0 0 0 
0 0 0 
0 0 0 
0 0 0 
0 0 0 
0 0 0 
0 0 0 
0 0 0 
0 0 0 
0 0 0 
0 0 0 
0 0 0 
-0.001412462293739648 0.004102425713455178 -4.54003626565363e-05 
0 0 0 
0 0 0 
0 0 0 
0 0 0 
-0.05187519809772422 0.05819723128356878 -0.06312230392127101 
-0.02872442880130917 0.0377710940377521 -0.0228076841528883 
0 0 0 
0 0 0 
0 0 0 
0 0 0 
0 0 0 
-0.05946382775876023 0.07008663757919353 -0.0546406452443388 
0 0 0 
0 0 0 
0 0 0 
0 0 0 
0 0 0 
0 0 0 
0 0 0 
0 0 0 
0 0 0 
0 0 0 
0 0 0 
0 0 0 
0 0 0 
-0.009290250891527484 0.0158229349473032 -0.004136133981004286 
-0.0379251100375653 0.05323163957006177 -0.04201175007475544 
0 0 0 
0 0 0 
0 0 0 
-0.1929422162795643 0.1884382828777266 -0.1363963747450918 
-0.02545805142012037 -0.04113153855282523 0.06594503131130144 
0 0 0 
0 0 0 
0 0 0 
0 0 0 
0 0 0 
0 0 0 
0 0 0 
0 0 0 
0 0 0 
0 0 0 
0 0 0 
0 0 0 
-0.05415004408808305 0.0670404148983525 -0.04673092352163889 
0 0 0 
0 0 0 
0 0 0 
0 0 0 
-0.05287446995286092 0.07382083661380177 -0.07727939808174465 
0 0 0 
0 0 0 
0 0 0 
0 0 0 
0 0 0 
0 0 0 
0 0 0 
0 0 0 
-0.08233467350348291 0.09587201333008694 -0.06449395716578926 
-0.03174709360964931 0.03350030956630852 -0.02122854811832805 
0 0 0 
0 0 0 
0 0 0 
0 0 0 
0 0 0 
0 0 0 
0 0 0 
0 0 0 
0 0 0 
-0.02070220178556529 0.03188004250219995 -0.01660756981068178 
0 0 0 
0 0 0 
0 0 0 
0 0 0 
0 0 0 
0 0 0 
0 0 0 
0 0 0 
0 0 0 
0 0 0 
-0.03064389522811979 0.03646231004661139 -0.01444039593551496 
0 0 0 
0 0 0 
0 0 0 
0 0 0 
0 0 0 
0 0 0 
-0.167783012752736 0.07495691692036005 0.0001608705200357103 
0 0 0 
0 0 0 
0 0 0 
-0.03064389522811979 0.03646231004661139 -0.01444039593551496 
0 0 0 
0 0 0 
0 0 0 
0 0 0 
0 0 0 
0 0 0 
0 0 0 
-0.002857154898902919 0.006637344806933521 -2.550790185757665e-05 
0 0 0 
0 0 0 
0 0 0 
0 0 0 
0 0 0 
0 0 0 
0 0 0 
0 0 0 
-0.04359031423139673 -0.08468845357747369 0.09833349797623107 
0 0 0 
0 0 0 
-0.02320167671784181 0.02431483268300202 -0.02463539494202121 
-0.03290725015317172 0.03872827493644386 -0.0227692021671854 
0 0 0 
0 0 0 
0 0 0 
0 0 0 
0 0 0 
0 0 0 
0 0 0 
0 0 0 
0 0 0 
-0.1239073945971771 -0.1650162426791375 0.2005186057734003 
0 0 0 
0 0 0 
0 0 0 
0 0 0 
0 0 0 
0 0 0 
-0.001934072708520546 0.003709177382062318 -0.0002401572299109712 
0 0 0 
0 0 0 
0 0 0 
-0.006445704921805361 -0.06501463159710022 0.08404641054846472 
0 0 0 
0 0 0 
0 0 0 
0 0 0 
0 0 0 
0 0 0 
0 0 0 
0 0 0 
0 0 0 
0 0 0 
0 0 0 
0 0 0 
0 0 0 
-0.01889438800004812 0.02413995823046036 -0.001914190799784124 
0 0 0 
0 0 0 
0 0 0 
0 0 0 
-0.04132687916618626 0.0533588169325624 -0.03902176930272414 
0 0 0 
0 0 0 
0 0 0 
0 0 0 
0 0 0 
0 0 0 
0 0 0 
0 0 0 
0 0 0 
0 0 0 
-0.0682719050089943 0.0678856168185805 -0.04474493092304206 
0 0 0 
0 0 0 
0 0 0 
0 0 0 
0 0 0 
0 0 0 
0 0 0 
0 0 0 
0 0 0 
0 0 0 
0 0 0 
0 0 0 
-0.001934072708520546 0.003709177382062318 -0.0002401572299109712 
0 0 0 
0 0 0 
-0.05217207062945554 0.06152661317588051 -0.04242718985937042 
0 0 0 
0 0 0 
0 0 0 
0 0 0 
0 0 0 
0 0 0 
0 0 0 
0 0 0 
0 0 0 
0 0 0 
0 0 0 
0 0 0 
-0.03547587639081252 0.06355340749987702 -0.1369900512167644 
0 0 0 
-0.00277296645779216 0.005943548627647404 -0.0002615513539464011 
0 0 0 
0 0 0 
0 0 0 
0 0 0 
0 0 0 
0 0 0 
0 0 0 
0 0 0 
0 0 0 
0 0 0 
0 0 0 
0 0 0 
0 0 0 
0 0 0 
0 0 0 
-0.03290725015317172 0.03872827493644386 -0.0227692021671854 
0 0 0 
0 0 0 
0.2568630716887453 -0.2255540516446862 -0.07303792728961531 
-0.009545333342863276 0.01132945687557182 -0.002990142893285667 
0 0 0 
0 0 0 
0 0 0 
0 0 0 
0 0 0 
0 0 0 
0 0 0 
0 0 0 
0 0 0 
0 0 0 
0 0 0 
0 0 0 
0 0 0 
0 0 0 
0 0 0 
0 0 0 
0 0 0 
0 0 0 
0 0 0 
0 0 0 
0 0 0 
0 0 0 
0 0 0 
0 0 0 
0 0 0 
0 0 0 
0.05417328927530948 -0.02612047628059271 -0.01711660055155205 
0 0 0 
0 0 0 
0 0 0 
0 0 0 
0 0 0 
0 0 0 
0 0 0 
0 0 0 
0 0 0 
0 0 0 
0 0 0 
0 0 0 
0 0 0 
0 0 0 
0 0 0 
0 0 0 
0.06273226271124888 -0.05007860209040618 -0.008023180881037931 
0 0 0 
0 0 0 
0 0 0 
0 0 0 
0 0 0 
0 0 0 
0 0 0 
0 0 0 
0.07487549106087477 -0.05800051878279266 -0.000509030740870269 
0 0 0 
0 0 0 
-0.0007737248253044395 0.003388896521959947 -0.0001855230968380029 
0 0 0 
0 0 0 
0 0 0 
0 0 0 
0 0 0 
0 0 0 
0 0 0 
0 0 0 
0 0 0 
0 0 0 
0 0 0 
0 0 0 
0 0 0 
0 0 0 
0 0 0 
0 0 0 
0 0 0 
0 0 0 
0 0 0 
0 0 0 
0 0 0 
0 0 0 
0 0 0 
0 0 0 
0 0 0 
0 0 0 
0 0 0 
0 0 0 
0 0 0 
0 0 0 
0 0 0 
0 0 0 
0 0 0 
-0.001412462293739648 0.004102425713455178 -4.54003626565363e-05 
0 0 0 
0 0 0 
0 0 0 
-0.303817750405488 0.2745991379897189 -0.1498153567409 
0 0 0 
0 0 0 
0 0 0 
0 0 0 
0 0 0 
0 0 0 
0 0 0 
0 0 0 
0 0 0 
0 0 0 
-0.03626215104091842 0.04577180489619152 -0.03000525030231759 
0 0 0 
0.07187518227444777 -0.07533119342184981 -0.0361130423330674 
0 0 0 
0 0 0 
0 0 0 
0 0 0 
0 0 0 
0 0 0 
0 0 0 
-0.01889438800004812 0.02413995823046036 -0.001914190799784124 
0 0 0 
0 0 0 
0 0 0 
0 0 0 
0 0 0 
0 0 0 
0 0 0 
0 0 0 
-0.006445704921805361 -0.06501463159710022 0.08404641054846472 
0 0 0 
0 0 0 
0 0 0 
0 0 0 
0 0 0 
0 0 0 
-0.06923655560328908 0.1028204794863067 -0.05717008510234858 
0.00139320654259868 -0.08463077871533431 -0.0640439576071319 
0 0 0 
0 0 0 
0 0 0 
0 0 0 
0 0 0 
0 0 0 
0 0 0 
0 0 0 
0 0 0 
0 0 0 
0 0 0 
0 0 0 
0 0 0 
0 0 0 
0 0 0 
-0.04186257137391872 0.03922871351702813 -0.03347843295120555 
0 0 0 
0.07187518227444777 -0.07533119342184981 -0.0361130423330674 
0 0 0 
0 0 0 
0 0 0 
0 0 0 
0 0 0 
0 0 0 
0 0 0 
0 0 0 
0 0 0 
0 0 0 
0.133488027808739 -0.1045815879903747 -0.03556262758986743 
0 0 0 
-0.009545333342863276 0.01132945687557182 -0.002990142893285667 
0 0 0 
0 0 0 
0 0 0 
0 0 0 
0 0 0 
0 0 0 
0 0 0 
0 0 0 
0 0 0 
0 0 0 
0 0 0 
-0.000720539836677099 0.00339918457488763 -0.0007134635729130911 
0 0 0 
0 0 0 
0.06273226271124888 -0.05007860209040618 -0.008023180881037931 
-0.04204053400986655 0.04311526961480421 -0.04351768571415701 
0 0 0 
0 0 0 
0 0 0 
0 0 0 
-0.03444299385226898 0.04179007534436925 -0.02553090153248652 
0 0 0 
0 0 0 
0 0 0 
0 0 0 
0 0 0 
-0.05187519809772422 0.05819723128356878 -0.06312230392127101 
0 0 0 
0 0 0 
0 0 0 
0 0 0 
0 0 0 
0 0 0 
0 0 0 
0 0 0 
0 0 0 
0 0 0 
0 0 0 
0 0 0 
0 0 0 
0 0 0 
0 0 0 
0 0 0 
0 0 0 
0 0 0 
0 0 0 
0 0 0 
0 0 0 
0 0 0 
0 0 0 
0 0 0 
0 0 0 
0 0 0 
0 0 0 
-0.02988861185686076 0.03070682402119623 -0.02873296364626783 
0 0 0 
0 0 0 
0 0 0 
0 0 0 
-0.03274059154072477 -0.02594539688914333 0.04524955710772501 
0 0 0 
0 0 0 
0 0 0 
0 0 0 
0 0 0 
0 0 0 
-0.01808663542145615 0.02885754748009719 -0.01496311169501834 
0 0 0 
0 0 0 
0 0 0 
0 0 0 
0 0 0 
0 0 0 
0 0 0 
0 0 0 
0 0 0 
0 0 0 
0 0 0 
0 0 0 
-0.02988861185686076 0.03070682402119623 -0.02873296364626783 
0 0 0 
0 0 0 
0 0 0 
0 0 0 
0 0 0 
0 0 0 
0 0 0 
0 0 0 
0 0 0 
0 0 0 
0 0 0 
0 0 0 
0 0 0 
0 0 0 
0 0 0 
0 0 0 
0 0 0 
-0.01501584126334425 0.02498775742662388 -0.01706242770047054 
0 0 0 
0 0 0 
0 0 0 
0 0 0 
0 0 0 
0 0 0 
0 0 0 
0 0 0 
0 0 0 
-0.04259407720450332 0.04828100169816059 -0.04139842493911525 
0 0 0 
-0.001412462293739648 0.004102425713455178 -4.54003626565363e-05 
-0.07764130786885898 0.09231050435716243 -0.08740666510033195 
0 0 0 
-0.02320167671784181 0.02431483268300202 -0.02463539494202121 
0 0 0 
0 0 0 
0 0 0 
-0.02764520335710467 0.03203453737930355 -0.02037624095584088 
0 0 0 
0 0 0 
0 0 0 
0 0 0 
0 0 0 
0 0 0 
0 0 0 
0 0 0 
0 0 0 
0 0 0 
0 0 0 
0 0 0 
0 0 0 
0 0 0 
0 0 0 
-0.000720539836677099 0.00339918457488763 -0.0007134635729130911 
0 0 0 
0 0 0 
0 0 0 
0 0 0 
0 0 0 
0 0 0 
0 0 0 
0 0 0 
0 0 0 
0 0 0 
-0.06829962428700076 0.08222830316871185 -0.08544298660375325 
0 0 0 
0 0 0 
0 0 0 
0 0 0 
0 0 0 
-0.002857154898902919 0.006637344806933521 -2.550790185757665e-05 
0 0 0 
0 0 0 
0 0 0 
0 0 0 
0 0 0 
0 0 0 
0 0 0 
0 0 0 
0 0 0 
0 0 0 
0 0 0 
0 0 0 
0 0 0 
0 0 0 
0 0 0 
-0.002857154898902919 0.006637344806933521 -2.550790185757665e-05 
0 0 0 
0 0 0 
0 0 0 
0 0 0 
0 0 0 
0 0 0 
-0.05187519809772422 0.05819723128356878 -0.06312230392127101 
0 0 0 
0.07187518227444777 -0.07533119342184981 -0.0361130423330674 
0 0 0 
0 0 0 
0 0 0 
0 0 0 
0 0 0 
0 0 0 
0 0 0 
0 0 0 
0 0 0 
0 0 0 
0 0 0 
0 0 0 
0 0 0 
0 0 0 
0 0 0 
0 0 0 
-0.04115998475392172 0.04415723119392651 -0.01837762768324292 
0 0 0 
0 0 0 
0 0 0 
0 0 0 
0 0 0 
0 0 0 
0 0 0 
0 0 0 
0 0 0 
0 0 0 
0 0 0 
0 0 0 
0 0 0 
0 0 0 
0 0 0 
0 0 0 
0 0 0 
0 0 0 
0 0 0 
0 0 0 
0 0 0 
0 0 0 
0 0 0 
0 0 0 
0 0 0 
-0.0641291931724131 0.09247527428159107 -0.05328675988397796 
0 0 0 
0 0 0 
0 0 0 
0 0 0 
0 0 0 
-0.09307360374054453 0.1074708794828454 -0.06764598433061553 
0 0 0 
-0.129340414737379 0.1047473016066558 -0.04512987335984649 
0 0 0 
0 0 0 
0 0 0 
0 0 0 
0 0 0 
0 0 0 
0 0 0 
-0.001934072708520546 0.003709177382062318 -0.0002401572299109712 
0 0 0 
0 0 0 
0 0 0 
0 0 0 
0 0 0 
0 0 0 
0 0 0 
0 0 0 
0 0 0 
-0.1732241195787323 0.1854690800828085 -0.1545863562988066 
-0.03174709360964931 0.03350030956630852 -0.02122854811832805 
0 0 0 
0 0 0 
0 0 0 
0 0 0 
0 0 0 
0 0 0 
0 0 0 
0 0 0 
0 0 0 
0 0 0 
0 0 0 
0 0 0 
0 0 0 
0 0 0 
0 0 0 
0 0 0 
0 0 0 
-0.0005678970335905926 0.001399466037476905 -0.0001051347745334671 
0 0 0 
0.1193368402165836 -0.1034619957607595 -0.1158758775130151 
0 0 0 
0 0 0 
0 0 0 
0 0 0 
0 0 0 
0 0 0 
0 0 0 
-0.03411691919059139 0.03768170868781132 -0.01343077487499846 
0 0 0 
0 0 0 
0 0 0 
0 0 0 
0 0 0 
0 0 0 
0 0 0 
0 0 0 
0 0 0 
0 0 0 
0 0 0 
0 0 0 
0 0 0 
0 0 0 
0 0 0 
0 0 0 
-0.05561952090654042 0.07245238214139825 -0.06325598009297394 
0 0 0 
0 0 0 
0 0 0 
0 0 0 
0 0 0 
0 0 0 
0 0 0 
0 0 0 
0 0 0 
0 0 0 
0 0 0 
0 0 0 
0 0 0 
-0.07992561306141215 0.1132630745153253 -0.08445454177444876 
0 0 0 
0 0 0 
0 0 0 
0 0 0 
0 0 0 
0 0 0 
-0.04172352362069919 0.04121151265651551 -0.02016349046480323 
0 0 0 
0 0 0 
0 0 0 
0 0 0 
0 0 0 
0 0 0 
0 0 0 
0.09101940339752862 -0.08998089742185196 -0.02062534717014346 
0 0 0 
0 0 0 
0 0 0 
0 0 0 
0 0 0 
0 0 0 
0 0 0 
0 0 0 
0 0 0 
0 0 0 
0 0 0 
0 0 0 
0.07487549106087477 -0.05800051878279266 -0.000509030740870269 
0 0 0 
0 0 0 
0 0 0 
0 0 0 
0 0 0 
0 0 0 
0 0 0 
0 0 0 
0 0 0 
0 0 0 
0 0 0 
0 0 0 
-0.001934072708520546 0.003709177382062318 -0.0002401572299109712 
0 0 0 
0 0 0 
0 0 0 
0 0 0 
0 0 0 
0 0 0 
0 0 0 
0 0 0 
-0.02576610977113476 0.03411327307359365 -0.02428436117906094 
0 0 0 
0 0 0 
0 0 0 
0 0 0 
0 0 0 
-0.04086714084648629 0.05118931451422426 -0.01607176434566253 
0 0 0 
0.07187518227444777 -0.07533119342184981 -0.0361130423330674 
0 0 0 
0 0 0 
-0.04088117184625938 -0.09564010213264658 0.1217048376945486 
0 0 0 
0 0 0 
0 0 0 
0 0 0 
0 0 0 
0 0 0 
0 0 0 
0 0 0 
0 0 0 
-0.006445704921805361 -0.06501463159710022 0.08404641054846472 
0 0 0 
0 0 0 
0 0 0 
0 0 0 
0 0 0 
0 0 0 
0 0 0 
0 0 0 
0 0 0 
0 0 0 
0 0 0 
0 0 0 
0 0 0 
0 0 0 
0 0 0 
0 0 0 
0 0 0 
-0.00277296645779216 0.005943548627647404 -0.0002615513539464011 
0 0 0 
0 0 0 
0 0 0 
0 0 0 
0 0 0 
0 0 0 
0 0 0 
0 0 0 
0 0 0 
0 0 0 
0 0 0 
0 0 0 
0 0 0 
-0.1044517318437041 0.1318412376059516 -0.1208357275410753 
0 0 0 
0 0 0 
0 0 0 
0 0 0 
0 0 0 
0 0 0 
0 0 0 
0 0 0 
0 0 0 
0 0 0 
0 0 0 
0 0 0 
0 0 0 
0 0 0 
0 0 0 
0 0 0 
0 0 0 
0 0 0 
0 0 0 
0 0 0 
0 0 0 
0 0 0 
0 0 0 
-0.0238636880235508 0.04109809154985711 -0.01929697830508709 
0 0 0 
0 0 0 
0 0 0 
0 0 0 
0 0 0 
0 0 0 
0 0 0 
0.01535859353233397 -0.006396650690406113 -0.07821456045044181 
0 0 0 
0 0 0 
0 0 0 
-0.1538209726818592 -0.1214791452111969 0.175032704440698 
0 0 0 
0 0 0 
0 0 0 
0 0 0 
0 0 0 
0 0 0 
0 0 0 
0 0 0 
0 0 0 
0 0 0 
0 0 0 
-0.009978145254549011 0.01904950686223134 -0.00971699865942911 
0 0 0 
0 0 0 
0 0 0 
0 0 0 
0 0 0 
-0.06625056164423623 0.06593420590669141 -0.04797734939540271 
0 0 0 
0 0 0 
0 0 0 
0 0 0 
0 0 0 
0 0 0 
-0.000720539836677099 0.00339918457488763 -0.0007134635729130911 
0 0 0 
0 0 0 
0 0 0 
0.0345925182116482 -0.01449458510242451 -0.04917976409739534 
0 0 0 
0 0 0 
0 0 0 
0 0 0 
0 0 0 
0 0 0 
0 0 0 
0 0 0 
0 0 0 
0.06785063816860912 -0.05468305329624554 -0.02642469087377953 
0 0 0 
0 0 0 
0 0 0 
0 0 0 
-0.01889438800004812 0.02413995823046036 -0.001914190799784124 
0 0 0 
0 0 0 
0 0 0 
0 0 0 
0 0 0 
0 0 0 
0 0 0 
-0.004185428751531807 0.01004597434110258 -0.0003069517166029373 
0 0 0 
-0.009410248220958419 0.01765004082475443 -0.009611863884895641 
-0.003577694735580018 0.01003652938182115 -0.0007389714747706677 
0 0 0 
0 0 0 
0 0 0 
0 0 0 
0 0 0 
0 0 0 
0 0 0 
0 0 0 
0 0 0 
0 0 0 
0 0 0 
0 0 0 
0 0 0 
0 0 0 
0 0 0 
-0.00277296645779216 0.005943548627647404 -0.0002615513539464011 
-0.04369308958812079 -0.01724586666542887 0.05466544530754002 
0 0 0 
0 0 0 
0 0 0 
0.08796343234489626 -0.06267045473092835 -0.03088956812708561 
0 0 0 
0 0 0 
0 0 0 
-0.0335490221570008 0.03628224265033442 -0.01332564010046499 
0 0 0 
0 0 0 
0 0 0 
0 0 0 
0 0 0 
0 0 0 
0 0 0 
0 0 0 
0 0 0 
0 0 0 
0 0 0 
0 0 0 
0 0 0 
-0.01473647159561534 0.01567370573397854 -0.005112870805535007 
0 0 0 
0 0 0 
0 0 0 
-0.005628649855550383 0.01721241966246076 -0.008017392301325667 
0 0 0 
0 0 0 
0 0 0 
0 0 0 
-0.06568842283430663 0.06760253019511464 -0.04415072510284397 
0 0 0 
0 0 0 
0 0 0 
0 0 0 
0 0 0 
0 0 0 
0.09101940339752862 -0.08998089742185196 -0.02062534717014346 
0 0 0 
0 0 0 
0 0 0 
0 0 0 
0 0 0 
0 0 0 
0 0 0 
0 0 0 
0 0 0 
-0.03016260287402736 0.03434540015420644 -0.02206676730641885 
0 0 0 
0 0 0 
0 0 0 
0 0 0 
0 0 0 
0 0 0 
0 0 0 
0 0 0 
0 0 0 
0 0 0 
0 0 0 
0 0 0 
0 0 0 
0 0 0 
0 0 0 
0 0 0 
0 0 0 
0 0 0 
0 0 0 
0 0 0 
0 0 0 
0 0 0 
0 0 0 
0 0 0 
0 0 0 
0 0 0 
0.04132646890387396 -0.02171827613245824 -0.01383467084133526 
0 0 0 
0 0 0 
0 0 0 
0 0 0 
0 0 0 
0 0 0 
0 0 0 
0 0 0 
0 0 0 
0 0 0 
0.07367238475463728 -0.06752911400813169 -0.06315893759951802 
0 0 0 
0 0 0 
0 0 0 
0 0 0 
0 0 0 
-0.05144582925213552 0.05315551557117935 -0.03679669880324271 
-0.02764520335710467 0.03203453737930355 -0.02037624095584088 
0 0 0 
0 0 0 
0 0 0 
0 0 0 
0 0 0 
0 0 0 
0 0 0 
0 0 0 
0 0 0 
0 0 0 
0 0 0 
0 0 0 
0 0 0 
0 0 0 
0 0 0 
0 0 0 
0 0 0 
0 0 0 
0 0 0 
0 0 0 
0 0 0 
0 0 0 
0 0 0 
0.02660541754878011 0.02101793564176872 -0.1157827640531049 
0 0 0 
0 0 0 
0 0 0 
0 0 0 
0 0 0 
-0.1103900825118782 0.1372018857285096 -0.09731948637249171 
-0.0949749904455454 0.1037052999444435 -0.07078503354829101 
0 0 0 
0 0 0 
-0.03183843550323338 0.03523868467479894 -0.01271164021407154 
0 0 0 
0 0 0 
0 0 0 
0 0 0 
0 0 0 
0 0 0 
0 0 0 
0 0 0 
0 0 0 
0.3103477862274825 -0.2785037872008867 -0.09576989552218353 
0 0 0 
0 0 0 
0 0 0 
0 0 0 
0 0 0 
0 0 0 
0 0 0 
0 0 0 
0 0 0 
0 0 0 
0 0 0 
0 0 0 
-0.03356732374154724 0.03576509251769536 -0.02635637754064775 
0 0 0 
0 0 0 
0 0 0 
0 0 0 
0 0 0 
0 0 0 
0 0 0 
0 0 0 
0 0 0 
-0.240715304248275 0.1580546049828089 -0.1333134742470163 
0 0 0 
0 0 0 
0 0 0 
0 0 0 
0 0 0 
0 0 0 
0 0 0 
0 0 0 
0 0 0 
-0.0379251100375653 0.05323163957006177 -0.04201175007475544 
0 0 0 
0 0 0 
0 0 0 
0 0 0 
0 0 0 
0 0 0 
0 0 0 
0 0 0 
0 0 0 
0 0 0 
-0.004791227607423464 0.01034652218899584 -0.0002656651317685478 
0 0 0 
0 0 0 
-0.001771340478550915 0.002145557228852874 -0.000293698872205185 
0 0 0 
0 0 0 
0 0 0 
0 0 0 
0 0 0 
0 0 0 
0 0 0 
0 0 0 
-0.1034717666231318 0.1165825938701623 -0.06689369655242192 
0 0 0 
0 0 0 
0 0 0 
0 0 0 
0 0 0 
0 0 0 
0 0 0 
0 0 0 
-0.0935161666056874 0.10805134388219 -0.06961617143486791 
-0.0324780034589293 0.05857004530181971 -0.1257952165914132 
0 0 0 
0 0 0 
-0.03712039890261105 0.0561115841302702 -0.02978205050868707 
0 0 0 
0 0 0 
0 0 0 
0 0 0 
0 0 0 
0 0 0 
0 0 0 
0 0 0 
0 0 0 
0 0 0 
0 0 0 
0 0 0 
0 0 0 
0 0 0 
-0.01473647159561534 0.01567370573397854 -0.005112870805535007 
-0.006445704921805361 -0.06501463159710022 0.08404641054846472 
0 0 0 
0 0 0 
0 0 0 
-0.03064389522811979 0.03646231004661139 -0.01444039593551496 
0 0 0 
0 0 0 
0 0 0 
0 0 0 
0 0 0 
0 0 0 
0 0 0 
0 0 0 
0 0 0 
0 0 0 
0 0 0 
0 0 0 
0 0 0 
0 0 0 
0 0 0 
0 0 0 
0 0 0 
0 0 0 
0 0 0 
0 0 0 
0 0 0 
0 0 0 
0 0 0 
0 0 0 
0 0 0 
0 0 0 
0 0 0 
0 0 0 
0 0 0 
-0.01573595581333284 -0.04919169664979701 0.07991027656746043 
0 0 0 
-0.2236099538368855 0.2706196620633795 -0.3366298192409831 
0 0 0 
0 0 0 
0 0 0 
0 0 0 
0 0 0 
0 0 0 
0 0 0 
0 0 0 
0 0 0 
0 0 0 
0 0 0 
0 0 0 
0 0 0 
0 0 0 
0 0 0 
0 0 0 
0 0 0 
0 0 0 
0 0 0 
0 0 0 
0 0 0 
-0.02988861185686076 0.03070682402119623 -0.02873296364626783 
0 0 0 
0 0 0 
0 0 0 
-0.01501584126334425 0.02498775742662388 -0.01706242770047054 
0 0 0 
0 0 0 
-0.0005678970335905926 0.001399466037476905 -0.0001051347745334671 
0 0 0 
-0.009028705343252908 0.01595062983942533 -0.003360124131590979 
0 0 0 
0 0 0 
0 0 0 
-0.002857154898902919 0.006637344806933521 -2.550790185757665e-05 
0 0 0 
0 0 0 
0 0 0 
0 0 0 
0 0 0 
0 0 0 
0 0 0 
0 0 0 
0 0 0 
0 0 0 
0 0 0 
0 0 0 
0 0 0 
0 0 0 
0 0 0 
0 0 0 
0 0 0 
0 0 0 
0 0 0 
-0.01473647159561534 0.01567370573397854 -0.005112870805535007 
0 0 0 
0 0 0 
0 0 0 
-0.05112053164209593 -0.07969079130525557 0.08753600184784678 
0 0 0 
0 0 0 
0 0 0 
0 0 0 
0 0 0 
-0.01808663542145615 0.02885754748009719 -0.01496311169501834 
0 0 0 
0 0 0 
0 0 0 
0 0 0 
0 0 0 
0 0 0 
0 0 0 
0 0 0 
0 0 0 
-0.06625056164423623 0.06593420590669141 -0.04797734939540271 
0 0 0 
0 0 0 
0 0 0 
0 0 0 
-0.01501584126334425 0.02498775742662388 -0.01706242770047054 
0 0 0 
0 0 0 
0 0 0 
0 0 0 
0 0 0 
0 0 0 
0 0 0 
0 0 0 
0 0 0 
0 0 0 
0 0 0 
0 0 0 
0 0 0 
0 0 0 
0 0 0 
0 0 0 
0 0 0 
0 0 0 
0 0 0 
0 0 0 
0 0 0 
-0.03444299385226898 0.04179007534436925 -0.02553090153248652 
0 0 0 
-0.07862083306582986 0.02997481237755657 0.0135937301481227 
0 0 0 
0 0 0 
0 0 0 
0 0 0 
0 0 0 
0 0 0 
0 0 0 
0 0 0 
0 0 0 
-0.02527615031729045 0.0452005172633123 -0.01934237866774363 
0 0 0 
0 0 0 
0 0 0 
0 0 0 
0 0 0 
0 0 0 
0 0 0 
0 0 0 
0 0 0 
0 0 0 
0 0 0 
-0.05187519809772422 0.05819723128356878 -0.06312230392127101 
0 0 0 
0 0 0 
0 0 0 
0 0 0 
0 0 0 
0 0 0 
0 0 0 
0 0 0 
0 0 0 
0 0 0 
0 0 0 
-0.01267253391269283 0.01281410301945818 -0.07368310654118113 
0 0 0 
0 0 0 
0 0 0 
0 0 0 
0 0 0 
0 0 0 
0 0 0 
0 0 0 
0 0 0 
0 0 0 
0 0 0 
0 0 0 
-0.03982111074671116 0.04233745307051318 -0.04113687358516886 
0 0 0 
0 0 0 
-0.01343622798071366 0.02829484121565161 -0.01779051735377106 
0 0 0 
0 0 0 
0 0 0 
0 0 0 
0 0 0 
-0.001771340478550915 0.002145557228852874 -0.000293698872205185 
0 0 0 
-0.01823503816800042 0.02388567188739635 -0.01127958600376143 
0 0 0 
0 0 0 
0 0 0 
0 0 0 
0 0 0 
0 0 0 
0 0 0 
0 0 0 
0 0 0 
0 0 0 
0 0 0 
0 0 0 
0 0 0 
0 0 0 
0 0 0 
0 0 0 
0 0 0 
0 0 0 
0 0 0 
0 0 0 
0 0 0 
0 0 0 
0 0 0 
0 0 0 
0 0 0 
0 0 0 
0 0 0 
0 0 0 
0 0 0 
0 0 0 
0 0 0 
0 0 0 
0 0 0 
0 0 0 
0 0 0 
0 0 0 
0 0 0 
0 0 0 
0 0 0 
0 0 0 
0 0 0 
0 0 0 
0 0 0 
0 0 0 
0 0 0 
0 0 0 
0 0 0 
0 0 0 
0 0 0 
0 0 0 
0.06161967813681874 -0.04803830042626486 -0.1749697195316263 
0 0 0 
0 0 0 
0 0 0 
0 0 0 
-0.01964750046174007 0.02798809760085154 -0.01132498636641796 
0 0 0 
0 0 0 
0 0 0 
0 0 0 
0 0 0 
0 0 0 
0 0 0 
0 0 0 
0 0 0 
0.0473248486500138 -0.0327169121002617 -0.09494256102208276 
0 0 0 
0.01586693924466832 0.01607659383290977 -0.04556327907534962 
0 0 0 
0 0 0 
0 0 0 
0 0 0 
0 0 0 
0 0 0 
0 0 0 
0 0 0 
0 0 0 
0 0 0 
0 0 0 
0 0 0 
0 0 0 
-0.05287446995286092 0.07382083661380177 -0.07727939808174465 
0 0 0 
0 0 0 
0 0 0 
0 0 0 
0 0 0 
0 0 0 
0 0 0 
0 0 0 
0 0 0 
0 0 0 
-0.001771340478550915 0.002145557228852874 -0.000293698872205185 
0 0 0 
0 0 0 
0 0 0 
0 0 0 
0 0 0 
0 0 0 
0 0 0 
0 0 0 
0 0 0 
0 0 0 
0 0 0 
0 0 0 
0 0 0 
0 0 0 
0 0 0 
0 0 0 
0 0 0 
0 0 0 
0 0 0 
0 0 0 
0 0 0 
0 0 0 
0 0 0 
0 0 0 
0 0 0 
0 0 0 
0 0 0 
-0.1067517896457632 -0.01648930139297364 0.05043235132800113 
0 0 0 
0 0 0 
-0.02545805142012037 -0.04113153855282523 0.06594503131130144 
0 0 0 
0 0 0 
0 0 0 
0 0 0 
0 0 0 
0 0 0 
0 0 0 
0 0 0 
0 0 0 
0 0 0 
0 0 0 
0 0 0 
0 0 0 
-0.04608131682170438 0.05244730271959776 -0.03966073682517973 
0 0 0 
0 0 0 
0 0 0 
0 0 0 
0 0 0 
0 0 0 
0 0 0 
0 0 0 
0 0 0 
0 0 0 
0 0 0 
0 0 0 
0 0 0 
0 0 0 
0 0 0 
0 0 0 
0 0 0 
0 0 0 
0 0 0 
0 0 0 
0 0 0 
0 0 0 
-0.02833936111308925 0.03052215979344581 -0.02006288032876176 
0 0 0 
0 0 0 
-0.01629338287961658 0.03493218602258513 -0.01781602525562864 
0 0 0 
0 0 0 
0 0 0 
0 0 0 
0 0 0 
0 0 0 
0 0 0 
0 0 0 
0 0 0 
0 0 0 
0 0 0 
0 0 0 
0 0 0 
0.1750720450802472 -0.1584944099547116 -0.07625798837283256 
0 0 0 
0 0 0 
0 0 0 
0 0 0 
0 0 0 
0 0 0 
0 0 0 
0 0 0 
0 0 0 
0 0 0 
0 0 0 
0 0 0 
0 0 0 
0 0 0 
0 0 0 
0 0 0 
0 0 0 
0 0 0 
0 0 0 
0 0 0 
0 0 0 
0 0 0 
0 0 0 
0 0 0 
0 0 0 
0 0 0 
0 0 0 
0 0 0 
0 0 0 
0 0 0 
0 0 0 
0 0 0 
0 0 0 
0 0 0 
0 0 0 
-0.02545805142012037 -0.04113153855282523 0.06594503131130144 
0 0 0 
0 0 0 
0 0 0 
0 0 0 
-0.05187519809772422 0.05819723128356878 -0.06312230392127101 
0 0 0 
0 0 0 
0 0 0 
0 0 0 
0 0 0 
0 0 0 
0 0 0 
0 0 0 
0 0 0 
0 0 0 
0 0 0 
-0.006445704921805361 -0.06501463159710022 0.08404641054846472 
-0.04608131682170438 0.05244730271959776 -0.03966073682517973 
0 0 0 
0 0 0 
0 0 0 
0 0 0 
0 0 0 
0 0 0 
0 0 0 
0 0 0 
0 0 0 
0 0 0 
0 0 0 
0 0 0 
0 0 0 
0 0 0 
0 0 0 
0 0 0 
0 0 0 
0 0 0 
0 0 0 
0 0 0 
0 0 0 
0 0 0 
0 0 0 
0 0 0 
0 0 0 
0 0 0 
0 0 0 
0 0 0 
0 0 0 
0 0 0 
0 0 0 
0 0 0 
0 0 0 
0 0 0 
0 0 0 
-0.01808663542145615 0.02885754748009719 -0.01496311169501834 
0 0 0 
0 0 0 
-0.03970336555617219 0.09712976517431793 -0.1541795007718195 
-0.000720539836677099 0.00339918457488763 -0.0007134635729130911 
0 0 0 
0 0 0 
0 0 0 
0 0 0 
0 0 0 
0 0 0 
0 0 0 
-0.009545333342863276 0.01132945687557182 -0.002990142893285667 
0 0 0 
0 0 0 
0 0 0 
0 0 0 
0 0 0 
0 0 0 
-0.002857154898902919 0.006637344806933521 -2.550790185757665e-05 
-0.0419374671422563 0.05393562884750284 -0.04101854454757608 
0 0 0 
0 0 0 
0 0 0 
0 0 0 
0 0 0 
0 0 0 
0 0 0 
0 0 0 
0 0 0 
0 0 0 
0 0 0 
0.05631375770783552 -0.05567374712238346 -0.02926687827813367 
0 0 0 
0 0 0 
0 0 0 
0 0 0 
0 0 0 
0 0 0 
0 0 0 
0 0 0 
0 0 0 
0 0 0 
0 0 0 
0 0 0 
0 0 0 
0 0 0 
0 0 0 
0 0 0 
0 0 0 
0 0 0 
0 0 0 
0 0 0 
0 0 0 
0 0 0 
0 0 0 
0 0 0 
0 0 0 
0 0 0 
0 0 0 
0 0 0 
0 0 0 
-0.009410248220958419 0.01765004082475443 -0.009611863884895641 
0 0 0 
-0.03016260287402736 0.03434540015420644 -0.02206676730641885 
0 0 0 
0 0 0 
0 0 0 
0 0 0 
0 0 0 
0 0 0 
-0.001412462293739648 0.004102425713455178 -4.54003626565363e-05 
0 0 0 
0 0 0 
0 0 0 
-0.02903568879140834 0.04173512826583623 -0.02999534350896145 
0 0 0 
0 0 0 
0 0 0 
0 0 0 
-0.03224758364577135 0.04080710148809161 -0.01904604834279109 
0 0 0 
0 0 0 
0 0 0 
0 0 0 
0 0 0 
0 0 0 
0 0 0 
0 0 0 
0 0 0 
-0.000720539836677099 0.00339918457488763 -0.0007134635729130911 
-0.07673003657236724 0.09229235852696278 -0.0782280376670441 
0 0 0 
0 0 0 
0 0 0 
0 0 0 
0 0 0 
0 0 0 
0 0 0 
0 0 0 
0 0 0 
0 0 0 
0 0 0 
-0.05310325477722504 -0.00909700117352168 0.04556879035546057 
0 0 0 
0 0 0 
0 0 0 
0 0 0 
0 0 0 
0 0 0 
0 0 0 
0 0 0 
0 0 0 
0 0 0 
0 0 0 
0 0 0 
0 0 0 
0 0 0 
0 0 0 
0 0 0 
0 0 0 
0 0 0 
0 0 0 
0 0 0 
0 0 0 
0 0 0 
0 0 0 
0 0 0 
0 0 0 
0 0 0 
0 0 0 
0 0 0 
0 0 0 
0 0 0 
0 0 0 
0 0 0 
0 0 0 
-0.004628495377453834 0.008782902035786395 -0.0003192067740627617 
-0.001771340478550915 0.002145557228852874 -0.000293698872205185 
0 0 0 
0 0 0 
0 0 0 
0 0 0 
0 0 0 
0 0 0 
0 0 0 
-0.02988861185686076 0.03070682402119623 -0.02873296364626783 
0 0 0 
0 0 0 
0 0 0 
0 0 0 
0 0 0 
-0.03274059154072477 -0.02594539688914333 0.04524955710772501 
0 0 0 
0 0 0 
0 0 0 
-0.03506795513866238 0.04659429476312824 -0.04198624217289786 
0 0 0 
-0.05144582925213552 0.05315551557117935 -0.03679669880324271 
0 0 0 
0 0 0 
0 0 0 
0 0 0 
0 0 0 
0 0 0 
0 0 0 
0 0 0 
0 0 0 
0 0 0 
-0.001771340478550915 0.002145557228852874 -0.000293698872205185 
0 0 0 
0 0 0 
0.141813513218338 -0.1330544074708739 -0.01679255695439852 
0 0 0 
0 0 0 
-0.03982111074671116 0.04233745307051318 -0.04113687358516886 
0 0 0 
0 0 0 
0 0 0 
0 0 0 
0 0 0 
0 0 0 
0 0 0 
0 0 0 
0 0 0 
0 0 0 
0 0 0 
0 0 0 
0 0 0 
0 0 0 
0 0 0 
0 0 0 
-0.03737574346519969 0.05071272922876928 -0.02924594041965371 
0 0 0 
0 0 0 
0 0 0 
0 0 0 
0 0 0 
0 0 0 
0 0 0 
0 0 0 
0 0 0 
0 0 0 
0 0 0 
0 0 0 
0 0 0 
0 0 0 
0 0 0 
0 0 0 
0 0 0 
0 0 0 
0 0 0 
0 0 0 
-0.1212613909828335 0.009073814185783843 0.04328938401460358 
0 0 0 
0 0 0 
0 0 0 
0 0 0 
-0.03409090827891003 -0.03298009421779667 0.06367016959262384 
0 0 0 
0 0 0 
0 0 0 
0 0 0 
0 0 0 
-0.03451193201927569 -0.02379983966029046 0.04495585823551983 
0 0 0 
0 0 0 
-0.0439038785034071 0.05619487518520196 -0.04124296475270299 
0 0 0 
0 0 0 
0 0 0 
0 0 0 
0 0 0 
0 0 0 
0 0 0 
-0.09337180242944325 0.1149894415139172 -0.08037504514305398 
0 0 0 
0 0 0 
-0.01823503816800042 0.02388567188739635 -0.01127958600376143 
0 0 0 
-0.02545805142012037 -0.04113153855282523 0.06594503131130144 
0 0 0 
0 0 0 
0 0 0 
0 0 0 
0 0 0 
0 0 0 
0 0 0 
0 0 0 
0 0 0 
-0.1260340002918842 0.12785807213631 -0.1012371475364024 
0 0 0 
0 0 0 
0 0 0 
0 0 0 
0 0 0 
0 0 0 
0 0 0 
0 0 0 
0 0 0 
0 0 0 
0 0 0 
0 0 0 
0 0 0 
0 0 0 
0 0 0 
0 0 0 
0 0 0 
0 0 0 
0 0 0 
0.1144816614368166 -0.09110017813633541 -0.05635050510975026 
0 0 0 
0 0 0 
0 0 0 
0 0 0 
0 0 0 
0 0 0 
-0.009290250891527484 0.0158229349473032 -0.004136133981004286 
0 0 0 
0 0 0 
0 0 0 
0 0 0 
0 0 0 
0 0 0 
0 0 0 
0 0 0 
0 0 0 
0 0 0 
0 0 0 
-0.03183843550323338 0.03523868467479894 -0.01271164021407154 
0 0 0 
0 0 0 
0 0 0 
0 0 0 
0 0 0 
0 0 0 
0 0 0 
0 0 0 
0 0 0 
0 0 0 
0 0 0 
0 0 0 
0 0 0 
0 0 0 
0 0 0 
0 0 0 
0 0 0 
0 0 0 
0 0 0 
0 0 0 
0 0 0 
0.2269774906534046 -0.1962295351887681 -0.06386152456125749 
0 0 0 
0 0 0 
0 0 0 
0 0 0 
0 0 0 
0 0 0 
0 0 0 
0 0 0 
0 0 0 
0 0 0 
0 0 0 
0 0 0 
0 0 0 
0 0 0 
0 0 0 
0 0 0 
0 0 0 
0 0 0 
0 0 0 
0 0 0 
0 0 0 
0 0 0 
0 0 0 
0 0 0 
0 0 0 
0 0 0 
0 0 0 
0 0 0 
0 0 0 
0 0 0 
0 0 0 
0 0 0 
0 0 0 
0 0 0 
-0.000720539836677099 0.00339918457488763 -0.0007134635729130911 
0 0 0 
0 0 0 
0 0 0 
0 0 0 
0 0 0 
0 0 0 
0 0 0 
0 0 0 
0 0 0 
0 0 0 
0 0 0 
0 0 0 
0 0 0 
0 0 0 
0 0 0 
0 0 0 
0 0 0 
0 0 0 
0 0 0 
0 0 0 
0 0 0 
0 0 0 
0 0 0 
0 0 0 
0 0 0 
0 0 0 
0 0 0 
0 0 0 
0 0 0 
0 0 0 
0 0 0 
0 0 0 
0 0 0 
0 0 0 
0 0 0 
0 0 0 
0 0 0 
0 0 0 
0 0 0 
0 0 0 
0 0 0 
0 0 0 
0 0 0 
0 0 0 
0 0 0 
0 0 0 
0 0 0 
0 0 0 
0 0 0 
0 0 0 
0 0 0 
0 0 0 
0 0 0 
0 0 0 
0 0 0 
0 0 0 
0 0 0 
0 0 0 
0 0 0 
0 0 0 
-0.001771340478550915 0.002145557228852874 -0.000293698872205185 
0 0 0 
0 0 0 
0 0 0 
0 0 0 
0 0 0 
0 0 0 
0 0 0 
0 0 0 
0 0 0 
0 0 0 
0 0 0 
0 0 0 
0 0 0 
0 0 0 
0 0 0 
0 0 0 
0 0 0 
0 0 0 
0 0 0 
0 0 0 
0 0 0 
0 0 0 
0 0 0 
0 0 0 
0 0 0 
0 0 0 
0 0 0 
0 0 0 
0 0 0 
0 0 0 
0 0 0 
0 0 0 
0 0 0 
0 0 0 
0 0 0 
0 0 0 
0 0 0 
0 0 0 
0 0 0 
0 0 0 
0.1013996603256099 -0.09096529594657995 -0.01309905077331454 
0 0 0 
0 0 0 
0 0 0 
0 0 0 
0 0 0 
-0.001412462293739648 0.004102425713455178 -4.54003626565363e-05 
0 0 0 
0 0 0 
0 0 0 
0 0 0 
0 0 0 
0 0 0 
0 0 0 
0 0 0 
0 0 0 
-0.0194542660543393 0.09417892879298867 -0.3013103895392026 
0 0 0 
0 0 0 
0 0 0 
0 0 0 
0 0 0 
-0.01343622798071366 0.02829484121565161 -0.01779051735377106 
0 0 0 
0.06273226271124888 -0.05007860209040618 -0.008023180881037931 
0 0 0 
0 0 0 
0 0 0 
0 0 0 
0 0 0 
0 0 0 
0 0 0 
0 0 0 
0 0 0 
0 0 0 
0 0 0 
0 0 0 
0 0 0 
0 0 0 
0 0 0 
0 0 0 
0 0 0 
0 0 0 
0 0 0 
0 0 0 
0 0 0 
0 0 0 
0 0 0 
0 0 0 
0 0 0 
0 0 0 
0 0 0 
0 0 0 
0 0 0 
0 0 0 
0 0 0 
0 0 0 
0 0 0 
0 0 0 
0 0 0 
0 0 0 
0 0 0 
0 0 0 
0 0 0 
0 0 0 
