solver_type L2R_LR
nr_class 9
label 1 3 7 2 0 4 6 5 8
nr_feature 7949
bias -1
w
-0.08811018445697892 -0.2145553898533457 -0.4502354087549771 -0.09647803725916175 -0.1260087289961521 -0.2517883610140295 -0.1962557412019937 -0.1291426124360194 -0.1281005813726123 
-0.01178873086327399 -0.008352679739628579 -0.005966409680084973 -0.005271516852420605 -0.003935219195763688 -0.0063205849521094 0.02469201083088864 -0.003938508949454031 -0.005113756679674772 
0.009572025641391894 -0.0004894353074251504 -0.00153997418119254 -0.00303558404463982 -3.971298409230802e-05 -0.0001265036180558355 -0.001533684759449282 -1.732755478010152e-05 -4.375042570830754e-05 
0.0006463440221112384 5.06024096925092e-08 -3.656941647100606e-06 -4.439903413360711e-06 5.053916263219235e-06 -1.441317814690538e-07 -0.0009105276239736809 -6.557475035300124e-08 1.379861264195956e-07 
0.001825965017423688 2.179736066454159e-07 2.672734148419352e-08 3.569776656862103e-06 -3.468097734566013e-06 -6.631007023158923e-07 7.125224468403626e-06 -3.011725339569905e-07 9.755460034296468e-08 
0.008695629468407786 -0.006775238670046645 0.01236779678793217 -0.009323027138852906 -0.001050090448873039 -0.001074765189157966 -0.01279461247857134 -0.005431213003260904 -0.003590927218160895 
3.597128707498746e-05 6.147927484314142e-08 2.138123705599235e-07 2.884929624929541e-07 -8.526784776100133e-07 -1.631911331177673e-07 3.97460845527545e-07 -7.445065230350717e-08 5.076968886933066e-09 
0.0006463440221112384 5.06024096925092e-08 -3.656941647100606e-06 -4.439903413360711e-06 5.053916263219235e-06 -1.441317814690538e-07 -0.0009105276239736809 -6.557475035300124e-08 1.379861264195956e-07 
0.004603406023085897 4.666423943983801e-07 1.561010220688297e-06 -3.500754072997829e-05 -6.689613266634093e-07 -1.386558933081525e-07 -7.526260345427027e-07 4.549054237177708e-08 1.708137264415862e-07 
8.458118859832441e-05 9.703561595317168e-08 3.784567321016018e-07 3.183913385409194e-07 -8.732952845426584e-07 -1.671907295190529e-07 3.069490990606947e-06 -7.621821538500719e-08 4.222339381289502e-08 
-0.01375443020455901 -0.001999904330913303 -0.0005848292788394561 0.02346625259026935 -0.0001548933104083638 -0.0001293257653483727 -0.007142195679086207 -0.0003448125490331845 -0.001111960499212255 
0.001545210798579939 -8.93896988525742e-07 -4.400041497165489e-06 -9.774021570736217e-06 -1.682971179399228e-05 -2.766439749595948e-07 -0.0001058196036591517 -1.612090596469898e-07 3.408770233595547e-07 
-0.01481028187661226 0.0245234770144347 -7.958792345877835e-05 0.0082399420114081 -0.0001811618897838037 -1.395695688600295e-05 -0.000359711046735334 -2.86856656398972e-05 -1.580714050731391e-05 
-0.0129930405293794 -0.00142646953412923 -7.164301733302628e-06 -0.002256220125403927 4.106486662057598e-06 -1.124863053568306e-05 -0.0007753119388283192 -0.0004922611433578407 0.04039985765192463 
0.00417194415243818 5.452712896197385e-07 1.161607430650908e-07 1.224594296017367e-06 -8.227904083964791e-07 -1.534473710903448e-07 8.037989774338492e-07 -6.778365236719005e-08 1.159294663191242e-07 
-0.01219514183487791 -0.0008450021477415403 -0.0001493369416494803 0.02408206111695445 -5.46402236002149e-06 -7.317408555589385e-06 -0.000105631037361266 -5.904533833924606e-06 -8.303580203999515e-08 
0.01829271940624128 -0.01006030427172884 -0.004948637208798359 -0.008898864397596885 -0.004374580767251318 -0.002661787904785721 -0.007239967508074309 -0.00212617065702281 -0.003254289296462469 
-0.03806364603152098 0.05013236081511508 -5.074204778936389e-05 -0.0008657140008787724 -0.0003689312300852094 -2.300626588733069e-05 -0.0004638725034039928 -5.384086270223109e-05 -3.189459078992287e-05 
-0.03081302630478477 0.02436992778928293 -0.008672917655258728 -0.008459730177475099 -0.001370848002606396 -0.004006197431023812 0.01853903528749241 -0.003523367114168975 -0.003804421112890819 
1.897549915666536e-05 -6.980821444197014e-05 7.062799677950965e-07 0.009322763636557244 -8.817000089062194e-07 -1.675807127677276e-07 1.823317884164823e-06 -5.3089087317942e-08 6.674731808209962e-08 
0.01829271940624128 -0.01006030427172884 -0.004948637208798359 -0.008898864397596885 -0.004374580767251318 -0.002661787904785721 -0.007239967508074309 -0.00212617065702281 -0.003254289296462469 
0.004122340180521643 -0.0001394101152178546 1.179339792821482e-06 0.01864395629847677 -1.55885445183814e-06 -4.475333548106724e-07 2.989044189443732e-06 -1.61228293443415e-07 3.059267391388162e-07 
-0.0001698320855757771 -0.0001087877669751572 0.01711097499842198 -5.472159580909076e-06 -1.666285633731467e-06 -1.001052751026477e-07 -5.611884350058034e-05 -1.976947194760088e-07 5.598286035947965e-07 
-0.004839158713676016 4.862852396612162e-07 0.01594520570608671 1.701618579329708e-08 -3.783801097442652e-07 -1.21638077421955e-07 -3.189843801305789e-07 -5.568168022896485e-08 1.378455566229739e-07 
-0.007784606798970774 -3.803651967713219e-07 -5.77839779432668e-07 0.01292073248206787 5.951084435704376e-07 8.920166215909166e-08 -7.822647008688346e-06 -5.413969210008867e-08 4.823104296760035e-07 
-0.01854548669075483 0.02235044295198198 -0.001786655670084022 -0.00517728380740854 -0.0001141602059776274 -0.000629547079886916 -0.008013705828813684 -0.0007070780348411718 -0.001443774754570014 
-0.007784606798970774 -3.803651967713219e-07 -5.77839779432668e-07 0.01292073248206787 5.951084435704376e-07 8.920166215909166e-08 -7.822647008688346e-06 -5.413969210008867e-08 4.823104296760035e-07 
0.01761976575011503 -6.353487583131813e-06 -4.471588092220492e-06 -9.49718787051078e-05 -0.002927203264623186 -5.878188728096309e-06 -0.0007039731873895812 -1.428940158500628e-05 -5.444469137058969e-06 
0.04571986735266627 0.04186588808310638 -0.0296018856703169 -0.01990780319433208 0.0005660407253708464 -0.01337791755162119 0.118872971843982 -0.01391535025054793 -0.01392767032467382 
0.06870203648885893 0.01070744782527629 -0.04192768994405344 -0.07855498807605119 -0.03158828848354737 -0.005696433421850134 0.04583139595954813 -0.01067878590191126 0.04514996885101238 
-0.01417860426286252 -0.0003703341818774601 -6.3494019546276e-05 -0.0003791921175965893 -5.279098311088104e-06 -1.908105005890422e-05 0.01661886369504313 -0.0005333519618712255 -5.64954740879661e-05 
0.0788081157416726 -0.0495534523503015 -0.0758443054872832 -0.05862767118105353 -0.03715194735724653 0.01731423022598037 0.07124288625339829 -0.04680865811075259 0.02844872884319449 
-0.005866199592238247 -0.0093288390371972 0.05514993664699696 -0.0006043897786145874 1.254175072441713e-05 -1.276630483722806e-05 -6.532828242044068e-05 -3.303404928115417e-06 2.584397832884394e-06 
0.07596733943605537 -0.05058119588030433 -0.03292807336068843 -0.0118418930533884 0.03264909157582744 -0.04808998279757727 -0.1272609047859095 -0.01494119050454265 -0.008210304350405595 
-0.04491505489856881 0.00538940974070259 0.06338708333117626 0.01210523680170247 0.05638152095931834 0.004693966117942689 -0.05574847861338932 -0.01925550846860448 -0.01274075423771523 
-0.007227616616905317 -2.379650170240861e-06 -0.0001067169362987597 -4.711368024030546e-05 -2.386958560401591e-05 -3.227504445022158e-06 0.01345858401259742 -5.98088357933766e-07 3.227842818276373e-07 
0.1491218470661699 -0.04333743855293415 -0.07150156618728028 -0.0115387221556067 -0.04357340830759868 -0.02315075945549138 -0.09503389420556128 -0.02925744904211934 0.01196510460221837 
0.006940805718950663 0.03180750763330361 -0.0008593492841909472 -0.02245435339267242 -0.03168311624035517 -0.01001938137388197 -0.02979118873879373 -0.01764526274217026 -0.01536302593533849 
0.1293281234464991 -0.04375290602962055 -0.0499700662713677 -0.05192694753737503 -0.0498443866903345 -0.04066823980132993 -0.04129106420399739 -0.02635491579552274 -0.02731626742102169 
0.02487805075015505 -0.0009059689357517069 -0.003395714404824866 0.008879292949781851 0.03568455252112231 -0.0005358856526765311 -0.01446317206171817 -0.002070098098200542 -0.000273682079055827 
0.01829271940624128 -0.01006030427172884 -0.004948637208798359 -0.008898864397596885 -0.004374580767251318 -0.002661787904785721 -0.007239967508074309 -0.00212617065702281 -0.003254289296462469 
0.002467464324566558 3.177639129526166e-07 0.01710589677335685 -0.0008433944082435055 -4.235068525119645e-06 -2.993422076491111e-07 -3.650215429938121e-05 -5.56807648802037e-07 9.248072756257298e-07 
0.004202565639991563 -0.0004728951786808696 -5.492317953189149e-05 -0.0006499646247097576 4.185425267707278e-06 -2.286243229569885e-06 -0.0001295981129175024 -1.712145201463715e-06 7.34075695654299e-08 
-0.03256808546990426 -0.0003591124211773338 0.01681357833077227 0.02565190015670445 -2.826926565825647e-05 -6.560357201780585e-06 -0.0008111753104462014 0.04959321912411056 -5.973595120693988e-06 
0.01360499548265136 0.04738989642845363 -0.06325553298616664 0.1010479309141577 -0.06620394834874199 -0.03067760892519099 -0.005763561400272203 -0.05701102064089075 -0.01747795194605843 
-0.1108895257330816 -0.002042316433946486 0.01622841914828968 0.01285991955846287 0.1395670783860013 -0.0001245321236685336 0.05659369288704421 -0.0001387696904571498 -8.243058487137757e-05 
1.897549915666536e-05 -6.980821444197014e-05 7.062799677950965e-07 0.009322763636557244 -8.817000089062194e-07 -1.675807127677276e-07 1.823317884164823e-06 -5.3089087317942e-08 6.674731808209962e-08 
0.004603406023085897 4.666423943983801e-07 1.561010220688297e-06 -3.500754072997829e-05 -6.689613266634093e-07 -1.386558933081525e-07 -7.526260345427027e-07 4.549054237177708e-08 1.708137264415862e-07 
-0.004152632524672866 -0.001742228620080416 -0.002028644106658632 -0.008809410963504604 -0.008926286304749273 -0.0003445221702127511 0.05408426295783864 -0.0003470008629208348 -0.0002890472199528525 
-0.03279874790646184 -0.005814591284594718 -0.004276079117301867 0.01894577264461425 -0.003377449341865887 -0.002172520027315563 0.04535563699884185 -0.000837371689764801 -0.001353944295276551 
0.0230526097185575 -0.009971429731422048 -0.007533005358553294 -0.003807268898529518 -0.006763495153305855 -0.008171118413506619 -0.009051732474439977 -0.001273057034120145 -0.001717703937829197 
-0.02033769210741221 0.02436883603155778 -0.008673032505971462 -0.008463839232444042 -0.001363720556743678 -0.004004757165106925 -0.0019033981523078 -0.003522708914688801 -0.003804812025595088 
-0.02253367050884426 0.02436868343494126 -0.008674578187773382 -0.008464620417464154 -0.001362840208190245 -0.004004590100498276 -0.001904354711848895 -0.003522632868434588 -0.003804883721953141 
-0.01907002690626383 0.02295311669376363 -0.00156810990702795 -0.004177036102265758 -0.0001203151557570984 -0.0005743846342940184 -0.004282491072973749 -0.0006039958720974707 -0.001365945353642624 
-0.005485107837406563 -0.0001793971342908201 -0.0001464961606938879 -9.514104378086792e-05 -1.434190526190947e-05 -3.293344593392459e-06 -0.0003980885278611106 0.02479669799671872 -3.526803126867211e-06 
0.004084389182208313 2.063136660856929e-07 -2.332201427687076e-07 -1.570974637714557e-06 2.045455659742999e-07 -1.123719292752168e-07 -6.575915788859159e-07 -5.505011880753073e-08 1.724321029746165e-07 
0.01829076587670075 -0.003313927300374647 -0.0005227126057796271 0.007725853733021401 -0.0001335843203605074 -0.0004508117306945217 -0.004186370816944283 -6.238317354547754e-05 -0.0001063325064701685 
-0.02364126105764341 -0.0153650023049575 -0.006808983405728166 0.01016489647767299 0.03756236732875362 -0.004125673686686705 -0.01898069315514589 0.02065355043723485 -0.002624720957043055 
-0.103133847335156 0.006563499607604328 -0.09409081863871679 0.07338690221875289 -0.09672751532814461 0.1340267148759871 0.007993365454740199 0.003654853299042096 -0.07773690501287166 
-0.03088463259460223 0.01555935435882273 -0.008740352537981787 0.008422415808928356 -0.004708247351409048 -0.003350218619866477 0.04404020946955205 -0.002591527819213533 -0.003820931244288416 
0.002195978401432042 1.525966165181731e-07 1.54568180192154e-06 7.811850201124272e-07 -8.803485534329936e-07 -1.670646086484755e-07 9.565595410956605e-07 -7.604625421304431e-08 7.169635805237576e-08 
0.006244569780954588 -0.0005245356823867798 -0.0001371033371656629 -0.0001790025091492091 -2.730572588946921e-05 -2.357317380982746e-06 0.009024606499077012 -1.515242164501872e-06 1.608638428665676e-07 
0.005747776438571502 -0.0004737890756693954 -5.932322102905697e-05 -0.0006597386462804938 -1.264428652628499e-05 -2.56288720452948e-06 -0.0002354177165766542 -1.873354261110704e-06 4.142845929249875e-07 
-0.06516338445468957 0.06860840744451795 -0.005029684537201502 -0.01320872386976106 -0.0003576019324283375 -0.001828772427083578 -0.01999541908230312 -0.002014654460840183 -0.004253800275385242 
0.02926334928047084 -0.001693517263099642 -0.0004836494407438994 -0.002693408498837577 1.284001973161731e-05 -0.0001149760301310409 -0.008605491390567314 -0.000208980748275517 -0.0001542566169643143 
-0.007803185032013828 -0.000844696954508504 -0.0001462455780456372 0.02408362348699468 -7.224719466887477e-06 -7.651537772886337e-06 -0.0001037179182790747 -6.056626342350695e-06 6.035691406475617e-08 
0.02998569708963572 -0.0003912932959192791 -0.002713426621281268 -0.000221087884941485 -0.005616646031267952 -7.060018528607151e-05 0.006373862783461048 -6.513879126359514e-05 -1.395464368624486e-05 
0.006323226990142173 -0.0001375593555628951 -0.0001588559311628287 -0.0003654130502899694 -3.533677307047895e-06 -5.417133086795121e-05 -0.003650963483861717 -0.0001019669032972061 -7.741280423149054e-05 
0.0005481433478136424 1.003519507303536e-07 4.665134325462794e-08 4.118902039880206e-06 -8.719648304294279e-07 -1.666072786611757e-07 1.319421668274373e-06 -7.060889680605581e-08 3.446743202089865e-08 
-0.03036292679192078 -0.02956601762395735 -0.0002834025275393565 0.08841448178225952 -0.0005434990256287037 -8.058160304478022e-05 -0.023531036773919 -0.0003943087853789634 -0.0004720181497229686 
-0.02498490833053146 0.02281577890301171 -0.002598729770572553 -0.005714876705252313 -0.0006638143186745862 0.02132451246354344 -0.005322613743840274 -0.0007852442038898578 -0.001531034052442528 
0.002757260001290006 -8.523372086937153e-06 -5.584814993479628e-07 -2.245790584464161e-05 5.678441047468198e-07 -1.377540006636342e-07 -5.472832376742882e-05 -7.478613861307039e-08 2.252168526256614e-07 
0.02745709446783249 0.01810383839667863 -0.003693120437062892 -0.01285339882026188 -0.0008316907548964057 -0.001278821929848446 -0.02033685480337124 -0.001628570102289973 -0.002976420699516876 
-0.01809974741963836 -0.02465320176335426 -0.01188180031277052 0.0250822160080364 -0.0142470669378107 0.008494195259012811 -0.0157803217627876 0.0438781875025587 -0.01318539451743528 
0.006155790323056874 -0.0004150603501902469 -0.0007272267716704091 -0.001569078399804205 -0.0001911185235340967 -0.0001884661369932304 -0.007796899820877015 -0.0003605102571173077 -0.00031281121902135 
0.0005481433478136424 1.003519507303536e-07 4.665134325462794e-08 4.118902039880206e-06 -8.719648304294279e-07 -1.666072786611757e-07 1.319421668274373e-06 -7.060889680605581e-08 3.446743202089865e-08 
0.006716647360678405 -0.0002784019234991389 -0.000805031815974391 -0.001650056150852189 -0.0003849662419951618 -0.0001633170942347536 -0.0009691871498875746 -0.0003145244947482332 -0.0003155222762094374 
-0.02405923659606086 0.0229614259899592 -0.001569310919701084 -0.004155647874403721 -0.0001191499728308022 -0.0005739166245515886 -0.004229116769592943 -0.0006037705890523411 -0.001366247343822189 
-0.02020726046001211 -0.000369891604079611 0.01704423231217263 -0.0003784748374661456 -6.054770332666509e-06 -1.923312139821807e-05 0.01661951073433653 -0.0005334205518138973 -5.638008381427767e-05 
-0.01173865058052199 -0.000844947654339879 -0.0001493302598141092 0.02408295356111867 -6.331046793662989e-06 -7.483183731168359e-06 -0.0001038497312441651 -5.979826967413854e-06 -5.864715195425652e-08 
0.008405131279983127 -0.0009457903573617392 -0.000109846359063783 -0.001299929249419515 8.370850535414555e-06 -4.57248645913977e-06 -0.0002591962258350048 -3.424290402927429e-06 1.468151391308598e-07 
-0.0008666904641067977 -0.0006540281761038206 -0.004051030565299031 -0.0008118119724732617 -0.001739331714376672 0.01785276005453106 -0.004925570240638694 -0.001502906593257397 -0.0007350891713354905 
0.002757260001290006 -8.523372086937153e-06 -5.584814993479628e-07 -2.245790584464161e-05 5.678441047468198e-07 -1.377540006636342e-07 -5.472832376742882e-05 -7.478613861307039e-08 2.252168526256614e-07 
-0.07051448211526549 -0.01944866733651593 0.01365596693408657 0.02863022984801157 0.03502723847797695 0.06033217864837762 0.04578848352233436 -0.02099223382373672 0.004586586003791662 
-0.06564811721117357 0.02244318056471476 0.02540551699510961 -0.06745372727564966 0.0001579834494575314 -0.01822469186444503 -0.04293894307526919 0.07847087928214773 -0.02186307394668812 
0.01463286653399772 -0.002626747429867639 -1.265155055340094e-05 -9.534300015302629e-05 -1.142513143022549e-05 -3.978263248363826e-05 -0.001375679534339194 -0.0002203629790586946 -5.799002104653133e-05 
0.1121544980221597 0.1942685174061748 -0.3287927865883506 -0.08196703304979924 -0.3665669641707236 -0.2960671594038064 -0.1417256346717134 -0.1597074332346879 -0.07232209603454735 
0.002223283119320454 -0.0004858771979431118 -0.0002436245191769899 -0.00048036572752192 -0.0002802659765032928 -0.0007137712117480917 0.005459412067537592 -0.0001084702278229302 -0.0002440729923435218 
-0.02210497444726284 -0.007068481755684614 -0.005826410399180853 0.08484130920471263 -0.001880751482372788 -0.004743510148251945 -0.0150743697192762 -0.003848479889208541 -0.006669789608535187 
0.0004564912543559221 5.449340166135396e-08 6.681835371048381e-09 8.924441642155257e-07 -8.670244336415033e-07 -1.657751755789731e-07 1.781306117100906e-06 -7.529313348924762e-08 2.438865008574117e-08 
0.04307151250563092 -0.00378992754436226 -0.0004433905840618149 -0.00529154692710774 -0.002894128953613476 -2.394339070610497e-05 -0.001739442907571828 -2.787646295910093e-05 -5.202072786484761e-06 
0.00520385542465682 -4.781144028753248e-07 -3.46854285049362e-06 -0.0008531306774738221 -8.351182892493809e-07 3.530082976355667e-07 -4.074459647042198e-05 -2.70953658305124e-07 6.68785779843126e-07 
0.009450987385698408 -6.766114915303201e-06 -4.005147806683081e-06 -9.182992942967868e-05 -0.002927612355755134 -5.653444869545893e-06 -0.0007026580042318093 -1.417930134739121e-05 -5.789333343008199e-06 
0.01006282377652766 -0.002617993972297031 -0.003028217981241468 -0.007503994713633597 -0.002488015775674263 -0.001081543293453249 -0.002880742557941223 -0.002216291234620256 -0.002061308296129225 
0.004202565639991563 -0.0004728951786808696 -5.492317953189149e-05 -0.0006499646247097576 4.185425267707278e-06 -2.286243229569885e-06 -0.0001295981129175024 -1.712145201463715e-06 7.34075695654299e-08 
0.00262236853062894 -0.0002761757185926961 -0.0003248431417020926 -0.0007433426165901208 1.608683170935085e-06 -0.0001066884242115151 -0.007309981892606476 -0.000203190601174734 -0.0001552016366347801 
-0.001173239918447649 -0.00186576780743944 0.01102998732939939 -0.0001208779557229175 2.508350144883428e-06 -2.553260967445615e-06 -1.306565648408814e-05 -6.606809856230862e-07 5.168795665768818e-07 
0.06258336084278919 -0.0130900259792438 -0.004460267173255816 -0.008778906919080233 -0.00340069254022172 -0.003415114033086198 -0.01935707744147864 -0.003870494485612358 -0.002689267038553518 
0.01960902192966097 -0.01472411788403415 0.01660341313128355 -0.01937466704490347 -0.005216471071731677 -0.00874035848015022 0.02349980370718948 0.0182706498094242 -0.009396352288454906 
-0.02405923659606086 0.0229614259899592 -0.001569310919701084 -0.004155647874403721 -0.0001191499728308022 -0.0005739166245515886 -0.004229116769592943 -0.0006037705890523411 -0.001366247343822189 
0.04715813447299592 -0.08809162515188795 -0.017533770738339 -0.0455376964396321 -0.06185910325842921 -0.06727788392535791 -0.1278750104172689 0.01063551190305327 -0.1120502703246837 
0.01169656956274798 -0.000332359842264686 -0.00583337473063855 -0.001517977337630017 -7.956512458284452e-06 -9.718155671972267e-06 -0.003147378037554704 -7.410264695118288e-06 -1.321306840736922e-05 
0.00520385542465682 -4.781144028753248e-07 -3.46854285049362e-06 -0.0008531306774738221 -8.351182892493809e-07 3.530082976355667e-07 -4.074459647042198e-05 -2.70953658305124e-07 6.68785779843126e-07 
0.02111576317685744 -0.007301026795340304 -0.004879079786038789 -0.009469471772269592 -0.001073383667539296 -0.001076339067214267 -0.01398810550240227 -0.005432481013464864 -0.00359114401143079 
-0.009869520879228365 -9.338409768355733e-08 4.986333483322157e-07 0.02581469522748552 -1.222674100381381e-06 -2.934671263123203e-07 -1.375907671537066e-05 -2.040066354405115e-07 1.204369449835388e-06 
-0.007163229000619163 -0.0001173319647683085 -0.0001646714834562279 -0.001056795767668954 0.01572021189413552 -0.0001333619971803392 -0.001442394791279026 -0.0006247911344453028 -5.719221692326626e-05 
0.002195978401432042 1.525966165181731e-07 1.54568180192154e-06 7.811850201124272e-07 -8.803485534329936e-07 -1.670646086484755e-07 9.565595410956605e-07 -7.604625421304431e-08 7.169635805237576e-08 
0.00131118426531447 -0.0001380878592963481 -0.0001624215708510463 -0.0003716713082950604 8.043415854675423e-07 -5.334421210575754e-05 -0.003654990946303238 -0.000101595300587367 -7.760081831739005e-05 
-0.01293026278682423 -7.136324605331239e-06 -0.0006373807054739726 -0.0007355104485333596 -0.0003501157856548534 0.02198054839177709 -0.0006096841246529351 -2.408613070407618e-05 -7.327041436954709e-06 
-0.04537652586013175 0.05168101772182622 -0.003360344578976076 -0.02734805736693871 -0.01827527169380254 -0.0157473080441174 -0.03517278448873049 -0.01886369906737363 -0.02020162020535063 
0.06170616502193471 0.01301467640740712 -0.06670372689715463 -0.03205854702417842 -0.04261647635878146 -0.014793991697802 -0.09782058337828431 -0.01668308700178629 -0.003656375209959046 
-0.01329997764891482 -2.93638475058157e-05 -6.68185850882488e-05 -3.203644997475609e-05 0.01855739984704004 -1.003937586560115e-06 -0.0005290350389033513 -5.453439790680541e-07 3.983402100659547e-07 
-0.02405923659606086 0.0229614259899592 -0.001569310919701084 -0.004155647874403721 -0.0001191499728308022 -0.0005739166245515886 -0.004229116769592943 -0.0006037705890523411 -0.001366247343822189 
0.006587935204296127 4.577898495545203e-07 4.637045405764621e-06 2.34355506033728e-06 -2.641045660298981e-06 -5.011938259454255e-07 2.869678623286982e-06 -2.281387626391336e-07 2.150890741571272e-07 
0.006180843194319755 -3.575587954102968e-06 -1.760016598866195e-05 -3.909608628294487e-05 -6.73188471759691e-05 -1.106575899838379e-06 -0.000423278414636607 -6.448362385879591e-07 1.363508093438219e-06 
0.00131118426531447 -0.0001380878592963481 -0.0001624215708510463 -0.0003716713082950604 8.043415854675423e-07 -5.334421210575754e-05 -0.003654990946303238 -0.000101595300587367 -7.760081831739005e-05 
0.02503166491462908 3.271627737718438e-06 6.96964458390546e-07 7.347565776104199e-06 -4.936742450378875e-06 -9.206842265420694e-07 4.822793864603099e-06 -4.067019142031412e-07 6.955767979147399e-07 
0.00417194415243818 5.452712896197385e-07 1.161607430650908e-07 1.224594296017367e-06 -8.227904083964791e-07 -1.534473710903448e-07 8.037989774338492e-07 -6.778365236719005e-08 1.159294663191242e-07 
-0.000257666032424706 0.01657658492767542 -0.00102284667081614 -0.006377991786139823 -0.001169700010961806 -6.480759925717621e-06 -0.00341313800501995 -3.476443839500942e-05 -9.278196438681791e-05 
3.597128707498746e-05 6.147927484314142e-08 2.138123705599235e-07 2.884929624929541e-07 -8.526784776100133e-07 -1.631911331177673e-07 3.97460845527545e-07 -7.445065230350717e-08 5.076968886933066e-09 
-0.07066626398163922 0.07272891028012325 -0.01117267896173419 -0.04199662207734223 -0.002671787979983321 -0.01645715348932202 -0.04085719321992756 -0.02009294101062051 -0.02162465608925724 
-0.009775190883238064 -0.001423027197267799 -9.513494585396474e-06 -0.002248772548867772 3.913511823768512e-06 -1.119013555153632e-05 -0.0007641027424243026 -0.0004926307016052704 0.0179524125836352 
0.08600944691125592 -0.06688443146140979 -0.02646131642335911 -0.07014422447503355 -0.0308757244234576 -0.02369815038526793 -0.02217424698738594 -0.02009437721462989 -0.02345371955153305 
-0.01729499307453379 -0.0002302287320814313 -0.0004877663921662823 -0.0004107565915873794 0.01845875731827202 -4.942759673603948e-05 0.008715570125450265 -6.569463717611975e-06 0.04488641065063581 
0.002195978401432042 1.525966165181731e-07 1.54568180192154e-06 7.811850201124272e-07 -8.803485534329936e-07 -1.670646086484755e-07 9.565595410956605e-07 -7.604625421304431e-08 7.169635805237576e-08 
-0.0272436627563387 0.03702785538456522 -0.01833872844904064 -0.02421675682354391 -0.0199730790715783 0.005085861898101093 -0.03075548328763858 -0.02168552642602044 -0.02203092769750727 
0.03502686984691736 0.003829151259103004 -0.07532818475687653 -0.008254607328191558 -0.0468933863492959 -0.03997718687008928 -0.122253176201915 -0.06043177179511592 -0.06177565616207271 
-0.02253367050884426 0.02436868343494126 -0.008674578187773382 -0.008464620417464154 -0.001362840208190245 -0.004004590100498276 -0.001904354711848895 -0.003522632868434588 -0.003804883721953141 
0.01607581197611204 -0.003244271682549195 -0.0005249645675493437 -0.001597691088555955 -0.0001318222717981682 -0.0004504770853731055 -0.004189150694369543 -6.225403820394655e-05 -0.000106470950146303 
0.002757260001290006 -8.523372086937153e-06 -5.584814993479628e-07 -2.245790584464161e-05 5.678441047468198e-07 -1.377540006636342e-07 -5.472832376742882e-05 -7.478613861307039e-08 2.252168526256614e-07 
0.004465662744346663 -6.167518063184217e-05 -0.002879293270685093 -0.0002370634605764613 -6.552902953516176e-06 -2.192402011137123e-06 -0.0006451051204016206 -2.796709803159401e-06 -8.298242429065139e-08 
0.007045539446901805 -0.0004860974621080573 -0.0002436827893015655 -0.0004815211264639467 -0.0002794034595835421 -0.0007136048819222677 -0.004757998120420439 -0.0001083949965672946 -0.0002441542915183792 
0.01998373856049889 -0.002878290658417882 -0.0005891789510812634 -0.006666209401644899 -0.00213826035835886 -0.0003128251878679186 -0.0009223677287898004 -0.0004309840148715426 -0.0003786158836210562 
3.597128707498746e-05 6.147927484314142e-08 2.138123705599235e-07 2.884929624929541e-07 -8.526784776100133e-07 -1.631911331177673e-07 3.97460845527545e-07 -7.445065230350717e-08 5.076968886933066e-09 
0.001369473763067766 1.634802049840621e-07 2.004550611314513e-08 2.67733249264658e-06 -2.60107330092451e-06 -4.973255267369194e-07 5.343918351302731e-06 -2.258794004677431e-07 7.316595025722325e-08 
0.00417194415243818 5.452712896197385e-07 1.161607430650908e-07 1.224594296017367e-06 -8.227904083964791e-07 -1.534473710903448e-07 8.037989774338492e-07 -6.778365236719005e-08 1.159294663191242e-07 
0.007360666024375902 -8.056729692538774e-06 1.002528721340335e-06 -5.746544657461989e-05 -1.01117221916586e-07 -2.764098939717867e-07 -5.548094980197153e-05 -2.92955962412931e-08 3.960305790672487e-07 
3.597128707498746e-05 6.147927484314142e-08 2.138123705599235e-07 2.884929624929541e-07 -8.526784776100133e-07 -1.631911331177673e-07 3.97460845527545e-07 -7.445065230350717e-08 5.076968886933066e-09 
0.001825965017423688 2.179736066454159e-07 2.672734148419352e-08 3.569776656862103e-06 -3.468097734566013e-06 -6.631007023158923e-07 7.125224468403626e-06 -3.011725339569905e-07 9.755460034296468e-08 
0.002195978401432042 1.525966165181731e-07 1.54568180192154e-06 7.811850201124272e-07 -8.803485534329936e-07 -1.670646086484755e-07 9.565595410956605e-07 -7.604625421304431e-08 7.169635805237576e-08 
0.004202565639991563 -0.0004728951786808696 -5.492317953189149e-05 -0.0006499646247097576 4.185425267707278e-06 -2.286243229569885e-06 -0.0001295981129175024 -1.712145201463715e-06 7.34075695654299e-08 
0.03543335842830613 -0.006087463294459903 -0.009072386594755186 -0.02052767977800611 -0.007140249092415864 -0.004621537697024643 -0.01946603166160775 -0.004447760157937721 -0.003994156133686716 
0.0009129825087118441 1.089868033227079e-07 1.336367074209676e-08 1.784888328431051e-06 -1.734048867283007e-06 -3.315503511579462e-07 3.562612234201813e-06 -1.505862669784952e-07 4.877730017148234e-08 
-0.002550200190426058 -0.003231236320654265 0.01002742697885986 0.001013028173740499 -0.004232019404645509 0.01676995263154643 -0.007748847237006266 -0.003719603946958862 -0.002796318514147279 
0.01046092238155954 -0.002627292701157259 -1.276771129646604e-05 -9.656759444904364e-05 -1.060234102182902e-05 -3.962918511254791e-05 -0.001376483333316628 -0.0002202951954063274 -5.810595051285045e-05 
0.01140262856964125 -0.0009211933444473339 -0.0004463102109561155 -0.001155346558722395 2.929619131291105e-06 -3.825471586854725e-05 -0.001010362194430842 -0.0009641053101070639 -0.0001286996130564974 
0.0004564912543559221 5.449340166135396e-08 6.681835371048381e-09 8.924441642155257e-07 -8.670244336415033e-07 -1.657751755789731e-07 1.781306117100906e-06 -7.529313348924762e-08 2.438865008574117e-08 
0.01607581197611204 -0.003244271682549195 -0.0005249645675493437 -0.001597691088555955 -0.0001318222717981682 -0.0004504770853731055 -0.004189150694369543 -6.225403820394655e-05 -0.000106470950146303 
0.009849155664806373 -0.006775256441879676 0.0112050623499294 -0.009324015895760049 -0.001048840478483595 -0.001074571564762956 -0.0127959759630904 -0.005431125644346158 -0.003590909839846848 
0.005216647164910585 4.684968423895403e-07 7.38949143004726e-08 6.955322404538803e-06 -2.392062572494568e-06 -6.087776197153357e-07 2.378712603190374e-06 -2.707185647231491e-07 2.464439359033468e-07 
-0.08788058519177511 0.09182023087919194 -0.006278540666570278 -0.01668964682381027 -0.0004757696542935112 -0.002296246950937864 -0.01707758255868345 -0.002415382932840588 -0.005464271501337066 
0.008662355297272002 -0.0006454659039153362 -0.001064361310699093 -0.002038198699176145 -0.0003600860935499591 -4.348576950194062e-05 -0.003075030749829392 -0.0005023887543568813 -3.0249651448824e-05 
-0.01002917912767025 -0.009244341725735312 -0.006200545681538851 -0.006610615060119212 0.03787972245949947 -0.004024082318022224 -0.01346614734832946 -0.003906940812556123 -0.002368630904860428 
0.01006282377652766 -0.002617993972297031 -0.003028217981241468 -0.007503994713633597 -0.002488015775674263 -0.001081543293453249 -0.002880742557941223 -0.002216291234620256 -0.002061308296129225 
0.005774242922975488 -0.0001093273803889594 2.870209970972292e-06 -6.507831049893721e-06 -1.731832761039699e-08 2.191567937302583e-07 -5.983537378458366e-05 -5.288656141924585e-08 4.022149360934711e-07 
-0.01200636544612385 -0.005470505851774991 -0.005148356560614957 -0.00860003188146044 -0.0006225783138479493 -0.002156099378268154 -0.005744922638588381 0.02239669693806789 -0.004079506765692861 
0.02238311922395077 -0.003635935492376295 -0.003538121788078277 -0.01115663772591712 -0.003628982755476362 -0.003198623227763218 -0.005605628463640421 -0.003131531643043193 -0.003502445946577972 
0.002900716171294817 -3.575162912979357e-07 -1.218496983780574e-05 -2.850937979618439e-05 6.378183753610464e-07 2.412744057586475e-07 -8.014506123716771e-06 6.248840994215248e-07 2.958808368635032e-07 
0.018146517071972 -0.004538198903019423 -0.001155449744126297 -0.002155451773420652 -1.874926731748415e-05 -3.443317395414665e-05 -0.001469330636910363 -0.0001078073913977831 -3.960269265536897e-05 
0.004202565639991563 -0.0004728951786808696 -5.492317953189149e-05 -0.0006499646247097576 4.185425267707278e-06 -2.286243229569885e-06 -0.0001295981129175024 -1.712145201463715e-06 7.34075695654299e-08 
0.002195978401432042 1.525966165181731e-07 1.54568180192154e-06 7.811850201124272e-07 -8.803485534329936e-07 -1.670646086484755e-07 9.565595410956605e-07 -7.604625421304431e-08 7.169635805237576e-08 
-0.006543988261999001 0.0331536124331487 0.01506203299008663 -0.0127552662921492 -0.00234017569394519 -1.311359119074909e-05 -0.006825628970746504 -6.95974667326906e-05 -0.0001854485384999474 
-0.02405923659606086 0.0229614259899592 -0.001569310919701084 -0.004155647874403721 -0.0001191499728308022 -0.0005739166245515886 -0.004229116769592943 -0.0006037705890523411 -0.001366247343822189 
0.03431378987311302 -0.002900742610118017 -0.005752393788180631 -0.007720946919627054 -0.008100904848221508 -0.001151577520918023 -0.006665898422728978 -0.002281104569377802 -0.00207593907471951 
0.01607581197611204 -0.003244271682549195 -0.0005249645675493437 -0.001597691088555955 -0.0001318222717981682 -0.0004504770853731055 -0.004189150694369543 -6.225403820394655e-05 -0.000106470950146303 
-0.007784606798970774 -3.803651967713219e-07 -5.77839779432668e-07 0.01292073248206787 5.951084435704376e-07 8.920166215909166e-08 -7.822647008688346e-06 -5.413969210008867e-08 4.823104296760035e-07 
-0.01244197658255644 -0.0001171661940050244 -0.0001646198951670234 -0.001056532812891143 0.01572021640164941 -0.0001333625518305841 0.008773234090561905 -0.0006247910725674491 -5.713530639849456e-05 
0.03420788570892376 -0.002763580033342002 -0.001338930632868347 -0.003466039676167184 8.788857393873291e-06 -0.0001147641476056418 -0.003031086583292526 -0.002892315930321192 -0.0003860988391694921 
0.001022738482984393 -0.001865615210822922 0.01103153301120131 -0.0001200967707028051 1.628001591450432e-06 -2.720325576094089e-06 -1.210909694299248e-05 -7.367272398361286e-07 5.885759246292558e-07 
0.006475497645454401 -0.000488697715874336 0.01440166788593357 -0.003031769127787627 -3.678137759969192e-05 -0.0001271026024720488 -0.002441892524466545 -1.759002900429559e-05 -4.340565916122317e-05 
0.007262940194245065 -0.0001942004750176998 -0.0004257044629067968 -0.0003649803874823416 -9.816596152485715e-05 -4.814033935536202e-05 -0.0009503866307963816 -6.688004977767963e-06 -8.959125327978628e-06 
-0.004822256327581351 2.202641649454745e-07 5.827012457561795e-08 1.155398942026678e-06 -8.625169197506629e-07 -1.663298258238796e-07 0.01021741018795803 -7.523125563550608e-08 8.129917485743905e-08 
0.004202565639991563 -0.0004728951786808696 -5.492317953189149e-05 -0.0006499646247097576 4.185425267707278e-06 -2.286243229569885e-06 -0.0001295981129175024 -1.712145201463715e-06 7.34075695654299e-08 
0.004202565639991563 -0.0004728951786808696 -5.492317953189149e-05 -0.0006499646247097576 4.185425267707278e-06 -2.286243229569885e-06 -0.0001295981129175024 -1.712145201463715e-06 7.34075695654299e-08 
0.009572025641391894 -0.0004894353074251504 -0.00153997418119254 -0.00303558404463982 -3.971298409230802e-05 -0.0001265036180558355 -0.001533684759449282 -1.732755478010152e-05 -4.375042570830754e-05 
0.002757260001290006 -8.523372086937153e-06 -5.584814993479628e-07 -2.245790584464161e-05 5.678441047468198e-07 -1.377540006636342e-07 -5.472832376742882e-05 -7.478613861307039e-08 2.252168526256614e-07 
0.004465662744346663 -6.167518063184217e-05 -0.002879293270685093 -0.0002370634605764613 -6.552902953516176e-06 -2.192402011137123e-06 -0.0006451051204016206 -2.796709803159401e-06 -8.298242429065139e-08 
0.00417194415243818 5.452712896197385e-07 1.161607430650908e-07 1.224594296017367e-06 -8.227904083964791e-07 -1.534473710903448e-07 8.037989774338492e-07 -6.778365236719005e-08 1.159294663191242e-07 
0.002195978401432042 1.525966165181731e-07 1.54568180192154e-06 7.811850201124272e-07 -8.803485534329936e-07 -1.670646086484755e-07 9.565595410956605e-07 -7.604625421304431e-08 7.169635805237576e-08 
-0.01855362537779951 -2.820368112821216e-05 -0.0004883716637618702 -0.0006388392045753842 -0.000130048427000108 -8.017829650887864e-05 0.03270889434874737 -9.066559862299393e-05 -1.356923020388139e-05 
3.597128707498746e-05 6.147927484314142e-08 2.138123705599235e-07 2.884929624929541e-07 -8.526784776100133e-07 -1.631911331177673e-07 3.97460845527545e-07 -7.445065230350717e-08 5.076968886933066e-09 
-0.04460536121272847 -0.01040877168769943 0.00193104242804973 -0.02652111389791633 0.04926323796147452 -0.01168932305906089 0.007549468426631081 -0.007591364852623822 0.01562585913174258 
0.01607581197611204 -0.003244271682549195 -0.0005249645675493437 -0.001597691088555955 -0.0001318222717981682 -0.0004504770853731055 -0.004189150694369543 -6.225403820394655e-05 -0.000106470950146303 
0.03617857691433109 -0.01734195635311982 -0.01045995410163117 -0.008210484962980819 -0.0003115727467671702 -0.0003883249007663932 -0.005494316833159736 -0.001608372050895572 -0.0007027654110854675 
0.00425431056915034 3.850061743735122e-07 7.386398985855913e-06 -2.526769293618662e-07 -3.047420844837545e-07 -1.266273473890905e-07 -1.132393732800481e-06 2.685574910206475e-08 1.58078205229182e-07 
-0.02130197659477086 0.02295290261787226 -0.001569869401200432 -0.004178105780248363 -0.0001185821287260554 -0.0005740543785522522 -0.004283845093360372 -0.0006038453751909541 -0.001366022126969563 
0.01285489759675011 -0.001050568136441934 -0.0002778728597629735 -0.0002908777206475009 -4.984313833089024e-05 -3.778281057465896e-06 -0.002384897047384008 -2.822101597869272e-06 -1.926520546387829e-07 
-0.007784606798970774 -3.803651967713219e-07 -5.77839779432668e-07 0.01292073248206787 5.951084435704376e-07 8.920166215909166e-08 -7.822647008688346e-06 -5.413969210008867e-08 4.823104296760035e-07 
-0.006624037358642158 -0.005911498850374083 -5.65688092080017e-05 0.01768738793762083 -0.0001088133739466901 -1.608876980882331e-05 -0.004695261690030314 -7.884679984807007e-05 -9.444867331511884e-05 
0.01002851689574782 -0.0004893808140234891 -0.001539967499357169 -0.003034691600475605 -4.058000852594953e-05 -0.0001266693932314144 -0.001531903453332181 -1.740284791359076e-05 -4.37260370582218e-05 
1.897549915666536e-05 -6.980821444197014e-05 7.062799677950965e-07 0.009322763636557244 -8.817000089062194e-07 -1.675807127677276e-07 1.823317884164823e-06 -5.3089087317942e-08 6.674731808209962e-08 
0.0004564912543559221 5.449340166135396e-08 6.681835371048381e-09 8.924441642155257e-07 -8.670244336415033e-07 -1.657751755789731e-07 1.781306117100906e-06 -7.529313348924762e-08 2.438865008574117e-08 
-0.003217849646141339 -3.442336861430652e-06 2.349192852093831e-06 -7.447576536154218e-06 1.929748382890683e-07 -5.84949841467336e-08 -1.120919640401664e-05 3.695582474297727e-07 0.02244744506828943 
0.002757260001290006 -8.523372086937153e-06 -5.584814993479628e-07 -2.245790584464161e-05 5.678441047468198e-07 -1.377540006636342e-07 -5.472832376742882e-05 -7.478613861307039e-08 2.252168526256614e-07 
0.001382622037027329 -0.0001045047405005008 -3.73940946341819e-05 -0.0005219252082385474 2.574646724373948e-06 -2.666675824849012e-06 -0.0009285838983757316 -9.084225443997421e-07 -6.523551779393954e-06 
-0.06482824485194247 -0.001006515679610507 -0.001773067276565903 0.05307486248404539 -0.000716571520109983 -0.001023669001450311 0.1539783178248951 -0.0004690304591492237 -0.0002982232320280209 
0.009450987385698408 -6.766114915303201e-06 -4.005147806683081e-06 -9.182992942967868e-05 -0.002927612355755134 -5.653444869545893e-06 -0.0007026580042318093 -1.417930134739121e-05 -5.789333343008199e-06 
-0.01742593172029397 -0.0005407366627022053 -0.0007164902384321249 -0.001413032500555072 -0.002466189451852047 -0.000123632947386877 0.02842518901031027 -2.185605130704954e-05 -4.121496800545517e-05 
-0.002346479836895299 -0.003731535614878881 0.02205997465879878 -0.000241755911445835 5.016700289766856e-06 -5.10652193489123e-06 -2.613131296817629e-05 -1.321361971246172e-06 1.033759133153764e-06 
0.05494646610578214 -0.04328436763041731 -0.03431672696109219 -0.04350117869841164 -0.02974033650406891 -0.02571028424168108 -0.05536297281313191 -0.02654676538946105 -0.03981606058638337 
0.01607581197611204 -0.003244271682549195 -0.0005249645675493437 -0.001597691088555955 -0.0001318222717981682 -0.0004504770853731055 -0.004189150694369543 -6.225403820394655e-05 -0.000106470950146303 
0.001545210798579939 -8.93896988525742e-07 -4.400041497165489e-06 -9.774021570736217e-06 -1.682971179399228e-05 -2.766439749595948e-07 -0.0001058196036591517 -1.612090596469898e-07 3.408770233595547e-07 
0.01005474904850834 -0.0001478018103288107 -1.573869032384828e-05 0.01866303968640284 -2.710995947556767e-05 -3.147943185168539e-06 -0.0001941422279542081 -1.321958420391839e-06 7.15778917707976e-07 
0.01865091967382657 -0.009963207415187303 -0.00753258683108371 -0.003797167698804517 -0.006761447102919314 -0.008170480837669972 -0.009000962415677371 -0.001272770421291114 -0.001718032556977886 
-0.02342566154004534 -0.002539788587754912 0.01242098401908854 0.04868913763631361 -0.0001684268345241943 -0.0001507875109665893 0.00875873373900108 -0.0008813830148924289 -0.001166619866584321 
0.00417194415243818 5.452712896197385e-07 1.161607430650908e-07 1.224594296017367e-06 -8.227904083964791e-07 -1.534473710903448e-07 8.037989774338492e-07 -6.778365236719005e-08 1.159294663191242e-07 
-0.01857668653214036 -0.001999684066748358 -0.0005847710087148805 0.02346740798921138 -0.0001557558273281145 -0.0001294920951741966 0.003075214508871824 -0.00034488778028882 -0.001111879200037398 
0.02274992309505789 -0.004537732260625025 -0.001153888733905609 -0.00219045931415063 -1.941822864414756e-05 -3.457182984745481e-05 -0.001470083262944905 -0.0001077619008554113 -3.943187892892738e-05 
0.01867340309205417 -0.008670816345334339 -0.005229716587101773 -0.004100835086488036 -0.0001575110166916246 -0.0001944922487949756 -0.002745441534066066 -0.0008043310849968957 -0.0003513431611418259 
0.006427448798375054 -0.0005252840682209668 -0.0001389364298814868 -0.0001454388603237504 -2.492156916544512e-05 -1.889140528732948e-06 -0.001192448523692004 -1.411050798934636e-06 -9.632602731939146e-08 
-0.1497266350000635 0.03309554633209155 -0.02524357451486963 0.07950655916960875 0.0885769779431152 -0.08243573615537543 0.1833331721005033 -0.1254093157521515 -0.02263081928385614 
0.02070424738290615 -0.003243671917857914 -0.0005248417249709077 -0.001595574050095722 -0.0001335120866402062 -0.0004507963079197747 -0.004186565589275009 -6.239711498980299e-05 -0.0001063306320298981 
-0.01624138204863368 -0.005163432095579579 -0.004540261668721378 -0.00547275948002636 -0.003470789099406083 -0.002213584232521094 0.04451889591153045 -0.0008387800450080659 -0.001363116265639353 
-0.01219514183487791 -0.0008450021477415403 -0.0001493369416494803 0.02408206111695445 -5.46402236002149e-06 -7.317408555589385e-06 -0.000105631037361266 -5.904533833924606e-06 -8.303580203999515e-08 
-0.09671737461644922 0.06500352609828217 -0.04547387817174239 -0.05866917020197544 -0.03273043060245762 -0.01087590791141971 -0.05708968941167825 0.06559405908959907 -0.0091557893045589 
-0.004803280828424686 -6.958795027702467e-05 7.645500923707138e-07 0.00932391903549927 -1.744216928656883e-06 -3.339105385916074e-07 0.0102192335058422 -1.28320342953448e-07 1.480464929395387e-07 
-0.01614811243296557 -1.057866146676189e-05 -0.0006350315126218788 -0.0007429580250695138 -0.0003499228108165643 0.02198048989679294 -0.0006208933210569517 -2.37165724566464e-05 0.02244011802685248 
-0.005509347056545395 1.275919761361297e-06 0.03189055664876275 -1.218550927587044e-06 -1.425509938056887e-06 -5.228388136381796e-07 1.773930651459871e-06 -2.426316946504679e-07 4.903466100334579e-07 
0.004429691457271676 -6.173665990668531e-05 -0.002879507083055653 -0.0002373519535389542 -5.70022447590616e-06 -2.029210878019355e-06 -0.0006455025812471481 -2.722259150855894e-06 -8.80593931775843e-08 
0.002195978401432042 1.525966165181731e-07 1.54568180192154e-06 7.811850201124272e-07 -8.803485534329936e-07 -1.670646086484755e-07 9.565595410956605e-07 -7.604625421304431e-08 7.169635805237576e-08 
0.00417194415243818 5.452712896197385e-07 1.161607430650908e-07 1.224594296017367e-06 -8.227904083964791e-07 -1.534473710903448e-07 8.037989774338492e-07 -6.778365236719005e-08 1.159294663191242e-07 
-0.008654174069699106 0.02495731966956298 -2.093980370302136e-05 -0.0004743723722192582 -0.0001851518946968785 -1.142263204324324e-05 -0.0002925242515211228 -2.692782737016301e-05 -1.537426673242638e-05 
3.597128707498746e-05 6.147927484314142e-08 2.138123705599235e-07 2.884929624929541e-07 -8.526784776100133e-07 -1.631911331177673e-07 3.97460845527545e-07 -7.445065230350717e-08 5.076968886933066e-09 
0.001497658113561018 -0.0001491498972242733 -1.62280618129504e-05 0.01862886387578779 -1.931145042373576e-05 -1.661637584788791e-06 -0.0002055014002778369 -6.893035935762036e-07 3.241099952216651e-07 
0.004429691457271676 -6.173665990668531e-05 -0.002879507083055653 -0.0002373519535389542 -5.70022447590616e-06 -2.029210878019355e-06 -0.0006455025812471481 -2.722259150855894e-06 -8.80593931775843e-08 
0.008857716592236237 8.516485687718956e-07 8.947409206544234e-06 -3.526021765934015e-05 -9.737034111471646e-07 -2.652832406972432e-07 -1.885019767343182e-06 7.234629147384169e-08 3.288919316707675e-07 
-0.02221815096434048 0.02985684917868262 -0.01038892555326298 -0.01063471741754114 -0.001333454225643369 -0.001535457496280757 -0.005862385325746214 -0.002971840630578964 -0.002049590266687097 
0.0005481433478136424 1.003519507303536e-07 4.665134325462794e-08 4.118902039880206e-06 -8.719648304294279e-07 -1.666072786611757e-07 1.319421668274373e-06 -7.060889680605581e-08 3.446743202089865e-08 
-0.03948450226761224 0.04505453059848142 -0.01199588691587577 -0.01874859429184371 -0.01570267984034133 -0.007630128319406233 -0.02021541098491305 -0.01140130871101562 -0.0167129853438201 
-0.0279385200539379 0.03104323207732977 -0.008525233221309899 -0.01725029148784119 -0.009460119566188915 -0.006427720614768079 0.01512920863299668 0.03140635824628539 -0.005805383653029865 
7.194257414997493e-05 1.229585496862828e-07 4.276247411198469e-07 5.769859249859081e-07 -1.705356955220027e-06 -3.263822662355347e-07 7.9492169105509e-07 -1.489013046070143e-07 1.015393777386613e-08 
0.001545210798579939 -8.93896988525742e-07 -4.400041497165489e-06 -9.774021570736217e-06 -1.682971179399228e-05 -2.766439749595948e-07 -0.0001058196036591517 -1.612090596469898e-07 3.408770233595547e-07 
0.008405131279983127 -0.0009457903573617392 -0.000109846359063783 -0.001299929249419515 8.370850535414555e-06 -4.57248645913977e-06 -0.0002591962258350048 -3.424290402927429e-06 1.468151391308598e-07 
-0.007227616616905317 -2.379650170240861e-06 -0.0001067169362987597 -4.711368024030546e-05 -2.386958560401591e-05 -3.227504445022158e-06 0.01345858401259742 -5.98088357933766e-07 3.227842818276373e-07 
0.08401223182748425 -0.02223473866722409 -0.01581050563980832 -0.02022399766424622 -0.02598410041100702 -0.01129245699462323 -0.03545152278287742 -0.007587857305322076 -0.009979147948184408 
0.000350196224177462 6.326603040372973e-07 2.645560377581501e-07 -1.4154155759798e-06 -4.881714149017859e-07 -2.383313286769225e-07 -4.648706653503196e-06 -1.148171369142557e-07 3.031114362975191e-07 
0.0309002435581794 -0.008343782755076249 -0.005617241696897398 -0.01016018304619524 -0.003673081630850637 -0.001439654016536183 -0.01755254766197491 -0.00561666868854634 0.01856520663365713 
0.05856082512390012 -0.01043107478742266 -0.005791970473610535 -0.01195344961200443 -0.004504266468735251 -0.004184613719683481 -0.03709592289046396 -0.005724166023223119 -0.007032055382677036 
3.795099831333071e-05 -0.0001396164288839403 1.412559935590193e-06 0.01864552727311449 -1.763400017812439e-06 -3.351614255354552e-07 3.646635768329647e-06 -1.06178174635884e-07 1.334946361641992e-07 
0.001644430043440927 3.0105585219106e-07 1.399540297638838e-07 1.235670611964061e-05 -2.615894491288285e-06 -4.998218359835276e-07 3.958265004823124e-06 -2.118266904181673e-07 1.034022960626959e-07 
0.0004564912543559221 5.449340166135396e-08 6.681835371048381e-09 8.924441642155257e-07 -8.670244336415033e-07 -1.657751755789731e-07 1.781306117100906e-06 -7.529313348924762e-08 2.438865008574117e-08 
0.009450987385698408 -6.766114915303201e-06 -4.005147806683081e-06 -9.182992942967868e-05 -0.002927612355755134 -5.653444869545893e-06 -0.0007026580042318093 -1.417930134739121e-05 -5.789333343008199e-06 
1.897549915666536e-05 -6.980821444197014e-05 7.062799677950965e-07 0.009322763636557244 -8.817000089062194e-07 -1.675807127677276e-07 1.823317884164823e-06 -5.3089087317942e-08 6.674731808209962e-08 
0.0005841146348886299 1.618312255734953e-07 2.604637138145518e-07 4.407395002373164e-06 -1.724643308039442e-06 -3.29798411778943e-07 1.71688251380192e-06 -1.450595491095629e-07 3.954440090783159e-08 
-0.01238335427806206 -0.0004495349026486707 -0.0005453230832308484 0.01923779145312021 -0.0002014065743847859 -9.826690518003383e-06 -0.0004135089816218984 -3.871954986561022e-05 -3.015767138546813e-06 
7.194257414997493e-05 1.229585496862828e-07 4.276247411198469e-07 5.769859249859081e-07 -1.705356955220027e-06 -3.263822662355347e-07 7.9492169105509e-07 -1.489013046070143e-07 1.015393777386613e-08 
-0.009982360450697886 -0.007938154533084352 -0.005209273055472404 -0.005229283294140857 -0.005684510246444088 -0.005721241529200409 -0.005389812127723265 0.0320676673971151 -0.004306437937998065 
-0.06037724771322751 0.01581685686420424 -0.0679579582389116 0.04125724097984411 -0.04234268989196274 -0.04815056165171118 -0.1346115271228606 -0.03047763515633167 -0.07370393179295107 
0.0004564912543559221 5.449340166135396e-08 6.681835371048381e-09 8.924441642155257e-07 -8.670244336415033e-07 -1.657751755789731e-07 1.781306117100906e-06 -7.529313348924762e-08 2.438865008574117e-08 
-0.006028656197149589 4.425777978490629e-07 0.01710772633171891 7.172801304437208e-07 -7.756720215784122e-07 -1.520713393138523e-07 6.470392933963691e-07 -6.8589942671756e-08 1.153902736884284e-07 
0.01357095471426454 -0.001455367346322475 -0.000882696200295263 -0.0008225131180018881 -0.002623921893702922 -0.000365197560930713 -0.004688915604066653 -0.0001858391793510363 -0.0002916351875587407 
0.0005481433478136424 1.003519507303536e-07 4.665134325462794e-08 4.118902039880206e-06 -8.719648304294279e-07 -1.666072786611757e-07 1.319421668274373e-06 -7.060889680605581e-08 3.446743202089865e-08 
-0.001173239918447649 -0.00186576780743944 0.01102998732939939 -0.0001208779557229175 2.508350144883428e-06 -2.553260967445615e-06 -1.306565648408814e-05 -6.606809856230862e-07 5.168795665768818e-07 
0.01998373856049889 -0.002878290658417882 -0.0005891789510812634 -0.006666209401644899 -0.00213826035835886 -0.0003128251878679186 -0.0009223677287898004 -0.0004309840148715426 -0.0003786158836210562 
0.0002537435657949733 2.911068478595153e-07 1.135370196304812e-06 9.551740156227548e-07 -2.619885853627977e-06 -5.015721885571587e-07 9.208472971820838e-06 -2.286546461550215e-07 1.266701814386855e-07 
0.005514520002580011 -1.704674417387431e-05 -1.116962998695926e-06 -4.491581168928322e-05 1.13568820949364e-06 -2.755080013272684e-07 -0.0001094566475348576 -1.495722772261408e-07 4.504337052513229e-07 
-0.02102388895201333 -0.009122461336301036 -0.007831277497912344 -0.00910124058277895 0.01107391047061358 0.01548294860837676 0.01956585772466838 -0.005089851015214504 -0.005208453893125764 
0.01423724325310249 -0.004537869652051155 -0.00115537811033098 -0.002152511486150195 -2.134583310451781e-05 -3.493105413112848e-05 0.008751642163281871 -0.0001080332089203971 -3.947261618034005e-05 
-0.02405923659606086 0.0229614259899592 -0.001569310919701084 -0.004155647874403721 -0.0001191499728308022 -0.0005739166245515886 -0.004229116769592943 -0.0006037705890523411 -0.001366247343822189 
0.0003292930433181884 7.872585100742083e-07 1.665931688518543e-06 -2.973323974807141e-05 -2.403443076843501e-06 -4.71592997793208e-07 0.01021797698359176 -1.003496100697846e-07 2.865803333199233e-07 
0.003578155782639357 -1.042728785286376e-05 -2.900771130035032e-06 -8.838723949930929e-05 -1.096686899757843e-05 -6.186779955469974e-07 -0.0003191037046309167 -3.959799636001423e-07 4.624837362951856e-07 
-0.005423741853543042 -0.0001172338615534517 -0.0001631324834896774 -0.001056907026813057 0.01572019857001572 -0.0001333632866134087 -0.001443219537855031 -0.0006247918875660266 -5.714490921529962e-05 
-0.01580342205064574 -0.009135014345346353 -0.006203415891509823 -0.006604107229069318 0.03787973977782708 -0.004024301474815954 -0.01340631197454488 -0.003906887925994704 -0.002369033119796521 
-0.01808596859144877 1.327733393547189e-06 0.05132317899515673 2.151840391331164e-06 -2.32701606473524e-06 -4.562140179415571e-07 1.941117880189106e-06 -2.057698280152682e-07 3.461708210652852e-07 
0.009450987385698408 -6.766114915303201e-06 -4.005147806683081e-06 -9.182992942967868e-05 -0.002927612355755134 -5.653444869545893e-06 -0.0007026580042318093 -1.417930134739121e-05 -5.789333343008199e-06 
-0.009775190883238064 -0.001423027197267799 -9.513494585396474e-06 -0.002248772548867772 3.913511823768512e-06 -1.119013555153632e-05 -0.0007641027424243026 -0.0004926307016052704 0.0179524125836352 
-0.06071690995583224 -0.006528112568633646 0.1081776375947553 -0.01531228479022587 -0.01297977900088558 -0.01838411371055338 -0.04416119702578758 0.00411786573463539 -0.009102951641221078 
0.01228214219514322 -0.0004161047766211135 -0.0009600669878395815 -0.002021980136076611 -0.000384466642494178 -0.0002167879336879002 -0.004625310489923613 -0.0004160929395864981 -0.0003929650163215982 
0.01594085244950114 -0.01806818503597042 -0.01016199587331955 -0.004833253667741829 -0.01006050666184708 -0.008383248142816107 -0.01263532191165283 0.02994202009772001 -0.007560182139450274 
0.00076123069738492 8.733205435785458e-07 3.406110588914424e-06 2.865522046868273e-06 -7.859657560883931e-06 -1.504716565671479e-06 2.762541891546252e-05 -6.859639384650653e-07 3.800105443160562e-07 
0.01003522042809769 -0.006775328391722486 -0.004739328172568524 -0.009322240730326734 -0.001051071205862686 -0.001074950637970396 -0.002572107808771023 -0.005431297630352334 -0.003590881939440988 
0.0004564912543559221 5.449340166135396e-08 6.681835371048381e-09 8.924441642155257e-07 -8.670244336415033e-07 -1.657751755789731e-07 1.781306117100906e-06 -7.529313348924762e-08 2.438865008574117e-08 
0.003578155782639357 -1.042728785286376e-05 -2.900771130035032e-06 -8.838723949930929e-05 -1.096686899757843e-05 -6.186779955469974e-07 -0.0003191037046309167 -3.959799636001423e-07 4.624837362951856e-07 
-0.02297521523977123 -0.001274830051953487 -0.002459183408572813 -0.004992451695002918 -7.321650847385978e-05 -0.0001298822170194233 0.02979006988809121 -6.937780875729461e-05 -0.0001250239166385987 
-0.008630542729257808 -0.006133407683614563 0.01641403330959837 0.04483664986090518 -0.003395109772586095 0.02195717208692089 -0.005995830817974208 -0.0001177787223456456 -0.000106992780022895 
-0.004822256327581351 2.202641649454745e-07 5.827012457561795e-08 1.155398942026678e-06 -8.625169197506629e-07 -1.663298258238796e-07 0.01021741018795803 -7.523125563550608e-08 8.129917485743905e-08 
-0.01742593172029397 -0.0005407366627022053 -0.0007164902384321249 -0.001413032500555072 -0.002466189451852047 -0.000123632947386877 0.02842518901031027 -2.185605130704954e-05 -4.121496800545517e-05 
-0.003727952007522929 -0.0005187991549309661 -0.001606792766280788 -0.003067620494614576 0.01851768686294774 -0.0001275075556423956 -0.002062719798352633 -1.787289875916957e-05 -4.335208549824158e-05 
0.008343888304876359 1.090542579239477e-06 2.323214861301817e-07 2.449188592034735e-06 -1.645580816792958e-06 -3.068947421806897e-07 1.607597954867698e-06 -1.355673047343801e-07 2.318589326382484e-07 
-0.0125545087939375 -0.005470606203725721 -0.005148403211958212 -0.00860415078350032 -0.0006217063490175198 -0.002155932770989492 -0.005746242060256655 0.0223967675469647 -0.004079541233124882 
0.006715127028761959 -0.008087666891233955 -0.008173499172758303 -0.01617816057859387 -0.003111060047345109 -0.003237753376229357 -0.008628489870266964 0.02018056729342919 -0.006140507901801224 
0.0005481433478136424 1.003519507303536e-07 4.665134325462794e-08 4.118902039880206e-06 -8.719648304294279e-07 -1.666072786611757e-07 1.319421668274373e-06 -7.060889680605581e-08 3.446743202089865e-08 
-0.05472812528788287 -0.01569675013301558 -0.01084849650608499 0.08264980668327465 -0.003750444610912431 -0.009322039808993777 -0.008714386029912216 -0.007239500422239836 -0.01136040112063962 
0.0006463440221112384 5.06024096925092e-08 -3.656941647100606e-06 -4.439903413360711e-06 5.053916263219235e-06 -1.441317814690538e-07 -0.0009105276239736809 -6.557475035300124e-08 1.379861264195956e-07 
0.018146517071972 -0.004538198903019423 -0.001155449744126297 -0.002155451773420652 -1.874926731748415e-05 -3.443317395414665e-05 -0.001469330636910363 -0.0001078073913977831 -3.960269265536897e-05 
-0.01639275904426228 -0.004954406706742577 -0.008073597961327358 0.04197830465998038 -0.001731574334209658 -0.004614420359954688 -0.007517434322403589 -0.003504507721871043 -0.00555408284076458 
0.004603406023085897 4.666423943983801e-07 1.561010220688297e-06 -3.500754072997829e-05 -6.689613266634093e-07 -1.386558933081525e-07 -7.526260345427027e-07 4.549054237177708e-08 1.708137264415862e-07 
0.00425431056915034 3.850061743735122e-07 7.386398985855913e-06 -2.526769293618662e-07 -3.047420844837545e-07 -1.266273473890905e-07 -1.132393732800481e-06 2.685574910206475e-08 1.58078205229182e-07 
3.597128707498746e-05 6.147927484314142e-08 2.138123705599235e-07 2.884929624929541e-07 -8.526784776100133e-07 -1.631911331177673e-07 3.97460845527545e-07 -7.445065230350717e-08 5.076968886933066e-09 
-0.03093956496338039 -0.002234659232648873 -0.004352534689061081 0.04736204455036121 -0.001750247381165893 0.01783790524852307 -0.005077458826025468 -0.001514658090127143 -0.0007356473790937288 
0.04200611591374213 -0.01111736933361205 -0.007905252819904162 -0.01011199883212311 -0.01299205020550351 -0.005646228497311613 -0.01772576139143871 -0.003793928652661038 -0.004989573974092204 
0.009450987385698408 -6.766114915303201e-06 -4.005147806683081e-06 -9.182992942967868e-05 -0.002927612355755134 -5.653444869545893e-06 -0.0007026580042318093 -1.417930134739121e-05 -5.789333343008199e-06 
0.000175098112088731 3.163301520186486e-07 1.322780188790751e-07 -7.077077879898999e-07 -2.44085707450893e-07 -1.191656643384613e-07 -2.324353326751598e-06 -5.740856845712783e-08 1.515557181487596e-07 
-0.006028656197149589 4.425777978490629e-07 0.01710772633171891 7.172801304437208e-07 -7.756720215784122e-07 -1.520713393138523e-07 6.470392933963691e-07 -6.8589942671756e-08 1.153902736884284e-07 
0.002106632000084171 -1.581410699404209e-05 -0.002867655687474246 -0.0001695331652454617 -0.0001508332794625109 -0.0002516168088167569 -0.001319960203708343 -0.0004378165706912057 -8.219784726881877e-05 
-0.02743967209761994 0.01532902652798247 -0.001403038255788138 0.003630296634494915 0.01289396986533133 -7.005646008252355e-05 0.04021573742392861 -0.0001015645131846581 -0.0001366129345279449 
0.004202565639991563 -0.0004728951786808696 -5.492317953189149e-05 -0.0006499646247097576 4.185425267707278e-06 -2.286243229569885e-06 -0.0001295981129175024 -1.712145201463715e-06 7.34075695654299e-08 
-0.02879359775942466 -0.002655776917995783 -0.004272809846488684 0.04119071583432308 -0.00458849279874341 -0.001968513656422329 -0.01238291630837474 -0.001550804420006892 -0.003022591275247637 
0.02012564755305533 -0.005235987944594062 -0.006056435962482936 -0.01500798942726719 -0.004976031551348526 -0.002163086586906497 -0.005761485115882446 -0.004432582469240511 -0.004122616592258451 
0.03986302766028656 -0.003350232783276946 -0.006290304474180588 -0.004383350900945626 -0.003299179525061226 -0.001607666423617944 -0.01121630526017288 -0.001613923140566016 -0.0005745369091685957 
3.597128707498746e-05 6.147927484314142e-08 2.138123705599235e-07 2.884929624929541e-07 -8.526784776100133e-07 -1.631911331177673e-07 3.97460845527545e-07 -7.445065230350717e-08 5.076968886933066e-09 
0.01865091967382657 -0.009963207415187303 -0.00753258683108371 -0.003797167698804517 -0.006761447102919314 -0.008170480837669972 -0.009000962415677371 -0.001272770421291114 -0.001718032556977886 
-0.0003734959693293527 -6.118889539218096e-05 0.01306591243540161 -0.000237046444390668 -6.931283063260437e-06 -2.314040088559078e-06 -0.0006454241047817512 -2.852391483388366e-06 5.486313233232214e-08 
0.01140262856964125 -0.0009211933444473339 -0.0004463102109561155 -0.001155346558722395 2.929619131291105e-06 -3.825471586854725e-05 -0.001010362194430842 -0.0009641053101070639 -0.0001286996130564974 
0.0004564912543559221 5.449340166135396e-08 6.681835371048381e-09 8.924441642155257e-07 -8.670244336415033e-07 -1.657751755789731e-07 1.781306117100906e-06 -7.529313348924762e-08 2.438865008574117e-08 
-0.001173239918447649 -0.00186576780743944 0.01102998732939939 -0.0001208779557229175 2.508350144883428e-06 -2.553260967445615e-06 -1.306565648408814e-05 -6.606809856230862e-07 5.168795665768818e-07 
0.004044485475081768 -0.0007419043958877424 -0.0001594217413186094 -0.002169417888259099 -0.004456975684779634 -5.688245075098538e-05 0.03093494631513399 -6.333590143421444e-05 -4.490706198119806e-05 
0.04122217505016088 -0.01429076713607152 -0.006188508165997716 -0.01311856377069741 -0.004873341421324865 -0.00353362375661665 -0.004770729214480434 -0.002684157985430339 -0.004500278754579316 
-0.0850461567205968 -0.001178635370132105 -0.001024530899231478 -0.01069299931906601 0.08539423606476565 -0.0009132784191426965 0.1053060637572764 -0.003875533537557666 -0.0004313911446391701 
0.00417194415243818 5.452712896197385e-07 1.161607430650908e-07 1.224594296017367e-06 -8.227904083964791e-07 -1.534473710903448e-07 8.037989774338492e-07 -6.778365236719005e-08 1.159294663191242e-07 
-0.003277045529001412 -6.736328235802673e-07 -4.34177137258987e-06 -8.618622628709537e-06 -1.769222871374294e-05 -4.429738007834738e-07 0.01011159058429888 -2.364403152824961e-07 4.221761982169957e-07 
0.0221341908741613 -0.005283128938488812 0.01474201798957005 -0.0106351721167295 -0.002477737461410101 -0.0007427623513739156 -0.008446413591920042 -0.001418594920515632 0.0164336319378211 
3.597128707498746e-05 6.147927484314142e-08 2.138123705599235e-07 2.884929624929541e-07 -8.526784776100133e-07 -1.631911331177673e-07 3.97460845527545e-07 -7.445065230350717e-08 5.076968886933066e-09 
-0.00213231805835025 -0.003462996120038571 -0.003177554922890949 0.01657806640332086 -0.002493479798034284 -0.001088860702008838 -0.002986373595302489 -0.00222219576845418 -0.002061391331931265 
0.001545210798579939 -8.93896988525742e-07 -4.400041497165489e-06 -9.774021570736217e-06 -1.682971179399228e-05 -2.766439749595948e-07 -0.0001058196036591517 -1.612090596469898e-07 3.408770233595547e-07 
0.04870628432773268 -0.01314687011203621 -0.007276514208801082 -0.01195282027800753 -0.00212224483079603 -0.002684585386264912 0.02582933487517927 -0.005848835732644433 -0.007619157304821014 
0.0004564912543559221 5.449340166135396e-08 6.681835371048381e-09 8.924441642155257e-07 -8.670244336415033e-07 -1.657751755789731e-07 1.781306117100906e-06 -7.529313348924762e-08 2.438865008574117e-08 
-0.01375443020455901 -0.001999904330913303 -0.0005848292788394561 0.02346625259026935 -0.0001548933104083638 -0.0001293257653483727 -0.007142195679086207 -0.0003448125490331845 -0.001111960499212255 
0.09748058994091818 0.02175396939602255 -0.02912717855613227 -0.08462096690186421 -0.07004160941155044 -0.006842679918787508 -0.1025214558101947 -0.04321688056575378 -0.04477523136653476 
0.009572025641391894 -0.0004894353074251504 -0.00153997418119254 -0.00303558404463982 -3.971298409230802e-05 -0.0001265036180558355 -0.001533684759449282 -1.732755478010152e-05 -4.375042570830754e-05 
-0.005485107837406563 -0.0001793971342908201 -0.0001464961606938879 -9.514104378086792e-05 -1.434190526190947e-05 -3.293344593392459e-06 -0.0003980885278611106 0.02479669799671872 -3.526803126867211e-06 
0.00520385542465682 -4.781144028753248e-07 -3.46854285049362e-06 -0.0008531306774738221 -8.351182892493809e-07 3.530082976355667e-07 -4.074459647042198e-05 -2.70953658305124e-07 6.68785779843126e-07 
-0.05601215756705078 0.0466012598219372 -0.001601418620587949 -0.006844148014322048 -0.0003012144581665694 -0.0005969947702971725 -0.005235570038432204 -0.001123101065065904 0.03901767316664526 
0.06047973439899526 -0.01162299540021567 -0.01231937866149452 -0.01336633750772247 -0.01319504122591576 -0.006024908355833942 -0.02159650620826371 -0.004249254071399974 -0.00511487257019311 
0.001369473763067766 1.634802049840621e-07 2.004550611314513e-08 2.67733249264658e-06 -2.60107330092451e-06 -4.973255267369194e-07 5.343918351302731e-06 -2.258794004677431e-07 7.316595025722325e-08 
-0.004822256327581351 2.202641649454745e-07 5.827012457561795e-08 1.155398942026678e-06 -8.625169197506629e-07 -1.663298258238796e-07 0.01021741018795803 -7.523125563550608e-08 8.129917485743905e-08 
-0.007784606798970774 -3.803651967713219e-07 -5.77839779432668e-07 0.01292073248206787 5.951084435704376e-07 8.920166215909166e-08 -7.822647008688346e-06 -5.413969210008867e-08 4.823104296760035e-07 
0.005514520002580011 -1.704674417387431e-05 -1.116962998695926e-06 -4.491581168928322e-05 1.13568820949364e-06 -2.755080013272684e-07 -0.0001094566475348576 -1.495722772261408e-07 4.504337052513229e-07 
0.008662355297272002 -0.0006454659039153362 -0.001064361310699093 -0.002038198699176145 -0.0003600860935499591 -4.348576950194062e-05 -0.003075030749829392 -0.0005023887543568813 -3.0249651448824e-05 
0.04423561163682809 -0.02276719258673374 -0.01010578644180789 -0.0260284975309583 -0.01025852240599488 -0.007974144596233908 -0.02176207012129234 -0.006655212805415334 -0.007852458825248531 
0.008662355297272002 -0.0006454659039153362 -0.001064361310699093 -0.002038198699176145 -0.0003600860935499591 -4.348576950194062e-05 -0.003075030749829392 -0.0005023887543568813 -3.0249651448824e-05 
-0.001546269867246376 -0.0003730583483755905 0.02833454322373568 -0.001678197836395384 -0.003091230236533451 -0.004057146132746993 -0.009661450894521605 -0.004569916732192919 -0.001255299990189616 
0.00520385542465682 -4.781144028753248e-07 -3.46854285049362e-06 -0.0008531306774738221 -8.351182892493809e-07 3.530082976355667e-07 -4.074459647042198e-05 -2.70953658305124e-07 6.68785779843126e-07 
-0.009775190883238064 -0.001423027197267799 -9.513494585396474e-06 -0.002248772548867772 3.913511823768512e-06 -1.119013555153632e-05 -0.0007641027424243026 -0.0004926307016052704 0.0179524125836352 
0.03549258729618861 -0.00262402107341954 -1.207074683807549e-05 -8.922002867293943e-05 -1.553908347220789e-05 -4.054986933908999e-05 -0.001371660539452025 -0.0002207018973205306 -5.74103737149357e-05 
0.01468831437848239 -0.006775742727119337 -0.004740143356157303 -0.009324032911945843 -0.001048462098373851 -0.001074449926685534 -0.01279565697871027 -0.005431069962665929 -0.003591047685403471 
-0.008211410125623878 -0.0004489896313590509 -0.0005452069224877833 0.01923901604741622 -0.0002022293647931824 -9.980137889093728e-06 -0.0004127051826444645 -3.878733351797742e-05 -2.899837672227686e-06 
0.01928234639512516 -0.001575852204662901 -0.0004168092896444603 -0.0004363165809712513 -7.476470749633538e-05 -5.667421586198843e-06 -0.003577345571076012 -4.233152396803908e-06 -2.889780819581778e-07 
0.003081070650702691 -0.001865382801265067 0.01103737372838525 -0.0001211306326522794 2.203608060399672e-06 -2.679888314834705e-06 -1.419805021688862e-05 -6.338252365210102e-07 6.749577718060617e-07 
3.597128707498746e-05 6.147927484314142e-08 2.138123705599235e-07 2.884929624929541e-07 -8.526784776100133e-07 -1.631911331177673e-07 3.97460845527545e-07 -7.445065230350717e-08 5.076968886933066e-09 
0.003906467028152845 -0.0001391006097988391 -0.0004024692566439409 -0.0008209091733862143 -0.0001933550858280103 -8.182515439603797e-05 -0.0004832741532755129 -0.0001573328562709227 -0.0001577266706726978 
0.002757260001290006 -8.523372086937153e-06 -5.584814993479628e-07 -2.245790584464161e-05 5.678441047468198e-07 -1.377540006636342e-07 -5.472832376742882e-05 -7.478613861307039e-08 2.252168526256614e-07 
0.08259559498161451 -0.01836314453601851 0.00306177994006685 -0.02805543139917336 -0.01065694191403766 -0.00754860864715893 -0.02921525170874314 0.01530600327305819 -0.007559303857085843 
0.04838746757651509 -0.01002368695957642 0.009590604201496888 -0.009498881620510812 -0.005756117439633936 -0.003758554840322116 -0.02161590953940239 -0.005121429893311871 -0.005614405913070369 
-0.03438580518926375 -0.001300751118527411 -0.002841216592768025 -0.005584495610676538 -0.0001785220545854093 -0.0002066658183537607 0.04903731073325056 -0.0001593691008069698 -0.0001389581545181207 
0.001645317282927483 -1.096222876888932e-05 -0.002777664882411362 -0.000155670470383619 -0.0001275828540464207 -0.0002393621167583345 -0.001169694490849343 -0.0004147537630337519 -8.130424691628617e-05 
0.0004564912543559221 5.449340166135396e-08 6.681835371048381e-09 8.924441642155257e-07 -8.670244336415033e-07 -1.657751755789731e-07 1.781306117100906e-06 -7.529313348924762e-08 2.438865008574117e-08 
0.0119640720474618 -7.59008729814039e-06 2.563538942028632e-06 -9.247298730459819e-05 -7.700785485799983e-07 -4.150657872799403e-07 -5.623357583651424e-05 1.619494613048395e-08 5.66844305508835e-07 
-0.006028656197149589 4.425777978490629e-07 0.01710772633171891 7.172801304437208e-07 -7.756720215784122e-07 -1.520713393138523e-07 6.470392933963691e-07 -6.8589942671756e-08 1.153902736884284e-07 
-0.07455064967100362 -0.2161184392325441 -0.1013121106094485 -0.1131407006697875 0.08647642175159868 -0.02086955281352347 0.05376941668398257 0.006952715333098985 -0.06509691389779607 
0.003827689800760466 -0.000489539798969488 -0.0002413335964494716 -0.0004889687030001009 -0.0002792104847452531 -0.0007136633769064145 -0.004769207316824456 -0.0001080254383198649 0.02220329077677105 
-0.02879359775942466 -0.002655776917995783 -0.004272809846488684 0.04119071583432308 -0.00458849279874341 -0.001968513656422329 -0.01238291630837474 -0.001550804420006892 -0.003022591275247637 
0.003578155782639357 -1.042728785286376e-05 -2.900771130035032e-06 -8.838723949930929e-05 -1.096686899757843e-05 -6.186779955469974e-07 -0.0003191037046309167 -3.959799636001423e-07 4.624837362951856e-07 
0.01046092238155954 -0.002627292701157259 -1.276771129646604e-05 -9.656759444904364e-05 -1.060234102182902e-05 -3.962918511254791e-05 -0.001376483333316628 -0.0002202951954063274 -5.810595051285045e-05 
0.03151214742124126 -0.004492087796593544 0.01033535183133521 -0.0008439533553017893 -0.0001229714605127716 -1.216557088977153e-05 -0.005973988853275833 -7.786543877102324e-06 6.971686200081306e-08 
0.0005481433478136424 1.003519507303536e-07 4.665134325462794e-08 4.118902039880206e-06 -8.719648304294279e-07 -1.666072786611757e-07 1.319421668274373e-06 -7.060889680605581e-08 3.446743202089865e-08 
0.005774242922975488 -0.0001093273803889594 2.870209970972292e-06 -6.507831049893721e-06 -1.731832761039699e-08 2.191567937302583e-07 -5.983537378458366e-05 -5.288656141924585e-08 4.022149360934711e-07 
-0.02221815096434048 0.02985684917868262 -0.01038892555326298 -0.01063471741754114 -0.001333454225643369 -0.001535457496280757 -0.005862385325746214 -0.002971840630578964 -0.002049590266687097 
0.008142522594264968 -0.0001404520595781136 -1.424095275270912e-05 0.01776388721584448 -1.960699931700773e-06 2.591212778587599e-07 -4.511246682580909e-05 2.477522664805157e-07 1.098161252870831e-06 
-0.003217849646141339 -3.442336861430652e-06 2.349192852093831e-06 -7.447576536154218e-06 1.929748382890683e-07 -5.84949841467336e-08 -1.120919640401664e-05 3.695582474297727e-07 0.02244744506828943 
0.0317695278950335 -0.009566110136789686 0.002984690647216874 0.03988844354377193 0.01192554188621451 -0.004199880437134303 -0.02437799481904746 -0.008459668663325195 -0.006119898151906121 
-0.02106624752701366 -0.004832825127683085 -0.002466568965123526 -0.001076742209022692 -4.794114167587328e-05 -0.0001158586826826933 0.04426976802466195 -0.001920193328376678 -0.0005180380347758802 
-0.01238335427806206 -0.0004495349026486707 -0.0005453230832308484 0.01923779145312021 -0.0002014065743847859 -9.826690518003383e-06 -0.0004135089816218984 -3.871954986561022e-05 -3.015767138546813e-06 
-0.01375443020455901 -0.001999904330913303 -0.0005848292788394561 0.02346625259026935 -0.0001548933104083638 -0.0001293257653483727 -0.007142195679086207 -0.0003448125490331845 -0.001111960499212255 
-0.006014487940298498 -0.008462007120017538 -0.005963539470114001 -0.005278024683470498 -0.003935236514091298 -0.006320365795315669 0.02463217545710406 -0.00393856183601545 -0.005113354464738679 
0.009572025641391894 -0.0004894353074251504 -0.00153997418119254 -0.00303558404463982 -3.971298409230802e-05 -0.0001265036180558355 -0.001533684759449282 -1.732755478010152e-05 -4.375042570830754e-05 
0.01058916728320569 -0.01093625648523307 0.04467111186005668 0.04275697209366363 -5.715305030812916e-05 -8.550315722651373e-05 -0.003897355159165501 -0.0002307202199680253 -7.786833376991032e-05 
0.002757260001290006 -8.523372086937153e-06 -5.584814993479628e-07 -2.245790584464161e-05 5.678441047468198e-07 -1.377540006636342e-07 -5.472832376742882e-05 -7.478613861307039e-08 2.252168526256614e-07 
8.458118859832441e-05 9.703561595317168e-08 3.784567321016018e-07 3.183913385409194e-07 -8.732952845426584e-07 -1.671907295190529e-07 3.069490990606947e-06 -7.621821538500719e-08 4.222339381289502e-08 
0.03215162395222409 -0.00648854336509839 -0.001049929135098687 -0.00319538217711191 -0.0002636445435963364 -0.0009009541707462109 -0.008378301388739086 -0.0001245080764078931 -0.0002129419002926059 
0.013460476339585 -0.002746714230665173 0.01459203359433606 -0.004734997839250439 -2.47384916925257e-05 -6.656807982197266e-05 0.02934308600308072 -0.0009643176977528584 -0.0002755406817704747 
-0.000257666032424706 0.01657658492767542 -0.00102284667081614 -0.006377991786139823 -0.001169700010961806 -6.480759925717621e-06 -0.00341313800501995 -3.476443839500942e-05 -9.278196438681791e-05 
-0.004377843996519328 -4.365592985491549e-06 0.01585521490102382 -1.384567867604943e-05 -2.36288055258344e-05 -1.237633013584438e-05 -0.0001505846972391304 -2.311848933768278e-05 -7.557547959096266e-07 
0.004084389182208313 2.063136660856929e-07 -2.332201427687076e-07 -1.570974637714557e-06 2.045455659742999e-07 -1.123719292752168e-07 -6.575915788859159e-07 -5.505011880753073e-08 1.724321029746165e-07 
0.004628435406794102 5.997646912810935e-07 1.228425784361391e-07 2.117038460232893e-06 -1.689814842037983e-06 -3.192225466693175e-07 2.585105094534759e-06 -1.430767858564377e-07 1.403181164048645e-07 
0.001292688044222477 1.012048193850184e-07 -7.313883294201213e-06 -8.879806826721421e-06 1.010783252643847e-05 -2.882635629381076e-07 -0.001821055247947362 -1.311495007060025e-07 2.759722528391912e-07 
-0.02405923659606086 0.0229614259899592 -0.001569310919701084 -0.004155647874403721 -0.0001191499728308022 -0.0005739166245515886 -0.004229116769592943 -0.0006037705890523411 -0.001366247343822189 
3.597128707498746e-05 6.147927484314142e-08 2.138123705599235e-07 2.884929624929541e-07 -8.526784776100133e-07 -1.631911331177673e-07 3.97460845527545e-07 -7.445065230350717e-08 5.076968886933066e-09 
-0.002838417406738659 0.01657572644807578 -0.001026893053446067 0.005689610018454225 -0.001169940020807485 -6.038549965922962e-06 -0.003461705248499061 -3.508953174541464e-05 -9.163086817729877e-05 
0.0001691623771966488 1.940712319063434e-07 7.569134642032037e-07 6.367826770818388e-07 -1.746590569085317e-06 -3.343814590381058e-07 6.138981981213894e-06 -1.524364307700144e-07 8.444678762579004e-08 
-0.005866199592238247 -0.0093288390371972 0.05514993664699696 -0.0006043897786145874 1.254175072441713e-05 -1.276630483722806e-05 -6.532828242044068e-05 -3.303404928115417e-06 2.584397832884394e-06 
-0.02350432224287875 -0.004969231620561879 -0.004114557205814581 -0.005107779092544019 -0.003372623137881226 -0.002165443893165732 0.04546928254232683 -0.0008320920400302979 -0.001354157140311375 
-0.004822256327581351 2.202641649454745e-07 5.827012457561795e-08 1.155398942026678e-06 -8.625169197506629e-07 -1.663298258238796e-07 0.01021741018795803 -7.523125563550608e-08 8.129917485743905e-08 
0.01865091967382657 -0.009963207415187303 -0.00753258683108371 -0.003797167698804517 -0.006761447102919314 -0.008170480837669972 -0.009000962415677371 -0.001272770421291114 -0.001718032556977886 
-0.006028656197149589 4.425777978490629e-07 0.01710772633171891 7.172801304437208e-07 -7.756720215784122e-07 -1.520713393138523e-07 6.470392933963691e-07 -6.8589942671756e-08 1.153902736884284e-07 
-0.02584560947667493 -0.009056711075795016 -0.005869352836889225 0.05584251972730409 -0.004737019156782409 -0.002111106044286988 -0.01861186275785433 -0.001646978774635064 -0.003160790374271063 
0.002195978401432042 1.525966165181731e-07 1.54568180192154e-06 7.811850201124272e-07 -8.803485534329936e-07 -1.670646086484755e-07 9.565595410956605e-07 -7.604625421304431e-08 7.169635805237576e-08 
0.00417194415243818 5.452712896197385e-07 1.161607430650908e-07 1.224594296017367e-06 -8.227904083964791e-07 -1.534473710903448e-07 8.037989774338492e-07 -6.778365236719005e-08 1.159294663191242e-07 
0.002195978401432042 1.525966165181731e-07 1.54568180192154e-06 7.811850201124272e-07 -8.803485534329936e-07 -1.670646086484755e-07 9.565595410956605e-07 -7.604625421304431e-08 7.169635805237576e-08 
0.08670292752225099 -0.04402421076436758 -0.01348720384778324 -0.0123748099641649 -0.02623563018212556 -0.01191001185177086 -0.03848612525123268 -0.01042172226877227 -0.01475276084036234 
-0.04926243469891682 -0.005037111992558152 0.01707201512895456 -0.006485535379966407 -0.009530599035641392 0.05339717128672853 0.02846958645515221 -0.008589487965835838 -0.003043384700586717 
-0.004839158713676016 4.862852396612162e-07 0.01594520570608671 1.701618579329708e-08 -3.783801097442652e-07 -1.21638077421955e-07 -3.189843801305789e-07 -5.568168022896485e-08 1.378455566229739e-07 
0.004391956802864085 3.051932330363462e-07 3.091363603843081e-06 1.562370040224854e-06 -1.760697106865987e-06 -3.34129217296951e-07 1.913119082191321e-06 -1.520925084260886e-07 1.433927161047515e-07 
-0.02703608091563319 0.01442948391630118 0.02684244291695546 0.001772995570769514 -0.005969245531376828 0.03310703081988303 -0.01721326095975378 0.01407283038855809 -0.009379437893421277 
-0.039113801618144 -0.005495867985747706 -0.009181976338632127 -0.01036581106709861 0.05296708679872388 -0.008360334434919365 -0.01662289028635977 -0.004390631176907268 -0.003194498948788442 
0.02184196462086058 -0.00207487375638663 -0.001100599432177549 -0.001866606956851348 -0.002618364282745 -0.000420965770266704 -0.008528232987054822 -0.0002892214112784801 -0.0003689373814539397 
-0.05521452014499298 -0.05490574114978038 -0.00759987775098697 0.0104871362549304 0.009425074005219913 0.05179005665484836 0.02581329580074565 -0.03929189031059485 0.005457887234536126 
1.897549915666536e-05 -6.980821444197014e-05 7.062799677950965e-07 0.009322763636557244 -8.817000089062194e-07 -1.675807127677276e-07 1.823317884164823e-06 -5.3089087317942e-08 6.674731808209962e-08 
-0.02476670855612412 -0.0008990698052973414 -0.001090646166461697 0.03847558290624042 -0.0004028131487695719 -1.965338103600677e-05 -0.0008270179632437968 -7.743909973122045e-05 -6.031534277093626e-06 
-0.01031527428757955 -0.0005481976259779532 -0.004051558264253281 -0.0008136441621237377 -0.001738254396777131 0.01785264817792876 -0.004878725369375227 -0.001502408855315059 0.02171192929336776 
-0.1065178747983181 -0.0005125127397237132 0.02397869662394546 -0.006777281152336033 -0.005309860328269594 0.1277461681698439 0.005587308827997899 0.01999246446736226 -0.001317275891652167 
-0.03489804928774965 0.02384934031785062 -0.009219194991036437 0.0200959346722133 -0.001565128482583937 -0.004014584371729048 -0.002316040375586629 -0.003561405507387516 -0.003807832741773605 
0.02042194591104156 1.031568330428462e-06 -1.166100713843536e-06 -7.854873188572795e-06 1.022727829871503e-06 -5.618596463760826e-07 -3.28795789442959e-06 -2.752505940376539e-07 8.621605148730814e-07 
0.02386353138014103 -0.008780305556948871 -0.005227106840844615 -0.004111750312540303 -0.0001558036917111955 -0.0001939432935894663 -0.002806993790364452 -0.0008042389120092053 -0.0003509804906066403 
0.0005481433478136424 1.003519507303536e-07 4.665134325462794e-08 4.118902039880206e-06 -8.719648304294279e-07 -1.666072786611757e-07 1.319421668274373e-06 -7.060889680605581e-08 3.446743202089865e-08 
1.897549915666536e-05 -6.980821444197014e-05 7.062799677950965e-07 0.009322763636557244 -8.817000089062194e-07 -1.675807127677276e-07 1.823317884164823e-06 -5.3089087317942e-08 6.674731808209962e-08 
0.004202565639991563 -0.0004728951786808696 -5.492317953189149e-05 -0.0006499646247097576 4.185425267707278e-06 -2.286243229569885e-06 -0.0001295981129175024 -1.712145201463715e-06 7.34075695654299e-08 
3.597128707498746e-05 6.147927484314142e-08 2.138123705599235e-07 2.884929624929541e-07 -8.526784776100133e-07 -1.631911331177673e-07 3.97460845527545e-07 -7.445065230350717e-08 5.076968886933066e-09 
0.02632966965479968 0.0003679123245728707 0.01523849584256165 -0.01391392273532563 0.004792707728703728 0.00939350554402857 -0.02597203713421911 0.05190656239894971 -0.009561850067553548 
-0.007227616616905317 -2.379650170240861e-06 -0.0001067169362987597 -4.711368024030546e-05 -2.386958560401591e-05 -3.227504445022158e-06 0.01345858401259742 -5.98088357933766e-07 3.227842818276373e-07 
0.00417194415243818 5.452712896197385e-07 1.161607430650908e-07 1.224594296017367e-06 -8.227904083964791e-07 -1.534473710903448e-07 8.037989774338492e-07 -6.778365236719005e-08 1.159294663191242e-07 
-0.03766352638181249 -0.01641181861117717 -0.01544520963587463 -0.02581245235050096 -0.00186511904705256 -0.006467798312968477 -0.01723872618076997 0.0671903026408941 -0.01223862369937465 
-0.000257666032424706 0.01657658492767542 -0.00102284667081614 -0.006377991786139823 -0.001169700010961806 -6.480759925717621e-06 -0.00341313800501995 -3.476443839500942e-05 -9.278196438681791e-05 
-0.02070609161676042 0.01197498337795134 0.01748217495559963 -0.0121248882858156 0.07182812695171099 -0.000747475992001795 -0.01444417327602372 -0.003224505197431972 -0.0003926200899159379 
0.004603406023085897 4.666423943983801e-07 1.561010220688297e-06 -3.500754072997829e-05 -6.689613266634093e-07 -1.386558933081525e-07 -7.526260345427027e-07 4.549054237177708e-08 1.708137264415862e-07 
-0.02386751128323553 0.01044285598759239 -0.003443294697892096 -0.02045005509386988 0.05154645819544647 -0.008773981881196108 -0.02447976788176519 -0.004932327365637482 -0.003415066961432344 
0.02394552629719453 -0.02830331659517117 -0.0152497853955263 0.03961641699230081 -0.00893799234601062 0.005906964018617737 -0.03783857543905489 0.02074073789306363 -0.01519998696360875 
0.004429691457271676 -6.173665990668531e-05 -0.002879507083055653 -0.0002373519535389542 -5.70022447590616e-06 -2.029210878019355e-06 -0.0006455025812471481 -2.722259150855894e-06 -8.80593931775843e-08 
0.004603406023085897 4.666423943983801e-07 1.561010220688297e-06 -3.500754072997829e-05 -6.689613266634093e-07 -1.386558933081525e-07 -7.526260345427027e-07 4.549054237177708e-08 1.708137264415862e-07 
0.004675348597235872 5.896009440846638e-07 1.988634961808146e-06 -3.443055480499238e-05 -2.374318281883435e-06 -4.650381595436882e-07 4.229565651238708e-08 -1.034107622352372e-07 1.80967664215452e-07 
3.795099831333071e-05 -0.0001396164288839403 1.412559935590193e-06 0.01864552727311449 -1.763400017812439e-06 -3.351614255354552e-07 3.646635768329647e-06 -1.06178174635884e-07 1.334946361641992e-07 
0.001292688044222477 1.012048193850184e-07 -7.313883294201213e-06 -8.879806826721421e-06 1.010783252643847e-05 -2.882635629381076e-07 -0.001821055247947362 -1.311495007060025e-07 2.759722528391912e-07 
0.03087262050207917 -0.01392462607205318 -0.008737441922024556 0.003187153034111527 -0.004575463898381508 -0.004376845415513126 0.001865427922530852 -0.009374723156854357 -0.006318814548288101 
0.008550051926554976 -6.146886696575647e-05 -0.002879526490827862 -0.0002386344352141759 -6.348357387541876e-06 -2.304773940412339e-06 -0.0006457627119805065 -2.851759921966932e-06 8.944967868396338e-08 
0.0004564912543559221 5.449340166135396e-08 6.681835371048381e-09 8.924441642155257e-07 -8.670244336415033e-07 -1.657751755789731e-07 1.781306117100906e-06 -7.529313348924762e-08 2.438865008574117e-08 
0.003578155782639357 -1.042728785286376e-05 -2.900771130035032e-06 -8.838723949930929e-05 -1.096686899757843e-05 -6.186779955469974e-07 -0.0003191037046309167 -3.959799636001423e-07 4.624837362951856e-07 
0.002195978401432042 1.525966165181731e-07 1.54568180192154e-06 7.811850201124272e-07 -8.803485534329936e-07 -1.670646086484755e-07 9.565595410956605e-07 -7.604625421304431e-08 7.169635805237576e-08 
-0.005485107837406563 -0.0001793971342908201 -0.0001464961606938879 -9.514104378086792e-05 -1.434190526190947e-05 -3.293344593392459e-06 -0.0003980885278611106 0.02479669799671872 -3.526803126867211e-06 
-0.01238335427806206 -0.0004495349026486707 -0.0005453230832308484 0.01923779145312021 -0.0002014065743847859 -9.826690518003383e-06 -0.0004135089816218984 -3.871954986561022e-05 -3.015767138546813e-06 
-0.04811847319212172 0.0459228519799184 -0.003138621839402168 -0.008311295748807443 -0.0002382999456616044 -0.001147833249103177 -0.008458233539185886 -0.001207541178104682 -0.002732494687644378 
-0.0149070141005209 -0.0184019535826949 -0.01547782524950362 -0.0134172405261601 -0.009831176509542938 -0.01221697819917207 0.04898328056761019 0.02608216280846369 -0.009679526896115998 
-0.004822256327581351 2.202641649454745e-07 5.827012457561795e-08 1.155398942026678e-06 -8.625169197506629e-07 -1.663298258238796e-07 0.01021741018795803 -7.523125563550608e-08 8.129917485743905e-08 
0.004202565639991563 -0.0004728951786808696 -5.492317953189149e-05 -0.0006499646247097576 4.185425267707278e-06 -2.286243229569885e-06 -0.0001295981129175024 -1.712145201463715e-06 7.34075695654299e-08 
3.597128707498746e-05 6.147927484314142e-08 2.138123705599235e-07 2.884929624929541e-07 -8.526784776100133e-07 -1.631911331177673e-07 3.97460845527545e-07 -7.445065230350717e-08 5.076968886933066e-09 
-0.01784441466186881 -0.0002169806319406855 -1.092526491762259e-05 -0.001993890068903961 -0.004431340328014633 -5.467571155216369e-05 0.03213481140902529 -6.228754198866018e-05 -4.559487371279617e-05 
0.01858175099859645 -0.008670862203883408 -0.005229756556609656 -0.004104061544363701 -0.0001575060762948367 -0.0001944914166918933 -0.00274497964961724 -0.0008043357692335788 -0.000351353239923761 
-0.02476670855612412 -0.0008990698052973414 -0.001090646166461697 0.03847558290624042 -0.0004028131487695719 -1.965338103600677e-05 -0.0008270179632437968 -7.743909973122045e-05 -6.031534277093626e-06 
0.007262940194245065 -0.0001942004750176998 -0.0004257044629067968 -0.0003649803874823416 -9.816596152485715e-05 -4.814033935536202e-05 -0.0009503866307963816 -6.688004977767963e-06 -8.959125327978628e-06 
-0.009982360450697886 -0.007938154533084352 -0.005209273055472404 -0.005229283294140857 -0.005684510246444088 -0.005721241529200409 -0.005389812127723265 0.0320676673971151 -0.004306437937998065 
0.0005481433478136424 1.003519507303536e-07 4.665134325462794e-08 4.118902039880206e-06 -8.719648304294279e-07 -1.666072786611757e-07 1.319421668274373e-06 -7.060889680605581e-08 3.446743202089865e-08 
0.001545210798579939 -8.93896988525742e-07 -4.400041497165489e-06 -9.774021570736217e-06 -1.682971179399228e-05 -2.766439749595948e-07 -0.0001058196036591517 -1.612090596469898e-07 3.408770233595547e-07 
0.004977834805085318 -6.163630795595496e-05 -0.002879460431712398 -0.0002332330514990741 -6.572189306335592e-06 -2.19581815668053e-06 -0.0006441831595788738 -2.79286804766195e-06 -5.359196115668644e-08 
0.004202565639991563 -0.0004728951786808696 -5.492317953189149e-05 -0.0006499646247097576 4.185425267707278e-06 -2.286243229569885e-06 -0.0001295981129175024 -1.712145201463715e-06 7.34075695654299e-08 
3.597128707498746e-05 6.147927484314142e-08 2.138123705599235e-07 2.884929624929541e-07 -8.526784776100133e-07 -1.631911331177673e-07 3.97460845527545e-07 -7.445065230350717e-08 5.076968886933066e-09 
1.897549915666536e-05 -6.980821444197014e-05 7.062799677950965e-07 0.009322763636557244 -8.817000089062194e-07 -1.675807127677276e-07 1.823317884164823e-06 -5.3089087317942e-08 6.674731808209962e-08 
0.04536351728078266 -0.0009702939413528037 -0.002179719497593392 -0.001887060585198758 -0.0004200749799392165 -0.0002427195417173769 -0.01749931988961344 -3.435807139378184e-05 -4.286382087001879e-05 
0.01662395532392569 -0.003244171330598465 -0.0005249179162060891 -0.001593572186516075 -0.0001326942366285976 -0.0004506436926517666 -0.004187831272701269 -6.232464710075262e-05 -0.0001064364827142821 
0.02257917612829296 -0.00247080408690061 -0.0009915758156774364 0.007204728664138214 -0.002618157386484453 -0.0003702674265143994 -0.004944571629503691 -0.0001894616183903913 -0.0002913820807006199 
0.008374670573846939 0.01518182140113834 0.04716545294834232 -0.01228713847892788 -0.01157674856666396 -0.0002594961239396766 0.03397370700495101 -0.0002473281497692221 -0.0002694933688509635 
-0.02253367050884426 0.02436868343494126 -0.008674578187773382 -0.008464620417464154 -0.001362840208190245 -0.004004590100498276 -0.001904354711848895 -0.003522632868434588 -0.003804883721953141 
0.004603406023085897 4.666423943983801e-07 1.561010220688297e-06 -3.500754072997829e-05 -6.689613266634093e-07 -1.386558933081525e-07 -7.526260345427027e-07 4.549054237177708e-08 1.708137264415862e-07 
8.458118859832441e-05 9.703561595317168e-08 3.784567321016018e-07 3.183913385409194e-07 -8.732952845426584e-07 -1.671907295190529e-07 3.069490990606947e-06 -7.621821538500719e-08 4.222339381289502e-08 
0.007045539446901805 -0.0004860974621080573 -0.0002436827893015655 -0.0004815211264639467 -0.0002794034595835421 -0.0007136048819222677 -0.004757998120420439 -0.0001083949965672946 -0.0002441542915183792 
-0.03948450226761224 0.04505453059848142 -0.01199588691587577 -0.01874859429184371 -0.01570267984034133 -0.007630128319406233 -0.02021541098491305 -0.01140130871101562 -0.0167129853438201 
0.008662355297272002 -0.0006454659039153362 -0.001064361310699093 -0.002038198699176145 -0.0003600860935499591 -4.348576950194062e-05 -0.003075030749829392 -0.0005023887543568813 -3.0249651448824e-05 
0.03384549019869378 0.0330710493398304 -0.02314894646326382 -0.03568789733263075 -0.01630600765770022 -0.0100563925776234 -0.03460022654798748 0.004244161155241179 0.0007541921331174138 
0.002757260001290006 -8.523372086937153e-06 -5.584814993479628e-07 -2.245790584464161e-05 5.678441047468198e-07 -1.377540006636342e-07 -5.472832376742882e-05 -7.478613861307039e-08 2.252168526256614e-07 
0.0005481433478136424 1.003519507303536e-07 4.665134325462794e-08 4.118902039880206e-06 -8.719648304294279e-07 -1.666072786611757e-07 1.319421668274373e-06 -7.060889680605581e-08 3.446743202089865e-08 
0.01607581197611204 -0.003244271682549195 -0.0005249645675493437 -0.001597691088555955 -0.0001318222717981682 -0.0004504770853731055 -0.004189150694369543 -6.225403820394655e-05 -0.000106470950146303 
0.005774242922975488 -0.0001093273803889594 2.870209970972292e-06 -6.507831049893721e-06 -1.731832761039699e-08 2.191567937302583e-07 -5.983537378458366e-05 -5.288656141924585e-08 4.022149360934711e-07 
0.007045539446901805 -0.0004860974621080573 -0.0002436827893015655 -0.0004815211264639467 -0.0002794034595835421 -0.0007136048819222677 -0.004757998120420439 -0.0001083949965672946 -0.0002441542915183792 
-0.009801532771742087 -0.005486369708310071 -0.008019715841079557 -0.008778123852159144 -0.0007674857122168115 -0.002407693711587718 -0.007976729887938679 0.02195888540152314 -0.004161601094267281 
-0.01141058994949252 -2.592106657392447e-05 -0.0003820331841952121 -0.0005920439156736196 -0.0001053055461115495 -7.678360133433741e-05 0.01924724084515935 -8.999129204967516e-05 -1.393423787952193e-05 
0.00425431056915034 3.850061743735122e-07 7.386398985855913e-06 -2.526769293618662e-07 -3.047420844837545e-07 -1.266273473890905e-07 -1.132393732800481e-06 2.685574910206475e-08 1.58078205229182e-07 
0.001311306388890071 -0.01144678523508697 -0.00581964198040847 0.01206497254183746 -0.006849637505072928 -0.002792362499874683 0.02099945529232048 -0.00215462364638691 -0.003294172955383339 
0.009572025641391894 -0.0004894353074251504 -0.00153997418119254 -0.00303558404463982 -3.971298409230802e-05 -0.0001265036180558355 -0.001533684759449282 -1.732755478010152e-05 -4.375042570830754e-05 
0.004202565639991563 -0.0004728951786808696 -5.492317953189149e-05 -0.0006499646247097576 4.185425267707278e-06 -2.286243229569885e-06 -0.0001295981129175024 -1.712145201463715e-06 7.34075695654299e-08 
0.00417194415243818 5.452712896197385e-07 1.161607430650908e-07 1.224594296017367e-06 -8.227904083964791e-07 -1.534473710903448e-07 8.037989774338492e-07 -6.778365236719005e-08 1.159294663191242e-07 
0.002195978401432042 1.525966165181731e-07 1.54568180192154e-06 7.811850201124272e-07 -8.803485534329936e-07 -1.670646086484755e-07 9.565595410956605e-07 -7.604625421304431e-08 7.169635805237576e-08 
-0.02824680716149008 0.02985729175648046 0.006718800778455928 -0.0106340001374107 -0.001334229897664947 -0.001535609567620071 -0.005861738286452818 -0.002971909220521636 -0.002049474876413408 
0.01046092238155954 -0.002627292701157259 -1.276771129646604e-05 -9.656759444904364e-05 -1.060234102182902e-05 -3.962918511254791e-05 -0.001376483333316628 -0.0002202951954063274 -5.810595051285045e-05 
0.0005481433478136424 1.003519507303536e-07 4.665134325462794e-08 4.118902039880206e-06 -8.719648304294279e-07 -1.666072786611757e-07 1.319421668274373e-06 -7.060889680605581e-08 3.446743202089865e-08 
-0.02350432224287875 -0.004969231620561879 -0.004114557205814581 -0.005107779092544019 -0.003372623137881226 -0.002165443893165732 0.04546928254232683 -0.0008320920400302979 -0.001354157140311375 
8.458118859832441e-05 9.703561595317168e-08 3.784567321016018e-07 3.183913385409194e-07 -8.732952845426584e-07 -1.671907295190529e-07 3.069490990606947e-06 -7.621821538500719e-08 4.222339381289502e-08 
-0.007619720254975085 -0.0001173864581699698 -0.000164678165291599 -0.00105768821183317 0.01572107891856916 -0.0001331962220047602 -0.001444176097396127 -0.0006247158413118136 -5.721660557335201e-05 
-0.01742593172029397 -0.0005407366627022053 -0.0007164902384321249 -0.001413032500555072 -0.002466189451852047 -0.000123632947386877 0.02842518901031027 -2.185605130704954e-05 -4.121496800545517e-05 
-0.006611725218441132 0.02389208845051053 -0.001226272920279913 -0.002619823234435555 -0.0005701522677501493 -5.710314523714682e-05 -0.004509305299959136 -0.0005304212871563078 0.02240118626285035 
-0.02405923659606086 0.0229614259899592 -0.001569310919701084 -0.004155647874403721 -0.0001191499728308022 -0.0005739166245515886 -0.004229116769592943 -0.0006037705890523411 -0.001366247343822189 
-0.01693560445692712 -0.001731669922644224 -0.0005725919700808725 0.00740903284264167 -8.510277499791324e-06 -7.65843966991234e-05 0.03222918851353958 -0.002030862322936833 -0.0002416238139143475 
3.795099831333071e-05 -0.0001396164288839403 1.412559935590193e-06 0.01864552727311449 -1.763400017812439e-06 -3.351614255354552e-07 3.646635768329647e-06 -1.06178174635884e-07 1.334946361641992e-07 
-0.01784441466186881 -0.0002169806319406855 -1.092526491762259e-05 -0.001993890068903961 -0.004431340328014633 -5.467571155216369e-05 0.03213481140902529 -6.228754198866018e-05 -4.559487371279617e-05 
0.0004564912543559221 5.449340166135396e-08 6.681835371048381e-09 8.924441642155257e-07 -8.670244336415033e-07 -1.657751755789731e-07 1.781306117100906e-06 -7.529313348924762e-08 2.438865008574117e-08 
0.00520385542465682 -4.781144028753248e-07 -3.46854285049362e-06 -0.0008531306774738221 -8.351182892493809e-07 3.530082976355667e-07 -4.074459647042198e-05 -2.70953658305124e-07 6.68785779843126e-07 
0.01326703212958419 -0.008670757912394966 -0.005229918780691012 -0.004104087082548382 -0.0001566488903033358 -0.0001943287802090205 0.007470251771378163 -0.0008042612567034217 -0.0003513014063678763 
-0.0192890253103254 8.810566597818982e-07 2.330804983024718e-07 4.621595768106712e-06 -3.450067679002652e-06 -6.653193032955184e-07 0.04086964075183212 -3.009250225420243e-07 3.251966994297562e-07 
0.005774242922975488 -0.0001093273803889594 2.870209970972292e-06 -6.507831049893721e-06 -1.731832761039699e-08 2.191567937302583e-07 -5.983537378458366e-05 -5.288656141924585e-08 4.022149360934711e-07 
3.597128707498746e-05 6.147927484314142e-08 2.138123705599235e-07 2.884929624929541e-07 -8.526784776100133e-07 -1.631911331177673e-07 3.97460845527545e-07 -7.445065230350717e-08 5.076968886933066e-09 
0.004603406023085897 4.666423943983801e-07 1.561010220688297e-06 -3.500754072997829e-05 -6.689613266634093e-07 -1.386558933081525e-07 -7.526260345427027e-07 4.549054237177708e-08 1.708137264415862e-07 
0.009005028240588761 -0.0009832260793964586 -0.0006044671286223162 -0.001718248975992287 -0.0003430912972565117 -0.000418648293546637 -0.006759514851766873 -0.0004949340146029647 -0.001140494922281392 
-0.0456080232938651 0.0443043142946835 -0.01323097319340761 -0.02062885711424227 -0.0183012525481319 -0.007814774976202442 0.006790021977110931 -0.01145331155492149 -0.01676359055376977 
0.006427448798375054 -0.0005252840682209668 -0.0001389364298814868 -0.0001454388603237504 -2.492156916544512e-05 -1.889140528732948e-06 -0.001192448523692004 -1.411050798934636e-06 -9.632602731939146e-08 
-0.01238211943901058 -7.035972654600884e-06 -0.0006373340541307181 -0.0007313915464934794 -0.0003509877504852828 0.02198038178449843 -0.0006083647029846606 -2.415673960088224e-05 -7.292574004933812e-06 
0.002757260001290006 -8.523372086937153e-06 -5.584814993479628e-07 -2.245790584464161e-05 5.678441047468198e-07 -1.377540006636342e-07 -5.472832376742882e-05 -7.478613861307039e-08 2.252168526256614e-07 
0.002900716171294817 -3.575162912979357e-07 -1.218496983780574e-05 -2.850937979618439e-05 6.378183753610464e-07 2.412744057586475e-07 -8.014506123716771e-06 6.248840994215248e-07 2.958808368635032e-07 
0.01940668720562241 -0.007668064919333619 -0.009472703234831842 -0.01501192286298033 -0.00536632246013213 -0.004683164877560929 -0.01670455480257292 -0.004351448480561874 -0.004580156702629108 
0.05503104729438046 -0.04328427059480135 -0.03431634850436009 -0.04350086030707311 -0.02974120979935345 -0.0257104514324106 -0.05535990332214129 -0.02654684160767644 -0.03981601836298956 
-0.007619720254975085 -0.0001173864581699698 -0.000164678165291599 -0.00105768821183317 0.01572107891856916 -0.0001331962220047602 -0.001444176097396127 -0.0006247158413118136 -5.721660557335201e-05 
-0.01544127655846579 -0.008116971716575529 -0.005352612900602502 -0.005320814124775257 -0.005702342390166255 -0.005725201108012502 0.004433203957572948 0.05686406277693627 -0.004309715660583884 
0.007156311565278715 -2.085457570572753e-05 -5.801542260070064e-06 -0.0001767744789986186 -2.193373799515685e-05 -1.237355991093995e-06 -0.0006382074092618334 -7.919599272002845e-07 9.249674725903712e-07 
-0.01417860426286252 -0.0003703341818774601 -6.3494019546276e-05 -0.0003791921175965893 -5.279098311088104e-06 -1.908105005890422e-05 0.01661886369504313 -0.0005333519618712255 -5.64954740879661e-05 
-0.02282117989898505 -5.184213314784894e-05 -0.0007640663683904242 -0.001184087831347239 -0.000210611092223099 -0.0001535672026686748 0.0384944816903187 -0.0001799825840993503 -2.786847575904386e-05 
0.005774242922975488 -0.0001093273803889594 2.870209970972292e-06 -6.507831049893721e-06 -1.731832761039699e-08 2.191567937302583e-07 -5.983537378458366e-05 -5.288656141924585e-08 4.022149360934711e-07 
0.01296532866055367 -0.0001380283709083317 -0.0001569580329137625 -0.001224273477678132 -1.215867341698588e-06 -5.328489576415955e-05 -0.003695911376965365 -0.0001019154447507831 -7.670225797426536e-05 
