solver_type L2R_LR
nr_class 9
label 1 3 7 2 0 4 6 5 8
nr_feature 7949
bias -1
w
0 0 0 0 0 0 0 0 0 
-0.01163313484403691 -0.007946552835482429 -0.005174282016671588 -0.005165019749688631 -0.003778769979944722 -0.005783163286842897 0.02496844949793291 -0.003678362784272575 -0.004776818171069331 
0.009619699632684666 -0.0003573792177266508 -0.001464950762564685 -0.002828579564088711 -2.083638803621267e-05 -8.061567055197075e-05 -0.001319980867455683 -1.479771322024674e-05 -3.402385886826087e-05 
0.0008475621804654047 8.990225127344323e-07 -2.351374689993398e-06 -2.209622538831644e-06 4.377647012319727e-06 -1.998203451120756e-07 -0.0004083378452959335 -8.122049149016268e-08 1.142782194996124e-07 
0.002067549860108548 2.60612643279996e-06 1.589911391505511e-07 1.664834612965651e-06 -2.784042246185373e-06 -1.059309515585372e-06 2.722187611770658e-06 -5.042444479741939e-07 9.737439960698233e-08 
0.009232416892844021 -0.00616789690509434 0.01591726435560781 -0.008993531297996115 -0.0009033805936403233 -0.0007710472927773271 -0.01276018092828444 -0.005034259724360074 -0.003156664899727597 
6.90133803463539e-05 5.487971354552536e-07 -1.722917534098648e-08 8.773106635569662e-08 -6.838439182029398e-07 -2.606608834068905e-07 1.042617958327428e-07 -1.246725499047466e-07 5.438442447484847e-09 
0.0008475621804654047 8.990225127344323e-07 -2.351374689993398e-06 -2.209622538831644e-06 4.377647012319727e-06 -1.998203451120756e-07 -0.0004083378452959335 -8.122049149016268e-08 1.142782194996124e-07 
0.004733953299831966 4.607477209905393e-06 -2.641521895952035e-07 -2.235868414634369e-05 -5.787181348923577e-07 -2.16532821076675e-07 -4.752020007019738e-07 5.485249394179749e-08 1.450945748752907e-07 
0.0001064711558315335 1.076759498586575e-06 6.855093233328344e-08 1.418059822242744e-07 -7.025079980879297e-07 -2.66856582524192e-07 1.151424589197329e-06 -1.276596417222858e-07 4.073862188771121e-08 
-0.01467837254456104 -0.002778003133535726 -0.002044611873637798 0.02264231241666887 -0.0001744042650683441 -0.0002358477652777058 -0.008822463753621994 -0.0004730410138198776 -0.001378858866354399 
0.001772028751644249 -1.123333644437591e-06 -5.130316944069067e-06 -4.422717171140622e-06 9.067061575902417e-08 -2.141000971504415e-07 -3.773239283362793e-05 -1.676590625065296e-07 2.628024537412937e-07 
-0.01424302333519558 0.02620190204712484 -8.472635248982067e-05 0.008854363003555105 -9.924830284374622e-05 -9.632243413974319e-06 -0.0002060554229399469 -2.077425929812948e-05 -9.803399298160181e-06 
-0.01389338345406678 -0.002623479240571356 -9.743914623149535e-05 -0.002831151619146997 2.45372460368919e-06 -4.011504864628324e-05 -0.001689091973751056 -0.0008779459695364759 0.03989474225697792 
0.004536305113224582 4.652045738508909e-06 9.152554747766059e-08 7.783102697686338e-07 -6.758320623231075e-07 -2.458983291302665e-07 4.323292982852623e-07 -1.15528163151245e-07 1.048766101510677e-07 
-0.01250548138156585 -0.0008867438604192278 -0.0002774818467442612 0.02400482454049266 3.847162003228038e-06 -5.726374967955822e-06 -0.0001067520241518651 -5.089718419225875e-06 -1.745172893964878e-07 
0.01735453507913388 -0.0114640401511812 -0.007596679897485282 -0.009479215073396849 -0.004886717470375182 -0.00341510241549298 -0.008602975935622556 -0.002447263416572542 -0.003655343377740863 
-0.03723303080927502 0.05307428748818182 -4.163468321946924e-05 -0.0006649927558071525 -0.0002075744621724533 -1.497426575594606e-05 -0.0002679085820192455 -3.809777370734131e-05 -1.990639529224856e-05 
-0.0306723401915424 0.02420363951643658 -0.009624613645496827 -0.008664709435714159 -0.001458391610191422 -0.00404580555851075 0.0190235672766808 -0.00354184588633684 -0.003800223417417699 
1.017054612603462e-05 1.226283094936544e-05 1.002196250787561e-07 0.009777141246455385 -7.087636112223213e-07 -2.672386070090545e-07 5.51506659201761e-07 -1.092707046883248e-07 6.064368051574301e-08 
0.01735453507913388 -0.0114640401511812 -0.007596679897485282 -0.009479215073396849 -0.004886717470375182 -0.00341510241549298 -0.008602975935622556 -0.002447263416572542 -0.003655343377740863 
0.003439187547066951 2.90608476349376e-05 -1.358858014322658e-06 0.01955249097107033 -8.759457313331884e-07 -6.553404371350987e-07 -1.97481271040992e-05 -2.819194490010604e-07 2.960581716824989e-07 
0.00051108601346762 -4.251969026650219e-06 0.02000449879149505 -1.781002324002988e-06 -1.5113647182709e-06 -2.564994626397845e-07 -2.58399666010978e-05 -3.252241197059814e-07 4.527770468302813e-07 
-0.004662372459810117 5.039763215840828e-06 0.0172874514350028 4.828483412483081e-08 -2.964249029937684e-07 -1.94140731082926e-07 -2.422942765852053e-07 -9.261407031754045e-08 1.258765974160641e-07 
-0.00805437495255157 1.141580875454911e-05 -2.268792575265935e-06 0.01270577776976703 1.482606915352458e-06 5.677233047813061e-07 -6.065064114694873e-06 -2.008576790203531e-08 4.112110253134399e-07 
-0.0176261979741387 0.02297794263564162 -0.001728009286105264 -0.004829395185279617 -6.206859762468038e-05 -0.0004985474879511273 -0.006773168445600148 -0.0006480395054753318 -0.001272484446485643 
-0.00805437495255157 1.141580875454911e-05 -2.268792575265935e-06 0.01270577776976703 1.482606915352458e-06 5.677233047813061e-07 -6.065064114694873e-06 -2.008576790203531e-08 4.112110253134399e-07 
0.01488963467361979 -0.0001339163227942071 -0.0001646289368408057 -0.000276767387753564 -0.004561596261726935 -0.0001154008020531187 -0.002599378343710222 -9.583158901708292e-05 -5.077400017502566e-05 
0.0251969144450043 0.0353180464876935 -0.04353560364154701 -0.02586712250986529 -0.02701471619085902 -0.01908374559566513 0.08676859543551625 -0.01660756628117133 -0.0153969132665624 
0.06180463217148256 0.002810834636215378 -0.05399663519067836 -0.0825915958467462 -0.04281427943407983 -0.008192646131775849 0.03472302577734641 -0.01224057851303007 0.04203114217610221 
-0.01383324884134723 -0.000234909849738391 -2.746109611890488e-05 -0.0002772574306100318 3.67808851105732e-06 -7.258489251241419e-06 0.01741183481954366 -0.0003624323714444814 -3.481774103376028e-05 
0.07090013461942363 -0.05633135258976232 -0.08285123573264562 -0.0630349138516097 -0.04624874551017612 0.01566222964423256 0.05875873020600586 -0.04837154764834346 0.02653271212010924 
-0.005621786956117705 -0.007867275877691827 0.05822681478012378 -0.0005112551296361603 8.197790688792567e-06 2.789762740117705e-06 -3.39208770112226e-05 2.247799047719383e-05 2.6782228336644e-06 
0.07103626671994195 -0.05301186250478784 -0.03889145213406723 -0.01234312096914982 0.03083112016121115 -0.04979841499142844 -0.1299010951014971 -0.01569894564052151 -0.009298602887930914 
-0.04038680482579337 0.005334787843368909 0.06134276914341714 0.01225049764191641 0.05868278322271478 0.004530107479295877 -0.05396135679500966 -0.01983093966039317 -0.01292058399717954 
-0.007206334109601557 -1.189231253949503e-05 -0.0001376222739346154 -3.419172536126382e-05 -9.587492249037608e-06 -1.865862808811089e-06 0.0137213105970612 -8.363795002981987e-07 2.656915366569393e-07 
0.1474256981386656 -0.04790508187677891 -0.08603697392681402 -0.01321779499264479 -0.04647056287547749 -0.02590225208902302 -0.09806555604100776 -0.03109735199784188 0.01008506685803463 
0.004311695141502471 0.03192570562303941 -0.003498538552773198 -0.02223533778474137 -0.0330368357653883 -0.01023597310476435 -0.03058108743702293 -0.01786797161263812 -0.01548398562497679 
0.1296008881389919 -0.0418837041758376 -0.05016509260069806 -0.050490825961217 -0.04911378089276836 -0.03960631062457778 -0.04001515094933506 -0.02591138588452186 -0.02651662137457794 
0.02248789571982253 -0.001425843318848722 -0.005276134821465721 0.007801428156899264 0.03256074022823689 -0.001137004145083293 -0.01770106448257146 -0.002816798071128979 -0.000426354236700524 
0.01735453507913388 -0.0114640401511812 -0.007596679897485282 -0.009479215073396849 -0.004886717470375182 -0.00341510241549298 -0.008602975935622556 -0.002447263416572542 -0.003655343377740863 
0.003291410530955501 1.2751072313628e-05 0.02000157020985999 -0.0006486378097884133 1.083668392049879e-06 9.876000933357608e-08 -2.331208518980402e-05 1.157410997531414e-06 7.863061026779236e-07 
0.004363321523315893 -0.0003475045279154349 -6.400923050516483e-05 -0.0005902818649967049 5.247691853702718e-06 -1.877871928992233e-06 -7.265263858952583e-05 -1.616101739770507e-06 8.915466744836282e-08 
-0.03263578198521473 -0.000243703426408987 0.01976701988169611 0.02523668391703991 -1.545525316612755e-05 -1.931618338428151e-06 -0.0007533511145479308 0.05052009711182204 -3.898489911552267e-06 
0.01233765601470958 0.04579148152205943 -0.07713712177589982 0.09559697727703842 -0.07160501912530516 -0.03390569587830394 -0.0169621870074751 -0.05839926756447793 -0.0190978050726766 
-0.1115202814076351 -0.005896589458829451 0.01578347213610768 0.01045423813138622 0.1425608886134508 -0.002388834410333837 0.04545016675383024 -0.0007251351909242537 -0.0005291950484229684 
1.017054612603462e-05 1.226283094936544e-05 1.002196250787561e-07 0.009777141246455385 -7.087636112223213e-07 -2.672386070090545e-07 5.51506659201761e-07 -1.092707046883248e-07 6.064368051574301e-08 
0.004733953299831966 4.607477209905393e-06 -2.641521895952035e-07 -2.235868414634369e-05 -5.787181348923577e-07 -2.16532821076675e-07 -4.752020007019738e-07 5.485249394179749e-08 1.450945748752907e-07 
-0.01039458420131912 -0.005502735891171037 -0.005549906349104673 -0.01238553335694178 -0.01544471435438301 -0.002529819536127388 0.04039327550552753 -0.000907757096158462 -0.0006810626018449647 
-0.03244771105100996 -0.004883252159141691 -0.003395778013279469 0.01931002349706448 -0.002897168612144436 -0.001580834452854466 0.04667403080081451 -0.0007214369501320237 -0.001124175814355971 
0.02270356475535086 -0.009828799297400923 -0.008251814724874545 -0.003729103984482063 -0.006440683266095547 -0.008184823627027566 -0.008710238828972542 -0.001283070997727019 -0.001700045521724076 
-0.02036179243992495 0.02419154597556137 -0.009624332144301103 -0.008666356268624113 -0.001452600824193513 -0.004043526377597239 -0.002062757909592738 -0.003540749580180436 -0.003800593912529773 
-0.022778527898125 0.02418997290489887 -0.009624431439675719 -0.008666741121553623 -0.00145189226853457 -0.004043260228281936 -0.00206305755201624 -0.003540622180863604 -0.003800661192613154 
-0.01876912945402704 0.02339342603158029 -0.001544937638378562 -0.00397366004377403 -7.166663385175769e-05 -0.0004654813528074843 -0.003871885800184674 -0.0005630799819527719 -0.001216459403024853 
-0.005499022011485124 -0.0001352278371270386 -0.0001172755264572906 -8.761322645053796e-05 -8.886624948015124e-06 -1.413420870402206e-06 -0.0003706913611734443 0.02526012618981658 -2.414133999672639e-06 
0.003418846454814882 4.535185736206722e-06 -1.559297264480171e-06 -1.791521840434994e-06 5.415814911114555e-07 -1.208632231169897e-07 -2.085114042250272e-05 -6.337803962441126e-08 1.747708106510128e-07 
0.01854607725026289 -0.003196228730724197 -0.0005203457326297821 0.008127525572129028 -0.0001011694307826255 -0.0003763950232970325 -0.004080779559806794 -5.998077494712645e-05 -9.59033543224391e-05 
-0.02462762673093337 -0.01811514739145367 -0.01055577746962435 0.009023858023575082 0.0366071938517268 -0.005195254196894298 -0.0211234140123487 0.02054303177574198 -0.003013515797034371 
-0.1010358929392559 0.01272531938288504 -0.08702590146955416 0.08308590328839349 -0.09396411313629877 0.1407446256865008 0.01339003860186112 0.005810371226311195 -0.07587980625241345 
-0.02718351451878182 0.0172903623324946 -0.006504733628944011 0.009933025295274907 -0.003670370321465204 -0.002350739704641786 0.04853932597235522 -0.002123842736471759 -0.003100752402978626 
0.002416735458200047 1.573070662496988e-06 9.929537461674893e-08 3.848529295106666e-07 -7.08555658943525e-07 -2.661493153043319e-07 2.996424235025653e-07 -1.273993168317799e-07 6.728008338141908e-08 
0.007357333122619865 -0.0001910834542742065 -3.08833502122546e-05 -9.661178325946206e-05 -1.351229713277074e-06 -1.617322650400899e-06 0.01016518629049142 -1.062067497911935e-06 4.192536465754405e-07 
0.006135350274960143 -0.0003486278615598725 -6.91395474492339e-05 -0.0005947045821678454 5.338362469461735e-06 -2.091972026142673e-06 -0.0001103850314231538 -1.783760802277037e-06 3.519571211896549e-07 
-0.06269678673016084 0.07007999896444468 -0.004848362104435117 -0.0124105593902414 -0.0002068534791752347 -0.001458627607020986 -0.01707762927899268 -0.001855835818581936 -0.003761739877853933 
0.03176656753420147 -0.001228678449684694 -0.0004812783320048349 -0.002383129377605705 2.190675399400864e-05 -7.168922124726762e-05 -0.006678225296011445 -0.0001732874739893081 -0.0001107631528368237 
-0.007672010465165752 -0.0008835977190942338 -0.0002772832559950277 0.02400559424635168 2.430050685340997e-06 -6.258673598564484e-06 -0.00010615273930486 -5.344517052889434e-06 -3.995712263364897e-08 
0.03057262162477861 -0.0002469909061470331 -0.002731738527229884 -0.0001762064917388769 -0.004829136541498373 -4.199698481120549e-05 0.007277086582034574 -5.252496752733362e-05 -1.127011151565343e-05 
0.007110451834953811 -9.521394096147424e-05 -0.0001432185732060731 -0.0003031368027246278 2.605397158869261e-09 -3.323314101558316e-05 -0.003022052082317818 -8.431373666061778e-05 -5.56678812446407e-05 
0.0005772550036638545 1.053655891146066e-06 5.676601132117552e-08 1.928894031954329e-06 -7.000948707464415e-07 -2.659809421329297e-07 4.589664356946433e-07 -1.204016687329964e-07 3.304714227947275e-08 
-0.03293139939382021 -0.03648930682583262 -0.001627842387171953 0.08468489308658216 -0.0005436443147288291 -0.0001662549809249335 -0.02785344192277887 -0.0006262179581224079 -0.0006932345370519833 
-0.02374185440132084 0.02328795139037756 -0.002193843946954865 -0.005285045499716368 -0.0004886125119165915 0.02212005717946914 -0.004558658277021592 -0.0006951601799155602 -0.001330284116116579 
0.00229634035907831 -3.46543322232425e-05 -2.445912059368438e-05 -4.103017223529805e-05 5.295546259701183e-07 -1.984662626658169e-07 -0.0001950927545855695 -9.369760888577301e-08 1.951141638309273e-07 
0.02955286135368758 0.01939835155099418 -0.003551977617694307 -0.01193625500823218 -0.0005924383253690893 -0.001099588858485194 -0.01843109035151413 -0.001500117020970075 -0.002725931949445987 
-0.01874349894237126 -0.02618188606505795 -0.01335174633735674 0.025377344486257 -0.01498628863138198 0.008060208468306719 -0.01722536374669982 0.04365409324855887 -0.01338754808274877 
0.006869892181452369 -0.0003117498353993176 -0.0004697909574414309 -0.001315160993348628 -0.0001095485932515559 -0.0001032333133693499 -0.006385362239775426 -0.0002787875035993368 -0.0002197278171619354 
0.0005772550036638545 1.053655891146066e-06 5.676601132117552e-08 1.928894031954329e-06 -7.000948707464415e-07 -2.659809421329297e-07 4.589664356946433e-07 -1.204016687329964e-07 3.304714227947275e-08 
0.007220555054421227 -0.0002293974516755132 -0.0003646262971394487 -0.0014053799692569 -0.0002325396050880015 -7.84701700588079e-05 -0.0006630611769832868 -0.0002226372475434514 -0.0002163476063210621 
-0.02355121865165175 0.02342595849600558 -0.001520560583984153 -0.003933102455534598 -7.080378890058136e-05 -0.0004647560763461073 -0.003677196949818439 -0.0005627342124771497 -0.001216727235714513 
-0.01936223689848858 -0.0002309892194023991 0.01997864742364231 -0.0002769026002030988 3.030871410255118e-06 -7.498712458427772e-06 0.017411996555572 -0.0003625474677197982 -3.471038499659415e-05 
-0.01198859391653871 -0.0008860923288110278 -0.0002774420989594736 0.0240052407491459 3.151151441681695e-06 -5.991202346852164e-06 -0.0001060714772489224 -5.215779531219421e-06 -1.501736894947431e-07 
0.008726643046631786 -0.0006950090558308698 -0.0001280184610103297 -0.00118056372999341 1.049538370740544e-05 -3.755743857984466e-06 -0.0001453052771790517 -3.232203479541015e-06 1.783093348967256e-07 
-0.0005818332967570403 -0.0004186164306256244 -0.003215798628266672 -0.0007335808919664106 -0.001484401921876949 0.01884113378781653 -0.004635947471672798 -0.001219569316011028 -0.0005843003643522094 
0.00229634035907831 -3.46543322232425e-05 -2.445912059368438e-05 -4.103017223529805e-05 5.295546259701183e-07 -1.984662626658169e-07 -0.0001950927545855695 -9.369760888577301e-08 1.951141638309273e-07 
-0.06333617119012558 -0.01820640852322268 0.01596634722238534 0.03163827044488662 0.03560384372438048 0.06323545671806405 0.05472104772510487 -0.01998113824228088 0.005160372882177112 
-0.06589979595982955 0.02471456001276886 0.02527899469609036 -0.06693082522269339 0.001161033121586105 -0.01746669896792205 -0.04372003533200039 0.07871935063156404 -0.02119885062896436 
0.01503953444507421 -0.002121924364544087 -1.087006517061726e-05 -6.789976111440676e-05 -4.142286900390769e-06 -9.096559536924121e-06 -0.001251523123824793 -0.0001270252802928579 -3.169241600393683e-05 
0.1159015394249018 0.2046442472578132 -0.3448375100347438 -0.08030405366032116 -0.3639899231066918 -0.299663190832926 -0.1319309136736942 -0.1613718063655115 -0.07912056963252158 
0.002084315971260694 -0.0005288999681335741 -0.0003414367258542335 -0.0004837555961255277 -0.0002520538998218224 -0.0007146953205964609 0.005499362089800248 -0.0001100100085640173 -0.0002387276461162023 
-0.02443673631195913 -0.008689936208909968 -0.01007578025060716 0.08463587322998888 -0.002222138019070021 -0.006092535095822911 -0.018014389842177 -0.004457768005337951 -0.007480569114597008 
0.000516887465027137 6.515316081999899e-07 3.974778478763778e-08 4.162086532414127e-07 -6.960105615463433e-07 -2.64827378896343e-07 6.805469029426644e-07 -1.260611119935485e-07 2.434359990174558e-08 
0.04295851395051717 -0.002923022917590099 -0.0006735841863531641 -0.004995439264046333 -0.004520697889879535 -0.0001301820510388226 -0.003138897171581423 -0.0001086336468559981 -5.04103044567408e-05 
0.005249153122569091 5.150059532846985e-06 -4.751137298485124e-06 -0.0006532352811887657 3.83963089328849e-06 1.137094416090122e-06 -2.46913965130432e-05 1.640709927145951e-06 5.455756975714247e-07 
0.008051941763990027 -0.0001429866942666205 -0.0001615103423118454 -0.000273184344072694 -0.004562679424709158 -0.0001151590756068847 -0.002557676062865217 -9.570483293783409e-05 -5.112354179632769e-05 
0.009202711422551716 -0.003066497311861917 -0.004246226004555043 -0.007816260648256508 -0.002715625076020561 -0.001223049206265934 -0.003693362912094678 -0.002361322297897848 -0.002170038506615835 
0.004363321523315893 -0.0003475045279154349 -6.400923050516483e-05 -0.0005902818649967049 5.247691853702718e-06 -1.877871928992233e-06 -7.265263858952583e-05 -1.616101739770507e-06 8.915466744836282e-08 
0.003123398308394312 -0.0002010226648970496 -0.0002868789432318915 -0.0006120217294966297 6.974998844396487e-06 -6.382707935205558e-05 -0.006046637714384366 -0.0001673783825168235 -0.000111692730877156 
-0.001124357391223541 -0.001573455175538365 0.01164536295602476 -0.0001022510259272321 1.639558137758513e-06 5.579525480235397e-07 -6.784175402244522e-06 4.495598095438759e-06 5.356445667328814e-07 
0.06312103103895104 -0.01299076461112117 -0.004926688894752636 -0.00873775025704049 -0.003170253464719398 -0.003261649331569459 -0.01923726926816657 -0.003905653402983164 -0.002651436807392151 
0.02558970897162838 -0.01397363932263186 0.02132308109429552 -0.0185101422127644 -0.004548075082414234 -0.008013984499806096 0.02619713361873816 0.01864230910103099 -0.008884199649296324 
-0.02355121865165175 0.02342595849600558 -0.001520560583984153 -0.003933102455534598 -7.080378890058136e-05 -0.0004647560763461073 -0.003677196949818439 -0.0005627342124771497 -0.001216727235714513 
0.04936376109333105 -0.1021676704847749 -0.05490869432926339 -0.0499653464163407 -0.06804650048955055 -0.09483501710625235 -0.1287150573118726 -0.004607953837309255 -0.1235677013892738 
0.01215654876537007 -0.0001723547036072736 -0.006605886056674765 -0.00110041328278657 1.555113403966442e-05 -4.144864579572629e-06 -0.002092846529660568 -5.016215005918345e-06 -5.362062859669486e-06 
0.005249153122569091 5.150059532846985e-06 -4.751137298485124e-06 -0.0006532352811887657 3.83963089328849e-06 1.137094416090122e-06 -2.46913965130432e-05 1.640709927145951e-06 5.455756975714247e-07 
0.02198865102309118 -0.006370902102476498 -0.004119554778780627 -0.009068865560945384 -0.0009014397086659883 -0.0007714221222987198 -0.01313981071402467 -0.00503488632847415 -0.003156585262852349 
-0.01022028659794347 2.954640650129576e-05 -4.688205317484721e-06 0.02539305464345162 9.863059543196647e-07 3.869519042200777e-07 -1.168739735870242e-05 -2.261223793282653e-07 1.033610910061117e-06 
-0.007225772002200719 -0.000260878294864311 -0.0006891846780187475 -0.001265953369919585 0.01550027809519947 -0.0002774959621278967 -0.001856012900065701 -0.0008294479792837725 -8.595457660683442e-05 
0.002416735458200047 1.573070662496988e-06 9.929537461674893e-08 3.848529295106666e-07 -7.08555658943525e-07 -2.661493153043319e-07 2.996424235025653e-07 -1.273993168317799e-07 6.728008338141908e-08 
0.001561699154197156 -0.0001005113324485248 -0.0001434394716159458 -0.0003060108647483148 3.487499422198244e-06 -3.191353967602779e-05 -0.003023318857192183 -8.368919125841173e-05 -5.584636543857798e-05 
-0.01302432547376241 -3.09615274124892e-05 -0.0004904527732604634 -0.0006499131758678628 -0.0002997924987046616 0.02262477885289205 -0.0005500032344138381 -2.087070693640911e-05 -5.656044490865126e-06 
-0.04544172623108514 0.05091868970883234 -0.001209023008322898 -0.02725997743996787 -0.01832685515735892 -0.0155853119022783 -0.03535222781382498 -0.01883440282080473 -0.02006180454303869 
0.0500971268551084 0.006840772056609402 -0.0837036729826611 -0.03489181648623311 -0.04692047423051075 -0.01887897898068147 -0.1053965256174057 -0.01914509555799428 -0.00530792075442295 
-0.01273949207872254 -2.20142337511468e-05 -1.973770882423353e-05 -1.384923955396308e-05 0.01974432839561142 -6.491007789451773e-07 -0.0002004644961962438 -7.171692187693097e-07 3.271462666198487e-07 
-0.02355121865165175 0.02342595849600558 -0.001520560583984153 -0.003933102455534598 -7.080378890058136e-05 -0.0004647560763461073 -0.003677196949818439 -0.0005627342124771497 -0.001216727235714513 
0.007250206374600139 4.719211987490967e-06 2.978861238502454e-07 1.154558788531998e-06 -2.125666976830575e-06 -7.984479459129961e-07 8.989272705076929e-07 -3.821979504953397e-07 2.018402501442569e-07 
0.007088115006576997 -4.493334577750363e-06 -2.052126777627627e-05 -1.769086868456249e-05 3.626824630360967e-07 -8.564003886017662e-07 -0.0001509295713345117 -6.706362500261182e-07 1.051209814965175e-06 
0.001561699154197156 -0.0001005113324485248 -0.0001434394716159458 -0.0003060108647483148 3.487499422198244e-06 -3.191353967602779e-05 -0.003023318857192183 -8.368919125841173e-05 -5.584636543857798e-05 
0.02721783067934749 2.791227443105347e-05 5.491532848659634e-07 4.669861618611791e-06 -4.054992373938648e-06 -1.475389974781599e-06 2.593975789711582e-06 -6.931689789074708e-07 6.292596609064056e-07 
0.004536305113224582 4.652045738508909e-06 9.152554747766059e-08 7.783102697686338e-07 -6.758320623231075e-07 -2.458983291302665e-07 4.323292982852623e-07 -1.15528163151245e-07 1.048766101510677e-07 
-0.0002762188939113808 0.01710000743877196 -0.0007016561060730503 -0.006223337051967977 -0.00110282013628795 -4.35880156191836e-06 -0.003455520553712089 -2.523227534707365e-05 -7.283890101700356e-05 
6.90133803463539e-05 5.487971354552536e-07 -1.722917534098648e-08 8.773106635569662e-08 -6.838439182029398e-07 -2.606608834068905e-07 1.042617958327428e-07 -1.246725499047466e-07 5.438442447484847e-09 
-0.07066974675781813 0.07249623858493219 -0.0117795005216647 -0.04233492258014769 -0.002895785501951739 -0.01632703048827435 -0.04089201714892753 -0.02022210585082768 -0.02136405261622643 
-0.01053854433481047 -0.002638704823795902 -9.541931088440832e-05 -0.002826451641198498 2.455614540947586e-06 -4.005586454567206e-05 -0.001680266279145124 -0.0008786841405312403 0.01700469602435099 
0.09192042187438773 -0.05876900457483077 -0.0154810020624262 -0.06526893093162846 -0.02676865515073888 -0.0172795559453243 -0.01071374198562225 -0.01703618595015719 -0.01983167348599578 
-0.01647201870251722 -9.67431646224748e-05 -0.0001446854064568545 -0.0002703515287386705 0.01970054758589461 -1.668683650058415e-05 0.009802242381081719 -4.126944506426602e-06 0.04577597148278917 
0.002416735458200047 1.573070662496988e-06 9.929537461674893e-08 3.848529295106666e-07 -7.08555658943525e-07 -2.661493153043319e-07 2.996424235025653e-07 -1.273993168317799e-07 6.728008338141908e-08 
-0.02843569512110253 0.03687804476626859 -0.01915211688142485 -0.02447110396902476 -0.01964635926304755 0.005893405295749192 -0.03058286505145851 -0.02135436277424453 -0.02203231949228875 
0.03380521635903919 0.002256702543365744 -0.07671925096072964 -0.00975940972187468 -0.04615079014463269 -0.03925857533092438 -0.1251202480788238 -0.05983782075650594 -0.06144518231365642 
-0.022778527898125 0.02418997290489887 -0.009624431439675719 -0.008666741121553623 -0.00145189226853457 -0.004043260228281936 -0.00206305755201624 -0.003540622180863604 -0.003800661192613154 
0.01611917124593681 -0.00321006463233606 -0.0005205452476294775 -0.001650000527255868 -9.975211151245962e-05 -0.0003758616353747191 -0.004081630708889498 -5.974410492560635e-05 -9.603127808633626e-05 
0.00229634035907831 -3.46543322232425e-05 -2.445912059368438e-05 -4.103017223529805e-05 5.295546259701183e-07 -1.984662626658169e-07 -0.0001950927545855695 -9.369760888577301e-08 1.951141638309273e-07 
0.004532492092146205 -3.870719019116107e-05 -0.003289740247205468 -0.0001791250233558669 4.071971713144921e-06 -1.064485793565854e-06 -0.0004289678033032733 -1.878899487185708e-06 6.726491684728661e-08 
0.006826208982271315 -0.0005311960094247181 -0.0003415626008094781 -0.0004843064674220353 -0.0002513554082063108 -0.0007144309052625296 -0.005045558928812089 -0.0001098841340613663 -0.0002388039353905936 
0.0198069402527 -0.002891042137059277 -0.0005936266028891867 -0.006666639585164551 -0.002075364740731085 -0.0002721636031212502 -0.0009427309820966152 -0.000406238148042429 -0.0003438693219555746 
6.90133803463539e-05 5.487971354552536e-07 -1.722917534098648e-08 8.773106635569662e-08 -6.838439182029398e-07 -2.606608834068905e-07 1.042617958327428e-07 -1.246725499047466e-07 5.438442447484847e-09 
0.001550662395081411 1.954594824599961e-06 1.192433543629133e-07 1.248625959724242e-06 -2.088031684639032e-06 -7.944821366890293e-07 2.041640708827996e-06 -3.781833359806454e-07 7.303079970523635e-08 
0.004536305113224582 4.652045738508909e-06 9.152554747766059e-08 7.783102697686338e-07 -6.758320623231075e-07 -2.458983291302665e-07 4.323292982852623e-07 -1.15528163151245e-07 1.048766101510677e-07 
0.007030293658910276 -3.004685501333711e-05 -2.472327278327959e-05 -6.338885638164174e-05 -4.916350892223853e-08 -4.149990837424913e-07 -0.0001955679565862715 -3.884511494397533e-08 3.402087387062187e-07 
6.90133803463539e-05 5.487971354552536e-07 -1.722917534098648e-08 8.773106635569662e-08 -6.838439182029398e-07 -2.606608834068905e-07 1.042617958327428e-07 -1.246725499047466e-07 5.438442447484847e-09 
0.002067549860108548 2.60612643279996e-06 1.589911391505511e-07 1.664834612965651e-06 -2.784042246185373e-06 -1.059309515585372e-06 2.722187611770658e-06 -5.042444479741939e-07 9.737439960698233e-08 
0.002416735458200047 1.573070662496988e-06 9.929537461674893e-08 3.848529295106666e-07 -7.08555658943525e-07 -2.661493153043319e-07 2.996424235025653e-07 -1.273993168317799e-07 6.728008338141908e-08 
0.004363321523315893 -0.0003475045279154349 -6.400923050516483e-05 -0.0005902818649967049 5.247691853702718e-06 -1.877871928992233e-06 -7.265263858952583e-05 -1.616101739770507e-06 8.915466744836282e-08 
0.03481901845558245 -0.006573168625587682 -0.01221592823894158 -0.02091626128325443 -0.007482433365388318 -0.005257337779052332 -0.0201615485093535 -0.004800330276423568 -0.00423534287048504 
0.001033774930054274 1.30306321639998e-06 7.949556957527557e-08 8.324173064828255e-07 -1.392021123092687e-06 -5.296547577926859e-07 1.361093805885329e-06 -2.52122223987097e-07 4.868719980349116e-08 
-0.002799943551944901 -0.003450194154736357 0.0125445559899973 0.001228968332517644 -0.004203768283205322 0.01761620642527881 -0.008316095387379728 -0.003581587136395415 -0.002754200709716748 
0.01050322933184963 -0.002126576410282596 -1.096159071809492e-05 -6.867807138417541e-05 -3.466454838067661e-06 -8.850661207793865e-06 -0.001251955453123078 -0.0001269097521297066 -3.17972926140879e-05 
0.01119806675884327 -0.0007865171295205861 -0.0004215289805158503 -0.001128531091982806 3.683311999879916e-06 -2.68176169266019e-05 -0.001091367900555815 -0.0008718506018834444 -0.0001031604961731322 
0.000516887465027137 6.515316081999899e-07 3.974778478763778e-08 4.162086532414127e-07 -6.960105615463433e-07 -2.64827378896343e-07 6.805469029426644e-07 -1.260611119935485e-07 2.434359990174558e-08 
0.01611917124593681 -0.00321006463233606 -0.0005205452476294775 -0.001650000527255868 -9.975211151245962e-05 -0.0003758616353747191 -0.004081630708889498 -5.974410492560635e-05 -9.603127808633626e-05 
0.0100300191098289 -0.006167326569349946 0.01319862450002474 -0.008993925574635278 -0.0009023459575243119 -0.0007707405494178168 -0.01276068922038521 -0.00503411256960517 -0.003156651817609794 
0.004642369842488944 7.191294653954108e-06 -1.462994417178805e-06 2.15399728982936e-06 -1.542452168584369e-06 -9.13485990789738e-07 -1.982894575528069e-05 -4.288539269951512e-07 2.463035376574429e-07 
-0.08720938237354053 0.09360094774685118 -0.006155551146785332 -0.01585535853286206 -0.000282328999722503 -0.001859886560754951 -0.01529291463844127 -0.002251345602376978 -0.004866282861744673 
0.008702572752742482 -0.0005079183265651592 -0.001038075607620492 -0.001950700961030826 -0.0002567225115028295 -2.570078856360449e-05 -0.002778839878313318 -0.0004379852142412278 -2.378741751316205e-05 
-0.010793506311356 -0.01058484275184463 -0.009937269916049754 -0.007134133473129064 0.03684241543459349 -0.005120614152977176 -0.01491803645006948 -0.004480381284178851 -0.002763985934443032 
0.009202711422551716 -0.003066497311861917 -0.004246226004555043 -0.007816260648256508 -0.002715625076020561 -0.001223049206265934 -0.003693362912094678 -0.002361322297897848 -0.002170038506615835 
0.005933602914777432 -9.249358861228689e-06 -1.678279198500633e-06 -2.277638713160313e-06 -1.616396193807683e-07 2.505803270707627e-07 -2.715312721864246e-05 -8.246820266693396e-08 3.046823877764342e-07 
-0.01211373501896942 -0.005402937448495409 -0.005636057710231601 -0.008649161349070582 -0.0005978005125764663 -0.002090883247146447 -0.005969624786505185 0.02245518674855938 -0.003966560865352145 
0.02003034166273343 -0.005720673812093035 -0.008959138596096202 -0.01273927267360407 -0.005032275745043581 -0.005312205163551475 -0.008580013908444466 -0.004088448189950788 -0.004492235670830373 
0.0032359291321726 7.792585700323191e-06 -3.886052514570308e-06 -1.102852775771649e-05 4.078248906635805e-06 4.094095236222899e-07 -3.144009734858823e-06 9.77645710463796e-07 2.27955772988543e-07 
0.01803776738873025 -0.004635467017446195 -0.001689940968081931 -0.002188435606508125 -7.95640470143942e-06 -2.808731303041256e-05 -0.001434182647242718 -0.0001017289622682434 -3.66503162341186e-05 
0.004363321523315893 -0.0003475045279154349 -6.400923050516483e-05 -0.0005902818649967049 5.247691853702718e-06 -1.877871928992233e-06 -7.265263858952583e-05 -1.616101739770507e-06 8.915466744836282e-08 
0.002416735458200047 1.573070662496988e-06 9.929537461674893e-08 3.848529295106666e-07 -7.08555658943525e-07 -2.661493153043319e-07 2.996424235025653e-07 -1.273993168317799e-07 6.728008338141908e-08 
-0.006081425844964107 0.03420393550787992 0.01860279630761512 -0.01244631927352902 -0.002206287489676703 -8.957826331023073e-06 -0.006910879371395831 -5.057964696946406e-05 -0.000145570445996841 
-0.02355121865165175 0.02342595849600558 -0.001520560583984153 -0.003933102455534598 -7.080378890058136e-05 -0.0004647560763461073 -0.003677196949818439 -0.0005627342124771497 -0.001216727235714513 
0.03353876763736106 -0.003312791032615211 -0.006975701385086019 -0.007991222453820206 -0.007541508477436629 -0.001264047993507773 -0.006934406502803732 -0.002413281678411449 -0.002181863217361021 
0.01611917124593681 -0.00321006463233606 -0.0005205452476294775 -0.001650000527255868 -9.975211151245962e-05 -0.0003758616353747191 -0.004081630708889498 -5.974410492560635e-05 -9.603127808633626e-05 
-0.00805437495255157 1.141580875454911e-05 -2.268792575265935e-06 0.01270577776976703 1.482606915352458e-06 5.677233047813061e-07 -6.065064114694873e-06 -2.008576790203531e-08 4.112110253134399e-07 
-0.01248455247823848 -0.000259233785181367 -0.0006890985508482906 -0.001265818707276318 0.01550027561414551 -0.0002774955500829317 0.008688227571643694 -0.0008294477926744301 -8.590263093234481e-05 
0.0335942002765298 -0.002359551388561758 -0.001264586941547551 -0.003385593275948418 1.104993599963974e-05 -8.045285077980569e-05 -0.003274103701667444 -0.002615551805650333 -0.0003094814885193966 
0.001292378066976506 -0.001571882104875869 0.01164546225139937 -0.0001018661729977214 9.310024788149888e-07 2.918032327192082e-07 -6.484532978741959e-06 4.368198778606974e-06 6.029246501143004e-07 
0.006959399360667662 -0.0003493331202157835 0.01582026282977076 -0.002826883113729509 -1.81553556683796e-05 -8.154159351243161e-05 -0.001727643074156812 -1.521235111952043e-05 -3.371760976678625e-05 
0.007719044625728555 -0.0001074761386115628 -0.0001210339018936914 -0.0002476532045842174 -4.307853822678237e-05 -1.565495218648526e-05 -0.0005245627521225094 -4.760242774534993e-06 -4.524418005708779e-06 
-0.004741893011010621 2.296041291144028e-06 1.25874955244603e-07 5.508712965075499e-07 -6.984916155116006e-07 -2.644153339313585e-07 0.01054492101861234 -1.258745026510164e-07 7.628927439135274e-08 
0.004363321523315893 -0.0003475045279154349 -6.400923050516483e-05 -0.0005902818649967049 5.247691853702718e-06 -1.877871928992233e-06 -7.265263858952583e-05 -1.616101739770507e-06 8.915466744836282e-08 
0.004363321523315893 -0.0003475045279154349 -6.400923050516483e-05 -0.0005902818649967049 5.247691853702718e-06 -1.877871928992233e-06 -7.265263858952583e-05 -1.616101739770507e-06 8.915466744836282e-08 
0.009619699632684666 -0.0003573792177266508 -0.001464950762564685 -0.002828579564088711 -2.083638803621267e-05 -8.061567055197075e-05 -0.001319980867455683 -1.479771322024674e-05 -3.402385886826087e-05 
0.00229634035907831 -3.46543322232425e-05 -2.445912059368438e-05 -4.103017223529805e-05 5.295546259701183e-07 -1.984662626658169e-07 -0.0001950927545855695 -9.369760888577301e-08 1.951141638309273e-07 
0.004532492092146205 -3.870719019116107e-05 -0.003289740247205468 -0.0001791250233558669 4.071971713144921e-06 -1.064485793565854e-06 -0.0004289678033032733 -1.878899487185708e-06 6.726491684728661e-08 
0.004536305113224582 4.652045738508909e-06 9.152554747766059e-08 7.783102697686338e-07 -6.758320623231075e-07 -2.458983291302665e-07 4.323292982852623e-07 -1.15528163151245e-07 1.048766101510677e-07 
0.002416735458200047 1.573070662496988e-06 9.929537461674893e-08 3.848529295106666e-07 -7.08555658943525e-07 -2.661493153043319e-07 2.996424235025653e-07 -1.273993168317799e-07 6.728008338141908e-08 
-0.01741720124904647 -3.727921011853182e-05 -0.0001919930334193319 -0.0004181855592281388 -5.245029092254171e-05 -1.859844479183794e-05 0.03552010258786271 -4.361247152448348e-05 -5.695782676552579e-06 
6.90133803463539e-05 5.487971354552536e-07 -1.722917534098648e-08 8.773106635569662e-08 -6.838439182029398e-07 -2.606608834068905e-07 1.042617958327428e-07 -1.246725499047466e-07 5.438442447484847e-09 
-0.04711276397506767 -0.0128885388791663 -0.002972370388379843 -0.02813196894072342 0.04705213810397647 -0.01471912758305819 0.004229824128734436 -0.008932670793960599 0.01474575077507542 
0.01611917124593681 -0.00321006463233606 -0.0005205452476294775 -0.001650000527255868 -9.975211151245962e-05 -0.0003758616353747191 -0.004081630708889498 -5.974410492560635e-05 -9.603127808633626e-05 
0.0365109610099015 -0.0156268023664689 -0.00915421667497284 -0.00757166033664466 -0.0002060935788193575 -0.000271864016450524 -0.004512815126107978 -0.001363943245539025 -0.000533964909893053 
0.004389941280482612 4.507006297235492e-06 -7.160318897580728e-07 -1.095895444796639e-07 -3.29310449460772e-07 -1.982134167960471e-07 -5.267891446756301e-07 1.816190338774076e-08 1.38407082567989e-07 
-0.02125487829257344 0.02339130416378234 -0.001545019704577837 -0.003974132627769896 -7.027423427461121e-05 -0.0004649545426087731 -0.003872289704404009 -0.0005628279100860354 -0.001216532121550682 
0.01459251890690433 -0.0003970715398214223 -6.145568760512602e-05 -0.0001497834029519633 1.21964791065967e-06 -1.751427223971951e-06 -0.0007587275758320938 -1.73274587859594e-06 3.848627097226263e-07 
-0.00805437495255157 1.141580875454911e-05 -2.268792575265935e-06 0.01270577776976703 1.482606915352458e-06 5.677233047813061e-07 -6.065064114694873e-06 -2.008576790203531e-08 4.112110253134399e-07 
-0.007045547950579704 -0.007290930498721876 -0.0003206766533156537 0.01694518465176349 -0.0001088347738709598 -3.321130293245355e-05 -0.005531669833638661 -0.0001252248521027044 -0.0001386859302431628 
0.0101365870977118 -0.0003567276861184508 -0.001464911014779898 -0.00282816335543547 -2.153239859775902e-05 -8.08804979308671e-05 -0.00131930032055274 -1.492377433224028e-05 -3.399951526835913e-05 
1.017054612603462e-05 1.226283094936544e-05 1.002196250787561e-07 0.009777141246455385 -7.087636112223213e-07 -2.672386070090545e-07 5.51506659201761e-07 -1.092707046883248e-07 6.064368051574301e-08 
0.000516887465027137 6.515316081999899e-07 3.974778478763778e-08 4.162086532414127e-07 -6.960105615463433e-07 -2.64827378896343e-07 6.805469029426644e-07 -1.260611119935485e-07 2.434359990174558e-08 
-0.003354839119256308 1.522558322454543e-05 -2.019835347087045e-06 -4.699977948498791e-06 -1.88993725841302e-09 -5.918410061117358e-08 -8.825694605932557e-06 7.381709947643579e-07 0.02289004623262693 
0.00229634035907831 -3.46543322232425e-05 -2.445912059368438e-05 -4.103017223529805e-05 5.295546259701183e-07 -1.984662626658169e-07 -0.0001950927545855695 -9.369760888577301e-08 1.951141638309273e-07 
0.001545782290538829 -4.747016161247573e-05 -1.320278113191463e-05 -0.0003710816180374178 3.703595306687289e-06 -1.007946496220461e-06 -0.0006174554615270106 -6.292080157734645e-07 -2.74829634668203e-06 
-0.05883713904152661 -0.0005299667974684094 -0.0005611436300900299 0.05663884520027822 -0.000429293154099287 -0.0007849337298577734 0.1665061940512859 -0.0002817928370661527 -0.0002613084872039636 
0.008051941763990027 -0.0001429866942666205 -0.0001615103423118454 -0.000273184344072694 -0.004562679424709158 -0.0001151590756068847 -0.002557676062865217 -9.570483293783409e-05 -5.112354179632769e-05 
-0.01752985044397637 -0.0004812971488303538 -0.0006860284628188722 -0.001294247711691615 -0.002260650441575296 -0.0001034215232634456 0.02893883368662639 -2.290889116999661e-05 -3.615585706242906e-05 
-0.002248714782447082 -0.003146910351076731 0.02329072591204951 -0.0002045020518544641 3.279116275517027e-06 1.115905096047079e-06 -1.356835080448904e-05 8.991196190877518e-06 1.071289133465763e-06 
0.05468864606353156 -0.04426899004927083 -0.03666537869829527 -0.04384348230454627 -0.03039962655744517 -0.02686733513944644 -0.05717295089184322 -0.02717493676472128 -0.04041632564284663 
0.01611917124593681 -0.00321006463233606 -0.0005205452476294775 -0.001650000527255868 -9.975211151245962e-05 -0.0003758616353747191 -0.004081630708889498 -5.974410492560635e-05 -9.603127808633626e-05 
0.001772028751644249 -1.123333644437591e-06 -5.130316944069067e-06 -4.422717171140622e-06 9.067061575902417e-08 -2.141000971504415e-07 -3.773239283362793e-05 -1.676590625065296e-07 2.628024537412937e-07 
0.01067485700923454 1.820455948359153e-05 -2.882780522852375e-05 0.01956031746117431 -6.499986878365764e-06 -3.892102431590519e-06 -0.0001469067266351146 -2.150593572675767e-06 6.451729154208258e-07 
0.01867545938528099 -0.009797305932851118 -0.008227525902314825 -0.003693860494342628 -0.006439112536109277 -0.008183827217938502 -0.008516522973694056 -0.001282616095111935 -0.001700339777314746 
-0.02286001132637045 -0.003018017740858999 0.01191981345488399 0.04759788820103045 -0.0001661992634635214 -0.0002437220375362509 0.008122370081416296 -0.0008379168498167141 -0.001411979889964106 
0.004536305113224582 4.652045738508909e-06 9.152554747766059e-08 7.783102697686338e-07 -6.758320623231075e-07 -2.458983291302665e-07 4.323292982852623e-07 -1.15528163151245e-07 1.048766101510677e-07 
-0.01942026555557166 -0.002775707092244581 -0.002044485998682554 0.02264286328796538 -0.0001751027566838557 -0.0002361121806116372 0.001722457264990344 -0.0004731668883225287 -0.001378782577080008 
0.02277172068856222 -0.004630859540236291 -0.001690205120271527 -0.002210794290654469 -8.535122836331783e-06 -2.830384585148923e-05 -0.00143465784924342 -0.0001016741097743016 -3.650522165924331e-05 
0.01890174888896096 -0.007811798730207849 -0.004577068800650439 -0.00378381354322402 -0.0001044307281986281 -0.0001364586500508018 -0.002255844334822462 -0.0006822166969881502 -0.0002669439693617996 
0.007296259453452166 -0.0001985357699107111 -3.072784380256301e-05 -7.489170147598163e-05 6.098239553298349e-07 -8.757136119859754e-07 -0.0003793637879160469 -8.663729392979702e-07 1.924313548613132e-07 
-0.1457394119700548 0.03306010112749769 -0.03105585045274397 0.0780626295863748 0.09736518063745117 -0.08435615423431071 0.1879554029691658 -0.1266957215227703 -0.02099648934462672 
0.02117236382418853 -0.003204761054989351 -0.0005204139742972123 -0.001648806008332858 -0.0001011239541363291 -0.0003763723610827457 -0.00408051783268827 -5.998569420075115e-05 -9.590205787628344e-05 
-0.01545911417588815 -0.00411177702303435 -0.003235444015914329 -0.004931425720254674 -0.002948172561281082 -0.001591172439596618 0.04625936408257873 -0.0007220851201977966 -0.001128753670845272 
-0.01250548138156585 -0.0008867438604192278 -0.0002774818467442612 0.02400482454049266 3.847162003228038e-06 -5.726374967955822e-06 -0.0001067520241518651 -5.089718419225875e-06 -1.745172893964878e-07 
-0.1003631596979364 0.06060618509736387 -0.05328935602690185 -0.06049901531784828 -0.03437934831937912 -0.01249000450377328 -0.06118367424099259 0.06392837195527459 -0.009568796673487402 
-0.004731722464884586 1.455887224050948e-05 2.260945803233591e-07 0.009777692117751893 -1.407255226733921e-06 -5.31653940940413e-07 0.01054547252527154 -2.351452073393412e-07 1.369329549070953e-07 
-0.01637916459301872 -1.57359441879438e-05 -0.0004924726086075504 -0.0006546131538163616 -0.00029979438864192 0.02262471966879144 -0.0005588289290197708 -2.013253594164475e-05 0.02288439018813607 
-0.005799427308973819 1.569147166647497e-05 0.03457341212367346 -1.553146189961057e-06 -7.537763129640128e-07 -7.76001267807033e-07 -2.01843043864758e-05 -3.762658219817778e-07 4.672626273708545e-07 
0.004463478711799851 -3.925598732661631e-05 -0.003289723018030127 -0.0001792127544222226 4.755815631347866e-06 -8.038249101589624e-07 -0.000429072065099106 -1.754226937280962e-06 6.182647439980388e-08 
0.002416735458200047 1.573070662496988e-06 9.929537461674893e-08 3.848529295106666e-07 -7.08555658943525e-07 -2.661493153043319e-07 2.996424235025653e-07 -1.273993168317799e-07 6.728008338141908e-08 
0.004536305113224582 4.652045738508909e-06 9.152554747766059e-08 7.783102697686338e-07 -6.758320623231075e-07 -2.458983291302665e-07 4.323292982852623e-07 -1.15528163151245e-07 1.048766101510677e-07 
-0.00794895919002811 0.02653250186243959 -2.275977299783045e-05 -0.0003571327007630802 -0.0001045275888404998 -7.453085371978941e-06 -0.0001615826202289672 -1.907650256239579e-05 -9.503420683472561e-06 
6.90133803463539e-05 5.487971354552536e-07 -1.722917534098648e-08 8.773106635569662e-08 -6.838439182029398e-07 -2.606608834068905e-07 1.042617958327428e-07 -1.246725499047466e-07 5.438442447484847e-09 
0.001520511866699128 5.123266615914091e-06 -2.93734588665708e-05 0.01954410799864891 -2.233958500711205e-07 -1.518356565396813e-06 -0.000151010787418957 -1.07185205966055e-06 2.759191670339753e-07 
0.004463478711799851 -3.925598732661631e-05 -0.003289723018030127 -0.0001792127544222226 4.755815631347866e-06 -8.038249101589624e-07 -0.000429072065099106 -1.754226937280962e-06 6.182647439980388e-08 
0.009123894580314578 9.114483507140881e-06 -9.801840793532779e-07 -2.246827369082336e-05 -9.080285843531288e-07 -4.147462378727221e-07 -1.001991145377604e-06 7.301439732953839e-08 2.835016574432795e-07 
-0.0221216156863326 0.03039243218897891 -0.01108913790483895 -0.0104849425427538 -0.001135130532939617 -0.001272968666977981 -0.005332504916825237 -0.002814361076009889 -0.001891773781828264 
0.0005772550036638545 1.053655891146066e-06 5.676601132117552e-08 1.928894031954329e-06 -7.000948707464415e-07 -2.659809421329297e-07 4.589664356946433e-07 -1.204016687329964e-07 3.304714227947275e-08 
-0.04124224775627851 0.04144555634496221 -0.01777928747909387 -0.02011553009717651 -0.0174784912367162 -0.009727070665751153 -0.02320958909200635 -0.01268581039637922 -0.01817275603275493 
-0.02938039606964422 0.02993510371028122 -0.01179098526303572 -0.01760261463725112 -0.01014769942330127 -0.007810891403813291 0.013676322599845 0.03015555415082417 -0.006283625784642 
0.0001380267606927078 1.097594270910507e-06 -3.445835068197296e-08 1.754621327113932e-07 -1.36768783640588e-06 -5.213217668137809e-07 2.085235916654855e-07 -2.493450998094932e-07 1.087688489496969e-08 
0.001772028751644249 -1.123333644437591e-06 -5.130316944069067e-06 -4.422717171140622e-06 9.067061575902417e-08 -2.141000971504415e-07 -3.773239283362793e-05 -1.676590625065296e-07 2.628024537412937e-07 
0.008726643046631786 -0.0006950090558308698 -0.0001280184610103297 -0.00118056372999341 1.049538370740544e-05 -3.755743857984466e-06 -0.0001453052771790517 -3.232203479541015e-06 1.783093348967256e-07 
-0.007206334109601557 -1.189231253949503e-05 -0.0001376222739346154 -3.419172536126382e-05 -9.587492249037608e-06 -1.865862808811089e-06 0.0137213105970612 -8.363795002981987e-07 2.656915366569393e-07 
0.07902845948740816 -0.0281245336594605 -0.02818570614215151 -0.02265291319905121 -0.02923885864359207 -0.01572914163992801 -0.04250923416675 -0.009345029097201999 -0.01209247343215284 
0.0002724326916948874 7.943110670977213e-06 -1.197731279630049e-06 -8.985584470968878e-07 -5.075791039032536e-07 -3.422979757807688e-07 -1.438787379883234e-05 -1.809946215751649e-07 2.774337515032077e-07 
0.03161727393432451 -0.007102452416492923 -0.004454443843310139 -0.009661107581855108 -0.002882072471915617 -0.0009400247825786017 -0.01660836023261431 -0.005162683905652486 0.01953631595504137 
0.0571185750962885 -0.01104552228776936 -0.007481449196267505 -0.01230109645726925 -0.004304737623036235 -0.004423541023922886 -0.03966860533647081 -0.005928094205084867 -0.007185738088544603 
2.034109225206924e-05 2.452566189873088e-05 2.004392501575121e-07 0.01955428249291077 -1.417527222444643e-06 -5.34477214018109e-07 1.103013318403522e-06 -2.185414093766496e-07 1.21287361031486e-07 
0.001731765010991564 3.1609676734382e-06 1.702980339635274e-07 5.786682095862995e-06 -2.100284612239326e-06 -7.979428263987888e-07 1.37689930708393e-06 -3.612050061989898e-07 9.914142683841816e-08 
0.000516887465027137 6.515316081999899e-07 3.974778478763778e-08 4.162086532414127e-07 -6.960105615463433e-07 -2.64827378896343e-07 6.805469029426644e-07 -1.260611119935485e-07 2.434359990174558e-08 
0.008051941763990027 -0.0001429866942666205 -0.0001615103423118454 -0.000273184344072694 -0.004562679424709158 -0.0001151590756068847 -0.002557676062865217 -9.570483293783409e-05 -5.112354179632769e-05 
1.017054612603462e-05 1.226283094936544e-05 1.002196250787561e-07 0.009777141246455385 -7.087636112223213e-07 -2.672386070090545e-07 5.51506659201761e-07 -1.092707046883248e-07 6.064368051574301e-08 
0.0006462683840102084 1.602453026601321e-06 3.95368359801896e-08 2.016625098310027e-06 -1.383938788949383e-06 -5.266418255398206e-07 5.632282315273885e-07 -2.450742186377432e-07 3.848558472695752e-08 
-0.01224459529515436 -0.000305738564725098 -0.0003431085771421006 0.01957153427278501 -0.0001190776970680701 -5.857052087880926e-06 -0.0002465539561790542 -2.733626788654642e-05 -1.824138066371681e-06 
0.0001380267606927078 1.097594270910507e-06 -3.445835068197296e-08 1.754621327113932e-07 -1.36768783640588e-06 -5.213217668137809e-07 2.085235916654855e-07 -2.493450998094932e-07 1.087688489496969e-08 
-0.01155808832186316 -0.01008043144863834 -0.00882582811632001 -0.006077318645986473 -0.006712441610171239 -0.007235686994351937 -0.007755423355771618 0.03076782798615234 -0.004959063421477154 
-0.06205878131155547 0.01275396958971117 -0.07409632103035008 0.03909552894236388 -0.04336140374633569 -0.04949336694971457 -0.1393125143308503 -0.03136673353873942 -0.07456568412772932 
0.000516887465027137 6.515316081999899e-07 3.974778478763778e-08 4.162086532414127e-07 -6.960105615463433e-07 -2.64827378896343e-07 6.805469029426644e-07 -1.260611119935485e-07 2.434359990174558e-08 
-0.005528988057141346 3.920630335991888e-06 0.02000610851976122 3.548304069330516e-07 -6.472171008022034e-07 -2.40223207186356e-07 1.617360283473306e-07 -1.15096275316761e-07 1.073560371661345e-07 
0.01423964741333284 -0.0009371390677890399 -0.0003619873447188211 -0.0006602979117062688 -0.001979156901739571 -0.0001694029135358033 -0.003813085909270305 -0.0001291919932680088 -0.0001972980043880191 
0.0005772550036638545 1.053655891146066e-06 5.676601132117552e-08 1.928894031954329e-06 -7.000948707464415e-07 -2.659809421329297e-07 4.589664356946433e-07 -1.204016687329964e-07 3.304714227947275e-08 
-0.001124357391223541 -0.001573455175538365 0.01164536295602476 -0.0001022510259272321 1.639558137758513e-06 5.579525480235397e-07 -6.784175402244522e-06 4.495598095438759e-06 5.356445667328814e-07 
0.0198069402527 -0.002891042137059277 -0.0005936266028891867 -0.006666639585164551 -0.002075364740731085 -0.0002721636031212502 -0.0009427309820966152 -0.000406238148042429 -0.0003438693219555746 
0.0003194134674946004 3.230278495759734e-06 2.05652796999849e-07 4.254179466728223e-07 -2.107523994263787e-06 -8.005697475725757e-07 3.454273767591992e-06 -3.829789251668579e-07 1.222158656631338e-07 
0.00459268071815662 -6.930866444648501e-05 -4.891824118736876e-05 -8.20603444705961e-05 1.059109251940237e-06 -3.969325253316338e-07 -0.0003901855091711391 -1.87395217771546e-07 3.902283276618546e-07 
-0.02076392410905752 -0.008744737913661892 -0.007391895780196675 -0.009031202403577394 0.01116428454938832 0.01653815266604235 0.01978389312756355 -0.004966794084050817 -0.004892148929596811 
0.0143296493077739 -0.004631867912938651 -0.001689735597557112 -0.002187052317905135 -1.004691744004372e-05 -2.88813831221366e-05 0.009112099465175506 -0.0001021069589948816 -3.652533975992375e-05 
-0.02355121865165175 0.02342595849600558 -0.001520560583984153 -0.003933102455534598 -7.080378890058136e-05 -0.0004647560763461073 -0.003677196949818439 -0.0005627342124771497 -0.001216727235714513 
0.0005693152924851994 7.957174392195494e-06 -8.151122302942633e-08 -1.987891881788181e-05 -1.977304621150399e-06 -7.469290971409636e-07 0.01054490478304733 -1.914236774422156e-07 2.544309915461164e-07 
0.003502384787195269 -1.858216770484541e-05 -6.771489226366287e-06 -7.477163128611538e-05 4.703016952119788e-06 -8.674537798173587e-07 -0.0003078847509632206 -5.931340689983077e-07 3.836441955555053e-07 
-0.005325924009027809 -0.000259956755810014 -0.0006891251304289184 -0.001265984725643315 0.01550026555010208 -0.0002774972840643047 -0.001856393804545141 -0.0008294493174886108 -8.591164012335475e-05 
-0.01672710922613343 -0.0105755933929834 -0.009935591636851253 -0.007131855834415904 0.03684257707421287 -0.005120864733304246 -0.01489088332285084 -0.004480298815976184 -0.002764290616830808 
-0.01658696417142404 1.176189100797565e-05 0.06001832555928366 1.064491220799154e-06 -1.941651302406608e-06 -7.206696215590675e-07 4.852080850419947e-07 -3.452888259502824e-07 3.220681114984034e-07 
0.008051941763990027 -0.0001429866942666205 -0.0001615103423118454 -0.000273184344072694 -0.004562679424709158 -0.0001151590756068847 -0.002557676062865217 -9.570483293783409e-05 -5.112354179632769e-05 
-0.01053854433481047 -0.002638704823795902 -9.541931088440832e-05 -0.002826451641198498 2.455614540947586e-06 -4.005586454567206e-05 -0.001680266279145124 -0.0008786841405312403 0.01700469602435099 
-0.0616873291437478 -0.006749907803354435 0.1095802994081691 -0.01529521156330367 -0.01253174878400463 -0.01733057666562108 -0.04568627257921506 0.00457006348746022 -0.008732873756678819 
0.013172195489101 -0.0003254017778268024 -0.0005087818006451525 -0.001711500423549694 -0.000229381416115264 -0.0001105819231516317 -0.003686906823320145 -0.0003063082768984754 -0.0002720555646770721 
0.0139493751810791 -0.02151925764526441 -0.01642697013079975 -0.005790114381576891 -0.01159681491626201 -0.010651110279724 -0.01636083803671156 0.02832132504537697 -0.008613955449082042 
0.0009582404024838013 9.690835487279184e-06 6.169583909995457e-07 1.276253840018472e-06 -6.322571982791363e-06 -2.401709242717724e-06 1.036282130277599e-05 -1.148936775500573e-06 3.666475969894017e-07 
0.01016344087029146 -0.006167916772277469 -0.004088563958158153 -0.008993139376208447 -0.0009041530402330055 -0.0007713445371857135 -0.002213223058317889 -0.005034401149320948 -0.003156619927689043 
0.000516887465027137 6.515316081999899e-07 3.974778478763778e-08 4.162086532414127e-07 -6.960105615463433e-07 -2.64827378896343e-07 6.805469029426644e-07 -1.260611119935485e-07 2.434359990174558e-08 
0.003502384787195269 -1.858216770484541e-05 -6.771489226366287e-06 -7.477163128611538e-05 4.703016952119788e-06 -8.674537798173587e-07 -0.0003078847509632206 -5.931340689983077e-07 3.836441955555053e-07 
-0.02255891084331269 -0.0008061193595694137 -0.001534558247536799 -0.004614810321278318 -3.380138868719259e-05 -6.552481490142972e-05 0.0310880456418936 -5.159230853636389e-05 -8.32618945446053e-05 
-0.009331198278307005 -0.007415141699045635 0.01903402228611601 0.04535754942961321 -0.004978228386209213 0.02247380235759222 -0.008635452866259672 -0.0002429820357268484 -0.0001949358051310337 
-0.004741893011010621 2.296041291144028e-06 1.25874955244603e-07 5.508712965075499e-07 -6.984916155116006e-07 -2.644153339313585e-07 0.01054492101861234 -1.258745026510164e-07 7.628927439135274e-08 
-0.01752985044397637 -0.0004812971488303538 -0.0006860284628188722 -0.001294247711691615 -0.002260650441575296 -0.0001034215232634456 0.02893883368662639 -2.290889116999661e-05 -3.615585706242906e-05 
-0.00311979244603787 -0.0003793934514777976 -0.001484688471388919 -0.002842428803642675 0.01972349200757521 -8.126477133091593e-05 -0.001520445363651927 -1.551488243901604e-05 -3.369671260164102e-05 
0.009072610226449163 9.304091477017819e-06 1.830510949553212e-07 1.556620539537268e-06 -1.351664124646215e-06 -4.91796658260533e-07 8.646585965705247e-07 -2.3105632630249e-07 2.097532203021354e-07 
-0.01269099002263328 -0.005403991104386555 -0.005636114476242922 -0.008651090243102537 -0.00059710041770572 -0.002090617266204314 -0.00597008375294088 0.02245530715022811 -0.003966593912494424 
0.00597962799958237 -0.008461273461828662 -0.009882868785177155 -0.01651206825965173 -0.003313882929996066 -0.003314099538112402 -0.009664397069036962 0.02009409455731815 -0.006136342229960508 
0.0005772550036638545 1.053655891146066e-06 5.676601132117552e-08 1.928894031954329e-06 -7.000948707464415e-07 -2.659809421329297e-07 4.589664356946433e-07 -1.204016687329964e-07 3.304714227947275e-08 
-0.05669920226027152 -0.01924870593041361 -0.01650297631786028 0.08037650820582062 -0.00435159761599033 -0.01179021983096727 -0.01226705149740526 -0.008213862083478612 -0.01244945914169589 
0.0008475621804654047 8.990225127344323e-07 -2.351374689993398e-06 -2.209622538831644e-06 4.377647012319727e-06 -1.998203451120756e-07 -0.0004083378452959335 -8.122049149016268e-08 1.142782194996124e-07 
0.01803776738873025 -0.004635467017446195 -0.001689940968081931 -0.002188435606508125 -7.95640470143942e-06 -2.808731303041256e-05 -0.001434182647242718 -0.0001017289622682434 -3.66503162341186e-05 
-0.01706702059287213 -0.005947177436181556 -0.01128959337783719 0.04166466498129329 -0.00205954018443881 -0.005860082446673048 -0.008901951234495758 -0.003990584182832982 -0.006101145667715813 
0.004733953299831966 4.607477209905393e-06 -2.641521895952035e-07 -2.235868414634369e-05 -5.787181348923577e-07 -2.16532821076675e-07 -4.752020007019738e-07 5.485249394179749e-08 1.450945748752907e-07 
0.004389941280482612 4.507006297235492e-06 -7.160318897580728e-07 -1.095895444796639e-07 -3.29310449460772e-07 -1.982134167960471e-07 -5.267891446756301e-07 1.816190338774076e-08 1.38407082567989e-07 
6.90133803463539e-05 5.487971354552536e-07 -1.722917534098648e-08 8.773106635569662e-08 -6.838439182029398e-07 -2.606608834068905e-07 1.042617958327428e-07 -1.246725499047466e-07 5.438442447484847e-09 
-0.03146603143602945 -0.002182452668319905 -0.00376906702433016 0.04727985851311078 -0.001476550042560312 0.01882942930399031 -0.004822519973225133 -0.001229660625203553 -0.0005849453777764011 
0.03951422974370408 -0.01406226682973025 -0.01409285307107576 -0.01132645659952561 -0.01461942932179604 -0.007864570819964006 -0.021254617083375 -0.004672514548601 -0.006046236716076421 
0.008051941763990027 -0.0001429866942666205 -0.0001615103423118454 -0.000273184344072694 -0.004562679424709158 -0.0001151590756068847 -0.002557676062865217 -9.570483293783409e-05 -5.112354179632769e-05 
0.0001362163458474437 3.971555335488606e-06 -5.988656398150247e-07 -4.492792235484439e-07 -2.537895519516268e-07 -1.711489878903844e-07 -7.193936899416172e-06 -9.049731078758246e-08 1.387168757516038e-07 
-0.005528988057141346 3.920630335991888e-06 0.02000610851976122 3.548304069330516e-07 -6.472171008022034e-07 -2.40223207186356e-07 1.617360283473306e-07 -1.15096275316761e-07 1.073560371661345e-07 
0.002229833171486587 -7.256406200019529e-05 -0.003294385896901634 -0.0001456964620097007 -9.461616889049063e-05 -0.0002428891970675388 -0.00115328913154493 -0.0004263092798824009 -7.351744456834317e-05 
-0.02904037699573073 0.01419492726544495 -0.002818206487671089 0.00167526484344786 0.01092023779980433 -0.001202243952212818 0.03384625367339393 -0.0003925488618358264 -0.0003393488528356176 
0.004363321523315893 -0.0003475045279154349 -6.400923050516483e-05 -0.0005902818649967049 5.247691853702718e-06 -1.877871928992233e-06 -7.265263858952583e-05 -1.616101739770507e-06 8.915466744836282e-08 
-0.02947004246870001 -0.002943583085041236 -0.005405726726774711 0.04064289299231826 -0.004854790189059661 -0.002163661425453747 -0.01344176633630703 -0.00167057559025165 -0.003178980318295641 
0.01840542284510343 -0.006132994623723834 -0.008492452009110085 -0.01563252129651302 -0.005431250152041122 -0.002446098412531869 -0.007386725824189356 -0.004722644595795696 -0.00434007701323167 
0.04041362319574687 -0.002462855922894525 -0.004043854776527306 -0.003912546682775118 -0.002700029435723585 -0.0009668951946999857 -0.01016562892757574 -0.001283736170151586 -0.000443241753114397 
6.90133803463539e-05 5.487971354552536e-07 -1.722917534098648e-08 8.773106635569662e-08 -6.838439182029398e-07 -2.606608834068905e-07 1.042617958327428e-07 -1.246725499047466e-07 5.438442447484847e-09 
0.01867545938528099 -0.009797305932851118 -0.008227525902314825 -0.003693860494342628 -0.006439112536109277 -0.008183827217938502 -0.008516522973694056 -0.001282616095111935 -0.001700339777314746 
-0.000129880367663912 -3.366742697532023e-05 0.01399771118779733 -0.0001790767385217421 3.775546810151144e-06 -1.25862652464878e-06 -0.0004292100975798584 -1.971513557503249e-06 1.931415142633548e-07 
0.01119806675884327 -0.0007865171295205861 -0.0004215289805158503 -0.001128531091982806 3.683311999879916e-06 -2.68176169266019e-05 -0.001091367900555815 -0.0008718506018834444 -0.0001031604961731322 
0.000516887465027137 6.515316081999899e-07 3.974778478763778e-08 4.162086532414127e-07 -6.960105615463433e-07 -2.64827378896343e-07 6.805469029426644e-07 -1.260611119935485e-07 2.434359990174558e-08 
-0.001124357391223541 -0.001573455175538365 0.01164536295602476 -0.0001022510259272321 1.639558137758513e-06 5.579525480235397e-07 -6.784175402244522e-06 4.495598095438759e-06 5.356445667328814e-07 
0.0008570969642666117 -0.002520133023605723 -0.001894423258294008 -0.004156298361630849 -0.007713472362290105 -0.001193727871758621 0.02385330677562324 -0.0003632905533790648 -0.0002673662748655972 
0.04011290629130899 -0.01580962176921428 -0.009161799321652637 -0.01362463903917654 -0.005325653608329285 -0.00427067484862137 -0.006290212051638943 -0.003041997689216255 -0.004932790859258483 
-0.09304001880452939 -0.00630114117914419 -0.007883555344709633 -0.01603635337137638 0.07758221672407617 -0.004055134351182841 0.08883429044786545 -0.005706009355167789 -0.001049756826421129 
0.004536305113224582 4.652045738508909e-06 9.152554747766059e-08 7.783102697686338e-07 -6.758320623231075e-07 -2.458983291302665e-07 4.323292982852623e-07 -1.15528163151245e-07 1.048766101510677e-07 
-0.002969864259366372 1.17270764670643e-06 -5.004441988824468e-06 -3.871845874633071e-06 -6.078209997525803e-07 -4.785154310818e-07 0.01050718862577871 -2.935335651575451e-07 3.390917281326465e-07 
0.02175812717277219 -0.00664482937046089 0.0156963480592346 -0.01129989896161642 -0.002407297369742125 -0.0007916226070383196 -0.009925280051499745 -0.001820914396003249 0.01547891051794772 
6.90133803463539e-05 5.487971354552536e-07 -1.722917534098648e-08 8.773106635569662e-08 -6.838439182029398e-07 -2.606608834068905e-07 1.042617958327428e-07 -1.246725499047466e-07 5.438442447484847e-09 
-0.003302769959014129 -0.003953241172281145 -0.004523707851299304 0.01618856389223615 -0.002711777914017333 -0.00122877558123389 -0.003800114936246543 -0.002366412016317074 -0.002170213023905231 
0.001772028751644249 -1.123333644437591e-06 -5.130316944069067e-06 -4.422717171140622e-06 9.067061575902417e-08 -2.141000971504415e-07 -3.773239283362793e-05 -1.676590625065296e-07 2.628024537412937e-07 
0.04732069388853442 -0.0131895333455321 -0.007977855508744055 -0.01244226923522742 -0.00202418786310347 -0.002967939774947739 0.02170828531695288 -0.005625749513318159 -0.007726451364486619 
0.000516887465027137 6.515316081999899e-07 3.974778478763778e-08 4.162086532414127e-07 -6.960105615463433e-07 -2.64827378896343e-07 6.805469029426644e-07 -1.260611119935485e-07 2.434359990174558e-08 
-0.01467837254456104 -0.002778003133535726 -0.002044611873637798 0.02264231241666887 -0.0001744042650683441 -0.0002358477652777058 -0.008822463753621994 -0.0004730410138198776 -0.001378858866354399 
0.09500859742773066 0.01801793956778318 -0.04116585814302831 -0.0862567552346216 -0.07305955243010266 -0.01098030504764491 -0.1078934044252227 -0.04484498702604684 -0.04678967766520011 
0.009619699632684666 -0.0003573792177266508 -0.001464950762564685 -0.002828579564088711 -2.083638803621267e-05 -8.061567055197075e-05 -0.001319980867455683 -1.479771322024674e-05 -3.402385886826087e-05 
-0.005499022011485124 -0.0001352278371270386 -0.0001172755264572906 -8.761322645053796e-05 -8.886624948015124e-06 -1.413420870402206e-06 -0.0003706913611734443 0.02526012618981658 -2.414133999672639e-06 
0.005249153122569091 5.150059532846985e-06 -4.751137298485124e-06 -0.0006532352811887657 3.83963089328849e-06 1.137094416090122e-06 -2.46913965130432e-05 1.640709927145951e-06 5.455756975714247e-07 
-0.05592309074966333 0.04734072059379604 -0.001638851530176065 -0.00709657499045246 -0.0001735049832195247 -0.0005128795796371773 -0.005500034690987453 -0.001459978413967106 0.03866807270050218 
0.05871730677981695 -0.01448782694337889 -0.01885993557436573 -0.01432972364948033 -0.01473099227922955 -0.008188706140846855 -0.02417443252250588 -0.005113815568763703 -0.006153255844264909 
0.001550662395081411 1.954594824599961e-06 1.192433543629133e-07 1.248625959724242e-06 -2.088031684639032e-06 -7.944821366890293e-07 2.041640708827996e-06 -3.781833359806454e-07 7.303079970523635e-08 
-0.004741893011010621 2.296041291144028e-06 1.25874955244603e-07 5.508712965075499e-07 -6.984916155116006e-07 -2.644153339313585e-07 0.01054492101861234 -1.258745026510164e-07 7.628927439135274e-08 
-0.00805437495255157 1.141580875454911e-05 -2.268792575265935e-06 0.01270577776976703 1.482606915352458e-06 5.677233047813061e-07 -6.065064114694873e-06 -2.008576790203531e-08 4.112110253134399e-07 
0.00459268071815662 -6.930866444648501e-05 -4.891824118736876e-05 -8.20603444705961e-05 1.059109251940237e-06 -3.969325253316338e-07 -0.0003901855091711391 -1.87395217771546e-07 3.902283276618546e-07 
0.008702572752742482 -0.0005079183265651592 -0.001038075607620492 -0.001950700961030826 -0.0002567225115028295 -2.570078856360449e-05 -0.002778839878313318 -0.0004379852142412278 -2.378741751316205e-05 
0.04535474003227104 -0.01993197886759544 -0.006589141420604545 -0.02433169949562165 -0.008913290458317872 -0.005828606590566845 -0.01942503548268053 -0.005664679530754283 -0.006640670061185507 
0.008702572752742482 -0.0005079183265651592 -0.001038075607620492 -0.001950700961030826 -0.0002567225115028295 -2.570078856360449e-05 -0.002778839878313318 -0.0004379852142412278 -2.378741751316205e-05 
-0.001201921748612764 -0.0003400228319735438 0.02880257348346331 -0.001660600764461721 -0.002985199658127178 -0.003810251148798383 -0.009955309038053209 -0.004471629313726523 -0.001191127354905892 
0.005249153122569091 5.150059532846985e-06 -4.751137298485124e-06 -0.0006532352811887657 3.83963089328849e-06 1.137094416090122e-06 -2.46913965130432e-05 1.640709927145951e-06 5.455756975714247e-07 
-0.01053854433481047 -0.002638704823795902 -9.541931088440832e-05 -0.002826451641198498 2.455614540947586e-06 -4.005586454567206e-05 -0.001680266279145124 -0.0008786841405312403 0.01700469602435099 
0.03772106001119711 -0.002098664135851542 -1.041243743322894e-05 -6.400820976556359e-05 -7.521447212006311e-06 -1.032605118257545e-05 -0.001249361477333366 -0.0001276029211086141 -3.116803295318149e-05 
0.01469239156963901 -0.006172366332565787 -0.004088826934978064 -0.008993973859469404 -0.0009020495326213181 -0.0007705464086867339 -0.01276044692610862 -0.005034019955534852 -0.00315677769420721 
-0.007708290181929778 -0.0003010865189865891 -0.0003430170515946229 0.01957231258305479 -0.0001197535291303932 -6.102950417011195e-06 -0.0002461216268807689 -2.745179604969767e-05 -1.71926145622062e-06 
0.0218887783603565 -0.0005956073097321334 -9.218353140768902e-05 -0.0002246751044279449 1.829471865989518e-06 -2.627140835957924e-06 -0.00113809136374814 -2.599118817893911e-06 5.772940645839335e-07 
0.003265583889259072 -0.00156894816924113 0.011644646924135 -0.0001023606154717117 1.310247688297743e-06 3.597391312274951e-07 -7.310964546920155e-06 4.513759998826502e-06 6.740516493008698e-07 
6.90133803463539e-05 5.487971354552536e-07 -1.722917534098648e-08 8.773106635569662e-08 -6.838439182029398e-07 -2.606608834068905e-07 1.042617958327428e-07 -1.246725499047466e-07 5.438442447484847e-09 
0.004187532530874468 -0.0001136450699466105 -0.0001822563825584032 -0.0007007610905964955 -0.0001169698974147472 -3.950106597153687e-05 -0.0003310716220559487 -0.0001114390254404587 -0.0001081407560182516 
0.00229634035907831 -3.46543322232425e-05 -2.445912059368438e-05 -4.103017223529805e-05 5.295546259701183e-07 -1.984662626658169e-07 -0.0001950927545855695 -9.369760888577301e-08 1.951141638309273e-07 
0.08434174665151808 -0.01686743185661119 0.007077259622708636 -0.02715719962002634 -0.009653411070810745 -0.006403812022768229 -0.0281018267936864 0.01630259989092198 -0.006939695652223022 
0.04701533731319052 -0.01100598231320894 0.009681921231724674 -0.009805144539536192 -0.006119637632852883 -0.004024818386053972 -0.0239108727990217 -0.005448139668331868 -0.005857519849720307 
-0.03287624913858914 -0.0008325830166470371 -0.001588997557953849 -0.004998945961127418 -7.596167936260877e-05 -8.199054030193239e-05 0.05288568620810591 -9.424074091882689e-05 -8.926410737970253e-05 
0.001680737127728698 -5.140915235567206e-05 -0.003226833922854681 -0.0001377364623669254 -9.35085865292222e-05 -0.0002344738990610518 -0.001058015540289446 -0.0004067119947628082 -7.291547913609242e-05 
0.000516887465027137 6.515316081999899e-07 3.974778478763778e-08 4.162086532414127e-07 -6.960105615463433e-07 -2.64827378896343e-07 6.805469029426644e-07 -1.260611119935485e-07 2.434359990174558e-08 
0.01176424695874224 -2.543937780343171e-05 -2.49874249728748e-05 -8.574754052798544e-05 -6.278816438145987e-07 -6.315319048191676e-07 -0.0001960431585869735 1.600737899782245e-08 4.853033135815083e-07 
-0.005528988057141346 3.920630335991888e-06 0.02000610851976122 3.548304069330516e-07 -6.472171008022034e-07 -2.40223207186356e-07 1.617360283473306e-07 -1.15096275316761e-07 1.073560371661345e-07 
-0.07542316282864776 -0.222588245175306 -0.1130823440033877 -0.1155713455942375 0.08474964751545083 -0.02253644288238299 0.05040159297676325 0.00567678629910066 -0.0670775332063351 
0.003471369863015008 -0.0005159704262001726 -0.0003435824361565652 -0.0004890064453705341 -0.0002513572981435692 -0.0007144900893631407 -0.005054384623418022 -0.0001091459630666019 0.02265124229723634 
-0.02947004246870001 -0.002943583085041236 -0.005405726726774711 0.04064289299231826 -0.004854790189059661 -0.002163661425453747 -0.01344176633630703 -0.00167057559025165 -0.003178980318295641 
0.003502384787195269 -1.858216770484541e-05 -6.771489226366287e-06 -7.477163128611538e-05 4.703016952119788e-06 -8.674537798173587e-07 -0.0003078847509632206 -5.931340689983077e-07 3.836441955555053e-07 
0.01050322933184963 -0.002126576410282596 -1.096159071809492e-05 -6.867807138417541e-05 -3.466454838067661e-06 -8.850661207793865e-06 -0.001251955453123078 -0.0001269097521297066 -3.17972926140879e-05 
0.03593419487970114 -0.002565080369200775 0.01149178050302326 -0.0004747806392751859 3.988583043661219e-06 -4.086596454039268e-06 -0.001903144148546784 4.33317302159144e-08 1.530848483318904e-06 
0.0005772550036638545 1.053655891146066e-06 5.676601132117552e-08 1.928894031954329e-06 -7.000948707464415e-07 -2.659809421329297e-07 4.589664356946433e-07 -1.204016687329964e-07 3.304714227947275e-08 
0.005933602914777432 -9.249358861228689e-06 -1.678279198500633e-06 -2.277638713160313e-06 -1.616396193807683e-07 2.505803270707627e-07 -2.715312721864246e-05 -8.246820266693396e-08 3.046823877764342e-07 
-0.0221216156863326 0.03039243218897891 -0.01108913790483895 -0.0104849425427538 -0.001135130532939617 -0.001272968666977981 -0.005332504916825237 -0.002814361076009889 -0.001891773781828264 
0.008505423346993762 3.746830713190105e-05 -8.436750562897924e-06 0.01889001868396429 6.500352577479645e-06 1.012026725694303e-06 -2.67323929294985e-05 2.399814228233094e-06 8.948188315914557e-07 
-0.003354839119256308 1.522558322454543e-05 -2.019835347087045e-06 -4.699977948498791e-06 -1.88993725841302e-09 -5.918410061117358e-08 -8.825694605932557e-06 7.381709947643579e-07 0.02289004623262693 
0.03361049405378386 -0.01026830044541127 0.004222903615685897 0.03934997307736413 0.01409276025076122 -0.003891591421543545 -0.02402139443894241 -0.008055824835542558 -0.005836454290666404 
-0.02125723733620373 -0.004296349869214223 -0.001706266804652237 -0.001060684176435894 -1.69611752074371e-05 -6.283271275856129e-05 0.04368626917895571 -0.001607910682962742 -0.0004226062189814076 
-0.01224459529515436 -0.000305738564725098 -0.0003431085771421006 0.01957153427278501 -0.0001190776970680701 -5.857052087880926e-06 -0.0002465539561790542 -2.733626788654642e-05 -1.824138066371681e-06 
-0.01467837254456104 -0.002778003133535726 -0.002044611873637798 0.02264231241666887 -0.0001744042650683441 -0.0002358477652777058 -0.008822463753621994 -0.0004730410138198776 -0.001378858866354399 
-0.005699531929259481 -0.007955802194343657 -0.005175960295870089 -0.005167297388401791 -0.003778931619564102 -0.005782912706515826 0.02494129637071427 -0.003678445252475242 -0.004776513488681555 
0.009619699632684666 -0.0003573792177266508 -0.001464950762564685 -0.002828579564088711 -2.083638803621267e-05 -8.061567055197075e-05 -0.001319980867455683 -1.479771322024674e-05 -3.402385886826087e-05 
0.01112667453522982 -0.01107092446316253 0.05006807154470592 0.04279836086006936 -1.629327147716991e-06 -6.788926229708085e-05 -0.003569898690739264 -0.0002142466505194792 -7.225827693978259e-05 
0.00229634035907831 -3.46543322232425e-05 -2.445912059368438e-05 -4.103017223529805e-05 5.295546259701183e-07 -1.984662626658169e-07 -0.0001950927545855695 -9.369760888577301e-08 1.951141638309273e-07 
0.0001064711558315335 1.076759498586575e-06 6.855093233328344e-08 1.418059822242744e-07 -7.025079980879297e-07 -2.66856582524192e-07 1.151424589197329e-06 -1.276596417222858e-07 4.073862188771121e-08 
0.03223834249187363 -0.006420129264672119 -0.001041090495258955 -0.003300001054511737 -0.0001995042230249192 -0.0007517232707494382 -0.008163261417778997 -0.0001194882098512127 -0.0001920625561726725 
0.0138818060464858 -0.002326945277171508 0.01633168663767627 -0.003703736957066277 9.447542025677725e-06 -3.369023651225527e-05 0.03007408741757172 -0.000802024122445231 -0.0002169785911738915 
-0.0002762188939113808 0.01710000743877196 -0.0007016561060730503 -0.006223337051967977 -0.00110282013628795 -4.35880156191836e-06 -0.003455520553712089 -2.523227534707365e-05 -7.283890101700356e-05 
-0.004113276416052227 -1.61151464286824e-05 0.01721989946095585 -7.911714808650434e-06 -1.404007264262206e-06 -8.609438737569834e-06 -9.551588553206949e-05 -1.968989918991032e-05 -4.760888348346857e-07 
0.003418846454814882 4.535185736206722e-06 -1.559297264480171e-06 -1.791521840434994e-06 5.415814911114555e-07 -1.208632231169897e-07 -2.085114042250272e-05 -6.337803962441126e-08 1.747708106510128e-07 
0.005053192578251718 5.3035773467089e-06 1.312733322652987e-07 1.194518923010047e-06 -1.371842623869452e-06 -5.107257080266088e-07 1.112876201227928e-06 -2.415892751447938e-07 1.292202100528136e-07 
0.001695124360930809 1.798045025468865e-06 -4.702749379986795e-06 -4.419245077663289e-06 8.755294024639454e-06 -3.996406902241511e-07 -0.000816675690591867 -1.624409829803254e-07 2.285564389992248e-07 
-0.02355121865165175 0.02342595849600558 -0.001520560583984153 -0.003933102455534598 -7.080378890058136e-05 -0.0004647560763461073 -0.003677196949818439 -0.0005627342124771497 -0.001216727235714513 
6.90133803463539e-05 5.487971354552536e-07 -1.722917534098648e-08 8.773106635569662e-08 -6.838439182029398e-07 -2.606608834068905e-07 1.042617958327428e-07 -1.246725499047466e-07 5.438442447484847e-09 
-0.003081440723893861 0.01711657330705936 -0.0007086760359468014 0.005829205436610283 -0.001097497898479309 -2.65398384104693e-06 -0.003486277014339827 -2.361165118782974e-05 -7.18821142941187e-05 
0.000212942311663067 2.15351899717315e-06 1.371018646665669e-07 2.836119644485487e-07 -1.405015996175859e-06 -5.337131650483841e-07 2.302849178394658e-06 -2.553192834445717e-07 8.147724377542242e-08 
-0.005621786956117705 -0.007867275877691827 0.05822681478012378 -0.0005112551296361603 8.197790688792567e-06 2.789762740117705e-06 -3.39208770112226e-05 2.247799047719383e-05 2.6782228336644e-06 
-0.02317815880161671 -0.004004300884422787 -0.003114410114020638 -0.004683772515670457 -0.002905094023054299 -0.001575517487410132 0.04678392683470124 -0.0007173248774232616 -0.001124229252839563 
-0.004741893011010621 2.296041291144028e-06 1.25874955244603e-07 5.508712965075499e-07 -6.984916155116006e-07 -2.644153339313585e-07 0.01054492101861234 -1.258745026510164e-07 7.628927439135274e-08 
0.01867545938528099 -0.009797305932851118 -0.008227525902314825 -0.003693860494342628 -0.006439112536109277 -0.008183827217938502 -0.008516522973694056 -0.001282616095111935 -0.001700339777314746 
-0.005528988057141346 3.920630335991888e-06 0.02000610851976122 3.548304069330516e-07 -6.472171008022034e-07 -2.40223207186356e-07 1.617360283473306e-07 -1.15096275316761e-07 1.073560371661345e-07 
-0.02689589078659505 -0.01059189280148976 -0.00719135414265505 0.05475949807999304 -0.004984461350966834 -0.002277488398938172 -0.02029341703740137 -0.001810598155574601 -0.003351690107407065 
0.002416735458200047 1.573070662496988e-06 9.929537461674893e-08 3.848529295106666e-07 -7.08555658943525e-07 -2.661493153043319e-07 2.996424235025653e-07 -1.273993168317799e-07 6.728008338141908e-08 
0.004536305113224582 4.652045738508909e-06 9.152554747766059e-08 7.783102697686338e-07 -6.758320623231075e-07 -2.458983291302665e-07 4.323292982852623e-07 -1.15528163151245e-07 1.048766101510677e-07 
0.002416735458200047 1.573070662496988e-06 9.929537461674893e-08 3.848529295106666e-07 -7.08555658943525e-07 -2.661493153043319e-07 2.996424235025653e-07 -1.273993168317799e-07 6.728008338141908e-08 
0.08594813762694464 -0.04709936826014949 -0.01790782199587043 -0.01298829836137613 -0.02716217258904889 -0.0135180612656332 -0.03992913358893645 -0.01134873815449288 -0.01562905142132895 
-0.0479449175268372 -0.004118309855120881 0.02019449841884287 -0.005920738825431123 -0.008562818709184223 0.05634547062900424 0.03018047384166739 -0.007763509572549469 -0.002618170862810569 
-0.004662372459810117 5.039763215840828e-06 0.0172874514350028 4.828483412483081e-08 -2.964249029937684e-07 -1.94140731082926e-07 -2.422942765852053e-07 -9.261407031754045e-08 1.258765974160641e-07 
0.004833470916400093 3.146141324993976e-06 1.985907492334979e-07 7.697058590213331e-07 -1.41711131788705e-06 -5.322986306086638e-07 5.992848470051306e-07 -2.547986336635598e-07 1.345601667628382e-07 
-0.02548419369795398 0.01477940128476956 0.02756858830346295 0.003534519465109647 -0.005754140148607347 0.03481136445834713 -0.01505830968498299 0.01424192663626656 -0.009153204867796553 
-0.04037288907716279 -0.006389515522138383 -0.01248225488906863 -0.01077386982934568 0.05211979396635957 -0.009340681149980462 -0.01826278203853598 -0.004793047344718956 -0.003569148841699604 
0.0224610084499242 -0.001419809260376242 -0.0005938951674336161 -0.001597620813686587 -0.0019698921558377 -0.0002033927914034891 -0.007104150159637583 -0.0002145909838750768 -0.0002528601009953178 
-0.06059740121700599 -0.06078917987866824 -0.0158629825534795 0.008671627719748973 0.006333958465371245 0.04875396469525355 0.02027942435581956 -0.04104493883948279 0.003391581017073643 
1.017054612603462e-05 1.226283094936544e-05 1.002196250787561e-07 0.009777141246455385 -7.087636112223213e-07 -2.672386070090545e-07 5.51506659201761e-07 -1.092707046883248e-07 6.064368051574301e-08 
-0.02448919059030872 -0.0006114771294501959 -0.0006862171542842012 0.03914306854557003 -0.0002381553941361401 -1.171410417576185e-05 -0.0004931079123581084 -5.467253577309284e-05 -3.648276132743363e-06 
-0.01038716279581792 -0.0003947930201480503 -0.003216179932200046 -0.0007364194398549904 -0.00148354616163328 0.01884108885076774 -0.00461830058596303 -0.001218622615701603 0.02230541684228704 
-0.1062113979296147 -0.0006839398334215676 0.0256896719946659 -0.006032258251557098 -0.004833463999426128 0.1319208041212272 0.008197882591987287 0.02062094260012369 -0.00123392257482606 
-0.03501295264715332 0.02389649717112314 -0.009967439797192742 0.02068193439768678 -0.001571678729213862 -0.004049384518976826 -0.002309060001536092 -0.003568067719454839 -0.003802424686999011 
0.01709423227407441 2.267592868103361e-05 -7.796486322400849e-06 -8.957609202174969e-06 2.707907455557276e-06 -6.043161155849461e-07 -0.0001042557021125136 -3.168901981220571e-07 8.738540532550631e-07 
0.02418908341972818 -0.00782265054209568 -0.004578786616684921 -0.00378810780703549 -0.0001032084290290596 -0.0001356814278981912 -0.002283560690272632 -0.0006820540909721793 -0.0002666777725587501 
0.0005772550036638545 1.053655891146066e-06 5.676601132117552e-08 1.928894031954329e-06 -7.000948707464415e-07 -2.659809421329297e-07 4.589664356946433e-07 -1.204016687329964e-07 3.304714227947275e-08 
1.017054612603462e-05 1.226283094936544e-05 1.002196250787561e-07 0.009777141246455385 -7.087636112223213e-07 -2.672386070090545e-07 5.51506659201761e-07 -1.092707046883248e-07 6.064368051574301e-08 
0.004363321523315893 -0.0003475045279154349 -6.400923050516483e-05 -0.0005902818649967049 5.247691853702718e-06 -1.877871928992233e-06 -7.265263858952583e-05 -1.616101739770507e-06 8.915466744836282e-08 
6.90133803463539e-05 5.487971354552536e-07 -1.722917534098648e-08 8.773106635569662e-08 -6.838439182029398e-07 -2.606608834068905e-07 1.042617958327428e-07 -1.246725499047466e-07 5.438442447484847e-09 
0.02585314317681341 0.0001622429533483918 0.01509222946728955 -0.01384176494459268 0.004616685088424078 0.009001860312025212 -0.02773984126511149 0.05082374065242667 -0.009873702694590871 
-0.007206334109601557 -1.189231253949503e-05 -0.0001376222739346154 -3.419172536126382e-05 -9.587492249037608e-06 -1.865862808811089e-06 0.0137213105970612 -8.363795002981987e-07 2.656915366569393e-07 
0.004536305113224582 4.652045738508909e-06 9.152554747766059e-08 7.783102697686338e-07 -6.758320623231075e-07 -2.458983291302665e-07 4.323292982852623e-07 -1.15528163151245e-07 1.048766101510677e-07 
-0.03807297006789984 -0.01621197331315967 -0.01690834342872877 -0.02595327072930761 -0.00179130125311716 -0.006271851798612942 -0.01791025125882264 0.06736592145068433 -0.01189978173748327 
-0.0002762188939113808 0.01710000743877196 -0.0007016561060730503 -0.006223337051967977 -0.00110282013628795 -4.35880156191836e-06 -0.003455520553712089 -2.523227534707365e-05 -7.283890101700356e-05 
-0.02129211607817102 0.01239464722828215 0.01641418832831757 -0.01293453921270579 0.07157977541782605 -0.001430199144035916 -0.01599307294092417 -0.004214828212432079 -0.0005136253307449725 
0.004733953299831966 4.607477209905393e-06 -2.641521895952035e-07 -2.235868414634369e-05 -5.787181348923577e-07 -2.16532821076675e-07 -4.752020007019738e-07 5.485249394179749e-08 1.450945748752907e-07 
-0.02416538695223608 0.01016474506757136 -0.004651723577351627 -0.02034529812300243 0.05090680283474787 -0.009687744609969183 -0.02523989364433785 -0.005302454078657552 -0.003750491091146852 
0.02010115776423329 -0.03296552762843893 -0.02627759689371283 0.03701647299577922 -0.009691015920100358 0.002212595615144396 -0.04247932380770396 0.01832190827147046 -0.01716607342445497 
0.004463478711799851 -3.925598732661631e-05 -0.003289723018030127 -0.0001792127544222226 4.755815631347866e-06 -8.038249101589624e-07 -0.000429072065099106 -1.754226937280962e-06 6.182647439980388e-08 
0.004733953299831966 4.607477209905393e-06 -2.641521895952035e-07 -2.235868414634369e-05 -5.787181348923577e-07 -2.16532821076675e-07 -4.752020007019738e-07 5.485249394179749e-08 1.450945748752907e-07 
0.004871980060524674 5.705071480815899e-06 -2.986105402771781e-07 -2.21832220136323e-05 -1.946405971298238e-06 -7.378545878904576e-07 -2.666784090364875e-07 -1.944926058676961e-07 1.559714597702606e-07 
2.034109225206924e-05 2.452566189873088e-05 2.004392501575121e-07 0.01955428249291077 -1.417527222444643e-06 -5.34477214018109e-07 1.103013318403522e-06 -2.185414093766496e-07 1.21287361031486e-07 
0.001695124360930809 1.798045025468865e-06 -4.702749379986795e-06 -4.419245077663289e-06 8.755294024639454e-06 -3.996406902241511e-07 -0.000816675690591867 -1.624409829803254e-07 2.285564389992248e-07 
0.03179719894621647 -0.01323036999484514 -0.008356949928123646 0.004625387711358877 -0.004172154265841391 -0.004011178975271282 0.004081354571966437 -0.00897244345595573 -0.005858092753680524 
0.007951338546961086 -3.417200445495435e-05 -0.003291299544469948 -0.0001809165451963019 4.613553204256375e-06 -1.185349016682842e-06 -0.000449818943725776 -1.94227752681012e-06 2.420357274983002e-07 
0.000516887465027137 6.515316081999899e-07 3.974778478763778e-08 4.162086532414127e-07 -6.960105615463433e-07 -2.64827378896343e-07 6.805469029426644e-07 -1.260611119935485e-07 2.434359990174558e-08 
0.003502384787195269 -1.858216770484541e-05 -6.771489226366287e-06 -7.477163128611538e-05 4.703016952119788e-06 -8.674537798173587e-07 -0.0003078847509632206 -5.931340689983077e-07 3.836441955555053e-07 
0.002416735458200047 1.573070662496988e-06 9.929537461674893e-08 3.848529295106666e-07 -7.08555658943525e-07 -2.661493153043319e-07 2.996424235025653e-07 -1.273993168317799e-07 6.728008338141908e-08 
-0.005499022011485124 -0.0001352278371270386 -0.0001172755264572906 -8.761322645053796e-05 -8.886624948015124e-06 -1.413420870402206e-06 -0.0003706913611734443 0.02526012618981658 -2.414133999672639e-06 
-0.01224459529515436 -0.000305738564725098 -0.0003431085771421006 0.01957153427278501 -0.0001190776970680701 -5.857052087880926e-06 -0.0002465539561790542 -2.733626788654642e-05 -1.824138066371681e-06 
-0.0471024373033035 0.04685191699201116 -0.003041121167968306 -0.007866204911069196 -0.0001416075778011627 -0.0009295121526922145 -0.007354393899636879 -0.001125468424954299 -0.002433454471429026 
-0.01478144532498337 -0.01952787358562389 -0.01800914659445985 -0.0136225696698563 -0.01056310837760112 -0.01309295314429854 0.04946061259703774 0.02548131184016245 -0.00991734003025164 
-0.004741893011010621 2.296041291144028e-06 1.25874955244603e-07 5.508712965075499e-07 -6.984916155116006e-07 -2.644153339313585e-07 0.01054492101861234 -1.258745026510164e-07 7.628927439135274e-08 
0.004363321523315893 -0.0003475045279154349 -6.400923050516483e-05 -0.0005902818649967049 5.247691853702718e-06 -1.877871928992233e-06 -7.265263858952583e-05 -1.616101739770507e-06 8.915466744836282e-08 
6.90133803463539e-05 5.487971354552536e-07 -1.722917534098648e-08 8.773106635569662e-08 -6.838439182029398e-07 -2.606608834068905e-07 1.042617958327428e-07 -1.246725499047466e-07 5.438442447484847e-09 
-0.02134625544738801 -0.002341606352192742 -0.001856889358197148 -0.004067564794575301 -0.007717826486816406 -0.001192487542593415 0.02427691756927215 -0.0003630202714373182 -0.0002682707637815119 
0.01884138135032424 -0.007812200854490795 -0.004577085818876973 -0.003785326228602733 -0.000104426643889428 -0.0001364574964875652 -0.002255622754355214 -0.0006822223564314107 -0.0002669526729041772 
-0.02448919059030872 -0.0006114771294501959 -0.0006862171542842012 0.03914306854557003 -0.0002381553941361401 -1.171410417576185e-05 -0.0004931079123581084 -5.467253577309284e-05 -3.648276132743363e-06 
0.007719044625728555 -0.0001074761386115628 -0.0001210339018936914 -0.0002476532045842174 -4.307853822678237e-05 -1.565495218648526e-05 -0.0005245627521225094 -4.760242774534993e-06 -4.524418005708779e-06 
-0.01155808832186316 -0.01008043144863834 -0.00882582811632001 -0.006077318645986473 -0.006712441610171239 -0.007235686994351937 -0.007755423355771618 0.03076782798615234 -0.004959063421477154 
0.0005772550036638545 1.053655891146066e-06 5.676601132117552e-08 1.928894031954329e-06 -7.000948707464415e-07 -2.659809421329297e-07 4.589664356946433e-07 -1.204016687329964e-07 3.304714227947275e-08 
0.001772028751644249 -1.123333644437591e-06 -5.130316944069067e-06 -4.422717171140622e-06 9.067061575902417e-08 -2.141000971504415e-07 -3.773239283362793e-05 -1.676590625065296e-07 2.628024537412937e-07 
0.005040733715463706 -3.820233143547025e-05 -0.003289666252018806 -0.0001772838603902683 4.055720760601425e-06 -1.069805852291893e-06 -0.0004286130986634114 -1.874628606013958e-06 9.48736166792761e-08 
0.004363321523315893 -0.0003475045279154349 -6.400923050516483e-05 -0.0005902818649967049 5.247691853702718e-06 -1.877871928992233e-06 -7.265263858952583e-05 -1.616101739770507e-06 8.915466744836282e-08 
6.90133803463539e-05 5.487971354552536e-07 -1.722917534098648e-08 8.773106635569662e-08 -6.838439182029398e-07 -2.606608834068905e-07 1.042617958327428e-07 -1.246725499047466e-07 5.438442447484847e-09 
1.017054612603462e-05 1.226283094936544e-05 1.002196250787561e-07 0.009777141246455385 -7.087636112223213e-07 -2.672386070090545e-07 5.51506659201761e-07 -1.092707046883248e-07 6.064368051574301e-08 
0.05046109365515844 -0.0005247943778795322 -0.0006380887551283648 -0.00126920073846473 -0.0001541056329614357 -8.107224576399539e-05 -0.008339543594755616 -2.493830075353724e-05 -2.102219495554931e-05 
0.01669642624960067 -0.003209010976444914 -0.0005204884816181563 -0.001648071633223914 -0.0001004522063832061 -0.000376127616316852 -0.004081171742453804 -5.986450659433935e-05 -9.599823094405679e-05 
0.02362272939010087 -0.001618282839643943 -0.0004898660492680919 0.007938296229854017 -0.001970754220432338 -0.0001739525378263366 -0.003957276451558627 -0.0001327785416708758 -0.0001970205657878797 
0.004151970038011674 0.01380870433914749 0.05262772778763081 -0.01418288525345716 -0.01797124870008873 -0.001545321163929343 0.02433976589917495 -0.0006813223881800739 -0.0005313914284356831 
-0.022778527898125 0.02418997290489887 -0.009624431439675719 -0.008666741121553623 -0.00145189226853457 -0.004043260228281936 -0.00206305755201624 -0.003540622180863604 -0.003800661192613154 
0.004733953299831966 4.607477209905393e-06 -2.641521895952035e-07 -2.235868414634369e-05 -5.787181348923577e-07 -2.16532821076675e-07 -4.752020007019738e-07 5.485249394179749e-08 1.450945748752907e-07 
0.0001064711558315335 1.076759498586575e-06 6.855093233328344e-08 1.418059822242744e-07 -7.025079980879297e-07 -2.66856582524192e-07 1.151424589197329e-06 -1.276596417222858e-07 4.073862188771121e-08 
0.006826208982271315 -0.0005311960094247181 -0.0003415626008094781 -0.0004843064674220353 -0.0002513554082063108 -0.0007144309052625296 -0.005045558928812089 -0.0001098841340613663 -0.0002388039353905936 
-0.04124224775627851 0.04144555634496221 -0.01777928747909387 -0.02011553009717651 -0.0174784912367162 -0.009727070665751153 -0.02320958909200635 -0.01268581039637922 -0.01817275603275493 
0.008702572752742482 -0.0005079183265651592 -0.001038075607620492 -0.001950700961030826 -0.0002567225115028295 -2.570078856360449e-05 -0.002778839878313318 -0.0004379852142412278 -2.378741751316205e-05 
0.03101474979957098 0.03051801479521617 -0.02966012475064282 -0.03685159429773212 -0.01804203657369688 -0.0120069806390101 -0.03766494716274478 0.003665205063517716 2.885923391214637e-05 
0.00229634035907831 -3.46543322232425e-05 -2.445912059368438e-05 -4.103017223529805e-05 5.295546259701183e-07 -1.984662626658169e-07 -0.0001950927545855695 -9.369760888577301e-08 1.951141638309273e-07 
0.0005772550036638545 1.053655891146066e-06 5.676601132117552e-08 1.928894031954329e-06 -7.000948707464415e-07 -2.659809421329297e-07 4.589664356946433e-07 -1.204016687329964e-07 3.304714227947275e-08 
0.01611917124593681 -0.00321006463233606 -0.0005205452476294775 -0.001650000527255868 -9.975211151245962e-05 -0.0003758616353747191 -0.004081630708889498 -5.974410492560635e-05 -9.603127808633626e-05 
0.005933602914777432 -9.249358861228689e-06 -1.678279198500633e-06 -2.277638713160313e-06 -1.616396193807683e-07 2.505803270707627e-07 -2.715312721864246e-05 -8.246820266693396e-08 3.046823877764342e-07 
0.006826208982271315 -0.0005311960094247181 -0.0003415626008094781 -0.0004843064674220353 -0.0002513554082063108 -0.0007144309052625296 -0.005045558928812089 -0.0001098841340613663 -0.0002388039353905936 
-0.009613594670681286 -0.005475656143874016 -0.00893285174783455 -0.008798996327651069 -0.0006873389395838907 -0.002333706283616965 -0.007531710729781743 0.02202891664985422 -0.004039997078843268 
-0.01031733829527645 -2.646365707762334e-05 -5.443931041704976e-05 -0.0003841356398490993 -4.216029067541617e-05 -1.646572540050267e-05 0.02179764056621231 -4.2648432382463e-05 -6.002212835097229e-06 
0.004389941280482612 4.507006297235492e-06 -7.160318897580728e-07 -1.095895444796639e-07 -3.29310449460772e-07 -1.982134167960471e-07 -5.267891446756301e-07 1.816190338774076e-08 1.38407082567989e-07 
0.0003032583372762478 -0.01281965917356714 -0.00856961041544611 0.01192536377702253 -0.007137233887737819 -0.003522502935090912 0.02018012683804522 -0.002472232678174209 -0.003690509882171717 
0.009619699632684666 -0.0003573792177266508 -0.001464950762564685 -0.002828579564088711 -2.083638803621267e-05 -8.061567055197075e-05 -0.001319980867455683 -1.479771322024674e-05 -3.402385886826087e-05 
0.004363321523315893 -0.0003475045279154349 -6.400923050516483e-05 -0.0005902818649967049 5.247691853702718e-06 -1.877871928992233e-06 -7.265263858952583e-05 -1.616101739770507e-06 8.915466744836282e-08 
0.004536305113224582 4.652045738508909e-06 9.152554747766059e-08 7.783102697686338e-07 -6.758320623231075e-07 -2.458983291302665e-07 4.323292982852623e-07 -1.15528163151245e-07 1.048766101510677e-07 
0.002416735458200047 1.573070662496988e-06 9.929537461674893e-08 3.848529295106666e-07 -7.08555658943525e-07 -2.661493153043319e-07 2.996424235025653e-07 -1.273993168317799e-07 6.728008338141908e-08 
-0.02765060374347394 0.0303963528193149 0.008916970614922266 -0.01048458771234687 -0.00113577775004042 -0.001273208890185168 -0.00533234318079689 -0.002814476172285206 -0.001891666425791098 
0.01050322933184963 -0.002126576410282596 -1.096159071809492e-05 -6.867807138417541e-05 -3.466454838067661e-06 -8.850661207793865e-06 -0.001251955453123078 -0.0001269097521297066 -3.17972926140879e-05 
0.0005772550036638545 1.053655891146066e-06 5.676601132117552e-08 1.928894031954329e-06 -7.000948707464415e-07 -2.659809421329297e-07 4.589664356946433e-07 -1.204016687329964e-07 3.304714227947275e-08 
-0.02317815880161671 -0.004004300884422787 -0.003114410114020638 -0.004683772515670457 -0.002905094023054299 -0.001575517487410132 0.04678392683470124 -0.0007173248774232616 -0.001124229252839563 
0.0001064711558315335 1.076759498586575e-06 6.855093233328344e-08 1.418059822242744e-07 -7.025079980879297e-07 -2.66856582524192e-07 1.151424589197329e-06 -1.276596417222858e-07 4.073862188771121e-08 
-0.007742659467227856 -0.000261529826472511 -0.0006892244258035351 -0.001266369578572826 0.01550097410576102 -0.0002772311347490003 -0.001856693446968643 -0.000829321918171779 -8.597892020673616e-05 
-0.01752985044397637 -0.0004812971488303538 -0.0006860284628188722 -0.001294247711691615 -0.002260650441575296 -0.0001034215232634456 0.02893883368662639 -2.290889116999661e-05 -3.615585706242906e-05 
-0.005395267314035313 0.02584696888673073 -0.001091583862368555 -0.002360860124326929 -0.0003606019034417313 -3.438880009630759e-05 -0.003300524685409226 -0.0004572827047081651 0.02285653109596479 
-0.02355121865165175 0.02342595849600558 -0.001520560583984153 -0.003933102455534598 -7.080378890058136e-05 -0.0004647560763461073 -0.003677196949818439 -0.0005627342124771497 -0.001216727235714513 
-0.01645826037772517 -0.001244073998048003 -0.0004763509531285813 0.008094095293252515 1.033072541077225e-05 -4.160183403609379e-05 0.03373285324519069 -0.001596824615477096 -0.000172735334560137 
2.034109225206924e-05 2.452566189873088e-05 2.004392501575121e-07 0.01955428249291077 -1.417527222444643e-06 -5.34477214018109e-07 1.103013318403522e-06 -2.185414093766496e-07 1.21287361031486e-07 
-0.02134625544738801 -0.002341606352192742 -0.001856889358197148 -0.004067564794575301 -0.007717826486816406 -0.001192487542593415 0.02427691756927215 -0.0003630202714373182 -0.0002682707637815119 
0.000516887465027137 6.515316081999899e-07 3.974778478763778e-08 4.162086532414127e-07 -6.960105615463433e-07 -2.64827378896343e-07 6.805469029426644e-07 -1.260611119935485e-07 2.434359990174558e-08 
0.005249153122569091 5.150059532846985e-06 -4.751137298485124e-06 -0.0006532352811887657 3.83963089328849e-06 1.137094416090122e-06 -2.46913965130432e-05 1.640709927145951e-06 5.455756975714247e-07 
0.01351358749394013 -0.007811105141943307 -0.004576982462531175 -0.003785279297025822 -0.0001037452810251904 -0.0001361964235591934 0.008288513455558349 -0.0006820974972721634 -0.0002669061656721352 
-0.01896757204404248 9.184165164576113e-06 5.034998209784121e-07 2.2034851860302e-06 -2.793966462046403e-06 -1.057661335725434e-06 0.04217968407444935 -5.034980106040655e-07 3.05157097565411e-07 
0.005933602914777432 -9.249358861228689e-06 -1.678279198500633e-06 -2.277638713160313e-06 -1.616396193807683e-07 2.505803270707627e-07 -2.715312721864246e-05 -8.246820266693396e-08 3.046823877764342e-07 
6.90133803463539e-05 5.487971354552536e-07 -1.722917534098648e-08 8.773106635569662e-08 -6.838439182029398e-07 -2.606608834068905e-07 1.042617958327428e-07 -1.246725499047466e-07 5.438442447484847e-09 
0.004733953299831966 4.607477209905393e-06 -2.641521895952035e-07 -2.235868414634369e-05 -5.787181348923577e-07 -2.16532821076675e-07 -4.752020007019738e-07 5.485249394179749e-08 1.450945748752907e-07 
0.008725761872253832 -0.001127823811271968 -0.0009022009762535852 -0.001806396015528727 -0.0003341240933132975 -0.0004792438438075939 -0.007302341926346464 -0.0005359135112515976 -0.001182213328680687 
-0.04700157274357316 0.04081704598017092 -0.01866067330707976 -0.02174016264438123 -0.01977862478192743 -0.009855429892987388 0.00480152350027883 -0.01273366994951234 -0.01821365462905977 
0.007296259453452166 -0.0001985357699107111 -3.072784380256301e-05 -7.489170147598163e-05 6.098239553298349e-07 -8.757136119859754e-07 -0.0003793637879160469 -8.663729392979702e-07 1.924313548613132e-07 
-0.01244707047009856 -2.990787152134315e-05 -0.0004903960072491422 -0.0006479842818359084 -0.000300492593575408 0.02262451287194992 -0.0005495442679781435 -2.09911086051421e-05 -5.622997348585652e-06 
0.00229634035907831 -3.46543322232425e-05 -2.445912059368438e-05 -4.103017223529805e-05 5.295546259701183e-07 -1.984662626658169e-07 -0.0001950927545855695 -9.369760888577301e-08 1.951141638309273e-07 
0.0032359291321726 7.792585700323191e-06 -3.886052514570308e-06 -1.102852775771649e-05 4.078248906635805e-06 4.094095236222899e-07 -3.144009734858823e-06 9.77645710463796e-07 2.27955772988543e-07 
0.02002447084686468 -0.00653061655334132 -0.007912967044583313 -0.01418319922779994 -0.00460415340023601 -0.003595027257445951 -0.01518191023175086 -0.003895318228333532 -0.004034791630334461 
0.05479511721936309 -0.04426791328977225 -0.03666531014736294 -0.04384334049856404 -0.03040032906544326 -0.02686760199602897 -0.05717179946725402 -0.02717506442436301 -0.04041628490422475 
-0.007742659467227856 -0.000261529826472511 -0.0006892244258035351 -0.001266369578572826 0.01550097410576102 -0.0002772311347490003 -0.001856693446968643 -0.000829321918171779 -8.597892020673616e-05 
-0.01644864496293167 -0.01020956557154104 -0.008942739429288034 -0.00616319508662824 -0.006724139848614199 -0.007238161956565775 0.002420086133417223 0.05602744744172062 -0.00496124236243577 
0.007004769574390539 -3.716433540969081e-05 -1.354297845273257e-05 -0.0001495432625722308 9.406033904239575e-06 -1.734907559634717e-06 -0.0006157695019264412 -1.186268137996615e-06 7.672883911110106e-07 
-0.01383324884134723 -0.000234909849738391 -2.746109611890488e-05 -0.0002772574306100318 3.67808851105732e-06 -7.258489251241419e-06 0.01741183481954366 -0.0003624323714444814 -3.481774103376028e-05 
-0.0206346765905529 -5.292731415524669e-05 -0.0001088786208340995 -0.0007682712796981986 -8.432058135083233e-05 -3.293145080100533e-05 0.04359528113242461 -8.5296864764926e-05 -1.200442567019446e-05 
0.005933602914777432 -9.249358861228689e-06 -1.678279198500633e-06 -2.277638713160313e-06 -1.616396193807683e-07 2.505803270707627e-07 -2.715312721864246e-05 -8.246820266693396e-08 3.046823877764342e-07 
0.01361752901544891 -8.928119595594532e-05 -0.0001488073454295722 -0.0009589708825520495 6.289264207082441e-06 -3.124080799203804e-05 -0.003048237400426399 -8.215771874470982e-05 -5.509510257505715e-05 
-0.02355121865165175 0.02342595849600558 -0.001520560583984153 -0.003933102455534598 -7.080378890058136e-05 -0.0004647560763461073 -0.003677196949818439 -0.0005627342124771497 -0.001216727235714513 
