solver_type L2R_LR
nr_class 5
label 3 4 0 2 1
nr_feature 24095
bias -1
w
0 0 0 0 0 
0 0 0 0 0 
-0.6855702303562529 -2.008238201200535 0.8514511776073276 -1.624905433497508 -0.7922500156144222 
-1.795058729272037 -1.909399674807563 1.898681627557555 -1.88863443844797 -1.76038738411893 
0 0 0 0 0 
0 0 0 0 0 
-0.6855702303562529 -2.008238201200535 0.8514511776073276 -1.624905433497508 -0.7922500156144222 
-1.795058729272037 -1.909399674807563 1.898681627557555 -1.88863443844797 -1.76038738411893 
0 0 0 0 0 
0 0 0 0 0 
0.7206624373784287 0.5254801650623702 -0.5158733279646328 -0.9348278915056112 -0.7337704087622731 
1.219187958219921 0.4583115312257339 -1.55679383744433 0.662586667853957 1.845358730216206 
-0.5763881194926149 0.8864370074895782 -1.034069275005293 2.048076601403173 -0.09526953331880786 
0.3528349406713068 -0.08381540335449668 -1.170503397845711 0.8685605366872166 0.5679125564871665 
-1.164126670280578 -1.621682243642494 0.8307960568954115 -0.7490055804341769 -1.05455262823806 
-2.469083440117738 -1.125471156825061 1.648575073517625 -1.917945206757367 -2.481812631654827 
-1.788216478626167 -2.200869080592627 1.629982752889554 -2.460511613971616 -1.77102562517792 
-0.5224270347249038 1.264099220562975 -2.051798608650521 2.491809787778465 -0.06610420383638994 
-1.798799075309559 0.2711267136492332 -0.3124841498139186 2.773819254419984 -0.2414100343930721 
1.69236367943243 0.5458350104246534 -2.948394350045754 0.7133728740530424 2.514936572481085 
-0.2312120550116865 1.454893640811417 -0.9664611890267424 -0.1560091563450907 -0.02622051348604956 
-0.1061774411114877 0.2567956937026645 -0.1876184220170806 -0.03254431285992928 -0.02501110633322558 
0.5891809003039691 1.069661045146507 -1.349544282988103 0.3116590208709625 -0.03151173729035574 
-0.004831458774868501 -0.5910330695897965 -0.2380011230495334 -1.459768858795666 -1.145610264901789 
-2.59416579475979 -0.7346689008124595 1.526964155542608 -1.756870453168847 -2.787339390206395 
-1.675610329417392 -1.5251838796561 1.361622741388776 -1.935433277849426 -1.757646114613824 
-0.06621991106222702 0.462767621671365 -0.5028744091394819 -0.007852633839651174 -0.005083723373388911 
-0.003355096019356045 -0.01203618623638838 0.006566081520216087 -0.002789212752007496 -0.001901820263967417 
-0.01256252843320935 0.1164921160200184 -0.1116482386610686 -0.07221433082006992 -0.005018813949841607 
-2.158336383599172 -2.428736193457293 2.729819070868328 -2.448215842126473 -2.20914149063537 
-1.411547577337792 -2.544461781575099 1.852749449971044 -2.323859720755947 -1.933757447149632 
-1.956371613073074 -1.372062265301494 1.717763216065407 -1.76807778140906 -1.665769367419811 
-0.3106523487037102 -0.3914148309128189 0.477804702706293 -0.315178407096169 -0.1740480361008252 
-0.2562151417762279 -0.4512118114414978 0.5432779618753582 -0.1610894322015424 -0.1606155588450889 
-0.2683220567404353 -0.03213663990631112 0.4794388459175767 -0.02689746447998008 -0.3499456668037918 
-0.1864976130036219 -0.2929680400178661 0.3612517173212462 -0.1482324438229261 -0.1547919372793562 
-0.2564739142495014 -0.1235130957566678 0.2579654226122898 -0.09527238798848654 -0.1313198679548715 
-0.3174563283939834 -0.3324664501778148 0.4264675359136616 -0.289593663201682 -0.2499079046885466 
-1.212267893625329 -1.163688538393731 1.002978329684093 -0.5444802428247912 -0.05740563185101619 
-0.9356102674580594 -0.7422309249090683 0.93183102828252 -0.6643412304489588 -0.8367530056361497 
-1.328023347645427 -1.04304272341136 1.533221161173626 -0.8860422525806053 -1.182908027825008 
-2.795002356210803 -3.439237979650204 3.5171737056412 -3.25787004543563 -2.787346100883128 
-2.137484208174679 -3.154144650350273 1.743775189023453 -3.176846964914924 -1.273179903757247 
-2.035565934729362 -2.432025951956923 1.959776524977828 -1.985746808634393 -1.84823799582627 
-0.003168561530246626 -0.0007502377761640228 0.08260223685492098 -0.001140018693200869 -0.1100565904025368 
-0.004144203120674036 -0.002692050286802986 0.0141721780979382 -0.01128794756034102 -0.004870990415365237 
-0.002376872739383932 -0.001913064620152205 0.002327039894331969 -0.004314172766256355 -0.005897629392840019 
-1.770404934249787 -1.802117765973045 0.123205748965188 -1.091875480793935 -0.333569229580426 
-2.540025454312261 -2.63236524619566 1.321599836079075 -0.5988780437997726 -1.78441090689734 
-2.050373249125761 -1.950684967697931 1.352152386013494 -1.419692731937379 -1.365796847934275 
-0.05169681747349513 -0.03087973901602836 0.2478339956685528 -0.1938655142839177 -0.06825040635343702 
-0.02086078837379665 -0.0536287612840895 0.1455865350920403 -0.06436226196680828 -0.06923223106011327 
-0.05197775665256037 -0.03430055286865379 -1.172325930244877 -0.04518121024409433 1.397659796563911 
-0.1596668136509744 -0.316281635877082 0.8684702367933178 -0.3445900459848242 -0.5844292031200136 
0.5308657177822201 -0.1275242138750567 -0.2741292164982241 -0.4388403932665251 0.3201692694561276 
-0.3921830226006974 -0.2022559136065193 0.9914570266312804 -0.5651195326962021 -0.3078781429066928 
-0.003740413302135689 -0.00113536360951333 0.04697802938331648 -0.01392522040103485 -0.02231569613928162 
-0.000419976302897779 -0.0001534526554100414 0.0008103270138696007 -0.00178127940749904 -0.0009008017154155054 
-0.001543719989745914 -0.005203995685971581 0.01546476381282199 -0.007796128814991598 -0.007824217211567381 
-1.644397501792899 -2.325863885184347 1.999068273693657 -1.950902746056978 -1.705749263728668 
-0.4273844105519036 -0.3267933713784895 0.3061543935381224 -0.3526141774056513 -0.3723069916254935 
-1.801516877403098 -2.216787894682748 1.791896370185731 -2.116436847752775 -1.959741652888963 
0.6535902609894165 -0.42019990900211 -0.5005940857828353 -0.2019162745349224 0.5846719646238503 
-0.3977589161434977 0.2092334319638938 0.3525181357149619 -0.4346355674646179 -0.4757589408879816 
0.3296250273577315 -0.09577834126907994 -0.3476234943031934 -0.1630527887955539 -0.2445080918396376 
-1.339188270279418 -2.218009439615456 0.7592789892708169 -2.071810049585203 -0.8653315434638011 
-2.390308837683036 -1.622992167127727 1.598300190330043 -1.330789661022733 -1.479454365124711 
-1.679895518228816 -2.486541084443741 1.546794535650837 -1.762738992665977 -1.937081285078498 
-0.1026031595205499 -0.2969354192562368 0.3328106969657752 -0.1650164480155054 -0.1231614535415964 
-0.4326813068798249 -0.2334602039355896 0.1419526782206147 -0.121976964181495 0.1987780872923017 
-0.2556364621181267 -0.03851172129481135 0.3688263579701802 -0.09400566395788341 -0.3194775413381157 
-2.064396056274275 -1.726489784681283 1.962383449182198 -2.065530045552252 -2.030615541989091 
-1.569629118427961 -1.875234128577471 1.644735409924031 -2.045208309430305 -1.695332881313866 
-1.651432105984719 -2.14672570307602 1.560161351187259 -1.804624597148799 -1.512147450982232 
-0.4269317014249407 -0.4474261545245534 0.8013444500776986 -0.2405885209995269 -0.3234814782067575 
-0.2280034247723922 -0.3447322013639922 0.4602168247878051 -0.102253996592023 -0.1078850055522705 
-0.5732212962662117 -0.2896350071641478 0.7774891137757779 -0.1837867295795332 -0.2747689107596297 
-0.005505054276244602 -0.009477774199010355 0.03656706819505602 -0.007633816842704628 -0.007805518636008299 
0.8070208833246185 -0.03424593858321848 -0.2894243724220163 -0.01553067331764808 -0.5657332147044823 
-0.04874646301361063 -0.01253077618081357 0.04818858543827251 -0.007945824479538021 -0.01871809504175034 
-1.629466388664008 -1.974066301226715 1.499950858501031 -2.105638655227589 -1.436203339173365 
-1.096050349231844 -1.722548869121554 1.073127857863135 -2.066315904269233 -1.165435150367707 
-1.206742700499598 -1.907138158618777 1.303076932264496 -1.648804902229098 -1.677663602400537 
3.020737075402624 2.92553677200647 -3.541133833496035 0.5170567728212786 0.2405282853318882 
-0.2024230310448069 1.624819874708561 -1.344135209918644 0.05484550326937519 -0.3373283476670057 
1.59141070585512 1.53251076287143 -1.740526540152501 0.1069383836974474 -0.8362010105043212 
-2.197782406219482 -2.606733684349343 2.889722383085116 -2.559901675686947 -2.139011074503565 
-0.8625337843750014 -2.918419827829995 1.137979998693531 -2.360577317000825 -1.199089170669584 
-1.373446083264586 -1.093168867351451 0.9006243315423941 -1.252246410473072 -1.329335079293599 
2.054399156227526 -0.2106193536363515 -1.733512567875015 -0.06586964434839963 -0.3545214022641182 
-0.4190993241567678 1.588832856701096 -1.225869947915492 -0.1820121694132382 -0.1138186711679225 
-0.101330286812372 -0.2444878699591225 0.2373685269589344 -0.04515762469419672 -0.1148896567361535 
-2.003569949150825 -2.622742631835906 2.698252220925802 -2.5379435709836 -2.079632118907296 
-1.277179676845601 -2.181996092113856 1.290451999644888 -1.902198765127377 -1.32343445243649 
-1.640468661556101 -1.588374675313522 1.507904380835053 -2.471435456613453 -1.546370166275312 
-0.3858349842021384 -0.4691155474977621 0.7434311528846403 -0.1907302522822949 -0.1808281745107775 
-0.1877039269880753 -0.2762693531544902 0.4966851582937912 -0.1570301075748123 -0.08608761103586346 
0.4807336463943645 0.4186503872766597 -0.347230803825434 -0.2375041522831521 -0.3115145480886979 
-0.2633305804760452 -0.2126681995022082 0.850630590854863 -0.4092373304710755 -0.5811276372263492 
-0.06949280231405373 -0.05876971190865848 0.198314631930164 -0.1261567472913318 -0.05434177410235136 
-0.3020082295623915 -0.1381279419150943 0.5829454477031025 -0.2307800631189558 -0.3836058461224709 
-1.047958176472548 -1.806490826525396 -0.2853514839263515 -0.335050855911076 -0.008097770458947223 
-2.278984898575338 -2.170581187232703 1.640320321614452 -1.195860941300836 -2.621120044261524 
-2.088114270410549 -2.405212568484628 1.381390847278026 -1.229543843841654 -1.143673448411293 
-0.2296504795823985 -0.2073631153501223 -1.682492140695576 0.9716892159035552 1.488655598883132 
-0.008816018489826905 -0.1387077275487355 -1.192552712244736 0.8144625072210167 1.059965014113205 
0.01392643339957844 0.2066476894278266 -0.3942925296466673 0.2519124926614628 -0.02639367835016767 
-2.307207682228854 -1.915607912993971 1.76006998951068 -1.873755998854519 -2.182558749049732 
-1.601681471202014 -1.908923417028675 1.419264386439631 -1.7208848566724 -1.405240550716106 
-1.729730140109168 -1.896584333177014 1.509201745803548 -1.469751450825002 -1.533242144142813 
-1.343061657625978 -1.359170436070958 1.591627947375428 -1.43391706827485 -1.397766154455533 
-0.5414972789525173 -1.416723752227738 0.6829570876882033 -1.458835629537601 -0.7269307309306927 
-1.135509300186335 -1.413378567208078 1.142204891076586 -1.178432675742216 -1.179241780941069 
-1.493129579706245 -1.374935293387757 1.683068063239666 -1.44093178823798 -1.435257595678151 
-0.7459377558147395 -1.503852847580363 0.8980282810826777 -1.517491124281969 -0.8372506521655985 
-1.142064662917906 -1.420109680275917 1.158884249705313 -1.183923012459712 -1.180446404673333 
-0.2514671589852753 -0.1021816456144126 0.3161717754526844 -0.07648822081166641 -0.07361363867824525 
-0.1517544397633636 -0.1251731386008463 0.3466255013055686 -0.0350825507044742 -0.03194626027317166 
-0.1317326836520177 -0.01618901536658267 0.1709085809228672 -0.01181158567975265 -0.09091915146929465 
-0.06372362957389306 -0.06398906028606711 0.11705883682312 -0.04576951890040119 -0.05233916726774794 
-0.4813773519403044 -0.04451228127266569 0.1843713939590046 -0.0825995078806265 0.2134182438015098 
-0.3578459033966531 -0.388925121041257 0.8285741173948399 -0.2356081431418295 -0.2000249128110599 
-2.637079468771091 -2.958341980990472 2.496243696056461 -3.014305704833995 -2.733529698422023 
-1.333645677281471 -3.209520380217408 1.462507280858206 -2.962541069616504 -1.618816054199627 
-2.099262947253203 -2.388041373374693 1.94904185139511 -2.09773518521477 -2.076987453205713 
-0.03331553588071338 -0.00174576686233507 0.0483507166305305 -0.002802960824990037 -0.01408298054648372 
-0.05545203405011793 -0.01045977181807944 0.1093863159888099 -0.01248845771957072 -0.006687219890070421 
-0.001630102459669699 -0.003078827972776841 0.003881688630369169 -0.001133794372188166 -0.00169605609175408 
1.975852126678251 -0.8612637123394024 -1.549075944286004 0.09915248013277719 -0.01666391289729891 
-0.6914369954633159 -0.7533527290330501 -0.02385367470132107 0.5360988667363715 -0.3655700724666858 
-0.06790630969027167 -0.9729816092524302 0.1293744111522963 -0.552020879802119 -0.1837669009433387 
-0.6156853777842283 -1.325936288718756 0.7987307260909104 -1.2667979481854 -1.504930527478019 
-1.525645956604765 -1.430682427999893 1.500722963948841 -1.385879769440784 -1.501471361363266 
-1.718342101212732 -1.718932738767938 1.558328722488456 -1.285226850435287 -1.55735403609186 
-0.004388233092144258 -0.001566315497564185 0.01832657764376321 -0.01050502217687073 -0.01678421767529588 
-0.1146938521013796 -0.00283315031668333 0.0812794499953402 -0.01240945629909368 -0.01229657137500235 
-0.05737692396737869 -0.01099688955565558 0.1106110825099422 -0.01322275400558541 -0.008626978739801783 
-2.380224266492231 -2.577952660473836 2.095934134578837 -2.30274243459724 -2.056665907462223 
-1.468051531547989 -2.128047694419975 1.540109219301784 -1.949327585591227 -1.666087486861046 
-2.335503738904412 -1.914357661170353 1.731636536422364 -1.95858647267815 -1.678610440454805 
-0.4113336941241167 -0.1960087630338736 0.5607934239767989 -0.2358424488551713 -0.2828912598558386 
0.5165142253492963 -0.2849772083485286 -0.5713240072025405 -0.2541834347328106 0.6716382543704663 
0.04529628742154258 -0.1496740636683853 -0.6159857187473383 -0.04806034115147614 0.7873925746191801 
-0.1430216797369427 -0.09653466083638224 0.8060834623462814 -0.6138417305820256 -0.4421930920816539 
-0.2261018290934143 -0.03049263372713282 0.2773359792047135 -0.1152493970589826 -0.04320556020301719 
-0.12198413031977 -0.08589845344809875 0.6227870775956085 -0.2245812116397856 -0.4664672932375912 
-0.8105614120590385 -0.4227568634787904 -0.6621022758756749 0.761011026400272 0.9495563301282668 
0.5625658842745458 -0.6094693300135317 -0.3660928843194947 1.030838174582278 -0.6003922917698493 
-0.2017109502679605 -0.534893715284772 0.2935861569852068 0.7474833298530175 -0.5336554239955515 
-0.751493322446931 -1.159098029517063 0.4324776553503485 -1.700268255405739 -1.176376016807306 
-2.087771624102297 -1.162349347221963 1.422862682247482 -1.478482057027764 -1.740644168685246 
-1.50128353325291 -1.552189697755166 1.254005623653659 -1.725519418193468 -1.874505190703412 
-0.04891592606356407 -0.02729261739726849 0.3245145287376443 -0.2369900660370776 -0.07676387217064889 
-0.004274091274483285 -0.004075591173295608 0.01553588733892611 -0.01332885856360702 -0.003202771116532744 
-0.1065960380357511 -0.006404668951251964 -1.033982320994538 1.596926348879544 -0.2092292459328562 
-0.4257314628351845 -0.2951523593746995 0.6234990868167373 -0.2163263579016305 -0.2900632732628668 
-0.5009804969429378 -0.4538066572293015 0.6879917460631436 -0.2396730623538873 -0.1617716274095032 
-0.2312198492207339 0.2277877742300095 -0.02621584219034734 0.07817311509875409 -0.2768517974186307 
1.954764145855138 -0.5080931904733236 -0.8013009032055209 -0.9705754383964678 -0.8356970241198732 
0.6763375402275815 -0.1990185851568229 -0.4709426385068475 -1.238123278948263 0.508528972664589 
-0.7294589929590597 -0.8440970877419108 0.3203676895048785 -0.07296261594631209 -0.1641109801238687 
-0.252847775710945 -0.01815171350966753 0.3431123691646675 -0.007090284107243853 -0.06506960347677357 
-0.01141167170857085 -0.03877413403453041 -0.3195669328027419 -0.02896455194096794 0.5996469891998626 
-0.03613062040746885 -0.004013531465350901 0.03232525694127849 -0.007241560260613676 -0.01314087296953194 
-0.1185846209462704 -0.04914843692628338 0.176253954862297 -0.1159843866955196 0.04214332126342833 
-0.07673114077800959 -0.03592898093013593 -0.4482448380174497 0.2967853623497653 0.2394356051289614 
0.4278083450926462 -0.08058267142826971 -0.2018820395998243 -0.09190234022937244 -0.09044177433501781 
-0.06895698440545951 -0.002396605160398103 0.05757129444771004 -0.001802352450824447 -0.01771908993980027 
-0.1930836944896282 -0.009116204823889173 0.2781630225887976 -0.02301991719995476 -0.1623487230400901 
0 0 0 0 0 
0.4759888262638953 -1.241570744122276 -0.1332905123649537 -0.3184847202842422 -0.4185892138031214 
-0.3648540451664072 0.3135824940787965 0.1500069660499962 0.1582616549767405 -0.5174086894891335 
-0.483064525921892 -1.145577814457533 0.356139656037389 -0.6547266115617016 -0.2671697017895468 
-0.4317557998587147 -0.2163315668303997 0.6586448841958993 -0.1691292151645801 -0.2281180001175777 
-0.1008239581027106 -0.08141113913305825 0.1946921712108314 -0.04118020330171503 -0.03983271784845307 
-0.2575120085490847 -0.2414067444267129 0.4839284895896743 -0.103118319259337 -0.2214403099473885 
-0.03658468848693489 -0.004681715104177001 0.08827179937669777 -0.003954178009144428 -0.02758814190237986 
-0.02128145245969988 -0.008100713973212792 0.3192966061441138 -0.03279058858368297 -0.1898707818822562 
-0.01343462316471646 -0.01073558540495391 0.02223088014463704 -0.004454219732766098 -0.004133538841421327 
-0.1249903559411098 -0.07811099094434518 0.0893873094464014 0.6036691033845835 -0.5894450985090063 
-0.1071286157945824 -0.05337224987782306 -0.5747044126741484 0.1479119307985411 0.5446209424768776 
-0.2054870612703554 -0.07156100178245779 -0.2085937699817031 -0.1353321953494004 0.6629143399087237 
-0.3936440649766382 -0.2412668192350862 -0.545727206557497 0.7713853213252485 0.2729959224314632 
-0.3413659376136081 -0.2020469442624259 0.1830615963426653 0.008867276028867551 -0.3419100294970938 
0.04151925497040219 -0.2858516477792095 -0.6857264195962745 1.060098853411327 -0.3808948669583235 
0.5570587559542748 0.08675818038569284 -1.385083063142623 0.7331961320745056 1.906765592334254 
0.608750545354208 -0.1351625076753527 -0.732282351725317 1.531636854262621 -0.4888463716840988 
0.1407583054949142 -0.2606685003101464 -0.7299058935784922 -0.233349428984003 1.319746596872623 
-0.1624375221765167 -0.1201811304123139 -2.802960914367429 1.780641626761578 2.746921326115989 
-0.01564895642008479 -0.1623651382888184 0.3092297631814478 -0.4301121774099491 -0.1834208289500697 
0.2566393670625717 1.029340031738594 -1.673984757830913 1.304802090231334 1.412015373169867 
0.7370869685286423 2.51795074133788 -2.194199363783147 -0.2727527826970501 -0.2982721924837599 
-0.4742047854348262 0.9158959153842934 -1.104078530679542 -0.08193189319098719 0.8652728459149379 
1.217516774843288 -0.2768334659722533 -2.049118758742646 0.472839263912038 2.026583955255614 
-0.8556800082250072 0.3113384444109414 0.3968728440976211 -0.8589018841042654 -0.6357509075005131 
-0.5839285228694818 0.1314418566283151 0.4210028170951644 -0.9120691380771585 -0.2505444787594514 
-0.668170227226322 0.01648610605955259 0.2452832605625736 -0.9400958541659249 -0.124327484878657 
-0.1512045832341794 2.542510788346925 -2.100984216523881 -0.07918675576078768 -0.1019507890466011 
-0.009942191221910757 -0.04026632879347605 0.04425219604497446 -0.01623151810237878 -0.008391712227222643 
-0.08741047799219165 2.108506953042911 -2.269039787155291 -0.02460435498512268 0.6132504445342908 
-0.2982363137017152 -0.5881183983063248 0.8241366288005689 -0.6821143778432506 -0.3620356513984812 
-0.5664660485632667 -0.3088148668641896 -0.3213079769440579 -0.5309218798619952 0.6579229772387303 
-0.5736266448378496 1.174703898724227 -0.8147153455329095 0.244832065126841 0.5821410416058254 
-0.3963520774134895 -0.3434606195550697 0.7466868814048427 -0.4020786984760588 -0.4016906120806221 
0.2672282203005836 -0.3146450044602444 -0.06463544206123044 -0.4453351800252679 0.1510405784596237 
0.2362722423781531 -0.1338451113424185 0.06213971766491008 -0.7016252271399965 0.1555198693917345 
-0.3498281062178447 -0.1014327931074033 -1.252513096295175 -0.04788955717765973 2.214414056866961 
-0.2293528363926204 -0.3739440579724649 -1.16907773970464 2.072874471692514 0.4665671711486347 
0.4725418967113874 -0.04614947085905808 -0.3479714091562087 -0.02350470776668583 -0.07468361790037029 
-0.09478952637641891 -0.14069238587206 -1.12346817955404 1.747230960467827 -0.04993100827166852 
-0.04399254925205379 -0.1060498723818927 0.1127258731342976 -0.06206523321516354 -0.04502038746663985 
-0.1372944963191988 -0.03103183595927828 -1.151405098690844 -0.01439822269540127 1.447537353786977 
2.52650788096642 1.171954064628135 -1.937571658724928 -0.4346173843753702 1.337037137084846 
-0.1376678129258624 0.4219507602704332 -0.2358445283976959 0.5336654735796744 -0.5158322319093709 
0.2352717691210355 0.3538274129956234 -0.1798293533731368 -0.223419529878458 -0.5572460245400341 
-1.735195853537739 -0.6727311811201013 0.8756442005287267 0.475274052901758 -1.254758803559781 
-0.5330598416201568 -0.445623759405348 0.6093729269086295 -0.5538248175188107 -0.5835149708140962 
-0.6421450567218792 -0.3452689683974229 -0.26437599061301 0.3466994932221594 -0.5114567672946341 
-0.1182851004894032 -0.03903212430719954 0.2383806349764021 -0.05478738939069834 -0.04955027416493138 
-0.02103032600536322 -0.03970698917089373 0.04966087935910486 -0.02743537853997229 -0.02243664823260568 
-0.1945275140183519 -0.02404959628529982 0.1805557902709616 -0.01583321853376908 -0.03789373053620291 
2.019710167456829 0.7341625414440517 -1.471643023914198 0.1341996691538818 0.7786665016175635 
-0.8326710593037686 0.4353660264233542 0.07254707053718976 0.04762585917049641 0.2593496210164638 
0.03222239196620257 -0.4923342381429158 0.1335836999798236 -0.4020461942746558 0.2925454160712646 
-0.1332226485844457 -0.3506093279505962 0.5101486667403443 -0.2102920766368733 -0.206322738571542 
-0.3845272431582806 -0.4503695507872947 0.3469419547832279 -0.2332324419639384 0.4018981189544362 
-0.4370218904025306 -0.01372309680679586 0.5541542123636096 -0.02967267908701357 -0.2290028180320003 
-0.1873846105112426 -0.3338910526426894 0.4851145459921769 -0.1410323661279549 -0.1309909753477777 
-0.06074581557960677 -0.1013392527851736 0.2088122994711472 -0.05602933255771476 -0.03878802111125575 
-0.2420409269384431 -0.2134194378805652 0.437959699725092 -0.09466642447691463 -0.1623171100769966 
0.7499744968254661 2.135044343052162 -1.467731672474917 -0.2517993225605473 -0.2341199703239905 
-0.01810499805575851 -0.01973491521369623 0.04839753242123934 -0.04305254473391426 -0.01456230927403426 
1.09346191672916 1.296227535981564 -1.23555730119984 -0.1349286434909431 0.4604504444167304 
0.2900979500309769 0.1500527725811294 0.04510731350414414 -0.8135815092384345 -0.8578871527562427 
-1.024191319162584 0.5175638802930399 0.0006946506256920483 -1.01102401422156 0.7382947628659589 
0.6908471639002511 0.7955366213813094 -0.7273948997917644 0.3797550847571381 0.3620702227598071 
-0.003634990239904732 -0.002189364951224717 0.1505099342978805 -0.01424838638783784 -0.263291616141452 
-0.004779418138095307 -0.002244347355132942 -0.4708533967648365 -0.1656119885959714 0.6637992614358089 
-0.008674125397849269 -0.006249506974370469 0.02403210131783166 -0.009918489558850685 -0.01125056014098531 
-0.09712654623764687 -0.007498241883886591 -2.449767543697617 1.090197544083154 2.152073240537168 
-0.153202473962704 -0.01059044654105978 -1.042214750924397 1.501005376715234 -0.01559657710250746 
-0.0774431617773798 -0.01893013880147201 -0.9080035375063634 -0.03466680283225987 1.028414654965475 
-0.09828117359078635 -0.03635094780536263 0.4519653676295886 -0.07158734498477221 -0.4302156381165426 
-0.07125150584365515 -0.02507320824262432 -0.2120396652897582 -0.3261852587217262 0.5791984940399685 
-0.05113017471249437 -0.04231680865143429 0.1488570139548769 -0.07351906106527717 -0.08005534480062593 
-0.4863655267622934 -0.1900246696595954 -2.072329255733504 1.187697024110536 2.091506244834702 
-0.3504878349363327 -0.1198073190225359 0.007606161005855775 0.4298051030124838 -0.1024740655853844 
-0.3534043953599292 -0.1051189945207651 -1.115599082796349 0.7931108874037425 0.8689328219966432 
-0.2697604415247414 -0.1797106712985468 -1.201995294347348 0.1258524808587203 1.610020211224549 
-0.1947454128668138 -0.09003972574321521 -0.5768245372649983 0.46852894198812 0.2120800762583323 
-0.5463576983107269 -0.1489458643882964 0.379522705527271 -0.3624400064713447 0.4378689508652785 
-0.06449930444141291 -0.02212928449073036 -1.483386137908714 1.138129649119734 0.8746380858341213 
-0.01062649368182819 -0.01360620612399809 0.03136579880388467 -0.03531802923344866 -0.01669939504500037 
-0.04205085451148809 -0.02926153668195592 -0.8773908973538649 -0.1110927494247898 0.9009260344818963 
0.4729549399397336 0.8549182792024642 -2.243651408280592 -0.09226947188655972 3.576235800802714 
0.2564408478366124 0.4073852232098873 -0.818836000882096 1.220027917863078 0.1758196775270671 
1.573514929043085 -0.1600135467164998 -1.303271177542674 -0.1242855623101352 -0.200624173362125 
-0.2646710500759791 -0.1977581861617533 0.6509015195370171 -0.3341258967820139 -0.2302286396482684 
-0.1730002795289923 -0.1404143707721892 0.4204415672258741 -0.09790292973986356 -0.08875091590891326 
-0.4229792707918404 -0.05954006828028087 0.5676554196536175 -0.06667283130564852 -0.3505323411780076 
-0.1249447125222398 -0.03284289726383569 -0.05361393794502772 -0.1573835666699265 0.233846266287196 
-0.07752664188202528 -0.05086557249889611 0.4149738667684237 -0.3137463463436409 -0.1935151696039731 
-0.2313895530614494 -0.02234732589788559 0.2879962377239796 -0.04359027511484732 -0.1063719973614004 
-0.04737361383028034 -0.03965223936772058 0.1583243329428118 -0.01619397251059712 -0.01977050465191334 
-0.1275379500386283 -0.0483270689359593 0.5237850147650691 -0.04570845903796202 -0.1152467786226055 
-0.04617201358448296 -0.004737524505515857 0.1675209920237831 -0.00602433456158254 -0.09766573356259334 
1.203689756117414 -0.1342135304802316 -0.8298575040934369 -0.12982940269321 -0.2342807721271506 
-0.05695897178611434 0.5653465941582508 -0.3259074245820182 -0.1344483182733619 -0.1030594308906664 
-0.1180695911725004 -0.06720467018222472 0.3538111990694031 -0.06176259548952721 -0.1222718491995538 
-0.02603358629027638 -0.1787217090477667 0.5084416090577939 -0.3053242570059171 -0.1374408991947654 
-0.04611043655349305 -0.009386115212661321 0.05683092319927256 -0.02347024903954339 -0.005845758291496275 
-0.3086393073680919 -0.06270745075632214 -0.3677888663266619 -0.1169429918441622 0.8617996867898939 
-0.3234510952417885 -0.8380103304926242 0.8867612593577134 -0.5852127879027996 -0.4141295805403328 
-0.0191239529867993 -0.377533525643247 0.2003340469646095 -0.4870847206772466 -0.2846052944201027 
0.3713071600394744 -0.205443526439622 -0.247092204132434 -0.1722189723445879 0.5476192870898154 
-0.1225464129056674 -0.02042832829546999 -1.720089673640672 -0.01989561304085353 2.297126125144874 
-0.06202960891905762 -0.04306836641662025 0.1217561967631933 -0.08910826876191034 -0.01678472217366068 
-0.01721840391793809 -0.01243512734196473 0.03881891481806193 -0.009763716478583609 -0.02002315806002273 
-0.1159932985241328 -0.1024579945749048 0.2609818070018966 -0.05418494614563862 -0.03749076555341908 
-0.05178760584541225 -0.04824474430295483 0.08878758581747086 -0.01995052167895251 -0.01551773683834506 
-0.1765334486155009 -0.02600679484596879 0.2552357874541182 -0.02024073094302474 -0.07329556187856905 
-0.1822509970218531 -0.005828341322831144 0.159717592793823 -0.001237808812148547 -0.03357608938947641 
-0.003223357643056237 -0.004627777050778569 0.003891845144240171 -0.002821620746605586 -0.002807932581545772 
-0.02630450968476872 -0.004254361338867852 0.02455377855346329 -0.0009128772127995724 -0.001573559688517228 
-0.2412383337389176 -0.6616035851109412 -0.2647660354177286 -0.1263489734154414 0.3858699259815908 
-0.2206278281427031 -0.340003363026735 -0.02643332131990579 1.070859008714937 -0.6620809769559509 
0.205612320159188 -0.5843132686411836 -0.2619642677642822 -0.2052848780385559 -0.1792185506942109 
-0.02502590648373867 -0.007297559922305627 -1.059940844862761 -0.03951758847202511 1.090452573348775 
-0.01318077105624868 -0.007048609840649324 -0.7170307242273488 1.104177739379599 -0.4366271645367735 
-0.008896581346865783 -0.002438978904521139 0.01558439595860761 -0.002092222205270482 -0.008000258283515886 
-0.4186026682594505 -0.6269400627706744 0.7689489872316023 -0.3905288650569422 -0.5620010075840891 
-0.08969682612278539 -0.4023179021598807 0.5875516616324141 -0.315421791604363 -0.8276206639064132 
-0.07043689453660168 0.1811654121638879 -0.03546779313116494 0.0376044145722648 -0.7850221192284963 
-0.429053170738631 -0.3405483375138201 0.6985500527846562 -0.3468749355236448 -0.6353885378920043 
-0.2143646100333991 -0.3259944716578874 -0.2052332785359356 -0.5711220031879803 0.3782712687065217 
-0.3655882837959374 -0.8497742530823287 0.754304640002316 -0.4601161432254128 -0.4884500646013708 
-0.1365881654045991 -0.08051419873872709 -0.157000179901963 -0.2173802340896163 0.3859530576312478 
-0.08247175311011999 -0.04746223412831415 0.5578413554438536 -0.1693707160268934 -0.5349301179838809 
-0.2068791848451169 -0.08467930870883175 0.3581636134723442 -0.1067226870863842 -0.1235443898456607 
-0.1630034497029004 -0.02672396325524102 -1.596560450368036 -0.0137178138368733 2.188954638237913 
-0.01258969951333057 -0.03684088919755458 0.06724365143657628 -0.02303315747351308 -0.03175294753262294 
-0.01676186546372398 -0.0132605674220024 0.02514425371305352 -0.005972347231747783 -0.01383662208660358 
-0.1516611991271773 -0.06662986847866374 -0.2564854631075612 -0.1680885378153297 0.3035558127417091 
-0.08989513563565152 -0.03676022764703871 0.2455946858616558 -0.5555561004015365 0.0922659879379855 
-0.126993757952514 -0.08000243948592385 0.3153644946362385 -0.1048111148464615 -0.150316837058246 
-0.1263436929716963 -0.02692062499917056 -2.2198384472745 0.9179170625091264 2.38602770695557 
-0.009788243754287341 -0.02023616265964196 0.01978069616682604 -0.01610651357628903 -0.01870246856154087 
-0.1448321348585464 -0.006260371163846744 -0.7817318706393468 -0.009352491445876094 0.9490938644039428 
-0.2103953295050018 -0.05095696965663413 -0.9744084920260498 -0.04933453526646318 1.514351167082118 
-0.04868922976299213 -0.07954985812290151 0.09781853242714618 -0.03242616354936057 -0.03167317372268533 
-0.08210511220914793 -0.01384514646250215 0.1597413242522548 -0.05662912391045469 -0.05689668370838386 
-0.08153889725135781 -0.1216326855725724 -0.4670084212949502 0.9676186839499179 -0.04409706256916866 
-0.06281524269738568 -0.02444744360802238 0.07889672040713779 -0.01562608866874259 -0.01767766074516178 
-0.09755756990584827 -0.0200440911038352 -0.4215617229379529 -0.00574952749731246 0.5083044738399778 
-0.3001110222268323 -0.08407176537767597 -1.160937461555214 0.8206902592843793 1.411145592709969 
-0.08435847199897724 -0.08032814377843082 0.1764725247742239 -0.07566865787715589 -0.06548229311022308 
-0.3025409295434951 -0.0187578989036296 -0.4632392143869294 -0.01593798552304284 0.8851433854851809 
-0.01384074765062163 -0.0001991585018884461 0.01149228071180678 -0.000251886612574017 -0.002255520738388646 
-0.03049548693105933 -0.0008815501252517404 0.0611783823331782 -0.003887462640568923 -0.03639263370039962 
0 0 0 0 0 
-0.5588416295638345 -0.04475797442900795 1.055211586898637 -0.1171169835039182 -0.9780759425821094 
0.3451645021477248 -0.2349452310644861 -0.6955588327547951 -0.8218524697613979 0.9529699759568016 
-0.2333683243466613 -0.05291588390124912 0.2491496139170887 -0.06157154382604552 -0.08080075300088699 
-0.08842218631503482 -0.03965661334975228 0.4295841099791012 -0.08106052934875745 -0.3460751986145018 
-0.1236409187596527 -0.05004845392920094 0.07882682549403811 -0.3446893581550848 0.3679647508951212 
-0.04127486323257912 -0.06352139975096403 0.1320148321230564 -0.08714291273693246 -0.07367338262672524 
-0.01144843195099981 -0.00184601000015441 0.04035605073759295 -0.004147980065820396 -0.02553628337739494 
-0.01222226576313594 -0.007370881311067492 0.03794746952752388 -0.008877504248911148 -0.009553534210807627 
-0.0009939478322177906 -0.0007167804272836407 0.003521568403453451 -0.007173484407921124 -0.007186486334621238 
-0.1947236475173278 -0.08391686929370519 0.6033601593139404 -0.1764090706210066 -0.1553651222965408 
-0.05846323694960384 -0.1228804921133475 0.2430348407558018 -0.04944447358442573 -0.03508235064163034 
-0.1383171272169212 -0.04632470980267534 0.5055488847597528 -0.08902723164799647 -0.3258986288192419 
-0.01399104440380176 -0.006401201821484658 -0.5750970051529862 0.7339692302881354 -0.1140302917547506 
-0.05021903863051078 -0.002033493588891884 -0.6968056356001274 0.8599833942349567 -0.003906060734250291 
-0.01656194993312707 -0.008505679345806923 -0.713534320366135 -0.01644475179787155 0.7341523224008426 
-0.2692372128680539 -0.3270621373465623 0.3970621774053041 -0.4472582859186803 -0.3693337175244755 
-0.2475035152651233 -0.3193654922999767 0.5195878678018995 -0.4202225370730872 -0.8188178850431348 
-0.04439162501043817 -0.5654312282374608 0.2855519575942083 -0.487926844871078 -0.3026415270380967 
-0.01472476156828402 -0.04688585994046001 0.05981096365580867 -0.01820163558872847 -0.02000132891892056 
-0.04548647641379274 -0.03824480170354454 0.1037099306160236 -0.02287433086156326 -0.0374890858986479 
-0.0835101677225434 -0.001219849161307031 0.08402172984599086 -0.002369415695370521 -0.01641502586735291 
-0.4296097485868257 -0.2289963038864794 0.6607702911753278 -0.1521155267100044 -0.2142648685159276 
-0.08160239681027789 -0.1763573450760943 0.2299818479846101 -0.07064817974426789 -0.04185592539363091 
-0.1458923335863569 -0.07990210867644972 0.3084916877155855 -0.1401484973874442 -0.09508364463689488 
-0.01236890454225693 -0.006769443868666727 0.105698715944832 -0.03764290901947463 -0.08434539198005292 
-0.02649586832599351 -0.01271339462597226 0.1704124628714097 -0.09416071612081768 -0.06464815381525341 
-0.003015329623277643 -0.01645853332531122 0.04490177058170148 -0.01383868231089196 -0.01378689601986322 
-0.2263356306743204 -0.1037591150514529 1.191654549715031 -1.047953837033764 -0.7384582149753565 
-0.2841900624453774 -0.07669561329277477 0.410085055462598 -0.2125434687042893 -0.07199162710211154 
-0.3534490434331209 -0.1441024753267736 0.16535622462123 -0.5320595602183981 0.1240213402499231 
-0.1717247875903299 -0.07208914334159888 0.3020352911675542 -0.03792361052580779 -0.08474949435977205 
-0.05296787502237228 -0.03615159110219376 0.1203034628232266 -0.02936138340008343 -0.02207674652504748 
-0.1212629229264675 -0.05208629688720455 0.2247299707533809 -0.04505603088669331 -0.06989689854480194 
-0.02123456960755285 -0.005038225180643939 0.1738268272398571 -0.0190682296769361 -0.1270838461456917 
-0.006373116055668529 -0.004030748967440152 0.3703838323537221 -0.1822174965908784 -0.1772658644942927 
-0.004266455966398812 -0.0126103325618524 0.01035134639783368 -0.01338893559364828 -0.00788308657695341 
-0.03280757727214564 -0.01989528361034352 0.1596444742849414 -0.01737063263763368 -0.1245008343224298 
-0.03521176130914546 -0.01290897028513155 0.1543097678905108 -0.0500238844868634 -0.05738417641871255 
-0.03084744915362021 -0.0110954644284823 0.08268918455116619 -0.01632942558131209 -0.01736274255077723 
-0.01155958068722337 -0.007868246560735538 0.0678188338737124 -0.03466995156592208 -0.03320397171853476 
-0.01722170022301727 -0.002120686874891732 0.01504123512674693 -0.003413626496603856 -0.00125564984837444 
-0.09387432869858214 -0.002603873113570445 0.1396350594326244 -0.00755636126690791 -0.05192229174247502 
2.338783921373748 -0.4305635848560003 -1.577622086084683 -0.18184608654504 -0.238118659351025 
-0.1234303834570941 -0.1749716766850428 0.2332356118178478 -0.07813669541731419 -0.03262935800921345 
-0.4552630583570382 -0.3728832547538362 0.7020240130494567 -0.1095630685207698 -0.1993989467479868 
-0.1763937436950214 -0.08692070824990225 0.2850766935886601 -0.04053183839196112 -0.06243041253195508 
-0.02741433466750291 -0.04235908957094301 0.05616266496445781 -0.01247471397384116 -0.00566143632067347 
-0.716831494083527 -0.01998179105868138 0.5867134447070274 -0.007746036274851306 -0.06570222100351233 
-0.009408313882167502 -0.01411385043985813 0.02098464010319766 -0.007521538889072726 -0.01006695145647347 
-0.006909306097512177 -0.00342816680369674 0.01121050383333378 -0.005898259424852081 -0.01342619742001048 
-0.03694145624636781 -0.07130297277734086 0.1130502498637144 -0.04490742593128583 -0.0679833266925363 
-0.04584923795703896 -0.02282529848333247 0.1796803598917737 -0.122292357344276 -0.05615828721587091 
-0.01730748527192166 -0.05178204870922595 0.1074621894873079 -0.04206441810373217 -0.04640928988450607 
-0.05968455227900633 -0.01830546928921478 0.2206065575212496 -0.0234215129824056 -0.152904272718889 
-0.2047146582288824 -0.1256366040759196 0.7073433486945027 -0.1976592471548219 -0.1150731759733238 
-0.03445132611719821 -0.1356977484970069 0.2491773986404117 -0.1125082668173096 -0.08955231357987567 
-0.160830198459168 -0.1007115359118467 0.7539137715447376 -0.105872247770243 -0.3839319300423947 
-0.05403265345934353 -0.02229528475320109 -1.803562913677401 -0.1388420973044238 2.074255141860912 
-0.04161725482056446 -0.01656210610538419 -0.01694824956082659 0.2351528491379158 -0.3776477548017902 
-0.02012297805173197 -0.0309951244277266 0.1309473246687403 -0.06481595171741517 -0.08073331974827652 
-0.06372439903198289 -0.03477647033425132 -0.1729040824906117 0.3088507918822914 -0.2617027260490298 
-0.02767988783941678 -0.01710874380588863 0.04189949997772527 -0.04221349490566623 -0.01391379031567523 
-0.07560293161860035 -0.03971915275611023 0.1651309189680727 0.3823291287039474 -0.4633798984311736 
-0.05874572747045067 -0.1008843222937148 0.151205332626694 -0.1250442015903264 -0.07907632558840615 
-0.3655268228768381 -0.03096543606316906 0.3357087988501417 -0.06958914990474517 -0.1644872878508132 
-0.2809551068402473 -0.2561150065872274 0.5534282453264234 -0.2114383867644683 -0.3731675372246006 
-0.004852232240083037 -0.0005492428974808187 0.04494104424413053 -0.006742237526362199 -0.05440768275540572 
-0.01297762147090441 -0.001009074313608443 0.01777472647020013 -0.002705591700718631 -0.001041577716464303 
-0.002025656575549237 -0.0003642673602156103 0.005195127046169841 -0.007878193311898912 -0.008956733455134928 
-0.009919285203030726 -0.0004816422264016219 -0.7069844340089619 -0.001417104533619222 0.7020475674919541 
-0.004170349646668434 -0.0007924040782080972 -0.4548947598321832 0.7227629578910771 -0.1742585963270166 
-0.006488810701097053 -0.0005045377605813687 0.008887364812825116 -0.001352795968386215 -0.0005207890489421414 
-0.003355263634912066 -0.002294962220933817 -0.9039688460069604 0.884445778771707 -0.009771025908529175 
-0.001435087690051207 -0.0011991375183628 -0.6662428968617704 0.7694339998858942 -0.08538794952905322 
-0.04058293541142242 -0.001796424406202589 -0.6370696061851484 0.8129455001417988 -0.003958987894012325 
-0.4419330526255835 -0.3557061620724145 0.7188119301953919 -0.3111061937750295 -0.352428698425278 
0.8202557255741307 -0.5863465651073273 -0.4601985218918292 -0.4005474656271586 -0.03438186143122191 
0.1086728718712111 -0.7003336081552176 -0.2362865264616186 0.7763250541947154 -0.2375233185311559 
2.113145850292945 2.102764329237174 -2.239821931962338 -0.3947642964176116 -0.4677551479713328 
-0.1390017104830613 1.322218667732055 -1.153496201817425 -0.152631320003637 -0.07293766468277242 
0.2269136349053997 0.2199983107586362 -0.8399591469948281 0.9901399896282046 -0.3681609254659263 
-0.1163995652118143 -0.05862519031252632 0.5236349472168254 -0.1454774074427785 -0.4838724674125983 
-0.08703207980526667 -0.0541949237328507 0.283645882205258 -0.5683771282544069 0.09305930215922716 
-0.06871471789759052 -0.06658226613866615 0.1397575760431017 -0.05603727003997309 -0.08227813923728089 
-0.003374014484180703 -0.001197397062512473 0.0294409648956022 -0.001924560664090279 -0.02907682253344426 
0.5527179549592592 -0.01737960932065084 -0.2237751514843489 -0.01171096160509261 -0.008920202661851244 
-0.001052797707498339 -0.0002871241334896896 0.002680917970757876 -0.003274089814318316 -0.003608166068474505 
-0.558106157185459 -0.241580325512899 -0.6090603250105792 0.7047772219371187 0.4889571169268677 
-0.2747863864721191 -0.0831997345034135 -0.6683016005863367 1.303124272552505 -0.1606943678667535 
0.1518849364015268 -0.1152779922199993 -0.4944500066956475 0.147611208604544 0.3473301346109889 
-0.5261696267630431 -0.1268849181890189 -0.4569774675822264 -0.2632991378596734 0.5310794189934228 
-0.555473839324035 -0.2921369409314841 -0.3595561985100986 0.361644052942568 0.2340950720152368 
-0.6510731195656905 -0.2472266801945251 0.6657244586848315 -0.2536462748550176 -0.2652827069053113 
-0.1177467351052639 -0.04355059893170116 -0.6630581434595717 0.5424776907903296 0.4073710490139933 
-0.1093019053896577 -0.063221732255693 -0.1054173289887482 0.6352196386200412 -0.6430022186704266 
-0.1118570983784649 -0.04827516874004235 -0.3632940320162418 0.6769310866743544 -0.09199853684410626 
-0.07518131562109209 -0.004116371658919009 0.08033993898562657 -0.00599500937286722 -0.02335170949850756 
-0.05197991606688773 -0.006342640533391599 0.06641580639296317 -0.008154292304962018 -0.00826828722141594 
-0.003878136258878393 -0.002950430048197031 0.004291817930386179 -0.00401950823001798 -0.003649846334336915 
-0.02855150666228382 -0.003742137382951264 0.05042631327115768 -0.003176109938535879 -0.02149744251940456 
-0.002581384996485407 -0.003432683594487105 0.003327505946426294 -0.001442876524858373 -0.002612009731278755 
-0.00239897098025238 -0.003240250848469353 0.002872274367629007 -0.001364741233108539 -0.00250057690871173 
-0.03772434032290612 -0.004983300248462152 0.0662003521027765 -0.004230355882024536 -0.02846559110194317 
-0.003008712468393413 -0.004501572934469025 0.003752881366117401 -0.001857615411631797 -0.003327994809194608 
-0.00341446340362581 -0.004525614527140642 0.004365995885222245 -0.001914246880344609 -0.003469772682084067 
-0.1186113295420525 -0.0166989474228957 0.1882487724349171 -0.03621514455350844 -0.04902183163916887 
-0.01685163600072911 -0.03225060006202509 0.04635375425129755 -0.0177300653507338 -0.01279787355295569 
-0.07560233115949949 -0.01197888119006226 0.1138952087380061 -0.01994490845997542 -0.03538318029452455 
-0.0305784286932442 -0.01958320686543469 0.07059879526444386 -0.01456776053987919 -0.02154844979198443 
-0.01217459960609002 -0.0138635195754326 0.02518797881085323 -0.005049933248991201 -0.004458289140641753 
-0.02866228545359829 -0.002495523516628279 0.05011658264372767 -0.001724176822882206 -0.0303554981197592 
-0.2528748430913324 -0.07495874904955807 0.3460168889777855 -0.02282475525535562 -0.1133636898369075 
-0.132699110683521 -0.2021967108928915 0.3337285460994871 -0.06627472113793217 -0.04551189678682441 
-0.1087606210304068 -0.01937226444225673 0.1325012670698207 -0.009225478841312328 -0.04854289786411459 
-0.08493078374191966 -0.124211820632846 0.1962944552215848 -0.04992377451905725 -0.02869384970727781 
-0.05582427126282042 -0.03919187297176602 0.1536028459693767 -0.02860232398609302 -0.02796128076504625 
-0.1170280990402577 -0.02685094432259876 0.1825135907032591 -0.01670645833956794 -0.07280696247642779 
-0.1042929125300919 -0.03984338044386049 0.2000127761903677 -0.02746860521570465 -0.04860732742455334 
-0.02701300365436339 -0.05001200739713389 0.07089348966205283 -0.01503082115854781 -0.0134871446019574 
-0.09675071998382338 -0.01451556516032911 0.1192659703685952 -0.01055846130980256 -0.02376194618676342 
-0.1344946984900809 -0.1391167010229032 -1.933835621525848 2.311780850946703 1.401400036812021 
-0.04523486926469646 -0.08555291076922061 -0.4939862191901956 1.103135849320001 -0.09738882859481653 
-0.3418220695137911 -0.1739457687824099 -1.171114556514891 0.8854925034016866 1.656417498419376 
-0.004236924456720226 -0.001480789787277 0.03477754322293494 -0.002466244287960888 -0.02645839525159373 
-0.01184742247807841 -0.007354104194953961 0.04097953050666523 -0.005207261922107121 -0.003692275477621478 
-0.001052797707498339 -0.0002871241334896896 0.002680917970757876 -0.003274089814318316 -0.003608166068474505 
-0.1157876930878012 -0.02896088364489496 0.1519621436803321 -0.007685041335776069 -0.04282334279876446 
-0.01691838458724125 -0.0238414823307259 0.03348926833035505 -0.01050053465723062 -0.008314176585932311 
-0.05080320606146497 -0.01226063765128496 0.08773202461285151 -0.002259501561015528 -0.02514057699357106 
-0.02867133135695412 -0.01193832860576509 0.047277772399865 -0.003680650597676402 -0.01844088233406522 
-0.009386144157900185 -0.0117796006590675 0.01677187078039419 -0.00401611386891536 -0.003464406952881756 
-0.004905649581963285 -0.01471287287707393 0.01308768609194925 -0.002434246685699388 -0.003382840482797983 
-0.0110978720351511 -0.01285882014413379 0.1080981178094922 -0.05480131325185281 -0.006948448179539282 
-0.002765663880976837 -0.002195470348137239 0.003152863638346206 -0.0009413999002139588 -0.001621792998650899 
-0.01738787860668367 -0.002842255608261317 -0.7002698418139696 -0.001257866329880876 0.7357497490047075 
-0.03511310318081046 -0.02147390045543048 0.06804635339842925 -0.009823152207827101 -0.02380146579927163 
-0.01030684143002317 -0.01273397462215317 0.02580140874963781 -0.005195216653007069 -0.008643064915199538 
-0.01486412783954263 -0.003641821413616672 0.01867779076104603 -0.001819656453337117 -0.01239611332344761 
-0.08209247082444898 -0.00299283654429586 0.1383196436170234 -0.00129209587703123 -0.01379421876443503 
-0.011306304710952 -0.07979630265404974 0.1019565213817626 -0.006783053838389917 -0.004150195767078679 
-0.001623207969444783 -0.002202228546498138 0.001973020642094817 -0.0008817218781769038 -0.001718327562920304 
-0.2104351665833387 1.552638322338749 -1.101126962034579 -0.08877179243484437 -0.05311258084319244 
-0.1309102661739002 1.019440517334609 -0.7921694290611738 -0.08124036069860034 -0.02558809916891726 
1.300155035919509 -0.04950986654828766 -1.227395644683487 -0.02104339248458354 -0.1233908176868 
-0.1556782992036557 -0.03604211475768038 0.2029048783907471 -0.004307121211734547 -0.03677568673069598 
0.8289720249458226 -0.08294531776494822 -0.5923795880226885 -0.06503842735430311 -0.06599494434597902 
-0.01065184727570049 -0.02038196018379351 0.0313120520402196 -0.004617780287269681 -0.002085215859598587 
-0.5299340702055367 -0.337698423743125 0.8001608802829329 -0.1944233153200643 -0.3049235252718809 
-0.1518508764433471 -0.2189553211222083 0.3658586919079013 -0.0859533094976634 -0.05114277548577798 
-0.4348675716509613 -0.2233816596927477 0.5649995403304006 -0.1091855414213884 -0.2166681357035257 
-0.15781073183911 -0.06685962466573044 0.3058547419661719 -0.08387797449599402 -0.1354127173832635 
0.3080377186546226 -0.1400887830949927 0.04379037450110382 -0.1780113317878575 -0.1494248964662996 
-0.2980246134429151 -0.1777984103866601 0.5831268809989012 -0.1997174994009339 -0.3135750057894163 
-0.1941664162637753 0.8861687960730507 -0.6397689146971738 -0.06678610498556839 -0.05355606693826357 
-0.01761896031533094 -0.04268073980697611 0.07004694876154889 -0.02119627483871275 -0.01361614775897594 
0.5049604864814538 0.08871559424201768 -0.6883176901191387 -0.03166730425037387 -0.08116413815505474 
-0.9928759143296605 -1.144713632784008 1.447429474844546 -0.7900202554694526 -0.9882120944925626 
-0.08313577839782225 -0.9875386691804708 0.5788639639264209 -0.6564968971540479 -0.9564288513960575 
-0.2921252356473018 0.00422906491509327 -0.06896569229594279 0.2799194435547002 0.2331458785028395 
-0.1759542384411522 -0.1172243807319776 0.3538276677258215 -0.09046517479434717 -0.1421724815678351 
-0.0637554818031085 -0.05836134802729141 0.1746732739184138 -0.06001530028703241 -0.08574473106466043 
-0.1740979896222465 -0.112214725080337 0.2742952141105667 -0.06718290243341718 -0.1000565079648219 
-0.301583950486136 -0.212585267643899 -0.8797969740839934 0.5239254132525402 0.7598094495709851 
-0.9202433895616663 -0.2216571186375784 0.4792404791735552 0.8235859048156567 -0.2539358780791451 
-0.8963779600874369 -0.2846382565827147 -0.0142740116324504 0.5766213030398646 0.1689919205574137 
-0.3625223918792563 -0.2674585053291744 0.5766392464936229 -0.2998308127634844 -0.5299182723424257 
-0.5262683714608783 -0.4828603049108251 0.7851487808513444 -0.5748879676776956 -0.7272278992447124 
-0.05218698593421781 -0.3780695649171434 0.1151564858085338 -0.2376234930702227 -0.2510249953728638 
-1.214146904880703 -1.136939247432481 1.059132436812033 -1.455709630670401 -0.8912516488426726 
-1.430673210327165 -1.334976745360903 1.229569428831369 -0.9783702105676226 -1.101232201120481 
-1.352542370776301 -1.209199275804057 1.54912509090429 -1.293482303866298 -1.316646472890082 
-0.007446771422819356 -0.009834722294081364 0.02282158713300489 -0.02127230607677844 -0.02882706406201799 
-0.006033132692367545 -0.002048961527445717 0.01635810058257411 -0.02170182928932622 -0.01508443160978197 
-0.005538477105683243 -0.002252297333600684 0.01415784421642345 -0.009700504709491726 -0.01842167046246924 
-0.2542791450880098 -0.4196466322132181 0.713362315541862 -0.599034717746511 -0.4478880113973002 
-0.6510837744293297 -0.3032362564255741 0.7036373696926407 -0.3333115793157875 -0.2594963110063565 
-0.5019626679490319 -0.471537074560854 0.7517059765289106 -0.5728719040173706 -0.7175788410746633 
-0.007446771422819356 -0.009834722294081364 0.02282158713300489 -0.02127230607677844 -0.02882706406201799 
-0.005942679081279858 -0.003289930240219209 0.01477527386806513 -0.01654360993283958 -0.0121756674328506 
-0.005744763088391816 -0.007766697477739297 0.02226422477260002 -0.03394539272013433 -0.01852363164118209 
-0.6223991883713551 -0.4235701098758211 0.5043699325941385 -0.3973800413400039 -0.5247322574220876 
-0.05336266029394015 -0.516805557581247 -0.03781731673231404 -0.3125737193767386 0.1851844674831234 
-0.09685875054604468 -0.9015098933372651 0.7196939417048334 -0.2013896931881554 -0.8475529499411865 
-0.08708499972631883 -0.006169388267631837 0.09102750126932867 -0.003834455912731565 -0.01868000336463612 
-0.2976593570285584 -0.02878504062512915 0.4898416367158339 -0.0254088803533345 -0.1739494657930051 
-0.009877305565469296 -0.01270435825232551 0.02534696228633774 -0.01366899807017001 -0.01382886316313528 
-0.05650717378097381 -0.04367504961048692 0.3942787655752233 -0.2112709857050344 -0.1527423504539893 
-0.07508996315497563 -0.1088351194039281 -0.5905317533036162 -0.2175199349128428 0.9082168323786552 
-0.1739633423539778 -0.03117703078568619 0.4248217945826014 -0.01331223929929785 -0.1935259506655096 
-0.382685342452393 -0.5138875463737695 0.04327823028693503 0.6758055377018602 -0.3952880022770432 
-0.798404893484061 -0.6127498236698352 -0.01287699999636356 0.06504374257815679 0.976129690637767 
-0.4418762266326499 -0.1953052298359849 -0.2349718838123853 0.5002537903616729 0.8207805660321799 
-0.7354991461656062 -0.824343329139121 1.063768717157881 -0.7398057380347193 -0.6958105057846214 
0.6818027144936032 -0.7975980720060474 -0.558224555172345 -0.6652366574660165 0.4198115192355458 
-0.2996485738027204 -0.3603416044798693 0.3919575106919779 -0.8471097771884475 -0.7248147480312193 
-0.3473020641752779 -0.3348882845827805 0.7381935875702015 -0.2928283713700677 -0.2193293053151737 
-0.1463813241403857 -0.2524500889864343 0.3757473103660402 -0.1273510409203484 -0.08576984618024611 
-0.4154812158131289 -0.1461840021253259 0.6331018279558918 -0.08093192043609815 -0.3157043856973542 
-0.007249934590318411 -0.00117616495419465 0.01170171163064436 -0.002645648987853689 -0.01121305508011881 
-0.02425203763724012 -0.003350044680544484 0.03195062490735916 -0.005278330262148491 -0.01396050649765614 
-0.00413653311125143 -0.005364196715787663 0.004405787925562382 -0.004080560824871119 -0.005170802490924456 
-0.1521596817543875 -0.08201054453216375 -1.99524268330771 1.860475496161876 0.4603787851306675 
-0.2228613327060793 -0.239263823978963 -1.023515192628539 1.6484517250041 -0.8659419475661949 
-0.1553833794117094 -0.04328791472137567 -1.856339531907611 -0.09425702050196681 2.055850022351875 
-0.7181067520464275 -0.7382101328925051 0.05413250570141298 0.2746913532536062 -0.6653705743249886 
-1.266930420892889 -0.9444371453247655 0.8536530892183967 -0.2570691440969133 -0.9685112610235114 
-0.8904579999518129 -0.3631315287937147 0.1081139162326417 -0.3835067909795654 0.2385535718651918 
-0.02654224590409085 -0.01117232438995728 -0.5266394830331249 0.7350123628819428 -0.1468809096486457 
-0.007676671528684089 -0.006388931648136387 0.2159268597048143 -0.09310758371954307 -0.07725907123234642 
-0.01260972674772827 -0.008613843732680003 -0.6374630437998233 0.6474020274154746 -0.0464888943179717 
-0.4523748631622785 -0.4939651926253196 0.905970019033134 -0.3990381209111166 -0.3853902675501408 
0.8232066212047466 -0.6440496182736117 -0.4196225640310735 -0.4399681151771778 -0.2412366134282608 
-0.01697701475017567 -0.4898306767024677 0.3208287176654896 -0.4773962775603464 -0.5118409255369682 
-0.1620115802170148 -0.1407178580630886 0.4441894180748577 -0.1264728714804205 -0.1089928295992022 
-0.02160004394936188 -0.04589316626013532 0.08085141295090087 -0.02802179950323416 -0.01734225759979083 
-0.2082839571670491 -0.06870386304030897 0.3372583813597081 -0.06089841367857094 -0.1161036309938188 
-0.2839381351225669 -0.01504426476377984 0.5570426396738313 -0.01602897177707042 -0.1971005487862826 
-0.1130765910128466 -0.04983480740047169 0.3722734784320124 -0.1810797593575797 -0.0870895872257024 
-0.006457857927806857 -0.005107524362802824 0.008662614771569465 -0.009534920267116703 -0.009662124594950066 
-0.05507371808629204 -0.0302644176559981 0.4340388562593266 -0.08887973073138047 -0.4639923438207759 
0.8252450280954536 -0.02136258534456585 0.3624254194638983 -0.5264501986429249 -0.3102985941300855 
-0.04777469238010853 -0.0392913507413872 0.1111592460876952 -0.0493483110389548 -0.05487142732419063 
-0.2708647500182196 -0.1376517954885572 1.008351047261752 -0.5858441335865179 -0.7784634464561612 
-0.1796316922878512 -0.05979868852331322 0.2609334748869118 -0.1578134239976898 -0.05131873200410634 
0.418425745876854 -0.08210540943921457 0.2805296688877263 -0.2476774360836367 -0.5561243294969547 
-0.3039795019098722 -0.3271986291902654 -0.4080078959601449 0.7833019657819206 0.4641902664302596 
-0.3493271313737525 -0.131191149572004 0.6459080796085889 -0.06758065419501923 -0.04592382911852684 
-0.6211948371145782 -0.2891205206694138 0.1542629359490389 -0.2645065008134877 0.5526839910811054 
-0.1600887336332485 -0.1380525580983853 0.1529376743204987 0.1367671161994974 -0.5244143850412111 
-0.08080796583310627 -0.04984014791818472 0.1852279358281543 -0.1205634990583297 -0.04636425490623452 
-0.2891429428196748 -0.2944150000484537 0.1560671469941659 0.2175064636494345 0.2254374966223973 
-0.2853766619572166 -0.1413376892092829 -0.598852870675979 -0.3919304041215068 0.8739746135637194 
-0.235910563504241 -0.1009051856900316 -0.8460302550531388 1.002744659758079 -0.1839739150734487 
-0.3194593804891784 -0.1766811889222169 0.5738082424300127 -0.247232634771114 -0.323866487705397 
-0.02966621429853342 -0.02147762769661159 0.04480766750954471 -0.01610980688183982 -0.04905255767693661 
-0.02968070836920782 -0.01425071458559705 0.02130168237439947 -0.0144924890074491 -0.02389214407718946 
-0.06343032220852651 -0.02619742210250381 0.1297117167377298 -0.03343965262321785 -0.07547569741928087 
-0.05169952418998499 -0.0662522978979477 0.1433503492892012 -0.05061991219360192 -0.05115451750542723 
-0.08991402148337609 -0.08592554125264767 0.1624567873438441 -0.03165509060779401 -0.05507808885908417 
-0.1500330224280005 -0.01853726547875821 0.2341800852997406 -0.02253020886923126 -0.09381001851490939 
-0.04500680724867941 -0.02160356211428819 0.2585726624977797 -0.1053748732176696 -0.1806840630607627 
-0.01281038082842939 -0.006760313195950845 0.02054922346922606 -0.01060300525780035 -0.005146835983217621 
-0.06810629208891428 -0.01939041403710233 0.1612786649963366 -0.04925746018966366 -0.08906058431412085 
-0.02333810345989386 -0.04034473576912184 0.04665599462983253 -0.002408828712615198 -0.003298837535332864 
-0.01120210830185002 -0.01314403508033089 0.02276147949884185 -0.00310422536247752 -0.002389523599926292 
-0.005107090019349908 -0.01507672680552928 0.0196878279662754 -0.004252665888964069 -0.007051128452256499 
-0.1490612477233473 -0.08951127564003379 0.2420273300604665 -0.0499004309161075 -0.1016506854397647 
-0.1501605756533784 -0.1373678645518371 0.3062186643680406 -0.05883082075102926 -0.1021270857686272 
-0.2138853777983576 -0.05634303760560583 0.2654193576278984 -0.06442087320589458 -0.09623912620297344 
-1.549778855454662 -1.529463409294255 1.258993567302777 -2.095145797464006 -2.058903207836699 
-1.950957090533072 -1.293247447899037 1.432927126949262 -1.76905513395866 -1.704278364513213 
-1.229349348962023 -2.476008944224977 1.381130391753078 -2.247139147389039 -1.679445221508434 
-0.002742007078093492 -0.0008785812886619058 0.005777545657130905 -0.001739119759676475 -0.004274389815620195 
-0.01379069241374341 -0.0009148914675730617 0.03724233857882587 -0.001282569243220233 -0.02462582227525565 
-0.003233286207369776 -0.009807812356906049 0.008168603694342661 -0.003482999222827685 -0.001187616083452708 
-0.1805550465490189 -0.1081218862042974 -1.630972531648437 1.036190111311216 1.142835422550262 
0.148582701656274 -0.1414248902917406 0.2757379027507914 1.262410471093721 -1.534609339259059 
0.486515457832953 -0.1664454906236701 -0.8804903746787428 -0.3065926136046584 0.8783875738471607 
-0.2710876513429097 -0.1576986687121791 -1.2993393328703 0.5762277166846123 1.939326889483572 
-0.450627876873618 1.554960208859436 -1.479559596610035 0.4853482816802685 0.9183026751397561 
1.60543169658604 -0.03627291623462916 -1.735627717870597 -0.02685030458056392 0.7042798802347336 
-0.4499278970937422 -0.4312008607473263 0.8129373235850809 -0.4955697352151424 -0.6022311054341967 
-0.6098883701489191 -0.4639722204375251 0.6637364036615803 -0.6647566880571525 -0.2816386653528086 
-0.1121245112506448 -0.2657393967493731 0.2867968502203941 -0.2503625680389748 -0.5312069423428735 
-0.3627445015297237 -0.410729942118272 0.4049588521509655 -0.3629400991456272 -0.234937097191475 
-0.5648122517587957 -0.4555871072475753 0.7207524724340058 -0.2282698369803273 -0.4239383687431134 
-0.8595926720628537 -0.174378253907897 0.8740134735476368 -0.1933486687889902 -0.4724698101677876 
-0.2614551414751948 -0.2049517455076887 0.4958450518292193 -0.1545490385149336 -0.2514131633384332 
-0.06206527408459175 -0.3038984676153959 0.599357147001195 -0.1822084463668834 -0.2806558293216599 
-0.3025607263177578 -0.1070463164905166 0.4072234522501713 -0.09764278360817231 -0.1721030911919064 
-0.02225122652956424 -0.01587447352193265 0.03195966721461059 -0.005888989714744286 -0.007273097114963114 
-0.01831493905228036 -0.02257364525421375 0.04568154622946824 -0.008558741119569103 -0.0059434733988594 
-0.03557200727452429 -0.02184454874014936 0.03669953581813441 -0.01076732612120189 -0.03806324765791542 
-0.08335918831472038 -0.05914822158060083 0.1411619484119479 -0.0261679746687752 -0.02147285065379782 
-0.0660246069806123 -0.08529367662703514 0.1051530334950668 -0.02145627458457824 -0.01842353823592364 
-0.08353405688865444 -0.04921148199954169 0.1212310364438515 -0.01410854662884443 -0.02518826774650661 
-0.002304888883449051 -0.002799436398164092 0.007178421710263794 -0.003234301545101924 -0.002368692087391476 
-0.0248552603789142 -0.0016937211639489 0.03251430054237462 -0.003098045924643828 -0.01458156401012569 
-0.01831493905228036 -0.02257364525421375 0.04568154622946824 -0.008558741119569103 -0.0059434733988594 
-0.09891773438869605 -0.06960318644075084 0.3889855281640207 -0.3328623369331531 -0.1271593932737348 
-0.04909038718430916 -0.1254317954125923 0.301357158981899 -0.1185172525281001 -0.1505471618461094 
-0.2202457622461884 -0.06885143698102056 0.6880947391726602 -0.06868085681639659 -0.4450489968607282 
-0.05380964619433438 -0.01533363870516952 0.1710860513326127 -0.0194943130713708 -0.1253723071768418 
-0.05283315230521333 -0.03124850714693998 0.1488204638781577 -0.05554452316055024 -0.03218944705354928 
-0.01123308399179273 -0.02329505656039007 0.03239730140669481 -0.02051640987236101 -0.01387779627395529 
-0.1675755005674852 -0.03726780507315327 0.2173055735036875 -0.03782632563742411 -0.1103431503810744 
-0.297255383551715 -0.1050940559799828 0.456499989256182 -0.08678142744994578 -0.215676224064063 
-0.03741550029061501 -0.03399061991315177 0.03787266005370628 -0.04530645966108383 -0.04003944524561372 
-1.952459312102392 -1.931788384440343 1.758810318571812 -2.084761766028344 -2.239681762813793 
-1.186105341847033 -2.248565314706201 1.34074753725339 -2.032368785750323 -1.484922905668879 
-2.007100985215517 -2.433418710925404 1.933752991609264 -2.056547062153485 -2.003196157631281 
-0.01526550566103841 -0.05047581645007727 0.07235097746192007 -0.01592177418925289 -0.008967355510500003 
-0.004085135774314672 -0.02185245637037876 0.0597849205123796 -0.01244482740433955 -0.01571608627442644 
-0.01510947411522093 -0.2501031420726384 0.1920656435113495 -0.009954529272573136 -0.003999795262612254 
-0.004085135774314672 -0.02185245637037876 0.0597849205123796 -0.01244482740433955 -0.01571608627442644 
-0.002741279451417045 -0.0008123049990986448 0.006556036758026133 -0.01606809341998235 -0.008428922039890114 
-0.01526550566103841 -0.05047581645007727 0.07235097746192007 -0.01592177418925289 -0.008967355510500003 
-0.01494310583579963 -0.003446325712298471 0.08275255157841563 -0.02512474373367399 -0.06990969823445757 
-0.02031913435873111 -0.006047401877971742 -0.4978701696346843 -0.02296723634495074 0.6252553940175669 
-0.002741279451417045 -0.0008123049990986448 0.006556036758026133 -0.01606809341998235 -0.008428922039890114 
-0.02031913435873111 -0.006047401877971742 -0.4978701696346843 -0.02296723634495074 0.6252553940175669 
-0.002188983648662141 -0.00128462573920323 -0.8205875954595271 0.8388819845040715 -0.02019512481325209 
-0.01494310583579963 -0.003446325712298471 0.08275255157841563 -0.02512474373367399 -0.06990969823445757 
-0.05494829720829113 -0.05619229043301822 -0.1613202863702624 0.4513617906968888 -0.1656047159360443 
-0.07239274104976655 -0.05347243251988226 -0.7880275710816022 0.4792986942614304 0.7417887340455868 
-0.1365578400506939 -0.02574396904344341 -0.2714856224075304 0.7085908140220373 -0.1149501974591075 
0.5607536701483427 -0.1613165444428026 -0.13819655529504 -0.1368699054785277 -0.2091241104890159 
0.1123061735741537 0.552408731006246 0.1476931884536926 -0.1707025226260099 -0.5025105074432371 
-0.3721723979862849 -0.07374491849851778 0.4557325927012236 -0.09623119160518862 -0.1314613966849948 
-0.1033271500491894 -0.02145189672376034 -0.2272930074528682 -0.08451901560439037 0.336302029279117 
-0.1140596168669856 -0.02523920439100673 -0.1344811970117441 0.3855380519928556 -0.2791017003891276 
-0.04170348450729024 -0.03279078192793437 0.1984782223698433 -0.04713964019672995 -0.134637537043226 
-0.3989469214462935 -0.2395636554865714 0.3238903993583597 -0.2462323416831285 -0.3068600245933997 
-1.038231911847182 -0.502466496152204 0.182417415253673 -0.2371231145018272 0.7762723286744443 
0.1810598284909075 0.2185393850320975 -1.254214551819391 0.3011192600628554 1.136629067098267 
-0.3098003293799443 -0.0736158373649201 0.3969443649768848 -0.00665375313145702 -0.07820573394472151 
-0.02388251532771759 -0.05227198497579174 0.03758071125229985 -0.02431118931804043 -0.01551662534761738 
-0.05647790632081717 -0.01121523653639832 0.03624900709662187 -0.007652131981000953 -0.04440911464048077 
-0.5846119683740197 -0.5034127417488519 0.6102921599249113 -0.4660554252447623 -0.4397699555248804 
-0.05020032855288771 -0.5875209291324642 0.4221531338355144 -0.5176776457155917 -0.6023188875873315 
-0.3024822471561281 -0.66327500711582 0.5472954638454618 -0.4114575538350377 -0.7155627536175576 
-0.06511766102188088 -0.04918402138938582 0.1223934938979625 -0.007675461886352351 -0.01497654270343737 
-0.06197397090355425 -0.04232569409094691 0.2035407299745758 -0.0188316482534496 -0.06524408476206187 
-0.03669417524991869 -0.01964657464912851 0.0680207092005778 -0.04990986017146311 -0.02541948189179542 
-0.02420289731828219 -0.04398054656233517 0.0494628656241435 -0.0296801800384554 -0.03864954130566246 
-0.08561481878139852 -0.01934463429798521 0.1055479619415218 -0.01735778274084102 -0.04156343944011644 
-0.09541082329777624 -0.03532979692493461 0.118161408794156 -0.02743229029054118 -0.06915504790477285 
0.9291922905636959 -0.3408064885937895 -0.2874840170391857 -0.2990919819983164 -0.9427547332968352 
0.2492647510405385 0.07981632061942699 -0.1874870445343055 -0.6460667314523301 0.5087262948869532 
-0.3686464332330898 0.1961636203359435 -0.07056027790307255 0.4992869458472755 -0.3200222203916473 
-0.08444975107895236 -0.05306222193622084 0.2240409112202643 -0.04630386590512726 -0.08300014103204954 
-0.1027480331880425 -0.01301648214491084 0.1503467680253139 -0.01602469977726407 -0.004899952024626 
-0.1077314705025602 -0.06237191038116741 0.3114102835734509 -0.03092650126313555 -0.2307816181062925 
-0.01288607617164969 -0.001209405595719524 0.01497672554876524 -0.001817333017212538 -0.007415391848994335 
-0.03663968785177012 -0.01208878977985352 0.04575393613839676 -0.005419571651904345 -0.008983437373128204 
-0.000798912653809831 -0.006925056348698105 0.003780249882043694 -0.002899773585674326 -0.001368871235669569 
-0.4852440315555154 -0.02468304224306832 -0.02337672168195186 -0.008481906802506163 0.7573518161906673 
-0.155185926000107 -0.1921952907280098 -0.08026226988601233 0.6847585776694957 -0.2164010532993839 
-0.01777969365693638 -0.00776178973869892 0.07326927810037893 -0.02477936892368673 -0.02070616309729105 
-0.493818023349297 -0.1805741037632548 0.6946662739331712 -0.1450446241062905 -0.2207411920982111 
-0.1079227548001987 -0.1024129026804894 0.2768917398597297 -0.05287810379351898 -0.03099153188935014 
-0.2865292890864422 -0.09893428571978298 -0.09814290237995189 -0.1190531248638926 0.5738725028298053 
-0.2107680758300387 -0.2549054316800905 -0.5225619942788479 1.256878080608324 -0.09852583732779593 
-0.2079961916659326 -0.4680624832477887 -0.03304902275891591 0.8408057670045717 -0.03316769557841458 
-0.09024057996861917 -0.01908098297073917 -1.010466484116338 0.7997284339183401 0.6381692322837871 
-0.4845581251123623 -1.094387889622194 1.023142433755341 -0.5640053855790006 -0.5548786346249885 
-0.2405542112008385 -0.5436687186299723 0.3935588138286069 -0.4569525518956733 -0.3182276024742801 
-0.7101535458496921 -0.2116993730283922 0.08158074901244165 0.08415534718315452 0.2595246025432232 
-2.004229075579616 -0.59780475106756 1.012921292256467 -2.178010620366814 -1.929008271805388 
-1.924230798712599 -1.374080472392088 1.575467638004437 -1.863208383955536 -1.640589518816432 
-0.8861748016008816 -1.134420482163194 1.061524408995956 -2.129321450093237 -1.368642443454325 
-0.0155346872028043 -0.04567938261221671 0.07672273563808146 -0.01975703173152997 -0.01117305234089599 
-0.001071560151207869 -0.002984244773786574 0.001675915725880463 -0.001625842548279681 -0.0009382978754660242 
-0.007362318471488418 -0.0004616212379130245 0.02986366895922472 -0.0002484121834742425 -0.01905578927269017 
-0.7165646281638558 -0.2825663885709516 0.8286241221891338 -0.1326071068022444 -0.2188970056258763 
-0.2177895033156253 -0.4044330991449973 0.5377681142699283 -0.181513073492458 -0.1379503112218974 
-0.2452805000340696 -0.250030953688206 0.6750437481563678 -0.05549483064570512 -0.2093455002541317 
-0.05539602792502261 -0.02733665747458129 0.2204664223646242 -0.08881589325617377 -0.1313159753319741 
-0.007541361602476055 -0.005337406443541626 0.01349002426087946 -0.01525333828219508 -0.005679175777444839 
-0.05559729736980522 -0.007865827033023255 0.1296809840946841 -0.03578622826464493 -0.06358357230209488 
-0.005349953208257313 -0.001843755024389115 0.01730811380410007 -0.00690494982342179 -0.01975877314230107 
-0.008423284826395691 -0.003482783424799926 0.1285633202560677 -0.0081273135657574 -0.06641411448095304 
-0.00548638415844268 -0.00558373093211067 0.02620675909043717 -0.01842443040790264 -0.01515173361256375 
-0.1107418197132583 -0.02277550290560907 0.1486593469966453 -0.001966143675376282 -0.02427028706835409 
-0.01076781189717107 -0.02210019839397922 0.0193107952503605 -0.005846578882928288 -0.007417870683276158 
-0.01801969663679244 -0.001358139101789627 0.01086742688915324 -0.001886961380997035 -0.01404431187640991 
-0.1957554168594746 -0.1547066721857642 0.1783301055880107 -0.1251365664080683 -0.1662327050753215 
-0.6545075953909626 -0.09082088676277443 0.4871472128671117 -0.1157460106749762 -0.2582773385415985 
1.011129284137402 -0.1622424629515423 -1.019235512902535 -0.2154331905295318 0.4679531451464261 
-0.004873370996372109 -0.001031255817614128 0.0113550031112479 -0.005669998023609764 -0.01290375772811031 
0 0 0 0 0 
-0.00800646770649854 -0.006078604986906558 0.01027263629837755 -0.01079549006115126 -0.0126644130729179 
-0.2922921082803124 -0.05149149643853678 0.404242261823669 -0.03794560994924526 -0.06267154774797828 
-0.0935668839868973 -0.2358434028862618 0.3796134855291048 -0.07422630916703048 -0.06825845179472162 
-0.111224262746226 -0.01512838701212869 0.1594560235733047 -0.02681427338675971 -0.02890189035839057 
-0.009514886776913532 -0.0169067227806866 0.03232661912358074 -0.008962559646304212 -0.004023488691081815 
-0.01320829463569 -0.009439368172621278 0.0392776364921459 -0.003390363815635993 -0.004196742593072478 
-0.06422123363670594 -0.00187946640845793 0.05949280370207929 -0.001208678476991429 -0.01202565139229187 
-0.006783104369944865 -0.008349502001727226 0.03327084754121008 -0.003159791403593296 -0.003804270568630588 
-0.0006517512000137055 -0.001497643168075376 0.001636518568811515 -0.0004846419730044971 -0.0006910003758983648 
-0.007131556859350482 -0.01341792650920231 0.01977169194168991 -0.00250535578921008 -0.001624920796480239 
1.723758901741798 -0.03017427094422341 -1.629677700924563 -0.008015832799808912 -0.03878938705246584 
-0.5095180237617875 1.90270941193568 -1.187496156098688 -0.04642096788594927 -0.0388753984263989 
-0.02890070532767417 -0.0216803364972256 0.07636583497762917 -0.002293441235102613 -0.00711130478998568 
-0.185716189649251 -0.1626666490499019 0.4016025822529262 -0.04890255218637135 -0.04041068683563615 
-0.06913138374808279 -0.06846933904504073 0.3111037175464598 -0.04277092695313003 -0.09494937612960296 
0.2247228244149123 -0.1171902697831346 -0.02805823826171055 -0.02107226346507727 -0.05216831776217771 
-0.08957337148029544 -0.002570954367895875 0.08297208971680747 -0.002511247532135702 -0.02263569796318042 
-0.01965892501362406 -0.1118064763041672 0.0944059691640044 -0.005671152419443333 -0.003631140301946568 
-0.006591620511043882 -0.001045585865820362 0.00501779006631311 -0.0002232214677144813 -0.0003637871748636742 
-0.01164805540121237 -0.05809228891697465 0.07102720788221058 -0.002159103407418371 -0.002027946072771799 
-0.006421967799605344 -0.1892437719615016 0.255589319652205 -0.01297392082518529 -0.002991129587456618 
-0.04631458146199532 -0.001217435631351393 0.04461547621619322 -0.0002364835764455015 -0.009002297180031663 
-0.03052601442331199 1.737553970802627 -0.9982244507118808 -0.09736464032903283 -0.1526198861492379 
-0.2590630284997528 -0.3374469553180239 0.6098755626941541 -0.1466980876180944 -0.1158411206969623 
0.2911352179056011 1.806709249615848 -1.187947294404929 -0.065855201478057 -0.1518764981175133 
-0.0106850777257653 -0.02849254845154648 0.1056727690185594 -0.02830137459321511 -0.03619241039693153 
-0.002096365690605498 -0.0007667955673776544 0.004038603775033863 -0.008843570437965303 -0.004487643024145572 
-0.04171952952206406 1.169430942088054 -1.504176650951625 0.800179180813844 -0.01749356738098631 
-0.3662232089765435 -0.08394299682456434 0.4260574645672389 -0.625736933557603 -0.6230073226849071 
-0.4970925523432344 -0.4513343466782217 0.7419106150670621 -0.2236827162342604 -0.1326647926869534 
0.8142277840283887 0.3754022508999639 -0.3753065165623974 -0.4345843675641933 -0.7023843226260326 
-0.198491782475418 -0.06190741622354354 0.1797945913894412 -0.1152844302035921 -0.2148111209950732 
-0.15026544051328 -0.09307974555942253 0.2326059649592286 -0.1390457815727139 -0.1701910093653892 
-0.2697616845357068 -0.0808868545570616 0.2442261209797905 -0.09847471422657471 -0.1469392675615485 
-1.336767479478105 -0.993044817451386 1.418936424069374 -0.8468796537398704 -1.01666295856151 
-1.085540983356071 -1.082411905648863 1.32807431935957 -0.8430021542274623 -0.996713300314356 
-1.365981950782508 -1.038888892481655 1.222174755227441 -0.9188327126039239 -0.885525019373994 
1.382453567822396 -0.04781120559242242 -1.777720392912037 0.521032977750819 0.5702779535301091 
0.06874328440712138 0.5257761397373869 -0.204919521684751 0.385845397068815 -0.2225748950024407 
-0.1550699400868935 -0.110938942932655 -0.2612926146000947 -0.129768325075662 0.5039748621679461 
-0.6907571648154379 -0.531965144588406 0.8052413631861076 -0.4624195886644755 -0.5935493198245763 
-0.4746473015854051 -0.3867433436988512 0.8285654342725436 -0.4307067858786977 -0.9285425525071217 
-0.5287233990871953 -0.5087114257010038 0.5712870762929082 -0.5149834623161904 -0.4701415412552273 
-0.2007190640963469 -0.1435185313317429 0.3524726038734454 -0.07261551654604673 -0.09199476298400719 
-0.0292577544966854 -0.1786748798815785 0.08704101429228875 -0.02040679024765886 -0.01236390970699862 
-0.2098061856402436 -0.06818541608448911 0.2310960181737329 -0.02127308985200193 -0.05438028918537888 
-0.06165410087460316 -0.1738438141490198 0.1339551435531614 -0.02995582872340502 -0.05315193732237336 
-0.9720053246849398 -0.2662547936892529 0.9063348833401828 -0.03414241103888108 -0.05383159907292792 
-0.2562227560674368 -0.03685899157026797 0.2736699067252295 -0.03738068509674765 -0.07388151171703948 
2.694627135939824 1.52293638039006 -2.198760988267142 -0.7834279109278253 -0.8343764651672031 
-0.08770569716136181 0.195896650929516 -0.09352462254854808 -0.3253308733733319 -0.1794827362395714 
0.7742482501085756 1.072663261749454 -0.7632654689515562 -0.3885714903416934 -0.8012966863852913 
-0.003149613072769409 -0.00342033062182694 0.01062804639356405 -0.004540735810136276 -0.004709111694657309 
-0.02106220429855571 -0.004886011619670852 -0.6280176598553718 -0.01052170427041534 0.6442295093713929 
-0.151513700354838 -0.04808587804674987 0.1505611368019072 -0.007057737011691206 -0.007722257834236627 
-0.003712047336785512 -0.005834286084597674 0.02184668515521475 -0.008073264987743713 -0.00454949555822467 
-0.006199299192349014 -0.001651399254998596 0.007635181513681625 -0.0002736643833336528 -0.0002944915210111364 
-0.01511735896493962 -0.001008653845584691 0.05548860496356597 -0.002330658972337077 -0.02137378882319279 
-0.0420699880107995 -0.00112420075278551 0.03629568219741441 -0.000228751251609002 -0.008730652460120954 
-0.01365335352546481 -0.01041758934641625 0.0228331027450856 -0.009527846493757547 -0.002009634392879829 
-0.006199299192349014 -0.001651399254998596 0.007635181513681625 -0.0002736643833336528 -0.0002944915210111364 
-0.2184835648903362 -0.1479085798073203 0.3444096482166723 -0.05034465956968821 -0.04784942746542526 
-0.05583604487281853 -0.08004280336524608 0.1580394913905695 -0.03839312068006968 -0.02411939386994439 
-0.1943840504209706 -0.08230371710438628 0.3064327824418223 -0.03570226358394896 -0.05381928686763961 
-0.6105780289734236 -1.013373148324937 0.9790086264501187 -0.772036103340476 -0.6648536476781205 
-0.6950178228150553 -0.9470087972683412 0.7529366999009141 -0.9126408858681446 -0.4475794611904406 
-0.8163529705441653 -1.033330781797724 0.7788005775242918 -0.3792148636152331 -0.8976540618892127 
-0.5828013862077374 -1.064139810319131 1.001735330352006 -0.812744641688622 -0.6307617812934666 
-0.3872764701234965 -1.075150935948902 0.4240396604925094 -0.9451214993471029 -0.4130562701050702 
-0.3189362483436987 -1.140628973360754 0.6467385946704545 -0.6031437343585321 -0.9902454194874882 
-0.2678356941655175 -0.1035829675542563 0.480763869646995 -0.1075664923846204 -0.1706942726224387 
-0.05572511219964673 -0.1291006526987961 0.2353526606723843 -0.08198665147099472 -0.04871355155525731 
-0.2107316279753565 -0.05677257558391625 0.2927457213236197 -0.05448230617698253 -0.05985942046611675 
-0.1518473519365694 -0.1668019234947991 0.3217190479549699 -0.08656472989293193 -0.07217597686804719 
-0.02210451972736939 -0.05473998140107374 0.04465033480956855 -0.02357153223006696 -0.01222832008548806 
-0.2068545701511399 -0.1237779795248222 0.2966422448742392 -0.04455727325331031 -0.09526190859245165 
-0.3769749047239369 -0.3091641298076963 0.6870165002203589 -0.3140317314788438 -0.3748464952882867 
0.08016340288175712 -0.3517689197278897 0.1031974580369526 -0.3568269640824927 -0.1324786417969497 
0.07526410962396343 -0.08094861161933713 -0.2190276130082099 -0.1989301876470697 0.4904213048061645 
-0.1704696038082977 -0.0458114994335371 0.2374063461302135 -0.0217563320164602 -0.04404046358991476 
-0.0335577117006161 -0.05484469826248021 0.113202182311549 -0.02166324474623474 -0.01463109456196489 
-0.02861078560002647 -0.02240548602202062 0.07346103535323069 -0.01932112604173169 -0.02094726698199351 
-0.02459017823169853 -0.04335459238899979 0.07177633124930848 -0.008690858544882087 -0.00637497144416154 
-0.0007953594487372331 -0.002053330919453109 0.001318215776932279 -0.001120934516979143 -0.0006600493850827257 
-0.04136006756586997 -0.01442023854812986 0.06829071511537947 -0.01022309236816688 -0.008441502726820448 
-0.0172871932705986 -0.0003378472484528432 0.01732411169306983 -0.0003780881733645938 -0.003730200357365234 
-0.05095155754060293 -0.001739059696193489 0.1061372245378141 -0.005273603764741273 -0.0547344535751212 
0 0 0 0 0 
-0.07500294796325849 -0.05211409379014841 0.153863413323374 -0.03002609183379368 -0.03954426588654578 
-0.006957485829377262 -0.01530814178531976 0.01231466823074395 -0.009554187498049925 -0.004545589899503858 
-0.09201424109059325 -0.02405232580591854 0.1101622331073238 -0.005710074683600971 -0.02505451821408315 
-0.1303704867650134 -0.1788768325015557 0.4522855894192741 -0.1354803701175121 -0.1093854289103718 
-0.1188827786583095 -0.0828072186972701 0.3433301649363266 -0.09119959683306246 -0.04277916986780791 
-0.1541449696336369 -0.1463323347304389 0.3222670024183442 -0.06626474467993787 -0.09487556324433677 
-0.001353547698013969 -0.0006525804138757819 0.01058909822917149 -0.001227680366992939 -0.01614758440735633 
-0.00134867520173481 -0.0004580467467797179 0.002515243015056699 -0.001606911652685953 -0.002925794114174882 
-0.0004736225888594976 -0.005267355503126844 0.002048731111858636 -0.001719398927870855 -0.0008631614976033756 
-0.008988169471118452 -0.0001954321551220309 0.05087366803406242 -0.003251107534680589 -0.03789418335155457 
-0.007565753765565451 -0.0004008471137596033 0.005625563307237048 -0.0008900404029137316 -0.000418471191037856 
-0.00134867520173481 -0.0004580467467797179 0.002515243015056699 -0.001606911652685953 -0.002925794114174882 
-0.3963566185195427 -0.1230229735450361 0.4945223864647468 -0.05444331497065298 -0.1159712733934911 
-0.06870496552883155 -0.05812575141651768 0.1553328969614427 -0.04648043156178003 -0.02051273866652383 
-0.1158845653380812 -0.04482208279059562 0.1889192106418046 -0.03201227065456979 -0.06623900438756104 
-0.02332503290080274 -0.001198829761779048 0.02109881321632046 -0.0004015917017973141 -0.005083771332812057 
-0.05205609842215644 -0.004585867161305001 0.05933639912491923 -0.002531163700476446 -0.01429650659646228 
-0.003686521129726393 -0.000158411042768102 0.001734989327986618 -0.0004942326848474336 -0.003563411492581376 
-0.05053424649310827 -0.04503425023682561 0.1007928894998069 -0.03808842282948824 -0.0249458141670918 
-0.009744353690101645 -0.02340261614647656 0.08023505367169247 -0.01019410341518701 -0.02356345385875682 
-0.05554707307292428 -0.02611532024946758 0.07676274924675616 -0.009272640171122302 -0.02253809778405766 
-0.07305151203045601 -0.03445298606659421 0.4412269807666852 -0.09048283664364716 -0.357920123167742 
-0.06312530465351646 -0.03773183988205327 0.002137349906853857 -0.3335032704555567 0.4189277550359369 
-0.06076964103534348 -0.06333229708695254 0.1971512158966988 -0.05599612176168475 -0.0662361949684921 
-0.1688899647916058 -0.2028790909080332 0.7389132226709144 -0.2360276263473265 -0.5263706825968635 
-0.1616863514646358 -0.05100142116816524 0.4983712101208719 -0.2905009004510084 -0.2617137910947864 
-0.3448447857537824 -0.2078307968308656 0.8860981089700486 -0.3957055020999343 -0.2135919309505225 
-0.02585073828627858 -0.01961116855899796 0.1579889798747973 -0.03813318876832943 -0.102072290422433 
-0.05740337419109071 -0.03071703667931302 0.2129748293929378 -0.07637770521363162 -0.0471455752521766 
-0.06236032684391762 -0.01655707730799182 0.1095512848756078 -0.01688474734838105 -0.02625252047322661 
-0.04654303473704809 -0.04714449786761382 -0.8757308797129275 1.147397097498528 -0.1181306879920712 
-0.08946213212359298 -0.01037238398382445 0.1419477601761678 -0.03657285500404184 -0.008389209341824435 
-0.09260117863470224 -0.01119208995314626 -0.5826173353243688 0.5419490444896794 0.4962220459240301 
-0.006481357484971411 -0.007540627284339366 0.03234133641158055 -0.02933434479691411 -0.01302775741340278 
-0.0388383918288764 -0.007208823277001111 0.1058786397402378 -0.02960298655404909 -0.06701574373528181 
-0.03151219087837673 -0.05820363792596259 0.3067201748663751 -0.2597952949170745 -0.1361513020894466 
-0.3248995773346807 -0.1958713996731803 1.019619993915403 -0.531673502829594 -0.7004912333977705 
-0.1837795255877982 -0.08330507659110566 0.3281357902125066 -0.1331200406624364 -0.05155721649393668 
0.1835503488854648 -0.1420316723468491 0.4277693238675874 -0.3293104095399143 -0.3890986383200868 
-0.6461455455548414 -0.3984664924853912 0.7321711535540931 -0.3816402784181681 -0.7727049560151553 
-0.4777638753565069 -0.4608030444923086 0.5782046413139537 -0.5294840468823282 -0.5365234770263088 
-0.7680221700185236 -0.7968025475249427 1.119577397988501 -0.4605400405704366 -0.5487182618533358 
-1.008024415068306 -1.078164745136153 1.226315598723351 -0.9535682594128875 -1.024853342919325 
-1.312662908420958 -0.9830842549693696 1.624288606057261 -0.8120787124782538 -1.28786884402034 
-0.9179355246212875 -0.4829429320922856 0.5802012578862715 -0.9653084253014406 -0.7968067473308824 
1.210702071506564 0.6918931735834916 -1.233177168248561 -0.08601655999806986 -0.07140653365921054 
0.3136377127858638 0.8654152916226173 -0.544074421440812 -0.09176118109365552 -0.1309492933232827 
0.4623204386559081 -0.02201871210282207 -0.486713548040736 -0.02616389757765671 -0.1421203167395883 
-0.4357785397097198 1.37930561416245 -0.7016079108701343 -0.04437973535823748 -0.074967122301828 
-0.9491088573159637 0.3328944949352273 0.577014417373922 -0.04925938164813093 -0.05774092364994742 
1.220333313038838 0.792378357165981 -1.525591015382356 -0.02573694410108912 -0.03311684522305022 
-0.3643209938855875 -0.2991560957486671 0.6784338418426139 -0.1803174033168441 -0.2127916337889398 
0.04272311623408434 -0.1451596939083685 0.01827065883788472 -0.06395544324838714 -0.08266957911649568 
-0.8241169826684213 -0.4280843515789002 1.101748471486032 -0.1162258167568826 -0.2595245699866346 
-0.08472913551836123 -0.007956015820404628 0.09160605808683901 -0.003692966696524827 -0.02782344582221883 
-0.01544633496302657 -0.02434521024038735 0.03616072060851366 -0.009591889364457529 -0.008065409764020927 
-0.01055786306393259 -0.004963328828796268 0.01198671405559032 -0.002009974820853335 -0.003182149695927465 
-0.4844268361265032 -0.1708565371917499 0.8201211081203569 -0.2315648991483462 -0.2557273972342198 
-0.0886729859742223 -0.1836034498392401 0.256679846451466 -0.06895640063383067 -0.05498743565578463 
-0.248328082918305 -0.1314660868287293 0.5296960654469222 -0.0849419364714781 -0.2890801476790273 
-1.567652837376261 -0.7717625063288935 1.526764608732766 -0.8900071930642958 -1.320693975783423 
-1.301369531173187 -1.656846754655729 1.540762517009509 -1.156132065638567 -1.145121735384931 
-0.6853211155343119 -0.7092372051823093 0.8451582358668529 -0.6258294430306883 -0.9092482646431894 
-0.2143148099712035 -0.1037097666587006 0.1607230059736466 -0.03109640869714682 -0.07620255146990285 
-0.0761115299519891 -0.1403852744844262 0.1033885717659578 -0.0684289460116099 -0.07430547748501956 
-0.1106177244427622 -0.01178017546010143 0.06776642187608858 -0.02935823152642266 -0.06303204534978581 
-2.543139873688409 -1.715302131523563 2.448976331759197 -1.506475248989064 -2.120010024707629 
-1.839719661059094 -1.682806098321032 2.021495596112472 -1.506526872460668 -1.686928304857188 
-1.166962241564324 -1.700329220471154 1.400967052331729 -1.558938702048037 -1.806322941541997 
-0.1486699381780255 -0.1004206435122625 0.2130656166760862 -0.06596165152152438 -0.1021179973623118 
-0.1119888437662365 -0.13854984728179 0.234379816338727 -0.0933874454283542 -0.1171861896336481 
-0.1514693640521009 -0.09841640011453071 0.2129107124904007 -0.06704469382698794 -0.099204103080776 
-0.01244156583304711 -0.01006282487720125 0.02512975297805314 -0.01359010668652333 -0.02508264161289438 
-0.01476017093369443 -0.006294802981101917 0.01791602354628588 -0.01224632727480474 -0.01387463608041245 
-0.01178915782396279 -0.0310284012161553 -0.6040297748183927 -0.02903154539908754 0.6973823217651155 
-0.05509410129409646 -0.04564910678604041 0.08109696113120698 -0.02439673021732737 -0.03310186883503414 
-0.05178962493158751 -0.05825065215195103 0.1362878588301308 -0.0296567575003113 -0.07424549165260505 
-0.07740613413517371 -0.03241269237089134 0.1422196452625302 -0.03109044979672025 -0.04027127642307554 
-0.09768908771892233 -0.03152409156158523 -0.1163079420167271 0.5668988003273707 -0.1626431037708855 
-0.05417174819302305 -0.07102229422058584 -0.2541663861318149 0.4772408799300306 0.08787769536097395 
-0.03952033951017288 -0.0148310476013616 -0.4368474126489328 0.796084568682865 -0.1568519063564145 
-0.3822937818619705 -0.3117654755557828 0.4318617813760567 -0.4370372819980758 -0.4928802612109403 
-0.3362476529085371 -0.2664201881763812 0.3278469356853226 -0.2938627436091867 -0.3390736645488401 
0.09833500490082912 -0.4406823119324775 0.09975990167502943 -0.3996800584011493 -0.480096267703165 
1.297826265452212 0.6328118432042077 -1.494502792994414 0.9676848987810568 1.455791920012666 
-0.3291262067497904 -0.3978575173425807 0.3006767567381946 -0.193322700365871 0.7569169363863432 
0.6233317504897855 0.02259481629209792 -0.6631747420271451 1.054338507753428 0.03816301316541385 
-0.1796293583233442 -0.04008511897803849 0.2715077140157815 -0.02025459462259336 -0.05180404536988095 
-0.006696002452407622 -0.02965656636850319 0.02005643250801623 -0.01328402656073637 -0.005628357400203727 
-0.05292604384362043 -0.02576593729560291 0.1000789469497268 -0.01111243496620476 -0.004220519548184034 
-0.07999525440189131 -0.04421553677897905 0.127462770071575 -0.03725633301093697 -0.03365748178369121 
0.529663646744572 -0.08448279023709553 -0.5623415267081348 -0.06051336318343442 0.3921267565513559 
-0.1428034991692372 -0.07080829333529143 -0.4261939923790287 0.8231971956725667 -0.09405355396370176 
-1.038190801782882 -1.138111608534118 1.288449146565013 -0.9641568407431572 -1.246341094262071 
-0.432493368633212 -0.8965949608733406 0.4677348426228204 -0.9701354403189121 -0.7022683681938577 
-1.7079391401068 -0.9809861394675202 1.527073839964215 -1.217813823256905 -1.250419139725573 
-0.4686878891220388 -0.3476132903748556 0.8613522746601685 -0.2032205565960823 -0.3011671106657063 
-0.1009477304909569 -0.1629432872143139 0.2831388476172976 -0.09541409356924792 -0.04962038633845103 
-0.1870413753281567 -0.1796748415027758 0.4026760974265471 -0.1003383651285413 -0.2035770196773817 
-0.126921960833713 -0.1286316005446831 0.2878140966759712 -0.05390346634310302 -0.07040100375613745 
-0.03480312689913715 -0.08080556301182999 0.1165053814738429 -0.01860721331511668 -0.01125000191513896 
-0.1802048810308243 -0.1031386608548783 -0.2953604486609188 -0.04118751610301471 0.5625872583662596 
-0.007554353709071391 -0.01559906046709866 0.025436570076201 -0.002630670055396502 -0.00172126155699116 
-0.003591256112699245 -0.007818900577406647 0.008234907924266819 -0.003161354475901541 -0.001367684172893363 
-0.00971033434790947 -0.0210550715834699 0.02878853654452511 -0.002931630500171628 -0.002938865768536191 
-0.01933333264276607 -0.009304925807204829 0.0236543979203485 -0.004903370653632216 -0.009292177924185085 
-0.00244622751177853 -0.00657109609539964 0.007571975040103376 -0.005013338814138743 -0.002654083196056239 
-0.00983129263755856 -0.01666941404617261 0.03207428720634817 -0.01547251857611202 -0.003387424748939166 
-0.3434140564906648 -0.4756470948197004 0.680854067142908 -0.4385291123962954 -0.3691373653598706 
0.6000243928173634 -0.3234352478298847 -0.3481130686677928 -0.4186825847962542 0.1179970950982635 
-0.9603205641144981 -0.7077838647322999 1.286538224072722 -0.6740243942553004 -0.7791756613697073 
-0.01922989654256909 -0.01060621268099086 0.01433153534157089 -0.002678901906607095 -0.002768247215459319 
-0.001994142458744803 -0.01036746642841774 0.005444838699698488 -0.00404655141209808 -0.005792935371055636 
-0.01502174886857085 -0.000699978444971362 0.009752141114736143 -0.001678237158292885 -0.01000708671927987 
-0.1231989357077675 -0.1933881857668858 0.177343704637783 -0.1810476193701232 -0.2061594662827928 
-0.247753289036958 -0.2151227221877962 0.2537355454824142 -0.1334269837542363 -0.1482729018177923 
-0.6151608779724466 -0.1636156905221004 0.5315892868776032 -0.1719903070403314 -0.1399275253767747 
-0.2429614477946371 -0.1363311060354356 0.3276337425300764 -0.1323813870568292 -0.08458533588649932 
-0.2757965012252409 -0.2651140316514856 0.5563339842307936 -0.1075809736577771 -0.1999052487677518 
-0.3334110795931682 -0.02864138649292591 0.3893842038454162 -0.03574046717344615 -0.1980918273140641 
-0.01087417901510926 -0.01011003240692075 0.01956160676392005 -0.005655120487201046 -0.009173082944863187 
-0.002269552153817953 -0.004920134561162539 0.004502720830963203 -0.003082837272071499 -0.003047088441491378 
-0.009251495051886025 -0.00935922408324069 0.02717547672630449 -0.009661788079974167 -0.007068951287418379 
-0.02168498614079029 -0.002843299559050669 0.02725802876883476 -0.004027781252918271 -0.01049958205985284 
0.6659738332628841 -0.01191432105961468 -0.5718838226296037 -0.009999092676093982 -0.03383054008422567 
-0.003646392624144706 -0.006700228256325328 0.004065045987969219 -0.004829423675259984 -0.003681327148237255 
-0.02875161885464373 -0.03527438334981933 0.1292091034494277 -0.02335953273724991 -0.013355940189287 
0.2466470618411602 -0.1999069535281128 -0.04202051930353896 -0.01707040483333031 -0.03035630860221417 
-0.0229889699662458 -0.03235355798264396 0.2188840476609416 -0.2093758182560468 -0.1113100388492242 
-0.1286998492763957 -0.09522797498406618 0.2010312386109245 -0.09433831445117215 -0.2119301237033022 
-0.2590965663495265 -0.1404289229219568 0.3117307451770851 -0.1924342564946613 -0.1706096934451498 
-0.2575451258010542 -0.07682811881881503 0.1855883137391835 -0.06941867852729586 -0.06222338418191241 
-1.435320139258823 -0.9654369260833895 1.225690081813021 -0.9440795814897995 -1.020200515895229 
-1.693678491478685 -1.544870473674131 1.933300961186305 -1.092008177282725 -1.669869310100165 
-0.8987983045152446 -0.9255425371252124 0.9291559018439136 -0.9126579139487724 -0.860577399688699 
-0.02350633849213717 -0.0158962789168468 0.04380355541703686 -0.01966161635472567 -0.03552133664147496 
-0.1177087624581616 -0.03339331307683361 0.1844709165154249 -0.03687953768084164 -0.09589777388562158 
-0.07969772692488103 -0.03425411185988973 0.1136441893299496 -0.02068404212863244 -0.06247427930784642 
-0.0182539861114119 -0.01139184825578681 0.0303661874832923 -0.02509475826257503 -0.01816962486650796 
-0.04352028930998544 -0.007469081565190138 0.05429586725524398 -0.01412381453023465 -0.02660686083205778 
-0.016732437960783 -0.01431764035076436 0.04449706542649839 -0.03119952574023851 -0.03284538433348057 
-0.02249892973007631 -0.0200410106739917 0.05564717473729541 -0.03777168249032539 -0.01883275938875153 
-0.122675696714408 -0.009447998046133006 0.1869675928978529 -0.01020055591422758 -0.09655878969041959 
0.5282272958015631 -0.08603540329102073 -0.2772977013984624 -0.1315601708598663 -0.04042755452827073 
-0.04918174810165074 -0.02196516486304176 -0.5326302490060635 0.8849970175606052 -0.165087008182534 
-0.06044804637563139 -0.03753978652868038 -0.3455177897227566 0.5809870467385878 -0.1366890047773966 
-0.0773263397675876 -0.01072679285997467 -0.73904611009472 -0.008260106460795957 0.879371883011731 
-0.002707788102767411 -0.0009713469313829362 0.004696139196908364 -0.0005558277181867895 -0.004431991202844681 
-0.00206626047440738 -0.001227469893349964 0.002373272031309557 -0.001116398589323073 -0.00241255299908288 
-0.005052485621951569 -0.001925796807080633 0.003144291076871812 -0.001733761603101664 -0.004508838107632663 
-0.09362432794188061 -0.01655891208577916 0.186975242649279 -0.0357837543460125 -0.05564493630230423 
-0.08103295129826731 -0.05613838322365309 0.2718617434903623 -0.05077017867716217 -0.05042943065928615 
-0.1160002347035211 -0.01339919847593332 0.2013826116110453 -0.01243735052149177 -0.01924258139630636 
-0.002402226562964592 -0.03379345899276499 0.09119582032337278 -0.03229852755675432 -0.02149295664172226 
-0.0009971635445909968 -0.0007889580085835912 0.002581205989708865 -0.002350773933556482 -0.001165814601160018 
-0.05259767836121357 -0.0008943863485488991 0.08917172867528399 -0.001736260813266843 -0.02735180499410951 
-0.008500535122615057 -0.006724945142219617 0.03696234091418799 -0.01848348147808985 -0.004230196702594375 
-0.0007602825706567848 -0.003607728873448924 0.002423395923584414 -0.00109216063577904 -0.0004288656095816663 
-0.02158683074241733 -0.0001934230576317922 0.02710676312873578 -0.0004778787358852072 -0.008154368027256683 
-0.03760713719574071 -0.01570557139868096 0.06978246954064392 -0.006331058900993552 -0.03470914109048336 
-0.02891078533094638 -0.04748020433898294 0.09722501252214109 -0.03780866371928959 -0.02332519694822813 
-0.005847016100277286 -0.01767136924614869 0.02207077573706604 -0.009785624421044832 -0.005792860085721338 
-0.0332302750758405 -0.06842497515284783 0.2471009847602178 -0.09775471239084392 -0.07162971088083066 
-0.009571535943560994 -0.007844803031138707 0.02415181780263972 -0.01414593320471044 -0.004907592667595963 
-0.08746791239427859 -0.2823900469816152 0.4939574049314777 -0.02965450687073866 -0.05843290815750276 
-0.06820351805229635 -0.001726267471372264 0.1245427008498346 -0.01413052166242817 -0.04683795487082319 
-0.00408293614080079 -0.001782492867427421 0.006268201741168644 -0.004656534743094382 -0.002331845641533756 
-0.003633233467263609 -0.003382113730116072 0.00622166075214749 -0.01266024428106833 -0.008652536753060113 
-0.02948799593882511 -0.05340704526226089 0.05023548438051697 -0.04208348512934771 -0.03470197013811449 
-0.04672076150964202 -0.03299285624881127 0.03349940111477803 -0.02623415787775207 -0.03703663764299831 
-0.2653902936465952 -0.3263193362755493 0.9043819597455407 -0.3048567224713908 -0.5174074296485859 
-0.1129747095717917 -0.001855403953155699 0.1839410065787274 -0.003502743093712844 -0.05909172133586359 
-0.006004088335370092 -0.005307384721996791 0.00923865797942635 -0.0136821113746558 -0.004076974890135129 
0 0 0 0 0 
-0.001376187880955031 -0.002279432454464958 0.003858289427136249 -0.004134005786027522 -0.001031497013498457 
-0.002125106339490456 -0.00158255365429284 0.002743520677117309 -0.0008390759544273868 -0.001825265968730882 
-0.02952920899071781 -0.0005826485883308785 0.06248692584467005 -0.001780384349898278 -0.01951025957204073 
-0.05663365948245142 -0.03226837057692684 0.09810857528522329 -0.03248994564691118 -0.05667445898242635 
-0.424015599698937 -0.03755135366572965 -0.2789104351839223 -0.06235320966554947 0.827127697731465 
-0.1371071611557368 0.2101828653942203 -0.01108260428003364 -0.1076172056513792 -0.1423792808298212 
-0.01511280467724235 -0.02710911196709475 0.0526918125124505 -0.02555833125626896 -0.02293055257445135 
-0.09668743518987645 -0.01916644019268338 0.1779368143476399 -0.03155984712427643 -0.1025313481971105 
-0.1461075223091745 -0.100033990143567 0.2498072072000481 -0.05140599714123063 -0.0542416978080772 
-0.2148279406388159 -0.3274913739088711 0.5647338267320086 -0.1252460792326797 -0.1580380479192403 
-0.02489697165927168 -0.06634276597123885 0.06259809738993308 -0.0296616587066413 -0.01738373297659038 
-0.3288071148417075 0.3280845129829513 0.1398859137631212 -0.05286408119948702 -0.1380991594080688 
-0.002285583312940889 -0.005332130569539351 0.009287616422619729 -0.001451972675159845 -0.006561689726936834 
-0.06581984452096419 -0.003123202816348676 0.0950147869024892 -0.003179855300252121 -0.02640385565905539 
-0.007235614541509229 -0.0105157336224045 0.01829102705112105 -0.008326725513483081 -0.005199688140066169 
-0.05171782081928703 -0.05184641623604073 0.1064304286465209 -0.01523447889462947 -0.01803144313383094 
-0.04878719711998604 -0.0280848384213557 0.08721037286359401 -0.01211831093090259 -0.004636696318559713 
-0.1019534665414056 -0.03424532541171321 0.1648029143080796 -0.01612762740818991 -0.01787342839679895 
-0.07769561527320755 -0.04142676697903921 0.114673298006739 -0.04224678359298758 -0.07220987183077775 
0.3372369505322067 -0.04001162602386624 -0.1624245446489122 -0.04806085050064628 -0.211789555186401 
-0.2237895985146705 -0.3692253801370645 0.5436350105824835 -0.0942284862010207 -0.1061407853488153 
-0.3564988571423512 -0.2966144180830766 0.5598886097817993 -0.3295056764353201 -0.5353621644269909 
-0.4820245727183859 -0.3502732254135301 0.9548947375857091 -0.6535959922801987 -0.7051556120930174 
-0.6172453398956472 -0.2544654373639069 0.6742722416337155 -0.329317945604453 -0.2564999091968167 
-0.1454517719891502 0.7766751506027079 -0.5347512176008938 -0.05384898598862062 -0.07169074662328137 
-0.005753500561014208 -0.02347923345739916 0.01451916108857837 -0.01166260764990982 -0.005890807053748161 
0.6994493300686864 -0.03610714976089602 -0.6209859844184237 -0.05840920741090849 -0.05317621571005035 
-0.01189406324192448 -0.002786530250148434 0.0174758209963591 -0.002740976560659876 -0.008808183009742581 
-0.001328458627723659 -0.001473878947667447 0.001547701872663501 -0.001954683616960687 -0.002276565857306896 
-0.001189203139605919 -0.006240621906187032 0.004294325424514816 -0.002584713493722466 -0.0006991256838424092 
-0.01404684993517424 -0.01366076669461377 0.01900898234876282 -0.01850432952942091 -0.01411299676596189 
-0.02114088749753393 -0.008082961011299501 0.02780374006061512 -0.008576671863920441 -0.01200452473043618 
-0.008772353692649124 -0.02054579573841762 0.01974944537873696 -0.0278577437982182 -0.01967241065771921 
-0.03538511033396579 -0.02012208954529783 0.04627752077429277 -0.01584869117505548 -0.02873304929537839 
-0.03250341402402999 -0.007827775933283709 0.03664132104290291 -0.009380123102832393 -0.02061881539339136 
-0.02081311788584693 -0.02316092440070786 0.02662310941225706 -0.02173023664330741 -0.01816429181054499 
-0.1305714208634474 -0.01640772633224443 -0.4646016514642305 -0.02600616957385541 0.58740271343654 
-0.0877472229870416 -0.06533335434994222 -0.8046162971466123 0.7021135013256614 0.4399839635949489 
-0.1808498831456404 -0.008337361635881549 0.1356707497987933 -0.02122945772027493 -0.02675382938475986 
