solver_type L2R_LR
nr_class 3
label 0 2 1
nr_feature 7949
bias -1
w
0 0 0 
-0.006816387957223041 0.009505750163849512 -0.004682531664715646 
0.01558429315633006 -0.0205519279033516 -2.582186049678622e-05 
-0.0001149170626226498 0.001306874398305929 -5.64000992903081e-06 
3.159545486576895e-06 -1.079203711872709e-06 9.866143393028397e-08 
0.03610780224635176 -0.03565328836996284 -0.003224376609036163 
1.363013284195996e-06 4.975091445624794e-06 -4.49745192988546e-08 
-0.0001149170626226498 0.001306874398305929 -5.64000992903081e-06 
-0.0005215434419723931 0.002559614231316284 7.220490382308794e-07 
3.954006548947723e-07 8.248278954121081e-05 1.195226432496496e-06 
-0.008636410195037858 0.008539038940830667 -0.0009304211606123561 
-4.198359015877389e-05 0.001233489687330418 -0.000438160451458521 
-0.00213225718880318 0.005797351078473577 -0.001418668629412252 
0.01116747498207823 -0.01271777169183945 -4.59157687027172e-05 
-3.96516096717046e-06 8.797887145604164e-08 2.312990926359476e-07 
-0.003504115197171481 -0.009074404782942934 0.01593585727896724 
-0.006496026694937385 0.009844287345077939 -0.01055450587179737 
-0.002000837635135655 0.01038409777359377 -0.002823341963913873 
-0.01358660133685832 0.01483754534784042 -0.003577728130823484 
1.055566977476578e-05 4.194851618013736e-06 2.0875856023732e-07 
-0.006496026694937385 0.009844287345077939 -0.01055450587179737 
-9.501628412746666e-05 0.000822901588092531 -5.792203966778798e-07 
0.01571690846757123 -0.01455957074782328 1.173759656809371e-06 
-2.497966813282734e-05 -0.008347441722066839 0.01496300383768821 
-0.0002875370608831922 0.0003687681687338826 -2.100572990946325e-06 
-0.0126113328591708 0.01656658176801034 -0.004027867103978526 
-0.0002875370608831922 0.0003687681687338826 -2.100572990946325e-06 
-0.00037769249857378 0.002570377239080757 -0.00250912154256992 
-0.08591001474358112 0.04873312641512546 0.003578155050960539 
-0.1367775279674385 -0.01760952411563714 0.1091300940625159 
-0.001987130835437347 0.002060665149446813 -4.524038178026507e-05 
-0.01146621481399776 0.01375658333278827 -0.03418571159036926 
0.0445354990897122 -0.0417260100639406 -1.019215044253909e-05 
-0.09566104685999187 0.06168482349130535 -0.004136718757254749 
-0.009425147572162132 0.09358187760608427 -0.06506830779465121 
-0.0004687575105346713 0.0005709272004124779 -1.136275196760439e-05 
-0.007493957799523164 0.1270853320752038 -0.1489671334337414 
-0.05296655217672423 0.02995712361377921 0.000750572739678067 
-0.07736541967370207 0.1394926512934365 -0.0977374490365765 
-0.01285762721014758 0.03705593115323334 -0.02062657125663583 
-0.006496026694937385 0.009844287345077939 -0.01055450587179737 
0.0139298495731994 -0.01223748401163813 9.444273703724791e-07 
-0.001142394041010118 0.0006011073400586788 -7.206406015553045e-06 
0.04973961050986002 -0.04512547930161673 -5.202913448119521e-05 
-0.06928125867864351 0.08388290966331671 -0.008919499484882956 
0.008549892781736776 0.04705364870710286 -0.02615292895220455 
1.055566977476578e-05 4.194851618013736e-06 2.0875856023732e-07 
-0.0005215434419723931 0.002559614231316284 7.220490382308794e-07 
0.01986958841658459 -0.0003921903970861125 -0.02004343060956124 
-0.01507328588175997 -0.005154678390304607 0.02617517624302183 
-0.009453148038268147 0.01460474682440053 -0.007105686750648794 
-0.01358169367514286 0.01404136698442417 -0.003580360303276533 
-0.01358162339528633 0.01404135636448463 -0.00358057531520815 
-0.009034685281304458 0.01474865229203506 -0.004007091667455377 
0.01728547218624918 -0.01560571167511568 -2.417963097404721e-05 
-0.0001161276236769982 0.0008145118848565035 -9.967375171525182e-07 
0.02351487979763578 -0.02151431307135456 -0.0003461087741828251 
0.003035501050161795 0.003153592937485485 -0.01196873394157459 
0.1527485104568089 -0.08082996358018063 -0.1144358085508698 
-0.04371630959164192 0.03551296431573061 0.009239396332336546 
-7.027985652994179e-08 1.061993953853419e-08 2.150119316175514e-07 
0.02158512873850724 -0.01249210777080738 -0.001232991300460044 
-0.001184377631168892 0.001834597027389097 -0.000445366857474074 
-0.03140500178184683 0.043694291585643 -0.01182624268547171 
-0.009555736903820077 0.01212264566235064 -0.0004966351878539118 
-0.003504255756884541 -0.009074383543063856 0.01593628730283047 
-0.00263707461058535 0.01001996329479879 -0.004887939294680915 
-0.00299820116562758 0.004207792017382898 -0.000234613630241299 
1.168599865358519e-06 -4.332343478481997e-06 3.556794880336365e-07 
-0.01748153263076608 0.01684265837954943 -0.0008773951573256308 
-0.01233781443254611 0.01671022004339204 -0.004034962269754137 
-0.0005689944289197125 0.002980345090789292 -0.0002219103914586939 
-0.03298811501426344 0.03751319234135436 -0.005932615251827404 
-0.04051550589702658 0.06389134520617538 -0.01896115884182428 
-0.008138829851128305 0.01058810731246486 -0.0004993682363007073 
1.168599865358519e-06 -4.332343478481997e-06 3.556794880336365e-07 
-0.00424850159763243 0.003161393759358083 -5.74943587041579e-05 
-0.008466983585812412 0.01176332148986061 -0.003785351313409002 
0.01375660942369069 -0.01259092713940632 -4.470910833147317e-05 
-0.003503325310799838 -0.009074674583870903 0.01593588194432572 
-0.002284788082020235 0.001202214680117358 -1.441281203110609e-05 
-0.0026145064581839 0.003293322021766697 -0.001395182526290891 
-0.0005689944289197125 0.002980345090789292 -0.0002219103914586939 
-0.09507648121523861 0.08663034429069685 0.01367966048249942 
-0.1126320766536108 0.08403018181663441 0.008015747401936748 
-0.004324688502476365 0.005640755305973538 -6.166397709365948e-05 
-0.05168987467084005 0.2206923327271588 -0.3916446517002015 
-0.003471686868670405 0.003898844303121634 -0.000400217847615703 
0.005402059658952319 -0.001902800374916654 -0.007408687602767061 
7.898863716442237e-07 -2.698009279681773e-07 2.466535848257099e-08 
-0.009284589579300727 0.005750212189837181 -0.002564779315660039 
-0.001816157605802821 0.002422762344232424 -5.132169861042249e-07 
-0.0001454372512197837 0.0009413534693677503 -0.002507128067535615 
-0.01594618123316449 0.02138750585401761 -0.007776476549166579 
-0.001142394041010118 0.0006011073400586788 -7.206406015553045e-06 
-0.006003910464696542 0.008404305876182107 -0.0004706187691079399 
0.008907099817942439 -0.008345202012788121 -2.038430088507821e-06 
0.03187917701107017 -0.02214749729562544 -0.005932982786956519 
-0.002730230269014438 0.01619800500203194 0.0001006502845991703 
-0.008466983585812412 0.01176332148986061 -0.003785351313409002 
0.01238384106877625 -0.1714982628285625 0.2038614805490944 
-0.01962609534349461 0.02400517969463111 -0.0003921868887202495 
-0.001816157605802821 0.002422762344232424 -5.132169861042249e-07 
0.04246839262506602 -0.03607023485371898 -0.004458803589045279 
-0.001094280364008061 0.003288485881827085 -2.767737967594499e-06 
-0.002151841815475357 0.004802446315177408 -0.003026132560473645 
-7.027985652994179e-08 1.061993953853419e-08 2.150119316175514e-07 
-0.003001955232348271 0.004202152938091053 -0.00023530938455397 
-0.001732837933021995 0.003173642240062525 -0.0002242723782028085 
-0.01949414387526214 0.0242734683632504 -0.02794939197690446 
-0.04533477626846566 -0.06192375266109558 0.04868216313968368 
-0.0002720982254462701 0.00567523494515045 -0.002871371350981306 
-0.008466983585812412 0.01176332148986061 -0.003785351313409002 
-2.108395695898319e-07 3.185981861560173e-08 6.450357948526536e-07 
-0.0001679343606350956 0.004933958749321673 -0.001752641805834084 
-0.003001955232348271 0.004202152938091053 -0.00023530938455397 
-2.379096580302278e-05 5.278732287362516e-07 1.387794555815679e-06 
-3.96516096717046e-06 8.797887145604164e-08 2.312990926359476e-07 
-0.004409511174283476 0.004884778812992948 -0.0001563432075267236 
1.363013284195996e-06 4.975091445624794e-06 -4.49745192988546e-08 
-0.03695782818777955 0.04713276690577845 -0.03476294295390858 
0.0112295216950161 -0.01337198635710266 -4.814885405351671e-05 
-0.05249843938649747 0.08839016317569942 -0.06056125727292053 
-0.003096916835331874 0.01159197423571336 -0.003086054805877409 
-7.027985652994179e-08 1.061993953853419e-08 2.150119316175514e-07 
-0.06574931438473991 0.09071575542757854 -0.03811933358436889 
-0.009815328537310535 0.04123356161055274 -0.0801034916845213 
-0.01358162339528633 0.01404135636448463 -0.00358057531520815 
0.02350439440771754 -0.02151851854291211 -0.0003465325446746799 
-0.0005689944289197125 0.002980345090789292 -0.0002219103914586939 
-0.007620514836496868 0.008953693941071747 -0.0001596035899227336 
-0.003471302384739352 0.003891977715527276 -0.0004004901537163493 
0.02465820909509817 -0.01262888580805 -0.0064109451417257 
1.363013284195996e-06 4.975091445624794e-06 -4.49745192988546e-08 
2.369659114932672e-06 -8.094027839045286e-07 7.399607544771356e-08 
-3.96516096717046e-06 8.797887145604164e-08 2.312990926359476e-07 
-0.001090537870892106 0.005539959322105576 -0.000221188342420463 
1.363013284195996e-06 4.975091445624794e-06 -4.49745192988546e-08 
3.159545486576895e-06 -1.079203711872709e-06 9.866143393028397e-08 
-7.027985652994179e-08 1.061993953853419e-08 2.150119316175514e-07 
-0.001142394041010118 0.0006011073400586788 -7.206406015553045e-06 
0.03950756960563134 -0.04268513949816684 -0.00535137907417876 
1.579772743288447e-06 -5.396018559363546e-07 4.933071696514199e-08 
-0.002795839578699852 0.01125027096697843 -0.009170575442341017 
-0.004320723341509195 0.005640667327102082 -6.189527618629541e-05 
0.01393288166880074 -0.02265090677445726 -1.454995194639928e-05 
7.898863716442237e-07 -2.698009279681773e-07 2.466535848257099e-08 
0.02350439440771754 -0.02151851854291211 -0.0003465325446746799 
0.0203377193058067 -0.02935411289462217 0.01173814092972256 
-0.0001124274106620852 0.0008108222893451643 -3.303530603840995e-07 
-0.03557452222935389 0.05607680402135152 -0.01580594120157959 
-0.005796695870779401 0.008720642658872403 -0.001977972172108214 
-0.008772019661856884 0.01441622342851467 -0.01178531224901652 
-0.01594618123316449 0.02138750585401761 -0.007776476549166579 
-2.7227192211697e-05 9.538751488640216e-06 -5.527402244789955e-07 
-0.01215581769419629 0.009242362117051477 -0.001421183072144631 
-0.01604032438213214 0.02069487137387612 -0.009207958113495552 
-0.0002651286255036082 -0.007389795937342626 0.01161393375348301 
-0.00178333033024022 0.004532563820241913 -0.00161565895186585 
-0.001142394041010118 0.0006011073400586788 -7.206406015553045e-06 
-7.027985652994179e-08 1.061993953853419e-08 2.150119316175514e-07 
0.006924717910561085 -0.004882034662867235 -0.0003121551416046554 
-0.008466983585812412 0.01176332148986061 -0.003785351313409002 
-0.0185455585253647 0.03118884523385934 -0.01266704870339006 
0.02350439440771754 -0.02151851854291211 -0.0003465325446746799 
-0.0002875370608831922 0.0003687681687338826 -2.100572990946325e-06 
-0.002153016185778055 0.004809582703699734 -0.003025884919731481 
0.04179864500640221 -0.06795272032337178 -4.364985583919784e-05 
0.008907029538085909 -0.008345191392848582 -1.823418156890273e-06 
0.0154467336253053 -0.02760115991406947 0.01493225332623846 
-0.0027003407000788 0.004601443372442114 -0.0002194219316983489 
-3.844839310535258e-07 6.866587594357684e-06 2.723061006463012e-07 
-0.001142394041010118 0.0006011073400586788 -7.206406015553045e-06 
-0.001142394041010118 0.0006011073400586788 -7.206406015553045e-06 
0.01558429315633006 -0.0205519279033516 -2.582186049678622e-05 
-0.0005689944289197125 0.002980345090789292 -0.0002219103914586939 
-0.007620514836496868 0.008953693941071747 -0.0001596035899227336 
-3.96516096717046e-06 8.797887145604164e-08 2.312990926359476e-07 
-7.027985652994179e-08 1.061993953853419e-08 2.150119316175514e-07 
-0.00139153302422258 0.003757861932654383 -0.0002415941632718396 
1.363013284195996e-06 4.975091445624794e-06 -4.49745192988546e-08 
-0.01804772575768152 -0.03070081014014986 0.02897063714097294 
0.02350439440771754 -0.02151851854291211 -0.0003465325446746799 
-0.01984193003602342 0.0187244553849071 -0.0008176303760898816 
-1.360155518243164e-05 0.0001925381939107884 2.978577346517261e-06 
-0.009035978014732124 0.0147436665806499 -0.004007261704867696 
0.04421138730225299 -0.03012712736232729 -0.002467881362159244 
-0.0002875370608831922 0.0003687681687338826 -2.100572990946325e-06 
-0.003382507640369274 0.002772462657752027 -0.0001310969531733873 
0.0155850830427017 -0.02055219770427956 -2.579719513830365e-05 
1.055566977476578e-05 4.194851618013736e-06 2.0875856023732e-07 
7.898863716442237e-07 -2.698009279681773e-07 2.466535848257099e-08 
-6.204671293787509e-05 0.0006542146652632181 2.233085350799494e-06 
-0.0005689944289197125 0.002980345090789292 -0.0002219103914586939 
-0.002192532835250435 0.00304889590624381 -3.648985443739118e-05 
-0.007367969039974771 0.008995801495730042 0.01029238377620083 
-0.0001454372512197837 0.0009413534693677503 -0.002507128067535615 
-0.002856221461567518 0.005636346101329705 -0.001082694837048556 
0.01781419963588488 -0.01669040402557624 -4.076860177015641e-06 
-0.04499107698361806 0.03965160816020961 -0.02844014547768624 
0.02350439440771754 -0.02151851854291211 -0.0003465325446746799 
-4.198359015877389e-05 0.001233489687330418 -0.000438160451458521 
-2.193393149602342e-05 0.003178384589992721 -0.004340052799277887 
-0.008887659408944509 0.01163739876404668 -0.006884843397654201 
-0.01888466562512522 0.01194833086334707 0.01382393870289531 
-3.96516096717046e-06 8.797887145604164e-08 2.312990926359476e-07 
-0.00863679467896891 0.008545905528425025 -0.0009301488545117098 
-0.002304873772212614 0.007092178051558198 -0.001614936902827619 
-0.009918433404862155 0.009362870440420692 -0.0004085044830762061 
0.0221056936511265 -0.01506356368116365 -0.001233940681079622 
-0.04685417096041987 0.0937983496336076 -0.1087666416701848 
0.02350121913312202 -0.02151870036496863 -0.0003462765802235614 
-0.01400438275916368 0.01591096570242307 -0.001594036721126761 
-0.003504115197171481 -0.009074404782942934 0.01593585727896724 
-0.07970865218834049 0.1052717248390275 -0.06449372612950187 
1.017118584371225e-05 1.106143921237142e-05 4.810646608836206e-07 
-0.00179488464595987 0.003827856905325743 -0.000222039292852009 
-0.0001656915592877581 -0.01579788876973597 0.02992620616429177 
-0.007621877849781064 0.008948718849626121 -0.0001595586154034347 
-7.027985652994179e-08 1.061993953853419e-08 2.150119316175514e-07 
-3.96516096717046e-06 8.797887145604164e-08 2.312990926359476e-07 
-0.001549189451751917 0.007761201869601809 -0.001411501673143185 
1.363013284195996e-06 4.975091445624794e-06 -4.49745192988546e-08 
-2.731756945172111e-05 0.003212955358949121 -0.004343129534274792 
-0.007621877849781064 0.008948718849626121 -0.0001595586154034347 
-0.0005351449971548247 0.002752152425227073 3.700626384748146e-06 
-0.01652610427518181 0.02009058425952873 -0.007325454571660926 
1.168599865358519e-06 -4.332343478481997e-06 3.556794880336365e-07 
-0.0202596313486233 0.02677594692292172 -0.02373059406496303 
-0.03830123502344127 0.06164649154152361 -0.0234870483912545 
2.726026568391993e-06 9.950182891249587e-06 -8.994903859770921e-08 
-4.198359015877389e-05 0.001233489687330418 -0.000438160451458521 
-0.002284788082020235 0.001202214680117358 -1.441281203110609e-05 
-0.0004687575105346713 0.0005709272004124779 -1.136275196760439e-05 
-0.02361292705351657 0.03309249419931293 -0.03323343505418642 
-2.133717523109648e-05 0.001206209113207415 -4.57568137683152e-09 
0.01869139498238935 -0.03826059574044091 0.01775912146598691 
-0.03558249810117509 0.0408709957689934 -0.00883801974650608 
2.111133954953157e-05 8.389703236027472e-06 4.175171204746401e-07 
3.505799596075561e-06 -1.299703043544567e-05 1.067038464100908e-06 
7.898863716442237e-07 -2.698009279681773e-07 2.466535848257099e-08 
-0.0001454372512197837 0.0009413534693677503 -0.002507128067535615 
1.055566977476578e-05 4.194851618013736e-06 2.0875856023732e-07 
2.531613149554521e-06 6.427479671426749e-07 3.107049687347808e-07 
-0.006545281517286073 0.01135884621020997 -0.001670436087372435 
2.726026568391993e-06 9.950182891249587e-06 -8.994903859770921e-08 
-0.02128551421524073 0.02892478413579847 -0.01390154472889992 
-0.1677502282764211 0.1752922664560221 -0.06548807881941776 
7.898863716442237e-07 -2.698009279681773e-07 2.466535848257099e-08 
0.01574374025912804 -0.01465159228885313 5.312734487918709e-07 
-0.001582425487055498 -0.01800016077417865 0.02098110880239375 
1.168599865358519e-06 -4.332343478481997e-06 3.556794880336365e-07 
0.008907099817942439 -0.008345202012788121 -2.038430088507821e-06 
0.02465820909509817 -0.01262888580805 -0.0064109451417257 
1.186201964684321e-06 0.0002474483686236324 3.585679297489492e-06 
-0.001137988857839425 0.005960690181578584 -0.0004438207829173878 
-0.01649783385635632 0.02620249199790139 -0.009910693763568696 
-0.001782135041427986 0.004538890805980335 -0.001615337315048239 
-0.008466983585812412 0.01176332148986061 -0.003785351313409002 
-0.0005207593260380881 0.00256214847543216 1.350034626910813e-06 
-8.397527137534274e-05 0.004413660968007194 -0.001400683110959008 
-0.002152701981703531 0.004802726736044914 -0.00302594221390051 
-0.008744792469645187 0.01440668467702603 -0.01178475950879205 
0.04723122077738411 -0.04395477686655939 1.593820346375614e-06 
-0.0001454372512197837 0.0009413534693677503 -0.002507128067535615 
0.0112295216950161 -0.01337198635710266 -4.814885405351671e-05 
-0.05380532308425572 0.04605621549747221 -0.004591587306306913 
-0.007264058385163132 0.007556084891359925 -0.0002898251659116106 
-0.02804892553471774 0.03157573878813462 -0.01283890484594905 
3.558605894052946e-06 0.0007423451058708973 1.075703789246848e-05 
0.02036310529131826 -0.02083483900587856 -0.003222200149000017 
7.898863716442237e-07 -2.698009279681773e-07 2.466535848257099e-08 
-8.397527137534274e-05 0.004413660968007194 -0.001400683110959008 
-0.007267795699489096 0.006722327059091801 -0.0002228679945908023 
0.01051527351582298 -0.007746102729520993 -0.002860603142950135 
-3.844839310535258e-07 6.866587594357684e-06 2.723061006463012e-07 
-0.002856221461567518 0.005636346101329705 -0.001082694837048556 
0.01531219493088379 -0.01487669295820115 -0.002897193211478092 
-7.930321934340921e-06 1.759577429120833e-07 4.625981852718951e-07 
-0.01215698629406165 0.009246694460529958 -0.001421538751632665 
-0.02914625441117093 0.03575342877718014 -0.009196571202722782 
1.168599865358519e-06 -4.332343478481997e-06 3.556794880336365e-07 
0.03861874938755451 -0.03956097329561899 -0.0130344021438558 
-0.0001149170626226498 0.001306874398305929 -5.64000992903081e-06 
-0.00178333033024022 0.004532563820241913 -0.00161565895186585 
0.01444956041782833 -0.01300826809501787 -0.006596767720459011 
-0.0005215434419723931 0.002559614231316284 7.220490382308794e-07 
-1.360155518243164e-05 0.0001925381939107884 2.978577346517261e-06 
1.363013284195996e-06 4.975091445624794e-06 -4.49745192988546e-08 
-0.009595130946821451 -0.01486908883815832 0.03047741578599761 
-0.01180646352675828 0.01654624709965646 -0.01661671752709321 
-0.0001454372512197837 0.0009413534693677503 -0.002507128067535615 
-1.066858761554824e-05 0.0006031045566037075 -2.28784068841576e-09 
0.01574374025912804 -0.01465159228885313 5.312734487918709e-07 
-0.001951052233507773 -0.001777638012580821 0.003659950502408636 
0.01053066273564275 0.01004813340751927 -0.01365401351650294 
-0.001142394041010118 0.0006011073400586788 -7.206406015553045e-06 
-0.01192863868760985 0.01218890359483635 -0.002303803039894022 
-0.03189236246632899 0.04277501170803522 -0.01555295309833316 
0.07283529307032577 -0.04809908709394232 -0.01694813182777137 
1.363013284195996e-06 4.975091445624794e-06 -4.49745192988546e-08 
-0.008887659408944509 0.01163739876404668 -0.006884843397654201 
-0.007645494504629696 0.0006062522190049071 0.01480340024776548 
0.01393288166880074 -0.02265090677445726 -1.454995194639928e-05 
7.898863716442237e-07 -2.698009279681773e-07 2.466535848257099e-08 
0.008907099817942439 -0.008345202012788121 -2.038430088507821e-06 
0.01717703362721751 -0.01160654852616595 0.001443964465779803 
0.009061896409557362 -0.00292320148813977 -0.0118214798711282 
-0.02228851822156117 0.06821989181475176 -0.04206663121648413 
-3.96516096717046e-06 8.797887145604164e-08 2.312990926359476e-07 
-4.236807408982741e-05 0.001240356274924776 -0.0004378881453578747 
0.03019247472679016 -0.02859052796349912 0.007595782289033348 
1.363013284195996e-06 4.975091445624794e-06 -4.49745192988546e-08 
-0.01945029643033598 0.01231310107107468 0.008159380729800658 
-4.198359015877389e-05 0.001233489687330418 -0.000438160451458521 
-0.04570625828072183 0.002165213311413827 0.04523532024382173 
7.898863716442237e-07 -2.698009279681773e-07 2.466535848257099e-08 
-0.008636410195037858 0.008539038940830667 -0.0009304211606123561 
-0.06140392806340183 0.05634694488941141 -0.04980947305318659 
0.01558429315633006 -0.0205519279033516 -2.582186049678622e-05 
0.01728547218624918 -0.01560571167511568 -2.417963097404721e-05 
-0.001816157605802821 0.002422762344232424 -5.132169861042249e-07 
0.00170279860526638 0.004247548867709294 -0.005243028013107253 
0.001148333301310184 -0.0006833404993233225 -0.01342566729753068 
2.369659114932672e-06 -8.094027839045286e-07 7.399607544771356e-08 
-3.844839310535258e-07 6.866587594357684e-06 2.723061006463012e-07 
-0.0002875370608831922 0.0003687681687338826 -2.100572990946325e-06 
-0.001137988857839425 0.005960690181578584 -0.0004438207829173878 
-0.005796695870779401 0.008720642658872403 -0.001977972172108214 
-0.001302751031006427 0.006846787072391489 -0.0200590364249703 
-0.005796695870779401 0.008720642658872403 -0.001977972172108214 
-0.01044210795086203 0.00920767464611718 -0.0007924779003123715 
-0.001816157605802821 0.002422762344232424 -5.132169861042249e-07 
0.0112295216950161 -0.01337198635710266 -4.814885405351671e-05 
-0.004344514307312218 0.005641195200330818 -6.050748163047973e-05 
0.02036269897393952 -0.02100667117255533 -0.003224862907965656 
-0.006549246678253243 0.01135893418908142 -0.001670204788279799 
0.06631708095337949 -0.04519069104349094 -0.003701822043238866 
0.008893498262760008 -0.008152663818877331 9.401472580094442e-07 
1.363013284195996e-06 4.975091445624794e-06 -4.49745192988546e-08 
-0.002123082198950856 0.001576364536200559 -2.839149986404533e-05 
-0.0005689944289197125 0.002980345090789292 -0.0002219103914586939 
0.04059083931865851 -0.02683561685652104 -0.01435934591038329 
-0.001863120889042225 -0.02469015751151027 0.01779840913535517 
-0.008190966613831899 0.009826779001792494 -0.000454294632327534 
-0.00185259618545863 0.03918116371115297 -0.03134615948582959 
7.898863716442237e-07 -2.698009279681773e-07 2.466535848257099e-08 
-0.001612081312864499 0.008099573553421861 -0.0002204662933822321 
0.01574374025912804 -0.01465159228885313 5.312734487918709e-07 
-0.09072009600763631 0.1284873532987732 -0.1028535977701428 
-0.003533349097677227 0.004546192380790494 -0.0003982570683655498 
-0.01192863868760985 0.01218890359483635 -0.002303803039894022 
-8.397527137534274e-05 0.004413660968007194 -0.001400683110959008 
-0.004320723341509195 0.005640667327102082 -6.189527618629541e-05 
0.1194367366734403 -0.08366735276208484 -0.006171386155998584 
1.168599865358519e-06 -4.332343478481997e-06 3.556794880336365e-07 
-2.7227192211697e-05 9.538751488640216e-06 -5.527402244789955e-07 
-0.01652610427518181 0.02009058425952873 -0.007325454571660926 
-0.002060174891756898 -0.004958643889874176 0.01161383805361738 
-6.204671293787509e-05 0.0006542146652632181 2.233085350799494e-06 
-0.02548218681156619 -0.02184644915074537 0.04814366673088195 
-0.007757980636602087 -0.02248547589455101 0.03377734073917442 
-0.006545281517286073 0.01135884621020997 -0.001670436087372435 
-0.008636410195037858 0.008539038940830667 -0.0009304211606123561 
-0.006843615149434737 0.009515288915338153 -0.004683084404940125 
0.01558429315633006 -0.0205519279033516 -2.582186049678622e-05 
0.01141167855988871 -0.03475018372322425 0.04344383617833386 
-0.0005689944289197125 0.002980345090789292 -0.0002219103914586939 
3.954006548947723e-07 8.248278954121081e-05 1.195226432496496e-06 
0.04700878881543508 -0.04303703708582423 -0.0006930650893493598 
-0.01758552158664531 0.005434562638167538 0.03129960883927624 
-0.004409511174283476 0.004884778812992948 -0.0001563432075267236 
-0.0001234357161819697 -0.04930624344580063 0.04996911382592644 
-0.0001161276236769982 0.0008145118848565035 -9.967375171525182e-07 
-3.17527459552624e-06 -1.818220565121348e-07 2.559644511185182e-07 
-0.0002298341252452996 0.002613748796611859 -1.128001985806162e-05 
-0.008466983585812412 0.01176332148986061 -0.003785351313409002 
1.363013284195996e-06 4.975091445624794e-06 -4.49745192988546e-08 
-0.00651320584096949 0.007676309325959255 -0.0001589569975037742 
7.908013097895445e-07 0.0001649655790824216 2.390452864992992e-06 
0.0445354990897122 -0.0417260100639406 -1.019215044253909e-05 
-0.01130404205908488 0.01130952232998095 -0.001374614789428412 
-3.844839310535258e-07 6.866587594357684e-06 2.723061006463012e-07 
-0.008887659408944509 0.01163739876404668 -0.006884843397654201 
0.01574374025912804 -0.01465159228885313 5.312734487918709e-07 
0.0002731468283509316 -0.005590561650763214 -0.002460721853564196 
-7.027985652994179e-08 1.061993953853419e-08 2.150119316175514e-07 
-3.96516096717046e-06 8.797887145604164e-08 2.312990926359476e-07 
-7.027985652994179e-08 1.061993953853419e-08 2.150119316175514e-07 
-0.0437507638029765 -0.07183306706227302 0.09292342083563541 
-0.004654884425046243 0.002875704465914261 0.01054675079913216 
-2.497966813282734e-05 -0.008347441722066839 0.01496300383768821 
-1.405597130598836e-07 2.123987907706839e-08 4.300238632351029e-07 
-0.007246258538232823 0.006477608808734188 0.00808645927191806 
-0.01040666547366773 -0.04472382348500303 0.03839846987900775 
-0.006295769189333599 -0.01021655540523962 0.02051668262036553 
-0.06282370386023942 0.0610791043437874 0.002118824968426361 
1.055566977476578e-05 4.194851618013736e-06 2.0875856023732e-07 
-0.01309056303457215 0.02271769242041993 -0.00334087217474487 
-0.002650115865281722 0.003938267736469243 -0.001392421366074095 
-0.004446810523774108 0.01574297396719573 -0.002393752676596192 
-0.02011634924279763 0.02540439742631261 -0.005250802644020348 
-0.0005806381183849911 0.004072559424282517 -4.983687585762594e-06 
-0.009948192210223406 0.009371766443942189 -0.0004093679282694198 
1.168599865358519e-06 -4.332343478481997e-06 3.556794880336365e-07 
1.055566977476578e-05 4.194851618013736e-06 2.0875856023732e-07 
-0.001142394041010118 0.0006011073400586788 -7.206406015553045e-06 
1.363013284195996e-06 4.975091445624794e-06 -4.49745192988546e-08 
-0.03514662823482758 0.04663028514904254 0.005592840539874159 
-0.0004687575105346713 0.0005709272004124779 -1.136275196760439e-05 
-3.96516096717046e-06 8.797887145604164e-08 2.312990926359476e-07 
-0.03647095888218495 0.02774008338158987 -0.004264616254897994 
-0.004409511174283476 0.004884778812992948 -0.0001563432075267236 
5.575421534862504e-05 0.02181675655387453 -0.02018475692843438 
-0.0005215434419723931 0.002559614231316284 7.220490382308794e-07 
-0.0008771372350929036 -0.1408304184421197 0.1115697993834727 
0.01442352476261868 0.002397118443280426 -0.03989973517505576 
-0.007621877849781064 0.008948718849626121 -0.0001595586154034347 
-0.0005215434419723931 0.002559614231316284 7.220490382308794e-07 
-0.0005188174154040011 0.002569564414207534 6.320999996331672e-07 
2.111133954953157e-05 8.389703236027472e-06 4.175171204746401e-07 
-0.0002298341252452996 0.002613748796611859 -1.128001985806162e-05 
0.003056628608700188 0.003845300880658574 -0.009059724353101537 
-0.007736642460173866 0.00976820582592825 -0.0001606003274398861 
7.898863716442237e-07 -2.698009279681773e-07 2.466535848257099e-08 
-8.397527137534274e-05 0.004413660968007194 -0.001400683110959008 
-7.027985652994179e-08 1.061993953853419e-08 2.150119316175514e-07 
0.01728547218624918 -0.01560571167511568 -2.417963097404721e-05 
-0.006545281517286073 0.01135884621020997 -0.001670436087372435 
-0.01693396717162482 0.02352664297972121 -0.007570702626818005 
-0.03169765805340943 0.04129776499605591 -0.01928559460029259 
-3.844839310535258e-07 6.866587594357684e-06 2.723061006463012e-07 
-0.001142394041010118 0.0006011073400586788 -7.206406015553045e-06 
1.363013284195996e-06 4.975091445624794e-06 -4.49745192988546e-08 
-0.004431135591338319 0.009217766082748238 -0.008934465155452511 
-0.009918812118355869 0.009366932982971206 -0.0004088354972057571 
-0.01309056303457215 0.02271769242041993 -0.00334087217474487 
-0.0027003407000788 0.004601443372442114 -0.0002194219316983489 
-0.02128551421524073 0.02892478413579847 -0.01390154472889992 
1.168599865358519e-06 -4.332343478481997e-06 3.556794880336365e-07 
-4.198359015877389e-05 0.001233489687330418 -0.000438160451458521 
-0.007620709249915705 0.00894438650614764 -0.0001592029359154011 
-0.001142394041010118 0.0006011073400586788 -7.206406015553045e-06 
1.363013284195996e-06 4.975091445624794e-06 -4.49745192988546e-08 
1.055566977476578e-05 4.194851618013736e-06 2.0875856023732e-07 
-0.0151105423771111 0.04130345843849358 -0.001176069797498176 
0.0235055630075829 -0.0215228508863906 -0.0003461768651866463 
-0.003854126286151413 -0.01679310849447613 0.02096721545389162 
0.05578917201976272 -0.04339932105973886 -0.002485376125187421 
-0.01358162339528633 0.01404135636448463 -0.00358057531520815 
-0.0005215434419723931 0.002559614231316284 7.220490382308794e-07 
3.954006548947723e-07 8.248278954121081e-05 1.195226432496496e-06 
-0.003471302384739352 0.003891977715527276 -0.0004004901537163493 
-0.0202596313486233 0.02677594692292172 -0.02373059406496303 
-0.005796695870779401 0.008720642658872403 -0.001977972172108214 
0.05731211026589565 -0.1116188350542368 -0.02541676169562882 
-0.0005689944289197125 0.002980345090789292 -0.0002219103914586939 
1.168599865358519e-06 -4.332343478481997e-06 3.556794880336365e-07 
0.02350439440771754 -0.02151851854291211 -0.0003465325446746799 
-2.7227192211697e-05 9.538751488640216e-06 -5.527402244789955e-07 
-0.003471302384739352 0.003891977715527276 -0.0004004901537163493 
-0.01422295559019207 0.008775930846255066 0.002232771740846941 
-0.0009231709143428042 0.003104451942700694 -0.0002314266377367317 
-1.360155518243164e-05 0.0001925381939107884 2.978577346517261e-06 
-0.01648738583185436 0.01125673906331472 0.004297800173561418 
0.01558429315633006 -0.0205519279033516 -2.582186049678622e-05 
-0.001142394041010118 0.0006011073400586788 -7.206406015553045e-06 
-3.96516096717046e-06 8.797887145604164e-08 2.312990926359476e-07 
-7.027985652994179e-08 1.061993953853419e-08 2.150119316175514e-07 
-0.0007823640160537722 0.005438991970675597 -0.007324923298212134 
-0.004320723341509195 0.005640667327102082 -6.189527618629541e-05 
1.168599865358519e-06 -4.332343478481997e-06 3.556794880336365e-07 
-0.01130404205908488 0.01130952232998095 -0.001374614789428412 
3.954006548947723e-07 8.248278954121081e-05 1.195226432496496e-06 
-0.002152631701847001 0.004802716116105376 -0.003026157225832128 
-0.002856221461567518 0.005636346101329705 -0.001082694837048556 
0.01524770084970675 -0.0005009898137096236 -0.004620995070305939 
-0.008466983585812412 0.01176332148986061 -0.003785351313409002 
0.009969175667700808 -0.01852538162394562 -0.0001048219569466921 
2.111133954953157e-05 8.389703236027472e-06 4.175171204746401e-07 
-0.004431135591338319 0.009217766082748238 -0.008934465155452511 
7.898863716442237e-07 -2.698009279681773e-07 2.466535848257099e-08 
-0.001816157605802821 0.002422762344232424 -5.132169861042249e-07 
-0.009921349501942763 0.009369094280047906 -0.0004085428819442945 
-1.537935724214103e-06 2.746635037743073e-05 1.089224402585205e-06 
-2.7227192211697e-05 9.538751488640216e-06 -5.527402244789955e-07 
1.363013284195996e-06 4.975091445624794e-06 -4.49745192988546e-08 
-0.0005215434419723931 0.002559614231316284 7.220490382308794e-07 
-0.005659814460107392 0.005758252713944615 -0.0009082794460921843 
-0.0259986248296941 0.0004685956409669459 0.008572716043569288 
0.0221056936511265 -0.01506356368116365 -0.001233940681079622 
-0.001731669333156637 0.003169309896584043 -0.0002239166987147749 
-0.0005689944289197125 0.002980345090789292 -0.0002219103914586939 
-0.0002651286255036082 -0.007389795937342626 0.01161393375348301 
-0.0175139923339316 0.03554355751144472 -0.0259348809147196 
-0.04499068158296317 0.03973409094975082 -0.02843895025125374 
-0.002152631701847001 0.004802716116105376 -0.003026157225832128 
-0.003999777186264012 0.01332569048722826 -0.0139249973645516 
-0.0001679505427506855 0.008827321936014388 -0.002801366221918016 
-0.001987130835437347 0.002060665149446813 -4.524038178026507e-05 
-0.001846341828685608 0.006208903885401388 -0.0004628532754734633 
-2.7227192211697e-05 9.538751488640216e-06 -5.527402244789955e-07 
-0.004831784673190054 0.006817464096173805 -0.0002326290122619394 
-0.008466983585812412 0.01176332148986061 -0.003785351313409002 
0.01094198463413291 -0.01300321818836878 -5.024942704446301e-05 
1.168599865358519e-06 -4.332343478481997e-06 3.556794880336365e-07 
0.0112295216950161 -0.01337198635710266 -4.814885405351671e-05 
-0.00810567937420458 -0.00814633467761207 0.0104260501903719 
-0.0108690432684614 0.01598738155670508 -0.01181350668814412 
-0.004404226758146669 0.005706815415438449 -0.001395167668410999 
0.002540962164828281 -0.000478803105780917 -0.01063914458028828 
-0.004532741866613972 0.008942050445344204 -0.002930576108942339 
-3.96516096717046e-06 8.797887145604164e-08 2.312990926359476e-07 
0.0112295216950161 -0.01337198635710266 -4.814885405351671e-05 
-2.7227192211697e-05 9.538751488640216e-06 -5.527402244789955e-07 
-0.002192532835250435 0.00304889590624381 -3.648985443739118e-05 
1.048538991823582e-05 4.205471557552271e-06 4.237704918548704e-07 
-0.02648333548871533 0.04097026646029144 -0.01467417095269506 
-0.001829759160985253 0.002615300538143212 2.465360360413043e-06 
2.337199730717039e-06 -8.664686956963994e-06 7.11358976067273e-07 
3.954006548947723e-07 8.248278954121081e-05 1.195226432496496e-06 
-0.0004946216894621722 0.0005854410433467429 -1.196046671138223e-05 
0.0156597649877527 -0.01023793132084594 -0.001400151837510216 
0.0221056936511265 -0.01506356368116365 -0.001233940681079622 
-0.03482307077952333 0.05355398949041142 -0.01186847594139607 
4.054024405906957e-07 6.596786666389506e-06 2.969714591288725e-07 
-1.066858761554824e-05 0.0006031045566037075 -2.28784068841576e-09 
-0.01041208419754852 0.009202380259235565 -0.0007925121386685621 
0.03185802584080446 0.01714432905758757 -0.05503691455401485 
0.0112295216950161 -0.01337198635710266 -4.814885405351671e-05 
-3.844839310535258e-07 6.866587594357684e-06 2.723061006463012e-07 
0.0112295216950161 -0.01337198635710266 -4.814885405351671e-05 
-0.006545281517286073 0.01135884621020997 -0.001670436087372435 
3.954006548947723e-07 8.248278954121081e-05 1.195226432496496e-06 
7.898863716442237e-07 -2.698009279681773e-07 2.466535848257099e-08 
-0.0896546070057862 0.1153154192412521 -0.0658948769246247 
-0.003504115197171481 -0.009074404782942934 0.01593585727896724 
-0.01866734834691182 0.02644933615537449 -0.02423437681826266 
-0.0009290209894159858 0.006516095078852028 -7.973900137220146e-06 
-0.0005689944289197125 0.002980345090789292 -0.0002219103914586939 
-0.00580995329439504 0.01044511067496442 -0.001613354334085012 
-0.03949694140179737 0.0420822595598436 -0.02800762636761765 
-0.0135855885562535 0.01404144434335609 -0.003580344016115514 
-0.007621877849781064 0.008948718849626121 -0.0001595586154034347 
-0.0005215434419723931 0.002559614231316284 7.220490382308794e-07 
-0.002142076032072235 0.004806910967723389 -0.00302594846727189 
-4.267435046219296e-05 0.00241241822641483 -9.15136275366304e-09 
-0.0002651286255036082 -0.007389795937342626 0.01161393375348301 
-0.01654205196456252 0.01534448627301758 -0.001494518460507447 
-1.360155518243164e-05 0.0001925381939107884 2.978577346517261e-06 
-0.001732837933021995 0.003173642240062525 -0.0002242723782028085 
-0.003471302384739352 0.003891977715527276 -0.0004004901537163493 
1.055566977476578e-05 4.194851618013736e-06 2.0875856023732e-07 
-0.002634944402073663 0.01280760990807006 3.057504966675396e-06 
0.01479470567282672 -0.005720055308040193 -0.01240778436378464 
-0.003382507640369274 0.002772462657752027 -0.0001310969531733873 
0.01559484882610482 -0.02054773305173358 -2.561310193654895e-05 
0.0595374150933391 -0.04872716014263911 -0.02429469479544271 
3.505799596075561e-06 -1.299703043544567e-05 1.067038464100908e-06 
-0.02592434004905517 0.03384400396261249 -0.0003713716571177725 
-0.0001454372512197837 0.0009413534693677503 -0.002507128067535615 
-0.0005215434419723931 0.002559614231316284 7.220490382308794e-07 
-0.003471302384739352 0.003891977715527276 -0.0004004901537163493 
0.03148748051825608 -0.02930318457770626 1.062546897583742e-06 
-0.004906609112473263 0.008657406043803904 -7.225765983655147e-05 
1.055566977476578e-05 4.194851618013736e-06 2.0875856023732e-07 
-0.0001454372512197837 0.0009413534693677503 -0.002507128067535615 
0.02465820909509817 -0.01262888580805 -0.0064109451417257 
-0.0027003407000788 0.004601443372442114 -0.0002194219316983489 
-0.02924301034656304 0.03710578171727443 -0.03297326032280914 
-2.811194261197672e-07 4.247975815413677e-08 8.600477264702057e-07 
-0.00424850159763243 0.003161393759358083 -5.74943587041579e-05 
0.03299755570588164 0.009903987869292606 -0.072096787391652 
-0.01095857513639959 0.01525940480555592 -0.0001825841957448525 
1.055566977476578e-05 4.194851618013736e-06 2.0875856023732e-07 
-0.0001161276236769982 0.0008145118848565035 -9.967375171525182e-07 
-0.0253385879341312 -0.0005961353934660072 0.04619082730735869 
-4.198359015877389e-05 0.001233489687330418 -0.000438160451458521 
0.02170481558633586 -0.05694562674414869 0.02418954593824364 
1.055566977476578e-05 4.194851618013736e-06 2.0875856023732e-07 
-0.003504115197171481 -0.009074404782942934 0.01593585727896724 
-0.006003910464696542 0.008404305876182107 -0.0004706187691079399 
-0.0001161276236769982 0.0008145118848565035 -9.967375171525182e-07 
0.006927120323599266 0.001188269665623484 0.008062368827634378 
7.898863716442237e-07 -2.698009279681773e-07 2.466535848257099e-08 
-7.027985652994179e-08 1.061993953853419e-08 2.150119316175514e-07 
-2.108395695898319e-07 3.185981861560173e-08 6.450357948526536e-07 
-0.003001955232348271 0.004202152938091053 -0.00023530938455397 
-0.002588069152343847 0.003284053071206025 -0.001394654451424895 
0.01574374025912804 -0.01465159228885313 5.312734487918709e-07 
-0.008466983585812412 0.01176332148986061 -0.003785351313409002 
-0.01192863868760985 0.01218890359483635 -0.002303803039894022 
-0.003382507640369274 0.002772462657752027 -0.0001310969531733873 
-0.001986340949065703 0.002060395348518844 -4.52157164217825e-05 
-0.001582425487055498 -0.01800016077417865 0.02098110880239375 
0.01574374025912804 -0.01465159228885313 5.312734487918709e-07 
-1.360155518243164e-05 0.0001925381939107884 2.978577346517261e-06 
-0.000953194667656313 0.003109746329582308 -0.0002313923993805411 
0.05115808209811099 -0.05100955021779802 -0.01674068242346753 
-0.004865650144774723 0.009481474546432764 -0.0002223807490346181 
1.168599865358519e-06 -4.332343478481997e-06 3.556794880336365e-07 
-0.0054006814001576 0.009202886744884228 -0.0004388438633966977 
-7.027985652994179e-08 1.061993953853419e-08 2.150119316175514e-07 
-3.844839310535258e-07 6.866587594357684e-06 2.723061006463012e-07 
1.363013284195996e-06 4.975091445624794e-06 -4.49745192988546e-08 
0.01264931701888454 0.003547300440821191 -0.01095579720183498 
1.168599865358519e-06 -4.332343478481997e-06 3.556794880336365e-07 
-7.027985652994179e-08 1.061993953853419e-08 2.150119316175514e-07 
7.898863716442237e-07 -2.698009279681773e-07 2.466535848257099e-08 
0.01945042485489025 0.01594276620161609 -0.04142096340392049 
-0.008466983585812412 0.01176332148986061 -0.003785351313409002 
4.089039852587987e-06 1.492527433687438e-05 -1.349235578965647e-07 
-0.0002720982254462701 0.00567523494515045 -0.002871371350981306 
0.004584048355553609 -0.01147406592888143 0.007312908351576825 
-0.01221071065431487 0.0008264335912103922 0.007160162071265524 
0.02633479101659019 -0.004546023515774883 -0.008414566575367387 
-0.0001309683132582083 0.001017088240529998 2.12318988340298e-06 
3.954006548947723e-07 8.248278954121081e-05 1.195226432496496e-06 
-0.001816157605802821 0.002422762344232424 -5.132169861042249e-07 
-0.001142394041010118 0.0006011073400586788 -7.206406015553045e-06 
-8.397527137534274e-05 0.004413660968007194 -0.001400683110959008 
1.186201964684321e-06 0.0002474483686236324 3.585679297489492e-06 
0.02210705666441069 -0.01505858858971802 -0.001233985655598921 
-0.001814989005937463 0.002418430000753942 -1.575374980705867e-07 
-0.03235274698971054 0.0470649776929027 -0.02128728757797241 
0.008907099817942439 -0.008345202012788121 -2.038430088507821e-06 
-0.008636410195037858 0.008539038940830667 -0.0009304211606123561 
-0.01293077660841659 0.01783189121812656 -0.005202947783286336 
-0.01604032438213214 0.02069487137387612 -0.009207958113495552 
-0.0002915022218503627 0.0003688561476053386 -1.869273898310379e-06 
-0.0001161276236769982 0.0008145118848565035 -9.967375171525182e-07 
0.02449178837492739 -0.0288146471265985 -2.666506415279755e-05 
-0.001142394041010118 0.0006011073400586788 -7.206406015553045e-06 
1.363013284195996e-06 4.975091445624794e-06 -4.49745192988546e-08 
-0.003979345957822242 -0.01717353009066161 0.005559207992929891 
-0.0001454372512197837 0.0009413534693677503 -0.002507128067535615 
0.07395772350937849 -0.06742847923845267 -0.02235424190056524 
-0.01371462478130132 0.01843466541377563 -0.006138872633766598 
0.01558429315633006 -0.0205519279033516 -2.582186049678622e-05 
-0.002999996746111268 0.004197550793684604 -0.0002349290397074538 
-0.00293024510518063 0.007215202788993512 -0.0002304869396247929 
0.01558429315633006 -0.0205519279033516 -2.582186049678622e-05 
1.363013284195996e-06 4.975091445624794e-06 -4.49745192988546e-08 
3.954006548947723e-07 8.248278954121081e-05 1.195226432496496e-06 
-0.02368550337473507 -0.06136418026889215 0.01997627756963343 
0.0422432148812573 -0.01751084564470703 -0.01018963477897126 
-0.003484903939921784 0.004084515909438064 -0.000397511576369832 
-0.01017743789163645 0.006410164423893806 0.01462815096444335 
1.055566977476578e-05 4.194851618013736e-06 2.0875856023732e-07 
7.898863716442237e-07 -2.698009279681773e-07 2.466535848257099e-08 
4.089039852587987e-06 1.492527433687438e-05 -1.349235578965647e-07 
1.168599865358519e-06 -4.332343478481997e-06 3.556794880336365e-07 
-0.0001161276236769982 0.0008145118848565035 -9.967375171525182e-07 
0.008907099817942439 -0.008345202012788121 -2.038430088507821e-06 
-0.004319932540199405 0.005805632906184504 -5.950482332130243e-05 
-0.002844972144598563 0.01490172545394646 -0.001109551957293469 
-0.004826889763782102 0.007988471854574746 -0.0002709450126707214 
0.00249323771847857 -0.000502936404296941 -0.002413200512033962 
-0.0004687575105346713 0.0005709272004124779 -1.136275196760439e-05 
-0.003037501361357161 0.02934185637963136 -0.01727920904509231 
-0.001816157605802821 0.002422762344232424 -5.132169861042249e-07 
-0.0001861401388136252 0.001962643995789654 6.699256052398473e-06 
-0.004320723341509195 0.005640667327102082 -6.189527618629541e-05 
-0.001437685304415961 0.001843840843669413 -1.050286495473163e-05 
-0.0001161276236769982 0.0008145118848565035 -9.967375171525182e-07 
0.01243314532902922 -0.0208039443875546 -0.01028838757197053 
4.089039852587987e-06 1.492527433687438e-05 -1.349235578965647e-07 
0.03343024392312776 -0.004917983215763669 -0.03119822198158597 
-0.01278759705376299 -0.05759249474839847 0.07484596353207863 
-3.96516096717046e-06 8.797887145604164e-08 2.312990926359476e-07 
-3.96516096717046e-06 8.797887145604164e-08 2.312990926359476e-07 
0.01769618247684302 -0.0101787848681707 -0.001390283888606346 
-0.004516498305881621 0.007024205716674538 -0.0002199351486844531 
-0.005796695870779401 0.008720642658872403 -0.001977972172108214 
-0.06378472493265798 0.08555002341607044 -0.03110590619666631 
-0.008466983585812412 0.01176332148986061 -0.003785351313409002 
1.363013284195996e-06 4.975091445624794e-06 -4.49745192988546e-08 
0.01728547218624918 -0.01560571167511568 -2.417963097404721e-05 
-0.01090426580104483 0.01648065074331654 -0.0001687790289895792 
-0.002147964329606057 -0.08369524146004839 0.07367217047888509 
-0.007037654914787854 -0.00378740629560188 0.03185180243177941 
-0.0001161276236769982 0.0008145118848565035 -9.967375171525182e-07 
0.02465820909509817 -0.01262888580805 -0.0064109451417257 
1.168599865358519e-06 -4.332343478481997e-06 3.556794880336365e-07 
-0.000438786539672249 0.008128847521939387 -0.001245974075405666 
-7.027985652994179e-08 1.061993953853419e-08 2.150119316175514e-07 
0.07283529307032577 -0.04809908709394232 -0.01694813182777137 
-1.066858761554824e-05 0.0006031045566037075 -2.28784068841576e-09 
-0.0005215434419723931 0.002559614231316284 7.220490382308794e-07 
-0.0001454372512197837 0.0009413534693677503 -0.002507128067535615 
-0.01794215918704376 0.02469188975960421 -0.01667790612847463 
1.363013284195996e-06 4.975091445624794e-06 -4.49745192988546e-08 
1.055566977476578e-05 4.194851618013736e-06 2.0875856023732e-07 
-3.844839310535258e-07 6.866587594357684e-06 2.723061006463012e-07 
-0.001142394041010118 0.0006011073400586788 -7.206406015553045e-06 
-0.00424850159763243 0.003161393759358083 -5.74943587041579e-05 
0.09695324575454974 -0.09129592629727361 -0.04790057678929718 
-1.281166881078742e-05 0.0001922683929828202 3.00324270499983e-06 
-0.01594618123316449 0.02138750585401761 -0.007776476549166579 
0.01342841181184772 -0.01067511268858389 -0.006561048988145132 
-0.001339446921614129 0.006219226572411998 -0.001411329711036846 
-0.002192532835250435 0.00304889590624381 -3.648985443739118e-05 
-0.0005796630165352608 0.003583449647393 -0.0002219126792993823 
-2.7227192211697e-05 9.538751488640216e-06 -5.527402244789955e-07 
-0.008715189728995553 0.01076169341344567 -0.0005188667984368427 
-0.0002651286255036082 -0.007389795937342626 0.01161393375348301 
-0.00346567586604399 0.006347284480125051 -0.000448544756405617 
-0.0027003407000788 0.004601443372442114 -0.0002194219316983489 
-6.204671293787509e-05 0.0006542146652632181 2.233085350799494e-06 
-2.655370970986075e-05 0.001829214035593622 -1.867615992606276e-07 
-0.001809767636080273 0.004541832770802586 -0.001616187026731846 
0.0112295216950161 -0.01337198635710266 -4.814885405351671e-05 
-0.001000418817567828 0.005192048886796885 -0.001411670981956936 
-0.006545281517286073 0.01135884621020997 -0.001670436087372435 
0.0002572699585974248 -0.01289225833164001 0.005407745818023202 
-0.0001937859158615405 0.01281827324279191 -0.01737397319364945 
0.009036988859765666 -0.01032309045085886 -8.463870849090784e-05 
7.898863716442237e-07 -2.698009279681773e-07 2.466535848257099e-08 
0.01456783439910922 -0.01040681904753268 -0.00770567198842315 
-0.002124250798816215 0.001580696879679042 -2.874717935207895e-05 
-0.001043086883944786 0.005119228462632569 1.444098076461759e-06 
-0.01462897938768865 0.01679034696727847 -0.002523224971592371 
1.168599865358519e-06 -4.332343478481997e-06 3.556794880336365e-07 
-0.003730744399328317 0.0103469876436446 -0.004035203705243392 
1.363013284195996e-06 4.975091445624794e-06 -4.49745192988546e-08 
-1.360155518243164e-05 0.0001925381939107884 2.978577346517261e-06 
-0.01190083879635752 0.01757001965182297 -0.02022800671887761 
0.04443704089414414 -0.06435353455492318 0.02100149882440903 
-0.08869581677823148 0.01889929208007952 -0.006443043512341116 
-0.0570006382134615 0.06520558538925517 -0.02173059473371686 
-0.001142394041010118 0.0006011073400586788 -7.206406015553045e-06 
-0.002284788082020235 0.001202214680117358 -1.441281203110609e-05 
1.363013284195996e-06 4.975091445624794e-06 -4.49745192988546e-08 
-2.7227192211697e-05 9.538751488640216e-06 -5.527402244789955e-07 
0.03950756960563134 -0.04268513949816684 -0.00535137907417876 
-0.01594618123316449 0.02138750585401761 -0.007776476549166579 
-0.0003102335646893754 0.00327107332631609 1.116542675399745e-05 
-0.001816157605802821 0.002422762344232424 -5.132169861042249e-07 
-0.0121573707779927 0.009253561048124316 -0.001421266445532018 
-0.0175139923339316 0.03554355751144472 -0.0259348809147196 
-0.0001149170626226498 0.001306874398305929 -5.64000992903081e-06 
-0.001543589266224178 0.007687243017124418 2.798676166784821e-06 
-0.0001259507704763217 0.003700469061991255 -0.001314481354375563 
-0.0005750741217663844 0.0007375363374677652 -4.20114598189265e-06 
-0.005165582634912928 0.006572300994030064 -0.002789100144289552 
-0.003001955232348271 0.004202152938091053 -0.00023530938455397 
-0.0243139725881233 0.01849338892105992 -0.002843077503265329 
-0.006545281517286073 0.01135884621020997 -0.001670436087372435 
-0.004172347535779145 0.02047691385053027 5.776392305847035e-06 
-6.204671293787509e-05 0.0006542146652632181 2.233085350799494e-06 
-3.96516096717046e-06 8.797887145604164e-08 2.312990926359476e-07 
-0.01041208419754852 0.009202380259235565 -0.0007925121386685621 
-0.03536815918564606 0.01926084156106405 0.01512899725445521 
-0.002152236301192106 0.004885198905646587 -0.003024961999399631 
0.05688911183716128 -0.02671158123992472 -0.02472460837693795 
0.006791874785417588 -0.003717605778767986 0.02251163348171309 
7.898863716442237e-07 -2.698009279681773e-07 2.466535848257099e-08 
0.04701151484200348 -0.04302708690293298 -0.0006931550383879575 
-0.007621877849781064 0.008948718849626121 -0.0001595586154034347 
7.898863716442237e-07 -2.698009279681773e-07 2.466535848257099e-08 
-0.0009235553982738576 0.003111318530295052 -0.0002311543316360854 
-0.0448273035028931 0.05765770962062603 -0.03294743846231235 
-0.002124250798816215 0.001580696879679042 -2.874717935207895e-05 
-0.0001161276236769982 0.0008145118848565035 -9.967375171525182e-07 
-0.003001955232348271 0.004202152938091053 -0.00023530938455397 
0.01574374025912804 -0.01465159228885313 5.312734487918709e-07 
0.01548437448379875 -0.05394169479161895 0.05982619349025606 
0.0329874341969538 -0.01956564834650893 -0.0009546953251766488 
-0.002699172100213441 0.004597111028963632 -0.0002190662522103153 
-0.0001122163100820672 0.0009066750563609957 1.332052352288411e-07 
-0.0001454372512197837 0.0009413534693677503 -0.002507128067535615 
-2.133717523109648e-05 0.001206209113207415 -4.57568137683152e-09 
1.363013284195996e-06 4.975091445624794e-06 -4.49745192988546e-08 
0.02210648353749814 -0.01506383348209162 -0.00123391601572114 
-0.04741396845097647 0.06097229079575249 -0.03296598793974283 
2.726026568391993e-06 9.950182891249587e-06 -8.994903859770921e-08 
0.001643562727379163 -0.005201653229196152 0.01884289362446226 
-0.002587279265972203 0.003283783270278057 -0.001394629786066412 
-0.001582425487055498 -0.01800016077417865 0.02098110880239375 
0.01287799649938781 -0.004657898424658857 -0.004894452641877936 
0.03302921244537722 -0.03025730396396881 -2.364835752525535e-05 
0.0956849226969186 -0.07966598278769685 -0.003908163881585712 
1.363013284195996e-06 4.975091445624794e-06 -4.49745192988546e-08 
0.01863439126638714 -0.01117158596563637 -0.001634430834795971 
-0.008466983585812412 0.01176332148986061 -0.003785351313409002 
-0.006003910464696542 0.008404305876182107 -0.0004706187691079399 
-0.006545281517286073 0.01135884621020997 -0.001670436087372435 
1.952715799663514e-06 -1.79809936260648e-06 9.836650767135714e-07 
-0.01748958493929037 0.02881336935405207 -0.02356951901758409 
-0.02040526955636417 0.02741862069524849 -0.007971192780534354 
-0.005662346073256947 0.005757609965977471 -0.000908590151060919 
0.03512250393513047 -0.03658734768567921 -0.005424358783053543 
-1.360155518243164e-05 0.0001925381939107884 2.978577346517261e-06 
-0.0004687575105346713 0.0005709272004124779 -1.136275196760439e-05 
0.009793004990465499 -0.01153247785691173 -5.829603952021466e-05 
-0.03121999642100318 -0.1341714704550091 0.1151954096370233 
1.363013284195996e-06 4.975091445624794e-06 -4.49745192988546e-08 
0.0003146213796558025 0.03079599042300245 -0.03495094829906601 
-0.06610441710072724 0.08036233703811492 -0.02930181828664371 
-0.008636410195037858 0.008539038940830667 -0.0009304211606123561 
-2.418978176118311e-05 -0.008347711522994808 0.01496302850304669 
-1.066858761554824e-05 0.0006031045566037075 -2.28784068841576e-09 
-0.001142394041010118 0.0006011073400586788 -7.206406015553045e-06 
-1.066858761554824e-05 0.0006031045566037075 -2.28784068841576e-09 
-0.0005215434419723931 0.002559614231316284 7.220490382308794e-07 
-0.004320723341509195 0.005640667327102082 -6.189527618629541e-05 
-0.004320723341509195 0.005640667327102082 -6.189527618629541e-05 
-1.066858761554824e-05 0.0006031045566037075 -2.28784068841576e-09 
-7.689678621070517e-07 1.373317518871537e-05 5.446122012926024e-07 
-0.007267795699489096 0.006722327059091801 -0.0002228679945908023 
1.055566977476578e-05 4.194851618013736e-06 2.0875856023732e-07 
-0.01200782092939308 0.01680861175236421 -0.0009412375382158799 
7.898863716442237e-07 -2.698009279681773e-07 2.466535848257099e-08 
0.02210608905178139 -0.01498108089162244 -0.001232745454647125 
-0.00178333033024022 0.004532563820241913 -0.00161565895186585 
-0.0001161276236769982 0.0008145118848565035 -9.967375171525182e-07 
-0.0005215434419723931 0.002559614231316284 7.220490382308794e-07 
-0.01215698629406165 0.009246694460529958 -0.001421538751632665 
-0.0001149170626226498 0.001306874398305929 -5.64000992903081e-06 
-0.05711412696357335 0.0335893063278301 0.002343317311197696 
-0.06166755475882136 -0.03472552106621653 0.05787478320996441 
0.05710787632704595 -0.03362385678730292 -0.01273177678367495 
-0.008862271182676637 0.01843553216549648 -0.01786893031090502 
-3.844839310535258e-07 6.866587594357684e-06 2.723061006463012e-07 
-0.0002322552473539964 0.001629023769713007 -1.993475034305036e-06 
-0.0001161276236769982 0.0008145118848565035 -9.967375171525182e-07 
-0.0027003407000788 0.004601443372442114 -0.0002194219316983489 
-0.03377408837467297 0.05479742995148617 -0.04006642912894703 
-0.0231867834831176 0.03488257063548961 -0.007911888688432855 
-0.0001454372512197837 0.0009413534693677503 -0.002507128067535615 
0.06737713017009661 -0.08023191814261599 -0.0002888931243211 
0.004593118286923401 -0.01431636426366923 -0.01397588501457298 
-0.0007233869777478697 -0.01001328597602122 0.008259196376486961 
-0.01366238849488166 0.01902058745620318 -0.009365335439846171 
0.01223962506195656 -0.02372599707179606 0.01593638855241603 
1.055566977476578e-05 4.194851618013736e-06 2.0875856023732e-07 
-0.008466983585812412 0.01176332148986061 -0.003785351313409002 
-0.002124250798816215 0.001580696879679042 -2.874717935207895e-05 
0.01574374025912804 -0.01465159228885313 5.312734487918709e-07 
0.0003821008214551962 0.01261198504392663 -0.003691464511175423 
-0.002856221461567518 0.005636346101329705 -0.001082694837048556 
0.01558429315633006 -0.0205519279033516 -2.582186049678622e-05 
-7.930321934340921e-06 1.759577429120833e-07 4.625981852718951e-07 
-4.198359015877389e-05 0.001233489687330418 -0.000438160451458521 
1.363013284195996e-06 4.975091445624794e-06 -4.49745192988546e-08 
-0.001951052233507773 -0.001777638012580821 0.003659950502408636 
-8.397527137534274e-05 0.004413660968007194 -0.001400683110959008 
-0.003471302384739352 0.003891977715527276 -0.0004004901537163493 
-0.01501795696808736 0.02164658868320125 -0.001573872323952419 
-0.02154890300732669 0.03490405756574032 -0.005636342179833581 
-7.027985652994179e-08 1.061993953853419e-08 2.150119316175514e-07 
-0.0115933917415588 0.01744128531774481 -0.003955944344216427 
-0.01228539692908043 0.01339829723240217 -0.0009317915762488061 
-0.01604032438213214 0.02069487137387612 -0.009207958113495552 
-0.007066824959258466 0.01391846044152625 -0.001669714038334204 
-0.002124250798816215 0.001580696879679042 -2.874717935207895e-05 
-0.003504115197171481 -0.009074404782942934 0.01593585727896724 
-0.01028154636909106 0.00540996606052811 -6.485765413997741e-05 
0.01506274971435766 -0.01799231367203531 -2.509981145855536e-05 
-0.003878990318301044 -0.01124273794727551 0.01688867036958721 
-1.066858761554824e-05 0.0006031045566037075 -2.28784068841576e-09 
-8.397527137534274e-05 0.004413660968007194 -0.001400683110959008 
0.01574374025912804 -0.01465159228885313 5.312734487918709e-07 
1.363013284195996e-06 4.975091445624794e-06 -4.49745192988546e-08 
0.0054328258242367 -0.004651343698230261 -0.00202612102616173 
7.196065151142828e-07 -2.591809884296457e-07 2.396772901001225e-07 
0.008171384613070919 -0.006125663669916183 0.01390645081407511 
0.0112295216950161 -0.01337198635710266 -4.814885405351671e-05 
0.02338826678404055 -0.02070400665805561 -0.0003475292821918325 
-0.0005215434419723931 0.002559614231316284 7.220490382308794e-07 
-0.007889180867672351 -0.002976612970455313 0.01586287757009245 
-6.204671293787509e-05 0.0006542146652632181 2.233085350799494e-06 
-3.96516096717046e-06 8.797887145604164e-08 2.312990926359476e-07 
-0.008078452181992882 -0.008155873429100711 0.01042660293059638 
-0.007621877849781064 0.008948718849626121 -0.0001595586154034347 
-4.197267343493261e-05 0.001322839064465987 -0.0004366929189253782 
0.01535880477793562 0.04475447696076558 -0.06260643568155247 
-0.03897460354086143 0.08141069009796488 -0.04541107899759612 
-0.02212344611682125 0.001070885169719059 0.01913505977501193 
-0.02383659280568697 -0.06249187774049793 0.06559601531014533 
1.055566977476578e-05 4.194851618013736e-06 2.0875856023732e-07 
-0.06466740285484228 0.05318300036284622 -0.01855160951626005 
7.898863716442237e-07 -2.698009279681773e-07 2.466535848257099e-08 
0.01323312379222667 -0.03990674167590152 0.03176583849667924 
-0.04052800429588598 0.07619069491482762 -0.06323611660491719 
-0.05784627115765166 0.02669010625356586 -0.01184254463266144 
-0.005536288115142147 -0.001129897422800364 0.01118338662844737 
-0.0005689944289197125 0.002980345090789292 -0.0002219103914586939 
0.003533063580097327 0.006362758760176571 1.71442705108742e-05 
-0.001142394041010118 0.0006011073400586788 -7.206406015553045e-06 
2.726026568391993e-06 9.950182891249587e-06 -8.994903859770921e-08 
-0.0005441964508925401 0.0113504698903009 -0.005742742701962612 
-0.0676345607408655 0.1343986443768992 -0.07501690440615695 
-0.003001955232348271 0.004202152938091053 -0.00023530938455397 
-4.081499029341538e-05 0.001229157343851936 -0.0004378047719704873 
-0.0001161276236769982 0.0008145118848565035 -9.967375171525182e-07 
-0.005796695870779401 0.008720642658872403 -0.001977972172108214 
1.168599865358519e-06 -4.332343478481997e-06 3.556794880336365e-07 
-0.02803445543240708 0.04072794489489177 -0.01657227963040188 
-0.006238729101936792 0.008408808759081732 -0.001213791790221943 
0.01556295598109896 -0.01934571879014418 -2.582643617816307e-05 
-0.01500167142446985 0.02650007430170295 -0.01027585459518516 
-0.0001412699194832206 0.005486076964858951 -0.001392102925911149 
-0.001433968756912802 -0.01646222753903555 0.02167341757151517 
-0.02133607788999907 0.08929685526833492 -0.05090413116006021 
7.898863716442237e-07 -2.698009279681773e-07 2.466535848257099e-08 
-0.05097096314277613 0.09268349197074244 -0.06773507551595244 
-0.04384970697798136 0.008699258818478078 -0.01336443099921137 
0.03413248406173039 -0.03334396763681984 -0.008972131628713518 
-0.007622262333712117 0.008955585437220479 -0.0001592863093027884 
-0.001043086883944786 0.005119228462632569 1.444098076461759e-06 
-0.02742956594122122 0.04042640312439866 -0.02124180369481818 
-0.001575225283770046 0.00200029266928813 -0.00423850435958275 
-0.0005530501703178539 -0.007014161181014386 0.01161210548659271 
0.001693245399382805 -0.00525810813060873 -0.002431804855685849 
3.954006548947723e-07 8.248278954121081e-05 1.195226432496496e-06 
-0.01481314660080678 0.03009516939254854 -0.01450394622902943 
1.363013284195996e-06 4.975091445624794e-06 -4.49745192988546e-08 
-0.02265346460860968 0.03073914170623975 -0.004663599696180836 
-0.0008341230544233208 -0.004409450846553335 0.01139202336202431 
-0.007267795699489096 0.006722327059091801 -0.0002228679945908023 
-2.885515344815041e-05 9.620434031322933e-07 3.899178442242242e-07 
-0.0009992502177024688 0.005187716543318402 -0.001411315302468903 
-1.066858761554824e-05 0.0006031045566037075 -2.28784068841576e-09 
0.02672129945382732 -0.02503560603836436 -6.115290265523444e-06 
2.726026568391993e-06 9.950182891249587e-06 -8.994903859770921e-08 
-0.005707533865086333 0.01583550430789757 -0.008252823805794044 
-7.027985652994179e-08 1.061993953853419e-08 2.150119316175514e-07 
-0.0001454372512197837 0.0009413534693677503 -0.002507128067535615 
-0.008466983585812412 0.01176332148986061 -0.003785351313409002 
0.01728547218624918 -0.01560571167511568 -2.417963097404721e-05 
-0.02480513344770574 0.02883700389768991 -0.006245497560829748 
0.005028109499641395 -0.01958793996006363 0.0168866319394987 
0.004205779643372862 -0.06776030068409497 0.05616205048364312 
-0.04371321636330295 0.04882533018429985 -0.008952762709843898 
0.01315995675347 0.0660920468353864 -0.06050371910787509 
-0.0001452867270037581 0.009613696967139282 -0.0130306411541858 
0.003926608144754207 0.002497759367407038 -0.01661618854148511 
-0.05038034045385237 0.05114108974061545 -0.02133524351022153 
-0.002122492384877124 0.001668154760665877 -2.759692743888128e-05 
-0.003382507640369274 0.002772462657752027 -0.0001310969531733873 
0.01227806439308405 -0.008304307808728081 -0.0004480134829568251 
1.363013284195996e-06 4.975091445624794e-06 -4.49745192988546e-08 
0.009278399181651799 -0.01514961374974395 0.003612016660286737 
-2.497966813282734e-05 -0.008347441722066839 0.01496300383768821 
-3.96516096717046e-06 8.797887145604164e-08 2.312990926359476e-07 
-0.002192532835250435 0.00304889590624381 -3.648985443739118e-05 
1.363013284195996e-06 4.975091445624794e-06 -4.49745192988546e-08 
-0.004320723341509195 0.005640667327102082 -6.189527618629541e-05 
-0.005662730557188001 0.005764476553571829 -0.0009083178449602727 
-7.027985652994179e-08 1.061993953853419e-08 2.150119316175514e-07 
0.01272275960016233 -0.008686372612866542 0.009504477612073915 
-0.0005215434419723931 0.002559614231316284 7.220490382308794e-07 
-0.004218817594812041 0.005138344803712301 -0.0001022647677084394 
-1.463374858271871e-05 0.0006031925354751635 2.290112519475352e-07 
-0.0001988923339979926 0.005720535366313123 -0.001406323120888039 
1.17242696401243e-05 -1.374918604681963e-07 5.644380482709557e-07 
-0.003078010879427302 0.01109538505406708 -0.00309158126163657 
-0.008962938723060688 0.01460888902529133 -0.003796388097125107 
0.03846448272168655 -0.03756591103553427 -0.005349934976102299 
-0.0175139923339316 0.03554355751144472 -0.0259348809147196 
-0.04491087469586109 0.0771406801760357 -0.04896887999820266 
-0.02293176611619747 0.05844397443245744 -0.007437513103340156 
0.01535203790897606 -0.01892290413363859 -2.781533553109129e-05 
-0.01039591113942312 0.09066252710188365 -0.06686988312656723 
-0.001866197740641062 0.03937370190506376 -0.03134318090848307 
-1.066858761554824e-05 0.0006031045566037075 -2.28784068841576e-09 
-0.005792465279653851 -0.07644492885226126 0.06958298264340802 
0.0283057712151034 -0.003935856047066498 -0.02197063411283044 
-0.002124321078672745 0.00158070749961858 -2.853216742046141e-05 
1.168599865358519e-06 -4.332343478481997e-06 3.556794880336365e-07 
-0.00179488464595987 0.003827856905325743 -0.000222039292852009 
-0.004417669896671579 -0.0353186633785481 0.03494447905470052 
0.01194575083336339 -0.02059024162501045 -5.97903337266643e-05 
-8.397527137534274e-05 0.004413660968007194 -0.001400683110959008 
-4.842890900125265e-05 0.003204565655713094 -0.004343547051395267 
-0.01736391491562242 0.02558397527927408 -0.007519345433650383 
0.01045533040670539 -0.006766095845204993 -0.001613545109674451 
-0.001816157605802821 0.002422762344232424 -5.132169861042249e-07 
3.954006548947723e-07 8.248278954121081e-05 1.195226432496496e-06 
-0.0001161276236769982 0.0008145118848565035 -9.967375171525182e-07 
7.898863716442237e-07 -2.698009279681773e-07 2.466535848257099e-08 
-0.0001149170626226498 0.001306874398305929 -5.64000992903081e-06 
-3.844839310535258e-07 6.866587594357684e-06 2.723061006463012e-07 
-1.066858761554824e-05 0.0006031045566037075 -2.28784068841576e-09 
0.01571651306691634 -0.01464205353736449 -2.146677568712498e-08 
-1.066858761554824e-05 0.0006031045566037075 -2.28784068841576e-09 
-0.0002651286255036082 -0.007389795937342626 0.01161393375348301 
7.898863716442237e-07 -2.698009279681773e-07 2.466535848257099e-08 
-0.008636410195037858 0.008539038940830667 -0.0009304211606123561 
-0.000991666385490403 -0.04865295046087127 0.05407766013620104 
0.01428423656041603 -0.01140381791801306 -0.0002592493382379171 
-0.00185259618545863 0.03918116371115297 -0.03134615948582959 
-9.845604804914235e-05 -0.04095880172373379 0.03500610998823823 
-8.397527137534274e-05 0.004413660968007194 -0.001400683110959008 
-0.01404129164577693 0.01926885395770835 -0.003603135354924273 
-0.003504115197171481 -0.009074404782942934 0.01593585727896724 
0.0100195256635943 0.03001853577619085 -0.04947123912946855 
-0.001054873201991222 0.005211126389774164 -0.001412776462405894 
-0.0004175354766660537 0.0066165884145182 -0.00537849941851692 
-2.497966813282734e-05 -0.008347441722066839 0.01496300383768821 
0.02210648445243629 -0.01489859810208123 -0.001231550228214629 
-0.001968723809135629 0.03999567559600947 -0.03134715622334674 
-0.004409511174283476 0.004884778812992948 -0.0001563432075267236 
-0.008466983585812412 0.01176332148986061 -0.003785351313409002 
3.954006548947723e-07 8.248278954121081e-05 1.195226432496496e-06 
0.02205533766412417 -0.02196055421553461 -0.006437235895240143 
-0.04744636147161493 0.04883016462951472 -0.02936902015807488 
1.055566977476578e-05 4.194851618013736e-06 2.0875856023732e-07 
-0.002192532835250435 0.00304889590624381 -3.648985443739118e-05 
0.004211640979167102 0.004542752194237191 -0.007688092413240763 
0.01357106055131057 -0.009866329753460997 -0.004371762957298554 
-0.006496026694937385 0.009844287345077939 -0.01055450587179737 
-8.397527137534274e-05 0.004413660968007194 -0.001400683110959008 
-7.027985652994179e-08 1.061993953853419e-08 2.150119316175514e-07 
-0.01524375569956213 0.01789743769925224 -0.0003191172308068694 
-0.01101191020776073 0.01321809564372573 -0.006913590577006279 
7.908013097895445e-07 0.0001649655790824216 2.390452864992992e-06 
-0.01866734834691182 0.02644933615537449 -0.02423437681826266 
-0.007298828219218209 0.008042494387581443 -0.0006596244610565895 
-0.005725332146986652 -0.005033834061874119 0.01642581709411374 
-0.004320723341509195 0.005640667327102082 -6.189527618629541e-05 
-1.066858761554824e-05 0.0006031045566037075 -2.28784068841576e-09 
1.168599865358519e-06 -4.332343478481997e-06 3.556794880336365e-07 
-3.96516096717046e-06 8.797887145604164e-08 2.312990926359476e-07 
-0.004320723341509195 0.005640667327102082 -6.189527618629541e-05 
-0.004321847819213675 0.005640837246134699 -5.845508528041459e-05 
0.02509840229363619 0.01088418557335425 -0.03249805103543014 
3.954006548947723e-07 8.248278954121081e-05 1.195226432496496e-06 
-0.001621882211704583 0.01161463829070749 -0.005752054140402935 
0.0219610472012165 -0.01395724463271348 -0.003738678295750243 
-0.0004582018407599055 0.0005751220520304916 -1.115399340736706e-05 
1.055566977476578e-05 4.194851618013736e-06 2.0875856023732e-07 
-0.003216538904074411 -0.03594213690078623 0.03476980386616711 
0.0156597649877527 -0.01023793132084594 -0.001400151837510216 
-0.007158286908817997 0.0213607503108499 -0.009831146618487772 
-0.0001161276236769982 0.0008145118848565035 -9.967375171525182e-07 
-0.003001955232348271 0.004202152938091053 -0.00023530938455397 
-0.01110391910199249 0.01344381174169664 -0.0005598360450288547 
-0.003001955232348271 0.004202152938091053 -0.00023530938455397 
-0.002284788082020235 0.001202214680117358 -1.441281203110609e-05 
3.954006548947723e-07 8.248278954121081e-05 1.195226432496496e-06 
-0.0001161276236769982 0.0008145118848565035 -9.967375171525182e-07 
-0.003878990318301044 -0.01124273794727551 0.01688867036958721 
0.01574374025912804 -0.01465159228885313 5.312734487918709e-07 
-3.20057628466447e-05 0.001809313669811122 -6.863522065254056e-09 
-0.0001149170626226498 0.001306874398305929 -5.64000992903081e-06 
-0.0002651286255036082 -0.007389795937342626 0.01161393375348301 
1.168599865358519e-06 -4.332343478481997e-06 3.556794880336365e-07 
0.008518566625138868 -0.001681374049585309 -0.004944679124427599 
-0.004320723341509195 0.005640667327102082 -6.189527618629541e-05 
-0.0008066072681923761 0.008504790648421835 2.903010956039343e-05 
-0.005171551474035545 0.01921760237186188 -0.009787101463140005 
-0.01130287345921952 0.01130518998650247 -0.001374259109940378 
-3.844839310535258e-07 6.866587594357684e-06 2.723061006463012e-07 
-0.003471302384739352 0.003891977715527276 -0.0004004901537163493 
-0.003623527676472156 0.01316007347713271 -0.0051268238749963 
3.954006548947723e-07 8.248278954121081e-05 1.195226432496496e-06 
0.01568169354619016 -0.01399737762358991 2.764358799591362e-06 
1.168599865358519e-06 -4.332343478481997e-06 3.556794880336365e-07 
-0.002856221461567518 0.005636346101329705 -0.001082694837048556 
-0.0005043534728002665 0.007304258714863457 -0.002873364826015611 
-1.360155518243164e-05 0.0001925381939107884 2.978577346517261e-06 
-0.0004687575105346713 0.0005709272004124779 -1.136275196760439e-05 
1.363013284195996e-06 4.975091445624794e-06 -4.49745192988546e-08 
-0.01604032438213214 0.02069487137387612 -0.009207958113495552 
-0.04117241503708328 0.05575313121539616 -0.035563251456926 
0.05877995994789206 -0.05995826906742414 -0.01658112380806409 
0.07815821051429386 -0.04902333218061427 -0.01718256948254412 
-0.003504115197171481 -0.009074404782942934 0.01593585727896724 
-7.027985652994179e-08 1.061993953853419e-08 2.150119316175514e-07 
-0.01238341603611147 0.03541485836202215 -0.0151445677968914 
-0.007769475789611842 0.00784047018280885 0.003204222448639165 
-0.0001454372512197837 0.0009413534693677503 -0.002507128067535615 
-1.066858761554824e-05 0.0006031045566037075 -2.28784068841576e-09 
-0.01100438549015034 0.01172118150737815 -0.0002906555685768221 
-8.261225809114674e-05 0.004418636059452819 -0.001400728085478307 
0.03950756960563134 -0.04268513949816684 -0.00535137907417876 
-0.006816387957223041 0.009505750163849512 -0.004682531664715646 
0.02037325464371429 -0.02100247632093732 -0.003224654149405419 
-0.001732837933021995 0.003173642240062525 -0.0002242723782028085 
-0.001142394041010118 0.0006011073400586788 -7.206406015553045e-06 
-0.002585775737017773 0.009608801185930939 -0.004893550731570002 
1.363013284195996e-06 4.975091445624794e-06 -4.49745192988546e-08 
1.048538991823582e-05 4.205471557552271e-06 4.237704918548704e-07 
0.006648224560160162 -0.03867087695331493 0.04133411965999773 
-5.558514534120552e-05 0.001426027881241207 -0.0004351818741120037 
0.0449180867800644 -0.05348794542841066 -0.0001925954162140668 
1.579772743288447e-06 -5.396018559363546e-07 4.933071696514199e-08 
-3.844839310535258e-07 6.866587594357684e-06 2.723061006463012e-07 
-0.1295090353694036 0.1856360342400114 -0.09753547159992072 
-0.004431135591338319 0.009217766082748238 -0.008934465155452511 
-0.02811721479426452 0.02748601048266823 -0.004026311304389755 
-1.517017214676942e-06 4.092972463817792e-05 1.658501962360382e-06 
-0.0175139923339316 0.03554355751144472 -0.0259348809147196 
-0.0175139923339316 0.03554355751144472 -0.0259348809147196 
0.1170707851937996 -0.1045358873611889 -0.004300684134566312 
0.01018605032714026 -0.008245891306875738 -4.643244987640865e-05 
-5.4454384423394e-05 1.907750297728043e-05 -1.105480448957991e-06 
-0.01130404205908488 0.01130952232998095 -0.001374614789428412 
-0.001142394041010118 0.0006011073400586788 -7.206406015553045e-06 
-0.0005215434419723931 0.002559614231316284 7.220490382308794e-07 
-7.027985652994179e-08 1.061993953853419e-08 2.150119316175514e-07 
-1.066858761554824e-05 0.0006031045566037075 -2.28784068841576e-09 
-0.007621877849781064 0.008948718849626121 -0.0001595586154034347 
-0.003504115197171481 -0.009074404782942934 0.01593585727896724 
-0.03542398853604346 0.05678746727585821 -0.03006041415199194 
1.363013284195996e-06 4.975091445624794e-06 -4.49745192988546e-08 
0.01393288166880074 -0.02265090677445726 -1.454995194639928e-05 
0.00876163237663812 -0.002663022896451216 -0.006661622027877347 
-0.006545281517286073 0.01135884621020997 -0.001670436087372435 
1.363013284195996e-06 4.975091445624794e-06 -4.49745192988546e-08 
3.954006548947723e-07 8.248278954121081e-05 1.195226432496496e-06 
-7.027985652994179e-08 1.061993953853419e-08 2.150119316175514e-07 
-3.96516096717046e-06 8.797887145604164e-08 2.312990926359476e-07 
1.055566977476578e-05 4.194851618013736e-06 2.0875856023732e-07 
-0.00185259618545863 0.03918116371115297 -0.03134615948582959 
-0.003857089092379868 -0.01123461804496745 0.01688911255206616 
0.01096439306951249 -0.02076178229444529 0.01156578489942949 
-0.00227597771567885 0.01192138036315717 -0.0008876415658347755 
0.01574374025912804 -0.01465159228885313 5.312734487918709e-07 
-0.0002651286255036082 -0.007389795937342626 0.01161393375348301 
1.363013284195996e-06 4.975091445624794e-06 -4.49745192988546e-08 
-0.0002651286255036082 -0.007389795937342626 0.01161393375348301 
1.055566977476578e-05 4.194851618013736e-06 2.0875856023732e-07 
0.05315291421354888 -0.06496727810389022 -0.005368029599116106 
-0.01135137264807731 0.0145097662621551 -0.005717591149404028 
-4.995933626565467e-05 -0.01669488344413368 0.02992600767537642 
-0.002274667896320539 0.002429433318180695 -4.734095477121141e-05 
-0.0002908745024395674 0.001882706938735501 -0.005014256135071229 
-0.01274550479289729 0.009484181278074249 -0.0001724830761124735 
-7.027985652994179e-08 1.061993953853419e-08 2.150119316175514e-07 
1.055566977476578e-05 4.194851618013736e-06 2.0875856023732e-07 
-1.360155518243164e-05 0.0001925381939107884 2.978577346517261e-06 
-0.0005215434419723931 0.002559614231316284 7.220490382308794e-07 
-0.0549121122814863 0.0490138464726027 -0.02884874565379956 
3.954006548947723e-07 8.248278954121081e-05 1.195226432496496e-06 
-0.0005689944289197125 0.002980345090789292 -0.0002219103914586939 
-4.198359015877389e-05 0.001233489687330418 -0.000438160451458521 
0.01574374025912804 -0.01465159228885313 5.312734487918709e-07 
-0.01471508112510333 0.02237809481677106 -0.006819363068647552 
-0.0001874208413785575 0.002174843156698168 -0.002945288518994135 
-0.01594618123316449 0.02138750585401761 -0.007776476549166579 
-3.96516096717046e-06 8.797887145604164e-08 2.312990926359476e-07 
-3.844839310535258e-07 6.866587594357684e-06 2.723061006463012e-07 
-0.002192532835250435 0.00304889590624381 -3.648985443739118e-05 
-0.003565492060615082 0.009060795297005346 -0.003230962224243667 
0.02210608905178139 -0.01498108089162244 -0.001232745454647125 
-0.007441168070772774 -0.008625303450043026 0.01900536971563634 
-0.0002720982254462701 0.00567523494515045 -0.002871371350981306 
1.168599865358519e-06 -4.332343478481997e-06 3.556794880336365e-07 
0.04302773207066003 -0.01277710712031722 -0.01863099454642698 
-6.204671293787509e-05 0.0006542146652632181 2.233085350799494e-06 
-0.0004687575105346713 0.0005709272004124779 -1.136275196760439e-05 
-0.01300112158405946 0.01880324687463746 -0.005188766255529818 
-0.01594618123316449 0.02138750585401761 -0.007776476549166579 
-2.7227192211697e-05 9.538751488640216e-06 -5.527402244789955e-07 
0.02206090020434571 -0.0702829458062169 0.01039287712841955 
-0.01375910704681581 0.02973646889513225 -0.01384231684358563 
-0.01130404205908488 0.01130952232998095 -0.001374614789428412 
-0.03739412979652775 0.03084453532429057 -0.004496042892634725 
0.02365779027753034 -0.007436836921253118 -0.007822616123682636 
-0.006372752396448644 0.004742090639037124 -8.624153805623675e-05 
0.01393288166880074 -0.02265090677445726 -1.454995194639928e-05 
-0.002152631701847001 0.004802716116105376 -0.003026157225832128 
-0.001732837933021995 0.003173642240062525 -0.0002242723782028085 
-0.03306989486096265 0.04962386864038245 -0.006677793707938604 
-1.360155518243164e-05 0.0001925381939107884 2.978577346517261e-06 
-0.02219542910470344 0.01868780849723922 0.004835320152745484 
-3.96516096717046e-06 8.797887145604164e-08 2.312990926359476e-07 
0.008907099817942439 -0.008345202012788121 -2.038430088507821e-06 
0.01430605495471208 -0.01280775144518372 -9.971591505939759e-06 
-0.01594618123316449 0.02138750585401761 -0.007776476549166579 
3.954006548947723e-07 8.248278954121081e-05 1.195226432496496e-06 
0.02495955808159347 -0.01126561350188444 -0.01295858799812837 
1.168599865358519e-06 -4.332343478481997e-06 3.556794880336365e-07 
-0.0005215434419723931 0.002559614231316284 7.220490382308794e-07 
-7.027985652994179e-08 1.061993953853419e-08 2.150119316175514e-07 
-0.0005215434419723931 0.002559614231316284 7.220490382308794e-07 
-0.002152631701847001 0.004802716116105376 -0.003026157225832128 
1.055566977476578e-05 4.194851618013736e-06 2.0875856023732e-07 
-1.066858761554824e-05 0.0006031045566037075 -2.28784068841576e-09 
-0.008636410195037858 0.008539038940830667 -0.0009304211606123561 
-0.0007019088672759722 0.002664181986284814 -0.0002068374272722076 
-0.006816387957223041 0.009505750163849512 -0.004682531664715646 
7.898863716442237e-07 -2.698009279681773e-07 2.466535848257099e-08 
-0.006545281517286073 0.01135884621020997 -0.001670436087372435 
1.168599865358519e-06 -4.332343478481997e-06 3.556794880336365e-07 
-1.153451793160579e-06 2.059976278307305e-05 8.169183019389046e-07 
0.07393129346896933 -0.1087320781412811 0.03949494490354719 
1.168599865358519e-06 -4.332343478481997e-06 3.556794880336365e-07 
4.054024405906957e-07 6.596786666389506e-06 2.969714591288725e-07 
-0.0027003407000788 0.004601443372442114 -0.0002194219316983489 
-0.0005215434419723931 0.002559614231316284 7.220490382308794e-07 
7.898863716442237e-07 -2.698009279681773e-07 2.466535848257099e-08 
-0.0241473196956056 0.03393953557412401 -0.008723885275322788 
-0.005796695870779401 0.008720642658872403 -0.001977972172108214 
2.726026568391993e-06 9.950182891249587e-06 -8.994903859770921e-08 
-0.01594618123316449 0.02138750585401761 -0.007776476549166579 
-0.005171551474035545 0.01921760237186188 -0.009787101463140005 
1.055566977476578e-05 4.194851618013736e-06 2.0875856023732e-07 
-1.360155518243164e-05 0.0001925381939107884 2.978577346517261e-06 
-0.01363277591444608 0.01901150032769902 -0.009365063329431293 
-0.002585775737017773 0.009608801185930939 -0.004893550731570002 
-0.03258789536899569 0.05017334832047239 -0.03038585599539513 
-0.03141075943121133 0.04163007803920903 -0.008792048051152525 
-0.003504185477028011 -0.009074394163003395 0.01593607229089885 
0.04700878881543508 -0.04303703708582423 -0.0006930650893493598 
-0.01130404205908488 0.01130952232998095 -0.001374614789428412 
-0.0002298341252452996 0.002613748796611859 -1.128001985806162e-05 
-0.0005215434419723931 0.002559614231316284 7.220490382308794e-07 
0.0224590433900322 -0.02674397271420533 -9.629770810703342e-05 
-0.007948523341749388 0.008242660597787251 -0.0001809615271210603 
-0.005961392506312041 0.006181995448340438 -0.0001357211453407952 
-0.0001161276236769982 0.0008145118848565035 -9.967375171525182e-07 
-3.844839310535258e-07 6.866587594357684e-06 2.723061006463012e-07 
0.03148748051825608 -0.02930318457770626 1.062546897583742e-06 
-0.003330322756655649 0.003632684492328099 -4.205853056919212e-05 
-3.844839310535258e-07 6.866587594357684e-06 2.723061006463012e-07 
-0.001793998917855769 0.005135668376845621 -0.001615661239706538 
7.898863716442237e-07 -2.698009279681773e-07 2.466535848257099e-08 
-0.0003722802776272504 0.003925287991579309 1.339851210479695e-05 
-0.002284788082020235 0.001202214680117358 -1.441281203110609e-05 
-0.001581446957702355 -0.01798831909513867 0.0209813361339751 
-7.027985652994179e-08 1.061993953853419e-08 2.150119316175514e-07 
0.0131004882233823 -0.066157864596114 0.03805380987707122 
-0.0005215434419723931 0.002559614231316284 7.220490382308794e-07 
-2.108395695898319e-07 3.185981861560173e-08 6.450357948526536e-07 
-0.0001161276236769982 0.0008145118848565035 -9.967375171525182e-07 
-0.008466983585812412 0.01176332148986061 -0.003785351313409002 
0.02350439440771754 -0.02151851854291211 -0.0003465325446746799 
-0.004352291821606263 0.006878373105929591 -0.0004994169452213439 
-0.0009375150210693425 0.001141854400824956 -2.272550393520877e-05 
5.842999326792598e-06 -2.166171739241009e-05 1.778397440168184e-06 
0.0185829681726117 -0.07917563652955403 0.05386632602989892 
-0.0005689944289197125 0.002980345090789292 -0.0002219103914586939 
0.02267107825966082 -0.01056822065860319 -0.006456185523505965 
-0.02642225248172885 0.03365699819994567 -0.004020182267306951 
-0.002124250798816215 0.001580696879679042 -2.874717935207895e-05 
-0.04120461182241928 0.01848819878735152 -0.01000248036824684 
-0.003856298845466565 0.004754069318813598 -0.0002529948921964048 
-0.2468695562550797 0.08316338523520397 0.05433690377546001 
0.0112295216950161 -0.01337198635710266 -4.814885405351671e-05 
-0.02604093783097445 0.07256072169214042 -0.0686698831735101 
0.02469215628363363 -0.002333338352334209 -0.005742210999148996 
-3.844839310535258e-07 6.866587594357684e-06 2.723061006463012e-07 
-0.01358162339528633 0.01404135636448463 -0.00358057531520815 
-0.0027003407000788 0.004601443372442114 -0.0002194219316983489 
-0.002124250798816215 0.001580696879679042 -2.874717935207895e-05 
-0.0002908745024395674 0.001882706938735501 -0.005014256135071229 
-0.003471302384739352 0.003891977715527276 -0.0004004901537163493 
0.01673529747513275 -0.008816050084269233 -0.01134083666347685 
0.01309490327445043 -0.01428434411346353 -0.003447730902556459 
-0.0027003407000788 0.004601443372442114 -0.0002194219316983489 
-0.01041130008161421 0.00920491450335144 -0.000791884153079882 
-0.003001955232348271 0.004202152938091053 -0.00023530938455397 
-0.007267795699489096 0.006722327059091801 -0.0002228679945908023 
-0.00178333033024022 0.004532563820241913 -0.00161565895186585 
-3.96516096717046e-06 8.797887145604164e-08 2.312990926359476e-07 
-0.002124250798816215 0.001580696879679042 -2.874717935207895e-05 
-0.0005689944289197125 0.002980345090789292 -0.0002219103914586939 
-0.0115933917415588 0.01744128531774481 -0.003955944344216427 
-0.003001955232348271 0.004202152938091053 -0.00023530938455397 
-0.03305220855036362 0.04018116851905746 -0.01465090914332185 
-0.01003595236049089 0.01066911271069902 -0.0004142401860423541 
-0.01215698629406165 0.009246694460529958 -0.001421538751632665 
-0.01236313643105629 0.007424742246654743 0.002867438363740074 
0.008907099817942439 -0.008345202012788121 -2.038430088507821e-06 
-7.027985652994179e-08 1.061993953853419e-08 2.150119316175514e-07 
0.0112295216950161 -0.01337198635710266 -4.814885405351671e-05 
-0.004697048235166668 0.005253546981726831 -0.0001584437805176699 
-0.01257699266805844 0.001537427665300024 0.001707016892935551 
0.01384585528773003 -0.03034413383126088 0.01495068697109261 
-0.0001454372512197837 0.0009413534693677503 -0.002507128067535615 
3.954006548947723e-07 8.248278954121081e-05 1.195226432496496e-06 
0.02182068820339286 -0.01469415276446262 -0.001235730549101834 
-0.002855099151551387 0.004952597734301293 -0.007747071277854413 
-0.01059123438462863 0.01334401836953965 -0.003814098492761081 
-0.0001454372512197837 0.0009413534693677503 -0.002507128067535615 
-0.001043086883944786 0.005119228462632569 1.444098076461759e-06 
-0.006545281517286073 0.01135884621020997 -0.001670436087372435 
-0.0175139923339316 0.03554355751144472 -0.0259348809147196 
-0.005796695870779401 0.008720642658872403 -0.001977972172108214 
-0.02629331014131034 0.0316484066101262 -0.007386040087695816 
1.168599865358519e-06 -4.332343478481997e-06 3.556794880336365e-07 
7.898863716442237e-07 -2.698009279681773e-07 2.466535848257099e-08 
-0.0005302572510072163 -0.01477959187468525 0.02322786750696601 
-0.004431135591338319 0.009217766082748238 -0.008934465155452511 
-0.001816157605802821 0.002422762344232424 -5.132169861042249e-07 
-0.001951052233507773 -0.001777638012580821 0.003659950502408636 
0.03058914333009208 -0.01484730621906662 -0.006486662103345214 
-0.008887659408944509 0.01163739876404668 -0.006884843397654201 
-7.027985652994179e-08 1.061993953853419e-08 2.150119316175514e-07 
1.168599865358519e-06 -4.332343478481997e-06 3.556794880336365e-07 
0.002174035546900673 -0.0006010659813048615 -0.00357988025771842 
1.055566977476578e-05 4.194851618013736e-06 2.0875856023732e-07 
-0.01866734834691182 0.02644933615537449 -0.02423437681826266 
-0.0009231709143428042 0.003104451942700694 -0.0002314266377367317 
1.168599865358519e-06 -4.332343478481997e-06 3.556794880336365e-07 
-0.001816157605802821 0.002422762344232424 -5.132169861042249e-07 
0.09319957181700858 -0.06910629786835359 -0.02017294540502006 
0.01202993225177322 -0.005202559526691342 0.01067915293830724 
-0.01652610427518181 0.02009058425952873 -0.007325454571660926 
-0.00698964402641064 -0.0003464670805285255 -0.001927161986447998 
-0.01220762759054302 0.01711645617618744 -0.002579026238433354 
-0.0005689944289197125 0.002980345090789292 -0.0002219103914586939 
7.898863716442237e-07 -2.698009279681773e-07 2.466535848257099e-08 
-0.05319332102101498 0.09034190925176913 -0.03809134463045936 
-0.005662709638678464 0.005777939927832577 -0.0009077485674004976 
1.168599865358519e-06 -4.332343478481997e-06 3.556794880336365e-07 
-0.001142394041010118 0.0006011073400586788 -7.206406015553045e-06 
-1.066858761554824e-05 0.0006031045566037075 -2.28784068841576e-09 
0.1345737585338616 -0.06835630835139263 -0.06441911459475916 
1.97700327447386e-06 0.000412413947706054 5.976132162482488e-06 
1.363013284195996e-06 4.975091445624794e-06 -4.49745192988546e-08 
0.01558429315633006 -0.0205519279033516 -2.582186049678622e-05 
-0.002191364235385077 0.003044563562765328 -3.613417494935754e-05 
-0.001582425487055498 -0.01800016077417865 0.02098110880239375 
0.04931641819019634 -0.0252577716161 -0.0128218902834514 
0.02206326798605851 -0.02196073017327752 -0.006437698493425415 
-0.001816157605802821 0.002422762344232424 -5.132169861042249e-07 
0.01558429315633006 -0.0205519279033516 -2.582186049678622e-05 
-0.003469543970800261 0.003979435596514111 -0.0003993399018031517 
-0.02810190217246377 0.03843053429964799 -0.01858407639361557 
0.1135647800580574 -0.09009750416471612 -0.02339799256726058 
1.168599865358519e-06 -4.332343478481997e-06 3.556794880336365e-07 
-0.03647095888218495 0.02774008338158987 -0.004264616254897994 
-0.0001149170626226498 0.001306874398305929 -5.64000992903081e-06 
-0.0249905051669315 -0.02562174638390508 0.04205259977875067 
1.186201964684321e-06 0.0002474483686236324 3.585679297489492e-06 
7.898863716442237e-07 -2.698009279681773e-07 2.466535848257099e-08 
2.369659114932672e-06 -8.094027839045286e-07 7.399607544771356e-08 
1.055566977476578e-05 4.194851618013736e-06 2.0875856023732e-07 
-5.4454384423394e-05 1.907750297728043e-05 -1.105480448957991e-06 
0.008907099817942439 -0.008345202012788121 -2.038430088507821e-06 
-0.01796200277272634 0.03428566520903631 -0.02591571072345282 
-0.01385716245387228 0.001282898227800226 0.01632757083691874 
-0.001987130835437347 0.002060665149446813 -4.524038178026507e-05 
1.168599865358519e-06 -4.332343478481997e-06 3.556794880336365e-07 
-0.001816157605802821 0.002422762344232424 -5.132169861042249e-07 
-0.002086173767889572 0.01023845692526514 2.888196152923518e-06 
-0.005032135783104676 0.01400742484334865 -0.00915638241043327 
-0.0005689944289197125 0.002980345090789292 -0.0002219103914586939 
0.05877995994789206 -0.05995826906742414 -0.01658112380806409 
-0.003504115197171481 -0.009074404782942934 0.01593585727896724 
0.117559150927922 -0.1199028049596596 -0.0331617030039269 
0.01027653608630953 -0.00451340276594184 -0.002793588484159723 
-0.0002879215448142457 0.0003756347563282403 -1.828266890300025e-06 
1.168599865358519e-06 -4.332343478481997e-06 3.556794880336365e-07 
-0.0159448182198803 0.02139248094546323 -0.007776521523685877 
-0.01215698629406165 0.009246694460529958 -0.001421538751632665 
-0.003001955232348271 0.004202152938091053 -0.00023530938455397 
0.0221056936511265 -0.01506356368116365 -0.001233940681079622 
2.726026568391993e-06 9.950182891249587e-06 -8.994903859770921e-08 
-0.01615524144475479 0.02200174577218205 -0.009213598123424583 
-0.03970149568751936 0.05085271923408381 -0.01210160832099865 
1.055566977476578e-05 4.194851618013736e-06 2.0875856023732e-07 
-0.0027003407000788 0.004601443372442114 -0.0002194219316983489 
-0.004409511174283476 0.004884778812992948 -0.0001563432075267236 
-0.0005689944289197125 0.002980345090789292 -0.0002219103914586939 
-8.397527137534274e-05 0.004413660968007194 -0.001400683110959008 
0.01504075634486917 -0.02372216341689102 0.0132447715149959 
-0.007620514836496868 0.008953693941071747 -0.0001596035899227336 
3.954006548947723e-07 8.248278954121081e-05 1.195226432496496e-06 
0.08478557331507156 -0.1004045328300451 -0.00546410554079166 
-0.02128551421524073 0.02892478413579847 -0.01390154472889992 
0.06631708095337949 -0.04519069104349094 -0.003701822043238866 
-0.001142394041010118 0.0006011073400586788 -7.206406015553045e-06 
-0.0215030660628564 0.01533750966546366 0.01373902444441974 
-0.002192532835250435 0.00304889590624381 -3.648985443739118e-05 
-0.003706676285871712 -0.01641946389449961 0.02095236162304167 
-0.0001679505427506855 0.008827321936014388 -0.002801366221918016 
0.02465820909509817 -0.01262888580805 -0.0064109451417257 
-1.360155518243164e-05 0.0001925381939107884 2.978577346517261e-06 
0.01341294072967609 -0.08664125115442553 -0.06845900515893047 
-0.0002908745024395674 0.001882706938735501 -0.005014256135071229 
-0.003427182123030353 0.001803322020176037 -2.161921804665914e-05 
0.0112588755275786 -0.005611339669851953 -0.02930802489046264 
0.0221056936511265 -0.01506356368116365 -0.001233940681079622 
1.055566977476578e-05 4.194851618013736e-06 2.0875856023732e-07 
0.01574374025912804 -0.01465159228885313 5.312734487918709e-07 
0.01728547218624918 -0.01560571167511568 -2.417963097404721e-05 
0.06104160364197209 -0.04513555477974895 -0.09229549972174442 
0.0221056936511265 -0.01506356368116365 -0.001233940681079622 
-0.0001454372512197837 0.0009413534693677503 -0.002507128067535615 
0.01558429315633006 -0.0205519279033516 -2.582186049678622e-05 
-2.497966813282734e-05 -0.008347441722066839 0.01496300383768821 
0.02672129945382732 -0.02503560603836436 -6.115290265523444e-06 
-0.002019136598283992 0.003869978819257935 -4.524724530233028e-05 
-0.005800661031746572 0.008720730637743859 -0.001977740873015578 
-0.002254381374994388 0.005733256471378809 -0.0002235503291645776 
1.363013284195996e-06 4.975091445624794e-06 -4.49745192988546e-08 
-0.0005689944289197125 0.002980345090789292 -0.0002219103914586939 
0.02206326798605851 -0.02196073017327752 -0.006437698493425415 
2.266919874187098e-06 -8.654067017425655e-06 9.263709076848216e-07 
-0.03015215746218886 0.05976261699710526 -0.02121954496690105 
-0.0202596313486233 0.02677594692292172 -0.02373059406496303 
-7.027985652994179e-08 1.061993953853419e-08 2.150119316175514e-07 
-0.0005689944289197125 0.002980345090789292 -0.0002219103914586939 
-6.391873605957014e-05 0.0009776162438908163 1.475796317468975e-05 
1.055566977476578e-05 4.194851618013736e-06 2.0875856023732e-07 
-0.0005689944289197125 0.002980345090789292 -0.0002219103914586939 
-0.02128551421524073 0.02892478413579847 -0.01390154472889992 
0.01558429315633006 -0.0205519279033516 -2.582186049678622e-05 
-0.01637193158043003 0.09826711680720608 -0.1293538154633587 
-0.002192532835250435 0.00304889590624381 -3.648985443739118e-05 
0.04225385567271025 -0.0398676848078954 -0.02390657837972502 
0.07241567215011108 -0.0009522015832439003 -0.05563953358975678 
-0.0002651286255036082 -0.007389795937342626 0.01161393375348301 
1.168599865358519e-06 -4.332343478481997e-06 3.556794880336365e-07 
-0.01243818338359767 0.01363493902779518 0.007436076729967196 
-0.01041208419754852 0.009202380259235565 -0.0007925121386685621 
7.898863716442237e-07 -2.698009279681773e-07 2.466535848257099e-08 
0.01392970062376787 -0.02264828455146993 -1.369066726508338e-05 
-7.027985652994179e-08 1.061993953853419e-08 2.150119316175514e-07 
1.168599865358519e-06 -4.332343478481997e-06 3.556794880336365e-07 
-0.002284788082020235 0.001202214680117358 -1.441281203110609e-05 
0.01728547218624918 -0.01560571167511568 -2.417963097404721e-05 
-1.360155518243164e-05 0.0001925381939107884 2.978577346517261e-06 
0.01261488952318115 -0.04348108562789398 0.03055295889586964 
-0.002124250798816215 0.001580696879679042 -2.874717935207895e-05 
1.055566977476578e-05 4.194851618013736e-06 2.0875856023732e-07 
-4.198359015877389e-05 0.001233489687330418 -0.000438160451458521 
1.363013284195996e-06 4.975091445624794e-06 -4.49745192988546e-08 
1.168599865358519e-06 -4.332343478481997e-06 3.556794880336365e-07 
0.05222167280738587 -0.02878080901951646 0.002687938097305042 
-0.01743424016828006 0.02223046177490928 -0.02795420886909051 
-0.0004687575105346713 0.0005709272004124779 -1.136275196760439e-05 
-0.0002875370608831922 0.0003687681687338826 -2.100572990946325e-06 
-0.01777531881788902 0.02327479752809337 -0.0137696867953084 
-4.684730638167354e-05 0.003534496813877937 -0.004338766145665281 
7.898863716442237e-07 -2.698009279681773e-07 2.466535848257099e-08 
-0.007267795699489096 0.006722327059091801 -0.0002228679945908023 
-1.360155518243164e-05 0.0001925381939107884 2.978577346517261e-06 
0.01315796452211026 -0.005042791102922193 -0.00489301945812121 
0.06474738824344614 -0.06856755617394238 0.03016164712859811 
-0.003427182123030353 0.001803322020176037 -2.161921804665914e-05 
3.954006548947723e-07 8.248278954121081e-05 1.195226432496496e-06 
-1.066858761554824e-05 0.0006031045566037075 -2.28784068841576e-09 
-0.01866734834691182 0.02644933615537449 -0.02423437681826266 
7.898863716442237e-07 -2.698009279681773e-07 2.466535848257099e-08 
-0.0001454372512197837 0.0009413534693677503 -0.002507128067535615 
-0.01594618123316449 0.02138750585401761 -0.007776476549166579 
-0.0005430278510271816 0.01134613754682242 -0.005742387022474578 
-0.0001454372512197837 0.0009413534693677503 -0.002507128067535615 
-0.005176138304687694 0.00656810614241205 -0.002789308902849789 
-6.204671293787509e-05 0.0006542146652632181 2.233085350799494e-06 
-0.000567825829054354 0.00297601274731081 -0.0002215547119706602 
-0.0002519015409526434 0.007400938123982509 -0.002628962708751126 
-0.002192532835250435 0.00304889590624381 -3.648985443739118e-05 
-0.01594618123316449 0.02138750585401761 -0.007776476549166579 
-0.0005215434419723931 0.002559614231316284 7.220490382308794e-07 
1.168599865358519e-06 -4.332343478481997e-06 3.556794880336365e-07 
-0.006496026694937385 0.009844287345077939 -0.01055450587179737 
-0.002585775737017773 0.009608801185930939 -0.004893550731570002 
-0.001582425487055498 -0.01800016077417865 0.02098110880239375 
-0.0003483828710309947 0.00244353565456951 -2.990212551457558e-06 
-0.0002875370608831922 0.0003687681687338826 -2.100572990946325e-06 
-0.00037769249857378 0.002570377239080757 -0.00250912154256992 
-0.002845777951298584 0.005542796841809865 -0.002726549999233963 
-0.003001955232348271 0.004202152938091053 -0.00023530938455397 
-0.008884933382376118 0.01164734894693793 -0.006884933346692799 
-0.0115933917415588 0.01744128531774481 -0.003955944344216427 
-0.0005689944289197125 0.002980345090789292 -0.0002219103914586939 
0.02437225180695827 -0.01226065724117206 -0.006412996383999681 
-0.008466983585812412 0.01176332148986061 -0.003785351313409002 
-7.027985652994179e-08 1.061993953853419e-08 2.150119316175514e-07 
0.01018717809748172 -0.004413802815081313 -0.001301585495298113 
1.168599865358519e-06 -4.332343478481997e-06 3.556794880336365e-07 
1.168599865358519e-06 -4.332343478481997e-06 3.556794880336365e-07 
-0.008466983585812412 0.01176332148986061 -0.003785351313409002 
-0.01604032438213214 0.02069487137387612 -0.009207958113495552 
-0.002298068953066785 0.005744069585473126 -0.005533285293367742 
-3.844839310535258e-07 6.866587594357684e-06 2.723061006463012e-07 
-0.001043086883944786 0.005119228462632569 1.444098076461759e-06 
-0.008887659408944509 0.01163739876404668 -0.006884843397654201 
-0.05217115355324597 0.0488978206159185 0.001186898418903516 
0.02236200036670742 -0.02091741120285344 -0.000353738950690233 
1.363013284195996e-06 4.975091445624794e-06 -4.49745192988546e-08 
-3.844839310535258e-07 6.866587594357684e-06 2.723061006463012e-07 
-3.844839310535258e-07 6.866587594357684e-06 2.723061006463012e-07 
-0.0005689944289197125 0.002980345090789292 -0.0002219103914586939 
1.168599865358519e-06 -4.332343478481997e-06 3.556794880336365e-07 
1.134555614640999e-05 3.925050690045559e-06 2.3342391871989e-07 
-0.006496026694937385 0.009844287345077939 -0.01055450587179737 
-3.787323922648685e-05 0.003208760507331107 -0.004343338292835029 
-1.066858761554824e-05 0.0006031045566037075 -2.28784068841576e-09 
-0.0001454372512197837 0.0009413534693677503 -0.002507128067535615 
-0.0125768153583128 0.01978895684315351 -0.001163147929674574 
-0.01309056303457215 0.02271769242041993 -0.00334087217474487 
-0.04957694981226123 0.06027672787003181 -0.02197640868950208 
1.055566977476578e-05 4.194851618013736e-06 2.0875856023732e-07 
-0.006827933147036551 0.03576414108947151 -0.002662924697504327 
-0.008466983585812412 0.01176332148986061 -0.003785351313409002 
-0.00281525776270145 0.005908317770748043 -0.0002250619416273797 
-0.005796695870779401 0.008720642658872403 -0.001977972172108214 
0.02246119628968804 -0.02673926742368767 -9.631801726784966e-05 
-0.02716324679057265 0.02808271272896926 -0.007161150630416301 
-0.002124250798816215 0.001580696879679042 -2.874717935207895e-05 
-0.03437621417092598 0.03738043831235261 -0.00657661479524607 
-0.001137988857839425 0.005960690181578584 -0.0004438207829173878 
-0.0001161276236769982 0.0008145118848565035 -9.967375171525182e-07 
0.01925668269645676 -0.018357394584482 -0.0004040022380203553 
3.954006548947723e-07 8.248278954121081e-05 1.195226432496496e-06 
-0.006496026694937385 0.009844287345077939 -0.01055450587179737 
0.03743197706104276 -0.03374734848753282 -0.0003465144882119923 
-0.01524239268627793 0.01790241279069787 -0.0003191622053261683 
-0.0001906479877457792 -0.001247952142265208 -0.001423760380999081 
-4.842890900125265e-05 0.003204565655713094 -0.004343547051395267 
0.0112295216950161 -0.01337198635710266 -4.814885405351671e-05 
0.04421138730225299 -0.03012712736232729 -0.002467881362159244 
-0.008887659408944509 0.01163739876404668 -0.006884843397654201 
1.363013284195996e-06 4.975091445624794e-06 -4.49745192988546e-08 
-0.003001955232348271 0.004202152938091053 -0.00023530938455397 
-0.008466983585812412 0.01176332148986061 -0.003785351313409002 
-0.008325269632351761 0.02077722686757175 -0.009834432559386562 
0.01866590427714612 -0.03810486218089065 0.01775639940882414 
-0.003498863689344149 0.0668624015564404 -0.07384924852303164 
-0.003427182123030353 0.001803322020176037 -2.161921804665914e-05 
-0.005677310474127368 0.000858722489825659 0.006657740481256588 
-0.01726351104420766 0.04378170753294362 -0.0205524864616498 
-0.001564630325917179 0.007678842693948852 2.166147114692633e-06 
0.04759374568056874 -0.03915553992603425 -0.02696990767579414 
-3.844839310535258e-07 6.866587594357684e-06 2.723061006463012e-07 
