solver_type L2R_LR
nr_class 3
label 0 2 1
nr_feature 7949
bias -1
w
0 0 0 
-0.00684293134129436 0.009527223373661809 -0.004699049947612506 
0.01560326549861215 -0.02054346855775413 -9.745573483173954e-06 
-0.000106338482419118 0.001312248584237313 -3.528243733641007e-06 
1.009444276175303e-05 1.565012735843757e-05 1.086674666916717e-06 
0.03612542027138169 -0.0356335242594123 -0.003248582761240175 
3.096037059851728e-07 9.203655707088181e-06 2.637351408188491e-06 
-0.000106338482419118 0.001312248584237313 -3.528243733641007e-06 
-0.0005288596743378855 0.002544488295903024 4.848461761626975e-07 
4.342513582584833e-08 7.497340472978368e-05 1.464275267289111e-06 
-0.008638190215347669 0.008539682511978364 -0.0009727466228879521 
-1.149713870293219e-05 0.00122776252364828 -0.0004405205675294833 
-0.002134133737132293 0.005815928517619836 -0.00139666183858223 
0.0111898294627288 -0.01270897936061287 -3.019466678383761e-05 
-5.037136116788955e-07 2.85361309270461e-06 7.190538576405253e-07 
-0.003481885228679052 -0.009124354174964574 0.0159497456868047 
-0.006506773981751874 0.009829885883279082 -0.01054724021270589 
-0.001932505948426082 0.01038672023981109 -0.002793132837808408 
-0.01357290585524555 0.01482989112967959 -0.003593532746797984 
-1.283684138266497e-05 1.381251014755843e-05 7.287658459703264e-07 
-0.006506773981751874 0.009829885883279082 -0.01054724021270589 
-0.00014971163095226 0.0008419052335926853 1.479194333696608e-06 
0.01575347067769501 -0.01454565944162294 2.288378196823784e-06 
-1.772970547500965e-05 -0.008368695198243266 0.01495528600734793 
-0.0002949772664414253 0.0003762160013116139 -9.98193348701845e-08 
-0.01262865817268637 0.01661889545451706 -0.004039767684570187 
-0.0002949772664414253 0.0003762160013116139 -9.98193348701845e-08 
-0.0003139215713027415 0.002556255150474237 -0.002509129423628328 
-0.08500240142493 0.04897435989484338 0.003672915362965871 
-0.1360903960219217 -0.01770866814594232 0.1092580209069932 
-0.002008144232763611 0.002056765744863041 -3.331952415355809e-05 
-0.01136109490230114 0.01375666578362671 -0.03391328518272991 
0.0444854341098438 -0.04171698746956954 -9.048655673446346e-06 
-0.09558835439638678 0.06181750342871704 -0.004035140877156102 
-0.009388519928960049 0.09343188094692124 -0.06512350355218707 
-0.0004589732246508203 0.0005671269634707082 -2.749312728522955e-06 
-0.007573626853279278 0.1272929939977054 -0.1489580811499076 
-0.05295199752048305 0.0301237401494155 0.0007410235457918726 
-0.07734834871361519 0.1395306182396606 -0.09776068180560453 
-0.01280697231822809 0.03694592081780244 -0.0205676479289084 
-0.006506773981751874 0.009829885883279082 -0.01054724021270589 
0.01395703636721784 -0.01220908672741507 2.760551197110569e-05 
-0.001155046001209212 0.0006087585018852604 -8.228431354251604e-07 
0.04973228344813867 -0.0450626898553379 -3.443231293540872e-05 
-0.06905847557479484 0.08370106462947034 -0.00877292357056198 
0.008732524455199463 0.04682033314367295 -0.0260418725774294 
-1.283684138266497e-05 1.381251014755843e-05 7.287658459703264e-07 
-0.0005288596743378855 0.002544488295903024 4.848461761626975e-07 
0.01977260086923432 -0.0002457208735140246 -0.02006219670483438 
-0.01507583772107154 -0.00515330157231396 0.0261282594766712 
-0.009527261048064438 0.01478206611028081 -0.007141382438601267 
-0.01357827839025135 0.01403498312631146 -0.003601847494464334 
-0.01357861766823024 0.01403045497025471 -0.003609123832464581 
-0.009037903811405101 0.01480875211013757 -0.004010889826622818 
0.01728330676502021 -0.01559044437455422 -1.734209762691138e-05 
-0.0001240382037856433 0.0008142815537507207 2.522892767734365e-08 
0.02351359308984508 -0.02148693541107587 -0.0003430165849193175 
0.002948836752836199 0.003181604012432458 -0.0119304977243265 
0.1524116044770184 -0.08051259122996442 -0.1144820540320986 
-0.04365086042545965 0.03564064334889235 0.009293422800901639 
3.294430006891544e-07 4.538361198633723e-06 7.268821694861125e-06 
0.02160798471812652 -0.01252679357934201 -0.001226106803991128 
-0.001166543105835995 0.001836521397026669 -0.0004413432198182417 
-0.03141597432043756 0.04382917177033892 -0.01184978319340439 
-0.009578910859907291 0.01218528132063322 -0.0004707624897993026 
-0.003481221411563144 -0.009115274232239038 0.01596431873534312 
-0.002641228487344595 0.01005466255140767 -0.004867402276619694 
-0.00300206092132435 0.004256864876680016 -0.0002206345533570553 
1.04497436387627e-06 1.915519345072308e-05 1.197597889573858e-05 
-0.01770639796876116 0.01688330531299619 -0.0008037257873383488 
-0.01233382232964257 0.01676154778446347 -0.004017567217699462 
-0.0005693555009645408 0.002995134295177455 -0.0002342740275407619 
-0.03304001851888717 0.03762631271201315 -0.00593967465318428 
-0.04044975712104303 0.06365889075628213 -0.01890736570652713 
-0.008131745562369416 0.01058473045337545 -0.0005253233349719375 
1.04497436387627e-06 1.915519345072308e-05 1.197597889573858e-05 
-0.004243775698583372 0.003148748669723136 -2.879928475288845e-05 
-0.008469199316939685 0.01179989260414831 -0.00378653197340457 
0.01374791466677812 -0.01257780104688944 -3.28696400567292e-05 
-0.003479345042682199 -0.009120449198459023 0.01595002034060715 
-0.002310091097972447 0.00121751708068591 -1.645380392730922e-06 
-0.002587663740913092 0.003286592654185912 -0.001409207873775097 
-0.0005693555009645408 0.002995134295177455 -0.0002342740275407619 
-0.09511987739778921 0.08674477275838827 0.01385136168955649 
-0.1125998061538173 0.08398689657818646 0.00775769537754649 
-0.004310851448048577 0.005631090407818711 -5.910482461652419e-05 
-0.05200037501816074 0.2208599481980853 -0.3910089504642364 
-0.003501674903602482 0.003907712926246148 -0.0004032717338050198 
0.005394774635749408 -0.002026069180529374 -0.007468789025844827 
2.521650687887047e-06 3.905903690375106e-06 2.74852874863969e-07 
-0.009306137229560025 0.00579777261312886 -0.002515725391460457 
-0.001801549708036324 0.002382737382986396 -4.060987478503045e-06 
-6.584462378687169e-05 0.0009276927686114435 -0.002509181314979808 
-0.01594591732311805 0.0213263024025336 -0.007768371103501419 
-0.001155046001209212 0.0006087585018852604 -8.228431354251604e-07 
-0.00600882007066159 0.008420487090929213 -0.0005048242127575922 
0.008897107322010175 -0.008343501830857558 -1.810535874313301e-06 
0.03199311051474345 -0.02216096521288796 -0.005970888040566512 
-0.002116566249687563 0.01606438215475577 1.592753118102158e-05 
-0.008469199316939685 0.01179989260414831 -0.00378653197340457 
0.01207064276000133 -0.1693701797427703 0.2029080234295822 
-0.01961808511494912 0.02392323415744895 -0.0003819451744116487 
-0.001801549708036324 0.002382737382986396 -4.060987478503045e-06 
0.04250527378227646 -0.03610075975034477 -0.004486079740301766 
-0.00111671787208158 0.003335214159869838 2.423510794780872e-05 
-0.002191777475439071 0.004782787214782878 -0.003015552973150991 
3.294430006891544e-07 4.538361198633723e-06 7.268821694861125e-06 
-0.003004402075349084 0.004210237339374952 -0.0002524122395172622 
-0.001740983287899695 0.003180540713688086 -0.0002312998030213381 
-0.01950225645995376 0.02430376148130023 -0.02794437696903272 
-0.04534013954379079 -0.0619762075921839 0.04866519528726276 
-0.000254495960203052 0.005672830408231274 -0.002859714751699956 
-0.008469199316939685 0.01179989260414831 -0.00378653197340457 
9.889637680886624e-07 1.362206480000838e-05 2.179645590732758e-05 
-4.598963287513219e-05 0.004911079084124868 -0.001762086893675322 
-0.003004402075349084 0.004210237339374952 -0.0002524122395172622 
-3.002958504916926e-06 1.725707328914321e-05 4.190598681913024e-06 
-5.037136116788955e-07 2.85361309270461e-06 7.190538576405253e-07 
-0.004384030910197687 0.004864123153058527 -0.0001588408895534731 
3.096037059851728e-07 9.203655707088181e-06 2.637351408188491e-06 
-0.03700687209901701 0.04720165141916296 -0.03472535373406864 
0.01122991480966212 -0.01336205815231391 -3.029750351416588e-05 
-0.05263468221551573 0.08850416701410151 -0.06043840967395133 
-0.003048813123084518 0.01161151328561672 -0.003073484841646691 
3.294430006891544e-07 4.538361198633723e-06 7.268821694861125e-06 
-0.06571182554746756 0.09065437961037261 -0.03807090693637624 
-0.009907892401029923 0.04113073984907506 -0.08001694527457552 
-0.01357861766823024 0.01403045497025471 -0.003609123832464581 
0.02352607663739793 -0.02150526138513812 -0.0003510147562054174 
-0.0005693555009645408 0.002995134295177455 -0.0002342740275407619 
-0.007621312734438851 0.008922014306887761 -0.0001581600824611161 
-0.003501910528717747 0.003895595926252728 -0.0004084437747938739 
0.02466609507316336 -0.01266536732514892 -0.006422355388679161 
3.096037059851728e-07 9.203655707088181e-06 2.637351408188491e-06 
7.568131909474127e-06 1.172845394343478e-05 8.193899799841577e-07 
-5.037136116788955e-07 2.85361309270461e-06 7.190538576405253e-07 
-0.001098215821140662 0.005539623514103932 -0.0002337890642719581 
3.096037059851728e-07 9.203655707088181e-06 2.637351408188491e-06 
1.009444276175303e-05 1.565012735843757e-05 1.086674666916717e-06 
3.294430006891544e-07 4.538361198633723e-06 7.268821694861125e-06 
-0.001155046001209212 0.0006087585018852604 -8.228431354251604e-07 
0.03955446725431227 -0.04265740781105262 -0.005406597047839076 
5.044104362642498e-06 7.814518387829736e-06 5.484000063937195e-07 
-0.002790946091328704 0.01119072247136581 -0.009178718342417801 
-0.004310351563971663 0.005628239301941554 -5.982389971958089e-05 
0.01391788544567791 -0.02262787453497867 -6.787515340665155e-07 
2.521650687887047e-06 3.905903690375106e-06 2.74852874863969e-07 
0.02352607663739793 -0.02150526138513812 -0.0003510147562054174 
0.02035132577058302 -0.02937685459951663 0.01170358644907322 
-0.0001216372234199905 0.0008617923780062759 2.661151149894404e-05 
-0.03558536912024138 0.0562598700047708 -0.01584750666030883 
-0.005785029914605186 0.008705974691420766 -0.001967018733878479 
-0.008793284942252158 0.01442615142918812 -0.01178503246306409 
-0.01594591732311805 0.0213263024025336 -0.007768371103501419 
-2.648774403204528e-06 1.393830560171909e-05 3.758604545781999e-07 
-0.01213941369857756 0.009264756500481173 -0.001454677060638232 
-0.01604642636278687 0.02071858651363599 -0.009215554680409153 
-0.0002674869291798787 -0.007430065217170804 0.01162325079176366 
-0.001814466002689421 0.004535103420031755 -0.001621232105105133 
-0.001155046001209212 0.0006087585018852604 -8.228431354251604e-07 
3.294430006891544e-07 4.538361198633723e-06 7.268821694861125e-06 
0.00698798619994434 -0.004906289977886021 -0.0003172305441229068 
-0.008469199316939685 0.01179989260414831 -0.00378653197340457 
-0.0185855003616418 0.03113491306400139 -0.0126469821421581 
0.02352607663739793 -0.02150526138513812 -0.0003510147562054174 
-0.0002949772664414253 0.0003762160013116139 -9.98193348701845e-08 
-0.002194076640030507 0.004791000574246041 -0.003010652826624224 
0.04175322186443863 -0.06788316070139967 -2.028460281665623e-06 
0.008897443387097932 -0.008338966358345835 5.457995923879978e-06 
0.01548137584561482 -0.02756173633303308 0.01496602037917996 
-0.002714384977913693 0.00462043498011399 -0.0002191522088248576 
2.327867194232839e-07 1.212000958068215e-05 5.170772821449755e-06 
-0.001155046001209212 0.0006087585018852604 -8.228431354251604e-07 
-0.001155046001209212 0.0006087585018852604 -8.228431354251604e-07 
0.01560326549861215 -0.02054346855775413 -9.745573483173954e-06 
-0.0005693555009645408 0.002995134295177455 -0.0002342740275407619 
-0.007621312734438851 0.008922014306887761 -0.0001581600824611161 
-5.037136116788955e-07 2.85361309270461e-06 7.190538576405253e-07 
3.294430006891544e-07 4.538361198633723e-06 7.268821694861125e-06 
-0.001421273499139443 0.003729376436173446 -0.0002357435302104598 
3.096037059851728e-07 9.203655707088181e-06 2.637351408188491e-06 
-0.01802154617618259 -0.03072105945101854 0.02902771702443433 
0.02352607663739793 -0.02150526138513812 -0.0003510147562054174 
-0.01991041783297836 0.01876991817056835 -0.0008187632019875989 
-2.420060222976773e-06 0.0001976794112112166 1.105475541546314e-07 
-0.009038557997561746 0.01479502675396772 -0.00402080649244676 
0.04427251718492065 -0.03018519535970075 -0.00246880608271964 
-0.0002949772664414253 0.0003762160013116139 -9.98193348701845e-08 
-0.003427215051388632 0.002777590555615173 -0.000113899735984953 
0.01560586891472703 -0.02053956652359968 -9.470683860798358e-06 
-1.283684138266497e-05 1.381251014755843e-05 7.287658459703264e-07 
2.521650687887047e-06 3.905903690375106e-06 2.74852874863969e-07 
-4.008235777792855e-05 0.0006530664715533852 1.024571033592858e-07 
-0.0005693555009645408 0.002995134295177455 -0.0002342740275407619 
-0.002187721617201564 0.00303961626566772 -3.281263388449479e-05 
-0.007691602167158327 0.009031159213260805 0.01036343478951722 
-6.584462378687169e-05 0.0009276927686114435 -0.002509181314979808 
-0.00288739320207065 0.005648500526803747 -0.001092799203202636 
0.01779420912499887 -0.01668697701912061 -3.620854459972728e-06 
-0.04498858899091329 0.03961155981015062 -0.02844498561043222 
0.02352607663739793 -0.02150526138513812 -0.0003510147562054174 
-1.149713870293219e-05 0.00122776252364828 -0.0004405205675294833 
-2.660786938860375e-05 0.003395263555896494 -0.004233065977969481 
-0.008961098499266653 0.01172962809267353 -0.006943095109294231 
-0.01887944854548855 0.01192004084659373 0.01379799637292743 
-5.037136116788955e-07 2.85361309270461e-06 7.190538576405253e-07 
-0.008637950899441143 0.008551796339502643 -0.0009675735312636318 
-0.002343327763158956 0.007079593254543885 -0.001620746532698048 
-0.009953854011258072 0.009413285495035097 -0.0003947675038699119 
0.022136281771323 -0.01509260557013502 -0.001234401483012533 
-0.04677442517146132 0.09372072796697095 -0.1085169609069571 
0.02352823286777482 -0.02149850737268868 -0.000350021187911506 
-0.01404084005198934 0.01602150771781247 -0.001663806948057919 
-0.003481885228679052 -0.009124354174964574 0.0159497456868047 
-0.07960201428220749 0.1050851223085653 -0.0644653975611725 
-1.260396235876204e-05 2.59331053548756e-05 5.898738494735369e-06 
-0.001781066303988106 0.003833608678582341 -0.0002311968699899398 
-0.0001594532973898725 -0.01584812154149009 0.0299120231243503 
-0.007621628890970272 0.008912815397504006 -0.000160797378674322 
3.294430006891544e-07 4.538361198633723e-06 7.268821694861125e-06 
-5.037136116788955e-07 2.85361309270461e-06 7.190538576405253e-07 
-0.001497760332221184 0.007751787710198944 -0.00139570667133055 
3.096037059851728e-07 9.203655707088181e-06 2.637351408188491e-06 
-3.449469440618038e-05 0.003239127496119295 -0.004329587844437379 
-0.007621628890970272 0.008912815397504006 -0.000160797378674322 
-0.0005312791642832714 0.002742168327766006 5.951921054083096e-07 
-0.01652836494024097 0.02007360185755658 -0.007337766877331414 
1.04497436387627e-06 1.915519345072308e-05 1.197597889573858e-05 
-0.0202951248300663 0.02674648531882916 -0.02374403755577152 
-0.0382174157683579 0.06157857862160266 -0.02348361785441603 
6.19403878231574e-07 1.840993881037541e-05 5.27135865723264e-06 
-1.149713870293219e-05 0.00122776252364828 -0.0004405205675294833 
-0.002310091097972447 0.00121751708068591 -1.645380392730922e-06 
-0.0004589732246508203 0.0005671269634707082 -2.749312728522955e-06 
-0.0237152323504043 0.03313277656991163 -0.03331564095595037 
-2.069241666842757e-06 0.001179722786048808 -1.220157164286888e-05 
0.01870534379431781 -0.03824445321669138 0.01772640268775618 
-0.03547909021466456 0.04086206531736335 -0.009003694590802462 
-2.567351765262866e-05 2.762664589463931e-05 1.455006326495259e-06 
3.135992388203328e-06 5.746931990780434e-05 3.592603233048284e-05 
2.521650687887047e-06 3.905903690375106e-06 2.74852874863969e-07 
-6.584462378687169e-05 0.0009276927686114435 -0.002509181314979808 
-1.283684138266497e-05 1.381251014755843e-05 7.287658459703264e-07 
1.354655886719625e-06 2.835948378060048e-05 1.461286110044423e-05 
-0.006551104400434787 0.01138475365716571 -0.001670533074757349 
6.19403878231574e-07 1.840993881037541e-05 5.27135865723264e-06 
-0.02124210160221407 0.02883083497853726 -0.01388416337154605 
-0.167732553268972 0.1752033419889792 -0.06555873778891878 
2.521650687887047e-06 3.905903690375106e-06 2.74852874863969e-07 
0.01575606659554287 -0.01463457050147526 4.499328823109348e-07 
-0.001620980197989508 -0.01797831957549991 0.02097615859473989 
1.04497436387627e-06 1.915519345072308e-05 1.197597889573858e-05 
0.008897107322010175 -0.008343501830857558 -1.810535874313301e-06 
0.02466609507316336 -0.01266536732514892 -0.006422355388679161 
1.309619431765494e-07 0.0002249242796144665 4.383952455574478e-06 
-0.001138712006013139 0.00599026922163752 -0.0004685478894378686 
-0.01656035671453899 0.02620104519392702 -0.009905646013621733 
-0.001809168334340235 0.004555029356445911 -0.001615510205423517 
-0.008469199316939685 0.01179989260414831 -0.00378653197340457 
-0.0005275799340778221 0.00257575470909616 1.763051376190644e-05 
-4.951730721912835e-05 0.004393585171117841 -0.001383311008741219 
-0.002193980058405795 0.004783418690775164 -0.003008553653159855 
-0.008790637231002527 0.01441222104739657 -0.01178541038679956 
0.04726827885316214 -0.04390357600437103 1.34099878521572e-06 
-6.584462378687169e-05 0.0009276927686114435 -0.002509181314979808 
0.01122991480966212 -0.01336205815231391 -3.029750351416588e-05 
-0.05389907975188802 0.04615459258896763 -0.004708206990746981 
-0.007250600409942873 0.007556673590685526 -0.0002810993370584118 
-0.0280289868991551 0.03144602665595823 -0.01280706485407528 
4.08850307889448e-07 0.0006748688299426633 1.294385626732261e-05 
0.020369388666842 -0.02084608244855423 -0.003243565291427536 
2.521650687887047e-06 3.905903690375106e-06 2.74852874863969e-07 
-4.951730721912835e-05 0.004393585171117841 -0.001383311008741219 
-0.007268310437230131 0.006691275064442536 -0.0002072528570699588 
0.01048771700836435 -0.007658535712171103 -0.002826266899049078 
2.327867194232839e-07 1.212000958068215e-05 5.170772821449755e-06 
-0.00288739320207065 0.005648500526803747 -0.001092799203202636 
0.01534876994738319 -0.01487064506194584 -0.002869459970176422 
-1.006841526320182e-06 5.711324052259378e-06 1.434382512162354e-06 
-0.01214048543426327 0.009245630250383732 -0.001466657990934026 
-0.02914420004525774 0.03566089061831147 -0.009234059113391049 
1.04497436387627e-06 1.915519345072308e-05 1.197597889573858e-05 
0.03859490630713013 -0.03958665852761667 -0.01302429609354435 
-0.000106338482419118 0.001312248584237313 -3.528243733641007e-06 
-0.001814466002689421 0.004535103420031755 -0.001621232105105133 
0.01444028387482548 -0.01305551236556648 -0.006617227172271415 
-0.0005288596743378855 0.002544488295903024 4.848461761626975e-07 
-2.420060222976773e-06 0.0001976794112112166 1.105475541546314e-07 
3.096037059851728e-07 9.203655707088181e-06 2.637351408188491e-06 
-0.009550228773666364 -0.01496094487295062 0.03050170446293284 
-0.01185762660310605 0.01656646433177312 -0.0166578402493995 
-6.584462378687169e-05 0.0009276927686114435 -0.002509181314979808 
-1.034802197380914e-06 0.0005898607014960723 -6.100373070576367e-06 
0.01575606659554287 -0.01463457050147526 4.499328823109348e-07 
-0.001978141646399609 -0.001775011008396133 0.003669600684444909 
0.01053971522272341 0.01006937747569744 -0.01361333663875296 
-0.001155046001209212 0.0006087585018852604 -8.228431354251604e-07 
-0.01194971740009442 0.01221660134055048 -0.002360917251673087 
-0.03189195191240284 0.04265242101514118 -0.01553673750199621 
0.07288304679034774 -0.04815761606465837 -0.01688459980514477 
3.096037059851728e-07 9.203655707088181e-06 2.637351408188491e-06 
-0.008961098499266653 0.01172962809267353 -0.006943095109294231 
-0.007639035134558684 0.0005533151421554215 0.01479712904276709 
0.01391788544567791 -0.02262787453497867 -6.787515340665155e-07 
2.521650687887047e-06 3.905903690375106e-06 2.74852874863969e-07 
0.008897107322010175 -0.008343501830857558 -1.810535874313301e-06 
0.01711238226153731 -0.01158886378493763 0.001479508390915835 
0.009109404965288071 -0.002957790464986407 -0.01184650646449671 
-0.02251679108320334 0.06816657343171081 -0.04188831964974558 
-5.037136116788955e-07 2.85361309270461e-06 7.190538576405253e-07 
-1.126431378432489e-05 0.001239882262452638 -0.0004353490091488813 
0.03022528452335576 -0.02862648469399727 0.007562306336987042 
3.096037059851728e-07 9.203655707088181e-06 2.637351408188491e-06 
-0.01942779312486771 0.01220191359520011 0.008181381004989309 
-1.149713870293219e-05 0.00122776252364828 -0.0004405205675294833 
-0.04555783562954391 0.002065489159879702 0.04511764254274236 
2.521650687887047e-06 3.905903690375106e-06 2.74852874863969e-07 
-0.008638190215347669 0.008539682511978364 -0.0009727466228879521 
-0.06131736708392228 0.05649952172803901 -0.04983298772093053 
0.01560326549861215 -0.02054346855775413 -9.745573483173954e-06 
0.01728330676502021 -0.01559044437455422 -1.734209762691138e-05 
-0.001801549708036324 0.002382737382986396 -4.060987478503045e-06 
0.001755007794841414 0.004302671826668469 -0.005208007902156695 
0.00112076785056391 -0.000667554304215403 -0.01344153528225995 
7.568131909474127e-06 1.172845394343478e-05 8.193899799841577e-07 
2.327867194232839e-07 1.212000958068215e-05 5.170772821449755e-06 
-0.0002949772664414253 0.0003762160013116139 -9.98193348701845e-08 
-0.001138712006013139 0.00599026922163752 -0.0004685478894378686 
-0.005785029914605186 0.008705974691420766 -0.001967018733878479 
-0.001307959847008113 0.006872497600153923 -0.02001258191241331 
-0.005785029914605186 0.008705974691420766 -0.001967018733878479 
-0.01044154355164716 0.009263176770488412 -0.0007973079508506521 
-0.001801549708036324 0.002382737382986396 -4.060987478503045e-06 
0.01122991480966212 -0.01336205815231391 -3.029750351416588e-05 
-0.004313336603087592 0.005645435323523408 -5.562088714018176e-05 
0.02036903609009883 -0.02100815953153889 -0.003251674411918465 
-0.006551602984052321 0.01138760293472836 -0.001669813602726572 
0.06640865964101689 -0.04527775512472834 -0.003703216993930596 
0.008894695367154749 -0.008145818560582156 -1.700045169609744e-06 
3.096037059851728e-07 9.203655707088181e-06 2.637351408188491e-06 
-0.002120831827517592 0.001593522919496413 -2.424110302977881e-06 
-0.0005693555009645408 0.002995134295177455 -0.0002342740275407619 
0.04069890960224485 -0.02692244672327827 -0.01434127134703531 
-0.001828235379502233 -0.02473670010505751 0.01779759788019993 
-0.008230673611245489 0.009778561569605505 -0.0004417113853604704 
-0.001925806467233727 0.03917026352790539 -0.03135205882666861 
2.521650687887047e-06 3.905903690375106e-06 2.74852874863969e-07 
-0.001627079395356501 0.008084117287818979 -0.0002333044133800933 
0.01575606659554287 -0.01463457050147526 4.499328823109348e-07 
-0.09115639489250851 0.1290671373906419 -0.1032878765638517 
-0.003541994257169528 0.004548664469078443 -0.000408340685501893 
-0.01194971740009442 0.01221660134055048 -0.002360917251673087 
-4.951730721912835e-05 0.004393585171117841 -0.001383311008741219 
-0.004310351563971663 0.005628239301941554 -5.982389971958089e-05 
0.1195797526469694 -0.08378798171802813 -0.006161814950525864 
1.04497436387627e-06 1.915519345072308e-05 1.197597889573858e-05 
-2.648774403204528e-06 1.393830560171909e-05 3.758604545781999e-07 
-0.01652836494024097 0.02007360185755658 -0.007337766877331414 
-0.002094711815525407 -0.005019714904888123 0.0116206425990394 
-4.008235777792855e-05 0.0006530664715533852 1.024571033592858e-07 
-0.02548318061617914 -0.02190843862404409 0.04818097978126974 
-0.007752511860141885 -0.02260057653032343 0.03384539549156884 
-0.006551104400434787 0.01138475365716571 -0.001670533074757349 
-0.008638190215347669 0.008539682511978364 -0.0009727466228879521 
-0.006845579230671567 0.009541155992827425 -0.004698672869061516 
0.01560326549861215 -0.02054346855775413 -9.745573483173954e-06 
0.01147507180824138 -0.03491713847402889 0.04344244041297349 
-0.0005693555009645408 0.002995134295177455 -0.0002342740275407619 
4.342513582584833e-08 7.497340472978368e-05 1.464275267289111e-06 
0.04705198644365918 -0.04301035249961159 -0.0007020280045470735 
-0.01752174359050909 0.005260183968885236 0.03132843479878748 
-0.004384030910197687 0.004864123153058527 -0.0001588408895534731 
-7.006497396575061e-05 -0.04931395245791532 0.04997692740078179 
-0.0001240382037856433 0.0008142815537507207 2.522892767734365e-08 
2.018175340820646e-06 6.760646839783094e-06 9.931647829415258e-07 
-0.0002126768058898181 0.002624497486152486 -7.056720090648949e-06 
-0.008469199316939685 0.01179989260414831 -0.00378653197340457 
3.096037059851728e-07 9.203655707088181e-06 2.637351408188491e-06 
-0.006480561592182547 0.007623073716890962 -0.0001630007638918708 
8.702365846627324e-08 0.0001499478351474773 2.926310813679157e-06 
0.0444854341098438 -0.04171698746956954 -9.048655673446346e-06 
-0.0113264512423676 0.01140106736695097 -0.001444654782585139 
2.327867194232839e-07 1.212000958068215e-05 5.170772821449755e-06 
-0.008961098499266653 0.01172962809267353 -0.006943095109294231 
0.01575606659554287 -0.01463457050147526 4.499328823109348e-07 
0.000226254529074922 -0.005549226478800883 -0.002484560693690242 
3.294430006891544e-07 4.538361198633723e-06 7.268821694861125e-06 
-5.037136116788955e-07 2.85361309270461e-06 7.190538576405253e-07 
3.294430006891544e-07 4.538361198633723e-06 7.268821694861125e-06 
-0.04396592073349254 -0.07172181144438315 0.09293333951842377 
-0.004698031546988798 0.002824231723072357 0.01051554289182911 
-1.772970547500965e-05 -0.008368695198243266 0.01495528600734793 
6.590462692642666e-07 9.078484902389221e-06 1.453511941992096e-05 
-0.007195155150004596 0.00655168419231811 0.00801571732333968 
-0.01042093160312945 -0.04474254436404967 0.03845555584720269 
-0.00634979555841208 -0.01016415637622679 0.02048863091501431 
-0.06288694517858694 0.06091515095664098 0.00213265511770084 
-1.283684138266497e-05 1.381251014755843e-05 7.287658459703264e-07 
-0.0131022407684083 0.02276949519579379 -0.003341061664930989 
-0.002627634950325134 0.003921819706174922 -0.001409755920126394 
-0.004565572010749506 0.01580800546146875 -0.002449909070068604 
-0.02014256601848409 0.02542898778091252 -0.005278925725190529 
-0.0006201994396371733 0.004071401678724345 1.207364286040988e-07 
-0.009957886134826429 0.009398893696594243 -0.000409006263708116 
1.04497436387627e-06 1.915519345072308e-05 1.197597889573858e-05 
-1.283684138266497e-05 1.381251014755843e-05 7.287658459703264e-07 
-0.001155046001209212 0.0006087585018852604 -8.228431354251604e-07 
3.096037059851728e-07 9.203655707088181e-06 2.637351408188491e-06 
-0.03512296268162857 0.04639403714759613 0.005568946458175628 
-0.0004589732246508203 0.0005671269634707082 -2.749312728522955e-06 
-5.037136116788955e-07 2.85361309270461e-06 7.190538576405253e-07 
-0.03642162233199228 0.02773690090365329 -0.004400002106118905 
-0.004384030910197687 0.004864123153058527 -0.0001588408895534731 
-0.0001992090921371138 0.02168224740826682 -0.02012032895695296 
-0.0005288596743378855 0.002544488295903024 4.848461761626975e-07 
-0.0007713197675504589 -0.1408774540455636 0.1116854410690559 
0.01455898529420659 0.002433471719478024 -0.03987729124258136 
-0.007621628890970272 0.008912815397504006 -0.000160797378674322 
-0.0005288596743378855 0.002544488295903024 4.848461761626975e-07 
-0.0005282391437002748 0.002562895579679074 5.754642118819189e-06 
-2.567351765262866e-05 2.762664589463931e-05 1.455006326495259e-06 
-0.0002126768058898181 0.002624497486152486 -7.056720090648949e-06 
0.003011527616145777 0.003825055477049937 -0.009124440848699445 
-0.007745354361288421 0.009736297477617653 -0.000158135237770959 
2.521650687887047e-06 3.905903690375106e-06 2.74852874863969e-07 
-4.951730721912835e-05 0.004393585171117841 -0.001383311008741219 
3.294430006891544e-07 4.538361198633723e-06 7.268821694861125e-06 
0.01728330676502021 -0.01559044437455422 -1.734209762691138e-05 
-0.006551104400434787 0.01138475365716571 -0.001670533074757349 
-0.01693844434069519 0.02359977544207627 -0.007573065528454108 
-0.03176393616756513 0.0412067326892465 -0.01925377135973998 
2.327867194232839e-07 1.212000958068215e-05 5.170772821449755e-06 
-0.001155046001209212 0.0006087585018852604 -8.228431354251604e-07 
3.096037059851728e-07 9.203655707088181e-06 2.637351408188491e-06 
-0.004508938314801442 0.009296109943631429 -0.008923975193082185 
-0.009952347508346476 0.009398059931899206 -0.0004064704262456212 
-0.0131022407684083 0.02276949519579379 -0.003341061664930989 
-0.002714384977913693 0.00462043498011399 -0.0002191522088248576 
-0.02124210160221407 0.02883083497853726 -0.01388416337154605 
1.04497436387627e-06 1.915519345072308e-05 1.197597889573858e-05 
-1.149713870293219e-05 0.00122776252364828 -0.0004405205675294833 
-0.007620567475022775 0.008931943725304838 -0.0001488207473603538 
-0.001155046001209212 0.0006087585018852604 -8.228431354251604e-07 
3.096037059851728e-07 9.203655707088181e-06 2.637351408188491e-06 
-1.283684138266497e-05 1.381251014755843e-05 7.287658459703264e-07 
-0.01506065782717362 0.04147263758163013 -0.001145059965650057 
0.0235271721663368 -0.02148616199225744 -0.000339037231075575 
-0.003942539053255733 -0.01671867938263872 0.02098990704131515 
0.05603528213596425 -0.04341227789000203 -0.002463297867552534 
-0.01357861766823024 0.01403045497025471 -0.003609123832464581 
-0.0005288596743378855 0.002544488295903024 4.848461761626975e-07 
4.342513582584833e-08 7.497340472978368e-05 1.464275267289111e-06 
-0.003501910528717747 0.003895595926252728 -0.0004084437747938739 
-0.0202951248300663 0.02674648531882916 -0.02374403755577152 
-0.005785029914605186 0.008705974691420766 -0.001967018733878479 
0.05721591920570374 -0.1115055091263732 -0.02537614518074542 
-0.0005693555009645408 0.002995134295177455 -0.0002342740275407619 
1.04497436387627e-06 1.915519345072308e-05 1.197597889573858e-05 
0.02352607663739793 -0.02150526138513812 -0.0003510147562054174 
-2.648774403204528e-06 1.393830560171909e-05 3.758604545781999e-07 
-0.003501910528717747 0.003895595926252728 -0.0004084437747938739 
-0.01422497455453954 0.008782872612979314 0.00219935153884762 
-0.000962342914208452 0.003087278857982953 -0.0002344593086209988 
-2.420060222976773e-06 0.0001976794112112166 1.105475541546314e-07 
-0.01647849577808344 0.01113312607411535 0.004311528264591178 
0.01560326549861215 -0.02054346855775413 -9.745573483173954e-06 
-0.001155046001209212 0.0006087585018852604 -8.228431354251604e-07 
-5.037136116788955e-07 2.85361309270461e-06 7.190538576405253e-07 
3.294430006891544e-07 4.538361198633723e-06 7.268821694861125e-06 
-0.0007723200892657379 0.005439043074762884 -0.007337315390898682 
-0.004310351563971663 0.005628239301941554 -5.982389971958089e-05 
1.04497436387627e-06 1.915519345072308e-05 1.197597889573858e-05 
-0.0113264512423676 0.01140106736695097 -0.001444654782585139 
4.342513582584833e-08 7.497340472978368e-05 1.464275267289111e-06 
-0.002194311148440756 0.004778883342834302 -0.003015828160352988 
-0.00288739320207065 0.005648500526803747 -0.001092799203202636 
0.015345975085751 -0.000521105445063116 -0.004585895246459239 
-0.008469199316939685 0.01179989260414831 -0.00378653197340457 
0.009888733940285424 -0.0185005383027741 -6.658648249345504e-05 
-2.567351765262866e-05 2.762664589463931e-05 1.455006326495259e-06 
-0.004508938314801442 0.009296109943631429 -0.008923975193082185 
2.521650687887047e-06 3.905903690375106e-06 2.74852874863969e-07 
-0.001801549708036324 0.002382737382986396 -4.060987478503045e-06 
-0.009954998554981767 0.009397074203073483 -0.0004042109617649555 
9.340383372908765e-07 4.849771455377535e-05 2.06573658397578e-05 
-2.648774403204528e-06 1.393830560171909e-05 3.758604545781999e-07 
3.096037059851728e-07 9.203655707088181e-06 2.637351408188491e-06 
-0.0005288596743378855 0.002544488295903024 4.848461761626975e-07 
-0.00565064910802511 0.005792173543873293 -0.0009270897386419773 
-0.02599878752743362 0.000463778781275447 0.008582286012836338 
0.022136281771323 -0.01509260557013502 -0.001234401483012533 
-0.001739934506535301 0.003199685454101312 -0.0002193227005409123 
-0.0005693555009645408 0.002995134295177455 -0.0002342740275407619 
-0.0002674869291798787 -0.007430065217170804 0.01162325079176366 
-0.01751730682774497 0.03552265592229056 -0.02592528467337666 
-0.04498852869686647 0.03968652708888719 -0.02844350848131315 
-0.002194311148440756 0.004778883342834302 -0.003015828160352988 
-0.003955151341180781 0.01326543502670447 -0.0138814551914457 
-9.903501702207063e-05 0.008787176979166729 -0.002766630717752932 
-0.002008144232763611 0.002056765744863041 -3.331952415355809e-05 
-0.001924703948857393 0.006174574063824181 -0.0004689166285604813 
-2.648774403204528e-06 1.393830560171909e-05 3.758604545781999e-07 
-0.004808034510689211 0.006795187265428122 -0.0002490930584577507 
-0.008469199316939685 0.01179989260414831 -0.00378653197340457 
0.01093493033397858 -0.01298583402378639 -3.03970666262456e-05 
1.04497436387627e-06 1.915519345072308e-05 1.197597889573858e-05 
0.01122991480966212 -0.01336205815231391 -3.029750351416588e-05 
-0.00813041431622809 -0.008134495342078612 0.01042927805591008 
-0.01091252662910538 0.01598659818804931 -0.01179981031358907 
-0.004389102084780912 0.005651486074080022 -0.001413919379816215 
0.002535379507614539 -0.0004925379111245093 -0.0106103484757792 
-0.00458267457924937 0.008969346070229273 -0.002886404473266571 
-5.037136116788955e-07 2.85361309270461e-06 7.190538576405253e-07 
0.01122991480966212 -0.01336205815231391 -3.029750351416588e-05 
-2.648774403204528e-06 1.393830560171909e-05 3.758604545781999e-07 
-0.002187721617201564 0.00303961626566772 -3.281263388449479e-05 
-1.250732796499789e-05 1.835144932635564e-05 7.996723797231781e-06 
-0.02644246999833008 0.04090334057168373 -0.01464992394785132 
-0.001803967888688077 0.002580417109271569 -3.950415937152176e-06 
2.090218518238499e-06 3.831133102738461e-05 2.395147690835087e-05 
4.342513582584833e-08 7.497340472978368e-05 1.464275267289111e-06 
-0.0004613119476393091 0.0005902689820666514 2.630388134857547e-07 
0.01570654732417798 -0.01024097712895615 -0.001382860767577612 
0.022136281771323 -0.01509260557013502 -0.001234401483012533 
-0.03470737844579471 0.05346407443924352 -0.01180550958166285 
2.754593933352255e-06 1.602684110079062e-05 5.445034909202803e-06 
-1.034802197380914e-06 0.0005898607014960723 -6.100373070576367e-06 
-0.01043946848177921 0.009227266060878273 -0.0008103813335700279 
0.03191321398192049 0.01698711321586649 -0.05495841516839653 
0.01122991480966212 -0.01336205815231391 -3.029750351416588e-05 
2.327867194232839e-07 1.212000958068215e-05 5.170772821449755e-06 
0.01122991480966212 -0.01336205815231391 -3.029750351416588e-05 
-0.006551104400434787 0.01138475365716571 -0.001670533074757349 
4.342513582584833e-08 7.497340472978368e-05 1.464275267289111e-06 
2.521650687887047e-06 3.905903690375106e-06 2.74852874863969e-07 
-0.0897488779682598 0.1153069728160908 -0.06591191456386188 
-0.003481885228679052 -0.009124354174964574 0.0159497456868047 
-0.01873733877741598 0.02654332191023352 -0.02427943888429103 
-0.000992340936532598 0.00651423971206162 1.803237201801837e-07 
-0.0005693555009645408 0.002995134295177455 -0.0002342740275407619 
-0.005830803743217371 0.01043367608950335 -0.00162852549257764 
-0.0394893407067639 0.04207331737568285 -0.02797436395340698 
-0.01357911084644392 0.01403330280164326 -0.003608403474189211 
-0.007621628890970272 0.008912815397504006 -0.000160797378674322 
-0.0005288596743378855 0.002544488295903024 4.848461761626975e-07 
-0.00220714745210599 0.004792690234893716 -0.003015098634824706 
-4.135650964612943e-06 0.002359456425606544 -2.440960932573761e-05 
-0.0002674869291798787 -0.007430065217170804 0.01162325079176366 
-0.01651597516162663 0.01532486875918092 -0.001532279521769531 
-2.420060222976773e-06 0.0001976794112112166 1.105475541546314e-07 
-0.001740983287899695 0.003180540713688086 -0.0002312998030213381 
-0.003501910528717747 0.003895595926252728 -0.0004084437747938739 
-1.283684138266497e-05 1.381251014755843e-05 7.287658459703264e-07 
-0.002647003227617468 0.01273644761931726 2.786623941980009e-06 
0.01494956276953077 -0.005725568639038412 -0.01237056113671062 
-0.003427215051388632 0.002777590555615173 -0.000113899735984953 
0.01559043337014144 -0.02052967189554466 -9.016856067056469e-06 
0.05952358378016731 -0.04875924292404636 -0.02432963905016127 
3.135992388203328e-06 5.746931990780434e-05 3.592603233048284e-05 
-0.02586374727317327 0.03376960675224848 -0.0003588749101483321 
-6.584462378687169e-05 0.0009276927686114435 -0.002509181314979808 
-0.0005288596743378855 0.002544488295903024 4.848461761626975e-07 
-0.003501910528717747 0.003895595926252728 -0.0004084437747938739 
0.03151215275517629 -0.02926910692535497 8.976487197898899e-07 
-0.00490432725285956 0.008623729236297301 -6.513904975630666e-05 
-1.283684138266497e-05 1.381251014755843e-05 7.287658459703264e-07 
-6.584462378687169e-05 0.0009276927686114435 -0.002509181314979808 
0.02466609507316336 -0.01266536732514892 -0.006422355388679161 
-0.002714384977913693 0.00462043498011399 -0.0002191522088248576 
-0.02927056384170886 0.03710973514686574 -0.03296554471353284 
1.319337451280087e-06 1.81706630917211e-05 2.905055995148725e-05 
-0.004243775698583372 0.003148748669723136 -2.879928475288845e-05 
0.0329743932506134 0.009938084617027863 -0.07202808028344829 
-0.01093782803236992 0.01522568355348108 -0.0001561560404649904 
-1.283684138266497e-05 1.381251014755843e-05 7.287658459703264e-07 
-0.0001240382037856433 0.0008142815537507207 2.522892767734365e-08 
-0.0253894070405329 -0.0006224485457930648 0.04609511711203079 
-1.149713870293219e-05 0.00122776252364828 -0.0004405205675294833 
0.02172641389767106 -0.05697795500624722 0.02416141573536587 
-1.283684138266497e-05 1.381251014755843e-05 7.287658459703264e-07 
-0.003481885228679052 -0.009124354174964574 0.0159497456868047 
-0.00600882007066159 0.008420487090929213 -0.0005048242127575922 
-0.0001240382037856433 0.0008142815537507207 2.522892767734365e-08 
0.006985928191902619 0.001021489560851571 0.008009848069310214 
2.521650687887047e-06 3.905903690375106e-06 2.74852874863969e-07 
3.294430006891544e-07 4.538361198633723e-06 7.268821694861125e-06 
9.889637680886624e-07 1.362206480000838e-05 2.179645590732758e-05 
-0.003004402075349084 0.004210237339374952 -0.0002524122395172622 
-0.002587551676501668 0.003268751516637443 -0.00140985891919531 
0.01575606659554287 -0.01463457050147526 4.499328823109348e-07 
-0.008469199316939685 0.01179989260414831 -0.00378653197340457 
-0.01194971740009442 0.01221660134055048 -0.002360917251673087 
-0.003427215051388632 0.002777590555615173 -0.000113899735984953 
-0.002005611124838945 0.002060670539711763 -3.304465325122504e-05 
-0.001620980197989508 -0.01797831957549991 0.02097615859473989 
0.01575606659554287 -0.01463457050147526 4.499328823109348e-07 
-2.420060222976773e-06 0.0001976794112112166 1.105475541546314e-07 
-0.0009644472046984662 0.003123212462455941 -0.0002213877553140491 
0.0512328250685026 -0.05112233031434531 -0.01675207002209844 
-0.004887582168663134 0.009470219854078211 -0.000212803132396524 
1.04497436387627e-06 1.915519345072308e-05 1.197597889573858e-05 
-0.005428770706672938 0.009240861647834371 -0.0004383030390066117 
3.294430006891544e-07 4.538361198633723e-06 7.268821694861125e-06 
2.327867194232839e-07 1.212000958068215e-05 5.170772821449755e-06 
3.096037059851728e-07 9.203655707088181e-06 2.637351408188491e-06 
0.0128012749501186 0.003512578489387311 -0.01092986267043575 
1.04497436387627e-06 1.915519345072308e-05 1.197597889573858e-05 
3.294430006891544e-07 4.538361198633723e-06 7.268821694861125e-06 
2.521650687887047e-06 3.905903690375106e-06 2.74852874863969e-07 
0.01923875717195063 0.01584454034311472 -0.04135182834174953 
-0.008469199316939685 0.01179989260414831 -0.00378653197340457 
9.29589368840072e-07 2.762137578087031e-05 7.898808422890389e-06 
-0.000254495960203052 0.005672830408231274 -0.002859714751699956 
0.004633245639942561 -0.01142989921851276 0.007345124527051713 
-0.01209459679870338 0.0009338164568751839 0.007187589710305402 
0.02640460760273688 -0.004546108479573889 -0.008360775772223168 
-0.0001263411055477979 0.001033229273780545 6.118235559996339e-06 
4.342513582584833e-08 7.497340472978368e-05 1.464275267289111e-06 
-0.001801549708036324 0.002382737382986396 -4.060987478503045e-06 
-0.001155046001209212 0.0006087585018852604 -8.228431354251604e-07 
-4.951730721912835e-05 0.004393585171117841 -0.001383311008741219 
1.309619431765494e-07 0.0002249242796144665 4.383952455574478e-06 
0.02213661033155924 -0.0150834048438573 -0.001231762959595792 
-0.001800500145380488 0.002401885452097357 7.91504174414149e-06 
-0.0323477929526504 0.04711038996533653 -0.02129114075283442 
0.008897107322010175 -0.008343501830857558 -1.810535874313301e-06 
-0.008638190215347669 0.008539682511978364 -0.0009727466228879521 
-0.0128681384744598 0.01784487139776199 -0.005212777380198727 
-0.01604642636278687 0.02071858651363599 -0.009215554680409153 
-0.0002954806095576628 0.000379070776976581 6.187755838083879e-07 
-0.0001240382037856433 0.0008142815537507207 2.522892767734365e-08 
0.02450042393409579 -0.02881197890896232 -1.009179120052924e-05 
-0.001155046001209212 0.0006087585018852604 -8.228431354251604e-07 
3.096037059851728e-07 9.203655707088181e-06 2.637351408188491e-06 
-0.00408892041934705 -0.01716534306096975 0.005594259545134013 
-6.584462378687169e-05 0.0009276927686114435 -0.002509181314979808 
0.07423867045525254 -0.06743402335407397 -0.02225034744216006 
-0.01375369955344991 0.01843801464145265 -0.006168005984604492 
0.01560326549861215 -0.02054346855775413 -9.745573483173954e-06 
-0.003000812005639315 0.004233285230290098 -0.0002401605419614556 
-0.002926730096052853 0.007249459865934825 -0.0002189398846216011 
0.01560326549861215 -0.02054346855775413 -9.745573483173954e-06 
3.096037059851728e-07 9.203655707088181e-06 2.637351408188491e-06 
4.342513582584833e-08 7.497340472978368e-05 1.464275267289111e-06 
-0.02371371711077224 -0.06134466450988963 0.01998634377862718 
0.04220480822959289 -0.01753185873927452 -0.01011238624718885 
-0.00350432725181994 0.004093275219464336 -0.0004083327176677747 
-0.01012581051108477 0.006336555474254609 0.01462449847799309 
-1.283684138266497e-05 1.381251014755843e-05 7.287658459703264e-07 
2.521650687887047e-06 3.905903690375106e-06 2.74852874863969e-07 
9.29589368840072e-07 2.762137578087031e-05 7.898808422890389e-06 
1.04497436387627e-06 1.915519345072308e-05 1.197597889573858e-05 
-0.0001240382037856433 0.0008142815537507207 2.522892767734365e-08 
0.008897107322010175 -0.008343501830857558 -1.810535874313301e-06 
-0.004310261143288152 0.005778180849969834 -5.689633204796234e-05 
-0.00284679759225481 0.01497568653387121 -0.001171367411646945 
-0.004830889702802061 0.008021776669946155 -0.0002503530279080546 
0.002607325381878593 -0.0006405042373413014 -0.002410155206357038 
-0.0004589732246508203 0.0005671269634707082 -2.749312728522955e-06 
-0.002993973759808964 0.02925398164669485 -0.0173490942168546 
-0.001801549708036324 0.002382737382986396 -4.060987478503045e-06 
-0.0001202477821561221 0.001959206125887117 3.094080214017081e-07 
-0.004310351563971663 0.005628239301941554 -5.982389971958089e-05 
-0.001474912680252772 0.001881143146125829 -5.003624323837203e-07 
-0.0001240382037856433 0.0008142815537507207 2.522892767734365e-08 
0.01246903598916137 -0.02075269720653958 -0.01031974713761931 
9.29589368840072e-07 2.762137578087031e-05 7.898808422890389e-06 
0.03351770328148482 -0.004826847817170177 -0.03130212959283138 
-0.01306726673072874 -0.05757639094656554 0.07485723018530646 
-5.037136116788955e-07 2.85361309270461e-06 7.190538576405253e-07 
-5.037136116788955e-07 2.85361309270461e-06 7.190538576405253e-07 
0.01775224144270029 -0.01022847300525697 -0.001393242090575978 
-0.004515933826349772 0.007003166898658526 -0.0002232127775465259 
-0.005785029914605186 0.008705974691420766 -0.001967018733878479 
-0.06378485897373989 0.08530338707144784 -0.0310734393703806 
-0.008469199316939685 0.01179989260414831 -0.00378653197340457 
3.096037059851728e-07 9.203655707088181e-06 2.637351408188491e-06 
0.01728330676502021 -0.01559044437455422 -1.734209762691138e-05 
-0.01111353795777754 0.01633977218254594 -0.0001238927185053229 
-0.002082810873532222 -0.08366586623927652 0.07371409984703635 
-0.006905376513366757 -0.003806056274808115 0.03177484119648775 
-0.0001240382037856433 0.0008142815537507207 2.522892767734365e-08 
0.02466609507316336 -0.01266536732514892 -0.006422355388679161 
1.04497436387627e-06 1.915519345072308e-05 1.197597889573858e-05 
-8.99212992774923e-05 0.008231406344811124 -0.001319732299452569 
3.294430006891544e-07 4.538361198633723e-06 7.268821694861125e-06 
0.07288304679034774 -0.04815761606465837 -0.01688459980514477 
-1.034802197380914e-06 0.0005898607014960723 -6.100373070576367e-06 
-0.0005288596743378855 0.002544488295903024 4.848461761626975e-07 
-6.584462378687169e-05 0.0009276927686114435 -0.002509181314979808 
-0.01796687132012098 0.02465626761014862 -0.01671997184926486 
3.096037059851728e-07 9.203655707088181e-06 2.637351408188491e-06 
-1.283684138266497e-05 1.381251014755843e-05 7.287658459703264e-07 
2.327867194232839e-07 1.212000958068215e-05 5.170772821449755e-06 
-0.001155046001209212 0.0006087585018852604 -8.228431354251604e-07 
-0.004243775698583372 0.003148748669723136 -2.879928475288845e-05 
0.09700080659213559 -0.09131912341502095 -0.04777071773326754 
1.017538076432227e-07 0.0002015859345511848 3.850480871788224e-07 
-0.01594591732311805 0.0213263024025336 -0.007768371103501419 
0.0134357608099167 -0.01071966578710254 -0.006576619482492423 
-0.001314148515647073 0.006236456029257341 -0.001395835997074325 
-0.002187721617201564 0.00303961626566772 -3.281263388449479e-05 
-0.0005703899769280886 0.00358499497034986 -0.0002403743555393098 
-2.648774403204528e-06 1.393830560171909e-05 3.758604545781999e-07 
-0.008773625252920785 0.01072900759394316 -0.0005071979117194662 
-0.0002674869291798787 -0.007430065217170804 0.01162325079176366 
-0.003481979623225657 0.006361086774569223 -0.0004625983292919265 
-0.002714384977913693 0.00462043498011399 -0.0002191522088248576 
-4.008235777792855e-05 0.0006530664715533852 1.024571033592858e-07 
-1.859093610374007e-06 0.001806444059056587 -7.813194557626867e-06 
-0.001814583203576696 0.004552942748499445 -0.001620580769084647 
0.01122991480966212 -0.01336205815231391 -3.029750351416588e-05 
-0.0009662505323041148 0.005193366911880744 -0.001396568451570836 
-0.006551104400434787 0.01138475365716571 -0.001670533074757349 
0.0001497457416090914 -0.01284797361659592 0.005494725763570957 
-3.495632590233295e-05 0.01285053125689918 -0.01731676448054046 
0.009042180654990675 -0.01032243360314359 -6.310967263649245e-05 
2.521650687887047e-06 3.905903690375106e-06 2.74852874863969e-07 
0.01465841329878705 -0.01046281196313957 -0.007750730706691887 
-0.002121881653871855 0.001574372377833924 -1.44002879655178e-05 
-0.001057722258820478 0.005088981060852231 9.691100245081254e-07 
-0.01466410498887059 0.01683703425482199 -0.002580069473977699 
1.04497436387627e-06 1.915519345072308e-05 1.197597889573858e-05 
-0.003690182719512148 0.01038960804113872 -0.004083551013638711 
3.096037059851728e-07 9.203655707088181e-06 2.637351408188491e-06 
-2.420060222976773e-06 0.0001976794112112166 1.105475541546314e-07 
-0.01181346992420261 0.01764358179148792 -0.02026168787982662 
0.04449465077777142 -0.06434360637098377 0.02101765591662371 
-0.08873898840904439 0.0188660996651906 -0.006445233667782061 
-0.05700582705251288 0.06505580576977293 -0.02168859953909357 
-0.001155046001209212 0.0006087585018852604 -8.228431354251604e-07 
-0.002310091097972447 0.00121751708068591 -1.645380392730922e-06 
3.096037059851728e-07 9.203655707088181e-06 2.637351408188491e-06 
-2.648774403204528e-06 1.393830560171909e-05 3.758604545781999e-07 
0.03955446725431227 -0.04265740781105262 -0.005406597047839076 
-0.01594591732311805 0.0213263024025336 -0.007768371103501419 
-0.0002004152671788278 0.003265366771850235 5.220694911690051e-07 
-0.001801549708036324 0.002382737382986396 -4.060987478503045e-06 
-0.01214024346480436 0.009257743861423777 -0.001461484326239988 
-0.01751730682774497 0.03552265592229056 -0.02592528467337666 
-0.000106338482419118 0.001312248584237313 -3.528243733641007e-06 
-0.001611927122423959 0.007665588503203119 1.016196067346168e-05 
-3.449185479704174e-05 0.003683299164676424 -0.00132156350232477 
-0.0005899558501756932 0.0007524352491753769 -1.997002391457535e-07 
-0.005187950672150607 0.006551304385697265 -0.002818995299912388 
-0.003004402075349084 0.004210237339374952 -0.0002524122395172622 
-0.02428101227512002 0.01849126280856818 -0.002933322982659529 
-0.006551104400434787 0.01138475365716571 -0.001670533074757349 
-0.004231121891742903 0.0203563011036089 3.83322515625101e-06 
-4.008235777792855e-05 0.0006530664715533852 1.024571033592858e-07 
-5.037136116788955e-07 2.85361309270461e-06 7.190538576405253e-07 
-0.01043946848177921 0.009227266060878273 -0.0008103813335700279 
-0.03544730912735816 0.01924399533198405 0.01505959169393326 
-0.00219426685580443 0.004853856022177307 -0.003014362402724766 
0.05693702438596814 -0.02683141333141156 -0.02465295827117863 
0.006767616590662546 -0.00374217780238198 0.02250656024835033 
2.521650687887047e-06 3.905903690375106e-06 2.74852874863969e-07 
0.04705277103853646 -0.04299198325873112 -0.0006967518345808231 
-0.007621628890970272 0.008912815397504006 -0.000160797378674322 
2.521650687887047e-06 3.905903690375106e-06 2.74852874863969e-07 
-0.0009621094314534789 0.003099395807875735 -0.0002292877100787005 
-0.04487374119255488 0.05765314720762345 -0.03295579887140321 
-0.002121881653871855 0.001574372377833924 -1.44002879655178e-05 
-0.0001240382037856433 0.0008142815537507207 2.522892767734365e-08 
-0.003004402075349084 0.004210237339374952 -0.0002524122395172622 
0.01575606659554287 -0.01463457050147526 4.499328823109348e-07 
0.01553241798541852 -0.05401819136132682 0.05981083630651714 
0.03305166955697394 -0.01969523400646215 -0.0009625766888427592 
-0.002713334021583079 0.00463957551030872 -0.0002071753905884266 
-0.0001208516642036918 0.0009115744257602174 7.028051712725852e-06 
-6.584462378687169e-05 0.0009276927686114435 -0.002509181314979808 
-2.069241666842757e-06 0.001179722786048808 -1.220157164286888e-05 
3.096037059851728e-07 9.203655707088181e-06 2.637351408188491e-06 
0.02213891362967207 -0.01508870267230221 -0.001234126427025216 
-0.04752793189109644 0.06105799251685174 -0.0329445652346257 
6.19403878231574e-07 1.840993881037541e-05 5.27135865723264e-06 
0.001659912999224453 -0.005187219544205779 0.01902084961469067 
-0.002585015407330019 0.003272655772544853 -0.001409583877863817 
-0.001620980197989508 -0.01797831957549991 0.02097615859473989 
0.01281115720394262 -0.004609446531838305 -0.004869111055065868 
0.03303933875523326 -0.03022498526271198 -1.689224635017708e-05 
0.09578717985459427 -0.07973511397483585 -0.003853905847680239 
3.096037059851728e-07 9.203655707088181e-06 2.637351408188491e-06 
0.0186343148158158 -0.01119699287520614 -0.001642845676786775 
-0.008469199316939685 0.01179989260414831 -0.00378653197340457 
-0.00600882007066159 0.008420487090929213 -0.0005048242127575922 
-0.006551104400434787 0.01138475365716571 -0.001670533074757349 
2.3232945561691e-06 5.043293309707681e-05 2.912077240683824e-05 
-0.01758126220631091 0.02882443073635701 -0.0235708498908195 
-0.02044045445973513 0.02749541219280289 -0.007981517003670153 
-0.005652021425627359 0.005763836654279777 -0.0009417072318210252 
0.03517894310409059 -0.03657812232478344 -0.005472217316314906 
-2.420060222976773e-06 0.0001976794112112166 1.105475541546314e-07 
-0.0004589732246508203 0.0005671269634707082 -2.749312728522955e-06 
0.009756060128638411 -0.01146173493037245 -1.881683504014734e-05 
-0.03126407297395955 -0.1342260272080016 0.1153663005369029 
3.096037059851728e-07 9.203655707088181e-06 2.637351408188491e-06 
0.0002606611304650388 0.03084400234229308 -0.03492135414454189 
-0.0661150506871014 0.08029490884457285 -0.02935200947816406 
-0.008638190215347669 0.008539682511978364 -0.0009727466228879521 
-1.520780311356691e-05 -0.008364790603933643 0.01495556044549858 
-1.034802197380914e-06 0.0005898607014960723 -6.100373070576367e-06 
-0.001155046001209212 0.0006087585018852604 -8.228431354251604e-07 
-1.034802197380914e-06 0.0005898607014960723 -6.100373070576367e-06 
-0.0005288596743378855 0.002544488295903024 4.848461761626975e-07 
-0.004310351563971663 0.005628239301941554 -5.982389971958089e-05 
-0.004310351563971663 0.005628239301941554 -5.982389971958089e-05 
-1.034802197380914e-06 0.0005898607014960723 -6.100373070576367e-06 
4.658702574273223e-07 2.424183660612299e-05 1.033892349648472e-05 
-0.007268310437230131 0.006691275064442536 -0.0002072528570699588 
-1.283684138266497e-05 1.381251014755843e-05 7.287658459703264e-07 
-0.01201776781634537 0.01684107497839938 -0.001009646628311157 
2.521650687887047e-06 3.905903690375106e-06 2.74852874863969e-07 
0.02213633402895484 -0.01501762994326563 -0.001232936458213616 
-0.001814466002689421 0.004535103420031755 -0.001621232105105133 
-0.0001240382037856433 0.0008142815537507207 2.522892767734365e-08 
-0.0005288596743378855 0.002544488295903024 4.848461761626975e-07 
-0.01214048543426327 0.009245630250383732 -0.001466657990934026 
-0.000106338482419118 0.001312248584237313 -3.528243733641007e-06 
-0.05718376725198756 0.03359462899326901 0.002202523395078925 
-0.06165952306555905 -0.03463827402380217 0.05788729283802913 
0.0571670541062072 -0.03361898852563523 -0.01276764233756031 
-0.009017925433063245 0.01859222580186119 -0.01784791059057044 
2.327867194232839e-07 1.212000958068215e-05 5.170772821449755e-06 
-0.0002480768289702245 0.001628562709054834 5.017871369314414e-08 
-0.0001240382037856433 0.0008142815537507207 2.522892767734365e-08 
-0.002714384977913693 0.00462043498011399 -0.0002191522088248576 
-0.03382301298636153 0.05483186969299141 -0.04000572105986761 
-0.02314051583350718 0.03482386348971915 -0.007868133631816741 
-6.584462378687169e-05 0.0009276927686114435 -0.002509181314979808 
0.06737864739218147 -0.08017073829730616 -0.0001817284957029187 
0.004585254710615942 -0.01436810257159499 -0.01391883388601786 
-0.0007055127279049938 -0.01000676945776446 0.008273823961299116 
-0.01368368481165901 0.0190790308836172 -0.009396487970871581 
0.01227419582343001 -0.02375893365845022 0.01595019573319613 
-1.283684138266497e-05 1.381251014755843e-05 7.287658459703264e-07 
-0.008469199316939685 0.01179989260414831 -0.00378653197340457 
-0.002121881653871855 0.001574372377833924 -1.44002879655178e-05 
0.01575606659554287 -0.01463457050147526 4.499328823109348e-07 
0.0003411259163091525 0.01261569211517284 -0.003668718927479637 
-0.00288739320207065 0.005648500526803747 -0.001092799203202636 
0.01560326549861215 -0.02054346855775413 -9.745573483173954e-06 
-1.006841526320182e-06 5.711324052259378e-06 1.434382512162354e-06 
-1.149713870293219e-05 0.00122776252364828 -0.0004405205675294833 
3.096037059851728e-07 9.203655707088181e-06 2.637351408188491e-06 
-0.001978141646399609 -0.001775011008396133 0.003669600684444909 
-4.951730721912835e-05 0.004393585171117841 -0.001383311008741219 
-0.003501910528717747 0.003895595926252728 -0.0004084437747938739 
-0.01513649927996502 0.02168169230526652 -0.001585019812033329 
-0.02170585947795508 0.03493357237647855 -0.005671250798018674 
3.294430006891544e-07 4.538361198633723e-06 7.268821694861125e-06 
-0.01157009926173806 0.01741194548425134 -0.003934043281113311 
-0.01225677311108302 0.01333285017396578 -0.0009797613171201034 
-0.01604642636278687 0.02071858651363599 -0.009215554680409153 
-0.007079970031516007 0.0139292434623869 -0.001670047594475259 
-0.002121881653871855 0.001574372377833924 -1.44002879655178e-05 
-0.003481885228679052 -0.009124354174964574 0.0159497456868047 
-0.01039530510975461 0.005478844157432816 -7.375811862545959e-06 
0.01507439396834322 -0.01799896872240404 -9.260493521649028e-06 
-0.003876255711212764 -0.01130025466919554 0.01692267347939835 
-1.034802197380914e-06 0.0005898607014960723 -6.100373070576367e-06 
-4.951730721912835e-05 0.004393585171117841 -0.001383311008741219 
0.01575606659554287 -0.01463457050147526 4.499328823109348e-07 
3.096037059851728e-07 9.203655707088181e-06 2.637351408188491e-06 
0.005444869989308457 -0.00465607769179898 -0.001997315738665832 
2.851224288837615e-06 8.445094647198544e-06 7.543030203270154e-06 
0.008251005566541111 -0.006257657205756688 0.01395427243757344 
0.01122991480966212 -0.01336205815231391 -3.029750351416588e-05 
0.02340202828716128 -0.02069096871505327 -0.0003509889690308825 
-0.0005288596743378855 0.002544488295903024 4.848461761626975e-07 
-0.007857343511870552 -0.003045115131429252 0.01588411905280009 
-4.008235777792855e-05 0.0006530664715533852 1.024571033592858e-07 
-5.037136116788955e-07 2.85361309270461e-06 7.190538576405253e-07 
-0.008127766375686416 -0.008148425425545421 0.01042889987461365 
-0.007621628890970272 0.008912815397504006 -0.000160797378674322 
-1.122079447477239e-05 0.001314856376667283 -0.0004338853861475972 
0.01523343442188427 0.04487105221613319 -0.06264171200975172 
-0.03922236005480002 0.08147370019251821 -0.04534717196093052 
-0.02206026552686669 0.001114467212533451 0.01921791437699892 
-0.02366875153421137 -0.06241921223309047 0.0656187575237996 
-1.283684138266497e-05 1.381251014755843e-05 7.287658459703264e-07 
-0.06481279107796561 0.05320794445465988 -0.01853131302158639 
2.521650687887047e-06 3.905903690375106e-06 2.74852874863969e-07 
0.01336332078913568 -0.03991118334781441 0.03183395468982114 
-0.04074190474100362 0.07636744984142479 -0.06333535359122799 
-0.0575555628256238 0.02658670599686391 -0.0117783248884996 
-0.005718254893910086 -0.001009155546786808 0.01118639576225067 
-0.0005693555009645408 0.002995134295177455 -0.0002342740275407619 
0.0035206372395367 0.006384523646675635 5.918585099176583e-05 
-0.001155046001209212 0.0006087585018852604 -8.228431354251604e-07 
6.19403878231574e-07 1.840993881037541e-05 5.27135865723264e-06 
-0.0005089922402290322 0.01134563681429488 -0.005719415712471856 
-0.06785675433989277 0.1344393929328732 -0.07494839179642247 
-0.003004402075349084 0.004210237339374952 -0.0002524122395172622 
-1.04521222874016e-05 0.001246914340281155 -0.0004285430122432931 
-0.0001240382037856433 0.0008142815537507207 2.522892767734365e-08 
-0.005785029914605186 0.008705974691420766 -0.001967018733878479 
1.04497436387627e-06 1.915519345072308e-05 1.197597889573858e-05 
-0.02800175218784511 0.0406446058825507 -0.01655059435863156 
-0.006314619450140939 0.008426093770872977 -0.001206698289838312 
0.01560121134105698 -0.01936372839478801 -2.194612186867524e-05 
-0.01501077299376298 0.02662734429315376 -0.01025767911399069 
-7.903830072477323e-05 0.005449338709760581 -0.00136971947810081 
-0.001387586153605277 -0.01653935779171666 0.02173724465718239 
-0.02155514724617751 0.08919927333197955 -0.05089625920696876 
2.521650687887047e-06 3.905903690375106e-06 2.74852874863969e-07 
-0.05086194253154435 0.09258591968014027 -0.06769574338593172 
-0.04353213460202252 0.008641730659142767 -0.01326926874176895 
0.03417306085327028 -0.03326232378763518 -0.008966016280807251 
-0.007621390460848566 0.00892493011321609 -0.0001556264196205004 
-0.001057722258820478 0.005088981060852231 9.691100245081254e-07 
-0.02755075555411751 0.04049658532988251 -0.02123559347378181 
-0.001445184844601983 0.001896509039711782 -0.004226850560086656 
-0.0005622315581752891 -0.007041723875440803 0.01162833272294892 
0.001687179204957006 -0.005232052748509393 -0.002424495091788607 
4.342513582584833e-08 7.497340472978368e-05 1.464275267289111e-06 
-0.01485624236792813 0.03010206834156216 -0.01450699362662005 
3.096037059851728e-07 9.203655707088181e-06 2.637351408188491e-06 
-0.02280212353245736 0.03075519534449694 -0.004693288655150575 
-0.0008368433287001698 -0.00443492379193947 0.01138897275691025 
-0.007268310437230131 0.006691275064442536 -0.0002072528570699588 
-1.061651295322695e-06 5.51084161615758e-05 2.504357947165149e-05 
-0.000965203528668806 0.005212504992504459 -0.001384588358633186 
-1.034802197380914e-06 0.0005898607014960723 -6.100373070576367e-06 
0.02669130028306302 -0.02503039947119719 -5.430754447124737e-06 
6.19403878231574e-07 1.840993881037541e-05 5.27135865723264e-06 
-0.005696478654225162 0.01580413852894948 -0.008245591093619586 
3.294430006891544e-07 4.538361198633723e-06 7.268821694861125e-06 
-6.584462378687169e-05 0.0009276927686114435 -0.002509181314979808 
-0.008469199316939685 0.01179989260414831 -0.00378653197340457 
0.01728330676502021 -0.01559044437455422 -1.734209762691138e-05 
-0.02480298153749935 0.0288806276668964 -0.006306296331613884 
0.005020851271663707 -0.01964375889723192 0.01692086166500108 
0.004205488041942763 -0.06779124143507992 0.05622696087679471 
-0.04395593133868957 0.04877402573419303 -0.008824140906592072 
0.01300699741359139 0.06605946111050399 -0.06052209792009811 
-2.646406184059332e-05 0.009634522898547274 -0.0129931173590555 
0.003897424813242213 0.00252173719005541 -0.01666348648166224 
-0.0503036398736881 0.0511041717596009 -0.02127090648937796 
-0.002121525745236013 0.001658549562524344 -1.02998063473132e-05 
-0.003427215051388632 0.002777590555615173 -0.000113899735984953 
0.01227405233408885 -0.008273457570301859 -0.0004621490052118935 
3.096037059851728e-07 9.203655707088181e-06 2.637351408188491e-06 
0.009252105152528523 -0.0151325394205279 0.003646668016838912 
-1.772970547500965e-05 -0.008368695198243266 0.01495528600734793 
-5.037136116788955e-07 2.85361309270461e-06 7.190538576405253e-07 
-0.002187721617201564 0.00303961626566772 -3.281263388449479e-05 
3.096037059851728e-07 9.203655707088181e-06 2.637351408188491e-06 
-0.004310351563971663 0.005628239301941554 -5.982389971958089e-05 
-0.00565178433299716 0.005775952149960077 -0.0009365344546765192 
3.294430006891544e-07 4.538361198633723e-06 7.268821694861125e-06 
0.01260062869672476 -0.00859524956033228 0.009497923514514383 
-0.0005288596743378855 0.002544488295903024 4.848461761626975e-07 
-0.004130740341111959 0.005104037265141763 -2.466239299542903e-05 
-1.538356666596957e-06 0.0005927151572280589 -5.382024673462953e-06 
-0.0001558558520417844 0.005705833437641466 -0.001386838936712375 
-1.179174152118358e-05 3.296815250645015e-05 1.270434586494924e-05 
-0.003105757022371234 0.01112134140903795 -0.003078112109341173 
-0.008900159207299897 0.01462179603907742 -0.003831863045963015 
0.0384966904989856 -0.03756837519605866 -0.005405622322893992 
-0.01751730682774497 0.03552265592229056 -0.02592528467337666 
-0.04495373467347558 0.07715725033371632 -0.04896657569683278 
-0.02303714586038132 0.05866227834300861 -0.007420393397380806 
0.01535517636525373 -0.01891487875621875 -9.694194746221473e-06 
-0.01046858917867531 0.09065285407201999 -0.06688401862433656 
-0.001928224830817991 0.03936794721548115 -0.03135194485922947 
-1.034802197380914e-06 0.0005898607014960723 -6.100373070576367e-06 
-0.005728472104821381 -0.07642033091401092 0.06962068839041539 
0.02824692265346179 -0.003741729831485458 -0.02191730447115049 
-0.002121550598965505 0.001578910002144016 -7.131449885080151e-06 
1.04497436387627e-06 1.915519345072308e-05 1.197597889573858e-05 
-0.001781066303988106 0.003833608678582341 -0.0002311968699899398 
-0.004357256552414859 -0.03530467883299601 0.03496968649192549 
0.01190973136837232 -0.02057110140507753 -3.399768089355362e-05 
-4.951730721912835e-05 0.004393585171117841 -0.001383311008741219 
-8.821114417213784e-06 0.003211511151188829 -0.004331045203676675 
-0.01731406017200578 0.02559277070697232 -0.007576726386920465 
0.01045411697336006 -0.006745374168774853 -0.001628560994135612 
-0.001801549708036324 0.002382737382986396 -4.060987478503045e-06 
4.342513582584833e-08 7.497340472978368e-05 1.464275267289111e-06 
-0.0001240382037856433 0.0008142815537507207 2.522892767734365e-08 
2.521650687887047e-06 3.905903690375106e-06 2.74852874863969e-07 
-0.000106338482419118 0.001312248584237313 -3.528243733641007e-06 
2.327867194232839e-07 1.212000958068215e-05 5.170772821449755e-06 
-1.034802197380914e-06 0.0005898607014960723 -6.100373070576367e-06 
0.0157534205569226 -0.01462063459812366 8.253448595466672e-07 
-1.034802197380914e-06 0.0005898607014960723 -6.100373070576367e-06 
-0.0002674869291798787 -0.007430065217170804 0.01162325079176366 
2.521650687887047e-06 3.905903690375106e-06 2.74852874863969e-07 
-0.008638190215347669 0.008539682511978364 -0.0009727466228879521 
-0.001069425465631687 -0.04869190143947394 0.05415483191231555 
0.01428186174078272 -0.01137175326209935 -0.0002622098850796206 
-0.001925806467233727 0.03917026352790539 -0.03135205882666861 
-5.2335419246494e-05 -0.04094525317067255 0.0350216417967938 
-4.951730721912835e-05 0.004393585171117841 -0.001383311008741219 
-0.0140039717033878 0.01927940743348473 -0.003623229204826845 
-0.003481885228679052 -0.009124354174964574 0.0159497456868047 
0.009972592661759493 0.02992121711337922 -0.04953287172034119 
-0.0009715486379662205 0.005221230957106074 -0.0013958149245903 
-0.0003203406541976154 0.006600520965146042 -0.005368894764131184 
-1.772970547500965e-05 -0.008368695198243266 0.01495528600734793 
0.02213638718085099 -0.01494264820608446 -0.001231472837557486 
-0.002049845698299884 0.0399845535310068 -0.03135202899077327 
-0.004384030910197687 0.004864123153058527 -0.0001588408895534731 
-0.008469199316939685 0.01179989260414831 -0.00378653197340457 
4.342513582584833e-08 7.497340472978368e-05 1.464275267289111e-06 
0.0220688957340401 -0.02198704267417051 -0.006456986693336658 
-0.04745175516667331 0.04885078092506682 -0.02941067393814328 
-1.283684138266497e-05 1.381251014755843e-05 7.287658459703264e-07 
-0.002187721617201564 0.00303961626566772 -3.281263388449479e-05 
0.004265522306828695 0.004713788058510264 -0.007666101973377187 
0.01362535573591382 -0.009848672476560766 -0.004344994859492118 
-0.006506773981751874 0.009829885883279082 -0.01054724021270589 
-4.951730721912835e-05 0.004393585171117841 -0.001383311008741219 
3.294430006891544e-07 4.538361198633723e-06 7.268821694861125e-06 
-0.01524325355017762 0.01782562166152888 -0.000321593913220144 
-0.01108298703692946 0.01330400430528827 -0.006957494752954672 
8.702365846627324e-08 0.0001499478351474773 2.926310813679157e-06 
-0.01873733877741598 0.02654332191023352 -0.02427943888429103 
-0.007292596239575688 0.008007813227433056 -0.0006455801137795076 
-0.005800982575127294 -0.00512565356006778 0.01645374130816344 
-0.004310351563971663 0.005628239301941554 -5.982389971958089e-05 
-1.034802197380914e-06 0.0005898607014960723 -6.100373070576367e-06 
1.04497436387627e-06 1.915519345072308e-05 1.197597889573858e-05 
-5.037136116788955e-07 2.85361309270461e-06 7.190538576405253e-07 
-0.004310351563971663 0.005628239301941554 -5.982389971958089e-05 
-0.004304972226828489 0.005701311117932341 5.53372312114587e-05 
0.02516517231411478 0.01087224441711085 -0.03247398924622075 
4.342513582584833e-08 7.497340472978368e-05 1.464275267289111e-06 
-0.001556852245058984 0.01161623229659462 -0.005726292690457968 
0.02207054297866073 -0.01401495452784334 -0.00374065278455492 
-0.000471809958697894 0.0005809388400351211 -2.020774676743899e-06 
-1.283684138266497e-05 1.381251014755843e-05 7.287658459703264e-07 
-0.003180776919430814 -0.0359206830873578 0.0347692368185262 
0.01570654732417798 -0.01024097712895615 -0.001382860767577612 
-0.007282428470955096 0.02135360368455353 -0.009789298137311915 
-0.0001240382037856433 0.0008142815537507207 2.522892767734365e-08 
-0.003004402075349084 0.004210237339374952 -0.0002524122395172622 
-0.01112425151852283 0.01340280747710198 -0.0005680703674435913 
-0.003004402075349084 0.004210237339374952 -0.0002524122395172622 
-0.002310091097972447 0.00121751708068591 -1.645380392730922e-06 
4.342513582584833e-08 7.497340472978368e-05 1.464275267289111e-06 
-0.0001240382037856433 0.0008142815537507207 2.522892767734365e-08 
-0.003876255711212764 -0.01130025466919554 0.01692267347939835 
0.01575606659554287 -0.01463457050147526 4.499328823109348e-07 
-3.102967422340721e-06 0.001769587601123118 -1.830439792057046e-05 
-0.000106338482419118 0.001312248584237313 -3.528243733641007e-06 
-0.0002674869291798787 -0.007430065217170804 0.01162325079176366 
1.04497436387627e-06 1.915519345072308e-05 1.197597889573858e-05 
0.00848572598755656 -0.001686936962433438 -0.004910539399152791 
-0.004310351563971663 0.005628239301941554 -5.982389971958089e-05 
-0.0005211261960302762 0.008490595895232619 1.463134961761272e-06 
-0.005274315953635976 0.0192218741335155 -0.009757452199787174 
-0.01132538187794351 0.01142018556987964 -0.001432673671130709 
2.327867194232839e-07 1.212000958068215e-05 5.170772821449755e-06 
-0.003501910528717747 0.003895595926252728 -0.0004084437747938739 
-0.003665471254863168 0.01317320985467399 -0.005115744697926774 
4.342513582584833e-08 7.497340472978368e-05 1.464275267289111e-06 
0.01571598012689566 -0.01398149040531908 5.521383261372292e-07 
1.04497436387627e-06 1.915519345072308e-05 1.197597889573858e-05 
-0.00288739320207065 0.005648500526803747 -0.001092799203202636 
-0.0005025732898983902 0.007301391821514204 -0.002859663016611884 
-2.420060222976773e-06 0.0001976794112112166 1.105475541546314e-07 
-0.0004589732246508203 0.0005671269634707082 -2.749312728522955e-06 
3.096037059851728e-07 9.203655707088181e-06 2.637351408188491e-06 
-0.01604642636278687 0.02071858651363599 -0.009215554680409153 
-0.04129190346555309 0.05572280010024058 -0.03547544544325039 
0.05885445454569 -0.06003514630552576 -0.01659127060516513 
0.07820701698810525 -0.04908401165795449 -0.01713558548116763 
-0.003481885228679052 -0.009124354174964574 0.0159497456868047 
3.294430006891544e-07 4.538361198633723e-06 7.268821694861125e-06 
-0.01268816271184792 0.03532119632103071 -0.01507689455195348 
-0.007820979312164964 0.007870015320693303 0.003198020490913916 
-6.584462378687169e-05 0.0009276927686114435 -0.002509181314979808 
-1.034802197380914e-06 0.0005898607014960723 -6.100373070576367e-06 
-0.01104886041082118 0.0116904136314714 -0.0002746966060028233 
-4.920768379394167e-05 0.004402786482240299 -0.001380671984887278 
0.03955446725431227 -0.04265740781105262 -0.005406597047839076 
-0.00684293134129436 0.009527223373661809 -0.004699049947612506 
0.02035620498257244 -0.02099436393454008 -0.003250943997308889 
-0.001740983287899695 0.003180540713688086 -0.0002312998030213381 
-0.001155046001209212 0.0006087585018852604 -8.228431354251604e-07 
-0.002637139081409579 0.009610954903569112 -0.004878721568309978 
3.096037059851728e-07 9.203655707088181e-06 2.637351408188491e-06 
-1.250732796499789e-05 1.835144932635564e-05 7.996723797231781e-06 
0.006657089085831542 -0.03868757091226999 0.04132152127275067 
-1.391717906468637e-05 0.001425442431914041 -0.0004404099100224832 
0.04491941405720717 -0.05344776619873001 -0.0001211731690602917 
5.044104362642498e-06 7.814518387829736e-06 5.484000063937195e-07 
2.327867194232839e-07 1.212000958068215e-05 5.170772821449755e-06 
-0.1298916213411294 0.1858344306953422 -0.09763905873806611 
-0.004508938314801442 0.009296109943631429 -0.008923975193082185 
-0.02811529572393195 0.02741302115093244 -0.004023627629079704 
3.931608604090071e-06 7.67080887837889e-05 3.120107864178665e-05 
-0.01751730682774497 0.03552265592229056 -0.02592528467337666 
-0.01751730682774497 0.03552265592229056 -0.02592528467337666 
0.117120349842469 -0.1046709633998953 -0.004141069291012462 
0.01017241862293656 -0.008260942571495419 -2.415836439179485e-05 
-5.297595677481062e-06 2.787658077871017e-05 7.512923708501801e-07 
-0.0113264512423676 0.01140106736695097 -0.001444654782585139 
-0.001155046001209212 0.0006087585018852604 -8.228431354251604e-07 
-0.0005288596743378855 0.002544488295903024 4.848461761626975e-07 
3.294430006891544e-07 4.538361198633723e-06 7.268821694861125e-06 
-1.034802197380914e-06 0.0005898607014960723 -6.100373070576367e-06 
-0.007621628890970272 0.008912815397504006 -0.000160797378674322 
-0.003481885228679052 -0.009124354174964574 0.0159497456868047 
-0.03547168778100978 0.05680737168729592 -0.030029087585545 
3.096037059851728e-07 9.203655707088181e-06 2.637351408188491e-06 
0.01391788544567791 -0.02262787453497867 -6.787515340665155e-07 
0.008748341109074792 -0.002648659712592366 -0.006696401121394692 
-0.006551104400434787 0.01138475365716571 -0.001670533074757349 
3.096037059851728e-07 9.203655707088181e-06 2.637351408188491e-06 
4.342513582584833e-08 7.497340472978368e-05 1.464275267289111e-06 
3.294430006891544e-07 4.538361198633723e-06 7.268821694861125e-06 
-5.037136116788955e-07 2.85361309270461e-06 7.190538576405253e-07 
-1.283684138266497e-05 1.381251014755843e-05 7.287658459703264e-07 
-0.001925806467233727 0.03917026352790539 -0.03135205882666861 
-0.003899382856852774 -0.01126872667331201 0.01692439976575991 
0.01096241347577213 -0.02079209760891492 0.01159295113808898 
-0.002277432046361173 0.01198054420067544 -0.000937094624863273 
0.01575606659554287 -0.01463457050147526 4.499328823109348e-07 
-0.0002674869291798787 -0.007430065217170804 0.01162325079176366 
3.096037059851728e-07 9.203655707088181e-06 2.637351408188491e-06 
-0.0002674869291798787 -0.007430065217170804 0.01162325079176366 
-1.283684138266497e-05 1.381251014755843e-05 7.287658459703264e-07 
0.05317730640414005 -0.06490899956601812 -0.005407373467857308 
-0.01133386237477079 0.01463621784412271 -0.005756438696698379 
-3.545912387748276e-05 -0.01673739218170268 0.02991051765120176 
-0.002303123178448535 0.002432982002783121 -3.341909250008235e-05 
-0.0001316893633123811 0.001855385179681977 -0.005018365992710905 
-0.01273172448855899 0.009446374049950988 -8.635974175111968e-05 
3.294430006891544e-07 4.538361198633723e-06 7.268821694861125e-06 
-1.283684138266497e-05 1.381251014755843e-05 7.287658459703264e-07 
-2.420060222976773e-06 0.0001976794112112166 1.105475541546314e-07 
-0.0005288596743378855 0.002544488295903024 4.848461761626975e-07 
-0.05494340838985844 0.04900102333758993 -0.02884706097256569 
4.342513582584833e-08 7.497340472978368e-05 1.464275267289111e-06 
-0.0005693555009645408 0.002995134295177455 -0.0002342740275407619 
-1.149713870293219e-05 0.00122776252364828 -0.0004405205675294833 
0.01575606659554287 -0.01463457050147526 4.499328823109348e-07 
-0.01468444566694941 0.02235098604529228 -0.006855360974171942 
-7.73417976731435e-05 0.002155455538701994 -0.002949702651782517 
-0.01594591732311805 0.0213263024025336 -0.007768371103501419 
-5.037136116788955e-07 2.85361309270461e-06 7.190538576405253e-07 
2.327867194232839e-07 1.212000958068215e-05 5.170772821449755e-06 
-0.002187721617201564 0.00303961626566772 -3.281263388449479e-05 
-0.003627880167374917 0.009089315666861051 -0.003230476898613949 
0.02213633402895484 -0.01501762994326563 -0.001232936458213616 
-0.007446105680268732 -0.008619250496836125 0.01900923023649746 
-0.000254495960203052 0.005672830408231274 -0.002859714751699956 
1.04497436387627e-06 1.915519345072308e-05 1.197597889573858e-05 
0.04308366997844773 -0.01283263767532441 -0.0186225655044161 
-4.008235777792855e-05 0.0006530664715533852 1.024571033592858e-07 
-0.0004589732246508203 0.0005671269634707082 -2.749312728522955e-06 
-0.01288232929189092 0.0187950466417462 -0.005236198151361875 
-0.01594591732311805 0.0213263024025336 -0.007768371103501419 
-2.648774403204528e-06 1.393830560171909e-05 3.758604545781999e-07 
0.021974115230124 -0.07015355668401577 0.01037375014312378 
-0.01379570341159338 0.02984065526509066 -0.01373366821371767 
-0.0113264512423676 0.01140106736695097 -0.001444654782585139 
-0.03738425793030954 0.03082428664889729 -0.004634461455374481 
0.02369982985159894 -0.007471987492709308 -0.007818925650430228 
-0.006365694541443796 0.004723132842105219 -4.319576015919465e-05 
0.01391788544567791 -0.02262787453497867 -6.787515340665155e-07 
-0.002194311148440756 0.004778883342834302 -0.003015828160352988 
-0.001740983287899695 0.003180540713688086 -0.0002312998030213381 
-0.03303323187946317 0.04968783839997362 -0.006685463107562331 
-2.420060222976773e-06 0.0001976794112112166 1.105475541546314e-07 
-0.02217459212377572 0.01870217093621241 0.00480302553072263 
-5.037136116788955e-07 2.85361309270461e-06 7.190538576405253e-07 
0.008897107322010175 -0.008343501830857558 -1.810535874313301e-06 
0.01428111305310061 -0.01275333507730403 -5.744620316169697e-08 
-0.01594591732311805 0.0213263024025336 -0.007768371103501419 
4.342513582584833e-08 7.497340472978368e-05 1.464275267289111e-06 
0.02499625436126264 -0.01131966729179427 -0.01292297484741656 
1.04497436387627e-06 1.915519345072308e-05 1.197597889573858e-05 
-0.0005288596743378855 0.002544488295903024 4.848461761626975e-07 
3.294430006891544e-07 4.538361198633723e-06 7.268821694861125e-06 
-0.0005288596743378855 0.002544488295903024 4.848461761626975e-07 
-0.002194311148440756 0.004778883342834302 -0.003015828160352988 
-1.283684138266497e-05 1.381251014755843e-05 7.287658459703264e-07 
-1.034802197380914e-06 0.0005898607014960723 -6.100373070576367e-06 
-0.008638190215347669 0.008539682511978364 -0.0009727466228879521 
-0.0007326743413634891 0.002626083730167001 -0.0001959265072772885 
-0.00684293134129436 0.009527223373661809 -0.004699049947612506 
2.521650687887047e-06 3.905903690375106e-06 2.74852874863969e-07 
-0.006551104400434787 0.01138475365716571 -0.001670533074757349 
1.04497436387627e-06 1.915519345072308e-05 1.197597889573858e-05 
6.995344376213835e-07 3.636721413669274e-05 1.55019138290376e-05 
0.07406234935487564 -0.1086739058243192 0.03952135550374505 
1.04497436387627e-06 1.915519345072308e-05 1.197597889573858e-05 
2.754593933352255e-06 1.602684110079062e-05 5.445034909202803e-06 
-0.002714384977913693 0.00462043498011399 -0.0002191522088248576 
-0.0005288596743378855 0.002544488295903024 4.848461761626975e-07 
2.521650687887047e-06 3.905903690375106e-06 2.74852874863969e-07 
-0.02417298989817165 0.03386175188849536 -0.008689930141080802 
-0.005785029914605186 0.008705974691420766 -0.001967018733878479 
6.19403878231574e-07 1.840993881037541e-05 5.27135865723264e-06 
-0.01594591732311805 0.0213263024025336 -0.007768371103501419 
-0.005274315953635976 0.0192218741335155 -0.009757452199787174 
-1.283684138266497e-05 1.381251014755843e-05 7.287658459703264e-07 
-2.420060222976773e-06 0.0001976794112112166 1.105475541546314e-07 
-0.01368589952430002 0.01905449313572075 -0.009398141190724994 
-0.002637139081409579 0.009610954903569112 -0.004878721568309978 
-0.03267174297124118 0.05013133899820537 -0.03045152760630832 
-0.03145905346334584 0.04154195781951642 -0.00880797250343923 
-0.003481553269771324 -0.009119817731078127 0.01595703523582725 
0.04705198644365918 -0.04301035249961159 -0.0007020280045470735 
-0.0113264512423676 0.01140106736695097 -0.001444654782585139 
-0.0002126768058898181 0.002624497486152486 -7.056720090648949e-06 
-0.0005288596743378855 0.002544488295903024 4.848461761626975e-07 
0.0224598047793959 -0.02672406925066334 -6.059327766228861e-05 
-0.008032652327298237 0.008227035771328873 -0.0001332628146225056 
-0.006024462810164827 0.006170286029925341 -9.995235712971214e-05 
-0.0001240382037856433 0.0008142815537507207 2.522892767734365e-08 
2.327867194232839e-07 1.212000958068215e-05 5.170772821449755e-06 
0.03151215275517629 -0.02926910692535497 8.976487197898899e-07 
-0.003338223449610983 0.003729489597661431 2.15313795471515e-05 
2.327867194232839e-07 1.212000958068215e-05 5.170772821449755e-06 
-0.001815500093644366 0.005124963303308646 -0.001627331965609588 
2.521650687887047e-06 3.905903690375106e-06 2.74852874863969e-07 
-0.0002405001593546163 0.003918460030087401 6.314138845588067e-07 
-0.002310091097972447 0.00121751708068591 -1.645380392730922e-06 
-0.001620435149149549 -0.01795700294009544 0.02098400246241947 
3.294430006891544e-07 4.538361198633723e-06 7.268821694861125e-06 
0.01311184527458746 -0.0661338420756014 0.03812380982928153 
-0.0005288596743378855 0.002544488295903024 4.848461761626975e-07 
9.889637680886624e-07 1.362206480000838e-05 2.179645590732758e-05 
-0.0001240382037856433 0.0008142815537507207 2.522892767734365e-08 
-0.008469199316939685 0.01179989260414831 -0.00378653197340457 
0.02352607663739793 -0.02150526138513812 -0.0003510147562054174 
-0.004334018343928605 0.006878873499977146 -0.000485078681737426 
-0.000917946314924419 0.001134252939958841 -5.497803627574767e-06 
5.230066943010328e-06 9.579409884169672e-05 5.987066416651558e-05 
0.01855677748673997 -0.07913838243508198 0.05386571797303406 
-0.0005693555009645408 0.002995134295177455 -0.0002342740275407619 
0.02265793502400476 -0.01060859245590873 -0.006455674749381505 
-0.02634955104214467 0.03366213259255883 -0.004080398560248038 
-0.002121881653871855 0.001574372377833924 -1.44002879655178e-05 
-0.04127419564264483 0.01875679356104237 -0.0101210715957417 
-0.003860326929251983 0.004758818299620446 -0.0002454246410065504 
-0.2470193786661838 0.08278311208061281 0.05406702235200569 
0.01122991480966212 -0.01336205815231391 -3.029750351416588e-05 
-0.02618141109252502 0.0725110693368866 -0.06865269624762593 
0.02480618779362948 -0.002367707427670756 -0.005675611354792502 
2.327867194232839e-07 1.212000958068215e-05 5.170772821449755e-06 
-0.01357861766823024 0.01403045497025471 -0.003609123832464581 
-0.002714384977913693 0.00462043498011399 -0.0002191522088248576 
-0.002121881653871855 0.001574372377833924 -1.44002879655178e-05 
-0.0001316893633123811 0.001855385179681977 -0.005018365992710905 
-0.003501910528717747 0.003895595926252728 -0.0004084437747938739 
0.01676077673782353 -0.008799931848922827 -0.01132671885334447 
0.0131006996810891 -0.01431687200549168 -0.003458928512967389 
-0.002714384977913693 0.00462043498011399 -0.0002191522088248576 
-0.01043816013655693 0.009258506115401209 -0.0007932305485246203 
-0.003004402075349084 0.004210237339374952 -0.0002524122395172622 
-0.007268310437230131 0.006691275064442536 -0.0002072528570699588 
-0.001814466002689421 0.004535103420031755 -0.001621232105105133 
-5.037136116788955e-07 2.85361309270461e-06 7.190538576405253e-07 
-0.002121881653871855 0.001574372377833924 -1.44002879655178e-05 
-0.0005693555009645408 0.002995134295177455 -0.0002342740275407619 
-0.01157009926173806 0.01741194548425134 -0.003934043281113311 
-0.003004402075349084 0.004210237339374952 -0.0002524122395172622 
-0.03305688714589931 0.04014725154165245 -0.01467562773788914 
-0.01006123999327366 0.0107017379045072 -0.0004056408133032573 
-0.01214048543426327 0.009245630250383732 -0.001466657990934026 
-0.01241761919781904 0.007452248766833979 0.002859167857724532 
0.008897107322010175 -0.008343501830857558 -1.810535874313301e-06 
3.294430006891544e-07 4.538361198633723e-06 7.268821694861125e-06 
0.01122991480966212 -0.01336205815231391 -3.029750351416588e-05 
-0.004679011388158422 0.005240340343720448 -0.0001589403691586652 
-0.01277737547372389 0.00172600113962937 0.001523673777383033 
0.01386008359851138 -0.03034346762142783 0.01495470825951955 
-6.584462378687169e-05 0.0009276927686114435 -0.002509181314979808 
4.342513582584833e-08 7.497340472978368e-05 1.464275267289111e-06 
0.02184271278867398 -0.01468806226028029 -0.001219883664021301 
-0.002711483230283338 0.004953792424837769 -0.007672209516870069 
-0.0105910910664776 0.01337426959810789 -0.003800931796460565 
-6.584462378687169e-05 0.0009276927686114435 -0.002509181314979808 
-0.001057722258820478 0.005088981060852231 9.691100245081254e-07 
-0.006551104400434787 0.01138475365716571 -0.001670533074757349 
-0.01751730682774497 0.03552265592229056 -0.02592528467337666 
-0.005785029914605186 0.008705974691420766 -0.001967018733878479 
-0.02623097786045922 0.0316511386234125 -0.007439518781305022 
1.04497436387627e-06 1.915519345072308e-05 1.197597889573858e-05 
2.521650687887047e-06 3.905903690375106e-06 2.74852874863969e-07 
-0.000534976503152025 -0.01486005768231203 0.02324642967530982 
-0.004508938314801442 0.009296109943631429 -0.008923975193082185 
-0.001801549708036324 0.002382737382986396 -4.060987478503045e-06 
-0.001978141646399609 -0.001775011008396133 0.003669600684444909 
0.03068277684220705 -0.01491775805156064 -0.006515813653163655 
-0.008961098499266653 0.01172962809267353 -0.006943095109294231 
3.294430006891544e-07 4.538361198633723e-06 7.268821694861125e-06 
1.04497436387627e-06 1.915519345072308e-05 1.197597889573858e-05 
0.00216495571347499 -0.0005811353155588377 -0.003605304841502798 
-1.283684138266497e-05 1.381251014755843e-05 7.287658459703264e-07 
-0.01873733877741598 0.02654332191023352 -0.02427943888429103 
-0.000962342914208452 0.003087278857982953 -0.0002344593086209988 
1.04497436387627e-06 1.915519345072308e-05 1.197597889573858e-05 
-0.001801549708036324 0.002382737382986396 -4.060987478503045e-06 
0.09325789697157065 -0.06915800990079467 -0.02013573923530541 
0.01203320753639522 -0.005198160362714337 0.01063963238813759 
-0.01652836494024097 0.02007360185755658 -0.007337766877331414 
-0.007050457364781328 -0.0003291663549159081 -0.001977186817843229 
-0.01220313723464488 0.01714858677795423 -0.002612240937730565 
-0.0005693555009645408 0.002995134295177455 -0.0002342740275407619 
2.521650687887047e-06 3.905903690375106e-06 2.74852874863969e-07 
-0.05299574541199052 0.09012136205250132 -0.03809946690245837 
-0.00564875715558462 0.005804086936162296 -0.0009259237695917623 
1.04497436387627e-06 1.915519345072308e-05 1.197597889573858e-05 
-0.001155046001209212 0.0006087585018852604 -8.228431354251604e-07 
-1.034802197380914e-06 0.0005898607014960723 -6.100373070576367e-06 
0.1346002551065563 -0.06829943259034395 -0.06438543186957203 
2.204513797110551e-07 0.0003748867802864458 7.278317265873377e-06 
3.096037059851728e-07 9.203655707088181e-06 2.637351408188491e-06 
0.01560326549861215 -0.02054346855775413 -9.745573483173954e-06 
-0.002186671446007428 0.003058761757599018 -2.083637817666245e-05 
-0.001620980197989508 -0.01797831957549991 0.02097615859473989 
0.04933194704820855 -0.02533054723808728 -0.01284481308927095 
0.02206986638753189 -0.02199276016497263 -0.006458427274948902 
-0.001801549708036324 0.002382737382986396 -4.060987478503045e-06 
0.01560326549861215 -0.02054346855775413 -9.745573483173954e-06 
-0.003501552708517539 0.003979769672834483 -0.0004043415728167249 
-0.02808505867698314 0.03835806904206793 -0.01858322995986144 
0.1136218882353296 -0.09014646040449997 -0.02338000999364972 
1.04497436387627e-06 1.915519345072308e-05 1.197597889573858e-05 
-0.03642162233199228 0.02773690090365329 -0.004400002106118905 
-0.000106338482419118 0.001312248584237313 -3.528243733641007e-06 
-0.02522028687229633 -0.02563820306889813 0.04212361232373646 
1.309619431765494e-07 0.0002249242796144665 4.383952455574478e-06 
2.521650687887047e-06 3.905903690375106e-06 2.74852874863969e-07 
7.568131909474127e-06 1.172845394343478e-05 8.193899799841577e-07 
-1.283684138266497e-05 1.381251014755843e-05 7.287658459703264e-07 
-5.297595677481062e-06 2.787658077871017e-05 7.512923708501801e-07 
0.008897107322010175 -0.008343501830857558 -1.810535874313301e-06 
-0.0180043266228573 0.03429598930038193 -0.02591498321990167 
-0.01390141338259015 0.001233777496953015 0.01635118725295472 
-0.002008144232763611 0.002056765744863041 -3.331952415355809e-05 
1.04497436387627e-06 1.915519345072308e-05 1.197597889573858e-05 
-0.001801549708036324 0.002382737382986396 -4.060987478503045e-06 
-0.002115467799417542 0.01017799837099383 1.933648903680019e-06 
-0.005081394618796618 0.01406081135307747 -0.00917654586392878 
-0.0005693555009645408 0.002995134295177455 -0.0002342740275407619 
0.05885445454569 -0.06003514630552576 -0.01659127060516513 
-0.003481885228679052 -0.009124354174964574 0.0159497456868047 
0.1177094136820158 -0.1200461469432322 -0.03317218734725844 
0.01027561036814204 -0.004582401153651034 -0.002826372341213832 
-0.0002947441549850393 0.0003883364902232594 5.070596200854376e-06 
1.04497436387627e-06 1.915519345072308e-05 1.197597889573858e-05 
-0.01594559357336869 0.02133549393769176 -0.007765726632932275 
-0.01214048543426327 0.009245630250383732 -0.001466657990934026 
-0.003004402075349084 0.004210237339374952 -0.0002524122395172622 
0.022136281771323 -0.01509260557013502 -0.001234401483012533 
6.19403878231574e-07 1.840993881037541e-05 5.27135865723264e-06 
-0.01615276464094839 0.02203083469044047 -0.009219081822379311 
-0.03982427056024394 0.0510950682534132 -0.0120708800755159 
-1.283684138266497e-05 1.381251014755843e-05 7.287658459703264e-07 
-0.002714384977913693 0.00462043498011399 -0.0002191522088248576 
-0.004384030910197687 0.004864123153058527 -0.0001588408895534731 
-0.0005693555009645408 0.002995134295177455 -0.0002342740275407619 
-4.951730721912835e-05 0.004393585171117841 -0.001383311008741219 
0.01504926994987591 -0.02380572458755627 0.01330647032497481 
-0.007621312734438851 0.008922014306887761 -0.0001581600824611161 
4.342513582584833e-08 7.497340472978368e-05 1.464275267289111e-06 
0.08481362694850984 -0.1003101093919972 -0.005462671092433325 
-0.02124210160221407 0.02883083497853726 -0.01388416337154605 
0.06640865964101689 -0.04527775512472834 -0.003703216993930596 
-0.001155046001209212 0.0006087585018852604 -8.228431354251604e-07 
-0.02155642909451178 0.01536270202825381 0.01375295541561713 
-0.002187721617201564 0.00303961626566772 -3.281263388449479e-05 
-0.00374286683751489 -0.01640393364045816 0.02096175610878372 
-9.903501702207063e-05 0.008787176979166729 -0.002766630717752932 
0.02466609507316336 -0.01266536732514892 -0.006422355388679161 
-2.420060222976773e-06 0.0001976794112112166 1.105475541546314e-07 
0.0130770238371819 -0.08658301330559401 -0.06855253520315062 
-0.0001316893633123811 0.001855385179681977 -0.005018365992710905 
-0.003465134385039461 0.001826275833492553 -2.467323644644002e-06 
0.01135205835293451 -0.005852171165028519 -0.02921099095397649 
0.022136281771323 -0.01509260557013502 -0.001234401483012533 
-1.283684138266497e-05 1.381251014755843e-05 7.287658459703264e-07 
0.01575606659554287 -0.01463457050147526 4.499328823109348e-07 
0.01728330676502021 -0.01559044437455422 -1.734209762691138e-05 
0.06105473645244447 -0.04512594424956302 -0.09244730693973394 
0.022136281771323 -0.01509260557013502 -0.001234401483012533 
-6.584462378687169e-05 0.0009276927686114435 -0.002509181314979808 
0.01560326549861215 -0.02054346855775413 -9.745573483173954e-06 
-1.772970547500965e-05 -0.008368695198243266 0.01495528600734793 
0.02669130028306302 -0.02503039947119719 -5.430754447124737e-06 
-0.002011245137024607 0.003826346826956072 -5.162182004199624e-05 
-0.00578552918557802 0.008708825155051607 -0.001966298992024101 
-0.00226984517467845 0.005725030425452568 -0.0002308145890849091 
3.096037059851728e-07 9.203655707088181e-06 2.637351408188491e-06 
-0.0005693555009645408 0.002995134295177455 -0.0002342740275407619 
0.02206986638753189 -0.02199276016497263 -0.006458427274948902 
2.419870582255623e-06 4.285143322630943e-05 3.121897951359823e-05 
-0.03020979623533312 0.05962907228262766 -0.02114879452467493 
-0.0202951248300663 0.02674648531882916 -0.02374403755577152 
3.294430006891544e-07 4.538361198633723e-06 7.268821694861125e-06 
-0.0005693555009645408 0.002995134295177455 -0.0002342740275407619 
-1.116223444991662e-05 0.001016066036383441 8.398708080793892e-06 
-1.283684138266497e-05 1.381251014755843e-05 7.287658459703264e-07 
-0.0005693555009645408 0.002995134295177455 -0.0002342740275407619 
-0.02124210160221407 0.02883083497853726 -0.01388416337154605 
0.01560326549861215 -0.02054346855775413 -9.745573483173954e-06 
-0.0164855120467922 0.09819076747376067 -0.12923620858915 
-0.002187721617201564 0.00303961626566772 -3.281263388449479e-05 
0.04232598844898525 -0.03996150824287634 -0.02392908562358725 
0.07253042544162361 -0.0009029563893361486 -0.05559579988183262 
-0.0002674869291798787 -0.007430065217170804 0.01162325079176366 
1.04497436387627e-06 1.915519345072308e-05 1.197597889573858e-05 
-0.01240800582155335 0.0135669418735343 0.007448801691167054 
-0.01043946848177921 0.009227266060878273 -0.0008103813335700279 
2.521650687887047e-06 3.905903690375106e-06 2.74852874863969e-07 
0.01391871174175775 -0.02259381000629964 1.718521201776256e-05 
3.294430006891544e-07 4.538361198633723e-06 7.268821694861125e-06 
1.04497436387627e-06 1.915519345072308e-05 1.197597889573858e-05 
-0.002310091097972447 0.00121751708068591 -1.645380392730922e-06 
0.01728330676502021 -0.01559044437455422 -1.734209762691138e-05 
-2.420060222976773e-06 0.0001976794112112166 1.105475541546314e-07 
0.0126039301221927 -0.04358291170255157 0.03059961291549023 
-0.002121881653871855 0.001574372377833924 -1.44002879655178e-05 
-1.283684138266497e-05 1.381251014755843e-05 7.287658459703264e-07 
-1.149713870293219e-05 0.00122776252364828 -0.0004405205675294833 
3.096037059851728e-07 9.203655707088181e-06 2.637351408188491e-06 
1.04497436387627e-06 1.915519345072308e-05 1.197597889573858e-05 
0.05224414623596494 -0.02892308022933361 0.002697220679655702 
-0.01745132336309395 0.02223764186323721 -0.02794918254683624 
-0.0004589732246508203 0.0005671269634707082 -2.749312728522955e-06 
-0.0002949772664414253 0.0003762160013116139 -9.98193348701845e-08 
-0.01792216270496151 0.02345928894912798 -0.01388626864729837 
-8.646100384826657e-06 0.003511401516004997 -0.004325198923451645 
2.521650687887047e-06 3.905903690375106e-06 2.74852874863969e-07 
-0.007268310437230131 0.006691275064442536 -0.0002072528570699588 
-2.420060222976773e-06 0.0001976794112112166 1.105475541546314e-07 
0.01311889267033115 -0.005023619264791966 -0.004878270759105918 
0.06462173695513164 -0.06834932852771586 0.03022924911043635 
-0.003465134385039461 0.001826275833492553 -2.467323644644002e-06 
4.342513582584833e-08 7.497340472978368e-05 1.464275267289111e-06 
-1.034802197380914e-06 0.0005898607014960723 -6.100373070576367e-06 
-0.01873733877741598 0.02654332191023352 -0.02427943888429103 
2.521650687887047e-06 3.905903690375106e-06 2.74852874863969e-07 
-6.584462378687169e-05 0.0009276927686114435 -0.002509181314979808 
-0.01594591732311805 0.0213263024025336 -0.007768371103501419 
-0.0005079448809285913 0.0113647264743047 -0.00570741214358177 
-6.584462378687169e-05 0.0009276927686114435 -0.002509181314979808 
-0.005175116764390962 0.006537506988499908 -0.002819724943086972 
-4.008235777792855e-05 0.0006530664715533852 1.024571033592858e-07 
-0.0005683091704168883 0.003014280483539449 -0.0002222970423358915 
-6.898643048979002e-05 0.00736667666107647 -0.002643140753890745 
-0.002187721617201564 0.00303961626566772 -3.281263388449479e-05 
-0.01594591732311805 0.0213263024025336 -0.007768371103501419 
-0.0005288596743378855 0.002544488295903024 4.848461761626975e-07 
1.04497436387627e-06 1.915519345072308e-05 1.197597889573858e-05 
-0.006506773981751874 0.009829885883279082 -0.01054724021270589 
-0.002637139081409579 0.009610954903569112 -0.004878721568309978 
-0.001620980197989508 -0.01797831957549991 0.02097615859473989 
-0.0003721162966160971 0.002442843160245273 7.457881745055103e-08 
-0.0002949772664414253 0.0003762160013116139 -9.98193348701845e-08 
-0.0003139215713027415 0.002556255150474237 -0.002509129423628328 
-0.002780229726738049 0.005548125651195565 -0.002728333637636375 
-0.003004402075349084 0.004210237339374952 -0.0002524122395172622 
-0.008960464473176197 0.01174801362976189 -0.006937808215291923 
-0.01157009926173806 0.01741194548425134 -0.003934043281113311 
-0.0005693555009645408 0.002995134295177455 -0.0002342740275407619 
0.02437639573485082 -0.01228132040882722 -0.006421903712849297 
-0.008469199316939685 0.01179989260414831 -0.00378653197340457 
3.294430006891544e-07 4.538361198633723e-06 7.268821694861125e-06 
0.01015426573122402 -0.004365635376732187 -0.001311500728921692 
1.04497436387627e-06 1.915519345072308e-05 1.197597889573858e-05 
1.04497436387627e-06 1.915519345072308e-05 1.197597889573858e-05 
-0.008469199316939685 0.01179989260414831 -0.00378653197340457 
-0.01604642636278687 0.02071858651363599 -0.009215554680409153 
-0.002260155920280882 0.005706574331248251 -0.005525010089709387 
2.327867194232839e-07 1.212000958068215e-05 5.170772821449755e-06 
-0.001057722258820478 0.005088981060852231 9.691100245081254e-07 
-0.008961098499266653 0.01172962809267353 -0.006943095109294231 
-0.05224714405148271 0.04889727123766129 0.001113309355882202 
0.02237103255729988 -0.02089649400763868 -0.0003518370721363788 
3.096037059851728e-07 9.203655707088181e-06 2.637351408188491e-06 
2.327867194232839e-07 1.212000958068215e-05 5.170772821449755e-06 
2.327867194232839e-07 1.212000958068215e-05 5.170772821449755e-06 
-0.0005693555009645408 0.002995134295177455 -0.0002342740275407619 
1.04497436387627e-06 1.915519345072308e-05 1.197597889573858e-05 
-1.031493850627864e-05 1.771924949666028e-05 1.00299329610505e-06 
-0.006506773981751874 0.009829885883279082 -0.01054724021270589 
-2.165795990877748e-05 0.003225319524829765 -0.004330315619780352 
-1.034802197380914e-06 0.0005898607014960723 -6.100373070576367e-06 
-6.584462378687169e-05 0.0009276927686114435 -0.002509181314979808 
-0.01258713999868939 0.01983621918888197 -0.001243920251807109 
-0.0131022407684083 0.02276949519579379 -0.003341061664930989 
-0.04958528796514881 0.06023012131837632 -0.02201098600115549 
-1.283684138266497e-05 1.381251014755843e-05 7.287658459703264e-07 
-0.006832553664016244 0.03594198200016984 -0.00281128513069373 
-0.008469199316939685 0.01179989260414831 -0.00378653197340457 
-0.002820723413278366 0.005932682063236883 -0.0002226802128478503 
-0.005785029914605186 0.008705974691420766 -0.001967018733878479 
0.02246292119525625 -0.02671099007629551 -5.76832642040729e-05 
-0.02715725358689119 0.02806091035890949 -0.007218258588273326 
-0.002121881653871855 0.001574372377833924 -1.44002879655178e-05 
-0.03438426000032958 0.03741907600615426 -0.006704807339046106 
-0.001138712006013139 0.00599026922163752 -0.0004685478894378686 
-0.0001240382037856433 0.0008142815537507207 2.522892767734365e-08 
0.01928493721697355 -0.0183525681594174 -0.0003795373574659958 
4.342513582584833e-08 7.497340472978368e-05 1.464275267289111e-06 
-0.006506773981751874 0.009829885883279082 -0.01054724021270589 
0.03748059119951679 -0.03375708847842161 -0.0003546252559476841 
-0.01524291744588661 0.01783480878466678 -0.0003189571289831722 
-0.0002206037225092836 -0.001146666942905118 -0.001474924732731137 
-8.821114417213784e-06 0.003211511151188829 -0.004331045203676675 
0.01122991480966212 -0.01336205815231391 -3.029750351416588e-05 
0.04427251718492065 -0.03018519535970075 -0.00246880608271964 
-0.008961098499266653 0.01172962809267353 -0.006943095109294231 
3.096037059851728e-07 9.203655707088181e-06 2.637351408188491e-06 
-0.003004402075349084 0.004210237339374952 -0.0002524122395172622 
-0.008469199316939685 0.01179989260414831 -0.00378653197340457 
-0.008404495921912444 0.02087598158644637 -0.009819429613199525 
0.01862435808617138 -0.03808799237173287 0.01772860017579949 
-0.003413131949081549 0.06684697314300826 -0.07389856738293994 
-0.003465134385039461 0.001826275833492553 -2.467323644644002e-06 
-0.00570854282628934 0.0008703177726069719 0.006672950633994723 
-0.01718570017320812 0.04368791281368957 -0.02055552181722673 
-0.001586590663683168 0.007633482847705848 1.452223993774533e-06 
0.0476861980308865 -0.03921327480580313 -0.02683383868829688 
2.327867194232839e-07 1.212000958068215e-05 5.170772821449755e-06 
-0.000106338482419118 0.001312248584237313 -3.528243733641007e-06 
1.04497436387627e-06 1.915519345072308e-05 1.197597889573858e-05 
